solver_type L2R_L2LOSS_SVC
nr_class 2
label 1 -1
nr_feature 7999
bias 0.0000000000000000
w
0.064591216210017400 
-0.10631073574462381 
-0.076597979547772340 
-0.076906915645476350 
-0.016139566592606370 
-0.068577097286700390 
-0.073762534043983220 
-0.077628541448127420 
0.097248371625627370 
0.087106321143189040 
0.085556986461668830 
0.076024359083037740 
-0.028347758936321560 
0.035332685550814440 
-0.060981179954032114 
0.062010937102244264 
-0.029340111957813712 
-0.050218087084072380 
0.034487562112769050 
-0.020131320843784477 
0.063658202058888820 
0.035874758950362110 
0.055856912185122760 
0.076785167804651740 
0.0082671604461940480 
0.044694200864492904 
0.045111723156494720 
-0.046177445734961820 
0.041134490016995520 
-0.054505333549491795 
0.073763060198654490 
-0.025412528761620857 
-0.034633652462734350 
0.067422552481584850 
-0.039248648979543846 
0.032075567061149700 
-0.033349609529195390 
0.020642338536268866 
-0.042968828732736476 
-0.037488937785130040 
-0.067344074727418930 
-0.030037862669664125 
-0.054031265894056830 
-0.020185016937729162 
0.048533784066386525 
0.035193734602566536 
-0.068125700912772660 
0.042258804255220060 
-0.032834172512579990 
-0.030444964262207790 
-0.012000579059117592 
0.058400573097007120 
-0.048836199870568725 
-0.071742227448682060 
0.035719530241444565 
-0.049252582792127040 
-0.061264764682394515 
-0.036143262848005070 
0.042785650434174680 
-0.033183104017394590 
-0.036699632168328370 
-0.018555352580858803 
-0.024754821085004403 
0.054140620578946766 
-0.049151996901376505 
-0.029540843556969586 
0.017344089195788590 
-0.0052595761457398180 
-0.013856688499069769 
0.030635607965083158 
0.036947764937256730 
-0.019003968587669826 
-0.021443006255803837 
-0.031326902263203420 
0.021143622034469796 
-0.033715669426794120 
-0.032297579052287370 
-0.024785955183982930 
-0.028967680844903770 
0.041891903031920120 
0.078188874909315810 
0.015559024702025387 
-0.025302728188186286 
-0.028960387445758264 
-0.038708417025086940 
-0.020758166893183005 
-0.024749763142537552 
0.050643530227681456 
-0.033377227607604570 
-0.036369079638375780 
-0.046405296987222390 
-0.055704960364104230 
0.026942579284998904 
-0.042534721516193155 
0.039439870528983366 
-0.049810091609719860 
0.055184545993468300 
-0.024968973333105302 
-0.017731030903351163 
-0.035757685483217144 
-0.016419263297240746 
0.029693648212997192 
-0.026689465326025330 
0.027393112664450750 
0.017945257459416390 
-0.021555453646183373 
-0.029045922809700052 
0.041797232381731620 
-0.010598417056312220 
-0.022522387521383840 
0.086999800571917110 
-0.024749763142537552 
0.028084655347018546 
-0.019965464931873615 
-0.0089870815260090830 
0.020797714107125272 
-0.021309849704804155 
-0.024823683162883928 
-0.013531193206072725 
-0.073135759299327780 
-0.057783435361238220 
-0.034700433155860670 
-0.022426278409439265 
-0.010816415775894950 
-0.030348137201809670 
0.022323333217427710 
-0.018729687415474504 
0.052245475226126420 
0.071231858850761780 
-0.024108373666843676 
0.066517017283995950 
0.034552114132379255 
-0.016564419302511360 
-0.052595244350101880 
0.051527382765811010 
0.046270677150055534 
0.055269806405458390 
-0.037049384123165500 
-0.080273115469248590 
0.056334557025997190 
0.11261608388500649 
-0.024279547250037656 
-0.041688536300131340 
0.053145770134317990 
0.020756401459302663 
-0.036352930980978320 
-0.023645258733298430 
-0.023573172036508590 
-0.057085814184316710 
-0.052456837299254520 
0.072652722787747470 
-0.020245823584704900 
-0.050634017657607600 
-0.048019723488130030 
-0.032909975061289900 
0.036314461274917297 
-0.034825202803050200 
-0.027970620203660890 
0.034524636710584170 
0.064390049017888650 
-0.031489921061832020 
0.064394583382938000 
-0.042288128337531344 
0.018653086294256237 
-0.028465896599708900 
-0.0081420000358291940 
-0.010617191907278268 
-0.053697949882998336 
0.040068465275148804 
0.034074357718563104 
-0.032146832869170030 
0.024125771977759160 
-0.019615144726067995 
-0.018261510493187732 
-0.041889331551656306 
0.018116178357501185 
-0.011146515256451158 
-0.041889331551656306 
0.022474743385803155 
0.020814032094787976 
0.061922064571613075 
-0.028724783056674866 
-0.010261683671099718 
-0.0092991693429163100 
0.014438455364779060 
0.015128069610714738 
-0.041564163971759890 
-0.038288157255831505 
-0.046382437053728770 
0.0054895486272883800 
-0.036067914261624937 
0.030306799576754710 
0.051321675678941330 
-0.031522592012010440 
-0.046926603015571756 
-0.021916818471283774 
-0.044097954022667640 
-0.017462373122217700 
0.024320456659851660 
-0.023067580588195257 
0.023976860903859584 
-0.015279273182875340 
0.048981779353107870 
0.034059246400242923 
0.029571851815648868 
0.043042258874445384 
-0.050159451711449030 
0.037974268627716070 
-0.017780190028083575 
-0.0019966511440231136 
-0.054270700817783900 
0.028607000134020906 
-0.040991295714155020 
0.053310325892628340 
-0.029688191119497400 
0.053771151304851876 
-0.018468443231204710 
0.0070820470849702020 
-0.015332629670477060 
0.040123569834883285 
-0.022404764129948850 
-0.024532648094561994 
0.027260187077917067 
0.019129523550216927 
0.051186771534258790 
-0.014304399328991056 
-0.024182818798768522 
-0.015601910993703975 
-0.010229723093546207 
0.030719158171048956 
-0.015996442197954742 
-0.0039889873924719700 
-0.022593520062325644 
-0.018380107248891157 
-0.011165565624094041 
-0.017063769511349552 
-0.017575318149872045 
-0.010597387203492210 
0.021909973242496644 
-0.025238030156865360 
0.016650516809438298 
0.012470190012529947 
0.037900008744114580 
-0.0092484947036767100 
0.024756877832014003 
0.021185806811336370 
0.012494072523334530 
0.040705376390013860 
0.015398522469029174 
-0.036790321078909886 
-0.018647905895391427 
-0.029904690411734276 
-0.035370723748688340 
0.019575903700678240 
0.046183212730557890 
-0.021774305412816800 
-0.018428466487274400 
0.012415250421387896 
0.031603314565603460 
-0.021669070197494790 
-0.035557434952266610 
-0.027019091265764650 
0.044533981619544310 
-0.028292190398259854 
-0.017101649674573870 
0.027683001851816113 
-0.024631170363667992 
-0.017888096314963967 
0.023834147605982226 
-0.022650605398641842 
0.014457011332238860 
-0.024216119900753157 
0.023871525293123377 
-0.025171477221372510 
0.050651369756704880 
0.035357210446100110 
0.017709210020224134 
-0.021034353689261810 
0.020976104696534076 
-0.028463100248037346 
0.011951442363283958 
0.022360086197150277 
-0.036240008079417520 
0.022439563155137954 
-0.026352846780170403 
-0.044466531388052550 
-0.028736392714859010 
0.035173601794849525 
-0.011684988492555340 
0.021918542667212118 
0.027617521526055860 
0.041881417418105300 
0.045081220598516060 
-0.033142928709450015 
-0.024444242718838324 
0.024130599305209298 
0.023831367399404054 
0.013007153537423896 
0.026846460567240313 
-0.047027546597325940 
0.038459055774697220 
-0.070585036792339170 
0.023232262381087786 
0.022109341199618030 
0.023181496438994130 
-0.019627914345652045 
-0.022598122246514408 
-0.011744634590904773 
-0.039619248648687770 
-0.013841931968173226 
0.044632591347516000 
0.010924778345829536 
-0.019554595267617544 
0.041257556235126990 
-0.031044586397040858 
-0.022530618684434345 
0.024452090435309630 
-0.015157549238839557 
-0.046249368290320740 
0.047007357055753910 
0.026858514295379900 
-0.029271074005006450 
-0.038956380526480120 
0.033840469767739086 
-0.012305639262426749 
-0.051361475811756490 
-0.039058113028903760 
-0.028276953185059107 
-0.028276953185059107 
-0.036790321078909886 
-0.051361475811756490 
0.023683316355464848 
-0.025533988128337470 
0.0072604947812021250 
-0.016676014959163276 
-0.019534485137708807 
-0.024647820978271220 
0.028607028774063157 
-0.023622204317858806 
-0.022131804582466004 
-0.026872062041908890 
-0.048123309578225740 
-0.036151087564194990 
-0.036725759544308930 
0.023314587854168796 
-0.016568624547766583 
-0.018272227232307550 
-0.0096140648564148820 
-0.034952022503087155 
-0.020002072036616830 
-0.036751163551283470 
-0.031163273405786115 
0.027298002786201590 
0.035816950542668640 
0.018564576243650426 
-0.011341310416185095 
0.012919581980252857 
0.024943539781605004 
-0.012798445122451119 
-0.035572803613769390 
-0.011073699617888145 
-0.047090873155300030 
0.028492028983463834 
0.023910721082637760 
-0.029949631858144032 
0.014169755737258679 
-0.014266472713014160 
-0.016508674834925803 
0.0099069258184886300 
-0.024932093449739304 
-0.029547461035322155 
-0.058408967224490904 
-0.010955685631302657 
-0.024678520933782127 
-0.025493323332552200 
-0.027328057448789588 
-0.025154273722783775 
0.026877909287883615 
0.037599511534843980 
0.016438562658980874 
0.021698756070469515 
0.022819271436675110 
0.016313270353876634 
0.035293330930117550 
-0.0064917265176169740 
0.029310128413732074 
0.064828411481685990 
0.092413027303027490 
-0.018428466487274400 
0.030481596206274160 
-0.036654043496594940 
-0.016107039028095490 
0.031147921983796234 
0.024976320467415866 
-0.028598519598689500 
0.015157138916330845 
-0.0022941383061333480 
0.024909767367764936 
0.039265557251993810 
-0.021179045090294044 
0.013756695407149128 
0.014275990084122876 
0.021267057330116457 
-0.020445432777197223 
-0.062885402519646360 
0.025893614290389960 
0.015848588829438168 
-0.031717629631608670 
0.012790761449624327 
0.011845273780584581 
0.038495484491968164 
-0.012412073030735986 
-0.0095568360049320170 
0.032012166423643350 
-0.061775030591715845 
0.021275022120816500 
-0.022497254926891915 
-0.036104925030021350 
-0.019954470914856160 
-0.017911975146438327 
0.061840614989879610 
-0.040698107330192390 
-0.032202394350536850 
-0.038564540202509480 
-0.021728662659070846 
0.035268856631358654 
0.022430967994860964 
-0.025675297211056432 
0.040377992743334460 
-0.016232072600307658 
-0.022350277473067715 
0.013966206273058545 
-0.026510241365626533 
-0.019421942286111743 
-0.015744792040655200 
-0.010891258340430717 
0.028122816801370560 
-0.022630213440012915 
-0.035913087677526136 
0.023235368691712485 
-0.017045075246674420 
0.029310128413732074 
-0.026659803968037347 
0.019688732654105222 
-0.016918864236283238 
-0.044411772077917340 
0.0074278462351627505 
0.012326042362715174 
-0.047374846777490850 
0.027057144629562227 
-0.0064069819011340280 
-0.040052125043159734 
0.021858930116381790 
-0.030695861302133620 
-0.039990423497981440 
-0.013524359352214856 
-0.035440365603556550 
-0.035176680829860710 
-0.053199195931549620 
0.019594736092605605 
0.0028589362207455370 
-0.061287094149200380 
-0.015941099652300093 
0.037910063308350480 
-0.013854060893215288 
-0.010943847784323215 
0.027526161423171904 
-0.015199795055904283 
-0.037264419316478524 
0.0059802354802886740 
0.041033981087873754 
0.044910308661957235 
-0.0062784280505925790 
-0.026917718561194880 
-0.048549932685766790 
0.037822903568527030 
-0.052841635990120480 
0.025698298280489557 
-0.034774656092236070 
0.038502988021684760 
-0.019683836549507193 
-0.026286844435589660 
-0.025426869095872980 
0.050476118302472360 
-0.016210804655821440 
0.035259953192934780 
-0.018417226982715590 
-0.053827232296867760 
-0.024995210119541884 
-0.038550680390301720 
0.027518966013163487 
-0.087811402817583780 
0.061694611895039850 
-0.072715116719053880 
-0.033303717859613260 
0.047787830716152140 
-0.064804942241256090 
0.069522399709566040 
-0.014254486144656020 
0.042621152014208500 
0.015992653322818770 
-0.029566501397675940 
0.035920783826339290 
-0.025370485377687657 
-0.0050609390859574980 
-0.037933081226153305 
0.047047364436193596 
0.093286876651755020 
0.018585695511701132 
0.066850490675832420 
0.049703131942364220 
-0.047611420662287180 
-0.018851828980352994 
-0.045140516650771680 
-0.0044850870715579860 
-0.021432667457560547 
0.045288352188458510 
-0.0092637291119681150 
-0.026873590264154570 
-0.010992160687670336 
-0.018059882945023270 
0.012701528664091527 
-0.023788822931832203 
-0.017418531410243190 
0.035116084024037020 
-0.016355499570198405 
-0.0041100449516060200 
-0.033682373115984830 
-0.0022383530916535556 
-0.0068560031301789220 
-0.0048591681455310100 
0.011484675250976940 
0.031379140564857120 
0.017240199260515510 
-0.0067730685668591020 
-0.0093998263173751350 
-0.015728063276648295 
0.020967639562013512 
-0.020302830273295238 
0.0035821753904747046 
-0.013405772049594108 
-0.0084252837154641030 
-0.0048591681455310100 
0.017488874329947102 
-0.0069739105536928830 
-0.013673240024332836 
0.0043457244821595966 
0.011790800828751473 
0.029142899105992204 
-0.010547913188142605 
0.021379868786504350 
-0.0082488660339380890 
0.0012321824777062334 
0.0010627548757912676 
0.018825117326722890 
0.00010871397432282925 
-0.015428455646716372 
-0.040018354805817370 
0.022593840185821883 
0.018768287512323890 
0.016069228458014850 
0.024418027027313445 
-0.0039530656297612370 
0.017125057366199792 
0.0077250917095747470 
0.027630046549330517 
0.0089436738358226880 
0.016704927710059467 
-0.034106710821870640 
0.020327404396143108 
-0.012396947035259795 
0.0085555123532971830 
-0.0068407262877156770 
0.015863743747401852 
0.0091821917318484540 
0.013117509488575402 
0.020115240235968085 
-0.0092382913493558210 
0.013074497634090498 
0.082262639504823400 
0.023648468678870960 
-0.0092683636401055540 
0.0089012530110328240 
-0.039924127336144720 
-0.033771009399371650 
-0.018001041463807994 
-0.020326487322183460 
-0.028119283227565066 
-0.023224345664822120 
0.043063174210652186 
0.0043919747829869760 
-0.0070956611014639705 
-0.0084252837154641030 
-0.017508939082289650 
-0.0082313391447827250 
-0.0095069974963254200 
0.010898801881175505 
0.046992717661536135 
0.0068642695547658230 
-0.0084252837154641030 
0.019467798558341354 
-0.017508939082289650 
-0.023063408855504015 
-0.0019121416598241988 
-0.0018993778481797797 
-0.035321476658363146 
0.030191400527223150 
0.025305589925123310 
0.0099486681063949200 
0.050734904793100485 
-0.014804533590857025 
0.0097850699141992380 
-0.013938368621887359 
-0.027552431874027783 
-0.0020504647802299194 
-0.0051293157575956070 
-0.0025467890921580330 
-0.015847981899154230 
0.019174976149218734 
0.012956544573472511 
-0.019244071908337310 
-0.014228490782507758 
-0.023661134535851842 
-0.0084234848613837130 
0.023165702481401415 
-0.0065074579724532440 
-0.010068866324408196 
0.0027997953385181090 
0.029017950191116180 
-0.0023905016366391335 
-0.019324925246721990 
-0.0082313391447827250 
-0.010376713652590094 
-0.0082313391447827250 
0.025667270648173684 
-0.029915778942520970 
-0.011515803102318310 
-0.035827496671510350 
-0.0012867148522763868 
0.028418400568665278 
0.012458191223569002 
0.020238326596780540 
0.015072364747859146 
-0.0022423571951721358 
-0.037603395649140960 
-0.0076910691478396260 
-0.0040658178511450290 
-0.019114515903880032 
-0.011466563395453546 
0.032134510815361410 
0.013742703197602601 
-0.0078501718579646730 
-0.011844600357654127 
0.024298955826276655 
0.024027399626158796 
0.051183075959360500 
0.014700946127437406 
-0.021636076661308904 
0.022068058239665005 
0.0079400224220581540 
-0.0095558225702961470 
0.015705050360257970 
-0.030991497676784400 
-0.046980495384049394 
-0.024873554177307040 
-0.019376538107853083 
0.0035821753904747046 
-0.017721338846615423 
0.042235405281887385 
0.035393484061349664 
-0.045215666319019236 
-0.011460417065570187 
-0.022438291515299108 
-0.018424970632909675 
-0.0074564391629741060 
0.022405882634982513 
-0.015847981899154230 
-0.00081346038696857650 
0.030572889569728100 
0.022229585258236418 
-0.029195206890698170 
0.023829767014393010 
0.012499942686106495 
-0.039881749609482830 
0.0043511804164296800 
-0.015810403681341500 
-0.024848159871128365 
0.013502402642032792 
0.017517387012814505 
0.010689697635034332 
0.012615826745400520 
-0.013644817404390202 
0.019331474693598970 
-0.014256808828033289 
0.010472027215881499 
-0.010213302514464917 
0.024619611902533124 
-0.027431731148296420 
0.035603670727934500 
-0.012304917616975764 
0.016315585550886587 
-0.021145313384629090 
0.038311166170143790 
-0.021024577355035906 
-0.036839671487042376 
0.017545760671426470 
0.0078195121009364660 
0.012122049063363068 
-0.017464685802888194 
-0.013122257792408118 
-0.020080855328824868 
0.013558283573515083 
0.0027833117413991353 
-0.016208619940340646 
-0.019350392617172883 
-0.032821432441321050 
-0.013335726818935344 
0.019410039839060665 
0.011893430611270798 
-0.0063662191484952630 
0.022353405165939644 
-0.013769437678584910 
0.0047718971970975180 
0.032908786478987780 
-0.0073347551262968920 
0.015656708721130000 
0.029423028646660170 
-0.013938368621887359 
0.0076421752726840890 
-0.0084252837154641030 
-0.0086554260502437020 
0.0099440588172116040 
-0.020918329683131640 
0.010511480346552166 
0.0047121940488281670 
-0.0031619292973419266 
-0.023144710080037070 
0.031576736660728080 
0.016640803696428420 
0.024414026346520273 
-0.020449303625544760 
-0.013576868145229206 
-0.017533954819548843 
0.016744705759811556 
0.013771540094657331 
-0.015619313292562633 
-0.023361762601752344 
-0.014005516705069521 
0.0074764252855824500 
0.0053393948587521330 
0.0067477717326268945 
-0.020708551060327360 
0.011461872543982454 
-0.027549433465128490 
0.0093255639984863910 
0.022400435111682913 
0.033594142894616900 
-0.022919773072624987 
-0.017729900190042200 
0.0098005900490004470 
-0.020833938509240365 
-0.00030302634314086107 
-0.022203402940747657 
-0.015980786018894466 
-0.00081346038696857650 
0.017672870554890850 
-0.019532022323444594 
0.038376345832955995 
-0.00019658879141438750 
0.0094059840825207200 
0.017183891322180418 
-0.013651561880345036 
0.017896710556448000 
-0.024315019176168334 
-0.042023802558375165 
0.012944467198491011 
0.022322960662403343 
0.033557304862083230 
-0.039029808597180020 
0.0095478728621960290 
0.017797977010910820 
-0.020042398331670794 
0.013336802478866207 
0.038888309145829796 
0.028103137984558397 
0.020993189326309464 
0.0087109321013434380 
-0.00088188277679917620 
0.015749724226564097 
0.0095083073591201180 
-0.014426320108879910 
-0.014119532061972459 
-0.0073506147943053760 
-0.042151053363294950 
0.038219039467152265 
-0.046925619458617740 
0.024304573857217227 
0.045100222546417640 
0.0076087343965478196 
0.0010627548757912676 
0.017768907309037366 
0.0013322371384546414 
0.020621038965089160 
-0.020100384077251860 
0.011212544170163789 
0.022107743640585625 
-0.027202306144371698 
-0.051843999979839860 
0.039770846798136326 
-0.038478323344714930 
-0.022896836126130606 
0.018084136349040165 
-0.020918329683131640 
0.0018485620755941455 
-0.022844021362928128 
-0.0020854003160495750 
-0.024932097001381370 
-0.026161132649856964 
0.028286020126701505 
-0.031369242106477575 
-0.018571242214651233 
-0.0019121416598241988 
0.016048785836721667 
0.012759924871658902 
-0.0080463732095794500 
0.012010111856760326 
0.023215812091104100 
0.024917935783865478 
-0.0084252837154641030 
-0.011881173093590873 
-0.015279847364009549 
-0.012129269513228555 
0.019669284342947842 
-0.027082111114883203 
-0.030459428734297030 
-0.032868265001029220 
0.049965280480081610 
-0.021768706124700898 
0.012380808985701404 
0.046361255647684930 
-0.017466607041421200 
0.0095531364570945270 
0.011256966191599199 
0.0099882639397424340 
-0.019044686060113464 
-0.0044902802222490275 
0.055025979744732520 
0.020881548845689400 
-0.015540870965295146 
0.0090034667968231140 
-0.016360879327081225 
0.0062493634579189760 
-0.014769265633837545 
-0.016310191908200492 
0.00013682964137683016 
0.039911165450470035 
-0.018410714766451675 
0.019720231670669528 
-0.0079090790144647930 
0.028802357442786333 
-0.035132627531462880 
0.0079910833417498800 
-0.022607527502340432 
-0.010893543401651676 
0.051704687136020650 
0.014425374797192088 
-0.018551737655431264 
0.021486135934928000 
-0.028381538875256594 
-0.022607527502340432 
0.0082564554269845360 
0.037057468364836290 
-0.014205647040864158 
-0.021202624783783184 
-0.012882495059448341 
0.023594758385727607 
0.012704245849937113 
-0.023743215507378860 
-0.018398748637674545 
0.0093496739560750860 
0.010951382693266022 
0.0027997953385181090 
0.0089646761931810300 
0.012010111856760326 
-0.0097326956834803500 
0.013972671782808106 
-0.016864422322916843 
0.024174428850264770 
-0.0024264630201704675 
-0.031033571320229752 
-0.019486676341275027 
-0.018828297198162286 
0.031611602329997430 
0.034625792064170020 
0.021255328470530140 
0.012486804652868621 
-0.014472628287528705 
-0.017361064849925770 
-0.029188912894469040 
0.022918208995642196 
0.016349798088541312 
-0.0020401795802339620 
0.011984241705673770 
-0.015847981899154230 
0.010981691522109087 
0.017654854634028410 
-0.016289500395333660 
0.014349199467115334 
-0.027435451533180870 
-0.0086882330737006010 
0.041211200405874476 
-0.021909838676039060 
-0.012713332310794850 
-0.00020151779660512666 
-0.030129034230781365 
0.014774443217198091 
-0.013103245606004912 
0.025257564814052060 
-0.0090205895713864700 
-0.016362245166857362 
-0.0092382913493558210 
0.024590819211664748 
-0.0061754945071014955 
-0.024848159871128365 
0.0081432064210287080 
0.031936827366217400 
0.0050065592534852590 
-0.025069594533802940 
0.0082928389482038370 
0.0045253609016481320 
-0.023467464053529976 
-0.0037380879631721876 
0.013972671782808106 
-0.013636061719645825 
-0.0062684483019227910 
-0.016324622566177387 
-0.019452440208495847 
0.012941315047077979 
-0.00099063781838986300 
-0.0067730685668591020 
-0.0047655622737953420 
-0.017322128673596452 
-0.030392289376617667 
-0.029915778942520970 
0.022881758883528197 
-0.021792639810018840 
-0.038765243868477246 
0.062615333296634200 
-0.028395374226692884 
0.036993992150672830 
-0.0045546903420886040 
0.010212273024722468 
-0.010783528765271633 
-0.012851329953059664 
0.014774443217198091 
0.037749088044271004 
0.0035821753904747046 
-0.013340075946540289 
0.017222316245560837 
-0.0079116362452499590 
0.031632647277086530 
0.021877419766026182 
-0.035775918430504960 
-0.0066272291912332580 
0.014143935542649151 
0.019871903974984322 
0.024218298067232847 
-0.0078937787447077530 
0.017916953578906860 
-0.031250379400376144 
-0.012298551066842018 
-0.0078937787447077530 
-0.015046440080546696 
-0.00034620331196751227 
-0.0027685535246580488 
0.0097239683556385680 
-0.019194807180478772 
-0.0018399368318193930 
0.029624003261599967 
0.036159370086978546 
0.019158389932064600 
-0.027228627475369794 
0.011272451705698766 
0.035317758460245256 
0.017448618707413547 
-0.0054469098101555280 
0.016167691433042745 
-0.029417277865571374 
-0.022101520007164147 
-0.0099361303470463580 
-0.033316737264399376 
0.0090870197183205160 
0.0084359531360130200 
-0.010181571988362068 
-0.027552431874027783 
-0.012910191414349830 
-0.0028077720693632873 
-0.012412981805629720 
0.031649723000086595 
-0.025591036814042765 
0.011051844552979513 
0.0081538613199791080 
-0.015284098681817888 
0.037993510674284255 
0.053151383597140514 
0.018124941906224903 
0.023517203075223920 
-0.0038686836316378557 
-0.010618863431322258 
0.011398709685733407 
0.022527062904604808 
0.011351869319977427 
-0.019459929998250188 
0.017068025739316185 
-0.015591692988554156 
0.015019941892702945 
0.028125663129784840 
-0.0021333413199778190 
-0.017347455171837455 
0.031649723000086595 
0.016440097544074748 
0.0035675918928553870 
-0.021450371291343560 
0.011669351670574098 
0.032139146354942040 
-0.013521479568178390 
-0.022866150002322238 
0.012781103119883370 
0.019090612046641210 
0.014051264012219948 
0.022030340338323670 
0.0017001627314646127 
-0.014769265633837545 
-0.011881173093590873 
0.014459909253887137 
0.042760601953984470 
0.0031964096774659790 
-0.036128707712402400 
-0.016747395507868240 
-0.026667523127214418 
-0.00042265180458187230 
0.012314318241278802 
-0.0094878291614298500 
0.092904813245020740 
-0.013246819628356300 
0.017506241296468670 
-0.011881173093590873 
-0.043000998075064820 
-0.0084252837154641030 
0.024824316239694550 
-0.011608936282582591 
0.027454423009944783 
-0.025629644700648574 
-0.035798239880162820 
0.0035730039944132305 
0.0065797852516019310 
0.032384633217966470 
-0.016936966229297204 
0.023125350896473593 
0.0060517368088920640 
-0.0073943593644684480 
-0.028196666231467184 
-0.012432398186145922 
0.035725510675218090 
-0.016349601631149176 
0.016494140569619970 
0.033892219536038210 
0.019105230303739437 
0.028469343044873495 
0.019563336128140905 
0.015463309698641358 
0.011929123069083223 
-0.012412981805629720 
-0.020012216092377622 
-0.018540574405070516 
0.011088312778717042 
0.0063371732223638080 
0.039740878174642336 
0.023163307774307410 
0.022849078073011654 
0.016413815830514697 
0.010106987239570823 
0.029803325541807518 
0.0089646761931810300 
-0.012627324650637170 
-0.0078937787447077530 
-0.012220940327782072 
0.017831921254387297 
0.020705114976770390 
-0.00023004888248514554 
-0.0057177831011228870 
-0.020513856002909264 
-0.013090512019250322 
-0.036900625434022710 
-0.034457399081730820 
0.0048031884682070240 
0.0079910833417498800 
0.013498453015267656 
0.0035821753904747046 
-0.019249411549497584 
0.0098892101555296090 
0.011051844552979513 
0.0047653908263122440 
-0.032025066891955875 
-0.017716370261471638 
-0.029195206890698170 
-0.012962993566849067 
0.021108089954342930 
0.042377305233882440 
0.030944318547226554 
-0.015326523492020539 
0.0082564554269845360 
-0.0090064896535743730 
-0.013921524769718270 
-0.017869541170516312 
0.0082996518690831500 
-0.023063408855504015 
0.017078421362921002 
0.029107738928293447 
0.0098492866056994510 
0.010848525346684415 
-0.027552431874027783 
0.0059070437872886240 
0.012453334127680552 
0.026210883420513385 
-0.019115087283596104 
0.019942244348929280 
0.015120418556670802 
-0.013651525592987265 
0.024786012856678665 
-0.015054055597097497 
-0.0092683636401055540 
0.024200017702062270 
0.024917935783865478 
-0.015890194549200334 
0.012121925843184968 
-0.011144215709239158 
0.020272725541531575 
0.010934910495274960 
0.0041183121635963040 
-0.018064878346854062 
0.015494315877922712 
0.021040115467683175 
-0.016668745351710316 
0.033836583058726444 
-0.020800555703397314 
0.021765299998682527 
0.046386165702964250 
0.036620103676309634 
-0.023984113825486535 
0.032908786478987780 
-0.022029354108611888 
-0.0080996406911258230 
-0.022892573665021550 
-0.015222790444991490 
-0.027185905821445738 
0.017756885632637782 
-0.039145776187711100 
-0.014082220802495186 
0.015621704169408454 
0.029107738928293447 
-0.010386547044749799 
0.015545407709530180 
-0.013330483475011971 
0.026935069845335485 
-0.0065792588807513370 
0.040438894946455126 
2.8692916216407780e-05 
-0.0034766735656306634 
0.015316193860342706 
-0.051494250644391414 
0.019648002789445396 
0.023328523751611357 
0.019943843485830455 
0.016293500956955184 
0.021510072452577765 
0.040034674224811230 
-0.011953780511164530 
-0.018194612663846615 
0.019426653170147693 
-0.0086882330737006010 
-0.051280732683448446 
-0.058109149812758490 
-0.0083408928483954900 
0.014564656176132110 
-0.0069003844123665200 
-0.016667418008437056 
-0.010282738510373212 
0.0086481495581281500 
0.026409957201811760 
-0.020595229913805586 
-0.015980786018894466 
-0.0086882330737006010 
0.025305589925123310 
0.012753660173235870 
-0.0089893724664275030 
-0.026176103508325506 
0.012551305938566990 
0.040125013008384586 
-0.025875031012918590 
-0.010101549355720798 
0.037424934388619484 
-0.0084252837154641030 
-0.0084252837154641030 
0.021087472547034550 
-0.010213302514464917 
0.033557982485558800 
0.049965280480081610 
0.018205397075640412 
0.031351492453346196 
0.022851778067354420 
0.0085858329590467900 
0.0036331902494389250 
-0.017172928897410816 
-0.011227678905980126 
0.011161299118075554 
-0.026213247835766458 
-0.023885184245261294 
0.022177092126751140 
-0.012124370888747136 
-0.010145004153781494 
0.018265032021269324 
0.0098946783465608050 
0.0098005900490004470 
0.013403795654027191 
-0.013215081545269302 
-0.018595561973368438 
-0.012751814329665916 
-0.029167681842968182 
-0.0026038198635477037 
0.024065486304610955 
-0.013736087982279844 
0.0078356522733923680 
0.023785473406789753 
-0.014036004433792937 
-0.012703206978831098 
-0.026979767108424090 
0.0047394539828913990 
0.019047661971926550 
0.0047843723909031810 
-0.013644817404390202 
0.056248142425348790 
-0.039429816044547840 
-0.021894306877206796 
-0.0069739105536928830 
-0.0094994477567108950 
-0.0088902447183229220 
-0.022262821283032315 
-0.0042569333919452840 
-0.0079395760198550100 
0.014459038109292584 
0.0095173538746420800 
-0.0047209042144778770 
0.0093035810992303670 
-0.0036209867488757545 
0.012826704565363460 
0.013498453015267656 
0.0019265979233743897 
-0.0057177831011228870 
-0.011785229816531390 
-0.010222385875397588 
-0.011058572769829316 
0.019938510967799784 
0.0086110148116246270 
-0.019630539295549920 
0.00010871397432282925 
0.0040537333696928450 
-0.0045900606567325730 
0.028802357442786333 
0.053151383597140514 
0.016921544393566884 
0.0050281170533333110 
-0.011136805095589666 
0.011451120468275613 
0.012420106185572063 
0.0084359531360130200 
0.017448618707413547 
-0.0084252837154641030 
0.0020343662801566620 
0.022167310260331060 
0.041954985112963250 
-0.010569622366814562 
0.0012321824777062334 
-0.012290514972206798 
-0.020459287836196030 
-0.028119283227565066 
-0.012851329953059664 
0.027258219954608656 
-0.015172253628240881 
-0.015284098681817888 
-0.010887865854894740 
0.0038204660895195570 
-0.036303336411755774 
0.0019265979233743897 
0.041879721375060706 
0.012314449966786331 
-0.017083018927100516 
0.0094059840825207200 
-0.024249438910076523 
0.024095883928120752 
0.011894105273202721 
0.010283401146937020 
-0.022101520007164147 
-0.011263120588013676 
-0.023942312698996847 
-0.043007297164371330 
-0.024015213642861927 
-0.010004710011524011 
-0.018510944531456160 
-0.011993788867608168 
-0.026643933342821183 
0.019568227408916170 
-0.0097163692361014660 
0.023517203075223920 
0.015002503329449116 
-0.0067370582944899670 
0.0032598487305138617 
-0.039250635210406020 
-0.015615087308392900 
-0.021111904448685326 
-0.017448241993672186 
-0.016877994290193450 
-0.011574913627504839 
0.011680932514730845 
-0.016341421764949647 
0.016037425415573667 
-0.024313893262643153 
-0.014376413551688763 
0.033931659566712640 
0.0069949163718007850 
0.021172010729787794 
0.0030147074029674080 
0.011312118010522959 
-0.026144626124392520 
-0.0052540035675495220 
0.021963463003380280 
-0.0027694192464588840 
-0.039006864358432335 
0.017813508486236907 
-0.016687182611366588 
0.0031013041880790133 
-0.021437088158609324 
-0.031913782482523266 
-0.014254519707196255 
0.037374260191561910 
0.0078195121009364660 
-0.029213056410601908 
-0.013474774963125960 
-0.0086882330737006010 
0.015295299041552829 
-0.055166789400349400 
0.020865657512173647 
-0.012344632074640951 
0.027208562724724240 
0.020876410174452353 
-0.020271694751375836 
0.021986358653464850 
-0.015933768577402390 
0.016179319630180943 
-0.014554446771811624 
-0.021977572736325293 
-0.022456918391627934 
0.015259911251703950 
-0.014110370047776306 
-0.012627850297113523 
-0.019630539295549920 
0.018819784358873083 
-0.016747395507868240 
-0.012851329953059664 
0.022092748036335780 
-0.012576884206426430 
-0.033424394840027690 
-0.012563235269050631 
-0.044533468097521180 
0.048519616535296710 
0.014256879048376626 
-0.012573743171295513 
-0.0066272291912332580 
-0.014094769300003156 
0.00010871397432282925 
0.023789441644238178 
-0.0068751655494060605 
-0.026815380393776903 
-0.021202624783783184 
0.010951382693266022 
-0.013631198198383350 
-0.011097269984124537 
-0.015746789973155000 
-0.013387407262489173 
-0.0069965173453663950 
-0.0077593036795775006 
0.042214407514999440 
0.037626860081556975 
0.015166609661848820 
0.016154381312116300 
0.020876410174452353 
-0.0084252837154641030 
-0.0078937787447077530 
-0.025644232603833642 
-0.019266421437747205 
0.0035821753904747046 
0.0035821753904747046 
-0.053702989564542280 
0.036527038400133850 
-0.015467156840599516 
-0.011881173093590873 
-0.011881173093590873 
0.029733596932353230 
-0.0078937787447077530 
0.019327064365903503 
0.017761655762862948 
0.025180736515220360 
-0.011881173093590873 
0.028788075751094187 
0.018993134716088350 
-0.0085358045520210480 
-0.046886696360426570 
0.0093255639984863910 
0.018295880286912460 
-0.014256808828033289 
-0.024210810856408900 
-0.013845520020009980 
-0.023535365736924427 
0.028286020126701505 
-0.026041894815238734 
0.014067840831693740 
0.031220932808564340 
-0.013521479568178390 
-0.011144215709239158 
0.015793736095995006 
0.0033572118626358145 
-0.022607527502340432 
-0.016072831018406543 
0.026471923032646283 
0.0085154450586238300 
0.029733596932353230 
0.029733596932353230 
0.031888983219231040 
0.011281337923048383 
0.0098005900490004470 
-0.0038995642497149565 
-0.0048159151801246160 
-0.010867839805710582 
-0.024761637952338490 
-0.037111640066353514 
0.011273966369919659 
-0.024873554177307040 
-0.018001041463807994 
-0.020296368705730216 
-0.0055078692518624810 
-0.0069486104054845650 
-0.011753502960730204 
0.011313857733991703 
0.011834918597204518 
-0.023743215507378860 
0.0065830292284007320 
-0.014311462853216947 
0.018480469825895112 
0.049965280480081610 
0.015612546313047624 
0.011524303982938149 
-0.034778079065615620 
-0.015484851054013966 
0.00049304419888496040 
0.0075578170068520640 
0.039575097401712146 
0.029682933384243300 
-0.011097781829047743 
-0.012217582849905595 
0.012776008568172167 
-0.012330060847944866 
0.049214079389837045 
0.012639940711800463 
0.027788298113094172 
-0.011268769601000438 
0.020876410174452353 
-0.037757803535728870 
0.010898801881175505 
0.014526095849232700 
0.024716676210164750 
0.0087112649146323850 
-0.011770454217799145 
-0.014205647040864158 
-0.0029004667874564767 
-0.0035590522788858660 
-0.0078898247242659040 
0.016857324246800460 
-0.0078937787447077530 
-0.026941842372509000 
0.016749692234621305 
-0.011881173093590873 
0.016584167181728164 
0.028553552716433960 
0.020263837576487257 
-0.015467156840599516 
0.00010871397432282925 
0.0085154450586238300 
0.033846321837847750 
0.019090612046641210 
0.021947464679614448 
0.016224002521777404 
-0.024097018679744342 
-0.028966539760582558 
-0.010222385875397588 
-0.010698195629140117 
0.021477708196243920 
-0.0025743642537825948 
0.011291525738488904 
0.0019265979233743897 
0.0050076105925423210 
-0.027652163533042673 
0.038173810752001660 
0.028509632147255310 
0.036144089533337226 
-0.015360951507717454 
0.016826597351588177 
0.014459038109292584 
-0.046395443259257960 
0.019158389932064600 
0.026984137764654590 
-0.023757534849241556 
0.012639940711800463 
0.023726876162312790 
0.012678699709809987 
-0.036993637802809405 
-0.027004573192953178 
0.015050102433921107 
0.039044354659077200 
-0.026791805635004252 
-0.053702989564542280 
0.0066077378720802310 
0.023542701166402943 
-0.025758236173663605 
-0.019964528553774872 
-0.0076747985567479455 
0.016760118303252240 
-0.016984141007327910 
-0.013369519310247222 
-0.012962993566849067 
-0.012838924168510018 
0.013833206744172388 
0.011398709685733407 
-0.014877696261592980 
0.026691648797283640 
-0.0067882820267523780 
-0.0045842435898155700 
0.017323762958028042 
0.015931003353681060 
0.0020274991885121606 
0.021109478799200002 
-0.0037380879631721876 
-0.0059554863998651500 
-0.032380245656926710 
-3.4623628936712220e-05 
0.028778780821609560 
-0.0066272291912332580 
-0.023214512701152462 
0.010279304593922706 
-0.0080996406911258230 
0.018430647546327140 
-0.016668745351710316 
0.014565488843899210 
0.025853828805566224 
0.0077250917095747470 
0.0054249854159965230 
0.014892084156724645 
-0.011691702306769454 
-0.040842482830343974 
-0.0084252837154641030 
0.025887226575424065 
0.013050241285217170 
0.024212359365276700 
-0.018246947974646110 
-0.011173716019806606 
-0.027033881812523457 
0.024164366985413077 
0.0077947139851753400 
0.040049142848218096 
0.016190918042347912 
0.011381867675358301 
0.014774443217198091 
0.022992253946392222 
0.014774443217198091 
0.015705050360257970 
-0.0021333413199778190 
0.019833199476289063 
-0.011881173093590873 
-0.016855176747205047 
0.0010627548757912676 
0.012345865534754329 
-0.042578184902775600 
0.033308005083770686 
-0.012191240418419989 
-0.024462599322630806 
-0.015172253628240881 
-0.0094918951177504640 
0.013909794587913644 
-0.021660185554927464 
-0.010341632988193246 
0.014726213132434773 
0.015752094579128795 
-0.025985024791945702 
0.040633199946460510 
-0.025058466939216690 
-0.010883534298460064 
-0.011881173093590873 
-0.014367031013019702 
-0.012851329953059664 
-0.011881173093590873 
0.0068396127148877400 
-0.029628902189275600 
-0.010623594532217240 
0.020876410174452353 
0.010212273024722468 
-0.0097326956834803500 
-0.025414545922235878 
0.056224846069708560 
-0.031114978165862235 
-0.0038453064864931766 
0.035347586008779300 
-0.0054423136556392890 
-0.028954999192768330 
-0.0029041304108830160 
-0.057457994368669295 
0.025726214879933020 
0.013173392768392798 
0.00059596936371456670 
0.019310419943073497 
-0.029509581044559570 
-0.017374852248878730 
-0.014707586641203889 
-0.021867272747435294 
-0.012757799983420880 
0.013117509488575402 
0.012058472780106710 
-0.015537259283600164 
0.019714884297374235 
0.038420076804990700 
-0.017826954765621836 
-0.015792886962699550 
-0.0093237167746514410 
-0.0085508658433943870 
0.011398709685733407 
-0.028512244808774085 
0.019472266838766500 
-0.016533726701798986 
-0.022225751003453868 
-0.019266421437747205 
0.027384611758520850 
0.022965569290229877 
0.055151205199368750 
-0.013544117837638927 
-0.00081346038696857650 
-0.023119974928952980 
-0.033771009399371650 
-0.010482830389114286 
0.023093015905396714 
0.025771472675819113 
0.028722243953698726 
0.016742075705804396 
-0.013319396378820856 
-0.021524610222376700 
0.024063261165762337 
0.019943098276790434 
0.0085858329590467900 
-0.0081794422332397490 
0.011984241705673770 
-0.0047905466020765600 
0.016174740540133438 
-0.053298169050507470 
-0.018624751419804846 
0.0016745124920584196 
0.016224002521777404 
0.019568227408916170 
0.034622278116391424 
0.014425374797192088 
0.036208890342712080 
-0.025020230683382450 
0.024513328608397590 
-0.012962993566849067 
0.016561062174781550 
0.018315707137243530 
-0.033316737264399376 
-0.0084252837154641030 
0.0078356522733923680 
-0.0087715465173074240 
0.011161299118075554 
-0.019630539295549920 
-0.023676853385713872 
0.022467225083078440 
0.0068147248292185275 
-0.025875031012918590 
-0.018504754443779130 
0.017726870668372970 
0.019568227408916170 
-0.0017612439115087840 
-0.0093998263173751350 
-0.012070906354531860 
0.0065830292284007320 
0.026765529228311036 
0.020271211854384734 
-0.014653518455151183 
0.015190299372516211 
0.043602695083762310 
-0.0085716900044529240 
0.0063371732223638080 
0.0063204124340988970 
-0.013199276845122133 
-0.011100782687277452 
0.010549656255041490 
0.013596790731112796 
0.034815190537807086 
0.0077453521860402350 
0.014441506794487158 
-0.037415773377654790 
0.023761023531124296 
-0.038844402932136715 
-0.025921708925213727 
-0.032795019537518316 
-0.0017500449556870803 
-0.012699799569769622 
-0.0093507132224422020 
0.011367036729392606 
0.010949132051457150 
-0.012920166164352521 
-0.020807476176987354 
0.0082776526758964670 
-0.027838576864869846 
-0.010004812765084083 
-0.0023159286509923500 
0.019526342622621030 
0.025678825115578630 
0.025678825115578630 
-0.040074965409463720 
-0.019468879081016185 
-0.020449303625544760 
-0.0054469098101555280 
-0.020918329683131640 
0.0035821753904747046 
0.030982776647400727 
-0.019953293200792283 
0.020876410174452353 
0.018084477763026185 
0.0074764252855824500 
0.014774443217198091 
0.041967154963359114 
-0.0056423566041561730 
0.028103137984558397 
0.010201737644351757 
0.022167310260331060 
-0.0080535862654575000 
-0.0056540451326535640 
0.0058656123822459970 
-0.0013940875953128448 
0.025305589925123310 
-0.021736804713723120 
-0.0068560031301789220 
0.037418117237887266 
-0.021873295219503174 
0.020115240235968085 
-0.0066272291912332580 
0.018929169523699177 
0.017251057897482897 
0.029817444778582420 
-0.012701450769440311 
0.022039350495530734 
-0.0017500449556870803 
-0.021939675327897170 
-0.0083594867977660520 
-0.0035590522788858660 
-0.027552431874027783 
-0.019538498409384708 
-0.018556604032810325 
0.0094289513700782330 
0.025846101106785056 
-0.0055150660043534310 
-0.0082301406257871430 
-0.0085508658433943870 
0.026429373251880000 
-0.029428457709039660 
0.021094840845511880 
-0.014782889052754027 
-0.046395443259257960 
0.0087109321013434380 
-0.0073506147943053760 
-0.0056423566041561730 
-0.021743910578970082 
0.017053261253054630 
0.023705624801460823 
0.023832643456065346 
0.0098947084121909410 
0.0027230223941218734 
0.018623797913432497 
0.036821433897148300 
0.024325042577815596 
-0.0066626351124926890 
0.0095413358720770720 
0.013403795654027191 
-0.049944024967384270 
0.014095209136301466 
0.0038940461289029860 
0.0094289513700782330 
-0.023264804644553900 
-0.013661689830780739 
-0.024216310405259383 
-0.041711036835205260 
-0.036212934104381480 
-0.010744881757461966 
-0.015308276927927172 
-0.025015983993519950 
0.021951065171943455 
0.019833199476289063 
-0.017888708732241710 
0.015604685179168893 
0.0017295647861082000 
0.033846321837847750 
-0.036854615442933156 
0.028338753835071840 
0.029569423304160597 
0.019943098276790434 
0.030924624473996895 
-0.020223325895047363 
0.024218298067232847 
0.021961431839947180 
0.034171484975918154 
-0.0073018091447344235 
0.0086528841648066820 
-0.0064620743336090140 
-0.012298551066842018 
-0.0084551564786719650 
-0.014256808828033289 
0.013130499841025586 
0.021044346709852070 
-0.00034620331196751227 
0.012404382889484894 
-0.020662071380086595 
-0.020640277532615367 
-0.0086882330737006010 
-0.0089893724664275030 
-0.027185905821445738 
0.0054380317669355020 
0.029010529443945603 
0.027630046549330517 
-0.021027176778099645 
-0.015260593457399161 
0.037948601525353266 
-0.0094199995020362960 
-0.031362661959400950 
0.0090870197183205160 
-0.0037732573796253263 
-0.013651525592987265 
-0.014055109615597349 
0.012776008568172167 
-0.0023159286509923500 
-0.0057115565279791210 
0.026125111996455088 
-0.011097269984124537 
0.033779902568836280 
-0.029440240712549637 
-0.013400972786070345 
0.0035821753904747046 
0.040057206979283264 
0.015152151874936070 
-0.012851329953059664 
0.019217434783901390 
0.013921982524776347 
0.013985591462230253 
0.030043958288808095 
-0.0045546903420886040 
0.0085858329590467900 
0.011650413923046901 
-0.0069739105536928830 
-0.017707806489564205 
-0.0087001970876110140 
0.019327064365903503 
-0.010852774179128775 
0.098085290220927550 
0.030987168099965580 
0.021043404303100643 
-0.017642408808345970 
-0.019411233840517520 
-0.020392746400674816 
-0.014163488557481273 
-0.014860348734197214 
-0.018022319815298090 
-0.016445201790564475 
-0.018012619802486670 
-0.0061754945071014955 
-0.015484146390471933 
-0.0084252837154641030 
-0.013744529484311733 
-0.018246947974646110 
0.0076819102553554100 
-0.0084252837154641030 
0.032061208101429340 
-0.0071382451503519640 
-0.022219666569572014 
0.017099790827071158 
0.044545523885519190 
-0.046395443259257960 
-0.029628902189275600 
-0.0061636648801042310 
0.0021935373128783730 
-0.010582096130189664 
0.038547025688508936 
-0.016984141007327910 
-0.018161991381223400 
-0.021064775152371380 
0.019217434783901390 
-0.0067654846895066680 
-0.017883465163164948 
-0.034307624803760450 
0.018417730689728098 
0.021646999179237836 
0.019871903974984322 
0.015749724226564097 
0.026370322782198720 
0.020518878152532435 
0.034110509029578100 
-0.0084252837154641030 
-0.0023159286509923500 
-0.013340075946540289 
-0.0096160978951090720 
-0.012326766279140310 
0.018480469825895112 
0.017448618707413547 
-0.0019121416598241988 
-0.015036532560617323 
-0.026586564405171850 
-0.013892497721123750 
0.021835909974666314 
0.0020343662801566620 
0.011834918597204518 
0.036159370086978546 
-0.022856883925921626 
-0.018708149849068878 
-0.0044576798989171300 
0.012991773319699433 
-0.018647827599800030 
0.015429951358075487 
0.012825193548324208 
-0.0085749898024394170 
-0.024077398448433315 
-0.028492140472656465 
-0.0068004858873865930 
0.015105342951300718 
0.0075567611184892020 
0.0069447806560706790 
-0.019416029064556656 
0.010802077889716537 
-0.013938368621887359 
-0.010623594532217240 
-0.012850551200302974 
0.0095796829828501370 
-0.0019121416598241988 
0.0082350753946030960 
-0.016250870028742433 
0.016187422160933537 
-0.0047519344259127775 
-0.0087422390134719120 
-0.015083214122180227 
0.011423134067851340 
0.0098833148283863500 
0.016320884289934960 
-0.022431162303664508 
0.031806150533301616 
0.022824091051806772 
-0.026050364129961222 
-0.0042832894818909030 
0.010241438143142273 
0.022063658809306583 
-0.021907951300940950 
-0.014256808828033289 
-0.0093622512421031680 
0.014055885939083367 
-0.010290950423464746 
0.022791094486354710 
0.054764130828145690 
-0.0073506147943053760 
-0.0038844260863087470 
0.044671659995949270 
0.032291477433431350 
-0.025497336960079126 
-0.021102111701298925 
-0.014256808828033289 
-0.012851329953059664 
-0.010424534407113802 
-0.0057169511472037730 
-0.016001201191954636 
-0.017745364352480753 
0.028103137984558397 
0.014913022254852481 
0.014726213132434773 
-0.014367031013019702 
-0.012660800088796581 
0.0076046294864810540 
-0.050518875276141550 
-0.013644817404390202 
-0.0076514301335833725 
-0.0063044107767579080 
-0.025629644700648574 
0.017879946596244405 
-0.0060660537362241370 
0.020846924637800825 
-0.030360137900011526 
0.0046195187471129490 
-0.018551737655431264 
0.00013722455660166496 
0.010753102439762737 
0.031958237989816030 
0.028668444590459082 
0.011451120468275613 
-0.0018848967745834636 
0.012705654968288812 
-0.0028763336404860880 
0.018721531557221210 
-0.015318620234121350 
-0.021262399740893880 
0.0083053654322621340 
0.020218564730899898 
-0.0066516321583306750 
0.018561617779159370 
-0.042591572773167090 
0.023574713429485380 
0.020115240235968085 
0.035639699950066270 
-0.013554693532390614 
-0.044117180245254530 
0.022464738299882830 
-0.018158101470908735 
0.022012237051762870 
0.012956544573472511 
0.042813169167755160 
-0.035379386571312550 
-0.016437572902596544 
-0.016402126547153603 
0.023692467415579340 
-0.010341632988193246 
0.010027425159689934 
-0.016289500395333660 
0.014774443217198091 
-0.027086119612861746 
0.011401315392461371 
0.012297902964554908 
-0.0070815008048615110 
-0.016641106540165186 
-0.025232925164913860 
-0.021951660155291380 
0.017797977010910820 
-0.015060084672457476 
0.0043033172853884720 
0.026528311159925478 
-0.018423677754477247 
0.011048098571223890 
-0.017454947286684924 
-0.018081329652369027 
0.0075826006397980966 
-0.026451223321187056 
-0.016769552237456967 
-0.015810403681341500 
0.013193677547241165 
0.014767977696637659 
-0.0041100449516060200 
-0.012768229432241707 
0.010542246753981905 
0.023824436018353243 
0.0086110148116246270 
-0.0018993778481797797 
0.020881419630008500 
0.0063819437056102290 
0.010367451201402507 
0.018145849047416340 
-0.0042196633622899205 
-0.013881865085312460 
-0.012320343097994357 
0.015166609661848820 
-0.010068866324408196 
-0.027831169654233890 
0.015050102433921107 
0.014637045399851509 
0.031604340834027515 
-0.029899727756481538 
-0.019948520997027958 
-0.069145491684999420 
-0.0055835599407858500 
0.015929351762034867 
0.020876410174452353 
-0.020924319364582042 
-0.025054327641624200 
-0.030662780785403944 
-0.025846949653400890 
0.012557401269132470 
0.0093255639984863910 
0.082262639504823400 
-0.027552431874027783 
-0.017459052771265810 
-0.012206637747963232 
-0.016543757100752090 
-0.035621383103138095 
-0.025054327641624200 
-0.035272290267498050 
-0.021742307939371822 
0.034115746027796684 
-0.011024734323334150 
0.020967639562013512 
-0.0037380879631721876 
-0.016558121037705396 
-0.0044576798989171300 
-0.018799007298773377 
0.013004146550317792 
-0.023315408889713200 
-0.025591036814042765 
-0.0057749605673105330 
-0.017684309990357822 
0.024019216914636668 
-0.0096708234377600060 
-0.015318413448521917 
-0.020606074060758508 
0.025305589925123310 
-0.0073228971099953010 
0.015210040519364209 
0.012941315047077979 
0.021717302059850280 
-0.0095479162789680150 
0.032443642832928830 
0.023682794749105420 
-0.0089893724664275030 
0.060761868350954590 
0.016336776349265300 
-0.012851329953059664 
-0.012851329953059664 
-0.040726163513207510 
0.031222580358468525 
-0.0049768820007419240 
0.0093674293411029320 
0.0035821753904747046 
-0.029475857743862254 
0.033192490762487540 
-0.034164082218823380 
0.0035821753904747046 
0.028948718908769690 
0.022783307468750590 
0.0043511804164296800 
0.035116084024037020 
0.011458099847987385 
0.020540632856481066 
-0.024071425555335164 
-0.027831169654233890 
-0.0058695801358045240 
-0.026636608823246907 
0.018260759171809963 
-0.023381156004355340 
0.017482335033713343 
0.037334134019460380 
0.013507149284359740 
0.0083041876147717140 
-0.0074954105758012550 
-0.028999472388994963 
-0.033771009399371650 
0.040049142848218096 
-0.025934856216469314 
0.033042978927838380 
0.011713873482328295 
-0.011524505377669700 
-0.030990522938777423 
-0.010698195629140117 
-0.019299264047932904 
0.012970305861652282 
0.033620443935607175 
0.0075302191217543020 
-0.035038624365818935 
0.020569977355761236 
-0.0084252837154641030 
-0.0067654846895066680 
0.017448618707413547 
-0.011881173093590873 
-0.0056689349245576620 
0.012804457272170264 
0.0068664486064931020 
0.014992970941866204 
-0.0037380879631721876 
-0.033078744549497880 
-0.010936834219112820 
-0.0078937787447077530 
-0.0078937787447077530 
0.0087074818657913290 
0.014584687440951380 
-0.013335726818935344 
0.023077662623054933 
-0.0017500449556870803 
-0.0097326956834803500 
-0.011608936282582591 
0.015131933655942509 
0.0035821753904747046 
-0.015060084672457476 
-0.030591511205919287 
-0.013544117837638927 
0.022814171436412508 
-0.0013783982472242223 
-0.0026038198635477037 
0.0096876440082373470 
-0.012726688212772928 
-0.012851329953059664 
-0.015697714788560715 
-0.028629449722871160 
0.023406640758270977 
-0.0055209029849196500 
-0.012742774553480088 
-0.0053124647162894080 
0.030934458829706390 
-0.022353601749617303 
-0.0088699130978111920 
0.020993189326309464 
-0.0072072169826878090 
0.0054249854159965230 
-0.0053012369139462240 
-0.0083408928483954900 
-0.018991472997974160 
0.014258200303824290 
0.010241438143142273 
-0.017466607041421200 
0.020023840976909724 
-0.043528064632405220 
0.013985591462230253 
-0.017574580934666992 
-0.037597494428294210 
-0.031990373780715786 
-0.011173716019806606 
0.013488668000380614 
0.014731247225086851 
0.026629557599502016 
-0.0084119205773404740 
0.024756193303346313 
0.025223365178189060 
-0.015042350244896311 
-0.045303996020310480 
0.0092118173479750170 
0.020524393119445780 
0.021415704287164525 
0.014774443217198091 
-0.045691999872716190 
-0.029628902189275600 
-0.012987518753263776 
0.0038950765649495528 
-0.033563382694721520 
-0.018487960221140458 
0.012997283230678590 
0.015863743747401852 
-0.0071180107175410675 
-0.0034766735656306634 
-0.012595472837266527 
0.0047121940488281670 
-0.014082220802495186 
-0.015773207909931832 
0.029124389654303546 
0.033717649927602130 
-0.020821049555342346 
0.013350683495527435 
-0.0092192064604551090 
-0.014426320108879910 
-0.015825776720343732 
0.014446914397950088 
-0.011507646724677453 
-0.026311537827895526 
-0.033354507454674150 
-0.0076514301335833725 
-0.0028763336404860880 
-0.022097485770811116 
-0.032685994089243200 
0.037023409415028950 
0.0045999713770781280 
0.011293776555252386 
-0.012463291649941742 
-0.045015956966471550 
-0.0022383530916535556 
-0.0074379937804739590 
-0.015109971945808815 
-0.014434084996535300 
-0.0080967075683573380 
0.014321275164979682 
0.012204510656890818 
0.0022820645659934594 
0.018621985094995720 
-0.043736716677970605 
-0.010466518154968966 
-0.023423520896510314 
0.037465102163742540 
-0.0076747985567479455 
0.0035821753904747046 
-0.019639208755079200 
0.010645555351010923 
-0.043621185249485064 
0.012716228465547548 
-0.014256808828033289 
-0.025609288462561188 
0.0028394140944062790 
0.042888489360487210 
-0.029758405544693290 
-0.048901126176140930 
-0.026144734366990900 
0.0052509108500846080 
-0.027349736183695097 
-0.033763791586628620 
-0.021339009332678543 
0.011466991133911118 
-0.035788505444171004 
0.033606322813222290 
0.024328797357378456 
0.016716589714675337 
-0.013482497430189056 
-0.011502465975719404 
0.011312323403170312 
0.012567383051928427 
-0.0037803618199536387 
0.030965194005542474 
-0.0026507098212205420 
-0.019593432845751955 
-0.028021015859948692 
0.025962423285555360 
-0.029439402293264777 
-0.014068257430368214 
-0.027232240076239297 
0.031950034026621600 
0.042890460566458940 
0.043688835872414120 
-0.030135664668231164 
0.0046662988749172630 
0.027442139149349832 
0.013698518340370518 
0.012501417630909850 
0.017523429079194144 
0.031567634403288344 
0.016547802042806330 
-0.0099701575985813270 
0.023830310153038887 
0.035271662551647600 
0.039604724445263924 
-0.023042992297224427 
0.010998918194880358 
-0.034065778357940940 
-0.017560954582731127 
-0.040253511442977785 
0.049707274343612905 
0.0080141594365014800 
-0.013532014869718978 
-0.027110145683558906 
-0.012935030617846958 
-0.025264329294533587 
-0.0052795951465427270 
-0.048423611223861930 
-0.061294470994607700 
0.026275331801197260 
-0.014279418362968930 
-0.013385281489148288 
0.020768287707004326 
0.043173478442036300 
-0.038777946196352640 
-0.023050694089526630 
-0.013044145689090140 
0.038203891999252300 
0.030040730023048082 
-0.017017062137487934 
0.0036259376734951130 
0.056390659735510570 
-0.027398990323943380 
-0.029148870880769322 
-0.031513768358804980 
0.041010578675178330 
-0.0085215149264488180 
-0.010200972712550780 
0.041983255254513330 
0.059525364012194220 
0.0092415337738181950 
0.018450727855612390 
0.032747679997091314 
-0.020035930524813055 
-0.0093105655559786300 
0.023830310153038887 
0.021992375318840816 
0.021983217431428028 
-0.038086199453176886 
-0.037243638386914250 
0.036313196534085350 
0.022374209087502202 
-0.0062870295583306840 
-0.040125315785812660 
-0.028162420806199710 
0.031517785308805085 
-0.042199059033645694 
-0.032082547299507330 
-0.025181203593993645 
0.0032017965336922642 
0.027055161663113263 
-0.014040524233529087 
0.0079539920835251450 
0.015856660931042217 
0.022886529758278830 
0.049531171405474916 
0.0029626148960215934 
0.022731310204538835 
0.021625725587176110 
0.022628101080465750 
0.033156961689261330 
0.0021352583835907864 
-0.0015343537957984478 
-0.0051393158678553960 
-0.023569887680240768 
0.025101877334658837 
-0.019510084354735693 
0.064711166743565570 
0.0040807019271456240 
0.017391696498812950 
-0.024279989329677207 
-0.024768417206901360 
0.0097336541909882300 
-0.0015982970094657070 
-0.033534468408981120 
0.032686826827007770 
-0.029096254651087776 
-0.00047407037710773040 
0.068036456583195790 
-0.052792273164033670 
-0.020566780802024630 
-0.022551354113709097 
0.031087373307774134 
-0.0029092050478358427 
-0.019800587173051203 
-0.035371671613486685 
-0.023576167513193726 
-0.045200977981383020 
-0.028144276056618380 
0.0097416774943220460 
-0.021096767663313310 
-0.027030928557575492 
-0.033010637441854880 
0.036271904235528195 
-0.026037565933367820 
0.021177976570772975 
-7.3359169361627210e-05 
-0.013254390596744908 
0.012413259448634280 
-0.0013778578899472270 
0.054963212750878080 
0.043289835172933470 
0.021947582163697410 
0.049566331737276170 
0.044516773940997370 
-0.0043580897814571690 
0.018517143709195360 
0.026960383831389410 
-0.032106811294888314 
0.023000376404588154 
-0.060677545051000480 
0.011238830865171447 
0.0070163018840405340 
0.011481469056544580 
-0.033091183564313200 
-0.00058718816768839250 
-0.013002631271083415 
-0.00022249068680689162 
-0.019260663306654373 
-0.015500536063807774 
0.024167392466348154 
-0.013223080930148080 
0.018055814237182246 
0.014645634385591420 
-0.013846147759201975 
-0.024543833725910740 
0.015933704770606086 
-0.012079975549200574 
-0.0014441602234874064 
-0.037916669335170980 
0.035833907128042160 
-0.0069445614276841020 
0.029017321844642122 
-0.042128696775702384 
0.0088291435930635960 
0.046508306108921240 
-0.0028078860429573730 
0.0058158898691683330 
-0.016363304872667534 
-0.058604766600877900 
0.016267445880938102 
0.0075340829343752570 
-0.0088911736041696250 
0.0024850846095739927 
0.028119382479111346 
-0.015871761367323618 
0.019199407382467764 
0.011085514210018617 
-0.0093024792852534430 
0.044922218822976760 
-0.019506783495189264 
-0.018423586077343533 
-0.020339997216047790 
0.014296546309672057 
-0.023406537649980498 
-0.020794670659478064 
-0.0063650364964882420 
0.065902479306104810 
-0.017958615599506615 
0.010625612763779492 
-0.025765495056923290 
0.011103633766021257 
0.015832134097668052 
0.013855540122184679 
-0.017716167655428886 
-0.016246293727942503 
-0.034947586747307800 
0.0090109283725869870 
-0.011277857257307186 
-0.025627521853142984 
0.029633016234405778 
0.010311080549407148 
-0.016047123790830320 
-0.044141102375690180 
0.042537357859095945 
-0.019300107085205200 
-0.0015320138084438090 
0.0036887411940543327 
-0.032111136434675710 
-0.0038744208466203420 
0.037033212543163710 
0.014483134543596107 
-0.0073682081626521070 
0.012629460987097807 
-0.018862401350023223 
-0.048727234088582310 
0.027110631192985750 
0.010429731660082686 
-0.022718204426690338 
0.030324304393227050 
-0.0049799914642078660 
-0.0070249073275641530 
-0.018705023565233930 
0.016972630309926746 
0.016838436438027654 
0.017931632467025626 
-0.0011015931048159217 
0.029855872728097010 
0.0067971066944522480 
-0.021474944561916140 
-0.0091067840424057470 
-0.021033563610677580 
0.0034766648275383450 
0.0031013042869848773 
0.014268409375917801 
-0.021946377468951856 
-0.0024220166821533867 
0.0059499591141244640 
-0.016912864471082218 
0.023267719265399427 
-0.016884859305185074 
-0.051487413072038050 
0.010211512644304397 
-0.014970126872608965 
-0.018343160872866488 
-0.00090152517966261860 
-0.027557542659699980 
-0.023576850770190016 
-0.024794382072395038 
-0.0020674609921829080 
-0.00083978912717331810 
0.0032885485658205598 
-0.020007865773232010 
-0.0051680671783966180 
0.020684889283498053 
0.017535766566225190 
-0.0054545261788963900 
-0.00096997345301907140 
0.016653282238197877 
-0.051988174986697840 
-0.011976391933627914 
-0.011594565678637408 
-0.026804405464492278 
-0.0097090996980035320 
0.00081246299342133910 
0.016267491493080658 
0.034529490602762680 
-0.030892005220231406 
-0.013549356584988237 
0.020418037089365546 
0.033115104892001100 
-0.046420105048287170 
-0.0084236214120083350 
0.024369647868918530 
-0.047907025544573190 
0.017766529557636832 
0.016780851883659312 
0.0070897288287565980 
0.016774011747453403 
-0.035531321081966265 
-0.0058983908288696460 
-0.015119857498504426 
-0.014019790171576488 
0.012195203421407728 
0.023086506901889153 
0.0076800876345459700 
0.026826409221692587 
0.050719641435805600 
0.026616161924692825 
-0.00043732796150205717 
0.013691813205034802 
0.010075639013160203 
0.032005725726540590 
0.0069941372829676360 
0.012538370944686673 
0.034088017640312800 
0.017545283707472080 
0.0083955597102649110 
0.0017228161488367616 
-0.010172642737772030 
0.026547688674976580 
-0.026218482346983634 
-0.012322882939736487 
0.026978292227887814 
-0.017282578060475790 
-0.041420000411685594 
-0.0093609344576141600 
-0.00084924901270133240 
-0.030750275073791190 
-0.037536956307157504 
0.0018922645487726250 
-0.014410860639513320 
-0.061705401564172950 
-0.015481416731046653 
-0.038904360822049240 
0.010015440088069906 
0.018931551926290080 
0.020635587555837760 
0.088478545195383500 
-0.0055800516627401770 
0.021279057928364476 
0.026077980609645110 
0.0043710444184060390 
0.010199285467679614 
0.028525755085640820 
-0.014503410163677918 
-0.013128794426826040 
-0.016501650515865910 
0.026042023165396232 
-0.013636913026531770 
0.012419846746874972 
-0.014613100258857210 
-0.010219256938860570 
-0.0021995443730636310 
-0.0095339281161151740 
0.019292543331626097 
0.037006431705550140 
-0.050712317986216865 
0.017578666489803740 
0.028154092949390204 
0.0031828934319402850 
0.012942779168178403 
-0.014316563161406686 
-0.022829040957572412 
-0.017331532824332314 
-0.0053805026092972510 
0.0029006430885410300 
-0.0087392096586043270 
0.019236027701196423 
0.0029511491149704860 
0.0029006430885410300 
0.0049614521378337900 
0.012356819227055810 
0.0013601670939457065 
-0.010619650444878730 
-0.010402396170962428 
-0.015926488526846035 
0.014585214751235686 
0.014585214751235686 
-0.018679395482200090 
-0.016410192850259284 
-0.014320845588201120 
-0.014320845588201120 
-0.014320845588201120 
-0.014320845588201120 
-0.014320845588201120 
-0.014320845588201120 
-0.014320845588201120 
-0.014320845588201120 
-0.014320845588201120 
0.0079574605417623100 
-0.014275700809864294 
-0.014275700809864294 
-0.014275700809864294 
-0.014275700809864294 
-0.014275700809864294 
-0.014275700809864294 
-0.014275700809864294 
0.0068073630288970980 
0.0047298870310404280 
-0.013659295926728711 
-0.010619650444878730 
-0.010850192292048377 
-0.0029272294707628436 
-0.010964607337001197 
0.048889839667202160 
-0.00087992925085296160 
0.0067574854244850600 
0.031221527138503500 
0.014582423250499674 
-0.017841852051966430 
-0.00098784871203790600 
-0.014320845588201120 
0.0047298870310404280 
-0.00071503407060284860 
-0.0018537961521474875 
0.0068073630288970980 
0.011700677837046540 
-0.00013138392675267130 
0.0010286650912508342 
-0.0019322699457894276 
-0.0029272294707628436 
0.011700677837046540 
-0.016410192850259284 
0.0035306877596472815 
-0.00087992925085296160 
0.011700677837046540 
0.0059584512683522800 
-0.0020815950877348770 
0.011700677837046540 
0.0068073630288970980 
0.0095877309172309020 
0.0079574605417623100 
0.014585214751235686 
0.0079574605417623100 
-0.00013138392675267130 
0.0019859841438135380 
0.017856642180259584 
0.011263986127082883 
0.0029511491149704860 
-0.0079486187515729230 
0.0069519202295665090 
-0.030353662068830882 
-0.020968835714757640 
-0.00042013517116370417 
-0.015449863603850322 
0.022816355455917430 
0.010509572957592373 
0.010203161627843873 
0.010203161627843873 
0.0097818951521270980 
0.0035306877596472815 
-0.0089111046891739500 
-0.010484318507278310 
0.014585214751235686 
-0.0018537961521474875 
-0.0046227589968479840 
0.0059584512683522800 
-0.0046227589968479840 
-0.021665061678064625 
0.011263986127082883 
0.0078727779372142740 
-0.00011361013891567617 
-0.0046227589968479840 
0.022816355455917430 
0.0021775306081014286 
0.0029006430885410300 
0.0079574605417623100 
0.021322751139514925 
0.0048048887416934570 
-0.012265530393355147 
0.0078727779372142740 
0.0021775306081014286 
-0.00087992925085296160 
0.0077275407710090320 
0.0069519202295665090 
0.012538593360028015 
0.0045403395481308150 
0.0096415758731571160 
-0.0048801207971202680 
-0.0067722117898071410 
-0.0080358941966682550 
0.0047298870310404280 
-0.0087392096586043270 
-0.0016723310621989450 
0.0049614521378337900 
0.0049614521378337900 
0.00095658732365171130 
0.0097818951521270980 
-0.018627190388719240 
0.0049614521378337900 
-0.0055630694925682090 
0.0097818951521270980 
-0.0055630694925682090 
-0.0073126870431564620 
0.0052210135222340220 
0.0080151885725504150 
0.0052210135222340220 
0.010909712202464715 
-0.00042013517116370417 
-0.010135650409164006 
0.0018877198673056348 
-0.00013138392675267130 
-5.1063526899910156e-06 
-0.00071503407060284860 
0.014585214751235686 
0.0048919248444766195 
-0.010135650409164006 
-0.0053805026092972510 
-0.010683252972668091 
-0.010619650444878730 
-0.0028102166945782655 
0.011238244019977934 
0.014585214751235686 
-0.0098372847935274880 
-0.00098784871203790600 
0.0021775306081014286 
-0.013387641493184646 
-0.0056853137606632640 
0.0059584512683522800 
0.0068073630288970980 
0.0053111416084436890 
-0.014671992632157838 
-0.014232626473537558 
0.0053111416084436890 
-0.00071503407060284860 
0.025054632427758676 
0.029265295307845880 
0.0035306877596472815 
0.017856642180259584 
-0.020968835714757640 
0.014582423250499674 
-0.0080358941966682550 
-0.0050134435249721310 
-0.010038592705181018 
-0.0079486187515729230 
0.0048919248444766195 
-0.0080358941966682550 
0.010203161627843873 
-0.0080358941966682550 
0.0029006430885410300 
0.0096415758731571160 
-0.010683252972668091 
-0.00011361013891567617 
0.0077275407710090320 
-0.010811239111384955 
-0.0046227589968479840 
-0.0096024844391604200 
-0.0027925667254448264 
0.0047298870310404280 
-0.0051157324752568600 
-0.010038592705181018 
-0.0018537961521474875 
-0.0070811286965675145 
-0.012265530393355147 
0.014401157954720635 
0.017086490556451596 
-0.0055630694925682090 
-0.030353662068830882 
-0.014275700809864294 
0.0062770131888300180 
-0.013229774418978775 
-0.011812159913550050 
0.0048919248444766195 
0.0069519202295665090 
0.0010286650912508342 
-0.014320845588201120 
0.026674340125620314 
0.0034346924458462080 
0.00095658732365171130 
0.032939864035554205 
-0.010850192292048377 
-0.018627190388719240 
0.0067574854244850600 
0.0047298870310404280 
0.0052210135222340220 
0.014582423250499674 
0.0053111416084436890 
0.0053111416084436890 
-0.010135650409164006 
0.0052210135222340220 
-0.0074964366911302090 
0.017548952561748803 
-0.0057467872950901370 
-0.0028102166945782655 
-0.019402141650174124 
-0.011812159913550050 
-0.00042013517116370417 
-0.018679395482200090 
-0.0032949814902011767 
0.013290118260096483 
0.0078016956981075970 
-0.0051157324752568600 
-0.014275700809864294 
0.032929964746015980 
0.024630792933117610 
0.0033994659105474716 
-0.013387641493184646 
-0.0069986748106306600 
-0.020968835714757640 
0.0048048887416934570 
-0.014275700809864294 
0.0048048887416934570 
0.0092213000989805420 
-0.014275700809864294 
-0.014820110121950905 
-0.014820110121950905 
-0.0080518301607945090 
0.0018877198673056348 
-0.014275700809864294 
-0.0067722117898071410 
-0.0034711743654626790 
-0.0034711743654626790 
-0.0034711743654626790 
0.032939864035554205 
-0.0051157324752568600 
0.0047298870310404280 
0.0065639918747896820 
-0.0051157324752568600 
0.0095877309172309020 
-0.00098784871203790600 
0.0010286650912508342 
0.00095658732365171130 
0.017548952561748803 
0.0084490288633253650 
0.022816355455917430 
0.0079574605417623100 
0.0013601670939457065 
-0.013641837665088783 
-0.022054327725508496 
-0.0028102166945782655 
-0.0018537961521474875 
0.017548952561748803 
0.017548952561748803 
0.010909712202464715 
-0.0075812402760142020 
0.014582423250499674 
-0.0032949814902011767 
-0.010135650409164006 
0.0048919248444766195 
0.0078016956981075970 
-0.044458944599638145 
0.021322751139514925 
0.013342635905367385 
0.0084490288633253650 
0.012815728623846358 
0.030896818171640254 
-0.0020815950877348770 
-0.0037467723448289195 
0.0048048887416934570 
-0.014232626473537558 
-0.012055938461292031 
-0.044458944599638145 
-0.010850192292048377 
-0.011048757392504310 
-0.025167867969836152 
-0.010237801704095653 
0.0035306877596472815 
0.052364317204676054 
-0.0029272294707628436 
0.0035306877596472815 
0.0092213000989805420 
-0.00087992925085296160 
0.017548952561748803 
-0.0081524386928470850 
-0.011072668280839125 
0.0018877198673056348 
0.030259213268043577 
-0.0081524386928470850 
-0.0062112818051911650 
-0.010402396170962428 
0.0035306877596472815 
-0.00011361013891567617 
-5.1063526899910156e-06 
-0.031547789082032430 
0.0052210135222340220 
-0.00084819372231589040 
-0.0098372847935274880 
0.014585214751235686 
0.0068073630288970980 
0.017548952561748803 
-0.0075812402760142020 
-0.00084819372231589040 
-0.00084819372231589040 
0.0019859841438135380 
-0.010402396170962428 
0.0085531847187146640 
0.012356819227055810 
-0.0058958745278924640 
0.0019859841438135380 
-0.00087992925085296160 
-0.030353662068830882 
0.023439114921443470 
-0.010402396170962428 
-0.010619650444878730 
-0.00084819372231589040 
-0.010402396170962428 
-0.0039482595303305410 
-0.0028102166945782655 
-0.0056853137606632640 
0.0019859841438135380 
-0.013659295926728711 
-0.017319647091784456 
-0.0046227589968479840 
0.0019859841438135380 
-0.035560809170271386 
-0.0057467872950901370 
0.0019859841438135380 
-0.014320845588201120 
-0.030353662068830882 
-0.015449863603850322 
-0.0028102166945782655 
0.0078727779372142740 
0.011700677837046540 
-0.0062112818051911650 
-0.011812159913550050 
0.0078016956981075970 
-0.031547789082032430 
0.034295320026042320 
0.0048919248444766195 
0.0085531847187146640 
-0.0051157324752568600 
-0.0077949316181792000 
-0.0018537961521474875 
0.0065639918747896820 
-0.0071549593213179160 
-0.0046227589968479840 
0.0065639918747896820 
-0.0048801207971202680 
-0.022061156258206895 
-0.0079486187515729230 
0.00068437284389649660 
0.052364317204676054 
-0.0079486187515729230 
0.011951052861345490 
0.0068073630288970980 
0.011238244019977934 
-0.0077949316181792000 
-0.010484318507278310 
-0.0029272294707628436 
0.0029511491149704860 
0.019115687121955577 
-0.030353662068830882 
-0.012042028234380948 
-0.0050134435249721310 
-0.0029272294707628436 
0.024630792933117610 
0.0053111416084436890 
0.014582423250499674 
0.0068073630288970980 
-0.0046227589968479840 
0.00068437284389649660 
-0.0080358941966682550 
-0.0080358941966682550 
0.028138062587389450 
0.011951052861345490 
0.011951052861345490 
0.0065639918747896820 
0.028138062587389450 
-0.0057467872950901370 
0.024630792933117610 
0.0067574854244850600 
0.0079574605417623100 
-0.0039482595303305410 
-0.028636677389256930 
0.014301699590052240 
0.0049614521378337900 
-0.017319647091784456 
0.0018877198673056348 
0.0029511491149704860 
0.0065639918747896820 
0.0029006430885410300 
-0.00087992925085296160 
0.012233034826616078 
0.0014650846946408955 
-0.018679395482200090 
0.012538593360028015 
-0.0032949814902011767 
-0.0080358941966682550 
-0.0032949814902011767 
-0.0067722117898071410 
0.0085531847187146640 
0.010909712202464715 
0.0053111416084436890 
-0.0081524386928470850 
-0.014320845588201120 
-0.0051157324752568600 
-0.00042013517116370417 
0.010016487834014336 
0.0062770131888300180 
-0.010484318507278310 
-0.0075812402760142020 
-0.011072668280839125 
0.0056425670098096180 
0.017548952561748803 
-0.0062112818051911650 
0.0097818951521270980 
-0.015449863603850322 
0.0069519202295665090 
-0.010811239111384955 
-0.00042013517116370417 
-0.00084819372231589040 
-0.010135650409164006 
0.0052210135222340220 
0.030583816864557950 
-0.00098784871203790600 
0.0080422969236787390 
0.0062770131888300180 
0.010172081393021750 
0.048889839667202160 
0.014981912341942806 
0.00068437284389649660 
0.0049614521378337900 
-0.0018537961521474875 
-0.0039482595303305410 
0.0089762243421652020 
-0.010619650444878730 
-0.011072668280839125 
0.0066064482597887510 
0.0067574854244850600 
-0.0032949814902011767 
-0.0046227589968479840 
0.00068437284389649660 
0.0052210135222340220 
0.0065639918747896820 
0.012538593360028015 
0.0029511491149704860 
-0.0050134435249721310 
0.014401157954720635 
-0.010811239111384955 
0.025873146449065090 
-0.0056853137606632640 
-0.0019322699457894276 
0.012538593360028015 
-0.0018537961521474875 
-0.024100274101306550 
0.00068437284389649660 
-0.0032949814902011767 
0.0084490288633253650 
-0.020968835714757640 
0.014981912341942806 
0.010016487834014336 
-0.010619650444878730 
-0.0074964366911302090 
-0.0096024844391604200 
-0.0020815950877348770 
0.032939864035554205 
0.0068073630288970980 
0.0068073630288970980 
0.0097818951521270980 
0.0068073630288970980 
0.0077275407710090320 
0.0089762243421652020 
-0.0073126870431564620 
0.0068073630288970980 
0.014630754835100651 
0.012478167962166971 
0.00068437284389649660 
-0.0053805026092972510 
-0.00084819372231589040 
-0.022054327725508496 
0.0049614521378337900 
0.014401157954720635 
0.0068073630288970980 
0.00068437284389649660 
0.0062770131888300180 
-0.0077121461055769700 
0.0078016956981075970 
0.0021775306081014286 
0.0019859841438135380 
0.0065639918747896820 
-0.0053805026092972510 
-0.0080169711228596680 
-0.00087992925085296160 
0.0097818951521270980 
0.0080151885725504150 
-0.0055630694925682090 
-0.017319647091784456 
-0.0056853137606632640 
0.0033994659105474716 
0.022816355455917430 
-0.010619650444878730 
-0.013659295926728711 
0.0035306877596472815 
0.014301699590052240 
0.013983751259247815 
-0.012042028234380948 
0.0077275407710090320 
-0.014320845588201120 
0.0048048887416934570 
0.0079574605417623100 
-0.022054327725508496 
0.0013601670939457065 
0.0078727779372142740 
0.0021775306081014286 
0.0067574854244850600 
0.0047298870310404280 
0.0019859841438135380 
-0.0071549593213179160 
0.011700677837046540 
0.0029006430885410300 
0.0049614521378337900 
-0.011812159913550050 
0.012538593360028015 
0.0067574854244850600 
0.030768209553915342 
0.011263986127082883 
0.030768209553915342 
0.010172081393021750 
-0.0032949814902011767 
-0.00042013517116370417 
0.0078727779372142740 
-0.00087992925085296160 
-0.0087392096586043270 
-0.0055630694925682090 
-0.024805319920736903 
0.010203161627843873 
0.0021775306081014286 
0.0013601670939457065 
0.025873146449065090 
-0.0058958745278924640 
-0.010237801704095653 
0.0048048887416934570 
0.0019859841438135380 
0.0078103346505897250 
-0.013659295926728711 
0.0068073630288970980 
0.030583816864557950 
-0.010237801704095653 
-0.0067722117898071410 
-0.0027925667254448264 
-0.0034711743654626790 
-0.0032949814902011767 
0.0019859841438135380 
-0.0075812402760142020 
-0.0018537961521474875 
-0.015449863603850322 
0.021322751139514925 
-0.0018537961521474875 
0.024211590697978880 
-0.0028102166945782655 
0.0010286650912508342 
0.0021775306081014286 
-0.00084819372231589040 
-0.0034711743654626790 
-0.022054327725508496 
0.0034346924458462080 
0.0056425670098096180 
0.0079574605417623100 
-0.013229774418978775 
-0.0073126870431564620 
0.019115687121955577 
0.0019859841438135380 
0.0035306877596472815 
-0.015449863603850322 
0.0014650846946408955 
0.034295320026042320 
-0.013387641493184646 
0.012538593360028015 
0.012478167962166971 
-0.0018537961521474875 
0.0034346924458462080 
-0.0051157324752568600 
0.0092213000989805420 
0.0078016956981075970 
0.014585214751235686 
-0.0046227589968479840 
-0.011812159913550050 
0.010909712202464715 
-0.0018537961521474875 
0.025054632427758676 
0.030583816864557950 
-0.0069986748106306600 
-0.0069986748106306600 
-0.010038592705181018 
-0.013213910799354748 
-0.0048801207971202680 
0.032939864035554205 
-0.0075812402760142020 
-0.0080169711228596680 
0.010016487834014336 
0.0077275407710090320 
0.0089762243421652020 
0.0089762243421652020 
-0.0034711743654626790 
-0.028973136940475357 
-0.0098372847935274880 
0.014981912341942806 
-0.015449863603850322 
0.0089762243421652020 
0.0089762243421652020 
0.0089762243421652020 
-0.0073126870431564620 
-0.019604572461524125 
0.014585214751235686 
0.010016487834014336 
-0.00011361013891567617 
-0.017319647091784456 
-0.010619650444878730 
-0.0077949316181792000 
0.019236027701196423 
0.0047298870310404280 
-0.0050134435249721310 
-0.011072668280839125 
0.0069519202295665090 
-0.014275700809864294 
-0.013387641493184646 
-0.010850192292048377 
0.010016487834014336 
-0.010135650409164006 
0.010172081393021750 
0.0097818951521270980 
0.012356819227055810 
-0.028636677389256930 
-0.0089111046891739500 
-0.0051157324752568600 
-0.026140612735805365 
-0.0096024844391604200 
-0.010484318507278310 
0.0062691704840921480 
0.0092646514559144940 
-0.00084819372231589040 
-0.010135650409164006 
0.011238244019977934 
0.00068437284389649660 
0.0049614521378337900 
0.011700677837046540 
0.021322751139514925 
-0.010619650444878730 
0.0010286650912508342 
-0.0046227589968479840 
0.0080422969236787390 
-0.014275700809864294 
0.0014650846946408955 
-0.0046227589968479840 
0.014630754835100651 
0.031221527138503500 
0.0078727779372142740 
0.0048919248444766195 
0.0080422969236787390 
-0.00098784871203790600 
-0.0029272294707628436 
-0.00084819372231589040 
0.0021775306081014286 
-0.0055630694925682090 
-0.0046227589968479840 
0.023439114921443470 
-0.014232626473537558 
-0.0055630694925682090 
0.0079574605417623100 
0.00095658732365171130 
-0.0029272294707628436 
-0.0080518301607945090 
0.011827443707778051 
-0.014320845588201120 
-0.0051157324752568600 
0.0078727779372142740 
0.0010286650912508342 
0.0010286650912508342 
0.00068437284389649660 
0.012478167962166971 
0.0068073630288970980 
0.0047298870310404280 
0.017548952561748803 
-0.024805319920736903 
-0.014275700809864294 
-0.0096024844391604200 
-0.010484318507278310 
0.0035306877596472815 
-0.0077121461055769700 
0.0048048887416934570 
0.0067574854244850600 
-0.010811239111384955 
0.012538593360028015 
-0.011812159913550050 
-0.010811239111384955 
-0.011812159913550050 
0.019379396074329053 
-0.0019322699457894276 
-0.011072668280839125 
-0.011072668280839125 
0.014630754835100651 
0.0029006430885410300 
0.0059584512683522800 
0.0066064482597887510 
0.00095658732365171130 
-0.0089111046891739500 
-0.019604572461524125 
-0.0032949814902011767 
0.014582423250499674 
0.0096415758731571160 
0.032939864035554205 
-0.00084819372231589040 
-0.014275700809864294 
-0.010135650409164006 
0.00068437284389649660 
-0.0081524386928470850 
-0.010038592705181018 
0.0048048887416934570 
0.0053111416084436890 
0.013983751259247815 
-0.0057467872950901370 
0.020066752393773300 
0.024334213520149785 
0.010172081393021750 
0.0010286650912508342 
-0.0028102166945782655 
-0.0075812402760142020 
0.00095658732365171130 
0.024211590697978880 
-0.0062112818051911650 
-0.017841852051966430 
-0.0080518301607945090 
0.012538593360028015 
-0.020968835714757640 
0.0013601670939457065 
-0.014275700809864294 
0.012815728623846358 
-0.0087392096586043270 
0.019236027701196423 
0.026674340125620314 
0.010081831651203313 
0.0067574854244850600 
0.0066064482597887510 
-0.010135650409164006 
0.0066064482597887510 
-0.0067722117898071410 
0.0066064482597887510 
0.0062691704840921480 
0.011263986127082883 
-0.0019322699457894276 
-0.018679395482200090 
0.011827443707778051 
0.010190867111061177 
0.026674340125620314 
0.0013601670939457065 
-0.0096024844391604200 
0.0021775306081014286 
0.0029006430885410300 
0.032929964746015980 
0.0092646514559144940 
0.0078016956981075970 
-0.025167867969836152 
0.034295320026042320 
-0.028636677389256930 
0.0048919248444766195 
0.0066064482597887510 
-0.0046227589968479840 
0.0092646514559144940 
0.030896818171640254 
-0.0098372847935274880 
0.0067574854244850600 
0.0013601670939457065 
-0.013229774418978775 
-0.010619650444878730 
0.0084490288633253650 
-0.0034711743654626790 
0.014582423250499674 
0.0052210135222340220 
0.0035306877596472815 
-0.0080169711228596680 
-0.0080518301607945090 
-0.0080518301607945090 
0.0084490288633253650 
-0.013641837665088783 
-0.0018537961521474875 
-0.013641837665088783 
0.014582423250499674 
-0.00087992925085296160 
-0.0029272294707628436 
0.023439114921443470 
0.0080422969236787390 
-0.0056853137606632640 
0.014582423250499674 
0.0065639918747896820 
0.010190867111061177 
0.0065639918747896820 
0.0065639918747896820 
-0.0050134435249721310 
0.0029006430885410300 
-0.010135650409164006 
0.0065639918747896820 
0.0092213000989805420 
0.0065639918747896820 
0.0065639918747896820 
0.0092213000989805420 
0.0018877198673056348 
-0.00084819372231589040 
-0.0019322699457894276 
0.010509572957592373 
0.0013601670939457065 
-0.010619650444878730 
0.011238244019977934 
-0.012055938461292031 
0.012356819227055810 
-0.013658596760645379 
0.010016487834014336 
-0.0034711743654626790 
-0.011072668280839125 
0.0047298870310404280 
0.0048048887416934570 
0.0045403395481308150 
-0.0075812402760142020 
-0.0080169711228596680 
0.010203161627843873 
-0.011048757392504310 
-0.0037467723448289195 
-0.010811239111384955 
0.0092646514559144940 
-0.0080358941966682550 
-0.010237801704095653 
0.013342635905367385 
0.0068073630288970980 
0.013342635905367385 
0.0092646514559144940 
-0.0018537961521474875 
0.014301699590052240 
0.0068073630288970980 
-0.0020815950877348770 
0.019379396074329053 
-0.0020815950877348770 
-0.0080358941966682550 
-0.0016723310621989450 
-0.029543256245088332 
-0.0051157324752568600 
0.0056425670098096180 
0.0052210135222340220 
0.013342635905367385 
0.0069519202295665090 
0.0080151885725504150 
0.030259213268043577 
0.010016487834014336 
-0.016410192850259284 
0.010016487834014336 
-0.0046227589968479840 
0.017128927064800220 
0.0014650846946408955 
0.0034346924458462080 
0.019379396074329053 
0.0079574605417623100 
-0.0075812402760142020 
0.0097818951521270980 
0.0069519202295665090 
-0.0075812402760142020 
-0.0081524386928470850 
-0.0081524386928470850 
0.0097818951521270980 
-0.00042013517116370417 
-0.00042013517116370417 
-0.0075812402760142020 
0.0069519202295665090 
-0.00042013517116370417 
-0.0075812402760142020 
-0.00042013517116370417 
0.0052210135222340220 
-0.0029272294707628436 
0.010016487834014336 
0.017128927064800220 
0.0059584512683522800 
-0.0050134435249721310 
0.0059584512683522800 
-5.1063526899910156e-06 
0.0084490288633253650 
0.011238244019977934 
-0.0087392096586043270 
-0.0016723310621989450 
0.0048048887416934570 
0.020066752393773300 
-0.014820110121950905 
0.0049614521378337900 
0.0078016956981075970 
-0.00011361013891567617 
0.0049614521378337900 
-0.015449863603850322 
-0.034924837154823090 
0.0049614521378337900 
-0.015449863603850322 
-0.012055938461292031 
-0.018627190388719240 
-0.0050134435249721310 
0.0047298870310404280 
0.0062691704840921480 
0.014630754835100651 
-0.0029272294707628436 
0.031221527138503500 
0.012233034826616078 
-0.0071549593213179160 
0.00095658732365171130 
0.00095658732365171130 
0.012233034826616078 
0.0029511491149704860 
0.0078016956981075970 
0.0080151885725504150 
0.0019859841438135380 
-0.020968835714757640 
0.0034346924458462080 
-0.0032949814902011767 
-0.00011361013891567617 
0.010203161627843873 
-0.015550246850245137 
0.010909712202464715 
0.0013601670939457065 
0.00095658732365171130 
0.0033994659105474716 
-0.0037467723448289195 
0.0067574854244850600 
0.00095658732365171130 
-0.0087392096586043270 
0.0048919248444766195 
0.010190867111061177 
0.015647542729069930 
0.019236027701196423 
-0.0077949316181792000 
0.0080151885725504150 
-0.0034711743654626790 
0.0013601670939457065 
0.026674340125620314 
0.0080422969236787390 
0.0085531847187146640 
-0.0056853137606632640 
0.026674340125620314 
0.0068073630288970980 
-0.010038592705181018 
0.0013601670939457065 
0.0085531847187146640 
0.0062770131888300180 
-0.016410192850259284 
-0.035560809170271386 
0.027924904022979716 
-0.0037467723448289195 
-0.030259514333122534 
0.0085531847187146640 
-0.0057467872950901370 
-0.00098784871203790600 
0.0062691704840921480 
0.0077275407710090320 
-0.00098784871203790600 
-0.00098784871203790600 
-0.0019322699457894276 
-0.0019322699457894276 
0.0021775306081014286 
0.0078103346505897250 
0.0085531847187146640 
-0.00084819372231589040 
0.014630754835100651 
0.0014650846946408955 
-0.0027925667254448264 
0.0084490288633253650 
0.00068437284389649660 
-0.0029272294707628436 
0.014301699590052240 
-0.0062112818051911650 
0.010190867111061177 
-0.0062112818051911650 
-0.0020815950877348770 
0.0084490288633253650 
0.0066064482597887510 
0.0084490288633253650 
-0.0062112818051911650 
-0.013229774418978775 
-0.015441003680168394 
-0.026140612735805365 
-0.015339432566507182 
-0.0048801207971202680 
-0.0050134435249721310 
0.0062770131888300180 
0.0035306877596472815 
-0.010038592705181018 
0.0059584512683522800 
-0.0069986748106306600 
-0.011048757392504310 
0.0048919248444766195 
-0.024805319920736903 
0.0010286650912508342 
0.0052210135222340220 
0.019379396074329053 
-0.0077949316181792000 
0.010190867111061177 
-0.020968835714757640 
0.022816355455917430 
0.0019859841438135380 
0.0021775306081014286 
-0.0055630694925682090 
0.0033994659105474716 
-0.00013138392675267130 
0.0021775306081014286 
0.010081831651203313 
-0.00087992925085296160 
-0.0067722117898071410 
-0.0028102166945782655 
0.0067574854244850600 
0.012233034826616078 
0.0053111416084436890 
0.0035306877596472815 
0.013983751259247815 
-0.013229774418978775 
0.0059584512683522800 
0.019115687121955577 
-0.015441003680168394 
-0.015449863603850322 
-0.011812159913550050 
-0.00098784871203790600 
0.0079574605417623100 
0.0029511491149704860 
0.0029511491149704860 
-0.010402396170962428 
-0.00087992925085296160 
0.0079574605417623100 
-0.00071503407060284860 
-0.0032949814902011767 
-0.014320845588201120 
0.0069519202295665090 
-0.0046227589968479840 
-0.0080358941966682550 
-0.017319647091784456 
0.025054632427758676 
-0.0075812402760142020 
-0.0020815950877348770 
0.0010286650912508342 
0.0047298870310404280 
-0.00011361013891567617 
-0.00011361013891567617 
0.0047298870310404280 
0.0065639918747896820 
0.017128927064800220 
-0.0080358941966682550 
0.010081831651203313 
-0.0074964366911302090 
0.020066752393773300 
-0.015449863603850322 
0.0078016956981075970 
-0.0077121461055769700 
0.0078016956981075970 
-0.019604572461524125 
0.0092646514559144940 
-0.0032949814902011767 
-0.0077121461055769700 
-0.010850192292048377 
0.012356819227055810 
0.034295320026042320 
0.0080151885725504150 
-0.0055630694925682090 
-0.00084819372231589040 
-0.0067722117898071410 
0.0045403395481308150 
-0.0067722117898071410 
-0.0050134435249721310 
-0.011072668280839125 
0.0068073630288970980 
0.022816355455917430 
0.052364317204676054 
0.026674340125620314 
0.0013601670939457065 
-0.019604572461524125 
0.032939864035554205 
-0.026140612735805365 
0.0062770131888300180 
-0.00042013517116370417 
0.052364317204676054 
0.014585214751235686 
-0.0018537961521474875 
-0.021665061678064625 
0.017548952561748803 
0.0018877198673056348 
0.0078016956981075970 
0.0085531847187146640 
0.0045403395481308150 
-0.014275700809864294 
-0.0058958745278924640 
0.013290118260096483 
-0.028973136940475357 
0.0048048887416934570 
0.0048048887416934570 
0.0048048887416934570 
0.011951052861345490 
0.0029511491149704860 
0.0029511491149704860 
0.014585214751235686 
-0.018627190388719240 
-0.019604572461524125 
0.014301699590052240 
-0.013229774418978775 
-0.0034711743654626790 
-0.0080358941966682550 
0.026674340125620314 
-0.014320845588201120 
0.032939864035554205 
0.026674340125620314 
0.026674340125620314 
0.0021775306081014286 
-0.014671992632157838 
0.0021775306081014286 
-0.0020815950877348770 
-0.0046227589968479840 
0.0010286650912508342 
0.0092646514559144940 
0.032929964746015980 
-0.0028102166945782655 
-0.0028102166945782655 
-0.0028102166945782655 
0.013342635905367385 
-0.0028102166945782655 
0.012233034826616078 
0.012233034826616078 
0.012233034826616078 
0.0010286650912508342 
0.020066752393773300 
-0.013229774418978775 
0.019379396074329053 
-0.0077949316181792000 
-0.0077949316181792000 
-0.0077949316181792000 
-0.0028102166945782655 
-0.0077949316181792000 
-0.0028102166945782655 
-0.0077949316181792000 
-0.0077949316181792000 
-0.0077949316181792000 
-0.0077949316181792000 
-0.0077949316181792000 
-0.0077949316181792000 
0.022816355455917430 
0.0078727779372142740 
0.0021775306081014286 
-0.00013138392675267130 
-0.00013138392675267130 
-0.0032949814902011767 
-0.00013138392675267130 
-0.00013138392675267130 
-0.00013138392675267130 
0.0029511491149704860 
-0.010683252972668091 
-0.0032949814902011767 
-0.00013138392675267130 
-0.00013138392675267130 
-0.00013138392675267130 
-0.010964607337001197 
0.0029511491149704860 
-0.010402396170962428 
0.0021775306081014286 
-0.010484318507278310 
-0.00013138392675267130 
-0.0080518301607945090 
-0.0080518301607945090 
-0.015926488526846035 
-0.0080518301607945090 
-0.0032949814902011767 
0.0029511491149704860 
-0.00013138392675267130 
-0.010964607337001197 
-0.010402396170962428 
0.0029511491149704860 
-0.015926488526846035 
-0.010850192292048377 
-0.00013138392675267130 
-0.015926488526846035 
-0.00013138392675267130 
-0.00013138392675267130 
0.012356819227055810 
0.0029511491149704860 
-0.015926488526846035 
-0.00013138392675267130 
-0.0048801207971202680 
-0.00013138392675267130 
0.0029511491149704860 
-0.00013138392675267130 
-0.019402141650174124 
-0.014320845588201120 
-0.010135650409164006 
-0.0032949814902011767 
-0.0032949814902011767 
0.0019859841438135380 
-0.010683252972668091 
0.0029006430885410300 
-0.0032949814902011767 
-0.0081524386928470850 
0.0079574605417623100 
-0.00042013517116370417 
-0.0071549593213179160 
-0.0075812402760142020 
0.00068437284389649660 
-0.0051157324752568600 
-0.038748535344267476 
0.0029006430885410300 
0.0062691704840921480 
0.022816355455917430 
0.027924904022979716 
0.019115687121955577 
0.0079574605417623100 
-0.014232626473537558 
0.0035306877596472815 
-0.015449863603850322 
-0.018627190388719240 
-0.014275700809864294 
-0.0069986748106306600 
-0.00011361013891567617 
-0.020968835714757640 
0.014585214751235686 
-0.014275700809864294 
-0.0028102166945782655 
0.026674340125620314 
-0.0057467872950901370 
0.0085841461571520720 
0.014981912341942806 
0.014630754835100651 
-0.019604572461524125 
-0.0074964366911302090 
0.0010286650912508342 
0.0079574605417623100 
0.0013601670939457065 
-0.0080358941966682550 
0.0047298870310404280 
0.011827443707778051 
-0.0050134435249721310 
-0.038748535344267476 
0.0048919248444766195 
-0.0080358941966682550 
-0.010850192292048377 
-0.010811239111384955 
-0.0029272294707628436 
-0.028636677389256930 
-0.011609654735366608 
-0.0073126870431564620 
0.012356819227055810 
-0.0053805026092972510 
-0.014320845588201120 
-0.015441003680168394 
0.0021775306081014286 
0.00068437284389649660 
0.013342635905367385 
-0.0057467872950901370 
-0.0081524386928470850 
-0.010811239111384955 
-0.0032949814902011767 
0.0047298870310404280 
0.0048048887416934570 
-0.015207521711122645 
0.012356819227055810 
0.0079574605417623100 
0.0035306877596472815 
-0.016410192850259284 
0.012538593360028015 
-0.031547789082032430 
-0.031547789082032430 
-0.010619650444878730 
0.0013601670939457065 
0.0010286650912508342 
-0.00098784871203790600 
0.0053111416084436890 
-0.015449863603850322 
0.0019859841438135380 
0.0013601670939457065 
0.0053111416084436890 
0.0053111416084436890 
-0.015550246850245137 
0.024211590697978880 
0.017128927064800220 
0.0053111416084436890 
0.0029511491149704860 
-0.0080518301607945090 
-0.010964607337001197 
-0.0089111046891739500 
0.0034346924458462080 
-0.015441003680168394 
-0.0075812402760142020 
0.010172081393021750 
0.0013601670939457065 
-0.00098784871203790600 
-0.010619650444878730 
0.0053111416084436890 
0.017856642180259584 
-0.0028102166945782655 
0.0078103346505897250 
0.0053111416084436890 
-0.00011361013891567617 
0.014585214751235686 
0.0053111416084436890 
-0.0016723310621989450 
-0.015441003680168394 
-0.0028102166945782655 
-0.0029272294707628436 
-0.010619650444878730 
-0.00042013517116370417 
-0.0028102166945782655 
-0.011072668280839125 
0.0053111416084436890 
-0.012042028234380948 
-0.0028102166945782655 
0.00095658732365171130 
-0.012042028234380948 
0.011263986127082883 
0.0085841461571520720 
0.0062770131888300180 
0.019115687121955577 
0.025054632427758676 
-0.014820110121950905 
0.0035306877596472815 
0.0013601670939457065 
0.0035306877596472815 
0.0053111416084436890 
0.0092213000989805420 
-0.0075812402760142020 
-0.00071503407060284860 
-0.0073126870431564620 
-0.00098784871203790600 
0.026674340125620314 
-0.00042013517116370417 
-0.019604572461524125 
-0.0028102166945782655 
-0.0075812402760142020 
0.0078016956981075970 
0.0078016956981075970 
0.0078016956981075970 
0.0078016956981075970 
-0.015449863603850322 
0.0078016956981075970 
-0.030259514333122534 
0.0078016956981075970 
0.0078016956981075970 
0.0035306877596472815 
-0.013229774418978775 
-0.0018537961521474875 
0.0010286650912508342 
0.0010286650912508342 
-0.020968835714757640 
0.0078016956981075970 
-0.0034711743654626790 
0.0048048887416934570 
-0.028636677389256930 
-0.0081524386928470850 
-0.015207521711122645 
-0.0053805026092972510 
-0.0032949814902011767 
-0.035560809170271386 
0.0033994659105474716 
0.0010286650912508342 
0.0045403395481308150 
-0.0077949316181792000 
0.0092213000989805420 
0.014301699590052240 
0.0021775306081014286 
-0.035560809170271386 
0.0065639918747896820 
-0.010402396170962428 
0.014401157954720635 
0.0035306877596472815 
0.0035306877596472815 
-0.035560809170271386 
-0.0067722117898071410 
-0.019402141650174124 
-0.0089111046891739500 
-0.0046227589968479840 
0.0066064482597887510 
-0.015441003680168394 
-0.0055630694925682090 
-0.014275700809864294 
-0.0037467723448289195 
0.012356819227055810 
-0.0077121461055769700 
-0.00042013517116370417 
0.014582423250499674 
0.0092646514559144940 
0.014301699590052240 
-0.028636677389256930 
0.0079574605417623100 
0.0035306877596472815 
0.014981912341942806 
0.0085841461571520720 
-0.00042013517116370417 
0.021322751139514925 
-0.015449863603850322 
0.010081831651203313 
-0.015550246850245137 
0.0085531847187146640 
-0.015449863603850322 
0.013290118260096483 
0.0096415758731571160 
-0.00084819372231589040 
-0.010135650409164006 
-0.0034711743654626790 
0.028138062587389450 
0.014301699590052240 
-0.0071549593213179160 
0.021322751139514925 
0.012233034826616078 
0.032929964746015980 
-0.0077949316181792000 
0.010909712202464715 
0.0047298870310404280 
0.00068437284389649660 
-0.0034711743654626790 
0.0068073630288970980 
-0.014275700809864294 
-0.00042013517116370417 
-0.0029272294707628436 
-0.0079486187515729230 
-0.014820110121950905 
0.0078016956981075970 
-0.0056853137606632640 
0.0068073630288970980 
0.0021775306081014286 
0.010172081393021750 
-0.0073126870431564620 
-0.011812159913550050 
0.0049614521378337900 
0.0010286650912508342 
-0.013387641493184646 
-0.00084819372231589040 
-0.00084819372231589040 
-0.0053805026092972510 
0.011700677837046540 
0.017548952561748803 
0.0067574854244850600 
-0.0018537961521474875 
0.014630754835100651 
0.020066752393773300 
-0.00098784871203790600 
0.0056425670098096180 
0.013290118260096483 
-0.011812159913550050 
0.0068073630288970980 
0.0029511491149704860 
0.0010286650912508342 
0.0078727779372142740 
0.014301699590052240 
0.015647542729069930 
0.0085531847187146640 
-0.0018537961521474875 
-0.011609654735366608 
-0.0028102166945782655 
0.015647542729069930 
-0.010964607337001197 
0.0078103346505897250 
-0.013387641493184646 
-0.00013138392675267130 
-0.024100274101306550 
0.00068437284389649660 
0.011263986127082883 
0.020066752393773300 
0.00068437284389649660 
-0.00011361013891567617 
-0.00084819372231589040 
0.024630792933117610 
0.00068437284389649660 
-0.012042028234380948 
0.0065639918747896820 
-0.0028102166945782655 
0.0013601670939457065 
-0.030353662068830882 
0.00095658732365171130 
0.014401157954720635 
0.0065639918747896820 
-0.0080169711228596680 
0.018426280112555128 
-0.0028102166945782655 
0.010172081393021750 
-0.015207521711122645 
-0.0018537961521474875 
0.0014650846946408955 
0.0035306877596472815 
0.0048048887416934570 
0.0045403395481308150 
0.011238244019977934 
-0.019604572461524125 
-0.0016723310621989450 
-0.015441003680168394 
-0.0075812402760142020 
0.0048048887416934570 
-0.015449863603850322 
0.0085841461571520720 
-0.00011361013891567617 
0.0035306877596472815 
-0.014320845588201120 
0.00095658732365171130 
0.0080151885725504150 
0.0021775306081014286 
0.0095877309172309020 
0.014981912341942806 
-0.00011361013891567617 
0.011263986127082883 
0.0092213000989805420 
-0.015441003680168394 
0.0059584512683522800 
-0.0077949316181792000 
0.0035306877596472815 
-0.011072668280839125 
0.020066752393773300 
-0.011048757392504310 
0.034295320026042320 
0.0010286650912508342 
0.024334213520149785 
-0.011048757392504310 
0.0033994659105474716 
-0.018627190388719240 
-0.0098372847935274880 
0.0021775306081014286 
0.0067574854244850600 
0.0010286650912508342 
0.012356819227055810 
0.0010286650912508342 
-0.010850192292048377 
0.0010286650912508342 
0.010172081393021750 
0.0065639918747896820 
-0.018627190388719240 
-0.0028102166945782655 
-0.0080169711228596680 
-0.00084819372231589040 
-0.00013138392675267130 
-0.014820110121950905 
0.0078016956981075970 
-0.010484318507278310 
0.015647542729069930 
0.0068073630288970980 
-0.0016723310621989450 
0.010172081393021750 
0.0068073630288970980 
-0.0020815950877348770 
-0.015207521711122645 
0.0095877309172309020 
0.011263986127082883 
0.0013601670939457065 
-0.010135650409164006 
-0.0080518301607945090 
-0.018627190388719240 
-0.010237801704095653 
0.030768209553915342 
-0.0019322699457894276 
0.010509572957592373 
0.0034346924458462080 
-0.0046227589968479840 
0.022816355455917430 
0.0014650846946408955 
-0.0058958745278924640 
0.010081831651203313 
-0.0027925667254448264 
0.0077275407710090320 
-0.0037467723448289195 
0.0067574854244850600 
0.019236027701196423 
-0.011609654735366608 
-0.0089111046891739500 
-0.0050134435249721310 
-0.0028102166945782655 
0.019236027701196423 
-0.0016723310621989450 
-0.0048801207971202680 
-0.00071503407060284860 
0.013342635905367385 
0.011238244019977934 
-0.00042013517116370417 
0.0018877198673056348 
0.0085841461571520720 
-0.0080169711228596680 
-0.00011361013891567617 
0.00068437284389649660 
-0.0051157324752568600 
-0.0029272294707628436 
-0.010237801704095653 
0.0014650846946408955 
-0.0057467872950901370 
0.0014650846946408955 
-0.0073126870431564620 
0.0096415758731571160 
-0.0029272294707628436 
-0.0020815950877348770 
0.0077275407710090320 
0.00095658732365171130 
0.0047298870310404280 
-0.014232626473537558 
0.018426280112555128 
-0.0020815950877348770 
-0.0016723310621989450 
0.048889839667202160 
0.010172081393021750 
0.0095877309172309020 
0.0019859841438135380 
-0.0051157324752568600 
0.0095877309172309020 
0.0033994659105474716 
-0.013387641493184646 
0.014301699590052240 
0.0033994659105474716 
-0.010964607337001197 
-0.014232626473537558 
-0.0028102166945782655 
0.0014650846946408955 
-0.013229774418978775 
0.025873146449065090 
0.0021775306081014286 
-0.015207521711122645 
-0.014232626473537558 
0.0069519202295665090 
-0.0096024844391604200 
-0.017841852051966430 
0.0095877309172309020 
0.0096415758731571160 
-0.00084819372231589040 
0.011827443707778051 
-0.013387641493184646 
0.00095658732365171130 
0.0068073630288970980 
-0.010964607337001197 
0.027924904022979716 
0.0089762243421652020 
0.0048919248444766195 
-0.010237801704095653 
-0.010237801704095653 
-0.010964607337001197 
0.012815728623846358 
0.0085841461571520720 
-0.00011361013891567617 
-0.0027925667254448264 
0.0080422969236787390 
0.010172081393021750 
0.017548952561748803 
0.013983751259247815 
0.0080151885725504150 
-0.0053805026092972510 
-0.0080358941966682550 
0.031221527138503500 
-0.026140612735805365 
-0.011812159913550050 
-0.013658596760645379 
0.0049614521378337900 
-0.0029272294707628436 
-0.038748535344267476 
0.029265295307845880 
0.0097818951521270980 
0.0095877309172309020 
0.0021775306081014286 
-0.010484318507278310 
0.0013601670939457065 
-0.021665061678064625 
0.010172081393021750 
0.0085531847187146640 
-0.0019322699457894276 
-0.014820110121950905 
0.0035306877596472815 
0.010203161627843873 
-0.0027925667254448264 
0.029265295307845880 
-0.0028102166945782655 
0.011700677837046540 
0.012538593360028015 
0.0018877198673056348 
0.010190867111061177 
-0.010619650444878730 
-0.0055630694925682090 
-0.0077949316181792000 
0.0062770131888300180 
0.024630792933117610 
-0.0062112818051911650 
0.0080151885725504150 
-0.010484318507278310 
-0.011812159913550050 
0.010016487834014336 
-0.015449863603850322 
0.010509572957592373 
-0.011072668280839125 
-0.016410192850259284 
-0.0080358941966682550 
-0.035560809170271386 
0.0049614521378337900 
-0.0032949814902011767 
0.010203161627843873 
0.0035306877596472815 
