solver_type L2R_L2LOSS_SVC
nr_class 2
label 1 -1
nr_feature 7999
bias 0.0000000000000000
w
-0.10130644788470669 
-0.089824575013695190 
-0.11696699004042505 
-0.067389930546780230 
0.099390646470204530 
-0.072371934159590370 
-0.074428418667747600 
-0.069242417318394340 
-0.025757556057434378 
-0.044143564854209270 
-0.052390221557798640 
-0.066990047038082600 
-0.042577897181499320 
-0.049529496908703950 
0.053274563767633500 
0.082584791679212290 
-0.17125788078252763 
-0.037800824459560435 
-0.059190800783942540 
-0.054726324043750565 
0.084036606127621930 
-0.057817705549599516 
0.055801673241427790 
-0.098302815555456070 
0.051429903783799740 
-0.080901869397311880 
-0.042038129763282970 
-0.067099758079150820 
-0.041648550588787210 
0.061259779144751770 
0.038859629203790180 
-0.052585992302086980 
-0.050107827543932010 
-0.053963003729230520 
-0.079525971031833060 
-0.080602288554203180 
-0.017040835941985057 
-0.073198056595665670 
0.036212656320045720 
-0.034857423596278920 
-0.092837981093867720 
-0.066754603410283910 
-0.021859790148596507 
-0.038631118835756750 
0.042340289161119864 
-0.040023311119439160 
-0.040928455329882220 
0.045484827363121400 
-0.099778808836544260 
0.054148303462496540 
0.057099884248741690 
0.027844469538155243 
-0.045926725785196260 
-0.020358798675189627 
0.037532021839452194 
0.020864617332521932 
-0.032290611791100230 
-0.017741001060354540 
-0.068759583262564430 
-0.057099644241646620 
-0.028344289728964780 
-0.013076609607489131 
0.026660661418803917 
-0.036371799712787770 
0.056071267792228790 
-0.048171790032390215 
-0.054614624547905555 
-0.031947196695898540 
-0.028317807285182470 
0.032181228803855760 
-0.034943622807004750 
-0.027879260033406773 
0.032555640603235350 
-0.034475107550410250 
0.050042012697735410 
-0.024060284796546640 
-0.024937055692520960 
0.036874462281728804 
-0.047251675314962460 
-0.010845169726879428 
-0.030099639407022115 
-0.030870586359926677 
0.031634106939035550 
0.058358755328125574 
-0.025996591127219332 
-0.028862552385610526 
-0.011622586408190020 
0.029434202149625797 
0.029111171420165904 
-0.017741001060354540 
-0.039351528657798250 
0.047880213691501854 
0.039370861045705640 
0.040406986503998910 
-0.068825517732056030 
0.053854636466058040 
-0.031902609577097125 
0.052369351463728765 
-0.046925461826378680 
0.057775366519217190 
0.039459571407099990 
-0.024954526975678695 
-0.068460151900757560 
0.063185163022980690 
0.031961683634306640 
-0.029053830384742036 
0.041258579425316355 
-0.027219153327068060 
0.065275706755361620 
-0.014376832588532715 
0.081064633741861180 
0.034514469474968196 
-0.030343282093585392 
0.078222907235538740 
-0.043361587798479110 
-0.034908710263879934 
-0.023782265782201060 
0.061887831661387480 
-0.074450992407494640 
-0.024637898930848542 
0.039545952279069690 
-0.028871771966648037 
-0.021859790148596507 
-0.034943622807004750 
-0.035872696718358930 
-0.045508309686873825 
-0.076020385342595050 
-0.020775215913036646 
-0.021859790148596507 
-0.015635881497898990 
0.053572493475957580 
-0.037840967630140350 
-0.050819277851817180 
-0.046868641262746130 
0.048372630429775570 
-0.027514302730585220 
0.030100147827621514 
-0.037856912113559830 
-0.027998586853225460 
-0.037091087789303420 
-0.044505134658463986 
0.053292529654833240 
0.042041594368130090 
0.037227947033975630 
0.056230007797657120 
-0.034921470540701250 
-0.015635881497898990 
-0.043109363506761270 
0.050631627756259984 
-0.039009263611569964 
0.068548645387347130 
0.030906127147654824 
0.033501851611837330 
-0.051972478582270350 
0.030484833914430534 
0.036246664424471290 
0.11181576739986708 
0.047894249978086830 
-0.024888446154990120 
-0.044400161427471906 
-0.037862961509042300 
-0.015558464231198499 
-0.033441689648327960 
-0.029392211891438574 
-0.070453368611204230 
-0.056796970940927840 
-0.053916041862466055 
-0.036935035499797200 
0.044128911955142620 
0.043607777299289030 
0.024558962636362320 
-0.055155299162717590 
-0.039121223802437495 
-0.044347917713948574 
0.056685787048486530 
-0.031947196695898540 
0.042631512709714070 
0.034922622007043644 
0.050776753800354006 
0.051952498678541280 
-0.035247620531648000 
0.034390976286216776 
-0.069436917669666200 
-0.016785557870378952 
0.047880213691501854 
-0.027554905456025576 
0.041262592471003945 
-0.021859790148596507 
0.040425266477892380 
-0.036371799712787770 
-0.038769914393542210 
-0.030991042649766844 
0.064415117942271570 
-0.031242761797400723 
0.033501851611837330 
0.068315083017232400 
-0.037043541299680420 
-0.047554172393692334 
-0.036207644117531454 
-0.033326532435327530 
0.038143378693860586 
-0.020455759066960497 
-0.062003025867482874 
-0.036750700105778500 
-0.028347250819375660 
0.043279843422819646 
-0.033465372801105710 
0.033129172872088850 
-0.034391664334564910 
-0.034232849949301807 
-0.068565462047513200 
-0.029674126584312416 
0.025088517811635732 
0.063133097484179960 
0.076613308824389710 
-0.043239664347703900 
-0.043534550708445600 
-0.029279143277671280 
0.022840008123828480 
-0.019590320205609830 
0.032340609318814250 
-0.037316066410724400 
0.051718587903610606 
-0.032290611791100230 
-0.050826398268196130 
-0.038769914393542210 
0.032340609318814250 
-0.034943622807004750 
-0.041560910215303615 
-0.030461501728643117 
-0.054089554578947090 
-0.037309169989211806 
0.027728948926129458 
0.096420916321303510 
-0.016525327090765880 
-0.039327205108210465 
-0.024866021626852516 
0.041573139543476340 
0.047906000439780920 
0.057991425208824050 
0.041573139543476340 
-0.027720600767342264 
-0.030461501728643117 
-0.048677732821811070 
-0.019590320205609830 
-0.020064433572340950 
-0.025431407163057355 
-0.087929401622010990 
0.039426228962814750 
0.038678890175569650 
-0.035905908571951950 
-0.036404076050871580 
0.073151737033176860 
0.034516831527097460 
-0.037190000281432320 
0.041480304586549220 
-0.034014351501658394 
-0.019335436636196208 
0.066455449243565740 
-0.024536951337417533 
0.032203033167058220 
0.036581152733029740 
0.080672465839812550 
0.058888497360535160 
-0.033044052197913454 
-0.047251675314962460 
0.040285983796150955 
-0.055452094436450404 
-0.050826398268196130 
-0.050722399128049135 
-0.036951764069386400 
-0.0094751696133408560 
0.044326192378652920 
-0.036929465938541400 
-0.063827956337781710 
-0.027480145946739153 
-0.046331662791370146 
-0.060529035235081505 
-0.066594870790450680 
0.047184479238861880 
0.10383353456888435 
-0.036100039970049805 
-0.026858111331948296 
0.026973560819693907 
-0.011622586408190020 
0.024484131498402565 
0.055844398481012900 
0.028122844000185273 
0.044796240750843055 
0.034211247714673130 
-0.064710630201884760 
0.036502718857068170 
-0.011622586408190020 
0.053816094483372360 
-0.036598709674261430 
-0.030947931396224140 
-0.082146006105359920 
0.047162506358260670 
-0.030834276175961024 
-0.048930675451493974 
-0.10173665249618903 
0.023505832386607020 
-0.016525327090765880 
0.039704202047566910 
0.030208053525264470 
0.059647056122429216 
0.020864617332521932 
0.036106825903571740 
-0.035298879312968200 
-0.022522368164981505 
0.033755672449862410 
0.024898265489582480 
0.041589517791741280 
0.038640789691162546 
0.040294048011264905 
-0.030709801498597010 
0.076718692349756370 
-0.021859790148596507 
0.041374746193893430 
-0.10173665249618903 
-0.069586721645849070 
0.053857741081389056 
-0.066497806418582450 
0.046908391049872700 
-0.015635881497898990 
-0.029460503703937893 
0.049230630698117200 
0.038038026595877130 
0.034366504821301350 
0.034979104690811266 
-0.046655535546996630 
-0.038759949634242355 
0.060815959769987000 
-0.062065544555257370 
0.035499552280726040 
-0.044263468240329610 
-0.031814464487592310 
-0.047315976617833990 
0.029179699262428360 
-0.032878695997971600 
0.035814140417302260 
0.083842622065465370 
-0.024536951337417533 
0.029821808532837293 
0.020864617332521932 
-0.036934512182870374 
-0.042923804545944716 
-0.025271464999211242 
0.035413353000206050 
0.064339741964864620 
-0.032991044820536230 
0.069623429667620180 
-0.047866341954164290 
-0.036846726603796516 
-0.082146006105359920 
-0.043848867423256590 
-0.044185369769102370 
-0.041046244854950350 
0.036076347238435740 
-0.035298879312968200 
-0.018819723618471555 
0.060815959769987000 
0.062466424445826280 
0.030520633081170135 
-0.031814464487592310 
0.055944555158652630 
-0.052560481020320300 
0.029104531420738020 
0.039502196595163160 
-0.053554795727156150 
-0.085623366482760400 
0.033501851611837330 
0.024350681381172135 
0.036449458332513400 
-0.032061465280406090 
-0.023454641211244364 
0.060558136000667160 
0.042113835671673190 
-0.025250352870836510 
0.076925949320643730 
0.066150174745563500 
-0.069586721645849070 
0.039253818086367160 
0.056441984622343976 
-0.035893834546869250 
0.069398755443015820 
0.077065833299055000 
-0.031650642450697965 
0.067896647729602410 
-0.018715270661031336 
0.056079521549643450 
0.020864617332521932 
-0.057671619402328510 
-0.063784349024814340 
-0.028514509045999300 
0.063937482047104000 
-0.036161049067761755 
-0.011262858167981600 
-0.0037189316662451493 
-0.037022219289214270 
0.022579382555947940 
-0.024326841732733040 
0.029362592184722487 
0.057331169011459990 
0.053562346155270690 
0.042010005446125640 
0.10532199566699696 
0.025168034201307473 
-0.063884789125673650 
-0.023832668500319630 
-0.031637582173456996 
-0.020925386738469363 
-0.019081398544355120 
-0.033322474996950870 
0.027571266975557230 
-0.016323597035496077 
0.016544010820895766 
-0.021103165610522120 
0.033434842264098055 
-0.010168662038878735 
0.016544010820895766 
0.015022729098655180 
0.025711657136075620 
0.010361743517969804 
-0.014525702778421062 
-0.017381193273139188 
-0.025868289870424273 
0.022039387511307126 
0.022039387511307126 
-0.039547884859297430 
-0.035073469214288770 
-0.017577366755209885 
-0.017577366755209885 
-0.017577366755209885 
-0.017577366755209885 
-0.017577366755209885 
-0.017577366755209885 
-0.017577366755209885 
-0.017577366755209885 
-0.017577366755209885 
0.014526778685585284 
-0.017057591553182466 
-0.017057591553182466 
-0.017057591553182466 
-0.017057591553182466 
-0.017057591553182466 
-0.017057591553182466 
-0.017057591553182466 
0.010642018867429907 
0.012452850673827221 
-0.038651052726436950 
-0.014525702778421062 
-0.014336858515392034 
0.016544010820895766 
0.015869716768541470 
-0.013544700480033896 
-0.0090483746645641460 
-0.022633395474014842 
0.080121232777107000 
-0.014464181512713163 
0.014612676095377648 
0.044445622270740250 
0.026566902410332340 
-0.030761668453185675 
-0.012140006331673623 
-0.017577366755209885 
0.012452850673827221 
-0.015790659537804105 
-0.0040371194761808910 
0.010642018867429907 
0.016888737483174043 
0.0097055680754037470 
-0.0055695280953875500 
-0.014336858515392034 
-0.013544700480033896 
-0.027132313049333980 
-0.0090483746645641460 
0.016888737483174043 
-0.035073469214288770 
0.010887485869139760 
-0.014464181512713163 
0.016888737483174043 
0.019805279001896544 
0.014976472425541170 
0.022425204175647100 
0.015559299841437990 
-0.013880630133907937 
0.016888737483174043 
0.010642018867429907 
0.018538387444109530 
0.014526778685585284 
0.022039387511307126 
0.014526778685585284 
0.0097055680754037470 
0.014651312005799782 
0.051692754654431840 
0.026015916819135135 
-0.010168662038878735 
-0.022815104148302453 
0.016963362151231672 
-0.030037750792694898 
-0.023175610777309747 
-0.0085456476547618710 
-0.019704334136982932 
0.036049749353610584 
0.021775198934419704 
0.020780951557381920 
0.020780951557381920 
0.019519628059846230 
0.010887485869139760 
-0.020406737690780857 
-0.021729989357378040 
0.022039387511307126 
-0.0040371194761808910 
-0.011134083814784923 
0.019805279001896544 
-0.011134083814784923 
0.015022729098655180 
0.014526778685585284 
-0.056569694490553070 
0.026015916819135135 
0.015448066956242179 
0.010619173636859304 
-0.011134083814784923 
0.036049749353610584 
0.0085552823132808150 
0.016544010820895766 
0.014526778685585284 
0.044012436514765490 
0.014976472425541170 
-0.035921277255505080 
0.015448066956242179 
0.0085552823132808150 
-0.023353704536184980 
-0.017896907120180595 
-0.015970560266332180 
-0.014336858515392034 
-0.035921277255505080 
-0.015621207803777315 
-0.038651052726436950 
-0.014464181512713163 
0.023954449619043520 
0.016963362151231672 
0.024868706014154574 
0.020601048408511118 
0.043019797081337456 
-0.015850545015993537 
-0.022811013994606120 
-0.013447780526699796 
-0.054647592235702230 
-0.0055695280953875500 
0.012452850673827221 
-0.021103165610522120 
0.014129878976013803 
0.015022729098655180 
0.015022729098655180 
0.014227914182429557 
0.019519628059846230 
-0.031323495842699380 
0.015022729098655180 
-0.014295976694811861 
0.019519628059846230 
-0.014295976694811861 
-0.016632755705014123 
0.015559299841437990 
0.017942808572945477 
0.015559299841437990 
0.010887485869139760 
0.011116846944301330 
0.014651312005799782 
0.014129878976013803 
0.025438678925206543 
0.024868706014154574 
0.028194690558876242 
-0.020814372080914467 
0.042118948919105260 
-0.0085456476547618710 
-0.020664126162455186 
0.022286635921881334 
0.0097055680754037470 
-0.019080028169467547 
-0.015790659537804105 
0.022039387511307126 
0.018133185607373710 
-0.020664126162455186 
-0.016323597035496077 
-0.024157607187920985 
-0.014525702778421062 
-0.0077550499456142214 
0.022056550405977638 
0.022039387511307126 
-0.030756696028601390 
-0.012140006331673623 
0.0085552823132808150 
-0.027223696226574674 
-0.014731559762137908 
0.019805279001896544 
0.010642018867429907 
0.013039424398391933 
-0.025340681828504910 
-0.024286705323524532 
0.013039424398391933 
-0.015790659537804105 
0.034761704732608800 
0.049031448094458390 
0.010887485869139760 
0.051692754654431840 
-0.023175610777309747 
0.026566902410332340 
-0.013447780526699796 
-0.021281443783526000 
-0.021327754461013610 
-0.022815104148302453 
0.018133185607373710 
-0.013447780526699796 
0.020780951557381920 
-0.013447780526699796 
0.016544010820895766 
0.043019797081337456 
-0.024157607187920985 
0.010619173636859304 
0.023954449619043520 
-0.018139239412505715 
-0.011134083814784923 
-0.020902757387770306 
-0.019086922847715532 
0.012452850673827221 
-0.0095043991698673620 
-0.021327754461013610 
-0.0040371194761808910 
-0.025222459986810785 
-0.035921277255505080 
0.020213405299267056 
0.036364627843311110 
-0.014295976694811861 
-0.030037750792694898 
-0.017057591553182466 
0.021812590812495602 
-0.023619889280107487 
-0.022830181067267707 
0.018133185607373710 
0.016963362151231672 
-0.0055695280953875500 
-0.017577366755209885 
0.039431830291545290 
0.020086069795568165 
0.014227914182429557 
0.056654530137651433 
-0.013544700480033896 
-0.031323495842699380 
0.014612676095377648 
0.012452850673827221 
0.015559299841437990 
0.026566902410332340 
0.013039424398391933 
0.013039424398391933 
-0.020664126162455186 
0.015559299841437990 
-0.027132313049333980 
0.025438678925206543 
-0.023353704536184980 
-0.0077550499456142214 
-0.046531420222821790 
-0.022830181067267707 
-0.0085456476547618710 
-0.039547884859297430 
-0.011758168972265560 
0.022482569898683497 
0.017818953542790606 
-0.0095043991698673620 
-0.017057591553182466 
0.046339018515670904 
0.039210663845360840 
0.024821573961466843 
-0.027223696226574674 
-0.017577366755209885 
0.014129878976013803 
-0.025681854369991784 
-0.023175610777309747 
0.014976472425541170 
-0.017057591553182466 
0.014976472425541170 
0.022425204175647100 
-0.017057591553182466 
-0.029419348364767086 
-0.029419348364767086 
-0.015248831680192600 
-0.040520188294751790 
0.030803182875661732 
0.022286635921881334 
-0.017057591553182466 
-0.022811013994606120 
-0.015621207803777315 
-0.015621207803777315 
-0.015621207803777315 
0.029028651616845525 
0.043605865869731570 
0.056654530137651433 
-0.0095043991698673620 
0.012452850673827221 
0.016331455892735595 
-0.0095043991698673620 
0.018538387444109530 
-0.012140006331673623 
-0.0055695280953875500 
0.014227914182429557 
0.025438678925206543 
0.026937831433534070 
0.036049749353610584 
0.014526778685585284 
0.010361743517969804 
-0.035907056464577840 
-0.035907056464577840 
-0.043338603900770990 
-0.0077550499456142214 
-0.0040371194761808910 
0.025438678925206543 
0.025438678925206543 
0.042118948919105260 
-0.017588486417514500 
0.026566902410332340 
-0.011758168972265560 
-0.020664126162455186 
0.018133185607373710 
0.017818953542790606 
-0.14131160870341280 
0.044012436514765490 
-0.028422192810439294 
-0.035073469214288770 
0.028988205276834930 
0.022286635921881334 
0.021818052276888660 
0.026937831433534070 
0.043819294559798270 
0.054053581305230886 
-0.013880630133907937 
-0.019194147565461150 
0.014976472425541170 
-0.024286705323524532 
-0.040135471353102130 
-0.14131160870341280 
-0.013544700480033896 
-0.028143354725438115 
0.010642018867429907 
-0.038651052726436950 
-0.022633395474014842 
-0.054647592235702230 
-0.014731559762137908 
-0.015850545015993537 
-0.035073469214288770 
-0.040135471353102130 
0.017818953542790606 
0.017942808572945477 
0.027104070351678135 
-0.024487487810678298 
0.034542726691811200 
-0.011840083334975673 
0.010887485869139760 
0.074168128550703950 
-0.0090483746645641460 
0.010887485869139760 
0.022425204175647100 
-0.014464181512713163 
0.025438678925206543 
-0.013667102915389860 
-0.024486179707191847 
0.022286635921881334 
0.061781460009287484 
-0.013667102915389860 
-0.021866709326539686 
-0.017381193273139188 
0.010887485869139760 
0.010619173636859304 
0.043605865869731570 
-0.010168662038878735 
-0.019080028169467547 
-0.049696385713114556 
0.036364627843311110 
-0.022815104148302453 
0.014651312005799782 
0.023954449619043520 
0.015559299841437990 
0.011116846944301330 
-0.030756696028601390 
0.022039387511307126 
0.022039387511307126 
0.010642018867429907 
0.025438678925206543 
-0.017588486417514500 
-0.020814372080914467 
-0.020814372080914467 
-0.021281443783526000 
-0.019194147565461150 
0.012638686790159800 
0.011116846944301330 
0.011116846944301330 
0.014651312005799782 
-0.017381193273139188 
0.018816182506081340 
0.025711657136075620 
-0.013014082540883066 
-0.011758168972265560 
-0.014464181512713163 
0.014651312005799782 
-0.014464181512713163 
-0.047795568795437844 
-0.013447780526699796 
-0.030037750792694898 
0.028671282607371028 
-0.017381193273139188 
-0.014525702778421062 
0.011116846944301330 
-0.017381193273139188 
-0.015970560266332180 
-0.0077550499456142214 
-0.014731559762137908 
0.014651312005799782 
-0.038651052726436950 
-0.040251159435004506 
-0.011134083814784923 
0.014651312005799782 
-0.040520188294751790 
0.014227914182429557 
-0.056453996116431274 
-0.023353704536184980 
0.014651312005799782 
-0.017577366755209885 
-0.030037750792694898 
-0.019704334136982932 
-0.013014082540883066 
0.021812590812495602 
-0.043338603900770990 
-0.0077550499456142214 
0.015448066956242179 
-0.0095043991698673620 
0.017818953542790606 
0.016888737483174043 
-0.021866709326539686 
0.044012436514765490 
-0.013667102915389860 
-0.038651052726436950 
-0.022830181067267707 
0.017818953542790606 
-0.049696385713114556 
0.049340746062243916 
0.018133185607373710 
0.020780951557381920 
-0.015970560266332180 
-0.017588486417514500 
-0.013014082540883066 
0.051587966237483726 
-0.013880630133907937 
-0.035073469214288770 
0.022425204175647100 
0.065846975922338290 
-0.016632755705014123 
-0.020664126162455186 
0.021818052276888660 
0.022056550405977638 
0.018816182506081340 
-0.0085456476547618710 
-0.0040371194761808910 
-0.0095043991698673620 
-0.017896907120180595 
-0.0040371194761808910 
0.016331455892735595 
-0.020928867360767454 
-0.011134083814784923 
-0.013544700480033896 
-0.0054740626324372170 
-0.040251159435004506 
0.022056550405977638 
-0.0085456476547618710 
0.011116846944301330 
0.032958231831580040 
0.051587966237483726 
0.049340746062243916 
-0.0090483746645641460 
0.0097055680754037470 
-0.040251159435004506 
-0.020406737690780857 
-0.040520188294751790 
0.049340746062243916 
-0.0040371194761808910 
-0.020406737690780857 
-0.013667102915389860 
0.022425204175647100 
0.012638686790159800 
0.016331455892735595 
-0.015850545015993537 
-0.0095043991698673620 
-0.0040371194761808910 
-0.048804491981611130 
-0.022815104148302453 
-0.0054740626324372170 
0.074168128550703950 
-0.022815104148302453 
0.039398426205411400 
0.010642018867429907 
0.022056550405977638 
-0.017896907120180595 
-0.021729989357378040 
-0.0090483746645641460 
-0.013014082540883066 
-0.015970560266332180 
0.022286635921881334 
-0.010168662038878735 
-0.013014082540883066 
0.016331455892735595 
-0.0085456476547618710 
-0.010168662038878735 
0.032958231831580040 
-0.015970560266332180 
-0.012140006331673623 
-0.030037750792694898 
-0.030069808355500348 
-0.021281443783526000 
-0.0090483746645641460 
0.039210663845360840 
-0.015970560266332180 
0.039210663845360840 
0.013039424398391933 
0.026566902410332340 
0.049340746062243916 
-0.016632755705014123 
-0.010168662038878735 
0.011116846944301330 
0.022425204175647100 
0.039398426205411400 
-0.0085456476547618710 
-0.015248831680192600 
-0.017084953207621920 
-0.0054740626324372170 
0.010642018867429907 
-0.023353704536184980 
0.011116846944301330 
-0.013544700480033896 
0.016331455892735595 
-0.040251159435004506 
-0.0085456476547618710 
-0.0077550499456142214 
0.016544010820895766 
-0.0077550499456142214 
-0.024157607187920985 
-0.025681854369991784 
-0.011134083814784923 
-0.0054740626324372170 
-0.013447780526699796 
-0.013447780526699796 
0.065846975922338290 
0.039398426205411400 
0.039398426205411400 
0.016331455892735595 
0.065846975922338290 
-0.023353704536184980 
0.039398426205411400 
-0.023353704536184980 
0.039210663845360840 
0.014612676095377648 
0.014526778685585284 
-0.015970560266332180 
-0.041362033713990990 
0.028987542104144136 
0.015022729098655180 
-0.040251159435004506 
0.022286635921881334 
-0.010168662038878735 
0.016331455892735595 
0.016544010820895766 
-0.014464181512713163 
0.018689894257870734 
0.012638686790159800 
-0.039547884859297430 
0.024868706014154574 
-0.011758168972265560 
-0.013447780526699796 
-0.011758168972265560 
-0.022811013994606120 
0.018816182506081340 
0.042118948919105260 
0.013039424398391933 
-0.013667102915389860 
-0.017577366755209885 
-0.0095043991698673620 
-0.0085456476547618710 
0.017864290920234397 
-0.025868289870424273 
-0.025868289870424273 
-0.030069808355500348 
0.010642018867429907 
0.017942808572945477 
-0.019086922847715532 
-0.027223696226574674 
-0.019080028169467547 
-0.059714393556610484 
0.010642018867429907 
0.021775198934419704 
0.019519628059846230 
0.022286635921881334 
0.021812590812495602 
-0.021729989357378040 
-0.017588486417514500 
-0.024486179707191847 
0.025387036791189643 
0.015559299841437990 
0.039431830291545290 
0.025438678925206543 
-0.021866709326539686 
0.019519628059846230 
-0.019704334136982932 
0.016963362151231672 
-0.018139239412505715 
-0.0085456476547618710 
0.011116846944301330 
-0.020664126162455186 
0.015559299841437990 
0.039210663845360840 
-0.012140006331673623 
0.030803182875661732 
0.021812590812495602 
-0.0040371194761808910 
-0.014295976694811861 
-0.012140006331673623 
0.024418155937410587 
-0.015790659537804105 
-0.013880630133907937 
-0.013667102915389860 
0.080121232777107000 
0.037321354460385350 
-0.0054740626324372170 
0.015022729098655180 
-0.0040371194761808910 
-0.015970560266332180 
-0.016323597035496077 
0.024868706014154574 
-0.0090483746645641460 
0.028194690558876242 
-0.014525702778421062 
-0.024486179707191847 
0.025507287789331020 
0.014612676095377648 
-0.011758168972265560 
-0.011134083814784923 
-0.0054740626324372170 
0.015559299841437990 
0.016331455892735595 
0.010642018867429907 
-0.022815104148302453 
0.051786769675354054 
-0.0054740626324372170 
0.024868706014154574 
-0.010168662038878735 
-0.021281443783526000 
0.020213405299267056 
-0.018139239412505715 
0.047845459742593625 
-0.014731559762137908 
-0.014336858515392034 
0.024868706014154574 
0.022286635921881334 
-0.014295976694811861 
-0.0040371194761808910 
-0.059165045786461305 
-0.0054740626324372170 
-0.0054740626324372170 
-0.0040371194761808910 
0.042118948919105260 
-0.011758168972265560 
0.026937831433534070 
-0.023175610777309747 
0.037321354460385350 
0.012638686790159800 
-0.013667102915389860 
0.017864290920234397 
-0.014525702778421062 
-0.027132313049333980 
-0.020902757387770306 
-0.013880630133907937 
0.056654530137651433 
0.010642018867429907 
0.010642018867429907 
0.019519628059846230 
0.010642018867429907 
0.023954449619043520 
-0.026248048000194120 
-0.040520188294751790 
-0.047795568795437844 
0.028194690558876242 
-0.016632755705014123 
0.010642018867429907 
0.024625018288934274 
0.051786769675354054 
-0.0054740626324372170 
-0.016323597035496077 
0.011116846944301330 
-0.043338603900770990 
0.015022729098655180 
0.020213405299267056 
0.010642018867429907 
-0.0054740626324372170 
0.021812590812495602 
-0.020203478187279626 
0.017818953542790606 
0.0085552823132808150 
0.024625018288934274 
0.016544010820895766 
-0.021327754461013610 
0.015869716768541470 
0.014651312005799782 
0.016331455892735595 
-0.016323597035496077 
-0.012140006331673623 
-0.013014082540883066 
-0.017084953207621920 
-0.014464181512713163 
0.019519628059846230 
0.017942808572945477 
-0.014295976694811861 
-0.040251159435004506 
-0.014731559762137908 
0.024821573961466843 
0.036049749353610584 
-0.014525702778421062 
0.013039424398391933 
-0.014525702778421062 
-0.038651052726436950 
0.010887485869139760 
0.028987542104144136 
0.034979637870605800 
-0.030069808355500348 
0.023954449619043520 
-0.017577366755209885 
0.014976472425541170 
0.014526778685585284 
-0.043338603900770990 
0.010361743517969804 
0.015448066956242179 
0.0085552823132808150 
0.014612676095377648 
0.012452850673827221 
0.014651312005799782 
-0.020928867360767454 
0.016888737483174043 
0.016544010820895766 
0.015022729098655180 
-0.022830181067267707 
0.024868706014154574 
0.014612676095377648 
0.055967447513214480 
-0.014295976694811861 
-0.017381193273139188 
0.026015916819135135 
0.055967447513214480 
0.024418155937410587 
-0.011758168972265560 
-0.0085456476547618710 
0.015448066956242179 
-0.014464181512713163 
-0.021103165610522120 
-0.014295976694811861 
-0.028422192810439294 
0.020780951557381920 
0.016888737483174043 
0.010887485869139760 
-0.023490561420968517 
-0.014336858515392034 
0.021812590812495602 
-0.013667102915389860 
0.0085552823132808150 
0.010361743517969804 
0.047845459742593625 
-0.013014082540883066 
-0.011840083334975673 
0.014976472425541170 
0.014651312005799782 
0.022365718799978073 
-0.038651052726436950 
0.010642018867429907 
0.021812590812495602 
0.039210663845360840 
-0.016323597035496077 
-0.014731559762137908 
-0.048804491981611130 
0.039210663845360840 
-0.011840083334975673 
-0.022811013994606120 
-0.019086922847715532 
-0.015621207803777315 
0.020601048408511118 
-0.0040371194761808910 
-0.020902757387770306 
-0.011758168972265560 
0.014651312005799782 
-0.017588486417514500 
-0.018139239412505715 
-0.019086922847715532 
0.020086069795568165 
-0.0040371194761808910 
0.017818953542790606 
0.018133185607373710 
-0.013014082540883066 
0.016963362151231672 
-0.033786565154701090 
-0.0040371194761808910 
-0.019704334136982932 
0.044012436514765490 
-0.0040371194761808910 
0.034542726691811200 
-0.0077550499456142214 
-0.0055695280953875500 
0.0085552823132808150 
0.011116846944301330 
-0.015621207803777315 
-0.043338603900770990 
0.020086069795568165 
0.025387036791189643 
0.014526778685585284 
0.022482569898683497 
0.017942808572945477 
-0.023619889280107487 
-0.016632755705014123 
0.032958231831580040 
0.014651312005799782 
0.010887485869139760 
-0.0055695280953875500 
-0.056569694490553070 
-0.019704334136982932 
0.012638686790159800 
0.049340746062243916 
0.010642018867429907 
-0.0055695280953875500 
-0.027223696226574674 
0.0085552823132808150 
0.012638686790159800 
0.024868706014154574 
0.051786769675354054 
-0.0040371194761808910 
0.020086069795568165 
-0.0095043991698673620 
0.022425204175647100 
-0.0090483746645641460 
-0.024157607187920985 
-0.030761668453185675 
0.020780951557381920 
0.017818953542790606 
0.022039387511307126 
-0.011134083814784923 
-0.022830181067267707 
0.042118948919105260 
-0.0040371194761808910 
0.034761704732608800 
0.039210663845360840 
-0.025681854369991784 
-0.025681854369991784 
-0.021327754461013610 
-0.024487487810678298 
-0.015850545015993537 
0.056654530137651433 
-0.017588486417514500 
-0.017084953207621920 
0.017864290920234397 
0.023954449619043520 
0.028194690558876242 
0.028194690558876242 
-0.015621207803777315 
-0.077592283627363620 
-0.030756696028601390 
0.037321354460385350 
-0.019704334136982932 
0.028194690558876242 
0.028194690558876242 
0.028194690558876242 
-0.016632755705014123 
-0.035764449937785230 
0.022039387511307126 
0.017864290920234397 
0.010619173636859304 
-0.040251159435004506 
-0.014525702778421062 
-0.017896907120180595 
0.033434842264098055 
0.012452850673827221 
-0.021281443783526000 
-0.024486179707191847 
0.016963362151231672 
-0.017057591553182466 
-0.027223696226574674 
-0.013544700480033896 
0.017864290920234397 
-0.020664126162455186 
0.024418155937410587 
0.019519628059846230 
0.025711657136075620 
-0.041362033713990990 
0.021818052276888660 
-0.014336858515392034 
-0.020406737690780857 
-0.0095043991698673620 
-0.047795568795437844 
-0.020902757387770306 
-0.017577366755209885 
0.030803182875661732 
-0.021729989357378040 
0.015869716768541470 
0.026126749693271250 
0.011116846944301330 
-0.020664126162455186 
0.022056550405977638 
-0.0054740626324372170 
0.015022729098655180 
0.016888737483174043 
0.044012436514765490 
-0.014525702778421062 
-0.0055695280953875500 
-0.011134083814784923 
0.030803182875661732 
-0.017057591553182466 
0.012638686790159800 
-0.011134083814784923 
0.024625018288934274 
0.044445622270740250 
0.015448066956242179 
0.018133185607373710 
0.030803182875661732 
-0.012140006331673623 
-0.0090483746645641460 
0.011116846944301330 
0.0085552823132808150 
-0.014295976694811861 
-0.011134083814784923 
0.028671282607371028 
-0.024286705323524532 
-0.014295976694811861 
0.014526778685585284 
0.014227914182429557 
-0.0090483746645641460 
-0.015248831680192600 
0.036398999230524880 
-0.017577366755209885 
-0.0095043991698673620 
0.015448066956242179 
-0.0055695280953875500 
-0.0055695280953875500 
-0.0054740626324372170 
0.051786769675354054 
0.010642018867429907 
0.012452850673827221 
0.025438678925206543 
-0.028422192810439294 
-0.017057591553182466 
-0.020902757387770306 
-0.021729989357378040 
0.010887485869139760 
-0.020203478187279626 
0.014976472425541170 
0.014612676095377648 
-0.018139239412505715 
0.024868706014154574 
-0.022830181067267707 
-0.018139239412505715 
-0.022830181067267707 
0.049163033523136460 
-0.014336858515392034 
-0.024486179707191847 
-0.024486179707191847 
0.024625018288934274 
0.016544010820895766 
0.019805279001896544 
0.025507287789331020 
0.014227914182429557 
-0.020406737690780857 
-0.035764449937785230 
-0.011758168972265560 
0.026566902410332340 
0.043019797081337456 
0.056654530137651433 
0.011116846944301330 
-0.017057591553182466 
-0.020664126162455186 
-0.0054740626324372170 
-0.013667102915389860 
-0.021327754461013610 
0.014976472425541170 
0.013039424398391933 
0.034979637870605800 
-0.023353704536184980 
0.043605865869731570 
0.045045863745820286 
0.024418155937410587 
-0.0055695280953875500 
-0.0077550499456142214 
-0.017588486417514500 
0.014227914182429557 
0.034542726691811200 
-0.021866709326539686 
-0.030761668453185675 
-0.015248831680192600 
0.024868706014154574 
-0.023175610777309747 
-0.023175610777309747 
-0.023175610777309747 
-0.023175610777309747 
0.010361743517969804 
-0.017057591553182466 
0.043819294559798270 
-0.021103165610522120 
0.033434842264098055 
0.039431830291545290 
0.028988205276834930 
0.014612676095377648 
0.025507287789331020 
-0.020664126162455186 
0.025507287789331020 
-0.022811013994606120 
0.025507287789331020 
0.015869716768541470 
0.026015916819135135 
-0.014336858515392034 
-0.039547884859297430 
0.036398999230524880 
0.024218593132904890 
0.039431830291545290 
0.010361743517969804 
-0.020902757387770306 
0.0085552823132808150 
0.016544010820895766 
0.046339018515670904 
0.026126749693271250 
0.017818953542790606 
-0.054647592235702230 
0.049340746062243916 
-0.041362033713990990 
0.018133185607373710 
0.025507287789331020 
-0.011134083814784923 
0.026126749693271250 
0.054053581305230886 
-0.030756696028601390 
0.014612676095377648 
0.010361743517969804 
-0.023619889280107487 
-0.014525702778421062 
0.026937831433534070 
-0.015621207803777315 
0.026566902410332340 
0.015559299841437990 
0.010887485869139760 
-0.017084953207621920 
-0.015248831680192600 
-0.015248831680192600 
0.026937831433534070 
-0.035907056464577840 
-0.0040371194761808910 
-0.035907056464577840 
0.026566902410332340 
-0.014464181512713163 
-0.0090483746645641460 
0.028671282607371028 
0.030803182875661732 
-0.014731559762137908 
0.026566902410332340 
0.044445622270740250 
-0.020664126162455186 
0.016331455892735595 
0.024218593132904890 
0.016331455892735595 
0.016331455892735595 
-0.021281443783526000 
0.016544010820895766 
-0.020664126162455186 
0.016331455892735595 
0.022425204175647100 
0.016331455892735595 
0.016331455892735595 
0.022425204175647100 
0.022286635921881334 
0.011116846944301330 
-0.014336858515392034 
0.021775198934419704 
0.010361743517969804 
-0.014525702778421062 
0.022056550405977638 
-0.040135471353102130 
0.025711657136075620 
-0.026248048000194120 
0.017864290920234397 
-0.015621207803777315 
-0.024486179707191847 
0.012452850673827221 
0.014976472425541170 
0.020601048408511118 
-0.017588486417514500 
-0.017084953207621920 
0.020780951557381920 
-0.028143354725438115 
-0.019194147565461150 
-0.018139239412505715 
0.026126749693271250 
-0.013447780526699796 
-0.011840083334975673 
0.021818052276888660 
0.010642018867429907 
0.021818052276888660 
0.026126749693271250 
-0.0040371194761808910 
0.028987542104144136 
0.010642018867429907 
0.010642018867429907 
-0.013880630133907937 
0.049163033523136460 
-0.013880630133907937 
-0.013447780526699796 
0.014129878976013803 
-0.051984404304156184 
-0.0095043991698673620 
0.025387036791189643 
0.015559299841437990 
0.021818052276888660 
0.016963362151231672 
0.017942808572945477 
0.061781460009287484 
0.017864290920234397 
-0.035073469214288770 
0.017864290920234397 
-0.011134083814784923 
0.027104070351678135 
0.012638686790159800 
0.020086069795568165 
0.049163033523136460 
0.014526778685585284 
-0.0085456476547618710 
-0.0085456476547618710 
-0.013667102915389860 
-0.0085456476547618710 
-0.017588486417514500 
0.019519628059846230 
0.019519628059846230 
0.016963362151231672 
-0.017588486417514500 
-0.013667102915389860 
-0.013667102915389860 
0.019519628059846230 
-0.0085456476547618710 
-0.0085456476547618710 
-0.017588486417514500 
0.016963362151231672 
-0.0085456476547618710 
-0.017588486417514500 
-0.0085456476547618710 
0.015559299841437990 
-0.0090483746645641460 
0.017864290920234397 
0.027104070351678135 
0.019805279001896544 
-0.021281443783526000 
0.019805279001896544 
-0.019080028169467547 
0.026937831433534070 
0.022056550405977638 
-0.021103165610522120 
0.014129878976013803 
0.014976472425541170 
0.043605865869731570 
-0.029419348364767086 
0.015022729098655180 
0.017818953542790606 
0.010619173636859304 
0.015022729098655180 
-0.019704334136982932 
-0.063307751520819290 
0.015022729098655180 
0.015022729098655180 
-0.019704334136982932 
-0.040135471353102130 
-0.031323495842699380 
-0.021281443783526000 
0.012452850673827221 
0.015869716768541470 
0.024625018288934274 
-0.0090483746645641460 
0.044445622270740250 
0.018689894257870734 
-0.020928867360767454 
0.014227914182429557 
0.014227914182429557 
0.018689894257870734 
-0.010168662038878735 
0.017818953542790606 
0.017942808572945477 
0.014651312005799782 
0.018816182506081340 
0.017942808572945477 
-0.0085456476547618710 
-0.023175610777309747 
0.020086069795568165 
-0.011758168972265560 
0.010619173636859304 
0.020780951557381920 
-0.040520188294751790 
0.042118948919105260 
0.010361743517969804 
0.014227914182429557 
0.024821573961466843 
-0.019194147565461150 
0.014612676095377648 
0.014227914182429557 
-0.021103165610522120 
0.018133185607373710 
0.024218593132904890 
0.029028651616845525 
0.033434842264098055 
-0.017896907120180595 
0.017942808572945477 
-0.015621207803777315 
0.010361743517969804 
0.039431830291545290 
0.030803182875661732 
0.018816182506081340 
-0.014731559762137908 
0.039431830291545290 
0.010642018867429907 
-0.021327754461013610 
0.010361743517969804 
0.018816182506081340 
0.021812590812495602 
-0.035073469214288770 
-0.056453996116431274 
0.051587966237483726 
-0.019194147565461150 
-0.059714393556610484 
0.018816182506081340 
-0.023353704536184980 
-0.012140006331673623 
0.015869716768541470 
0.023954449619043520 
-0.012140006331673623 
-0.012140006331673623 
-0.012140006331673623 
-0.015970560266332180 
-0.014336858515392034 
-0.014336858515392034 
0.0085552823132808150 
0.022365718799978073 
0.018816182506081340 
0.011116846944301330 
-0.035921277255505080 
-0.011134083814784923 
-0.013447780526699796 
-0.012140006331673623 
0.024625018288934274 
0.012638686790159800 
-0.019086922847715532 
0.026937831433534070 
-0.0054740626324372170 
-0.0090483746645641460 
0.028987542104144136 
-0.021866709326539686 
0.024218593132904890 
-0.021866709326539686 
-0.013880630133907937 
0.026937831433534070 
0.025507287789331020 
0.026937831433534070 
-0.021866709326539686 
-0.023619889280107487 
-0.033786565154701090 
-0.047795568795437844 
-0.015850545015993537 
-0.021281443783526000 
0.021812590812495602 
0.010887485869139760 
-0.021327754461013610 
0.019805279001896544 
-0.025681854369991784 
-0.028143354725438115 
0.018133185607373710 
-0.028422192810439294 
-0.0055695280953875500 
0.015559299841437990 
0.024868706014154574 
0.015559299841437990 
0.049163033523136460 
-0.017896907120180595 
0.024218593132904890 
-0.023175610777309747 
0.036049749353610584 
0.014651312005799782 
0.0085552823132808150 
-0.014295976694811861 
0.024821573961466843 
0.0097055680754037470 
0.0085552823132808150 
-0.010168662038878735 
-0.021327754461013610 
0.028988205276834930 
-0.014464181512713163 
-0.022811013994606120 
-0.0077550499456142214 
0.014612676095377648 
0.018689894257870734 
0.013039424398391933 
0.010887485869139760 
0.034979637870605800 
-0.023619889280107487 
0.019805279001896544 
0.032958231831580040 
0.024868706014154574 
-0.014295976694811861 
-0.033786565154701090 
-0.019704334136982932 
-0.022830181067267707 
-0.012140006331673623 
0.014526778685585284 
-0.010168662038878735 
-0.010168662038878735 
-0.017381193273139188 
-0.014464181512713163 
0.014526778685585284 
-0.015790659537804105 
-0.011758168972265560 
-0.017577366755209885 
0.016963362151231672 
-0.011134083814784923 
-0.013447780526699796 
-0.040251159435004506 
0.034761704732608800 
-0.017588486417514500 
-0.013880630133907937 
-0.0055695280953875500 
-0.0090483746645641460 
0.012452850673827221 
0.012452850673827221 
0.010619173636859304 
0.010619173636859304 
0.012452850673827221 
0.016331455892735595 
0.027104070351678135 
-0.013447780526699796 
0.028988205276834930 
-0.027132313049333980 
0.043605865869731570 
-0.019704334136982932 
0.017818953542790606 
-0.020203478187279626 
0.017818953542790606 
-0.035764449937785230 
0.026126749693271250 
-0.011758168972265560 
-0.020203478187279626 
-0.013544700480033896 
0.025711657136075620 
0.049340746062243916 
0.017942808572945477 
-0.014295976694811861 
0.011116846944301330 
-0.022811013994606120 
0.020601048408511118 
-0.022811013994606120 
-0.021281443783526000 
-0.024486179707191847 
0.010642018867429907 
0.036049749353610584 
0.074168128550703950 
0.039431830291545290 
-0.020664126162455186 
-0.019194147565461150 
0.010361743517969804 
0.010361743517969804 
0.010361743517969804 
-0.035764449937785230 
0.056654530137651433 
-0.047795568795437844 
0.021812590812495602 
-0.0085456476547618710 
0.074168128550703950 
0.022039387511307126 
0.010619173636859304 
0.010619173636859304 
0.020601048408511118 
-0.020664126162455186 
0.016963362151231672 
-0.0040371194761808910 
-0.056569694490553070 
0.025438678925206543 
0.022286635921881334 
0.017818953542790606 
0.018816182506081340 
0.020601048408511118 
-0.017057591553182466 
-0.013014082540883066 
0.022482569898683497 
-0.077592283627363620 
0.014976472425541170 
0.014976472425541170 
0.014976472425541170 
0.039398426205411400 
-0.010168662038878735 
-0.010168662038878735 
0.022039387511307126 
-0.031323495842699380 
-0.035764449937785230 
0.028987542104144136 
-0.023619889280107487 
-0.015621207803777315 
-0.013447780526699796 
0.039431830291545290 
-0.017577366755209885 
0.056654530137651433 
0.039431830291545290 
0.039431830291545290 
0.0085552823132808150 
-0.025340681828504910 
0.0085552823132808150 
-0.013880630133907937 
-0.011134083814784923 
-0.0055695280953875500 
0.026126749693271250 
0.046339018515670904 
-0.0077550499456142214 
-0.0077550499456142214 
-0.0077550499456142214 
0.021818052276888660 
-0.0077550499456142214 
0.018689894257870734 
0.018689894257870734 
0.018689894257870734 
-0.0055695280953875500 
0.043605865869731570 
-0.023619889280107487 
-0.023619889280107487 
0.049163033523136460 
-0.017896907120180595 
-0.017896907120180595 
-0.017896907120180595 
-0.0077550499456142214 
-0.017896907120180595 
-0.0077550499456142214 
-0.017896907120180595 
-0.017896907120180595 
-0.017896907120180595 
-0.017896907120180595 
-0.017896907120180595 
-0.017896907120180595 
-0.017896907120180595 
0.036049749353610584 
0.0097055680754037470 
0.0097055680754037470 
0.0097055680754037470 
-0.010168662038878735 
0.0097055680754037470 
0.0097055680754037470 
0.0097055680754037470 
0.0097055680754037470 
0.0097055680754037470 
-0.025868289870424273 
0.0097055680754037470 
0.0097055680754037470 
0.015448066956242179 
0.0085552823132808150 
0.0097055680754037470 
0.015448066956242179 
-0.010168662038878735 
0.0097055680754037470 
-0.011758168972265560 
0.0097055680754037470 
0.0097055680754037470 
0.0097055680754037470 
-0.010168662038878735 
-0.024157607187920985 
-0.011758168972265560 
0.0097055680754037470 
0.0097055680754037470 
0.0097055680754037470 
0.0097055680754037470 
-0.022633395474014842 
-0.010168662038878735 
-0.010168662038878735 
-0.017381193273139188 
0.0085552823132808150 
-0.021729989357378040 
0.0097055680754037470 
-0.015248831680192600 
-0.015248831680192600 
-0.025868289870424273 
-0.015248831680192600 
-0.011758168972265560 
-0.010168662038878735 
0.0097055680754037470 
-0.022633395474014842 
-0.017381193273139188 
-0.010168662038878735 
-0.025868289870424273 
-0.013544700480033896 
0.0097055680754037470 
-0.025868289870424273 
0.0097055680754037470 
0.0097055680754037470 
0.025711657136075620 
-0.010168662038878735 
-0.025868289870424273 
0.0097055680754037470 
-0.015850545015993537 
0.0097055680754037470 
-0.010168662038878735 
0.0097055680754037470 
-0.046531420222821790 
-0.017577366755209885 
-0.020664126162455186 
-0.011758168972265560 
-0.011758168972265560 
0.014651312005799782 
-0.024157607187920985 
0.016544010820895766 
-0.011758168972265560 
-0.013667102915389860 
0.014526778685585284 
-0.0085456476547618710 
-0.020928867360767454 
-0.017588486417514500 
-0.0054740626324372170 
-0.0095043991698673620 
-0.068705290177462480 
0.016544010820895766 
0.015869716768541470 
0.036049749353610584 
0.051587966237483726 
0.032958231831580040 
0.014526778685585284 
-0.024286705323524532 
0.010887485869139760 
-0.019704334136982932 
-0.031323495842699380 
-0.017057591553182466 
-0.025681854369991784 
0.010619173636859304 
-0.023175610777309747 
0.022039387511307126 
-0.017057591553182466 
-0.0077550499456142214 
0.039431830291545290 
-0.023353704536184980 
0.041930712960691800 
0.037321354460385350 
0.024625018288934274 
-0.035764449937785230 
-0.027132313049333980 
-0.0055695280953875500 
0.014526778685585284 
0.010361743517969804 
0.010361743517969804 
-0.013447780526699796 
0.012452850673827221 
0.014612676095377648 
0.015559299841437990 
0.036398999230524880 
-0.021281443783526000 
-0.068705290177462480 
0.018133185607373710 
-0.013447780526699796 
-0.013544700480033896 
-0.018139239412505715 
-0.0090483746645641460 
-0.041362033713990990 
-0.020814372080914467 
-0.016632755705014123 
0.025711657136075620 
-0.016323597035496077 
-0.017577366755209885 
-0.033786565154701090 
0.0085552823132808150 
-0.0054740626324372170 
0.021818052276888660 
0.056654530137651433 
0.010619173636859304 
0.026937831433534070 
-0.023353704536184980 
-0.013667102915389860 
-0.018139239412505715 
-0.011758168972265560 
0.012452850673827221 
0.014976472425541170 
-0.023490561420968517 
0.025711657136075620 
0.014526778685585284 
0.010887485869139760 
-0.035073469214288770 
0.024868706014154574 
-0.049696385713114556 
-0.049696385713114556 
-0.014525702778421062 
0.010361743517969804 
-0.0055695280953875500 
-0.012140006331673623 
0.013039424398391933 
-0.019704334136982932 
0.014651312005799782 
0.010361743517969804 
0.013039424398391933 
0.034979637870605800 
0.029028651616845525 
0.013039424398391933 
-0.040520188294751790 
0.034542726691811200 
0.027104070351678135 
0.013039424398391933 
-0.010168662038878735 
-0.015248831680192600 
-0.0095043991698673620 
-0.017588486417514500 
0.010887485869139760 
0.017864290920234397 
-0.019080028169467547 
0.056654530137651433 
-0.020664126162455186 
0.010642018867429907 
0.017818953542790606 
-0.017896907120180595 
-0.0090483746645641460 
-0.022633395474014842 
-0.020406737690780857 
0.020086069795568165 
-0.033786565154701090 
-0.017588486417514500 
0.024418155937410587 
0.010361743517969804 
-0.012140006331673623 
-0.014525702778421062 
0.013039424398391933 
0.051692754654431840 
-0.0077550499456142214 
0.022365718799978073 
0.034979637870605800 
0.022365718799978073 
-0.027132313049333980 
-0.014464181512713163 
0.013039424398391933 
0.010619173636859304 
0.022039387511307126 
0.013039424398391933 
0.014129878976013803 
-0.033786565154701090 
-0.0077550499456142214 
0.010361743517969804 
0.010619173636859304 
-0.0090483746645641460 
-0.014525702778421062 
-0.0085456476547618710 
-0.0077550499456142214 
-0.024486179707191847 
0.013039424398391933 
-0.030069808355500348 
-0.0077550499456142214 
0.014227914182429557 
-0.030069808355500348 
0.026015916819135135 
0.041930712960691800 
0.021812590812495602 
0.032958231831580040 
0.034761704732608800 
-0.029419348364767086 
0.010887485869139760 
0.010361743517969804 
0.010887485869139760 
0.013039424398391933 
0.022425204175647100 
-0.017588486417514500 
-0.015790659537804105 
-0.016632755705014123 
-0.012140006331673623 
0.039431830291545290 
-0.0040371194761808910 
-0.010168662038878735 
-0.0085456476547618710 
-0.035764449937785230 
-0.0077550499456142214 
-0.017588486417514500 
0.017818953542790606 
0.017818953542790606 
0.017818953542790606 
0.017818953542790606 
0.017818953542790606 
-0.019704334136982932 
0.017818953542790606 
-0.059714393556610484 
0.017818953542790606 
0.017818953542790606 
0.010887485869139760 
-0.023619889280107487 
-0.0040371194761808910 
-0.0055695280953875500 
-0.0055695280953875500 
-0.023175610777309747 
0.017818953542790606 
-0.015621207803777315 
0.014976472425541170 
-0.041362033713990990 
-0.013667102915389860 
-0.023490561420968517 
-0.016323597035496077 
-0.011758168972265560 
-0.056453996116431274 
0.024821573961466843 
-0.0055695280953875500 
-0.0040371194761808910 
0.054053581305230886 
0.020601048408511118 
-0.017896907120180595 
0.022425204175647100 
0.028987542104144136 
0.0085552823132808150 
-0.056453996116431274 
0.016331455892735595 
-0.017381193273139188 
0.020213405299267056 
-0.027223696226574674 
-0.021866709326539686 
0.028987542104144136 
0.010887485869139760 
0.010887485869139760 
-0.056453996116431274 
-0.022811013994606120 
-0.046531420222821790 
-0.020406737690780857 
-0.011134083814784923 
0.025507287789331020 
-0.033786565154701090 
-0.014295976694811861 
-0.017057591553182466 
-0.019194147565461150 
0.025711657136075620 
-0.020203478187279626 
-0.0085456476547618710 
0.010887485869139760 
-0.011758168972265560 
0.026566902410332340 
0.026126749693271250 
0.028987542104144136 
-0.041362033713990990 
0.014526778685585284 
0.010887485869139760 
-0.012140006331673623 
-0.0095043991698673620 
0.015869716768541470 
-0.068705290177462480 
-0.027223696226574674 
0.016963362151231672 
-0.015970560266332180 
0.025438678925206543 
0.039431830291545290 
-0.019194147565461150 
-0.035073469214288770 
-0.020928867360767454 
0.037321354460385350 
0.041930712960691800 
-0.0085456476547618710 
0.044012436514765490 
-0.019704334136982932 
0.028988205276834930 
0.024418155937410587 
0.017818953542790606 
-0.013014082540883066 
0.020086069795568165 
-0.040520188294751790 
0.018816182506081340 
-0.019704334136982932 
0.022482569898683497 
0.043019797081337456 
0.011116846944301330 
-0.020664126162455186 
-0.015621207803777315 
0.065846975922338290 
0.028987542104144136 
-0.020928867360767454 
0.012638686790159800 
-0.010168662038878735 
-0.011758168972265560 
0.021812590812495602 
-0.014336858515392034 
-0.017896907120180595 
0.044012436514765490 
0.018689894257870734 
0.046339018515670904 
-0.017896907120180595 
0.042118948919105260 
0.012452850673827221 
-0.0054740626324372170 
-0.015621207803777315 
0.010642018867429907 
0.051587966237483726 
-0.024487487810678298 
-0.017057591553182466 
-0.0085456476547618710 
-0.0090483746645641460 
-0.022815104148302453 
-0.029419348364767086 
0.017818953542790606 
-0.014731559762137908 
0.010642018867429907 
0.0085552823132808150 
0.024418155937410587 
-0.016632755705014123 
-0.022830181067267707 
-0.014464181512713163 
0.074168128550703950 
0.015022729098655180 
-0.0055695280953875500 
-0.027223696226574674 
0.022365718799978073 
-0.0055695280953875500 
0.068920822466962850 
0.011116846944301330 
0.028988205276834930 
0.011116846944301330 
0.011116846944301330 
-0.016323597035496077 
0.016888737483174043 
0.025438678925206543 
0.014612676095377648 
-0.0040371194761808910 
0.024625018288934274 
0.043605865869731570 
-0.012140006331673623 
0.025387036791189643 
0.022482569898683497 
-0.022830181067267707 
0.010642018867429907 
-0.010168662038878735 
-0.0040371194761808910 
0.010361743517969804 
-0.0055695280953875500 
0.015448066956242179 
0.028987542104144136 
0.029028651616845525 
0.018816182506081340 
-0.0040371194761808910 
0.015448066956242179 
0.026015916819135135 
-0.020814372080914467 
-0.0077550499456142214 
0.020780951557381920 
-0.029419348364767086 
-0.011134083814784923 
0.029028651616845525 
-0.022633395474014842 
0.022365718799978073 
-0.027223696226574674 
0.0097055680754037470 
-0.059165045786461305 
-0.0054740626324372170 
0.026015916819135135 
0.011116846944301330 
0.014227914182429557 
0.043605865869731570 
-0.0054740626324372170 
0.010619173636859304 
-0.010168662038878735 
-0.031323495842699380 
0.011116846944301330 
0.039210663845360840 
-0.011840083334975673 
-0.030037750792694898 
-0.0054740626324372170 
-0.030069808355500348 
0.022056550405977638 
0.012452850673827221 
0.054053581305230886 
0.019519628059846230 
0.016331455892735595 
-0.0077550499456142214 
0.024218593132904890 
0.043819294559798270 
0.029028651616845525 
0.020086069795568165 
-0.0077550499456142214 
0.016963362151231672 
0.020086069795568165 
0.015022729098655180 
0.034979637870605800 
-0.059165045786461305 
-0.051984404304156184 
0.010642018867429907 
0.010361743517969804 
0.018538387444109530 
0.014612676095377648 
0.018538387444109530 
-0.030037750792694898 
0.014227914182429557 
-0.0054740626324372170 
0.020213405299267056 
0.011116846944301330 
0.020213405299267056 
-0.020902757387770306 
0.025387036791189643 
0.016963362151231672 
0.020780951557381920 
0.024625018288934274 
0.016331455892735595 
-0.017084953207621920 
0.042021675778529990 
-0.0077550499456142214 
0.024418155937410587 
-0.023490561420968517 
-0.0040371194761808910 
0.012638686790159800 
0.010887485869139760 
0.014976472425541170 
-0.028143354725438115 
0.019805279001896544 
0.020601048408511118 
0.022056550405977638 
-0.035764449937785230 
0.014129878976013803 
-0.033786565154701090 
-0.017588486417514500 
-0.013447780526699796 
0.010642018867429907 
0.014976472425541170 
-0.019704334136982932 
0.041930712960691800 
0.010619173636859304 
0.010887485869139760 
-0.017577366755209885 
-0.016632755705014123 
-0.028143354725438115 
0.012452850673827221 
-0.014464181512713163 
0.014227914182429557 
0.017942808572945477 
0.0085552823132808150 
-0.013880630133907937 
-0.014336858515392034 
0.018538387444109530 
0.037321354460385350 
0.010619173636859304 
0.026015916819135135 
0.020213405299267056 
0.026015916819135135 
0.018538387444109530 
-0.033786565154701090 
0.015022729098655180 
-0.018139239412505715 
-0.025868289870424273 
-0.015970560266332180 
0.019805279001896544 
-0.017896907120180595 
0.010887485869139760 
-0.024486179707191847 
0.043605865869731570 
-0.028143354725438115 
0.049340746062243916 
-0.0055695280953875500 
0.045045863745820286 
-0.028143354725438115 
0.024821573961466843 
-0.031323495842699380 
-0.030756696028601390 
0.055967447513214480 
-0.014731559762137908 
0.0085552823132808150 
0.014612676095377648 
0.025438678925206543 
0.0097055680754037470 
-0.0055695280953875500 
0.026015916819135135 
-0.015621207803777315 
0.025711657136075620 
-0.0055695280953875500 
-0.013544700480033896 
-0.0055695280953875500 
0.024418155937410587 
0.019805279001896544 
0.022286635921881334 
0.016331455892735595 
-0.031323495842699380 
-0.0077550499456142214 
-0.017084953207621920 
0.011116846944301330 
0.0097055680754037470 
-0.029419348364767086 
0.017818953542790606 
-0.021729989357378040 
0.029028651616845525 
0.010642018867429907 
0.014129878976013803 
0.024418155937410587 
0.010642018867429907 
-0.013880630133907937 
-0.023490561420968517 
0.018538387444109530 
0.026015916819135135 
0.022056550405977638 
-0.035907056464577840 
0.010361743517969804 
-0.020664126162455186 
-0.015248831680192600 
-0.031323495842699380 
-0.011840083334975673 
0.055967447513214480 
-0.014336858515392034 
0.021775198934419704 
0.020086069795568165 
-0.011134083814784923 
0.036049749353610584 
0.012638686790159800 
-0.013014082540883066 
0.028988205276834930 
-0.019086922847715532 
0.023954449619043520 
-0.019194147565461150 
0.014612676095377648 
0.033434842264098055 
-0.020814372080914467 
-0.020406737690780857 
-0.021281443783526000 
-0.0077550499456142214 
0.033434842264098055 
0.014129878976013803 
-0.015850545015993537 
-0.015790659537804105 
0.021818052276888660 
0.022056550405977638 
-0.0085456476547618710 
0.022286635921881334 
0.041930712960691800 
-0.017084953207621920 
0.018133185607373710 
0.054053581305230886 
-0.017057591553182466 
0.015022729098655180 
0.012638686790159800 
-0.038651052726436950 
0.042118948919105260 
0.029028651616845525 
-0.024486179707191847 
-0.0055695280953875500 
0.010619173636859304 
-0.0054740626324372170 
-0.0095043991698673620 
-0.0090483746645641460 
-0.011840083334975673 
0.012638686790159800 
-0.023353704536184980 
0.012638686790159800 
-0.016632755705014123 
0.043819294559798270 
-0.021327754461013610 
-0.024286705323524532 
0.039210663845360840 
0.020086069795568165 
0.043019797081337456 
-0.0090483746645641460 
-0.013880630133907937 
0.023954449619043520 
0.014227914182429557 
0.012452850673827221 
0.014129878976013803 
-0.028143354725438115 
-0.024286705323524532 
0.042021675778529990 
-0.013880630133907937 
0.014129878976013803 
0.080121232777107000 
0.024418155937410587 
0.010619173636859304 
0.022425204175647100 
0.018538387444109530 
0.014651312005799782 
-0.0095043991698673620 
0.018538387444109530 
0.024821573961466843 
-0.027223696226574674 
0.028987542104144136 
0.024821573961466843 
-0.022633395474014842 
-0.024286705323524532 
-0.0077550499456142214 
0.012638686790159800 
-0.023619889280107487 
0.047845459742593625 
0.0085552823132808150 
-0.023490561420968517 
-0.024286705323524532 
0.028194690558876242 
0.030803182875661732 
0.016963362151231672 
-0.020902757387770306 
0.010619173636859304 
-0.051984404304156184 
-0.0077550499456142214 
-0.030761668453185675 
-0.021281443783526000 
-0.051984404304156184 
0.018538387444109530 
0.043019797081337456 
0.011116846944301330 
0.036398999230524880 
-0.027223696226574674 
0.014227914182429557 
0.010642018867429907 
-0.022633395474014842 
0.051587966237483726 
0.028194690558876242 
0.018133185607373710 
-0.011840083334975673 
-0.011840083334975673 
-0.022633395474014842 
0.015869716768541470 
0.020213405299267056 
0.010619173636859304 
-0.0077550499456142214 
-0.0055695280953875500 
-0.035907056464577840 
0.043819294559798270 
0.041930712960691800 
0.010619173636859304 
-0.019086922847715532 
0.030803182875661732 
0.024418155937410587 
0.022286635921881334 
0.010642018867429907 
0.025438678925206543 
0.034979637870605800 
0.017942808572945477 
-0.016323597035496077 
-0.013447780526699796 
0.044445622270740250 
-0.047795568795437844 
-0.022830181067267707 
-0.026248048000194120 
0.016888737483174043 
0.024821573961466843 
-0.022830181067267707 
-0.018139239412505715 
0.015022729098655180 
-0.0090483746645641460 
-0.068705290177462480 
0.049031448094458390 
0.019519628059846230 
0.018538387444109530 
0.0085552823132808150 
-0.021729989357378040 
0.010361743517969804 
-0.056569694490553070 
0.024418155937410587 
0.018816182506081340 
0.016544010820895766 
-0.022811013994606120 
-0.014336858515392034 
-0.021729989357378040 
-0.027132313049333980 
0.010619173636859304 
-0.029419348364767086 
-0.021866709326539686 
-0.015790659537804105 
0.010887485869139760 
0.020780951557381920 
-0.019086922847715532 
0.049031448094458390 
-0.0077550499456142214 
0.016888737483174043 
0.024868706014154574 
0.022286635921881334 
0.024218593132904890 
-0.014525702778421062 
-0.014295976694811861 
-0.017896907120180595 
-0.017588486417514500 
0.015022729098655180 
0.021812590812495602 
0.039210663845360840 
-0.021866709326539686 
0.017942808572945477 
-0.021729989357378040 
-0.022830181067267707 
0.017864290920234397 
-0.019704334136982932 
0.021775198934419704 
-0.024486179707191847 
-0.035073469214288770 
-0.013447780526699796 
-0.056453996116431274 
0.015022729098655180 
-0.011758168972265560 
0.020780951557381920 
0.010887485869139760 
0.025711657136075620 
0.015559299841437990 
0.014526778685585284 
0.018538387444109530 
-0.022633395474014842 
0.028987542104144136 
-0.020814372080914467 
0.068920822466962850 
0.022365718799978073 
0.049340746062243916 
-0.017381193273139188 
0.020086069795568165 
0.0085552823132808150 
-0.021103165610522120 
-0.020406737690780857 
-0.013544700480033896 
0.0085552823132808150 
-0.011134083814784923 
0.039210663845360840 
0.0085552823132808150 
0.012452850673827221 
-0.019080028169467547 
-0.015970560266332180 
0.080121232777107000 
-0.015970560266332180 
0.029028651616845525 
-0.020664126162455186 
0.024218593132904890 
0.019805279001896544 
0.024218593132904890 
0.015448066956242179 
0.014526778685585284 
-0.017577366755209885 
0.022365718799978073 
0.022365718799978073 
0.015448066956242179 
0.014651312005799782 
0.022365718799978073 
0.014526778685585284 
0.015448066956242179 
-0.021729989357378040 
0.028988205276834930 
0.051786769675354054 
0.051786769675354054 
-0.021327754461013610 
0.014612676095377648 
0.028988205276834930 
0.014612676095377648 
-0.023490561420968517 
0.012452850673827221 
-0.013447780526699796 
0.0085552823132808150 
0.0085552823132808150 
0.014612676095377648 
-0.013447780526699796 
0.015022729098655180 
-0.024157607187920985 
0.028988205276834930 
0.028987542104144136 
0.014612676095377648 
-0.043338603900770990 
0.014651312005799782 
-0.019194147565461150 
-0.019194147565461150 
-0.019194147565461150 
-0.0077550499456142214 
0.012452850673827221 
0.012638686790159800 
0.015448066956242179 
0.014612676095377648 
0.049340746062243916 
0.080121232777107000 
-0.040251159435004506 
-0.026248048000194120 
0.010361743517969804 
0.010361743517969804 
-0.019086922847715532 
0.022286635921881334 
0.010361743517969804 
-0.030037750792694898 
0.017942808572945477 
0.042118948919105260 
-0.026248048000194120 
0.018689894257870734 
0.049163033523136460 
0.015022729098655180 
0.039398426205411400 
0.022056550405977638 
-0.0090483746645641460 
0.010887485869139760 
0.014651312005799782 
0.013039424398391933 
0.014227914182429557 
-0.026248048000194120 
-0.017577366755209885 
-0.0090483746645641460 
0.014526778685585284 
0.017942808572945477 
0.013039424398391933 
-0.059714393556610484 
0.013039424398391933 
0.014227914182429557 
-0.014731559762137908 
0.020601048408511118 
-0.024486179707191847 
-0.020814372080914467 
-0.021729989357378040 
0.022365718799978073 
0.015022729098655180 
0.014976472425541170 
0.014976472425541170 
0.014526778685585284 
0.013039424398391933 
0.010619173636859304 
0.014976472425541170 
0.014976472425541170 
0.014976472425541170 
0.029028651616845525 
0.021818052276888660 
0.021818052276888660 
0.021818052276888660 
0.021818052276888660 
0.021818052276888660 
-0.024487487810678298 
-0.0055695280953875500 
0.014612676095377648 
-0.014731559762137908 
0.016544010820895766 
-0.031323495842699380 
0.014526778685585284 
-0.026248048000194120 
-0.059714393556610484 
-0.054647592235702230 
0.021818052276888660 
-0.020814372080914467 
0.019805279001896544 
-0.017577366755209885 
0.051786769675354054 
-0.013880630133907937 
0.0085552823132808150 
0.0085552823132808150 
0.0085552823132808150 
-0.013880630133907937 
0.0085552823132808150 
-0.017057591553182466 
0.010887485869139760 
0.014129878976013803 
-0.016632755705014123 
-0.016632755705014123 
-0.020928867360767454 
0.014651312005799782 
-0.027132313049333980 
-0.049696385713114556 
0.034761704732608800 
-0.0090483746645641460 
0.032958231831580040 
-0.017057591553182466 
-0.021729989357378040 
0.015869716768541470 
0.024418155937410587 
-0.0040371194761808910 
0.014227914182429557 
0.014227914182429557 
0.014227914182429557 
0.014227914182429557 
0.017942808572945477 
-0.023175610777309747 
-0.023175610777309747 
0.010361743517969804 
-0.011134083814784923 
-0.040520188294751790 
-0.017381193273139188 
0.022056550405977638 
0.014612676095377648 
-0.029419348364767086 
0.014227914182429557 
0.012638686790159800 
0.010619173636859304 
-0.020406737690780857 
0.018816182506081340 
-0.030069808355500348 
0.039210663845360840 
-0.013880630133907937 
-0.023175610777309747 
-0.0095043991698673620 
-0.0055695280953875500 
-0.012140006331673623 
-0.012140006331673623 
0.061781460009287484 
0.014526778685585284 
0.024218593132904890 
0.022039387511307126 
0.011116846944301330 
-0.015621207803777315 
0.068920822466962850 
0.061781460009287484 
0.030803182875661732 
-0.0095043991698673620 
0.036364627843311110 
-0.017381193273139188 
-0.0055695280953875500 
-0.015790659537804105 
0.011116846944301330 
-0.013667102915389860 
-0.028143354725438115 
0.022056550405977638 
0.028988205276834930 
0.028987542104144136 
-0.0090483746645641460 
-0.017381193273139188 
0.025438678925206543 
0.061781460009287484 
-0.020203478187279626 
0.042118948919105260 
0.026126749693271250 
0.015022729098655180 
0.021775198934419704 
0.020086069795568165 
-0.014464181512713163 
0.011116846944301330 
-0.017381193273139188 
-0.0055695280953875500 
0.028671282607371028 
0.0085552823132808150 
0.025711657136075620 
-0.014525702778421062 
0.022056550405977638 
-0.011134083814784923 
-0.025868289870424273 
-0.017577366755209885 
-0.022811013994606120 
-0.012140006331673623 
0.012638686790159800 
0.036398999230524880 
0.028671282607371028 
-0.021103165610522120 
-0.035764449937785230 
0.014227914182429557 
-0.016323597035496077 
-0.023353704536184980 
0.020601048408511118 
-0.027132313049333980 
-0.013667102915389860 
0.016544010820895766 
-0.023353704536184980 
-0.031323495842699380 
-0.011758168972265560 
0.017864290920234397 
-0.025681854369991784 
0.028988205276834930 
0.019519628059846230 
0.074168128550703950 
-0.013880630133907937 
0.0085552823132808150 
0.012638686790159800 
0.0085552823132808150 
0.0085552823132808150 
-0.013880630133907937 
-0.013880630133907937 
0.0085552823132808150 
0.0085552823132808150 
0.012638686790159800 
-0.020814372080914467 
0.015022729098655180 
-0.021866709326539686 
-0.021866709326539686 
-0.021866709326539686 
-0.021866709326539686 
0.012452850673827221 
-0.028422192810439294 
0.022365718799978073 
-0.0055695280953875500 
-0.0055695280953875500 
-0.025681854369991784 
0.0085552823132808150 
0.034761704732608800 
-0.016632755705014123 
-0.046531420222821790 
0.014227914182429557 
0.042118948919105260 
0.042118948919105260 
0.039398426205411400 
0.042118948919105260 
0.020601048408511118 
-0.011134083814784923 
-0.035907056464577840 
0.013039424398391933 
-0.020664126162455186 
-0.027223696226574674 
0.010619173636859304 
0.029028651616845525 
-0.030761668453185675 
0.019519628059846230 
-0.015621207803777315 
-0.030069808355500348 
0.026015916819135135 
0.011116846944301330 
-0.020664126162455186 
0.016963362151231672 
-0.017084953207621920 
-0.022830181067267707 
0.026566902410332340 
-0.017084953207621920 
0.015869716768541470 
0.015869716768541470 
0.015869716768541470 
0.015869716768541470 
0.015869716768541470 
0.015869716768541470 
0.016963362151231672 
0.015869716768541470 
-0.017084953207621920 
0.015869716768541470 
0.015869716768541470 
-0.017084953207621920 
0.015869716768541470 
-0.017084953207621920 
0.020086069795568165 
0.010361743517969804 
0.023954449619043520 
-0.059165045786461305 
-0.023353704536184980 
-0.020664126162455186 
0.015869716768541470 
-0.035907056464577840 
0.021818052276888660 
0.021818052276888660 
0.011116846944301330 
-0.0085456476547618710 
-0.020814372080914467 
0.024418155937410587 
0.039210663845360840 
0.018816182506081340 
-0.020203478187279626 
0.014651312005799782 
-0.013014082540883066 
-0.015970560266332180 
-0.015790659537804105 
-0.040520188294751790 
0.014976472425541170 
0.016963362151231672 
0.010361743517969804 
0.010361743517969804 
-0.014525702778421062 
-0.028422192810439294 
0.028988205276834930 
-0.030069808355500348 
0.012638686790159800 
-0.0085456476547618710 
-0.020902757387770306 
-0.022811013994606120 
0.039210663845360840 
-0.035921277255505080 
-0.035921277255505080 
-0.035921277255505080 
-0.035921277255505080 
0.020213405299267056 
-0.063307751520819290 
-0.027132313049333980 
-0.019704334136982932 
-0.0090483746645641460 
0.025507287789331020 
0.015448066956242179 
0.021812590812495602 
-0.025681854369991784 
-0.013544700480033896 
0.074168128550703950 
0.044445622270740250 
-0.041362033713990990 
0.044445622270740250 
0.074168128550703950 
0.044445622270740250 
-0.011134083814784923 
-0.041362033713990990 
-0.025222459986810785 
0.028988205276834930 
0.018133185607373710 
-0.011134083814784923 
0.036364627843311110 
-0.041362033713990990 
0.044445622270740250 
0.016544010820895766 
0.036364627843311110 
0.018133185607373710 
0.036364627843311110 
0.0085552823132808150 
0.025438678925206543 
0.016544010820895766 
0.025438678925206543 
0.016544010820895766 
0.020780951557381920 
0.044445622270740250 
0.025438678925206543 
0.016544010820895766 
0.018133185607373710 
0.024418155937410587 
0.021818052276888660 
0.021818052276888660 
-0.023353704536184980 
0.036398999230524880 
0.018689894257870734 
0.021818052276888660 
0.036398999230524880 
0.021818052276888660 
0.018689894257870734 
0.021818052276888660 
0.036398999230524880 
0.018689894257870734 
-0.015970560266332180 
-0.015970560266332180 
-0.015970560266332180 
0.033434842264098055 
0.033434842264098055 
0.014976472425541170 
-0.037196508678914456 
0.010361743517969804 
0.010361743517969804 
0.010361743517969804 
-0.048804491981611130 
-0.048804491981611130 
-0.0054740626324372170 
-0.023490561420968517 
0.025387036791189643 
-0.013544700480033896 
-0.023619889280107487 
-0.0055695280953875500 
0.016888737483174043 
-0.0040371194761808910 
-0.020928867360767454 
-0.014525702778421062 
0.016888737483174043 
-0.017057591553182466 
0.018133185607373710 
-0.0090483746645641460 
-0.030756696028601390 
-0.0055695280953875500 
-0.014731559762137908 
-0.014731559762137908 
-0.0085456476547618710 
0.024625018288934274 
-0.0055695280953875500 
-0.014525702778421062 
-0.030756696028601390 
-0.014464181512713163 
0.0085552823132808150 
-0.030756696028601390 
-0.030756696028601390 
-0.012140006331673623 
-0.025222459986810785 
0.018538387444109530 
-0.015621207803777315 
-0.017896907120180595 
-0.013880630133907937 
0.012638686790159800 
-0.022830181067267707 
-0.068705290177462480 
0.044445622270740250 
-0.033786565154701090 
0.033434842264098055 
0.033434842264098055 
0.046339018515670904 
-0.014295976694811861 
0.0097055680754037470 
-0.017588486417514500 
-0.0040371194761808910 
-0.017084953207621920 
-0.0085456476547618710 
0.010361743517969804 
-0.011840083334975673 
-0.019194147565461150 
-0.020406737690780857 
-0.019704334136982932 
0.023954449619043520 
-0.010168662038878735 
-0.012140006331673623 
0.026937831433534070 
0.014976472425541170 
-0.010168662038878735 
-0.026248048000194120 
-0.020406737690780857 
0.016963362151231672 
0.014526778685585284 
-0.024157607187920985 
0.014227914182429557 
0.028671282607371028 
0.0097055680754037470 
-0.018139239412505715 
0.012452850673827221 
0.047845459742593625 
0.016888737483174043 
-0.022633395474014842 
0.014227914182429557 
-0.020814372080914467 
-0.013447780526699796 
0.039431830291545290 
0.025507287789331020 
-0.022830181067267707 
0.010619173636859304 
-0.013544700480033896 
-0.029419348364767086 
0.022365718799978073 
0.014227914182429557 
0.014227914182429557 
0.022056550405977638 
0.054053581305230886 
-0.015248831680192600 
-0.015621207803777315 
-0.010168662038878735 
-0.0077550499456142214 
-0.020928867360767454 
-0.056453996116431274 
0.046339018515670904 
-0.020406737690780857 
0.036049749353610584 
0.017942808572945477 
0.0085552823132808150 
0.024418155937410587 
-0.021327754461013610 
0.025507287789331020 
0.028988205276834930 
-0.021103165610522120 
-0.030756696028601390 
-0.022815104148302453 
0.0097055680754037470 
0.045045863745820286 
-0.0040371194761808910 
-0.022633395474014842 
-0.021281443783526000 
-0.017588486417514500 
0.022286635921881334 
-0.059714393556610484 
0.028194690558876242 
0.022365718799978073 
0.061781460009287484 
-0.031323495842699380 
-0.017381193273139188 
0.0085552823132808150 
-0.013014082540883066 
0.017942808572945477 
-0.0090483746645641460 
0.068920822466962850 
-0.025868289870424273 
0.024821573961466843 
0.025387036791189643 
-0.023490561420968517 
-0.018139239412505715 
0.017864290920234397 
0.014612676095377648 
-0.011758168972265560 
0.014976472425541170 
-0.018139239412505715 
0.022365718799978073 
0.047845459742593625 
-0.013544700480033896 
-0.054647592235702230 
0.019805279001896544 
-0.014731559762137908 
0.028988205276834930 
-0.040135471353102130 
-0.016323597035496077 
0.022039387511307126 
-0.019704334136982932 
-0.049696385713114556 
-0.0077550499456142214 
0.010887485869139760 
0.010619173636859304 
-0.025868289870424273 
0.022425204175647100 
0.051587966237483726 
0.016544010820895766 
-0.029419348364767086 
0.055967447513214480 
0.012638686790159800 
-0.0085456476547618710 
0.013039424398391933 
-0.0077550499456142214 
-0.068705290177462480 
-0.021866709326539686 
0.028988205276834930 
0.012452850673827221 
-0.043338603900770990 
0.015448066956242179 
0.0085552823132808150 
-0.017577366755209885 
-0.025340681828504910 
-0.018139239412505715 
-0.017588486417514500 
-0.031323495842699380 
-0.0077550499456142214 
-0.014336858515392034 
0.021812590812495602 
-0.014525702778421062 
-0.017577366755209885 
-0.011758168972265560 
-0.014336858515392034 
0.015022729098655180 
-0.015790659537804105 
-0.0095043991698673620 
0.036364627843311110 
0.036364627843311110 
0.036364627843311110 
0.036364627843311110 
0.065846975922338290 
0.014129878976013803 
0.044445622270740250 
0.056654530137651433 
-0.019704334136982932 
-0.019704334136982932 
0.020601048408511118 
-0.010168662038878735 
0.034761704732608800 
0.024418155937410587 
-0.019704334136982932 
-0.035764449937785230 
0.045045863745820286 
0.043605865869731570 
0.020601048408511118 
0.042021675778529990 
-0.022811013994606120 
-0.016323597035496077 
-0.023490561420968517 
0.012638686790159800 
-0.027223696226574674 
-0.030037750792694898 
-0.011758168972265560 
-0.0077550499456142214 
0.012638686790159800 
-0.0077550499456142214 
0.025711657136075620 
0.010361743517969804 
-0.059714393556610484 
0.042118948919105260 
-0.014525702778421062 
-0.040520188294751790 
-0.026248048000194120 
0.014129878976013803 
0.039210663845360840 
0.026126749693271250 
0.026937831433534070 
0.034761704732608800 
0.021775198934419704 
-0.016323597035496077 
0.010619173636859304 
0.010619173636859304 
-0.028422192810439294 
0.036364627843311110 
0.036364627843311110 
-0.013880630133907937 
0.010361743517969804 
-0.016323597035496077 
-0.015248831680192600 
0.026126749693271250 
-0.014731559762137908 
0.025387036791189643 
-0.059165045786461305 
-0.022830181067267707 
-0.028143354725438115 
0.022286635921881334 
0.010361743517969804 
-0.035907056464577840 
0.017818953542790606 
0.022365718799978073 
0.027104070351678135 
0.024418155937410587 
-0.027132313049333980 
-0.021866709326539686 
-0.011134083814784923 
-0.026248048000194120 
-0.017896907120180595 
-0.020814372080914467 
0.018538387444109530 
0.015869716768541470 
-0.0040371194761808910 
0.016963362151231672 
-0.035907056464577840 
0.042021675778529990 
0.020213405299267056 
-0.019080028169467547 
0.020086069795568165 
0.039210663845360840 
0.025387036791189643 
0.022039387511307126 
0.018538387444109530 
0.049031448094458390 
-0.014731559762137908 
-0.030756696028601390 
-0.0040371194761808910 
-0.025681854369991784 
-0.013544700480033896 
0.039398426205411400 
-0.014731559762137908 
0.010361743517969804 
0.018538387444109530 
0.012638686790159800 
0.020213405299267056 
-0.0085456476547618710 
0.042118948919105260 
0.049031448094458390 
0.043819294559798270 
-0.022633395474014842 
0.034979637870605800 
-0.022633395474014842 
-0.012140006331673623 
-0.020814372080914467 
-0.020814372080914467 
0.015559299841437990 
-0.023353704536184980 
0.034542726691811200 
-0.015850545015993537 
0.036049749353610584 
-0.017577366755209885 
-0.030037750792694898 
-0.014336858515392034 
0.047845459742593625 
0.024821573961466843 
0.017864290920234397 
-0.028143354725438115 
-0.013667102915389860 
-0.013667102915389860 
-0.025868289870424273 
0.020213405299267056 
-0.0095043991698673620 
0.020601048408511118 
-0.011134083814784923 
-0.013544700480033896 
0.034979637870605800 
0.010887485869139760 
0.024868706014154574 
0.010642018867429907 
0.016544010820895766 
0.010642018867429907 
-0.012140006331673623 
-0.017381193273139188 
0.023954449619043520 
-0.020902757387770306 
-0.024486179707191847 
-0.024486179707191847 
-0.010168662038878735 
0.025387036791189643 
-0.043338603900770990 
-0.025868289870424273 
-0.023490561420968517 
0.022482569898683497 
-0.012140006331673623 
-0.024157607187920985 
-0.049696385713114556 
-0.039547884859297430 
-0.024286705323524532 
-0.017084953207621920 
-0.015621207803777315 
-0.021103165610522120 
0.022365718799978073 
-0.021729989357378040 
0.015559299841437990 
0.024418155937410587 
0.012452850673827221 
-0.015850545015993537 
-0.015850545015993537 
-0.059165045786461305 
0.043605865869731570 
0.022039387511307126 
-0.030761668453185675 
0.042021675778529990 
-0.013447780526699796 
0.014651312005799782 
-0.024286705323524532 
-0.046531420222821790 
-0.014464181512713163 
0.034542726691811200 
0.024821573961466843 
-0.018139239412505715 
-0.0040371194761808910 
-0.011134083814784923 
-0.010168662038878735 
-0.049696385713114556 
-0.0040371194761808910 
0.016888737483174043 
-0.029419348364767086 
-0.023490561420968517 
0.045045863745820286 
-0.014731559762137908 
-0.017896907120180595 
-0.030756696028601390 
-0.017084953207621920 
0.016544010820895766 
-0.020928867360767454 
-0.017084953207621920 
-0.028143354725438115 
-0.024157607187920985 
0.015869716768541470 
-0.029419348364767086 
0.028987542104144136 
-0.0054740626324372170 
0.024218593132904890 
0.014526778685585284 
-0.021866709326539686 
0.017864290920234397 
-0.047795568795437844 
-0.021281443783526000 
-0.0085456476547618710 
-0.021103165610522120 
-0.0077550499456142214 
-0.013447780526699796 
-0.028143354725438115 
-0.013880630133907937 
0.022286635921881334 
0.022286635921881334 
0.014227914182429557 
-0.0077550499456142214 
-0.024487487810678298 
0.020213405299267056 
-0.0085456476547618710 
-0.013880630133907937 
-0.017588486417514500 
0.014227914182429557 
-0.020203478187279626 
0.043605865869731570 
0.025507287789331020 
-0.028143354725438115 
0.010361743517969804 
0.020213405299267056 
0.020213405299267056 
0.020213405299267056 
0.020213405299267056 
0.020213405299267056 
0.022039387511307126 
0.020213405299267056 
-0.013544700480033896 
-0.013544700480033896 
-0.020902757387770306 
0.020213405299267056 
-0.013544700480033896 
0.020213405299267056 
0.020213405299267056 
-0.0077550499456142214 
-0.023490561420968517 
-0.017588486417514500 
0.051587966237483726 
0.019805279001896544 
0.016963362151231672 
-0.019704334136982932 
-0.056453996116431274 
-0.068705290177462480 
0.015022729098655180 
-0.024487487810678298 
-0.051984404304156184 
0.011116846944301330 
-0.029419348364767086 
-0.040520188294751790 
-0.017084953207621920 
-0.013667102915389860 
0.014976472425541170 
-0.019086922847715532 
-0.015248831680192600 
-0.023175610777309747 
0.013039424398391933 
-0.024157607187920985 
-0.015248831680192600 
-0.010168662038878735 
0.020780951557381920 
-0.015850545015993537 
-0.021103165610522120 
0.020086069795568165 
0.043605865869731570 
0.0085552823132808150 
-0.0040371194761808910 
0.014976472425541170 
-0.029419348364767086 
-0.025868289870424273 
0.018133185607373710 
-0.012140006331673623 
0.0085552823132808150 
0.024868706014154574 
0.010887485869139760 
-0.019086922847715532 
-0.012140006331673623 
-0.015790659537804105 
0.022056550405977638 
-0.039547884859297430 
0.0085552823132808150 
-0.019086922847715532 
0.039210663845360840 
0.029028651616845525 
-0.015850545015993537 
0.042021675778529990 
0.043819294559798270 
0.020086069795568165 
-0.022811013994606120 
0.029028651616845525 
-0.019194147565461150 
0.018133185607373710 
0.014526778685585284 
0.014526778685585284 
-0.017896907120180595 
0.026566902410332340 
0.017864290920234397 
-0.0095043991698673620 
0.029028651616845525 
-0.022830181067267707 
-0.022830181067267707 
-0.027223696226574674 
-0.022633395474014842 
-0.0095043991698673620 
0.010887485869139760 
-0.020406737690780857 
0.039398426205411400 
0.037321354460385350 
-0.063307751520819290 
-0.014464181512713163 
-0.020203478187279626 
0.010642018867429907 
-0.020928867360767454 
0.020601048408511118 
-0.023490561420968517 
-0.024487487810678298 
0.010642018867429907 
-0.015621207803777315 
-0.017084953207621920 
0.051786769675354054 
-0.022633395474014842 
-0.020406737690780857 
-0.015850545015993537 
0.017818953542790606 
-0.041362033713990990 
-0.0090483746645641460 
-0.063307751520819290 
0.022425204175647100 
-0.028143354725438115 
0.015869716768541470 
0.042021675778529990 
-0.018139239412505715 
0.024868706014154574 
0.012638686790159800 
0.016963362151231672 
-0.014464181512713163 
0.034979637870605800 
0.0085552823132808150 
0.019805279001896544 
0.074168128550703950 
0.014976472425541170 
-0.028143354725438115 
0.020780951557381920 
-0.026248048000194120 
0.039398426205411400 
-0.029419348364767086 
0.022039387511307126 
0.018538387444109530 
-0.011758168972265560 
-0.0055695280953875500 
-0.023490561420968517 
0.0085552823132808150 
0.043019797081337456 
0.056654530137651433 
-0.023619889280107487 
-0.056569694490553070 
-0.016632755705014123 
0.0085552823132808150 
0.0085552823132808150 
-0.0055695280953875500 
-0.020406737690780857 
0.028194690558876242 
-0.039547884859297430 
0.018133185607373710 
-0.015850545015993537 
0.019805279001896544 
-0.019086922847715532 
0.018689894257870734 
0.021812590812495602 
-0.017577366755209885 
-0.035921277255505080 
0.024821573961466843 
-0.022815104148302453 
-0.030037750792694898 
0.021818052276888660 
0.022482569898683497 
0.015869716768541470 
0.020213405299267056 
0.049031448094458390 
0.019805279001896544 
0.024821573961466843 
0.016331455892735595 
0.024821573961466843 
0.049163033523136460 
0.039210663845360840 
0.026015916819135135 
-0.011758168972265560 
-0.014464181512713163 
-0.011758168972265560 
0.024418155937410587 
0.027104070351678135 
0.0085552823132808150 
0.019805279001896544 
0.0085552823132808150 
0.024821573961466843 
0.014651312005799782 
0.011116846944301330 
0.013039424398391933 
-0.028143354725438115 
0.024625018288934274 
0.013039424398391933 
0.020780951557381920 
0.014526778685585284 
0.013039424398391933 
0.010887485869139760 
-0.021866709326539686 
0.028671282607371028 
-0.020928867360767454 
0.017864290920234397 
0.015559299841437990 
0.012452850673827221 
0.017942808572945477 
0.039210663845360840 
-0.0085456476547618710 
-0.0055695280953875500 
0.020780951557381920 
0.012452850673827221 
0.015022729098655180 
-0.011134083814784923 
-0.022815104148302453 
-0.013447780526699796 
-0.014464181512713163 
0.013039424398391933 
0.036364627843311110 
0.017942808572945477 
-0.024157607187920985 
0.037321354460385350 
-0.017057591553182466 
-0.011758168972265560 
-0.021729989357378040 
-0.0055695280953875500 
0.027104070351678135 
0.021812590812495602 
0.020780951557381920 
-0.019704334136982932 
0.028987542104144136 
-0.021729989357378040 
0.042118948919105260 
0.024821573961466843 
0.024821573961466843 
0.020601048408511118 
-0.040251159435004506 
-0.023175610777309747 
-0.035921277255505080 
0.015448066956242179 
-0.025340681828504910 
-0.017381193273139188 
0.036398999230524880 
0.036398999230524880 
0.020780951557381920 
-0.015970560266332180 
-0.015970560266332180 
-0.015970560266332180 
0.014526778685585284 
0.051692754654431840 
0.018689894257870734 
0.022365718799978073 
0.022056550405977638 
0.049031448094458390 
0.014612676095377648 
-0.013880630133907937 
0.020213405299267056 
0.018133185607373710 
-0.025681854369991784 
0.016331455892735595 
0.010887485869139760 
-0.013544700480033896 
-0.035073469214288770 
-0.014336858515392034 
-0.014336858515392034 
-0.014336858515392034 
-0.0054740626324372170 
-0.0054740626324372170 
-0.024487487810678298 
-0.024286705323524532 
-0.020902757387770306 
0.015869716768541470 
-0.0054740626324372170 
-0.037196508678914456 
-0.015621207803777315 
-0.019194147565461150 
0.024625018288934274 
-0.020902757387770306 
0.016888737483174043 
0.024821573961466843 
0.021812590812495602 
-0.025681854369991784 
-0.019704334136982932 
-0.022815104148302453 
0.039210663845360840 
-0.022830181067267707 
-0.077592283627363620 
-0.025340681828504910 
0.024625018288934274 
0.010619173636859304 
0.010619173636859304 
0.018689894257870734 
0.018689894257870734 
0.018689894257870734 
0.018689894257870734 
0.018689894257870734 
0.018689894257870734 
0.018689894257870734 
0.018689894257870734 
0.018689894257870734 
-0.0055695280953875500 
-0.0055695280953875500 
-0.0055695280953875500 
-0.0055695280953875500 
-0.0055695280953875500 
-0.019194147565461150 
-0.020928867360767454 
-0.020664126162455186 
-0.017381193273139188 
0.026015916819135135 
-0.028422192810439294 
0.049031448094458390 
-0.14131160870341280 
0.017818953542790606 
0.010887485869139760 
-0.010168662038878735 
0.039398426205411400 
0.015448066956242179 
-0.030069808355500348 
-0.030069808355500348 
0.012452850673827221 
-0.035764449937785230 
-0.015790659537804105 
0.015869716768541470 
-0.015790659537804105 
-0.035921277255505080 
-0.015790659537804105 
-0.0040371194761808910 
0.016331455892735595 
0.016544010820895766 
0.016331455892735595 
0.016331455892735595 
0.016331455892735595 
-0.020664126162455186 
-0.019194147565461150 
-0.0085456476547618710 
-0.013667102915389860 
-0.0085456476547618710 
0.020086069795568165 
0.012452850673827221 
-0.043338603900770990 
0.0097055680754037470 
0.017942808572945477 
0.012452850673827221 
0.039210663845360840 
0.010642018867429907 
0.012452850673827221 
0.012452850673827221 
0.012452850673827221 
-0.023490561420968517 
-0.011134083814784923 
-0.016323597035496077 
0.049031448094458390 
-0.011840083334975673 
-0.011840083334975673 
-0.017588486417514500 
-0.017588486417514500 
0.012452850673827221 
-0.023490561420968517 
-0.015621207803777315 
-0.017588486417514500 
-0.0040371194761808910 
-0.0040371194761808910 
0.025711657136075620 
-0.026248048000194120 
-0.011758168972265560 
-0.013544700480033896 
0.044445622270740250 
-0.022815104148302453 
0.024218593132904890 
-0.0095043991698673620 
-0.024157607187920985 
0.039431830291545290 
0.049031448094458390 
0.080121232777107000 
-0.026248048000194120 
0.049031448094458390 
0.032958231831580040 
-0.013014082540883066 
0.025711657136075620 
-0.026248048000194120 
-0.026248048000194120 
0.016888737483174043 
0.011116846944301330 
0.032958231831580040 
-0.021281443783526000 
0.049031448094458390 
0.044445622270740250 
-0.035764449937785230 
-0.020203478187279626 
0.020601048408511118 
-0.030756696028601390 
-0.030756696028601390 
-0.0077550499456142214 
-0.030756696028601390 
0.020601048408511118 
-0.022815104148302453 
0.014976472425541170 
-0.016323597035496077 
0.023954449619043520 
-0.017381193273139188 
-0.025340681828504910 
-0.015850545015993537 
-0.020814372080914467 
-0.017057591553182466 
-0.016323597035496077 
-0.035764449937785230 
0.012638686790159800 
-0.0054740626324372170 
-0.023175610777309747 
0.012452850673827221 
-0.011758168972265560 
-0.035907056464577840 
0.044012436514765490 
0.044012436514765490 
-0.033786565154701090 
-0.025681854369991784 
0.037321354460385350 
0.016963362151231672 
0.017942808572945477 
0.046339018515670904 
-0.031323495842699380 
-0.011758168972265560 
-0.020902757387770306 
-0.013014082540883066 
-0.0077550499456142214 
0.054053581305230886 
0.055967447513214480 
0.025387036791189643 
-0.0077550499456142214 
-0.0085456476547618710 
-0.035907056464577840 
-0.021103165610522120 
-0.033786565154701090 
0.015022729098655180 
-0.018139239412505715 
-0.011758168972265560 
-0.022633395474014842 
-0.040251159435004506 
-0.013544700480033896 
-0.014731559762137908 
-0.020814372080914467 
-0.023619889280107487 
0.036364627843311110 
-0.037196508678914456 
0.041930712960691800 
0.024418155937410587 
-0.0077550499456142214 
-0.014295976694811861 
0.027104070351678135 
-0.017588486417514500 
0.010361743517969804 
0.012638686790159800 
0.022425204175647100 
-0.014464181512713163 
-0.017577366755209885 
0.010887485869139760 
-0.012140006331673623 
-0.017084953207621920 
0.014129878976013803 
-0.0077550499456142214 
-0.049696385713114556 
0.022286635921881334 
-0.012140006331673623 
0.014129878976013803 
0.014976472425541170 
0.065846975922338290 
-0.025868289870424273 
0.024625018288934274 
-0.024486179707191847 
0.028988205276834930 
-0.019080028169467547 
-0.020814372080914467 
-0.029419348364767086 
-0.021103165610522120 
0.024625018288934274 
-0.024157607187920985 
-0.028422192810439294 
0.061781460009287484 
0.015022729098655180 
0.044445622270740250 
-0.025222459986810785 
-0.021327754461013610 
0.016544010820895766 
0.025438678925206543 
-0.016632755705014123 
-0.015790659537804105 
-0.018139239412505715 
0.024821573961466843 
-0.011134083814784923 
-0.021281443783526000 
-0.022830181067267707 
-0.022811013994606120 
-0.054647592235702230 
-0.025340681828504910 
0.039431830291545290 
-0.031323495842699380 
0.021818052276888660 
0.018816182506081340 
-0.035907056464577840 
-0.048804491981611130 
-0.030756696028601390 
0.039431830291545290 
-0.059714393556610484 
-0.059714393556610484 
0.018816182506081340 
0.014227914182429557 
-0.014731559762137908 
0.020213405299267056 
0.014651312005799782 
-0.022811013994606120 
0.0097055680754037470 
-0.0040371194761808910 
0.054053581305230886 
0.022056550405977638 
-0.025868289870424273 
-0.0055695280953875500 
-0.0055695280953875500 
0.049163033523136460 
0.017864290920234397 
-0.0055695280953875500 
-0.022815104148302453 
0.016888737483174043 
-0.0055695280953875500 
0.022039387511307126 
0.017864290920234397 
0.017942808572945477 
0.012452850673827221 
0.017942808572945477 
-0.021103165610522120 
-0.017381193273139188 
0.033434842264098055 
0.017864290920234397 
-0.010168662038878735 
-0.0095043991698673620 
0.051587966237483726 
-0.019086922847715532 
0.022482569898683497 
0.022482569898683497 
-0.0095043991698673620 
-0.0095043991698673620 
0.056654530137651433 
-0.015850545015993537 
-0.024286705323524532 
0.018689894257870734 
0.026566902410332340 
0.026566902410332340 
0.026566902410332340 
0.020601048408511118 
0.016331455892735595 
0.014227914182429557 
0.020601048408511118 
0.049340746062243916 
0.022482569898683497 
0.018689894257870734 
0.074168128550703950 
0.014976472425541170 
0.0085552823132808150 
0.022482569898683497 
-0.0055695280953875500 
0.012638686790159800 
0.026566902410332340 
-0.024286705323524532 
-0.038651052726436950 
0.026566902410332340 
0.018689894257870734 
0.012638686790159800 
-0.041362033713990990 
0.026566902410332340 
0.039210663845360840 
-0.024286705323524532 
-0.016632755705014123 
0.017864290920234397 
-0.015970560266332180 
-0.015970560266332180 
-0.015970560266332180 
-0.015970560266332180 
-0.015970560266332180 
0.018689894257870734 
0.046339018515670904 
0.021775198934419704 
0.022039387511307126 
-0.028143354725438115 
-0.011134083814784923 
-0.023353704536184980 
-0.017057591553182466 
0.036398999230524880 
0.017942808572945477 
0.016963362151231672 
0.032958231831580040 
-0.0055695280953875500 
-0.020203478187279626 
-0.020203478187279626 
0.034979637870605800 
0.010642018867429907 
0.033434842264098055 
0.033434842264098055 
-0.030756696028601390 
0.015448066956242179 
0.033434842264098055 
-0.022811013994606120 
-0.017084953207621920 
0.033434842264098055 
0.022056550405977638 
0.021775198934419704 
0.034979637870605800 
-0.0077550499456142214 
0.017942808572945477 
0.014526778685585284 
0.015448066956242179 
0.017942808572945477 
-0.0085456476547618710 
-0.022633395474014842 
0.014227914182429557 
0.043019797081337456 
0.033434842264098055 
0.043019797081337456 
0.055967447513214480 
0.014129878976013803 
0.014129878976013803 
0.010619173636859304 
0.028671282607371028 
0.032958231831580040 
0.028671282607371028 
0.028671282607371028 
0.028671282607371028 
0.028671282607371028 
0.068920822466962850 
0.028671282607371028 
0.028671282607371028 
0.028671282607371028 
-0.037196508678914456 
-0.040520188294751790 
-0.017084953207621920 
-0.017084953207621920 
-0.0085456476547618710 
-0.013667102915389860 
-0.013667102915389860 
-0.013667102915389860 
-0.0085456476547618710 
-0.0085456476547618710 
-0.0085456476547618710 
-0.0090483746645641460 
-0.022811013994606120 
0.018689894257870734 
-0.040251159435004506 
0.018689894257870734 
-0.040251159435004506 
-0.040251159435004506 
0.049340746062243916 
-0.040251159435004506 
0.049340746062243916 
0.049340746062243916 
-0.038651052726436950 
0.025438678925206543 
-0.035073469214288770 
0.017942808572945477 
-0.011758168972265560 
-0.035907056464577840 
-0.048804491981611130 
0.015869716768541470 
-0.023619889280107487 
-0.019194147565461150 
-0.0055695280953875500 
0.0085552823132808150 
-0.029419348364767086 
-0.024486179707191847 
0.024418155937410587 
-0.015790659537804105 
-0.0077550499456142214 
0.016963362151231672 
-0.030761668453185675 
-0.025868289870424273 
0.024625018288934274 
-0.017896907120180595 
-0.025681854369991784 
0.021812590812495602 
-0.017588486417514500 
-0.048804491981611130 
0.012452850673827221 
0.027104070351678135 
0.010619173636859304 
0.017818953542790606 
-0.014731559762137908 
-0.021103165610522120 
0.015559299841437990 
0.039210663845360840 
0.010887485869139760 
-0.019704334136982932 
0.022286635921881334 
-0.019080028169467547 
0.017942808572945477 
0.039210663845360840 
0.016331455892735595 
0.036398999230524880 
0.014129878976013803 
-0.014336858515392034 
0.014526778685585284 
-0.026248048000194120 
-0.0085456476547618710 
-0.0077550499456142214 
-0.023619889280107487 
0.014976472425541170 
-0.0095043991698673620 
0.010887485869139760 
-0.019194147565461150 
0.025711657136075620 
-0.043338603900770990 
-0.019080028169467547 
0.028988205276834930 
0.029028651616845525 
-0.0090483746645641460 
-0.020203478187279626 
0.010887485869139760 
-0.022815104148302453 
0.043019797081337456 
0.020780951557381920 
-0.023353704536184980 
-0.013014082540883066 
0.012452850673827221 
0.032958231831580040 
0.025387036791189643 
-0.023490561420968517 
-0.0055695280953875500 
-0.077592283627363620 
0.012638686790159800 
-0.017588486417514500 
-0.017381193273139188 
0.037321354460385350 
-0.022811013994606120 
0.012638686790159800 
0.043019797081337456 
0.020213405299267056 
0.016888737483174043 
-0.0085456476547618710 
0.023954449619043520 
-0.012140006331673623 
-0.012140006331673623 
-0.012140006331673623 
-0.037196508678914456 
-0.037196508678914456 
-0.037196508678914456 
0.026015916819135135 
-0.021281443783526000 
-0.017588486417514500 
0.021775198934419704 
0.012452850673827221 
-0.015248831680192600 
-0.015248831680192600 
-0.015248831680192600 
-0.015248831680192600 
-0.017588486417514500 
0.026015916819135135 
0.014976472425541170 
0.051786769675354054 
-0.022811013994606120 
0.021812590812495602 
-0.015850545015993537 
0.039398426205411400 
-0.030756696028601390 
-0.033786565154701090 
-0.030756696028601390 
-0.030756696028601390 
-0.019704334136982932 
-0.0055695280953875500 
0.024868706014154574 
-0.015970560266332180 
0.014976472425541170 
0.016963362151231672 
-0.022811013994606120 
-0.0085456476547618710 
-0.017588486417514500 
0.014976472425541170 
-0.0090483746645641460 
0.022056550405977638 
-0.030037750792694898 
-0.0085456476547618710 
0.037321354460385350 
0.015559299841437990 
-0.011134083814784923 
-0.040251159435004506 
0.014227914182429557 
0.014227914182429557 
0.022482569898683497 
-0.027132313049333980 
0.026937831433534070 
0.017864290920234397 
-0.025340681828504910 
0.013039424398391933 
-0.015790659537804105 
-0.0055695280953875500 
0.039398426205411400 
-0.023619889280107487 
-0.014525702778421062 
-0.013014082540883066 
0.036364627843311110 
0.014976472425541170 
-0.019086922847715532 
0.039210663845360840 
0.026566902410332340 
0.025711657136075620 
-0.013667102915389860 
-0.014525702778421062 
-0.021729989357378040 
-0.0055695280953875500 
0.042021675778529990 
-0.033786565154701090 
0.080121232777107000 
0.010361743517969804 
-0.011840083334975673 
-0.011840083334975673 
-0.011840083334975673 
-0.011840083334975673 
-0.011840083334975673 
-0.017588486417514500 
-0.017588486417514500 
-0.011840083334975673 
-0.017588486417514500 
0.021775198934419704 
0.0085552823132808150 
0.012638686790159800 
0.021775198934419704 
0.016331455892735595 
0.032958231831580040 
0.010887485869139760 
-0.030761668453185675 
-0.014295976694811861 
0.020213405299267056 
-0.011758168972265560 
-0.025681854369991784 
-0.0040371194761808910 
-0.025681854369991784 
-0.011758168972265560 
-0.0040371194761808910 
-0.011840083334975673 
-0.019080028169467547 
-0.0077550499456142214 
-0.014525702778421062 
-0.028422192810439294 
-0.040251159435004506 
0.028988205276834930 
-0.014336858515392034 
-0.019080028169467547 
-0.019080028169467547 
0.017818953542790606 
0.054053581305230886 
-0.024157607187920985 
-0.017381193273139188 
0.041930712960691800 
0.016544010820895766 
0.025507287789331020 
0.022425204175647100 
0.041930712960691800 
-0.017057591553182466 
0.015869716768541470 
-0.035764449937785230 
-0.025868289870424273 
-0.030069808355500348 
0.018816182506081340 
-0.022830181067267707 
0.039210663845360840 
-0.0090483746645641460 
-0.0085456476547618710 
-0.0090483746645641460 
-0.0090483746645641460 
-0.014731559762137908 
-0.023353704536184980 
0.014129878976013803 
0.014612676095377648 
-0.043338603900770990 
-0.022811013994606120 
0.028988205276834930 
-0.020814372080914467 
0.010887485869139760 
-0.0054740626324372170 
0.014612676095377648 
-0.010168662038878735 
-0.015850545015993537 
0.015559299841437990 
-0.040135471353102130 
0.017818953542790606 
-0.035921277255505080 
0.014612676095377648 
-0.054647592235702230 
-0.022830181067267707 
-0.0055695280953875500 
0.018133185607373710 
0.011116846944301330 
0.016963362151231672 
0.011116846944301330 
0.016963362151231672 
-0.0055695280953875500 
0.014651312005799782 
0.021775198934419704 
0.012452850673827221 
0.014651312005799782 
0.014129878976013803 
-0.0054740626324372170 
0.015559299841437990 
0.028671282607371028 
-0.022830181067267707 
0.014976472425541170 
0.014976472425541170 
-0.016632755705014123 
-0.027223696226574674 
-0.027223696226574674 
0.039431830291545290 
-0.031323495842699380 
-0.012140006331673623 
-0.0090483746645641460 
-0.014295976694811861 
-0.020928867360767454 
-0.017381193273139188 
0.032958231831580040 
-0.019086922847715532 
-0.0090483746645641460 
0.024218593132904890 
-0.024487487810678298 
-0.054647592235702230 
-0.024157607187920985 
-0.011758168972265560 
0.014612676095377648 
-0.014295976694811861 
0.012452850673827221 
-0.024486179707191847 
-0.011134083814784923 
-0.020203478187279626 
0.039398426205411400 
0.022425204175647100 
-0.011134083814784923 
-0.0090483746645641460 
0.036364627843311110 
0.014976472425541170 
-0.018139239412505715 
-0.022815104148302453 
0.011116846944301330 
-0.027223696226574674 
0.028194690558876242 
0.022039387511307126 
-0.020928867360767454 
0.025711657136075620 
-0.040251159435004506 
-0.013667102915389860 
0.026566902410332340 
0.016963362151231672 
0.020086069795568165 
-0.035921277255505080 
-0.030069808355500348 
0.014976472425541170 
-0.035907056464577840 
0.013039424398391933 
0.042021675778529990 
-0.020203478187279626 
-0.016632755705014123 
-0.020203478187279626 
-0.0095043991698673620 
0.019519628059846230 
-0.0040371194761808910 
-0.020203478187279626 
-0.040251159435004506 
0.010642018867429907 
0.051692754654431840 
0.012452850673827221 
0.015869716768541470 
-0.028422192810439294 
0.011116846944301330 
-0.0054740626324372170 
0.020601048408511118 
0.028988205276834930 
-0.041362033713990990 
-0.024486179707191847 
0.015559299841437990 
-0.011134083814784923 
0.015448066956242179 
0.036049749353610584 
0.036049749353610584 
-0.017577366755209885 
0.036049749353610584 
0.016544010820895766 
-0.012140006331673623 
0.010361743517969804 
0.054053581305230886 
0.054053581305230886 
-0.017057591553182466 
-0.020902757387770306 
-0.0055695280953875500 
0.010619173636859304 
0.014612676095377648 
0.046339018515670904 
-0.059714393556610484 
0.022482569898683497 
0.014976472425541170 
-0.013544700480033896 
0.014651312005799782 
-0.017577366755209885 
0.014227914182429557 
-0.017381193273139188 
-0.0054740626324372170 
0.022482569898683497 
-0.013544700480033896 
0.016544010820895766 
-0.020928867360767454 
0.017818953542790606 
-0.014525702778421062 
-0.030756696028601390 
0.024218593132904890 
0.013039424398391933 
0.013039424398391933 
0.019519628059846230 
0.010642018867429907 
0.019519628059846230 
0.028194690558876242 
-0.012140006331673623 
0.039210663845360840 
0.044445622270740250 
0.017864290920234397 
0.013039424398391933 
-0.024486179707191847 
-0.041362033713990990 
-0.054647592235702230 
0.025711657136075620 
0.024218593132904890 
0.020780951557381920 
0.044012436514765490 
-0.022811013994606120 
-0.0085456476547618710 
0.010642018867429907 
0.010887485869139760 
0.015448066956242179 
0.022365718799978073 
0.014129878976013803 
-0.021729989357378040 
0.043819294559798270 
