solver_type L2R_L2LOSS_SVC
nr_class 2
label 1 -1
nr_feature 7999
bias 0.0000000000000000
w
-0.16942082429396693 
-0.17302080307145778 
-0.21365069962152497 
-0.11792053988341190 
0.18513311739926236 
-0.19177285302530558 
-0.14178326682912390 
-0.12495454161778614 
-0.069969310744614710 
-0.081627524474808310 
-0.089350728541581580 
-0.12717211215613053 
-0.081543094979512070 
-0.098740302662287190 
0.10483475831455027 
0.15379103365388160 
-0.28656066612442990 
-0.075583581372744350 
-0.15512651771665610 
-0.10920973996595305 
0.15542146910316373 
-0.11351988696341828 
0.10410279583459078 
-0.17991395927057113 
0.095149948013921360 
-0.15442732475736454 
-0.080351067800156410 
-0.12732924775788773 
-0.081703299407606580 
0.17523212952666042 
0.075870458464017990 
-0.090120784149268080 
-0.099495113452004210 
-0.10774534827568416 
-0.14724180850085570 
-0.15342190048432236 
-0.042193826031264640 
-0.13963159070628098 
0.084691653469600630 
-0.074694099044698300 
-0.17888602655374572 
-0.16977291541164596 
-0.073847931227699530 
-0.078630407227192890 
0.085248986844962180 
-0.086371501085437300 
-0.085881034944045960 
0.091183348784352600 
-0.18902960188097026 
0.10316209544461210 
0.11071414926173681 
0.058469520649684754 
-0.095614470570913880 
-0.044284688713258480 
0.076890433758552330 
0.043901792298607720 
-0.062701474960911430 
-0.043858273405472485 
-0.13156454443323473 
-0.11914394155104768 
-0.062688242121007080 
-0.029360239748006790 
0.053025898861232140 
-0.078556958047360250 
0.11065959886399586 
-0.096239997295338160 
-0.11062113933881662 
-0.068567909058768080 
-0.066357707255728410 
0.068896347318784470 
-0.073150221599707420 
-0.060438575930363010 
0.064241107931420090 
-0.053929730995383875 
0.10101054405985281 
-0.053186466419175390 
-0.057021506119148770 
0.073812589623747040 
-0.093993063777235670 
-0.029840407798539435 
-0.062168205544804850 
-0.069065159374878770 
0.064956078741704170 
0.11590660612934339 
-0.057433607502588270 
-0.059482765471686450 
-0.020186310157567230 
0.059896981831513160 
0.061852178936819750 
-0.043858273405472485 
-0.079773076027804380 
0.079822585956115800 
0.081164484529025010 
0.11743311338567118 
-0.13670783322593350 
0.10183251384527298 
-0.066104057951074300 
0.10190220358553925 
-0.091812066074063770 
0.11331642061027092 
0.081942171760633500 
-0.063392102489897490 
-0.13414758902959176 
0.11773055830676894 
0.060064456095970664 
-0.067423012318927430 
0.073385073018366320 
-0.067151320903649660 
0.12378049645368049 
-0.033118285454898730 
0.15463964626298782 
0.069196037504007460 
-0.050340770022231310 
0.15002568807454340 
-0.085157740615072100 
-0.073096447411177630 
-0.051558707513040470 
0.12320563026293299 
-0.14055647011284570 
-0.052575200397749080 
0.081746654640301980 
-0.058255835593899050 
-0.045305235658268370 
-0.073150221599707420 
-0.072130485227245480 
-0.094079131432356010 
-0.20084762729507122 
-0.044549340808554570 
-0.045305235658268370 
-0.035710165066502310 
0.10432975114205396 
-0.072872857818694350 
-0.10743487698454693 
-0.090652757750696700 
0.099028374058662850 
-0.062520372187158680 
0.060970404466591090 
-0.082311286349231430 
-0.059606039847654405 
-0.080413518696073870 
-0.086055747630287850 
0.10681637920356254 
0.086276752037208820 
0.12583592976418350 
0.10587935773395417 
-0.072594255185210510 
-0.035710165066502310 
-0.079079309594005650 
0.096429575698413960 
-0.087210973450230400 
0.13278149828795882 
0.064650117453260280 
0.056324330841069710 
-0.10295158091560173 
0.065279590229280400 
0.076698779348820590 
0.21191426400358443 
0.091133975163451000 
-0.060960034585560960 
-0.089390408235084930 
-0.075244976078874750 
-0.035606971422082724 
-0.074520055547892250 
-0.059579426336914695 
-0.13530710774134180 
-0.11224322708740428 
-0.10876816130773793 
-0.075365739906428210 
0.091623442747914540 
0.087397171631912840 
0.052182610494043200 
-0.11827829029086506 
-0.082393038798719130 
-0.096212939765294800 
0.087047188226013280 
-0.078470900795088600 
0.087451308970255870 
0.070217861825684710 
0.095701310461251600 
0.10682753815884495 
-0.073418573262671790 
0.060688888322323410 
-0.13766137092181346 
-0.034628774140333400 
0.087408448918398230 
-0.054525281827875800 
0.085488564653780630 
-0.045305235658268370 
0.083545367240850530 
-0.078556958047360250 
-0.083761122264252710 
-0.073814831914500290 
0.12380041114645375 
-0.066248811212636400 
0.083743322427322030 
0.13269121001784343 
-0.087019720575160820 
-0.10137481452396213 
-0.073281414711144100 
-0.075052124469390400 
0.075708984331041690 
-0.045372046721947557 
-0.12150752608218386 
-0.062696189933192970 
-0.062826482754130140 
0.097797527335180130 
-0.075524544063125280 
0.069275282100854720 
-0.073815728873348490 
-0.091914881389476110 
-0.13258232224148556 
-0.065595524420685350 
0.053700004082204550 
0.11341344432784803 
0.14681338339506286 
-0.13963158817837282 
-0.16520620800010370 
-0.060040731473646940 
0.047444175158597140 
-0.043354792734169380 
0.068496261256453640 
-0.073738630661818970 
0.18440066232534122 
-0.12458942227059239 
-0.16760914135849642 
-0.083761122264252710 
0.068496261256453640 
-0.10662232384990418 
-0.096993117541396110 
-0.091119793754432510 
-0.10482491767183144 
-0.076266722693556200 
0.057378904714861664 
0.18731649193408145 
-0.036158056304582610 
-0.082422719545334780 
-0.052126801507255730 
0.084304405770156670 
0.10001767721428564 
0.11472167669767355 
0.084304405770156670 
-0.059337703488688450 
-0.065902444807026200 
-0.099389781451216160 
-0.043354792734169380 
-0.042048246117859650 
-0.055121521711828915 
-0.17079747290480352 
0.12775943291220446 
0.079115879861065290 
-0.072219090798688680 
-0.071412010418679330 
0.14071377047683106 
0.059361440444589860 
-0.073534730780879660 
0.084574623005367180 
-0.063993221138342780 
-0.047945354381674940 
0.13509599742429237 
-0.054769077597603480 
0.064072836235268980 
0.069808138120487670 
0.15365300614347500 
0.11340908053190529 
-0.071401470233758470 
-0.093993063777235670 
0.083998891678869590 
-0.11136036395134054 
-0.096289496878999960 
-0.10443326400847203 
-0.077265663337397030 
-0.023362063282597996 
0.088049265322994410 
-0.078666566737347820 
-0.13264293949468217 
-0.059394482203302760 
-0.097461791069675800 
-0.11720233615344279 
-0.12893389149424458 
0.092381036312215130 
0.19912863489644278 
-0.078207895537267620 
-0.057004371587327200 
0.056916507826968510 
-0.026397258569535086 
0.052325207986272430 
0.10652495263768451 
0.056194479396993860 
0.080175071146407830 
0.064219563432034850 
-0.12672524734079310 
0.067609998532236020 
-0.021218323138134137 
0.10327677941045704 
-0.070515067706675370 
-0.068193290840624170 
-0.15443198953109372 
0.094643639922341110 
-0.064310026864316940 
-0.11157193689984540 
-0.20296497163447402 
0.048973340030472750 
-0.036158056304582610 
0.076354263679627860 
0.060682114401349310 
0.11212404916233293 
0.043901792298607720 
0.073929111741786080 
-0.072218146883718200 
-0.042280446388535020 
0.069568390478274440 
0.049199017161957280 
0.085389259976755320 
0.079118448887249610 
0.081876314885892950 
-0.046174291340517690 
0.18497224647419297 
-0.045305235658268370 
0.083650294634324290 
-0.20296497163447402 
-0.13995986779181890 
0.10462981033431701 
-0.13026583489789767 
0.17069163564578860 
-0.035710165066502310 
-0.11069669046350708 
0.094782352170158930 
0.087814176013082560 
0.071061598320223890 
0.071660440396323540 
-0.095985203441021450 
-0.077572582921893950 
0.12386182883306984 
-0.12449943995493258 
0.073574332544144440 
-0.088701293141623570 
-0.075113578564347900 
-0.098981317273179550 
0.059100400112232300 
-0.19131210425051767 
0.073072764533462080 
0.16326296129459510 
-0.054769077597603480 
0.060341463419630564 
0.043901792298607720 
-0.075493210753454700 
-0.077265519576330030 
-0.054048314209827426 
0.075310029939122610 
0.12682405081254958 
-0.065078263665725780 
0.13945640930492012 
-0.14700482630746230 
-0.069406296548219250 
-0.15443198953109372 
-0.092565879728948750 
-0.085635194746865830 
-0.091642663223452100 
0.073799455833480440 
-0.072218146883718200 
-0.044670895087160090 
0.12386182883306984 
0.11577214949955510 
0.059389189550264380 
-0.075113578564347900 
0.10664372675678922 
-0.10669430656051630 
0.060190081818793324 
0.081697638751815640 
-0.10548840085325296 
-0.16925287467987427 
0.056324330841069710 
0.046804879934016190 
0.074396851920510390 
-0.066707758904024570 
-0.049392085811790436 
0.11630613320165407 
0.088551034019373990 
-0.054920937864710986 
0.13980592615673545 
0.13188841730281262 
-0.13995986779181890 
0.080288802979559000 
0.10496626210049060 
-0.076560288233268350 
0.13335119913888782 
0.14427306592842800 
-0.066981671831985930 
0.13200807974123470 
-0.048182971184014580 
0.11506036555327871 
0.043901792298607720 
-0.099322113130480300 
-0.13468958828373973 
-0.051170645324533830 
0.18660765845576227 
-0.084470682931629350 
-0.023843145399918823 
-0.019034363847570512 
-0.075606309156693530 
0.042408667576628360 
-0.050725201683107380 
0.041325327699384934 
0.091304236896372930 
0.083269655213728770 
0.073111483673694010 
0.29033997147909910 
0.045043651395688030 
-0.16810399433756842 
-0.044463287045489075 
-0.060195716264055540 
-0.047043624364892990 
-0.036134673095375464 
-0.080078872820725260 
0.048954439915871575 
-0.038887545630314185 
0.038418897467267310 
-0.051486221359296556 
0.068996122873285560 
-0.023704020606599756 
0.038418897467267310 
0.035993330791952695 
0.057763109285438730 
0.025273988709919672 
-0.034628675218875670 
-0.041995244347743765 
-0.061746961829893880 
0.051346717959088150 
0.051346717959088150 
-0.089691159718681010 
-0.077669035717237490 
-0.043386040811182795 
-0.043386040811182795 
-0.043386040811182795 
-0.043386040811182795 
-0.043386040811182795 
-0.043386040811182795 
-0.043386040811182795 
-0.043386040811182795 
-0.043386040811182795 
0.031832484978904290 
-0.039500594095796820 
-0.039500594095796820 
-0.039500594095796820 
-0.039500594095796820 
-0.039500594095796820 
-0.039500594095796820 
-0.039500594095796820 
0.022412746844732264 
0.027950462570690886 
-0.082622623669889430 
-0.034628675218875670 
-0.029606015217097967 
0.038418897467267310 
0.039007318111790630 
-0.036224245601523530 
-0.022944737365829155 
-0.048388971419484350 
0.15913809830351427 
-0.035659867251076790 
0.034723655373571670 
0.093967007496472980 
0.058187588661772100 
-0.073175839687503210 
-0.028587224589315340 
-0.043386040811182795 
0.027950462570690886 
-0.038667684553874336 
-0.011717858585640471 
0.022412746844732264 
0.039581711890981860 
0.023235040893514334 
-0.015132646486348893 
-0.029606015217097967 
-0.036224245601523530 
-0.063084908569050880 
-0.022944737365829155 
0.039581711890981860 
-0.077669035717237490 
0.027021339383194475 
-0.035659867251076790 
0.039581711890981860 
0.045617368074679990 
0.034483207069814100 
0.051449394437255150 
0.035324255424541394 
-0.032987784543082930 
0.039581711890981860 
0.044645849066628660 
0.041140285758328060 
0.031832484978904290 
0.051346717959088150 
0.031832484978904290 
0.023235040893514334 
0.034720763803721170 
0.11632659863809039 
0.059256444229109216 
-0.023704020606599756 
-0.054942318081361570 
0.040467750783469675 
-0.064044183204460130 
-0.046655096389484510 
-0.019001370501347010 
-0.044799197050346850 
0.074137583902928200 
0.061381044771951186 
0.048345469528316360 
0.048345469528316360 
0.032926914468822310 
0.027021339383194475 
-0.044202442259004826 
-0.049839328248315010 
0.051346717959088150 
-0.011717858585640471 
-0.026939665217229028 
0.045617368074679990 
-0.026939665217229028 
0.035993330791952695 
0.031832484978904290 
-0.12131460853296745 
0.059256444229109216 
0.036380517548888020 
0.025113391097504115 
-0.026939665217229028 
0.074137583902928200 
0.019823402151304000 
0.038418897467267310 
0.031832484978904290 
0.096088473334876730 
0.034483207069814100 
-0.079790855904096800 
0.036380517548888020 
0.019823402151304000 
-0.053062096371671974 
-0.043002119042172486 
-0.037502952530993680 
-0.029606015217097967 
-0.079790855904096800 
-0.040276745187168596 
-0.082622623669889430 
-0.035659867251076790 
0.054714325681091700 
0.040467750783469675 
0.056322168683075755 
0.046143156625244130 
0.065360601869951280 
-0.038127067025066320 
-0.049091051296846510 
-0.033661315016422624 
-0.11617356862495569 
-0.015132646486348893 
0.027950462570690886 
-0.051486221359296556 
0.028700460513127210 
0.035993330791952695 
0.035993330791952695 
0.029755217219354060 
0.032926914468822310 
-0.068902600112462170 
0.035993330791952695 
-0.037447577669593230 
0.032926914468822310 
-0.037447577669593230 
-0.039196258816748950 
0.035324255424541394 
0.041952594118952840 
0.035324255424541394 
0.023526410515247523 
0.026811926533669090 
0.034720763803721170 
0.028700460513127210 
0.059493880166240580 
0.056322168683075755 
0.060424074001058890 
-0.048190879982596780 
0.090357888676068930 
-0.019001370501347010 
-0.044265734368420066 
0.051056954333851844 
0.023235040893514334 
-0.024499097451204745 
-0.038667684553874336 
0.051346717959088150 
0.043712909776448663 
-0.044265734368420066 
-0.038887545630314185 
-0.056234138191010050 
-0.034628675218875670 
-0.018625883643737400 
0.050277964461055100 
0.051346717959088150 
-0.063285744121934340 
-0.028587224589315340 
0.019823402151304000 
-0.059790457501960880 
-0.033896966503139010 
0.045617368074679990 
0.022412746844732264 
0.029286099666277363 
-0.062824599755666730 
-0.060626245383211120 
0.029286099666277363 
-0.038667684553874336 
0.081240538956208250 
0.10705900839942455 
0.027021339383194475 
0.11632659863809039 
-0.046655096389484510 
0.058187588661772100 
-0.033661315016422624 
-0.045587148816725140 
-0.061168239782388480 
-0.054942318081361570 
0.043712909776448663 
-0.033661315016422624 
0.048345469528316360 
-0.033661315016422624 
0.038418897467267310 
0.065360601869951280 
-0.056234138191010050 
0.025113391097504115 
0.054714325681091700 
-0.045786948865901900 
-0.026939665217229028 
-0.051252892289074590 
-0.046436113716543010 
0.027950462570690886 
-0.031420790206959176 
-0.061168239782388480 
-0.011717858585640471 
-0.061104014498507206 
-0.079790855904096800 
0.045585155568013750 
0.077942678224639210 
-0.037447577669593230 
-0.064044183204460130 
-0.039500594095796820 
0.052193658616843870 
-0.053813074523881906 
-0.051471128168453030 
0.043712909776448663 
0.040467750783469675 
-0.015132646486348893 
-0.043386040811182795 
0.085385446267205340 
0.044656820707542316 
0.029755217219354060 
0.11909258654501537 
-0.036224245601523530 
-0.068902600112462170 
0.034723655373571670 
0.027950462570690886 
0.035324255424541394 
0.058187588661772100 
0.029286099666277363 
0.029286099666277363 
-0.044265734368420066 
0.035324255424541394 
-0.063084908569050880 
0.059493880166240580 
-0.053062096371671974 
-0.018625883643737400 
-0.10469779220835880 
-0.051471128168453030 
-0.019001370501347010 
-0.089691159718681010 
-0.029219563719285323 
0.048459113746060385 
0.040642208563700044 
-0.031420790206959176 
-0.039500594095796820 
0.099061000419116090 
0.084081243238816230 
0.052680327401500825 
-0.059790457501960880 
-0.043386040811182795 
0.028700460513127210 
-0.057316429762815150 
-0.046655096389484510 
0.034483207069814100 
-0.039500594095796820 
0.034483207069814100 
0.051449394437255150 
-0.039500594095796820 
-0.065246044119479220 
-0.065246044119479220 
-0.040071003420166270 
-0.089918375409385380 
0.071483438639616930 
0.051056954333851844 
-0.039500594095796820 
-0.049091051296846510 
-0.040276745187168596 
-0.040276745187168596 
-0.040276745187168596 
0.061317562275695334 
0.090277290545334680 
0.11909258654501537 
-0.031420790206959176 
0.027950462570690886 
0.040335589430876354 
-0.031420790206959176 
0.041140285758328060 
-0.028587224589315340 
-0.015132646486348893 
0.029755217219354060 
0.059493880166240580 
0.062805668668714410 
0.074137583902928200 
0.031832484978904290 
0.025273988709919672 
-0.078054642244387000 
-0.078054642244387000 
-0.096742100493580620 
-0.018625883643737400 
-0.011717858585640471 
0.059493880166240580 
0.059493880166240580 
0.090357888676068930 
-0.040187759324724940 
0.058187588661772100 
-0.029219563719285323 
-0.044265734368420066 
0.043712909776448663 
0.040642208563700044 
-0.26916377759708010 
0.096088473334876730 
-0.067120209016770130 
-0.077669035717237490 
0.063324969732784450 
0.051056954333851844 
0.046645822291947150 
0.062805668668714410 
0.097546556612077330 
0.11227736403296460 
-0.032987784543082930 
-0.045219776489288530 
0.034483207069814100 
-0.060626245383211120 
-0.089990211958477370 
-0.26916377759708010 
-0.036224245601523530 
-0.062385625100352920 
0.022412746844732264 
-0.082622623669889430 
-0.048388971419484350 
-0.11617356862495569 
-0.033896966503139010 
-0.038127067025066320 
-0.077669035717237490 
-0.089990211958477370 
0.040642208563700044 
0.041952594118952840 
0.061178352415376380 
-0.054259819116650150 
0.071800459308616800 
-0.029337892711231420 
0.027021339383194475 
0.14858834182835157 
-0.022944737365829155 
0.027021339383194475 
0.051449394437255150 
-0.035659867251076790 
0.059493880166240580 
-0.033085397584725370 
-0.055414970235202594 
0.051056954333851844 
0.12623655887826024 
-0.033085397584725370 
-0.050154894071185200 
-0.041995244347743765 
0.027021339383194475 
0.025113391097504115 
0.090277290545334680 
-0.023704020606599756 
-0.024499097451204745 
-0.10542707534477838 
0.077942678224639210 
-0.054942318081361570 
0.034720763803721170 
0.054714325681091700 
0.035324255424541394 
0.026811926533669090 
-0.063285744121934340 
0.051346717959088150 
0.051346717959088150 
0.022412746844732264 
0.059493880166240580 
-0.040187759324724940 
-0.048190879982596780 
-0.048190879982596780 
-0.045587148816725140 
-0.045219776489288530 
0.030647849105315043 
0.026811926533669090 
0.026811926533669090 
0.034720763803721170 
-0.041995244347743765 
0.042728098906835744 
0.057763109285438730 
-0.028093954393010970 
-0.029219563719285323 
-0.035659867251076790 
0.034720763803721170 
-0.035659867251076790 
-0.10229304935145380 
-0.033661315016422624 
-0.064044183204460130 
0.060443114440764736 
-0.041995244347743765 
-0.034628675218875670 
0.026811926533669090 
-0.041995244347743765 
-0.037502952530993680 
-0.018625883643737400 
-0.033896966503139010 
0.034720763803721170 
-0.082622623669889430 
-0.086632796157719610 
-0.026939665217229028 
0.034720763803721170 
-0.089918375409385380 
0.029755217219354060 
-0.11761714143930656 
-0.053062096371671974 
0.034720763803721170 
-0.043386040811182795 
-0.064044183204460130 
-0.044799197050346850 
-0.028093954393010970 
0.052193658616843870 
-0.096742100493580620 
-0.018625883643737400 
0.036380517548888020 
-0.031420790206959176 
0.040642208563700044 
0.039581711890981860 
-0.050154894071185200 
0.096088473334876730 
-0.033085397584725370 
-0.082622623669889430 
-0.051471128168453030 
0.040642208563700044 
-0.10542707534477838 
0.10243023598260367 
0.043712909776448663 
0.048345469528316360 
-0.037502952530993680 
-0.040187759324724940 
-0.028093954393010970 
0.10969309465589515 
-0.032987784543082930 
-0.077669035717237490 
0.051449394437255150 
0.13766395384444233 
-0.039196258816748950 
-0.044265734368420066 
0.046645822291947150 
0.050277964461055100 
0.042728098906835744 
-0.019001370501347010 
-0.011717858585640471 
-0.031420790206959176 
-0.043002119042172486 
-0.011717858585640471 
0.040335589430876354 
-0.050355184123767240 
-0.026939665217229028 
-0.036224245601523530 
-0.019174879186611128 
-0.086632796157719610 
0.050277964461055100 
-0.019001370501347010 
0.026811926533669090 
0.073281737210880630 
0.10969309465589515 
0.10243023598260367 
-0.022944737365829155 
0.023235040893514334 
-0.086632796157719610 
-0.044202442259004826 
-0.089918375409385380 
0.10243023598260367 
-0.011717858585640471 
-0.044202442259004826 
-0.033085397584725370 
0.051449394437255150 
0.030647849105315043 
0.040335589430876354 
-0.038127067025066320 
-0.031420790206959176 
-0.011717858585640471 
-0.10570120352712718 
-0.054942318081361570 
-0.019174879186611128 
0.14858834182835157 
-0.054942318081361570 
0.086567712672670650 
0.022412746844732264 
0.050277964461055100 
-0.043002119042172486 
-0.049839328248315010 
-0.022944737365829155 
-0.028093954393010970 
-0.037502952530993680 
0.051056954333851844 
-0.023704020606599756 
-0.028093954393010970 
0.040335589430876354 
-0.019001370501347010 
-0.023704020606599756 
0.073281737210880630 
-0.037502952530993680 
-0.028587224589315340 
-0.064044183204460130 
-0.068367778495497560 
-0.045587148816725140 
-0.022944737365829155 
0.084081243238816230 
-0.037502952530993680 
0.084081243238816230 
0.029286099666277363 
0.058187588661772100 
0.10243023598260367 
-0.039196258816748950 
-0.020638214921206710 
0.026811926533669090 
0.051449394437255150 
0.086567712672670650 
-0.019001370501347010 
-0.040071003420166270 
-0.041960676099873520 
-0.019174879186611128 
0.022412746844732264 
-0.053062096371671974 
0.026811926533669090 
-0.036224245601523530 
0.040335589430876354 
-0.086632796157719610 
-0.019001370501347010 
-0.018625883643737400 
0.038418897467267310 
-0.018625883643737400 
-0.056234138191010050 
-0.057316429762815150 
-0.026939665217229028 
-0.019174879186611128 
-0.033661315016422624 
-0.033661315016422624 
0.13766395384444233 
0.086567712672670650 
0.086567712672670650 
0.040335589430876354 
0.13766395384444233 
-0.053062096371671974 
0.086567712672670650 
-0.053062096371671974 
0.084081243238816230 
0.034723655373571670 
0.031832484978904290 
-0.037502952530993680 
-0.091401766251792730 
0.066338159628634740 
0.035993330791952695 
-0.086632796157719610 
0.051056954333851844 
-0.023704020606599756 
0.040335589430876354 
0.038418897467267310 
-0.035659867251076790 
0.044609976240919910 
0.030647849105315043 
-0.089691159718681010 
0.056322168683075755 
-0.029219563719285323 
-0.033661315016422624 
-0.029219563719285323 
-0.049091051296846510 
0.042728098906835744 
0.090357888676068930 
0.029286099666277363 
-0.033085397584725370 
-0.043386040811182795 
-0.031420790206959176 
-0.019001370501347010 
0.042876203167085320 
-0.061746961829893880 
-0.061746961829893880 
-0.068367778495497560 
0.022412746844732264 
0.041952594118952840 
-0.046436113716543010 
-0.059790457501960880 
-0.024499097451204745 
-0.12411658440984466 
0.022412746844732264 
0.061381044771951186 
0.032926914468822310 
0.051056954333851844 
0.052193658616843870 
-0.049839328248315010 
-0.040187759324724940 
-0.055414970235202594 
0.058597407513523600 
0.035324255424541394 
0.085385446267205340 
0.059493880166240580 
-0.050154894071185200 
0.032926914468822310 
-0.044799197050346850 
0.040467750783469675 
-0.045786948865901900 
-0.019001370501347010 
0.026811926533669090 
-0.044265734368420066 
0.035324255424541394 
0.083764544371416740 
-0.028587224589315340 
0.071483438639616930 
0.052193658616843870 
-0.011717858585640471 
-0.037447577669593230 
-0.028587224589315340 
0.055582498866009696 
-0.038667684553874336 
-0.032987784543082930 
-0.033085397584725370 
0.15913809830351427 
0.081924187229653580 
-0.019174879186611128 
0.035993330791952695 
-0.011717858585640471 
-0.037502952530993680 
-0.038887545630314185 
0.056322168683075755 
-0.022944737365829155 
0.060424074001058890 
-0.034628675218875670 
-0.055414970235202594 
0.057758758777746300 
0.034723655373571670 
-0.029219563719285323 
-0.026939665217229028 
-0.019174879186611128 
0.035324255424541394 
0.040335589430876354 
0.022412746844732264 
-0.054942318081361570 
0.10872110951572111 
-0.019174879186611128 
0.056322168683075755 
-0.023704020606599756 
-0.045587148816725140 
0.045585155568013750 
-0.045786948865901900 
0.10601279080276402 
-0.033896966503139010 
-0.029606015217097967 
0.056322168683075755 
0.051056954333851844 
-0.037447577669593230 
-0.011717858585640471 
-0.12802586129373078 
-0.019174879186611128 
-0.019174879186611128 
-0.011717858585640471 
0.090357888676068930 
-0.029219563719285323 
0.062805668668714410 
-0.046655096389484510 
0.081924187229653580 
0.030647849105315043 
-0.033085397584725370 
0.042876203167085320 
-0.034628675218875670 
-0.063084908569050880 
-0.051252892289074590 
-0.032987784543082930 
0.11909258654501537 
0.022412746844732264 
0.022412746844732264 
0.032926914468822310 
0.022412746844732264 
0.054714325681091700 
-0.057503262421439130 
-0.089918375409385380 
-0.10229304935145380 
0.060424074001058890 
-0.039196258816748950 
0.022412746844732264 
0.056244951762137530 
0.10872110951572111 
-0.019174879186611128 
-0.038887545630314185 
0.026811926533669090 
-0.096742100493580620 
0.035993330791952695 
0.045585155568013750 
0.022412746844732264 
-0.019174879186611128 
0.052193658616843870 
-0.043971743081889780 
0.040642208563700044 
0.019823402151304000 
0.056244951762137530 
0.038418897467267310 
-0.061168239782388480 
0.039007318111790630 
0.034720763803721170 
0.040335589430876354 
-0.038887545630314185 
-0.028587224589315340 
-0.028093954393010970 
-0.041960676099873520 
-0.035659867251076790 
0.032926914468822310 
0.041952594118952840 
-0.037447577669593230 
-0.086632796157719610 
-0.033896966503139010 
0.052680327401500825 
0.074137583902928200 
-0.034628675218875670 
0.029286099666277363 
-0.034628675218875670 
-0.082622623669889430 
0.027021339383194475 
0.066338159628634740 
0.076410611174403370 
-0.068367778495497560 
0.054714325681091700 
-0.043386040811182795 
0.034483207069814100 
0.031832484978904290 
-0.096742100493580620 
0.025273988709919672 
0.036380517548888020 
0.019823402151304000 
0.034723655373571670 
0.027950462570690886 
0.034720763803721170 
-0.050355184123767240 
0.039581711890981860 
0.038418897467267310 
0.035993330791952695 
-0.051471128168453030 
0.056322168683075755 
0.034723655373571670 
0.11661612379673080 
-0.037447577669593230 
-0.041995244347743765 
0.059256444229109216 
0.11661612379673080 
0.055582498866009696 
-0.029219563719285323 
-0.019001370501347010 
0.036380517548888020 
-0.035659867251076790 
-0.051486221359296556 
-0.037447577669593230 
-0.067120209016770130 
0.048345469528316360 
0.039581711890981860 
0.027021339383194475 
-0.054942679514997386 
-0.029606015217097967 
0.052193658616843870 
-0.033085397584725370 
0.019823402151304000 
0.025273988709919672 
0.10601279080276402 
-0.028093954393010970 
-0.029337892711231420 
0.034483207069814100 
0.034720763803721170 
0.050818831314576830 
-0.082622623669889430 
0.022412746844732264 
0.052193658616843870 
0.084081243238816230 
-0.038887545630314185 
-0.033896966503139010 
-0.10570120352712718 
0.083764544371416740 
-0.029337892711231420 
-0.049091051296846510 
-0.046436113716543010 
-0.040276745187168596 
0.046143156625244130 
-0.011717858585640471 
-0.051252892289074590 
-0.029219563719285323 
0.034720763803721170 
-0.040187759324724940 
-0.045786948865901900 
-0.046436113716543010 
0.044656820707542316 
-0.011717858585640471 
0.040642208563700044 
0.043712909776448663 
-0.028093954393010970 
0.040467750783469675 
-0.076358212285196970 
-0.011717858585640471 
-0.044799197050346850 
0.096088473334876730 
-0.011717858585640471 
0.071800459308616800 
-0.018625883643737400 
-0.015132646486348893 
0.019823402151304000 
0.026811926533669090 
-0.040276745187168596 
-0.096742100493580620 
0.044656820707542316 
0.058597407513523600 
0.031832484978904290 
0.048459113746060385 
0.041952594118952840 
-0.053813074523881906 
-0.039196258816748950 
0.073281737210880630 
0.034720763803721170 
0.027021339383194475 
-0.015132646486348893 
-0.12131460853296745 
-0.044799197050346850 
0.030647849105315043 
0.10243023598260367 
0.022412746844732264 
-0.015132646486348893 
-0.059790457501960880 
0.019823402151304000 
0.030647849105315043 
0.056322168683075755 
0.10872110951572111 
-0.011717858585640471 
0.044656820707542316 
-0.031420790206959176 
0.051449394437255150 
-0.022944737365829155 
-0.056234138191010050 
-0.073175839687503210 
0.048345469528316360 
0.040642208563700044 
0.051346717959088150 
-0.026939665217229028 
-0.051471128168453030 
0.090357888676068930 
-0.011717858585640471 
0.081240538956208250 
0.083764544371416740 
-0.057316429762815150 
-0.057316429762815150 
-0.061168239782388480 
-0.054259819116650150 
-0.038127067025066320 
0.11909258654501537 
-0.040187759324724940 
-0.041960676099873520 
0.042876203167085320 
0.054714325681091700 
0.060424074001058890 
0.060424074001058890 
-0.040276745187168596 
-0.16241983283381228 
-0.063285744121934340 
0.081924187229653580 
-0.044799197050346850 
0.060424074001058890 
0.060424074001058890 
0.060424074001058890 
-0.039196258816748950 
-0.078872566232817840 
0.051346717959088150 
0.042876203167085320 
0.025113391097504115 
-0.086632796157719610 
-0.034628675218875670 
-0.043002119042172486 
0.068996122873285560 
0.027950462570690886 
-0.045587148816725140 
-0.055414970235202594 
0.040467750783469675 
-0.039500594095796820 
-0.059790457501960880 
-0.036224245601523530 
0.042876203167085320 
-0.044265734368420066 
0.055582498866009696 
0.032926914468822310 
0.057763109285438730 
-0.091401766251792730 
0.046645822291947150 
-0.029606015217097967 
-0.044202442259004826 
-0.031420790206959176 
-0.10229304935145380 
-0.051252892289074590 
-0.043386040811182795 
0.071483438639616930 
-0.049839328248315010 
0.039007318111790630 
0.052266930622091030 
0.026811926533669090 
-0.044265734368420066 
0.050277964461055100 
-0.019174879186611128 
0.035993330791952695 
0.039581711890981860 
0.096088473334876730 
-0.034628675218875670 
-0.015132646486348893 
-0.026939665217229028 
0.071483438639616930 
-0.039500594095796820 
0.030647849105315043 
-0.026939665217229028 
0.056244951762137530 
0.093967007496472980 
0.036380517548888020 
0.043712909776448663 
0.071483438639616930 
-0.028587224589315340 
-0.045686036293443960 
0.026811926533669090 
0.019823402151304000 
-0.037447577669593230 
-0.026939665217229028 
0.060443114440764736 
-0.060626245383211120 
-0.037447577669593230 
0.031832484978904290 
0.029755217219354060 
-0.022944737365829155 
-0.040071003420166270 
0.081577963417105830 
-0.043386040811182795 
-0.031420790206959176 
0.036380517548888020 
-0.015132646486348893 
-0.015132646486348893 
-0.019174879186611128 
0.10872110951572111 
0.022412746844732264 
0.027950462570690886 
0.059493880166240580 
-0.067120209016770130 
-0.039500594095796820 
-0.051252892289074590 
-0.049839328248315010 
0.027021339383194475 
-0.043971743081889780 
0.034483207069814100 
0.034723655373571670 
-0.045786948865901900 
0.056322168683075755 
-0.051471128168453030 
-0.045786948865901900 
-0.051471128168453030 
0.094413119306115890 
-0.029606015217097967 
-0.055414970235202594 
-0.055414970235202594 
0.056244951762137530 
0.038418897467267310 
0.045617368074679990 
0.057758758777746300 
0.029755217219354060 
-0.044202442259004826 
-0.078872566232817840 
-0.029219563719285323 
0.058187588661772100 
0.065360601869951280 
0.11909258654501537 
0.026811926533669090 
-0.039500594095796820 
-0.044265734368420066 
-0.019174879186611128 
-0.033085397584725370 
-0.061168239782388480 
0.034483207069814100 
0.029286099666277363 
0.076410611174403370 
-0.053062096371671974 
0.090277290545334680 
0.097069261693680370 
0.055582498866009696 
-0.015132646486348893 
-0.018625883643737400 
-0.040187759324724940 
0.029755217219354060 
0.071800459308616800 
-0.050154894071185200 
-0.073175839687503210 
-0.040071003420166270 
0.056322168683075755 
-0.046655096389484510 
-0.046655096389484510 
-0.046655096389484510 
-0.046655096389484510 
0.025273988709919672 
-0.039500594095796820 
0.097546556612077330 
-0.051486221359296556 
0.068996122873285560 
0.085385446267205340 
0.063324969732784450 
0.034723655373571670 
0.057758758777746300 
-0.044265734368420066 
0.057758758777746300 
-0.049091051296846510 
0.057758758777746300 
0.039007318111790630 
0.059256444229109216 
-0.029606015217097967 
-0.089691159718681010 
0.081577963417105830 
0.055289917488815565 
0.085385446267205340 
0.025273988709919672 
-0.051252892289074590 
0.019823402151304000 
0.038418897467267310 
0.099061000419116090 
0.052266930622091030 
0.040642208563700044 
-0.11617356862495569 
0.10243023598260367 
-0.091401766251792730 
0.043712909776448663 
0.057758758777746300 
-0.026939665217229028 
0.052266930622091030 
0.11227736403296460 
-0.063285744121934340 
0.034723655373571670 
0.025273988709919672 
-0.053813074523881906 
-0.034628675218875670 
0.062805668668714410 
-0.040276745187168596 
0.058187588661772100 
0.035324255424541394 
0.027021339383194475 
-0.041960676099873520 
-0.040071003420166270 
-0.040071003420166270 
0.062805668668714410 
-0.078054642244387000 
-0.011717858585640471 
-0.078054642244387000 
0.058187588661772100 
-0.035659867251076790 
-0.022944737365829155 
0.060443114440764736 
0.071483438639616930 
-0.033896966503139010 
0.058187588661772100 
0.093967007496472980 
-0.044265734368420066 
0.040335589430876354 
0.055289917488815565 
0.040335589430876354 
0.040335589430876354 
-0.045587148816725140 
0.038418897467267310 
-0.044265734368420066 
0.040335589430876354 
0.051449394437255150 
0.040335589430876354 
0.040335589430876354 
0.051449394437255150 
0.051056954333851844 
0.026811926533669090 
-0.029606015217097967 
0.061381044771951186 
0.025273988709919672 
-0.034628675218875670 
0.050277964461055100 
-0.089990211958477370 
0.057763109285438730 
-0.057503262421439130 
0.042876203167085320 
-0.040276745187168596 
-0.055414970235202594 
0.027950462570690886 
0.034483207069814100 
0.046143156625244130 
-0.040187759324724940 
-0.041960676099873520 
0.048345469528316360 
-0.062385625100352920 
-0.045219776489288530 
-0.045786948865901900 
0.052266930622091030 
-0.033661315016422624 
-0.029337892711231420 
0.046645822291947150 
0.022412746844732264 
0.046645822291947150 
0.10416950486321465 
-0.011717858585640471 
0.066338159628634740 
0.022412746844732264 
0.022412746844732264 
-0.032987784543082930 
0.094413119306115890 
-0.032987784543082930 
-0.033661315016422624 
0.028700460513127210 
-0.10949198400440659 
-0.031420790206959176 
0.058597407513523600 
0.035324255424541394 
0.046645822291947150 
0.040467750783469675 
0.041952594118952840 
0.12623655887826024 
0.042876203167085320 
-0.077669035717237490 
0.042876203167085320 
-0.026939665217229028 
0.061178352415376380 
0.030647849105315043 
0.044656820707542316 
0.094413119306115890 
0.031832484978904290 
-0.019001370501347010 
-0.019001370501347010 
-0.033085397584725370 
-0.019001370501347010 
-0.040187759324724940 
0.032926914468822310 
0.032926914468822310 
0.040467750783469675 
-0.040187759324724940 
-0.033085397584725370 
-0.033085397584725370 
0.032926914468822310 
-0.019001370501347010 
-0.019001370501347010 
-0.040187759324724940 
0.040467750783469675 
-0.019001370501347010 
-0.040187759324724940 
-0.019001370501347010 
0.035324255424541394 
-0.022944737365829155 
0.042876203167085320 
0.061178352415376380 
0.045617368074679990 
-0.045587148816725140 
0.045617368074679990 
-0.024499097451204745 
0.062805668668714410 
0.050277964461055100 
-0.051486221359296556 
0.028700460513127210 
0.034483207069814100 
0.090277290545334680 
-0.065246044119479220 
0.035993330791952695 
0.040642208563700044 
0.025113391097504115 
0.035993330791952695 
-0.044799197050346850 
-0.14339774103373530 
0.035993330791952695 
0.035993330791952695 
-0.044799197050346850 
-0.089990211958477370 
-0.068902600112462170 
-0.045587148816725140 
0.027950462570690886 
0.039007318111790630 
0.056244951762137530 
-0.022944737365829155 
0.093967007496472980 
0.044609976240919910 
-0.050355184123767240 
0.029755217219354060 
0.029755217219354060 
0.044609976240919910 
-0.023704020606599756 
0.040642208563700044 
0.041952594118952840 
0.034720763803721170 
0.042728098906835744 
0.041952594118952840 
-0.019001370501347010 
-0.046655096389484510 
0.044656820707542316 
-0.029219563719285323 
0.025113391097504115 
0.048345469528316360 
-0.089918375409385380 
0.090357888676068930 
0.025273988709919672 
0.029755217219354060 
0.052680327401500825 
-0.045219776489288530 
0.034723655373571670 
0.029755217219354060 
-0.051486221359296556 
0.043712909776448663 
0.055289917488815565 
0.061317562275695334 
0.068996122873285560 
-0.043002119042172486 
0.041952594118952840 
-0.040276745187168596 
0.025273988709919672 
0.085385446267205340 
0.071483438639616930 
0.042728098906835744 
-0.033896966503139010 
0.085385446267205340 
0.022412746844732264 
-0.061168239782388480 
0.025273988709919672 
0.042728098906835744 
0.052193658616843870 
-0.077669035717237490 
-0.11761714143930656 
0.10969309465589515 
-0.045219776489288530 
-0.12411658440984466 
0.042728098906835744 
-0.053062096371671974 
-0.028587224589315340 
0.039007318111790630 
0.054714325681091700 
-0.028587224589315340 
-0.028587224589315340 
-0.028587224589315340 
-0.037502952530993680 
-0.029606015217097967 
-0.029606015217097967 
0.019823402151304000 
0.050818831314576830 
0.042728098906835744 
0.026811926533669090 
-0.079790855904096800 
-0.026939665217229028 
-0.033661315016422624 
-0.028587224589315340 
0.056244951762137530 
0.030647849105315043 
-0.046436113716543010 
0.062805668668714410 
-0.019174879186611128 
-0.022944737365829155 
0.066338159628634740 
-0.050154894071185200 
0.055289917488815565 
-0.050154894071185200 
-0.032987784543082930 
0.062805668668714410 
0.057758758777746300 
0.062805668668714410 
-0.050154894071185200 
-0.053813074523881906 
-0.076358212285196970 
-0.10229304935145380 
-0.038127067025066320 
-0.045587148816725140 
0.052193658616843870 
0.027021339383194475 
-0.061168239782388480 
0.045617368074679990 
-0.057316429762815150 
-0.062385625100352920 
0.043712909776448663 
-0.067120209016770130 
-0.015132646486348893 
0.035324255424541394 
0.056322168683075755 
0.035324255424541394 
0.094413119306115890 
-0.043002119042172486 
0.055289917488815565 
-0.046655096389484510 
0.074137583902928200 
0.034720763803721170 
0.019823402151304000 
-0.037447577669593230 
0.052680327401500825 
0.023235040893514334 
0.019823402151304000 
-0.023704020606599756 
-0.061168239782388480 
0.063324969732784450 
-0.035659867251076790 
-0.049091051296846510 
-0.018625883643737400 
0.034723655373571670 
0.044609976240919910 
0.029286099666277363 
0.027021339383194475 
0.076410611174403370 
-0.053813074523881906 
0.045617368074679990 
0.073281737210880630 
0.056322168683075755 
-0.037447577669593230 
-0.076358212285196970 
-0.044799197050346850 
-0.051471128168453030 
-0.028587224589315340 
0.031832484978904290 
-0.023704020606599756 
-0.023704020606599756 
-0.041995244347743765 
-0.035659867251076790 
0.031832484978904290 
-0.038667684553874336 
-0.029219563719285323 
-0.043386040811182795 
0.040467750783469675 
-0.026939665217229028 
-0.033661315016422624 
-0.086632796157719610 
0.081240538956208250 
-0.040187759324724940 
-0.032987784543082930 
-0.015132646486348893 
-0.022944737365829155 
0.027950462570690886 
0.027950462570690886 
0.025113391097504115 
0.025113391097504115 
0.027950462570690886 
0.040335589430876354 
0.061178352415376380 
-0.033661315016422624 
0.063324969732784450 
-0.063084908569050880 
0.090277290545334680 
-0.044799197050346850 
0.040642208563700044 
-0.043971743081889780 
0.040642208563700044 
-0.078872566232817840 
0.052266930622091030 
-0.029219563719285323 
-0.043971743081889780 
-0.036224245601523530 
0.057763109285438730 
0.10243023598260367 
0.041952594118952840 
-0.037447577669593230 
0.026811926533669090 
-0.049091051296846510 
0.046143156625244130 
-0.049091051296846510 
-0.045587148816725140 
-0.055414970235202594 
0.022412746844732264 
0.074137583902928200 
0.14858834182835157 
0.085385446267205340 
-0.044265734368420066 
-0.045219776489288530 
0.025273988709919672 
0.025273988709919672 
0.025273988709919672 
-0.078872566232817840 
0.11909258654501537 
-0.10229304935145380 
0.052193658616843870 
-0.019001370501347010 
0.14858834182835157 
0.051346717959088150 
0.025113391097504115 
0.025113391097504115 
0.046143156625244130 
-0.044265734368420066 
0.040467750783469675 
-0.011717858585640471 
-0.12131460853296745 
0.059493880166240580 
0.051056954333851844 
0.040642208563700044 
0.042728098906835744 
0.046143156625244130 
-0.039500594095796820 
-0.028093954393010970 
0.048459113746060385 
-0.16241983283381228 
0.034483207069814100 
0.034483207069814100 
0.034483207069814100 
0.086567712672670650 
-0.023704020606599756 
-0.023704020606599756 
0.051346717959088150 
-0.068902600112462170 
-0.078872566232817840 
0.066338159628634740 
-0.053813074523881906 
-0.040276745187168596 
-0.033661315016422624 
0.085385446267205340 
-0.043386040811182795 
0.11909258654501537 
0.085385446267205340 
0.085385446267205340 
0.019823402151304000 
-0.062824599755666730 
0.019823402151304000 
-0.032987784543082930 
-0.026939665217229028 
-0.015132646486348893 
0.052266930622091030 
0.099061000419116090 
-0.018625883643737400 
-0.018625883643737400 
-0.018625883643737400 
0.046645822291947150 
-0.018625883643737400 
0.044609976240919910 
0.044609976240919910 
0.044609976240919910 
-0.015132646486348893 
0.090277290545334680 
-0.053813074523881906 
-0.053813074523881906 
0.094413119306115890 
-0.043002119042172486 
-0.043002119042172486 
-0.043002119042172486 
-0.018625883643737400 
-0.043002119042172486 
-0.018625883643737400 
-0.043002119042172486 
-0.043002119042172486 
-0.043002119042172486 
-0.043002119042172486 
-0.043002119042172486 
-0.043002119042172486 
-0.043002119042172486 
0.074137583902928200 
0.023235040893514334 
0.023235040893514334 
0.023235040893514334 
-0.023704020606599756 
0.023235040893514334 
0.023235040893514334 
0.023235040893514334 
0.046282379286694480 
0.023235040893514334 
-0.061746961829893880 
0.023235040893514334 
0.023235040893514334 
0.036380517548888020 
0.019823402151304000 
0.023235040893514334 
0.036380517548888020 
-0.023704020606599756 
0.023235040893514334 
-0.029219563719285323 
0.023235040893514334 
0.023235040893514334 
0.046282379286694480 
-0.023704020606599756 
-0.056234138191010050 
-0.029219563719285323 
0.023235040893514334 
0.023235040893514334 
0.023235040893514334 
0.023235040893514334 
-0.048388971419484350 
-0.023704020606599756 
-0.023704020606599756 
-0.041995244347743765 
0.019823402151304000 
-0.049839328248315010 
0.023235040893514334 
-0.040071003420166270 
-0.040071003420166270 
-0.061746961829893880 
-0.040071003420166270 
-0.029219563719285323 
-0.023704020606599756 
0.023235040893514334 
-0.048388971419484350 
-0.041995244347743765 
-0.023704020606599756 
-0.061746961829893880 
-0.036224245601523530 
0.023235040893514334 
-0.061746961829893880 
0.023235040893514334 
0.023235040893514334 
0.057763109285438730 
-0.023704020606599756 
-0.061746961829893880 
0.023235040893514334 
-0.038127067025066320 
0.023235040893514334 
-0.023704020606599756 
0.023235040893514334 
-0.10469779220835880 
-0.043386040811182795 
-0.044265734368420066 
-0.029219563719285323 
-0.029219563719285323 
0.034720763803721170 
-0.056234138191010050 
0.038418897467267310 
-0.029219563719285323 
-0.033085397584725370 
0.031832484978904290 
-0.019001370501347010 
-0.050355184123767240 
-0.040187759324724940 
-0.019174879186611128 
-0.031420790206959176 
-0.14138785827914271 
0.038418897467267310 
0.039007318111790630 
0.074137583902928200 
0.10969309465589515 
0.073281737210880630 
0.031832484978904290 
-0.060626245383211120 
0.027021339383194475 
-0.044799197050346850 
-0.068902600112462170 
-0.039500594095796820 
-0.057316429762815150 
0.025113391097504115 
-0.046655096389484510 
0.051346717959088150 
-0.039500594095796820 
-0.018625883643737400 
0.085385446267205340 
-0.053062096371671974 
0.084311059957579560 
0.081924187229653580 
0.056244951762137530 
-0.078872566232817840 
-0.063084908569050880 
-0.015132646486348893 
0.031832484978904290 
0.025273988709919672 
0.025273988709919672 
-0.033661315016422624 
0.027950462570690886 
0.034723655373571670 
0.035324255424541394 
0.081577963417105830 
-0.045587148816725140 
-0.14138785827914271 
0.043712909776448663 
-0.033661315016422624 
-0.036224245601523530 
-0.045786948865901900 
-0.022944737365829155 
-0.091401766251792730 
-0.048190879982596780 
-0.039196258816748950 
0.057763109285438730 
-0.038887545630314185 
-0.043386040811182795 
-0.076358212285196970 
0.019823402151304000 
-0.019174879186611128 
0.046645822291947150 
0.11909258654501537 
0.025113391097504115 
0.062805668668714410 
-0.053062096371671974 
-0.033085397584725370 
-0.045786948865901900 
-0.029219563719285323 
0.027950462570690886 
0.034483207069814100 
-0.054942679514997386 
0.057763109285438730 
0.031832484978904290 
0.027021339383194475 
-0.077669035717237490 
0.056322168683075755 
-0.10542707534477838 
-0.10542707534477838 
-0.034628675218875670 
0.025273988709919672 
-0.015132646486348893 
-0.028587224589315340 
0.029286099666277363 
-0.044799197050346850 
0.034720763803721170 
0.025273988709919672 
0.029286099666277363 
0.076410611174403370 
0.061317562275695334 
0.029286099666277363 
-0.089918375409385380 
0.071800459308616800 
0.061178352415376380 
0.029286099666277363 
-0.023704020606599756 
-0.040071003420166270 
-0.031420790206959176 
-0.040187759324724940 
0.027021339383194475 
0.042876203167085320 
-0.024499097451204745 
0.11909258654501537 
-0.044265734368420066 
0.022412746844732264 
0.040642208563700044 
-0.037440435443318744 
-0.022944737365829155 
-0.048388971419484350 
-0.044202442259004826 
0.044656820707542316 
-0.076358212285196970 
-0.040187759324724940 
0.055582498866009696 
0.025273988709919672 
-0.028587224589315340 
-0.034628675218875670 
0.029286099666277363 
0.11632659863809039 
-0.018625883643737400 
0.050818831314576830 
0.076410611174403370 
0.050818831314576830 
-0.063084908569050880 
-0.035659867251076790 
0.029286099666277363 
0.025113391097504115 
0.051346717959088150 
0.029286099666277363 
0.028700460513127210 
-0.076358212285196970 
-0.018625883643737400 
0.025273988709919672 
0.025113391097504115 
-0.022944737365829155 
-0.034628675218875670 
-0.019001370501347010 
-0.018625883643737400 
-0.055414970235202594 
0.029286099666277363 
-0.068367778495497560 
-0.018625883643737400 
0.029755217219354060 
-0.068367778495497560 
0.059256444229109216 
0.084311059957579560 
0.052193658616843870 
0.073281737210880630 
0.081240538956208250 
-0.065246044119479220 
0.027021339383194475 
0.025273988709919672 
0.027021339383194475 
0.029286099666277363 
0.051449394437255150 
-0.040187759324724940 
-0.038667684553874336 
-0.039196258816748950 
-0.028587224589315340 
0.085385446267205340 
-0.011717858585640471 
-0.023704020606599756 
-0.019001370501347010 
-0.078872566232817840 
-0.018625883643737400 
-0.040187759324724940 
0.040642208563700044 
0.040642208563700044 
0.040642208563700044 
0.040642208563700044 
0.040642208563700044 
-0.044799197050346850 
0.040642208563700044 
-0.12411658440984466 
0.040642208563700044 
0.040642208563700044 
0.027021339383194475 
-0.053813074523881906 
-0.011717858585640471 
-0.015132646486348893 
-0.015132646486348893 
-0.046655096389484510 
0.040642208563700044 
-0.040276745187168596 
0.034483207069814100 
-0.091401766251792730 
-0.033085397584725370 
-0.054942679514997386 
-0.038887545630314185 
-0.029219563719285323 
-0.11761714143930656 
0.052680327401500825 
-0.015132646486348893 
-0.011717858585640471 
0.11227736403296460 
0.046143156625244130 
-0.043002119042172486 
0.051449394437255150 
0.066338159628634740 
0.019823402151304000 
-0.11761714143930656 
0.040335589430876354 
-0.041995244347743765 
0.045585155568013750 
-0.059790457501960880 
-0.050154894071185200 
0.066338159628634740 
0.027021339383194475 
0.027021339383194475 
-0.11761714143930656 
-0.049091051296846510 
-0.10469779220835880 
-0.044202442259004826 
-0.026939665217229028 
0.057758758777746300 
-0.076358212285196970 
-0.037447577669593230 
-0.039500594095796820 
-0.045219776489288530 
0.057763109285438730 
-0.043971743081889780 
-0.019001370501347010 
0.027021339383194475 
-0.029219563719285323 
0.058187588661772100 
0.052266930622091030 
0.066338159628634740 
-0.091401766251792730 
0.031832484978904290 
0.027021339383194475 
-0.028587224589315340 
-0.031420790206959176 
0.039007318111790630 
-0.14138785827914271 
-0.059790457501960880 
0.040467750783469675 
-0.037502952530993680 
0.059493880166240580 
0.085385446267205340 
-0.045219776489288530 
-0.077669035717237490 
-0.050355184123767240 
0.081924187229653580 
0.084311059957579560 
-0.019001370501347010 
0.096088473334876730 
-0.044799197050346850 
0.063324969732784450 
0.055582498866009696 
0.040642208563700044 
-0.028093954393010970 
0.044656820707542316 
-0.089918375409385380 
0.042728098906835744 
-0.044799197050346850 
0.048459113746060385 
0.065360601869951280 
0.026811926533669090 
-0.044265734368420066 
-0.040276745187168596 
0.13766395384444233 
0.066338159628634740 
-0.050355184123767240 
0.030647849105315043 
-0.023704020606599756 
-0.029219563719285323 
0.052193658616843870 
-0.029606015217097967 
-0.043002119042172486 
0.096088473334876730 
0.044609976240919910 
0.099061000419116090 
-0.043002119042172486 
0.090357888676068930 
0.027950462570690886 
-0.019174879186611128 
-0.040276745187168596 
0.022412746844732264 
0.10969309465589515 
-0.054259819116650150 
-0.039500594095796820 
-0.019001370501347010 
-0.022944737365829155 
-0.054942318081361570 
-0.065246044119479220 
0.040642208563700044 
-0.033896966503139010 
0.022412746844732264 
0.019823402151304000 
0.055582498866009696 
-0.039196258816748950 
-0.051471128168453030 
-0.035659867251076790 
0.14858834182835157 
0.035993330791952695 
-0.015132646486348893 
-0.059790457501960880 
0.050818831314576830 
-0.015132646486348893 
0.14739812805832910 
0.026811926533669090 
0.063324969732784450 
0.026811926533669090 
0.026811926533669090 
-0.038887545630314185 
0.039581711890981860 
0.059493880166240580 
0.034723655373571670 
-0.011717858585640471 
0.056244951762137530 
0.090277290545334680 
-0.028587224589315340 
0.058597407513523600 
0.048459113746060385 
-0.051471128168453030 
0.022412746844732264 
-0.023704020606599756 
-0.011717858585640471 
0.025273988709919672 
-0.015132646486348893 
0.036380517548888020 
0.066338159628634740 
0.061317562275695334 
0.042728098906835744 
-0.011717858585640471 
0.036380517548888020 
0.059256444229109216 
-0.048190879982596780 
-0.018625883643737400 
0.048345469528316360 
-0.065246044119479220 
-0.026939665217229028 
0.061317562275695334 
-0.048388971419484350 
0.050818831314576830 
-0.059790457501960880 
0.023235040893514334 
-0.12802586129373078 
-0.019174879186611128 
0.059256444229109216 
0.026811926533669090 
0.029755217219354060 
0.090277290545334680 
-0.019174879186611128 
0.025113391097504115 
-0.023704020606599756 
-0.068902600112462170 
0.026811926533669090 
0.084081243238816230 
-0.029337892711231420 
-0.064044183204460130 
-0.019174879186611128 
-0.068367778495497560 
0.050277964461055100 
0.027950462570690886 
0.11227736403296460 
0.032926914468822310 
0.040335589430876354 
-0.018625883643737400 
0.055289917488815565 
0.097546556612077330 
0.061317562275695334 
0.044656820707542316 
-0.018625883643737400 
0.040467750783469675 
0.044656820707542316 
0.035993330791952695 
0.076410611174403370 
-0.12802586129373078 
-0.10949198400440659 
0.022412746844732264 
0.025273988709919672 
0.041140285758328060 
0.034723655373571670 
0.041140285758328060 
-0.064044183204460130 
0.029755217219354060 
-0.019174879186611128 
0.045585155568013750 
0.026811926533669090 
0.045585155568013750 
-0.051252892289074590 
0.058597407513523600 
0.040467750783469675 
0.048345469528316360 
0.056244951762137530 
0.040335589430876354 
-0.041960676099873520 
0.092752958680697950 
-0.018625883643737400 
0.055582498866009696 
-0.054942679514997386 
-0.011717858585640471 
0.030647849105315043 
0.027021339383194475 
0.034483207069814100 
-0.062385625100352920 
0.045617368074679990 
0.046143156625244130 
0.050277964461055100 
-0.078872566232817840 
0.028700460513127210 
-0.076358212285196970 
-0.040187759324724940 
-0.033661315016422624 
0.022412746844732264 
0.034483207069814100 
-0.044799197050346850 
0.084311059957579560 
0.025113391097504115 
0.027021339383194475 
-0.043386040811182795 
-0.039196258816748950 
-0.062385625100352920 
0.027950462570690886 
-0.035659867251076790 
0.029755217219354060 
0.041952594118952840 
0.019823402151304000 
-0.032987784543082930 
-0.029606015217097967 
0.041140285758328060 
0.081924187229653580 
0.025113391097504115 
0.059256444229109216 
0.045585155568013750 
0.059256444229109216 
0.041140285758328060 
-0.076358212285196970 
0.035993330791952695 
-0.045786948865901900 
-0.061746961829893880 
-0.037502952530993680 
0.045617368074679990 
-0.043002119042172486 
0.027021339383194475 
-0.055414970235202594 
0.090277290545334680 
-0.062385625100352920 
0.10243023598260367 
-0.015132646486348893 
0.097069261693680370 
-0.062385625100352920 
0.052680327401500825 
-0.068902600112462170 
-0.063285744121934340 
0.11661612379673080 
-0.033896966503139010 
0.019823402151304000 
0.034723655373571670 
0.059493880166240580 
0.023235040893514334 
-0.015132646486348893 
0.059256444229109216 
-0.040276745187168596 
0.057763109285438730 
-0.015132646486348893 
-0.036224245601523530 
-0.015132646486348893 
0.055582498866009696 
0.045617368074679990 
0.051056954333851844 
0.040335589430876354 
-0.068902600112462170 
-0.018625883643737400 
-0.041960676099873520 
0.026811926533669090 
0.023235040893514334 
-0.065246044119479220 
0.040642208563700044 
-0.049839328248315010 
0.061317562275695334 
0.022412746844732264 
0.028700460513127210 
0.055582498866009696 
0.022412746844732264 
-0.032987784543082930 
-0.054942679514997386 
0.041140285758328060 
0.059256444229109216 
0.050277964461055100 
-0.078054642244387000 
0.025273988709919672 
-0.044265734368420066 
-0.040071003420166270 
-0.068902600112462170 
-0.029337892711231420 
0.11661612379673080 
-0.029606015217097967 
0.061381044771951186 
0.044656820707542316 
-0.026939665217229028 
0.074137583902928200 
0.030647849105315043 
-0.028093954393010970 
0.063324969732784450 
-0.046436113716543010 
0.054714325681091700 
-0.045219776489288530 
0.034723655373571670 
0.068996122873285560 
-0.048190879982596780 
-0.044202442259004826 
-0.045587148816725140 
-0.018625883643737400 
0.068996122873285560 
0.057165918422123194 
-0.038127067025066320 
-0.038667684553874336 
0.046645822291947150 
0.050277964461055100 
-0.019001370501347010 
0.051056954333851844 
0.084311059957579560 
-0.041960676099873520 
0.043712909776448663 
0.11227736403296460 
-0.039500594095796820 
0.035993330791952695 
0.030647849105315043 
-0.082622623669889430 
0.090357888676068930 
0.061317562275695334 
-0.055414970235202594 
-0.015132646486348893 
0.025113391097504115 
-0.019174879186611128 
-0.031420790206959176 
-0.022944737365829155 
-0.029337892711231420 
0.030647849105315043 
-0.053062096371671974 
0.030647849105315043 
-0.039196258816748950 
0.097546556612077330 
-0.061168239782388480 
-0.060626245383211120 
0.084081243238816230 
0.044656820707542316 
0.065360601869951280 
-0.022944737365829155 
-0.032987784543082930 
0.054714325681091700 
0.029755217219354060 
0.027950462570690886 
0.028700460513127210 
-0.062385625100352920 
-0.060626245383211120 
0.092752958680697950 
-0.032987784543082930 
0.028700460513127210 
0.15913809830351427 
0.055582498866009696 
0.025113391097504115 
0.051449394437255150 
0.041140285758328060 
0.034720763803721170 
-0.031420790206959176 
0.041140285758328060 
0.052680327401500825 
-0.059790457501960880 
0.066338159628634740 
0.052680327401500825 
-0.048388971419484350 
-0.060626245383211120 
-0.018625883643737400 
0.030647849105315043 
-0.053813074523881906 
0.10601279080276402 
0.019823402151304000 
-0.054942679514997386 
-0.060626245383211120 
0.060424074001058890 
0.071483438639616930 
0.040467750783469675 
-0.051252892289074590 
0.025113391097504115 
-0.10949198400440659 
-0.018625883643737400 
-0.073175839687503210 
-0.045587148816725140 
-0.10949198400440659 
0.041140285758328060 
0.065360601869951280 
0.026811926533669090 
0.081577963417105830 
-0.059790457501960880 
0.029755217219354060 
0.022412746844732264 
-0.048388971419484350 
0.10969309465589515 
0.060424074001058890 
0.043712909776448663 
-0.029337892711231420 
-0.029337892711231420 
-0.048388971419484350 
0.039007318111790630 
0.045585155568013750 
0.025113391097504115 
-0.018625883643737400 
-0.015132646486348893 
-0.078054642244387000 
0.097546556612077330 
0.084311059957579560 
0.025113391097504115 
-0.046436113716543010 
0.071483438639616930 
0.055582498866009696 
0.051056954333851844 
0.022412746844732264 
0.059493880166240580 
0.076410611174403370 
0.041952594118952840 
-0.038887545630314185 
-0.033661315016422624 
0.093967007496472980 
-0.10229304935145380 
-0.051471128168453030 
-0.057503262421439130 
0.039581711890981860 
0.052680327401500825 
-0.051471128168453030 
-0.045786948865901900 
0.035993330791952695 
-0.022944737365829155 
-0.14138785827914271 
0.10705900839942455 
0.032926914468822310 
0.041140285758328060 
0.019823402151304000 
-0.049839328248315010 
0.025273988709919672 
-0.12131460853296745 
0.055582498866009696 
0.042728098906835744 
0.038418897467267310 
-0.049091051296846510 
-0.029606015217097967 
-0.049839328248315010 
-0.063084908569050880 
0.025113391097504115 
-0.065246044119479220 
-0.050154894071185200 
-0.038667684553874336 
0.027021339383194475 
0.048345469528316360 
-0.046436113716543010 
0.10705900839942455 
-0.018625883643737400 
0.039581711890981860 
0.056322168683075755 
0.051056954333851844 
0.055289917488815565 
-0.034628675218875670 
-0.037447577669593230 
-0.043002119042172486 
-0.040187759324724940 
0.035993330791952695 
0.052193658616843870 
0.084081243238816230 
-0.050154894071185200 
0.041952594118952840 
-0.049839328248315010 
-0.051471128168453030 
0.042876203167085320 
-0.044799197050346850 
0.061381044771951186 
-0.055414970235202594 
-0.077669035717237490 
-0.033661315016422624 
-0.11761714143930656 
0.035993330791952695 
-0.029219563719285323 
0.048345469528316360 
0.027021339383194475 
0.057763109285438730 
0.035324255424541394 
0.031832484978904290 
0.041140285758328060 
-0.048388971419484350 
0.066338159628634740 
-0.048190879982596780 
0.14739812805832910 
0.050818831314576830 
0.10243023598260367 
-0.041995244347743765 
0.044656820707542316 
0.019823402151304000 
-0.051486221359296556 
-0.044202442259004826 
-0.036224245601523530 
0.019823402151304000 
-0.026939665217229028 
0.084081243238816230 
0.019823402151304000 
0.027950462570690886 
-0.024499097451204745 
-0.037502952530993680 
0.15913809830351427 
-0.037502952530993680 
0.061317562275695334 
-0.044265734368420066 
0.055289917488815565 
0.045617368074679990 
0.055289917488815565 
0.036380517548888020 
0.031832484978904290 
-0.043386040811182795 
0.050818831314576830 
0.050818831314576830 
0.036380517548888020 
0.034720763803721170 
0.050818831314576830 
0.031832484978904290 
0.036380517548888020 
-0.049839328248315010 
0.063324969732784450 
0.10872110951572111 
0.10872110951572111 
-0.061168239782388480 
0.034723655373571670 
0.063324969732784450 
0.034723655373571670 
-0.054942679514997386 
0.027950462570690886 
-0.033661315016422624 
0.019823402151304000 
0.019823402151304000 
0.034723655373571670 
-0.033661315016422624 
0.035993330791952695 
-0.056234138191010050 
0.063324969732784450 
0.066338159628634740 
0.034723655373571670 
-0.096742100493580620 
0.034720763803721170 
-0.045219776489288530 
-0.045219776489288530 
-0.045219776489288530 
-0.018625883643737400 
0.027950462570690886 
0.030647849105315043 
0.036380517548888020 
0.034723655373571670 
0.10243023598260367 
0.15913809830351427 
-0.086632796157719610 
-0.057503262421439130 
0.025273988709919672 
0.025273988709919672 
-0.046436113716543010 
0.051056954333851844 
0.025273988709919672 
-0.064044183204460130 
0.041952594118952840 
0.090357888676068930 
-0.057503262421439130 
0.044609976240919910 
0.094413119306115890 
0.035993330791952695 
0.086567712672670650 
0.050277964461055100 
-0.022944737365829155 
0.027021339383194475 
0.034720763803721170 
0.029286099666277363 
0.029755217219354060 
-0.057503262421439130 
-0.043386040811182795 
-0.022944737365829155 
0.031832484978904290 
0.041952594118952840 
0.029286099666277363 
-0.12411658440984466 
0.029286099666277363 
0.029755217219354060 
-0.033896966503139010 
0.046143156625244130 
-0.055414970235202594 
-0.048190879982596780 
-0.049839328248315010 
0.050818831314576830 
0.035993330791952695 
0.034483207069814100 
0.034483207069814100 
0.031832484978904290 
0.029286099666277363 
0.025113391097504115 
0.034483207069814100 
0.034483207069814100 
0.034483207069814100 
0.061317562275695334 
0.13859438205977184 
0.046645822291947150 
0.046645822291947150 
0.046645822291947150 
0.046645822291947150 
-0.054259819116650150 
-0.015132646486348893 
0.034723655373571670 
-0.033896966503139010 
0.038418897467267310 
-0.068902600112462170 
0.031832484978904290 
-0.057503262421439130 
-0.12411658440984466 
-0.11617356862495569 
0.046645822291947150 
-0.048190879982596780 
0.045617368074679990 
-0.043386040811182795 
0.10872110951572111 
-0.032987784543082930 
0.019823402151304000 
0.019823402151304000 
0.019823402151304000 
-0.032987784543082930 
0.019823402151304000 
-0.039500594095796820 
0.027021339383194475 
0.028700460513127210 
-0.039196258816748950 
-0.039196258816748950 
-0.050355184123767240 
0.034720763803721170 
-0.063084908569050880 
-0.10542707534477838 
0.081240538956208250 
-0.022944737365829155 
0.073281737210880630 
-0.039500594095796820 
-0.049839328248315010 
0.039007318111790630 
0.055582498866009696 
-0.011717858585640471 
0.029755217219354060 
0.029755217219354060 
0.029755217219354060 
0.029755217219354060 
0.041952594118952840 
-0.046655096389484510 
-0.046655096389484510 
0.025273988709919672 
-0.026939665217229028 
-0.089918375409385380 
-0.041995244347743765 
0.050277964461055100 
0.034723655373571670 
-0.065246044119479220 
0.029755217219354060 
0.030647849105315043 
0.025113391097504115 
-0.044202442259004826 
0.042728098906835744 
-0.068367778495497560 
0.083764544371416740 
-0.032987784543082930 
-0.046655096389484510 
-0.031420790206959176 
-0.015132646486348893 
-0.028587224589315340 
-0.028587224589315340 
0.12623655887826024 
0.031832484978904290 
0.055289917488815565 
0.051346717959088150 
0.026811926533669090 
-0.040276745187168596 
0.14739812805832910 
0.12623655887826024 
0.071483438639616930 
-0.031420790206959176 
0.077942678224639210 
-0.041995244347743765 
-0.015132646486348893 
-0.038667684553874336 
0.026811926533669090 
-0.033085397584725370 
-0.062385625100352920 
0.050277964461055100 
0.063324969732784450 
0.066338159628634740 
-0.022944737365829155 
-0.041995244347743765 
0.059493880166240580 
0.12623655887826024 
-0.043971743081889780 
0.090357888676068930 
0.052266930622091030 
0.035993330791952695 
0.061381044771951186 
0.044656820707542316 
-0.035659867251076790 
0.026811926533669090 
-0.041995244347743765 
-0.015132646486348893 
0.060443114440764736 
0.019823402151304000 
0.057763109285438730 
-0.034628675218875670 
0.050277964461055100 
-0.026939665217229028 
-0.061746961829893880 
-0.043386040811182795 
-0.049091051296846510 
-0.028587224589315340 
0.030647849105315043 
0.081577963417105830 
0.060443114440764736 
-0.051486221359296556 
-0.078872566232817840 
0.029755217219354060 
-0.038887545630314185 
-0.053062096371671974 
0.046143156625244130 
-0.063084908569050880 
-0.033085397584725370 
0.038418897467267310 
-0.053062096371671974 
-0.068902600112462170 
-0.029219563719285323 
0.042876203167085320 
-0.057316429762815150 
0.063324969732784450 
0.032926914468822310 
0.14858834182835157 
-0.032987784543082930 
0.019823402151304000 
0.030647849105315043 
0.019823402151304000 
0.019823402151304000 
-0.032987784543082930 
-0.032987784543082930 
0.019823402151304000 
0.019823402151304000 
0.030647849105315043 
-0.048190879982596780 
0.035993330791952695 
-0.050154894071185200 
-0.050154894071185200 
-0.050154894071185200 
-0.050154894071185200 
0.027950462570690886 
-0.067120209016770130 
0.050818831314576830 
-0.015132646486348893 
-0.015132646486348893 
-0.057316429762815150 
0.019823402151304000 
0.081240538956208250 
-0.039196258816748950 
-0.10469779220835880 
0.029755217219354060 
0.090357888676068930 
0.090357888676068930 
0.086567712672670650 
0.090357888676068930 
0.046143156625244130 
-0.026939665217229028 
-0.078054642244387000 
0.029286099666277363 
-0.044265734368420066 
-0.059790457501960880 
0.025113391097504115 
0.061317562275695334 
-0.073175839687503210 
0.032926914468822310 
-0.040276745187168596 
-0.068367778495497560 
0.059256444229109216 
0.026811926533669090 
-0.044265734368420066 
0.040467750783469675 
-0.041960676099873520 
-0.051471128168453030 
0.058187588661772100 
-0.041960676099873520 
0.039007318111790630 
0.039007318111790630 
0.039007318111790630 
0.039007318111790630 
0.039007318111790630 
0.039007318111790630 
0.040467750783469675 
0.039007318111790630 
-0.041960676099873520 
0.039007318111790630 
0.039007318111790630 
-0.041960676099873520 
0.039007318111790630 
-0.041960676099873520 
0.044656820707542316 
0.025273988709919672 
0.054714325681091700 
-0.12802586129373078 
-0.053062096371671974 
-0.044265734368420066 
0.039007318111790630 
-0.078054642244387000 
0.046645822291947150 
0.046645822291947150 
0.026811926533669090 
-0.019001370501347010 
-0.048190879982596780 
0.055582498866009696 
0.083764544371416740 
0.042728098906835744 
-0.043971743081889780 
0.034720763803721170 
-0.028093954393010970 
-0.037502952530993680 
-0.038667684553874336 
-0.089918375409385380 
0.034483207069814100 
0.040467750783469675 
0.025273988709919672 
0.025273988709919672 
-0.034628675218875670 
-0.067120209016770130 
0.063324969732784450 
-0.068367778495497560 
0.030647849105315043 
-0.019001370501347010 
-0.051252892289074590 
-0.049091051296846510 
0.083764544371416740 
-0.079790855904096800 
-0.079790855904096800 
-0.079790855904096800 
-0.079790855904096800 
0.045585155568013750 
-0.14339774103373530 
-0.063084908569050880 
-0.044799197050346850 
-0.022944737365829155 
0.057758758777746300 
0.036380517548888020 
0.052193658616843870 
-0.057316429762815150 
-0.036224245601523530 
0.14858834182835157 
0.093967007496472980 
-0.091401766251792730 
0.093967007496472980 
0.14858834182835157 
0.093967007496472980 
-0.026939665217229028 
-0.091401766251792730 
-0.061104014498507206 
0.063324969732784450 
0.043712909776448663 
-0.026939665217229028 
0.077942678224639210 
-0.091401766251792730 
0.093967007496472980 
0.038418897467267310 
0.077942678224639210 
0.043712909776448663 
0.077942678224639210 
0.019823402151304000 
0.059493880166240580 
0.038418897467267310 
0.059493880166240580 
0.038418897467267310 
0.048345469528316360 
0.093967007496472980 
0.059493880166240580 
0.038418897467267310 
0.043712909776448663 
0.055582498866009696 
0.046645822291947150 
0.046645822291947150 
-0.053062096371671974 
0.081577963417105830 
0.044609976240919910 
0.046645822291947150 
0.081577963417105830 
0.046645822291947150 
0.044609976240919910 
0.046645822291947150 
0.081577963417105830 
0.044609976240919910 
-0.037502952530993680 
-0.037502952530993680 
-0.037502952530993680 
0.068996122873285560 
0.068996122873285560 
0.034483207069814100 
-0.077962842805933060 
0.025273988709919672 
0.025273988709919672 
0.025273988709919672 
-0.10570120352712718 
-0.10570120352712718 
-0.019174879186611128 
-0.054942679514997386 
0.058597407513523600 
-0.036224245601523530 
-0.053813074523881906 
-0.015132646486348893 
0.039581711890981860 
-0.011717858585640471 
-0.050355184123767240 
-0.034628675218875670 
0.039581711890981860 
-0.039500594095796820 
0.043712909776448663 
-0.022944737365829155 
-0.063285744121934340 
-0.015132646486348893 
-0.033896966503139010 
-0.033896966503139010 
-0.019001370501347010 
0.056244951762137530 
-0.015132646486348893 
-0.034628675218875670 
-0.063285744121934340 
-0.035659867251076790 
0.019823402151304000 
-0.063285744121934340 
-0.063285744121934340 
-0.028587224589315340 
-0.061104014498507206 
0.041140285758328060 
-0.040276745187168596 
-0.043002119042172486 
-0.032987784543082930 
0.030647849105315043 
-0.051471128168453030 
-0.14138785827914271 
0.093967007496472980 
-0.076358212285196970 
0.068996122873285560 
0.068996122873285560 
0.099061000419116090 
-0.037447577669593230 
0.023235040893514334 
-0.040187759324724940 
-0.011717858585640471 
-0.041960676099873520 
-0.019001370501347010 
0.025273988709919672 
-0.029337892711231420 
-0.045219776489288530 
-0.044202442259004826 
-0.044799197050346850 
0.054714325681091700 
-0.023704020606599756 
-0.028587224589315340 
0.062805668668714410 
0.034483207069814100 
-0.023704020606599756 
-0.057503262421439130 
-0.044202442259004826 
0.040467750783469675 
0.031832484978904290 
-0.056234138191010050 
0.029755217219354060 
0.060443114440764736 
0.023235040893514334 
-0.045786948865901900 
0.027950462570690886 
0.10601279080276402 
0.039581711890981860 
-0.048388971419484350 
0.029755217219354060 
-0.048190879982596780 
-0.033661315016422624 
0.085385446267205340 
0.057758758777746300 
-0.051471128168453030 
0.025113391097504115 
-0.036224245601523530 
-0.065246044119479220 
0.050818831314576830 
0.029755217219354060 
0.029755217219354060 
0.050277964461055100 
0.11227736403296460 
-0.040071003420166270 
-0.040276745187168596 
-0.023704020606599756 
-0.018625883643737400 
-0.050355184123767240 
-0.11761714143930656 
0.099061000419116090 
-0.044202442259004826 
0.074137583902928200 
0.041952594118952840 
0.019823402151304000 
0.055582498866009696 
-0.061168239782388480 
0.057758758777746300 
0.063324969732784450 
-0.051486221359296556 
-0.063285744121934340 
-0.054942318081361570 
0.023235040893514334 
0.097069261693680370 
-0.011717858585640471 
-0.048388971419484350 
-0.045587148816725140 
-0.040187759324724940 
0.051056954333851844 
-0.12411658440984466 
0.060424074001058890 
0.050818831314576830 
0.12623655887826024 
-0.068902600112462170 
-0.041995244347743765 
0.019823402151304000 
-0.028093954393010970 
0.041952594118952840 
-0.022944737365829155 
0.14739812805832910 
-0.061746961829893880 
0.052680327401500825 
0.058597407513523600 
-0.054942679514997386 
-0.045786948865901900 
0.042876203167085320 
0.034723655373571670 
-0.029219563719285323 
0.034483207069814100 
-0.045786948865901900 
0.050818831314576830 
0.10601279080276402 
-0.036224245601523530 
-0.11617356862495569 
0.045617368074679990 
-0.033896966503139010 
0.063324969732784450 
-0.089990211958477370 
-0.038887545630314185 
0.051346717959088150 
-0.044799197050346850 
-0.10542707534477838 
-0.018625883643737400 
0.027021339383194475 
0.025113391097504115 
-0.061746961829893880 
0.051449394437255150 
0.10969309465589515 
0.038418897467267310 
-0.065246044119479220 
0.11661612379673080 
0.030647849105315043 
-0.019001370501347010 
0.029286099666277363 
-0.018625883643737400 
-0.14138785827914271 
-0.050154894071185200 
0.063324969732784450 
0.027950462570690886 
-0.084230477909727740 
0.036380517548888020 
0.019823402151304000 
-0.043386040811182795 
-0.062824599755666730 
-0.045786948865901900 
-0.040187759324724940 
-0.068902600112462170 
-0.018625883643737400 
-0.029606015217097967 
0.052193658616843870 
-0.034628675218875670 
-0.043386040811182795 
-0.029219563719285323 
-0.029606015217097967 
0.035993330791952695 
-0.038667684553874336 
-0.031420790206959176 
0.077942678224639210 
0.077942678224639210 
0.077942678224639210 
0.077942678224639210 
0.13766395384444233 
0.028700460513127210 
0.093967007496472980 
0.11909258654501537 
-0.044799197050346850 
-0.044799197050346850 
0.046143156625244130 
-0.023704020606599756 
0.081240538956208250 
0.055582498866009696 
-0.044799197050346850 
-0.078872566232817840 
0.097069261693680370 
0.090277290545334680 
0.046143156625244130 
0.092752958680697950 
-0.049091051296846510 
-0.038887545630314185 
-0.054942679514997386 
0.030647849105315043 
-0.059790457501960880 
-0.064044183204460130 
-0.029219563719285323 
-0.018625883643737400 
0.030647849105315043 
-0.018625883643737400 
0.057763109285438730 
0.025273988709919672 
-0.12411658440984466 
0.090357888676068930 
-0.034628675218875670 
-0.089918375409385380 
-0.057503262421439130 
0.028700460513127210 
0.083764544371416740 
0.052266930622091030 
0.062805668668714410 
0.081240538956208250 
0.061381044771951186 
-0.038887545630314185 
0.025113391097504115 
0.025113391097504115 
-0.067120209016770130 
0.077942678224639210 
0.077942678224639210 
-0.032987784543082930 
0.025273988709919672 
-0.038887545630314185 
-0.040071003420166270 
0.052266930622091030 
-0.033896966503139010 
0.058597407513523600 
-0.12802586129373078 
-0.051471128168453030 
-0.062385625100352920 
0.051056954333851844 
0.025273988709919672 
-0.078054642244387000 
0.040642208563700044 
0.050818831314576830 
0.061178352415376380 
0.055582498866009696 
-0.063084908569050880 
-0.050154894071185200 
-0.026939665217229028 
-0.057503262421439130 
-0.043002119042172486 
-0.048190879982596780 
0.041140285758328060 
0.039007318111790630 
-0.011717858585640471 
0.040467750783469675 
-0.078054642244387000 
0.092752958680697950 
0.045585155568013750 
-0.024499097451204745 
0.044656820707542316 
0.084081243238816230 
0.058597407513523600 
0.051346717959088150 
0.041140285758328060 
0.10705900839942455 
-0.033896966503139010 
-0.063285744121934340 
-0.011717858585640471 
-0.057316429762815150 
-0.036224245601523530 
0.086567712672670650 
-0.033896966503139010 
0.025273988709919672 
0.041140285758328060 
0.030647849105315043 
0.045585155568013750 
-0.019001370501347010 
0.090357888676068930 
0.10705900839942455 
0.097546556612077330 
-0.048388971419484350 
0.076410611174403370 
-0.048388971419484350 
-0.028587224589315340 
-0.048190879982596780 
-0.048190879982596780 
0.035324255424541394 
-0.053062096371671974 
0.071800459308616800 
-0.038127067025066320 
0.074137583902928200 
-0.043386040811182795 
-0.064044183204460130 
-0.029606015217097967 
0.10601279080276402 
0.052680327401500825 
0.042876203167085320 
-0.062385625100352920 
-0.033085397584725370 
-0.033085397584725370 
-0.061746961829893880 
0.045585155568013750 
-0.031420790206959176 
0.046143156625244130 
-0.026939665217229028 
-0.036224245601523530 
0.076410611174403370 
0.027021339383194475 
0.056322168683075755 
0.022412746844732264 
0.038418897467267310 
0.022412746844732264 
-0.028587224589315340 
-0.041995244347743765 
0.054714325681091700 
-0.051252892289074590 
-0.055414970235202594 
-0.055414970235202594 
-0.023704020606599756 
0.058597407513523600 
-0.096742100493580620 
-0.061746961829893880 
-0.054942679514997386 
0.048459113746060385 
-0.028587224589315340 
-0.056234138191010050 
-0.10542707534477838 
-0.089691159718681010 
-0.060626245383211120 
-0.041960676099873520 
-0.040276745187168596 
-0.051486221359296556 
0.050818831314576830 
-0.049839328248315010 
0.035324255424541394 
0.055582498866009696 
0.027950462570690886 
-0.038127067025066320 
-0.038127067025066320 
-0.12802586129373078 
0.090277290545334680 
0.051346717959088150 
-0.073175839687503210 
0.092752958680697950 
-0.033661315016422624 
0.034720763803721170 
-0.060626245383211120 
-0.10469779220835880 
-0.035659867251076790 
0.071800459308616800 
0.052680327401500825 
-0.045786948865901900 
-0.011717858585640471 
-0.026939665217229028 
-0.023704020606599756 
-0.10542707534477838 
-0.011717858585640471 
0.039581711890981860 
-0.065246044119479220 
-0.054942679514997386 
0.097069261693680370 
-0.033896966503139010 
-0.043002119042172486 
-0.063285744121934340 
-0.041960676099873520 
0.038418897467267310 
-0.050355184123767240 
-0.041960676099873520 
-0.062385625100352920 
-0.056234138191010050 
0.039007318111790630 
-0.065246044119479220 
0.066338159628634740 
-0.019174879186611128 
0.055289917488815565 
0.031832484978904290 
-0.050154894071185200 
0.042876203167085320 
-0.10229304935145380 
-0.045587148816725140 
-0.019001370501347010 
-0.051486221359296556 
-0.018625883643737400 
-0.033661315016422624 
-0.062385625100352920 
-0.032987784543082930 
0.051056954333851844 
0.051056954333851844 
0.029755217219354060 
-0.018625883643737400 
-0.054259819116650150 
0.045585155568013750 
-0.019001370501347010 
-0.032987784543082930 
-0.040187759324724940 
0.029755217219354060 
-0.043971743081889780 
0.090277290545334680 
0.057758758777746300 
-0.062385625100352920 
0.025273988709919672 
0.045585155568013750 
0.045585155568013750 
0.045585155568013750 
0.045585155568013750 
0.045585155568013750 
0.051346717959088150 
0.045585155568013750 
-0.036224245601523530 
-0.036224245601523530 
-0.051252892289074590 
0.045585155568013750 
-0.036224245601523530 
0.045585155568013750 
0.045585155568013750 
-0.018625883643737400 
-0.054942679514997386 
-0.040187759324724940 
0.10969309465589515 
0.045617368074679990 
0.040467750783469675 
-0.044799197050346850 
-0.11761714143930656 
-0.14138785827914271 
0.035993330791952695 
-0.054259819116650150 
-0.10949198400440659 
0.026811926533669090 
-0.065246044119479220 
-0.089918375409385380 
-0.041960676099873520 
-0.033085397584725370 
0.034483207069814100 
-0.046436113716543010 
-0.040071003420166270 
-0.046655096389484510 
0.029286099666277363 
-0.056234138191010050 
-0.040071003420166270 
-0.023704020606599756 
0.048345469528316360 
-0.038127067025066320 
-0.051486221359296556 
0.044656820707542316 
0.090277290545334680 
0.019823402151304000 
-0.011717858585640471 
0.034483207069814100 
-0.065246044119479220 
-0.061746961829893880 
0.043712909776448663 
-0.028587224589315340 
0.019823402151304000 
0.056322168683075755 
0.027021339383194475 
-0.046436113716543010 
-0.028587224589315340 
-0.038667684553874336 
0.050277964461055100 
-0.089691159718681010 
0.019823402151304000 
-0.046436113716543010 
0.083764544371416740 
0.061317562275695334 
-0.038127067025066320 
0.092752958680697950 
0.097546556612077330 
0.044656820707542316 
-0.049091051296846510 
0.061317562275695334 
-0.045219776489288530 
0.043712909776448663 
0.031832484978904290 
0.031832484978904290 
-0.043002119042172486 
0.058187588661772100 
0.042876203167085320 
-0.031420790206959176 
0.061317562275695334 
-0.051471128168453030 
-0.051471128168453030 
-0.059790457501960880 
-0.048388971419484350 
-0.031420790206959176 
0.027021339383194475 
-0.044202442259004826 
0.086567712672670650 
0.081924187229653580 
-0.14339774103373530 
-0.035659867251076790 
-0.043971743081889780 
0.022412746844732264 
-0.050355184123767240 
0.046143156625244130 
-0.054942679514997386 
-0.054259819116650150 
0.022412746844732264 
-0.040276745187168596 
-0.041960676099873520 
0.10872110951572111 
-0.048388971419484350 
-0.044202442259004826 
-0.038127067025066320 
0.040642208563700044 
-0.091401766251792730 
-0.022944737365829155 
-0.14339774103373530 
0.051449394437255150 
-0.062385625100352920 
0.039007318111790630 
0.092752958680697950 
-0.045786948865901900 
0.056322168683075755 
0.030647849105315043 
0.040467750783469675 
-0.035659867251076790 
0.076410611174403370 
0.019823402151304000 
0.045617368074679990 
0.14858834182835157 
0.034483207069814100 
-0.062385625100352920 
0.048345469528316360 
-0.057503262421439130 
0.086567712672670650 
-0.065246044119479220 
0.051346717959088150 
0.041140285758328060 
-0.029219563719285323 
-0.015132646486348893 
-0.054942679514997386 
0.019823402151304000 
0.065360601869951280 
0.11909258654501537 
-0.053813074523881906 
-0.12131460853296745 
-0.039196258816748950 
0.019823402151304000 
0.019823402151304000 
-0.015132646486348893 
-0.044202442259004826 
0.060424074001058890 
-0.089691159718681010 
0.043712909776448663 
-0.038127067025066320 
0.045617368074679990 
-0.046436113716543010 
0.044609976240919910 
0.052193658616843870 
-0.043386040811182795 
-0.079790855904096800 
0.052680327401500825 
-0.054942318081361570 
-0.064044183204460130 
0.046645822291947150 
0.048459113746060385 
0.039007318111790630 
0.045585155568013750 
0.10705900839942455 
0.045617368074679990 
0.052680327401500825 
0.040335589430876354 
0.052680327401500825 
0.094413119306115890 
0.083764544371416740 
0.059256444229109216 
-0.029219563719285323 
-0.035659867251076790 
-0.029219563719285323 
0.055582498866009696 
0.061178352415376380 
0.019823402151304000 
0.045617368074679990 
0.019823402151304000 
0.052680327401500825 
0.034720763803721170 
0.026811926533669090 
0.029286099666277363 
-0.062385625100352920 
0.056244951762137530 
0.029286099666277363 
0.048345469528316360 
0.031832484978904290 
0.029286099666277363 
0.027021339383194475 
-0.050154894071185200 
0.060443114440764736 
-0.050355184123767240 
0.042876203167085320 
0.035324255424541394 
0.027950462570690886 
0.041952594118952840 
0.084081243238816230 
-0.019001370501347010 
-0.015132646486348893 
0.048345469528316360 
0.027950462570690886 
0.035993330791952695 
-0.026939665217229028 
-0.054942318081361570 
-0.033661315016422624 
-0.035659867251076790 
0.029286099666277363 
0.077942678224639210 
0.041952594118952840 
-0.056234138191010050 
0.081924187229653580 
-0.039500594095796820 
-0.029219563719285323 
-0.049839328248315010 
-0.015132646486348893 
0.061178352415376380 
0.052193658616843870 
0.048345469528316360 
-0.044799197050346850 
0.066338159628634740 
-0.049839328248315010 
0.090357888676068930 
0.052680327401500825 
0.052680327401500825 
0.046143156625244130 
-0.086632796157719610 
-0.046655096389484510 
-0.079790855904096800 
0.036380517548888020 
-0.062824599755666730 
-0.041995244347743765 
0.081577963417105830 
0.081577963417105830 
0.048345469528316360 
-0.037502952530993680 
-0.037502952530993680 
-0.037502952530993680 
0.031832484978904290 
0.11632659863809039 
0.044609976240919910 
0.050818831314576830 
0.050277964461055100 
0.10705900839942455 
0.034723655373571670 
-0.032987784543082930 
0.045585155568013750 
0.043712909776448663 
-0.057316429762815150 
0.040335589430876354 
0.027021339383194475 
-0.036224245601523530 
-0.077669035717237490 
-0.029606015217097967 
-0.029606015217097967 
-0.029606015217097967 
-0.019174879186611128 
-0.019174879186611128 
-0.054259819116650150 
-0.060626245383211120 
-0.051252892289074590 
0.039007318111790630 
-0.019174879186611128 
-0.077962842805933060 
-0.040276745187168596 
-0.045219776489288530 
0.056244951762137530 
-0.051252892289074590 
0.039581711890981860 
0.052680327401500825 
0.052193658616843870 
-0.057316429762815150 
-0.044799197050346850 
-0.054942318081361570 
0.084081243238816230 
-0.051471128168453030 
-0.16241983283381228 
-0.062824599755666730 
0.056244951762137530 
0.025113391097504115 
0.025113391097504115 
0.044609976240919910 
0.044609976240919910 
0.044609976240919910 
0.044609976240919910 
0.044609976240919910 
0.044609976240919910 
0.044609976240919910 
0.044609976240919910 
0.044609976240919910 
-0.015132646486348893 
-0.015132646486348893 
-0.015132646486348893 
-0.015132646486348893 
-0.015132646486348893 
-0.045219776489288530 
-0.050355184123767240 
-0.044265734368420066 
-0.041995244347743765 
0.059256444229109216 
-0.067120209016770130 
0.10705900839942455 
-0.26916377759708010 
0.040642208563700044 
0.027021339383194475 
-0.023704020606599756 
0.086567712672670650 
0.036380517548888020 
-0.068367778495497560 
-0.068367778495497560 
0.027950462570690886 
-0.078872566232817840 
-0.038667684553874336 
0.039007318111790630 
-0.038667684553874336 
-0.079790855904096800 
-0.038667684553874336 
-0.011717858585640471 
0.040335589430876354 
0.038418897467267310 
0.040335589430876354 
0.040335589430876354 
0.040335589430876354 
-0.044265734368420066 
-0.045219776489288530 
-0.016545679494217917 
-0.033085397584725370 
-0.019001370501347010 
0.044656820707542316 
0.027950462570690886 
-0.096742100493580620 
0.023235040893514334 
0.041952594118952840 
0.027950462570690886 
0.084081243238816230 
0.022412746844732264 
0.027950462570690886 
0.027950462570690886 
0.027950462570690886 
-0.054942679514997386 
-0.026939665217229028 
-0.038887545630314185 
0.10705900839942455 
-0.029337892711231420 
-0.029337892711231420 
-0.040187759324724940 
-0.040187759324724940 
0.027950462570690886 
-0.054942679514997386 
-0.040276745187168596 
-0.040187759324724940 
-0.011717858585640471 
-0.011717858585640471 
0.057763109285438730 
-0.057503262421439130 
-0.029219563719285323 
-0.036224245601523530 
0.093967007496472980 
-0.054942318081361570 
0.055289917488815565 
-0.031420790206959176 
-0.056234138191010050 
0.085385446267205340 
0.10705900839942455 
0.15913809830351427 
-0.057503262421439130 
0.10705900839942455 
0.073281737210880630 
-0.028093954393010970 
0.057763109285438730 
-0.057503262421439130 
-0.057503262421439130 
0.039581711890981860 
0.026811926533669090 
0.073281737210880630 
-0.045587148816725140 
0.10705900839942455 
0.093967007496472980 
-0.078872566232817840 
-0.043971743081889780 
0.046143156625244130 
-0.063285744121934340 
-0.063285744121934340 
-0.018625883643737400 
-0.063285744121934340 
0.046143156625244130 
-0.054942318081361570 
0.034483207069814100 
-0.038887545630314185 
0.054714325681091700 
-0.041995244347743765 
-0.062824599755666730 
-0.038127067025066320 
-0.048190879982596780 
-0.039500594095796820 
-0.038887545630314185 
-0.078872566232817840 
0.030647849105315043 
-0.019174879186611128 
-0.046655096389484510 
0.027950462570690886 
-0.029219563719285323 
-0.078054642244387000 
0.096088473334876730 
0.096088473334876730 
-0.076358212285196970 
-0.057316429762815150 
0.081924187229653580 
0.040467750783469675 
0.041952594118952840 
0.099061000419116090 
-0.068902600112462170 
-0.029219563719285323 
-0.051252892289074590 
-0.028093954393010970 
-0.018625883643737400 
0.11227736403296460 
0.11661612379673080 
0.058597407513523600 
-0.018625883643737400 
-0.019001370501347010 
-0.078054642244387000 
-0.051486221359296556 
-0.076358212285196970 
0.035993330791952695 
-0.045786948865901900 
-0.029219563719285323 
-0.048388971419484350 
-0.086632796157719610 
-0.036224245601523530 
-0.033896966503139010 
-0.048190879982596780 
-0.053813074523881906 
0.077942678224639210 
-0.077962842805933060 
0.084311059957579560 
0.055582498866009696 
-0.018625883643737400 
-0.037447577669593230 
0.061178352415376380 
-0.040187759324724940 
0.025273988709919672 
0.030647849105315043 
0.051449394437255150 
-0.035659867251076790 
-0.043386040811182795 
0.027021339383194475 
-0.028587224589315340 
-0.041960676099873520 
0.028700460513127210 
-0.018625883643737400 
-0.10542707534477838 
0.051056954333851844 
-0.028587224589315340 
0.028700460513127210 
0.034483207069814100 
0.13766395384444233 
-0.061746961829893880 
0.056244951762137530 
-0.055414970235202594 
0.063324969732784450 
-0.024499097451204745 
-0.048190879982596780 
-0.065246044119479220 
-0.051486221359296556 
0.056244951762137530 
-0.056234138191010050 
-0.067120209016770130 
0.12623655887826024 
0.035993330791952695 
0.093967007496472980 
-0.061104014498507206 
-0.061168239782388480 
0.038418897467267310 
0.059493880166240580 
-0.039196258816748950 
-0.038667684553874336 
-0.045786948865901900 
0.052680327401500825 
-0.026939665217229028 
-0.045587148816725140 
-0.051471128168453030 
-0.049091051296846510 
-0.11617356862495569 
-0.062824599755666730 
0.085385446267205340 
-0.068902600112462170 
0.046645822291947150 
0.042728098906835744 
-0.078054642244387000 
-0.10570120352712718 
-0.063285744121934340 
0.085385446267205340 
-0.12411658440984466 
-0.12411658440984466 
0.042728098906835744 
0.029755217219354060 
-0.033896966503139010 
0.045585155568013750 
0.034720763803721170 
-0.049091051296846510 
0.023235040893514334 
-0.011717858585640471 
0.11227736403296460 
0.050277964461055100 
-0.061746961829893880 
-0.015132646486348893 
-0.015132646486348893 
0.094413119306115890 
0.042876203167085320 
-0.015132646486348893 
-0.054942318081361570 
0.039581711890981860 
-0.015132646486348893 
0.051346717959088150 
0.042876203167085320 
0.041952594118952840 
0.027950462570690886 
0.041952594118952840 
-0.051486221359296556 
-0.041995244347743765 
0.068996122873285560 
0.042876203167085320 
-0.023704020606599756 
-0.031420790206959176 
0.10969309465589515 
-0.046436113716543010 
0.048459113746060385 
0.048459113746060385 
-0.031420790206959176 
-0.031420790206959176 
0.11909258654501537 
-0.038127067025066320 
-0.060626245383211120 
0.044609976240919910 
0.058187588661772100 
0.058187588661772100 
0.058187588661772100 
0.040175318103259236 
0.040335589430876354 
0.029755217219354060 
0.046143156625244130 
0.10243023598260367 
0.048459113746060385 
0.044609976240919910 
0.14858834182835157 
0.034483207069814100 
0.019823402151304000 
0.048459113746060385 
-0.015132646486348893 
0.030647849105315043 
0.058187588661772100 
-0.060626245383211120 
-0.082622623669889430 
0.058187588661772100 
0.044609976240919910 
0.030647849105315043 
-0.091401766251792730 
0.058187588661772100 
0.084081243238816230 
-0.060626245383211120 
-0.039196258816748950 
0.042876203167085320 
-0.037502952530993680 
-0.037502952530993680 
-0.037502952530993680 
-0.037502952530993680 
-0.037502952530993680 
0.044609976240919910 
0.099061000419116090 
0.061381044771951186 
0.051346717959088150 
-0.062385625100352920 
-0.026939665217229028 
-0.053062096371671974 
-0.039500594095796820 
0.081577963417105830 
0.041952594118952840 
0.040467750783469675 
0.073281737210880630 
-0.015132646486348893 
-0.043971743081889780 
-0.043971743081889780 
0.076410611174403370 
0.022412746844732264 
0.068996122873285560 
0.068996122873285560 
-0.063285744121934340 
0.036380517548888020 
0.068996122873285560 
-0.049091051296846510 
-0.041960676099873520 
0.068996122873285560 
0.050277964461055100 
0.061381044771951186 
0.076410611174403370 
-0.018625883643737400 
0.041952594118952840 
0.031832484978904290 
0.036380517548888020 
0.041952594118952840 
-0.019001370501347010 
-0.048388971419484350 
0.029755217219354060 
0.065360601869951280 
0.068996122873285560 
0.065360601869951280 
0.11661612379673080 
0.028700460513127210 
0.028700460513127210 
0.025113391097504115 
0.060443114440764736 
0.073281737210880630 
0.12038827970680761 
0.060443114440764736 
0.060443114440764736 
0.060443114440764736 
0.14739812805832910 
0.060443114440764736 
0.060443114440764736 
0.060443114440764736 
-0.077962842805933060 
-0.089918375409385380 
-0.041960676099873520 
-0.041960676099873520 
-0.019001370501347010 
-0.033085397584725370 
-0.033085397584725370 
-0.033085397584725370 
-0.019001370501347010 
-0.019001370501347010 
-0.019001370501347010 
-0.022944737365829155 
-0.049091051296846510 
0.044609976240919910 
-0.086632796157719610 
0.044609976240919910 
-0.086632796157719610 
-0.086632796157719610 
0.10243023598260367 
-0.086632796157719610 
0.10243023598260367 
0.10243023598260367 
-0.082622623669889430 
0.059493880166240580 
-0.077669035717237490 
0.041952594118952840 
-0.029219563719285323 
-0.078054642244387000 
-0.10570120352712718 
0.039007318111790630 
-0.053813074523881906 
-0.045219776489288530 
-0.015132646486348893 
0.019823402151304000 
-0.065246044119479220 
-0.055414970235202594 
0.055582498866009696 
-0.077012423989122100 
-0.018625883643737400 
0.040467750783469675 
-0.073175839687503210 
-0.061746961829893880 
0.056244951762137530 
-0.043002119042172486 
-0.11419817837800030 
0.052193658616843870 
-0.040187759324724940 
-0.10570120352712718 
0.027950462570690886 
0.061178352415376380 
0.025113391097504115 
0.040642208563700044 
-0.033896966503139010 
-0.051486221359296556 
0.035324255424541394 
0.084081243238816230 
0.027021339383194475 
-0.044799197050346850 
0.051056954333851844 
-0.024499097451204745 
0.041952594118952840 
0.084081243238816230 
0.040335589430876354 
0.081577963417105830 
0.028700460513127210 
-0.029606015217097967 
0.031832484978904290 
-0.057503262421439130 
-0.019001370501347010 
-0.018625883643737400 
-0.053813074523881906 
0.034483207069814100 
-0.031420790206959176 
0.027021339383194475 
-0.045219776489288530 
0.057763109285438730 
-0.096742100493580620 
-0.024499097451204745 
0.063324969732784450 
0.061317562275695334 
-0.022944737365829155 
-0.043971743081889780 
0.027021339383194475 
-0.054942318081361570 
0.065360601869951280 
0.048345469528316360 
-0.053062096371671974 
-0.028093954393010970 
0.027950462570690886 
0.073281737210880630 
0.058597407513523600 
-0.054942679514997386 
-0.015132646486348893 
-0.16241983283381228 
0.030647849105315043 
-0.040187759324724940 
-0.041995244347743765 
0.081924187229653580 
-0.049091051296846510 
0.030647849105315043 
0.065360601869951280 
0.045585155568013750 
0.039581711890981860 
-0.019001370501347010 
0.054714325681091700 
-0.028587224589315340 
-0.028587224589315340 
-0.028587224589315340 
-0.077962842805933060 
-0.077962842805933060 
-0.077962842805933060 
0.059256444229109216 
-0.045587148816725140 
-0.040187759324724940 
0.061381044771951186 
0.027950462570690886 
-0.040071003420166270 
-0.040071003420166270 
-0.040071003420166270 
-0.040071003420166270 
-0.040187759324724940 
0.059256444229109216 
0.034483207069814100 
0.10872110951572111 
-0.049091051296846510 
0.052193658616843870 
-0.038127067025066320 
0.086567712672670650 
-0.063285744121934340 
-0.076358212285196970 
-0.063285744121934340 
-0.063285744121934340 
-0.044799197050346850 
-0.015132646486348893 
0.056322168683075755 
-0.037502952530993680 
0.034483207069814100 
0.040467750783469675 
-0.049091051296846510 
-0.019001370501347010 
-0.040187759324724940 
0.034483207069814100 
-0.022944737365829155 
0.050277964461055100 
-0.064044183204460130 
-0.019001370501347010 
0.081924187229653580 
0.035324255424541394 
-0.026939665217229028 
-0.086632796157719610 
0.029755217219354060 
0.029755217219354060 
0.048459113746060385 
-0.063084908569050880 
0.062805668668714410 
0.042876203167085320 
-0.062824599755666730 
0.029286099666277363 
-0.038667684553874336 
-0.015132646486348893 
0.086567712672670650 
-0.053813074523881906 
-0.034628675218875670 
-0.028093954393010970 
0.077942678224639210 
0.034483207069814100 
-0.046436113716543010 
0.083764544371416740 
0.058187588661772100 
0.057763109285438730 
-0.033085397584725370 
-0.034628675218875670 
-0.049839328248315010 
-0.015132646486348893 
0.092752958680697950 
-0.076358212285196970 
0.15913809830351427 
0.025273988709919672 
-0.029337892711231420 
-0.029337892711231420 
-0.029337892711231420 
-0.029337892711231420 
-0.029337892711231420 
-0.040187759324724940 
-0.040187759324724940 
-0.029337892711231420 
-0.040187759324724940 
0.061381044771951186 
0.019823402151304000 
0.030647849105315043 
0.061381044771951186 
0.040335589430876354 
0.073281737210880630 
0.027021339383194475 
-0.073175839687503210 
-0.037447577669593230 
0.045585155568013750 
-0.029219563719285323 
-0.057316429762815150 
-0.011717858585640471 
-0.11419817837800030 
-0.029219563719285323 
-0.011717858585640471 
-0.029337892711231420 
-0.024499097451204745 
-0.018625883643737400 
-0.034628675218875670 
-0.067120209016770130 
-0.086632796157719610 
0.063324969732784450 
-0.029606015217097967 
-0.024499097451204745 
-0.024499097451204745 
0.040642208563700044 
0.11227736403296460 
-0.056234138191010050 
-0.041995244347743765 
0.084311059957579560 
0.038418897467267310 
0.057758758777746300 
0.051449394437255150 
0.084311059957579560 
-0.039500594095796820 
0.039007318111790630 
-0.078872566232817840 
-0.061746961829893880 
-0.068367778495497560 
0.042728098906835744 
-0.051471128168453030 
0.083764544371416740 
-0.022944737365829155 
-0.019001370501347010 
-0.022944737365829155 
-0.022944737365829155 
-0.033896966503139010 
-0.053062096371671974 
0.028700460513127210 
0.034723655373571670 
-0.096742100493580620 
-0.049091051296846510 
0.063324969732784450 
-0.048190879982596780 
0.027021339383194475 
-0.019174879186611128 
0.034723655373571670 
-0.023704020606599756 
-0.038127067025066320 
0.035324255424541394 
-0.089990211958477370 
0.040642208563700044 
-0.079790855904096800 
0.034723655373571670 
-0.11617356862495569 
-0.051471128168453030 
-0.015132646486348893 
0.043712909776448663 
0.026811926533669090 
0.040467750783469675 
0.026811926533669090 
0.040467750783469675 
-0.015132646486348893 
0.034720763803721170 
0.061381044771951186 
0.027950462570690886 
0.034720763803721170 
0.028700460513127210 
-0.019174879186611128 
0.035324255424541394 
0.060443114440764736 
-0.051471128168453030 
0.034483207069814100 
0.034483207069814100 
-0.039196258816748950 
-0.059790457501960880 
-0.059790457501960880 
0.085385446267205340 
-0.068902600112462170 
-0.028587224589315340 
-0.022944737365829155 
-0.037447577669593230 
-0.050355184123767240 
-0.041995244347743765 
0.073281737210880630 
-0.046436113716543010 
-0.022944737365829155 
0.055289917488815565 
-0.054259819116650150 
-0.11617356862495569 
-0.056234138191010050 
-0.029219563719285323 
0.034723655373571670 
-0.037447577669593230 
0.027950462570690886 
-0.055414970235202594 
-0.026939665217229028 
-0.043971743081889780 
0.086567712672670650 
0.051449394437255150 
-0.026939665217229028 
-0.022944737365829155 
0.077942678224639210 
0.034483207069814100 
-0.045786948865901900 
-0.054942318081361570 
0.026811926533669090 
-0.059790457501960880 
0.060424074001058890 
0.051346717959088150 
-0.050355184123767240 
0.057763109285438730 
-0.086632796157719610 
-0.033085397584725370 
0.058187588661772100 
0.040467750783469675 
0.044656820707542316 
-0.079790855904096800 
-0.068367778495497560 
0.034483207069814100 
-0.078054642244387000 
0.029286099666277363 
0.092752958680697950 
-0.043971743081889780 
-0.039196258816748950 
-0.043971743081889780 
-0.031420790206959176 
0.032926914468822310 
-0.011717858585640471 
-0.043971743081889780 
-0.086632796157719610 
0.022412746844732264 
0.11632659863809039 
0.027950462570690886 
0.039007318111790630 
-0.067120209016770130 
0.026811926533669090 
-0.019174879186611128 
0.046143156625244130 
0.063324969732784450 
-0.091401766251792730 
-0.055414970235202594 
0.035324255424541394 
-0.026939665217229028 
0.036380517548888020 
0.074137583902928200 
0.074137583902928200 
-0.043386040811182795 
0.074137583902928200 
0.038418897467267310 
-0.028587224589315340 
0.025273988709919672 
0.11227736403296460 
0.11227736403296460 
-0.039500594095796820 
-0.051252892289074590 
-0.015132646486348893 
0.025113391097504115 
0.034723655373571670 
0.099061000419116090 
-0.12411658440984466 
0.048459113746060385 
0.034483207069814100 
-0.036224245601523530 
0.034720763803721170 
-0.043386040811182795 
0.029755217219354060 
-0.041995244347743765 
-0.019174879186611128 
0.048459113746060385 
-0.036224245601523530 
0.038418897467267310 
-0.050355184123767240 
0.040642208563700044 
-0.034628675218875670 
-0.063285744121934340 
0.055289917488815565 
0.029286099666277363 
0.029286099666277363 
0.032926914468822310 
0.022412746844732264 
0.032926914468822310 
0.060424074001058890 
-0.028587224589315340 
0.083764544371416740 
0.093967007496472980 
0.042876203167085320 
0.029286099666277363 
-0.055414970235202594 
-0.091401766251792730 
-0.11617356862495569 
0.057763109285438730 
0.055289917488815565 
0.048345469528316360 
0.096088473334876730 
-0.049091051296846510 
-0.019001370501347010 
0.022412746844732264 
0.027021339383194475 
0.036380517548888020 
0.050818831314576830 
0.028700460513127210 
-0.049839328248315010 
0.097546556612077330 
-0.011717858585640471 
-0.051252892289074590 
-0.041995244347743765 
0.028700460513127210 
0.022412746844732264 
-0.038127067025066320 
0.029286099666277363 
-0.046436113716543010 
0.032926914468822310 
-0.038127067025066320 
-0.011717858585640471 
-0.045786948865901900 
-0.044265734368420066 
-0.068367778495497560 
0.061317562275695334 
0.061317562275695334 
-0.048190879982596780 
0.039581711890981860 
0.097069261693680370 
-0.029219563719285323 
0.035324255424541394 
-0.024499097451204745 
0.034720763803721170 
-0.043971743081889780 
-0.060626245383211120 
0.038418897467267310 
-0.028093954393010970 
-0.049091051296846510 
-0.063285744121934340 
-0.054259819116650150 
0.084311059957579560 
-0.057503262421439130 
-0.019001370501347010 
