solver_type L2R_L2LOSS_SVC
nr_class 2
label 1 -1
nr_feature 7999
bias 0.0000000000000000
w
-0.030223287117368980 
-0.038497283038305200 
-0.027763220434682233 
-0.025485246624049910 
-0.022322113883936340 
-0.046761430420318300 
-0.035130220762351054 
-0.025180758731627565 
-0.030826169639174124 
-0.050659712541332225 
0.038277977076863890 
0.058640666651744104 
0.046503014945522620 
-0.034147162993730950 
-0.043880904009610894 
-0.018624766513328193 
0.038184046160580840 
0.038351118915246285 
0.021695354904448946 
-0.030376228959883790 
0.030397839024530030 
0.027628457169694757 
0.077039693020933870 
-0.030806538228862264 
0.011927093221513060 
-0.022730695884793393 
-0.040792898847227387 
0.038658646966053310 
0.028983108132814052 
-0.037014174270552480 
-0.028204206852400084 
-0.010453890775239644 
0.043239669825211394 
0.063204808941516570 
0.034276792170356490 
0.039700911173467905 
0.026633219181417055 
-0.026876789909953926 
0.035392836241163114 
-0.036621537553460510 
0.013326262253075193 
-0.0027081794960569926 
-0.012603833166469578 
0.022119868544436720 
0.049167917514894720 
0.015585884043104969 
0.019671514645310810 
-0.030354584553562748 
-0.022580135946056203 
-0.016742364341449968 
0.029255194462781978 
-0.010360309155850775 
0.053442739198215815 
-0.046309209428912770 
0.033082805542165240 
0.040766960888530170 
-0.038463963025148144 
-0.013418423106021196 
0.015323193124563483 
-0.044990838934538110 
-0.047097257311203030 
-0.037861899424833150 
-0.032270889167040720 
0.030198687503852045 
-0.030421854666463195 
-0.041973266502358820 
-0.024736962689984240 
0.032895431689189960 
0.033035517382519480 
0.021014444926098530 
-0.018807454794357100 
-0.041445849776648070 
-0.034952230804094125 
0.039870352197848650 
-0.014956609360261390 
-0.013263015031124242 
0.038436875637520640 
-0.015169005435176160 
0.012741700322032232 
-0.010708607387123278 
0.024315849987765696 
0.039258463459398440 
0.038473725217348060 
-0.011300857960473297 
0.039002469440829350 
0.026064791073360703 
0.012398651412529268 
0.020335927510041197 
-0.019098343100816196 
0.041867945346453860 
0.016535723035609157 
-0.017665282006661447 
-0.010509829029880919 
0.037401476002848650 
-0.020316512422992813 
-0.050896079116615630 
-0.024858763037988528 
-0.041281587261299046 
-0.017862538580011213 
0.030330369483449512 
0.038829003872544540 
0.019939248319156730 
-0.020570099952467797 
0.029314072731964916 
0.031009759998995582 
0.021790523027558666 
-0.029203385283240686 
-0.026184571486051234 
-0.0043807284929965615 
-0.028728510024878737 
-0.022836884005973440 
0.033437628484969200 
-0.044966997636537304 
0.037423551888388380 
0.0021706406064873262 
-0.0095229402309045400 
0.030045063410409720 
0.020437073847811855 
0.055732999106970970 
0.036508904027401720 
-0.027835016653059753 
-0.023489570142064476 
0.016863952667097264 
-0.029670420555117972 
-0.024253004894962463 
-0.058022199513833514 
-0.017893109182986363 
-0.022795878948576764 
0.029513053197816795 
-0.029786569089697600 
-0.018263654121105064 
-0.0044552853459494890 
-0.019848196182015760 
0.015508469503295716 
0 
0.039010472103374744 
-0.023305915674468950 
-0.027445273675123020 
0.032532217293583130 
-0.014896466772519580 
0.042776285055030006 
-0.025136836103648065 
-0.038142903112596190 
0.029104696077745976 
-0.013449190541034182 
0.045141343594763690 
-0.020768540738367217 
-0.020747820927499706 
0.045140728164596330 
0.040312875910243000 
-0.025642971025123636 
0.028425461294610984 
-0.012921270781679750 
-0.024736510734865060 
-0.0041920235576707300 
-0.023662717292341692 
-0.020753433302046563 
-0.022137029558599357 
-0.023366380681034200 
0.019778293127057412 
-0.021512935318931710 
-0.012305433429608017 
-0.014173991879105584 
-0.027136349755591330 
0.010217687055293245 
0.022455545848953522 
-0.0099238362768971740 
-0.011808738821820196 
-0.0026488164365949638 
-0.016858322889103224 
0.025910583589956352 
0.024897347897074342 
0.033504881770207070 
0.041550502265813330 
0.016840559319893006 
0.036096729372632480 
-0.044712982417283530 
-0.030689117630555940 
0.034464566655806330 
0.019495759317110280 
0.038049928433749430 
-0.031890386959594580 
0.021052823917612170 
-0.013517032320285290 
0.034741654113726580 
-0.038416972330936720 
-0.011318419453521513 
0.020868120370953750 
0.027647741438520022 
0.030481228185935103 
0.047247955266581695 
-0.015995731705304383 
-0.035620925358700110 
-0.013950943793020639 
0.022635635505832582 
0.025227556622409882 
-0.017334056224992612 
0.025318431266912883 
0 
-0.00036883996341220617 
0.032920960886100150 
-0.029883996727834330 
-0.012396062235017201 
-0.056924827727011790 
0.022130939062568120 
0.033357949694005934 
-0.038701742358835625 
0.030149253477443304 
-0.025726200061672120 
0.037858476686429930 
0.057491107798050700 
-0.053959834815735810 
-0.018871109211493636 
-0.021847040689248715 
-0.022414596416993383 
0.043218834981213590 
-0.023531800391312405 
0.033812230705006620 
-0.035312508025229360 
-0.030840050105132420 
0.021743917643833405 
-0.018179796147015554 
-0.024965507840999213 
-0.017299323388334680 
-0.029656581705166450 
0.023967160216823227 
0.019883135082224387 
0.022468569638999628 
-0.011347046169671040 
0.046529315826563125 
-0.020863049099759685 
-0.028311526679665477 
-0.0055478551700241015 
0.050087406401685665 
-0.026857402538134310 
-0.031441763870617940 
-0.014625224922606282 
-0.018398942810419220 
-0.011795053286123548 
-0.022758761791469094 
0.018012026268079503 
-0.014698367867975197 
0.021545209659254397 
-0.023622042307412133 
-0.040600126026367220 
-0.041675151037787030 
0.028887645970513277 
-0.015578938299347086 
-0.020853086998614260 
0.0086445547658084990 
0.031878887846952066 
-0.018893780526116722 
-0.032456373267172406 
0.035825127258055874 
0.029433281056002313 
0.051941052682129800 
-0.020390536384359040 
0.024664325854788036 
0.046470391790358896 
-0.064379012498701940 
-0.046037891989764760 
-0.030374699034009297 
0.058354343967163170 
-0.031901593912831450 
-0.032750547904686630 
-0.032305798069391746 
-0.026215262107259710 
0.012717328387385282 
0.020104084775270863 
-0.016821275639154525 
-0.021076354974847570 
-0.031500103482235380 
-0.023657211708187596 
-0.012327168855334263 
-0.016580150205382095 
-0.026970158600548515 
-0.024674384649230618 
-0.036801812009983816 
0.020794790905583022 
-0.018514432631819860 
0.021141740599470552 
0.021494648085721420 
0.021153281103762012 
-0.025349738124443934 
0.042135168836449216 
-0.019177020622455083 
-0.017881011402516467 
-0.018297628442372173 
0.020528977840394164 
0.017101253252480970 
-0.028472105398752546 
-0.015865295091403542 
-0.0040996201632462600 
-0.016553351270121554 
0.018903305845638336 
-0.018637012854949780 
0.032808986380589930 
0.018835557039034667 
0.028108730029595512 
0.010545062094937989 
0.070919312383272880 
-0.031346551215872700 
0.032090764636933576 
0.020186224905272714 
0.039504494638421477 
0.024608448981175667 
0.021991711609034067 
0.012609345225717020 
0.020987639817711845 
-0.021351456093085912 
-0.011776454694496698 
0.033069829925942554 
0.055847716933925644 
-0.019993118669847147 
-0.041884419236537060 
-0.058797402231288105 
-0.027741358113390145 
0.031082678661786710 
-0.069001175463309470 
-0.0099756824355345060 
0.034663511326971980 
-0.041124283266028640 
-0.0098995164874421770 
0.013600873147001638 
-0.015281664507148936 
-0.0098648877714801460 
0.0032161910467165215 
-0.014810182283314526 
0.023539198476511330 
0.019178390830534974 
0.0065286265362881400 
0.0042975258158251060 
0.025606961776552927 
0.027258693201403887 
-0.027274396742680267 
0.032916836751732690 
-0.021964836996784618 
-0.012942048783434927 
0.019433965734332058 
-0.0052104348325553230 
-0.0056375915367236770 
0.020623457105830943 
0.011763128199062917 
0.022957722171250108 
0.019510252386224364 
0.0090042853327750740 
0.013928681272571821 
-0.019714850357364430 
0.012402224768094374 
-0.0023772467972690680 
0.019123277446478966 
0.0011945682181252063 
-0.033939312321807184 
-0.0070077892837028550 
-0.049269991887971350 
0.032091412565009345 
0.027107732218450437 
0.032310639988479830 
0.041077312962098000 
0.022691271304835020 
-0.019980578515351070 
0.018885980789529580 
0.029708764234887032 
0.016834823877384827 
0.011469343556159976 
0.017878224316987407 
0.038869689597281100 
-0.036503140265560650 
-0.025082941955985854 
-0.041440850406624624 
-0.0063552431162898860 
-0.013946658607115409 
0.022921897982397480 
-0.0097086394732228480 
-0.040428911574681530 
0.016621802126952315 
-0.019139440423459764 
-0.049108558605860810 
-0.017091857514122610 
0.014499581395056894 
-0.014054694528394220 
0.013954217157789533 
-0.024168866963408150 
0.034090303941516120 
0.029609755727944460 
-0.039261975373620340 
-0.017726298278486260 
0.016747530764113273 
-0.050126967378614500 
-0.015193310880543240 
0.071932129024950100 
0.022917765760139310 
0.027461484432948293 
0.023282772516683713 
-0.012774451293334823 
0.030516320049566965 
-0.034106338830476360 
-0.019493938073676928 
0.031950357058259150 
-0.010362841588866072 
0.017320898895424486 
0.016321195415904627 
-0.0083159602464626740 
0.020144482355211850 
-0.024938373693598477 
-0.016668154303359675 
0.024187768644891540 
-0.016258382809742594 
-0.033169172816357150 
0.028283031553190424 
-0.018161296886465940 
-0.011478599826524390 
0.0068469256823054240 
0.0088723641331417150 
-0.012270221971463336 
0.018278705356001686 
0.019675886875504252 
-0.040170511384812700 
0.049104759798392940 
0.020984774902146272 
0.011043194950803994 
0.022173942900714255 
-0.029936761112079126 
0.026176962582820575 
0.019497164522064236 
0.025998282643770798 
-0.023274708479766384 
-0.013831386027766871 
-0.00057964313479676420 
-0.032651907210547150 
0.026373110659932936 
0.032412073458963030 
-0.018744161724081120 
0.031906115648360500 
-0.036424900103676223 
-0.036289901926016630 
-0.031976967602696250 
0.025359372831675550 
0.023557503504273162 
-0.030879625529169927 
0.035995746314457136 
0.036263271080759280 
-0.026019957095000900 
-0.049698185429330340 
0.020521065129875168 
0.024535264098312530 
0.016067217329479240 
-0.0051529970181886760 
-0.024876222743497114 
-0.0064694769234312310 
-0.053782006229645320 
-0.029180178731451907 
-0.019759187083660482 
0 
0.028760249129021892 
-0.060312881223271480 
0.024069304670663200 
0.025674414431748827 
0.0053457204532567030 
0.022937008357855587 
-0.017596680492958780 
0 
-0.051854207765037640 
0.0079234692249134440 
0.017213983751770013 
-0.014548077374687053 
-0.017091364620520744 
0.030834787399073412 
-0.016515502415577588 
-0.013001735515124443 
0 
0.026176962582820575 
-0.034349845525505720 
0.0082003743770727400 
-0.019712710338374070 
0.032738277232926090 
0.019849236129855445 
0.013215181595466686 
-0.043309267786205900 
-0.023778059805082330 
-0.011583597581516456 
0.063665340407278780 
-0.024553083439701690 
-0.042443876699730085 
-0.0061491494938733790 
0.012586723393087933 
0.017622763607534238 
0.024863106791508226 
-0.022781658847818370 
0.017343364470389870 
0.032093924011629220 
-0.020321626542143995 
-0.012333098013983850 
0.018170889385945008 
-0.032666397559030940 
0.048815380871580640 
-0.021100180670199198 
-0.021362962112388705 
-0.030487997540166813 
0.043161663129814950 
0.020655964382816780 
-0.040815120429194454 
-0.035374755323972450 
0.032412484450990240 
-0.039036299300959660 
0.017161441499931315 
0.026019948282870634 
0.031347914356686670 
0.016568899300223136 
0.034467741851014620 
-0.016688906448512490 
0.020294943533553815 
-0.027589138438037352 
0.061947702170549304 
0.022389000163306378 
0.025516175198788075 
-0.016517138529346860 
0.017863219982487330 
0.030199901723430088 
-0.039667087508727286 
0.022675748079616270 
-0.018494284685255057 
0.039871500904880940 
-0.014495486590588389 
-0.022295341133890027 
0.047277908718024224 
0.029579662932284470 
-0.032830405965403174 
0.021485292219622032 
0.036278803267716950 
0.010873166591355060 
0.026596717133638523 
0.020654872389520497 
-0.024870010956329385 
-0.039159746345031735 
0.035689227371079530 
0.023020945010253327 
-0.053823639621859370 
-0.038807908882254440 
-0.0044382194424927750 
0.027480434389614467 
-0.0033693098789296222 
-0.011395306927452683 
0.030766222441723372 
-0.0099465024491585280 
-0.016092656603486320 
-0.010002010997613775 
0.00015228645256486780 
0.048382639521828080 
0.020232109148532452 
-0.055666128273260090 
0.024677997782986894 
-0.026701709111513010 
-0.038590334091434200 
0.032436840566534820 
-0.046236292259838545 
-0.026310298694747544 
0.018009057018040155 
0.046324575351647220 
-0.018503843004091514 
0.024614343565399620 
0.054744188414208854 
-0.027528467917477140 
-0.028413785813944985 
0.011815681960377977 
0.025661045399212833 
-0.021538421632479206 
-0.072077377944208610 
-0.018744161724081120 
0.023388828715011540 
-0.041526013081069900 
-0.0070722668601113520 
-0.019617356564832460 
0.025122714611097652 
-0.015971788227105920 
0.028767723426587132 
0.024721582458732915 
0.021161401607253296 
0.014035899414896566 
-0.019101725452344770 
0.018374477451181420 
-0.038541605823528210 
0.029267177295300595 
0.023890542381552544 
-0.024089251737653788 
0.030371168412163270 
-0.031763903512744400 
0.019787971077386692 
0.016659876993574692 
0.040426345530180700 
0.028787051738169988 
0.053848251259958150 
0.057480302293427210 
0.031229903921724606 
0.042500354512159960 
0.016771730907572623 
-0.00026115237066532000 
0.012388471648867440 
-0.018257492312855820 
-0.025604181012485253 
0.029142179952127464 
-0.030450754045739405 
-0.024250422848639833 
0.040252750941249214 
-0.028174868560697410 
0.050475379230650916 
0.016425247207737033 
-0.0029407987261683760 
-0.032341520187811605 
-0.041340003183119235 
0.028979924441464164 
-0.023688947130212305 
-0.037832427997525410 
-0.017269168646057542 
-0.018749209850163807 
-0.015468189794984846 
0.015400912882121984 
-0.012680187256547648 
0.034077537589628780 
-0.0033087781557573060 
-0.019379472117038988 
-0.032601269496572400 
-0.028205624871167626 
0.016951893403901870 
-0.016994619203547272 
-0.032478407033971535 
-0.026329443138342480 
-0.028516777353815380 
0.012499538774171570 
-0.017262139133895363 
0.027620477396997750 
-0.0057104355107161770 
0.013131079986144026 
0.050731893222634960 
0.021991614570439310 
-0.011521137535646833 
-0.018511755665507314 
-0.014697477524583680 
-0.026327731690501470 
-0.0077618715441542810 
-0.0095068062542504470 
0.025221572395930533 
-0.0069254779827316510 
-0.0084786998051408210 
0.020872817239398895 
0.026149104091329707 
0.019937777591456990 
-0.031525354155816080 
0.0026125511510341750 
-0.0019218857601732166 
-0.018946664080603175 
0.0085668923740695230 
0.035601304749760760 
-0.012778793200264293 
-0.039648425449605520 
0.045357816937502670 
-0.030180408096261420 
-0.010167102015423821 
-0.036827286897051226 
-0.018725153682453057 
0.025772815529686630 
0.023233349045521216 
0.033687963852774734 
0.021053033564646460 
0.022930838596861656 
-0.031273250447198680 
-0.0031746771816399300 
-0.011798368968765892 
0.020442123463510826 
0.013624603776605173 
0.00070204733526883170 
0.018880894189980780 
-0.018631411900779115 
-0.021206469496330257 
0.045216584260002810 
-0.0024066182142589950 
-0.016610779984868602 
-0.020399071010860585 
-0.021128794419921550 
0.011153410081079233 
-0.011084699390886736 
-0.021899608479908152 
0.030443160761055360 
0.013632506121766133 
-0.023396154761162004 
0.019826144454819070 
-0.0056499576872201710 
-0.021685582464348218 
-0.023815951018598300 
0.0091221466865218750 
0.026837482055374326 
-0.0093594353848619600 
-0.031289569546530296 
-0.029342528718176870 
-0.015018542362422053 
0.034642863003229996 
-0.013150245774219723 
0.040930737528931734 
-0.027229961047314028 
-0.045287690842913330 
0.025546039521336727 
-0.026043394611534970 
0 
0.020367788906207947 
-0.0033945042036980476 
-0.018682257360958160 
0.031364189711723195 
0.015912439736115235 
0.031326412626544770 
0.023172450612012684 
0.041548299700117336 
-0.0085524773526172070 
-0.0061851686094759880 
-0.033174506883788380 
-0.013673965385634698 
-0.022207687397958670 
-0.020107989110334134 
-0.0071456138404438030 
0.037897247587428004 
0.066399157575415200 
0.028664285038002300 
-0.0047413835951279450 
-0.010043463973807381 
-0.0094219226734985130 
0.017663479550698260 
0.020717285687625105 
0.049931318310959500 
-0.035962906382170395 
0.021214438349790320 
-0.038440012551833450 
-0.029358321397688136 
0.018971213603544496 
-0.027369768081590497 
0.038352939176211580 
-0.014022458052380360 
-0.027417410033191748 
0.028659479631248024 
0.042872342769748640 
0.019064757540769120 
-0.026199061173799590 
-0.0037004121107651280 
-0.021713749791682745 
0.010629636449834204 
0.019952525437716900 
-0.023017064042871616 
-0.012995482196535460 
0.032676402375978990 
-0.012358018731375830 
-0.015715204858243130 
0.036960895336637010 
-0.027938184501113923 
-0.00020393729674874034 
0.0048019974907535630 
-0.030959764052768680 
0.040878619582914410 
0.011273581488015452 
-0.011157266440805894 
0.0040447452445290410 
-0.021481705322642198 
-0.037277395579043870 
-0.024974058316815240 
0.00048390277010063650 
-0.016138736732186375 
0.015476007003254135 
0.0013725105617200337 
0.016697851938787117 
-0.012446462076480529 
-0.030826854745471387 
-0.033586376960450890 
-0.025766380553095155 
-0.012182861891417238 
-0.0063739615060035570 
0.011736459845428194 
0.0017094819550170070 
0.010662467941774997 
-0.0099330663448611870 
-0.033884682928329440 
-0.010959139426688032 
0.037560383407593940 
0.031623407275528134 
0.036964008809205870 
0.013810786208855372 
-0.0026158692477341650 
0.020079277542656336 
0.020097770543369200 
-0.0098271302019606900 
-0.022991120202125154 
0.026577413591131080 
-0.017042428685226640 
-0.018896167718404940 
0.011311363030499998 
0.0060845559152602550 
-0.0043703965613786680 
-0.012473495351874291 
-0.016647131482819395 
0.0024304211176727730 
0.019338165339207694 
0.0052640821020726435 
0.0098212693947999120 
0.012246624115563410 
-0.017757522532308303 
-0.011710429265947973 
-0.0061349815741016700 
-0.014080036736220367 
0.00083580679281555770 
-0.015994330500284953 
0.010071201804879890 
0.028685027733401442 
-0.018040843034023100 
-0.016684044865664010 
-0.026906319809188815 
0.0041804938364179970 
-0.015153048201108134 
-0.011647316687651718 
-0.012537319839641676 
0.020608553915173144 
-0.012292083536970120 
0.0018518668387218756 
-0.0021362430630898260 
0.0068200878918407890 
0.00011824214186930074 
0.0042494116499170835 
-0.021892161758712638 
-0.033953569115313000 
0.0086018193614849270 
0.0018724718097829700 
-0.0011466115066992664 
-0.00085149501820763430 
0.027425224973569702 
-0.042817176456055130 
0.044236596715939160 
-0.0086984137942378220 
0.0039433272898618060 
0.021123761246028966 
0.013433973849227577 
0.039166683975269026 
0.038281036316670645 
0.023550734149510304 
-0.0099786958057640160 
-0.019092251382382770 
0.032167593014644680 
-0.044403789424951844 
-0.034369647337643070 
0.041602820789640470 
0.011880464101782465 
0.010771826460535238 
-0.0064247993935621180 
-0.031958918645012130 
-0.0052321560609223970 
-0.00026022374404156227 
-0.013430133542259907 
0.013254229809812820 
0.028790657160687447 
-0.014582182620510089 
-0.048687740403466864 
-0.0026327958046632680 
0.0040051545034209890 
0.017629994712710827 
0.015967462075068820 
0.060237290198597010 
0.014298143436768718 
0.013769366853281706 
-0.030648362358671234 
0.017987858652084614 
-0.049954071214047480 
0.034042710545233260 
-0.059342153363730820 
-0.071747549957031340 
0.024544765820540524 
-0.011522164286500080 
0.036407007624499520 
-0.011571489524158596 
0.018891984125327720 
0.027945414010765408 
-0.017087690637228530 
0.010339696959831089 
0.025364323824456334 
-0.016651863521421048 
0.018618505122849440 
-0.035696357295903320 
0.016120358506978210 
0.051654717077806960 
-0.027526374668122140 
0.039169151119469094 
-0.069426346947526800 
0.026936046989060068 
0.019169065534091315 
-0.036835143451760324 
0.034535943883650970 
-0.0093223139310584620 
-0.0097403141338773700 
-0.0075024359805435000 
0.022646430798858686 
-0.0037273943795836425 
-0.021455716265019156 
-0.012191553005350130 
-0.0063372997737626760 
0.015256861836288608 
-0.0089209458974902220 
-0.013197167804409755 
0.013979594135438924 
0.024988467708266450 
-0.073962864415483750 
0.011974785298993216 
0.040993516326583976 
-0.031162482509158100 
-0.016441132629463076 
0.042596711839783950 
-0.0051079771830781990 
-0.013759587166707062 
0.019765608227692810 
-0.0093388585788373190 
-0.011979515545079270 
-0.015458775975998687 
0.031098777506745680 
0.014811796541400982 
-0.033749940428694840 
-0.053328520226136990 
-0.018365245513812675 
-0.012507828373097699 
0.017270277155664770 
-0.042826278545545700 
-0.024539587693143225 
0.036980595425658590 
-0.0086720064111381200 
-0.020995050201812740 
0.025188742442741226 
-0.012357875629055671 
0.039701376585103070 
0.038814145770313920 
0.0066506764594059810 
0.0082012620153694000 
-0.0036247492948991936 
0.023934426371928844 
0.016643500898752175 
0.053574584462045010 
-0.026082146096187240 
0.0069488378932184920 
-0.027930772626381360 
-0.021471529408432808 
-0.0093388585788373190 
0.011904509989145877 
-0.037174760887851920 
0.029617853822598760 
-0.029926838210490282 
0.036726507475678160 
0.024784541401296004 
-0.022537015619161180 
-0.017888977418238750 
0.034913127993219830 
-0.017946003658938926 
0.025887601503346683 
0.023854746250767726 
-0.016134695086712305 
0.038698523077034670 
0.011022856204322517 
-0.026016033286015868 
-0.031640347904902690 
-0.027636349496943060 
0.015235526709763470 
0.019744750458973528 
0.017067818967015640 
0.038106761645378180 
-0.0081873953748871420 
0.019928588991187510 
-0.0081748499344880600 
-0.050676655206342860 
0.033394870033144460 
-0.011707935926048171 
-0.0087400236327031360 
0.023491917809433716 
-0.024260868464080123 
-0.024257657757059950 
0.021685636965975703 
0.038492371769409290 
0.020672367322784442 
-0.013475061661964556 
0.019744750458973528 
-0.015530656841702094 
0.0044280990743502660 
0.031066706424523728 
0.021804826091233232 
0.022014158797434968 
-0.025914867791374314 
-0.025277097668515856 
0.024693912582525050 
0.015167854349872850 
-0.012656740507146259 
0.032511209653640520 
-0.059756409280104780 
-0.0085645964026082480 
0.0091120896398360370 
-0.077130832366784070 
-0.013062635038128392 
0.025197853275809460 
-0.0089566907608600660 
0.011737396201979902 
0.027532887749590444 
-0.0078838742135934440 
0.017632708550611914 
-0.036623841576438550 
-0.018750247797071615 
-0.024545257668044385 
0.013986680361975996 
-0.047353521128707325 
0.0070200114354804870 
-0.024308278226466133 
-0.032623493738776980 
0.029564540517707606 
0.074679366701273370 
-0.00071139875292112700 
-0.038079215218260830 
0.014384653153698239 
0.018406290366403316 
-0.0094951627594219970 
0.070838701408197350 
-0.043861081153419700 
0.022600274340317982 
0.019097115625957114 
0.054582688539218450 
0.039162661257836630 
-0.0022891238621565860 
0.050382725248441416 
0.017969466479124120 
0.012850355237202711 
0.013495049470981959 
0.011535743268911526 
-0.019725016401289604 
0.055124088613715300 
-0.043094423553481205 
0.017141693798194052 
0.018700918582317250 
-0.023222929901270970 
0.015146684002389919 
0.021305921530354658 
-0.019084706598885056 
0.018115966893453690 
-0.031417972121350150 
-0.018436770676123627 
0.020464618558589033 
-0.023918893362058940 
-0.044403209789166900 
-0.028665720767375596 
-0.0075695974971755450 
-0.017208660613542478 
0.011904509989145877 
0.023515275638763787 
-0.023222929901270970 
0.026359614838128010 
0.0073973197544651940 
0.0075473596110059915 
0.019213781005462786 
0.036195760216770546 
-0.0068098680391782416 
0.029693256789420580 
0.031025109782800850 
-0.014533662788010023 
0.022161335436805433 
-0.052960602062381096 
0.013234204772172225 
0.019216033894401640 
0.016633147510480836 
0.021908394622059070 
-0.026385141708990582 
-0.012119692602548478 
-0.0087000373860124030 
-0.012545431111234628 
0.035375046256026750 
0.024138620936974600 
0.036256272751806430 
0.014872270851100242 
-0.023556752476870092 
0.039115741901746985 
0.034951672812778280 
-0.0051607780055495710 
0.018821726354796682 
0.012145878001856687 
0.027441794260275500 
-0.017202705897703440 
0.023891919591871712 
-0.0089196029477336630 
0.013185935998468507 
0.026816108327451720 
0.016116482253518406 
0.011843924647877917 
-0.019831865810253790 
0.028226664075374393 
-0.0075669716784642350 
0.015813263042413313 
0.021937220648317324 
0.037798624252242355 
0.055167119548496750 
0.019474730104280580 
-0.029120658056929420 
0.0062457752899574070 
0.018515225861136760 
0.010602432246364066 
-0.029301112399053888 
-0.0094116011744808380 
0.019873365689816900 
0.025893649567382885 
0.026021180323704280 
0.0097450321512721270 
0.038770211329069625 
-0.017923697523629434 
0.032317467685729810 
0.016765945417570050 
-0.022627943851090057 
-0.016211920562368348 
0.026042673308063563 
-0.038544399534783800 
-0.022866229868531050 
0.027489242964693440 
0.021197889369526540 
0.020579201432818578 
0.018697021073247395 
-0.010531064263763646 
0.029917061669093598 
0.0075072195658292290 
-0.021553279965487167 
-0.032107825047764960 
-0.0095760978670589600 
-0.014874639428433886 
0.019574869343423475 
0.023519702709095078 
-0.010723843625228107 
0.018885049294850480 
0.012916892877487561 
-0.014612514608043550 
0.015840327790738785 
0.017346110701544855 
0.036082969781161024 
0.017121614399850816 
-0.039538785630292660 
-0.015549224134243625 
-0.028208662895661330 
0.012149855933513348 
-0.020294221830406706 
0.011642983560840894 
0.014011640272811777 
0 
0.040706474633120146 
0.025838336194942847 
-0.023869161840469725 
0.026041438031687570 
0.036115999643969210 
0.049094441730675110 
0.038698523077034670 
-0.0074835601889138795 
0.0025498285242348357 
0.012871300640556606 
-0.0079765165884991830 
-0.021185522651424083 
0.055928072308097015 
0.021337968014788933 
0.032504917215547430 
-0.019545662004192516 
0.011802930894588046 
-0.0097640573750617830 
0.034809287843728960 
0.022665674405799103 
0.0097582328025954640 
-0.0069554147549267900 
0.0090084283750306000 
0.026199319509955896 
-0.054890772491718330 
-0.0075695974971755450 
-0.010920775784440460 
-0.020241322738439375 
-0.013632060873204907 
-0.043925381422709510 
-0.011839595229574580 
-0.026327400750994885 
0.027964812104504080 
0.015781605836994245 
0.021044681416012796 
-0.022444616155734550 
0.010537112335065952 
0.010591969679041524 
0.041965310179746540 
-0.0062987152037837140 
0.024020743347551887 
0.019402824713974472 
-0.042268789366997840 
0.030478083760230805 
-0.014859707001240965 
0.016653032763802263 
0.012802000102637212 
0.018166951673340107 
0.022219957192047647 
0.014487913177838685 
-0.017472109975547875 
0.040485835618257640 
0.050733686248071695 
-0.067507856068123940 
0.010955852967824630 
-0.015318034475088291 
-0.010425806523707025 
0.031250604630746116 
-0.033449524694454600 
-0.025059418052498193 
-0.014628207310454593 
-0.025556455009390175 
0.034908731161625580 
0.021026365418361110 
-0.0083178995638276080 
0.013762659438136336 
0.019611652215348958 
0.020515425202503900 
-0.012307642400489042 
-0.012656740507146259 
0.061771771202617150 
-0.039270542655603390 
-0.0098045626113345190 
0.042208385378328474 
0.036520451623245550 
-0.0062780801134133190 
0.010102651794263723 
0.026624097430462873 
0.018627785077988453 
0.012062585716872357 
0.029378242572673040 
-0.0093565406925342820 
0.022720905323883440 
0.017891896968899555 
-0.011784682717795519 
-0.041752816742039800 
-0.019565693714562490 
-0.0098626853752806480 
-0.016209022529088513 
0.035451532203738347 
0.035589117055236170 
0.035417072972236860 
0.016783090076871676 
-0.036921364490179340 
-0.0081611351811057070 
0.010797626520779825 
-0.029950887986782940 
-0.020464344127243534 
0.026420410706374155 
0.017828274368903710 
-0.0088245447752854660 
0.040495571498577920 
0.084327932231798090 
0.0037748667184769754 
0.021803228725478190 
0.022711045089376526 
-0.046648923463103560 
0.041354810530312710 
-0.030128179729198575 
0.049710759394622890 
-0.033295426690005690 
0.017365596263041440 
0.0098663744733177490 
-0.015797886860667583 
-0.013556532836048626 
0.026323293828662803 
-0.016029077915667843 
0.017611131543887368 
-0.014628207310454593 
0.033794808612168550 
-0.019776741752089398 
0.020822738184184154 
0.0098121973816131660 
0.060413763422717600 
-0.049987689846748146 
-0.018394016401634277 
0.020981979593681435 
0.022711045089376526 
-0.039524122178709355 
-0.014510947564311604 
0.016857343700586250 
0.0050994950567964770 
0.047628181305072764 
0.045103049735555490 
0.017534926819078565 
0.021895452190128468 
-0.061555899574777584 
0.019695578830857790 
0.034705038135397760 
-0.027359174821480450 
0.038480595387993900 
-0.0091492574886328820 
-0.0043661279376591220 
0.023900869032808550 
-0.013400582581858682 
-0.078674971936422690 
-0.025254726917706038 
0.015235526709763470 
0.0090084283750306000 
-0.013752770731114763 
-0.032488007697556030 
-0.026433314235391130 
0.047074111744242670 
0.021079137248185907 
-0.042599727714065200 
-0.047450120126685355 
0.016523272784142326 
0.012492844485543083 
0.016418412589377426 
-0.0040872637337331980 
-0.034295105245179570 
0.020922173136209650 
0.025204117098154600 
-0.027137292674197202 
-0.013142126262660257 
0.033199495753405790 
0.015326340487057373 
-0.021335402506878310 
0.021369605707056708 
0.022355655795672308 
0.032655309393458430 
-0.051142843578126984 
0.011717775900446004 
0.0079603913178313600 
0.014322871268424863 
-0.056417613323011664 
0.016953114742017394 
0.024242509792180796 
0.047151587374145660 
0.022957264007463660 
-0.0075811327589252220 
0.015333252531291064 
-0.029091123217540810 
-0.018455052086531986 
0.013326534254842232 
-0.028469504144430002 
0.031834505335105400 
-0.0091246188270159520 
-0.0072760192270452636 
-0.018403920477621925 
0.045276563561514720 
0.045846948303818650 
0.0056679703425888780 
0.036978437607558140 
0.022095586900628985 
-0.010089078563662635 
-0.016773733232287837 
0.013604886503089823 
-0.0082561163745115220 
0.030952489481084520 
0.010364248566861883 
0.0045561937928992340 
0.0056679703425888780 
-0.026329569285435790 
0.019744498840422113 
0.031588953003638920 
0.042775487054422090 
-0.065368340464178820 
-0.039359948328012550 
-0.047954993471371270 
0.025039236311311563 
0.016160296974852186 
-0.030263872966721277 
0.023729999856938393 
-0.027036488316952486 
-0.0016400449741537206 
-0.0083341071687448920 
0.033468206622685450 
-0.023564996253633920 
0.0065070719885285310 
-0.027106217175313484 
0.010241348411151666 
-0.017656973672498834 
0.037752313560394170 
0.0096762470967733500 
0.022115860170759890 
0.014568634642322819 
0.016849297859197913 
-0.015776831390845066 
-0.013794688818276108 
0.033050368822830560 
0.012577063808530659 
-0.022896535813261593 
0.033806632777344726 
0.024145292665645846 
-0.019663074194949875 
0.018028221002857548 
0.0094118507963138110 
-0.024964615670013388 
0.024495044084822160 
0.032387255384348376 
-0.0074991786387320920 
-0.0091776757128740000 
0.023537946170024547 
0.016955349087169256 
-0.020277390327124098 
-0.014877586331230921 
0.018247182984598258 
0.016632733956364300 
-0.043779393747671610 
-0.023432873261033098 
-0.0099677493514488660 
0.0078287745972774130 
-0.027521533980643400 
-0.018250190570956774 
0.028526050624933116 
0.014807283846182387 
0.014810527935702722 
-0.012703263644146380 
-0.025287917075430860 
0.015151083601023841 
0.0091148895299376330 
-0.014309746080670760 
0.023590396502340384 
0.040595304123391955 
-0.018058708044389665 
-0.019208327702200042 
0.028740993601369415 
0.019368259914368060 
0.031286426388079990 
-0.025722729570717088 
0.028938754603352185 
-0.032573328533062930 
0.010299243895081632 
0.029605502344007134 
-0.022111019081702155 
0.036823385891473374 
0.017832831974420125 
-0.018230655690964714 
-0.028975507987627130 
-0.0076982586960801460 
-0.013125575148951536 
-0.026621667458366912 
-0.014522153292708163 
-0.035331624124768630 
-0.0093292181736191440 
-0.021348541389578620 
-0.027840179035526103 
0.012414369421095698 
0.038662916036977996 
0.018131590167857550 
-0.037516850003190260 
-0.021328359571451863 
-0.038691114433873340 
0.030487270817568336 
-0.021861077277306597 
-0.019027836303103972 
0.031810891478483120 
-0.019084706598885056 
0.020824728346286597 
-0.022396986242435704 
-0.031952874894296476 
-0.048516912680745350 
-0.0078849808530633020 
-0.013067400693717821 
-0.038990244759868470 
0.025952414335315668 
-0.018572586341020828 
-0.0050416456295983950 
0.054062853576542250 
0.013091086869578385 
-0.0084397540404386300 
0.015604712549122915 
-0.018965266287301740 
0.037573182497120950 
0.021323005915002118 
-0.012370028752060728 
-0.053085925404871330 
0.012166321660254255 
0.033692139944872815 
-0.0074945344607385824 
0.019744750458973528 
-0.015010329089848250 
-0.016804080597632650 
0.036921734305595190 
0.014432078187065133 
0.014116233515202760 
0.044256465298376660 
-0.011082616981335768 
0.018330750835003000 
-0.062218543129380424 
0.012544587243251424 
0.023767577933378435 
-0.012926579589587655 
0.022278221642141483 
-0.027949946380790548 
0.0087271749244289180 
-0.012821045700013722 
0.0043295036991851250 
-0.013112035235382943 
-0.062567259678674880 
-0.019379225649240200 
0.029907417514611626 
-0.011490432505010934 
0.040026019216485166 
0.026565384482327096 
0.011559443091504931 
-0.0080876873889708600 
0.018286581048660936 
-0.017043653869850132 
-0.013822055614332984 
0.041933783824515465 
-0.024569455207207623 
-0.0086443218891857720 
0.015323849766819080 
-0.023805210179995110 
0.019368259914368060 
0.012132862429607937 
-0.0069554147549267900 
0.0096739440466277300 
0.034495005373291476 
-0.030505749513015500 
0.023748909687323527 
-0.0084887302782101870 
0.051586605131882596 
0.014622530914956735 
-0.015493876366452723 
0.017895706042197562 
-0.011193704656217034 
-0.029653620912078807 
-0.017656973672498834 
0.027532887749590444 
0.012242979163645924 
-0.048981887494483546 
-0.032009431340111190 
-0.010203436567847458 
0.024745137986373348 
0.028836270194564112 
0.036856451117602120 
-0.027263755844773820 
-0.039610469639571454 
-0.049816501587372640 
-0.015728712844798095 
-0.011287739080531193 
0.0088437750288568370 
0.043256336719914410 
0.016003807006298360 
-0.034860461580128344 
0.038303260711464546 
-0.019414875898064753 
0.012629117376389234 
0.074679366701273370 
-0.014469397078830460 
-0.0072513547230289920 
0.0047815588126183000 
-0.012131577713435995 
0.042036105989901150 
-0.016395386578568726 
0.018161964438723067 
0.031636829539404526 
0.016940863862065125 
0.022985012319555388 
0.021429827026702430 
0.023507022440663005 
0.033590919025548490 
-0.023727361022850342 
-0.014538972689145090 
0.023863058086643785 
0.044835099174507315 
-0.039102156114808280 
0.024681957514820933 
0.016953053660861167 
0.020171756718463114 
-0.016088807169768977 
-0.081826274091683500 
0.028531766610504352 
-0.017880943486142192 
-0.011146199130276608 
0.029630591608302150 
-0.040497130178764890 
-0.016342069641943225 
-0.0057598198328269320 
0.032657229982213280 
0.042795359559240560 
0.039185212921986734 
-0.026250497285674190 
-0.016339447784223485 
-0.066324277465254770 
-0.0076170061081221210 
0.048532735549793295 
-0.019769038671898880 
0.0066859030882854520 
-0.021471529408432808 
0.037934613877111420 
0.014980437757715888 
-0.047302877871054060 
-0.0031369945441740360 
0.037943570149449664 
-0.028607732246994522 
-0.0085296790627347600 
0.031885358548701110 
-0.039538785630292660 
0.021207133013970840 
-0.027263755844773820 
-0.014835955709126427 
-0.033533944894107980 
-0.021544547712529845 
-0.046365149045151016 
-0.0076813713442135355 
0.020979530441570065 
0.019559803035844894 
-0.034048705735295816 
-0.017816209311572715 
0.034219463528601790 
-0.033786968518895365 
0.021784368301998760 
0.033028347765765240 
0.020455504962263280 
0.030065374524068187 
-0.013635984723367033 
0.022711045089376526 
0.018515452212913498 
0.014888140502173363 
0.023011305875333746 
0.0066123047044190460 
-0.013092054705347935 
-0.013196788162250327 
-0.014612514608043550 
-0.020469855110603195 
-0.021787893606264160 
-0.019485921770609430 
0.018688293052136970 
-0.022428716932561595 
-0.0063369044939978270 
0.050266256286968640 
-0.015776831390845066 
-0.040772488713442250 
0.023610274071576714 
-0.016830525972151417 
-0.0081334594155228910 
0.024751132311404644 
0.023286228190881397 
-0.0076982586960801460 
-0.017959873385303415 
0.023980847284673316 
-0.014271534613682014 
0.024037930027732620 
0.015311334369184313 
0.0075075308640101670 
-0.0060913503864512770 
-0.0052889314151540220 
0.033179914089031020 
-0.017952017519506553 
-0.015788125905985320 
-0.012703263644146380 
-0.028937696065137037 
0.00097972167813882120 
0.023451886557865990 
-0.017386984917519832 
-0.014404252864660953 
-0.048117715356618980 
0.022129258437356720 
0.026405903949294287 
-0.010691252835528383 
0.032575372672998155 
0.020575066297443052 
-0.011404746892590372 
-0.0073385454221039190 
-0.014628207310454593 
0.035350141919737205 
0.018581771857353380 
-0.010291923184017795 
0.010459835203873434 
-0.011994402276927555 
-0.027173422875392778 
-0.029864200785601960 
0.015436552245145153 
0.018525138205297883 
0.039783750179010376 
-0.0071077668646564570 
-0.041737918034525374 
-0.0050819111456787010 
-0.013761174043092933 
0.024548656785008940 
-0.0090902747264484870 
-0.0097841036351095560 
0.012827118384109298 
0.026899793476393794 
0.016339455008054147 
-0.027562462139562375 
0.034809287843728960 
0.022605006274915282 
-0.035171753885032380 
0.011804558801191392 
-0.034279079106388760 
-0.031507056737222550 
-0.040178982472629430 
-0.010049776911357266 
-0.010871796933372936 
0.013318436787121789 
-0.0097551911709598160 
-0.0097425022493794290 
-0.015926913012327026 
-0.013028519179125406 
0.027077583159317263 
0.033675871043644430 
0.022372011742674253 
-0.012761005463174200 
-0.018086736473112180 
-0.017525115955783820 
0.021789083250713926 
-0.0060347824403904420 
-0.073444818346385250 
0.030471778971287947 
-0.013212878994055195 
-0.012852251549564713 
0.022711045089376526 
-0.031028424423844445 
-0.081139579331462220 
-0.013642229134528783 
-0.015702903080206998 
0.024666788990383732 
-0.029966789415165358 
-0.010889388544660298 
0.024787211878811990 
0.020299947843567156 
-0.0099780538297713530 
0.023619402250837498 
-0.0038831253238795424 
-0.0077837404690476370 
-0.017586360004245908 
0.020261951293322500 
0.015391928763169638 
0.014405336915673365 
-0.025967873579970660 
-0.017726020706527137 
-0.044035538311268090 
0.019348178621092803 
0.024964701902759276 
0.0081340764265242260 
0.0083363736755896950 
0.019154280013104808 
-0.010628398318842970 
-0.024602869250487760 
-0.019027836303103972 
0.027257497106524240 
-0.013922173063999984 
0.021999492471133825 
0.032425677113975330 
-0.036680042983582870 
0.025835198780553376 
0.022416185320188750 
-0.015480236603151913 
0.039356717893986176 
0.0073269449552860600 
-0.0093926366497529420 
0.016259137704596820 
-0.029447846507184990 
0.014972089178004560 
0.020796729738361615 
-0.010645226708239327 
0.032463514380567000 
-0.016375638347217128 
-0.023805210179995110 
0.018158422985292770 
-0.023742694130222244 
-0.0081621470252676200 
-0.029912174497501363 
0.037365145762510570 
0.015019485515808818 
-0.018616707251650890 
0.036320208271601060 
0.023153540041440095 
-0.0063590742705059280 
0.021477963380093010 
-0.022285949181620537 
0.036494893571642890 
0.0067474019206660910 
-0.034918658936662864 
0.0095459928636726710 
-0.021471529408432808 
0.038256186408885264 
0.014641943754266954 
-0.033016222985787710 
-0.044324857972264920 
0.037078108456663574 
0.011510042438999961 
-0.045568444617823960 
0.020938014724214627 
0.040382668073006190 
0.037229841550370740 
-0.024639011514132617 
0.019174254276303800 
-0.064666200223259020 
0.013598645155229018 
0.052179314328663880 
0.025992965376562017 
0.030405346837782805 
0.032781205295199164 
-0.030947315381636295 
-0.010747058407917256 
-0.0024813248284517846 
-0.020453318807105304 
0.038491559765891250 
0.040971883374302210 
0.030206150038090610 
-0.056157626557575040 
-0.0082326302208037340 
-0.050734319382922220 
0.020225871576027990 
0.019404081293176258 
-0.019000511103997163 
0.021532064547907200 
-0.011963211833116695 
-0.016626142124691200 
-0.0090580210446626640 
0.014924590501702310 
0.047405134993001590 
0.012355367392058760 
-0.040950061176694980 
-0.027798973156334308 
-0.013197563258071776 
0.032653312472842935 
-0.0089001522691891780 
0.027458075059360015 
0.025464111873796273 
0.013494465164333268 
0.035678774778171676 
-0.068767087342833540 
-0.010991878827648778 
0.025818737406605296 
-0.044599952857300784 
0.0073269449552860600 
-0.039508083059906884 
0.023004850238924640 
-0.021471529408432808 
0.019777474182451360 
-0.033585146684500880 
0.039668010770047530 
0.014378652369298873 
0.045676368753334730 
0.021351297827273526 
0.016953114742017394 
0.020284962212063638 
0.023684494381105807 
0.046430164380184370 
0.010363602692459561 
0.022672522001468357 
-0.026343292113444920 
0.031566944367245620 
0.025636083190412745 
-0.020572732298792987 
0.018719065466055573 
-0.010920775784440460 
0 
0.013565588381474734 
-0.012028118030451571 
-0.017684300280343925 
-0.032051783290077880 
-0.026020158122845187 
-0.015933191290598323 
-0.031015646175687115 
0.0065580508427282580 
-0.030633828084359764 
0.022339071957644056 
-0.011664301148409929 
0.016451749547253224 
-0.042998580622238804 
-0.010049776911357266 
0.025507487431746488 
0.014384653153698239 
0.026041438031687570 
-0.022102176075963563 
-0.021829046771566070 
-0.022741227725689330 
0.029707079595048293 
-0.024863971936589720 
0.032676184544509615 
-0.016363029672294790 
0.026811432146571168 
-0.034431798923012990 
0.013545984297255727 
-0.018592868196432190 
0.035279638864322120 
0.014622316559617725 
0.030417288984605616 
0.0028810549890784920 
0.021040368529716780 
-0.022861000157470260 
0.0089133651457559620 
-0.022942979063113570 
0.013510375254363346 
0.0077847468103996150 
0.025110741996594715 
-0.021425911621485497 
0.016736995932465106 
0.029961144250391387 
-0.012668513805599132 
-0.018745768039554606 
0.052517107073742620 
0.024178950457036955 
0.013252176847453749 
-0.015289155644353780 
-0.014031783661097917 
-0.029748167179083993 
0.018050833030189457 
0.018500730432948600 
0.014717011667337620 
0.029721245458851277 
-0.0065673765581781500 
0.014976058438975624 
-0.029414376559171753 
-0.031301103289827326 
-0.043826474404756840 
0.030051206517354830 
0.027892052086726150 
0.028128687702346820 
-0.0035907692466104705 
0.029964478703646123 
0.027035681734336764 
0.012159073553615063 
0.024207077264904363 
-0.0017737027725920633 
0.0085943530315941930 
-0.011054777368158730 
-0.0032333548361452420 
0.019207848031680755 
-0.0018507383271023842 
-0.061761354992492010 
0.028292352341926594 
0.017669657221319450 
-0.021284469269106585 
-0.014004342763871920 
-0.010788454617020080 
0.016927303242644770 
0.0097757643735977080 
0.018710447631365880 
-0.037050142963518370 
-0.023480359746362638 
-0.033106620530539980 
-0.0043466037984404750 
0.0090579686008510230 
0.014396013382240593 
0.011414300860618912 
0.0094643119442423770 
-0.021066946894437190 
0.011840388033094470 
-0.023786883760657036 
0.0044220588696997000 
0 
-0.019346191796669118 
0.014797854689049653 
0.027039487309722367 
0.0053917357406893040 
0.010038788800596794 
0.018168077266219900 
0.022190075627232960 
0.021979788406776772 
-0.013101193667084593 
-4.7642092675588860e-06 
0.040309080593790080 
0.035544021575182000 
0.022344331922945680 
0.025608382645382910 
-0.034460041827610460 
0.051623996449652420 
0.014602663531083354 
-0.023845275614544840 
-0.030122145893765890 
-0.014262089765607616 
-0.031799408266848530 
0.0015275135132850200 
-0.030098544468815266 
0.016200980241547168 
0.021863099771410578 
-0.0044381839576359440 
-0.0072789588770431370 
0.031502825914014720 
-0.026782825857427285 
-0.020229667282422160 
0.013263856040225343 
0.027110402377520450 
0.030533930824288003 
-0.010760188809646206 
0.016829189531919003 
0.029625827092888128 
0.030063431564102152 
-0.016762654003743510 
-0.027795899593491460 
-0.026528857465344925 
0.016402227699476230 
-0.015679948584366410 
0.0027140588250842033 
0.0059540298573658310 
-0.0016810315626217683 
0.0020189352931016917 
0.0031396337034247644 
-0.013284419668848803 
-0.013487351371409063 
-0.0015746008287810514 
0.022730401596721410 
0.020332779396028490 
-0.014928580226431148 
-0.017059757716219790 
-0.014346840507295050 
-0.0063761658532250760 
-0.035170349027583000 
0.017340883518633544 
0.0099081316786239460 
-0.026535724219378030 
-0.017094199842194006 
-0.023126736393710295 
-0.031328483029492336 
0.018276363578687692 
0.021742025793693623 
-0.030141772050475968 
-0.020207705475305787 
-0.028446746045992215 
-0.018238391644913515 
-0.015380224914734883 
0.0082716137997011360 
-0.00089489645698432260 
0.018052343454565356 
-0.017915272835888890 
-0.0018217893475661882 
0.012888305952922336 
-0.0010709111191677380 
0.017628722926596445 
-0.025557902536464850 
0.0062728479514058200 
-0.0030829896149413647 
0.011994205337082425 
-0.0064448320631506540 
0.0071395788255912190 
-0.014076428433885048 
-0.00078389296031865660 
0.0050419199992108330 
-0.012145910734731400 
0.0064753964921127680 
0.019816023135363040 
0 
0.011638932982160127 
-0.0084029931585922290 
-0.029403673653607416 
-3.9435459046619610e-05 
0.010119331223990408 
0 
-0.010998063415949201 
-0.023128225746851666 
-0.0073391017123999810 
-0.022381352804221284 
-0.015296867951976600 
-0.0040138899300946615 
-0.010452573712431211 
-0.0059859443325504915 
0.024571224627795412 
0.012739533455430385 
0.011586340492774030 
-0.044422092910319880 
0.0095622873518635060 
0.018352669716163010 
-0.0057909128145179215 
-0.0093885142495545600 
0.018245461764495634 
0.019883708013196550 
0.014533703356735966 
-0.025845291452966320 
-0.0087513088552214170 
-0.0017749783097490968 
0.012580043628719749 
0.016680709969562760 
-0.0024052638429498570 
0.024949746889501500 
0.012447365601027136 
-0.026500488867192133 
-0.0026415205516169887 
-0.0043273929963438060 
-0.029605753384862418 
-0.030643123924006060 
0.023943779813857237 
-0.024274667824648113 
0.0099615000535487050 
0.019556992289539750 
0.025079324561767938 
-0.010933124364941640 
-0.010559559120800370 
-0.00097741347197935050 
0.029036650478512636 
0.0088181628791320870 
-0.011660371882213296 
-0.020468062290643987 
0.0064813334219369000 
-0.0026451853936791400 
-0.0095568264053881180 
-0.0035682693362890723 
0.0010468170106667650 
-0.025010461936356223 
0.0096171204455067880 
-0.013717326850511358 
-0.0025629392289752712 
-0.0010817001239359423 
-0.014103109792555770 
0.045719733798271710 
0.015945869426048460 
0.0072765637466862390 
0.013459131507089089 
0.012029473240472922 
0.032301876903124055 
-0.014376546780764832 
0.0035262732249602840 
-0.0053499301034541780 
0.0080270486308411710 
0.011272813094996299 
0.010726892397131597 
0.012722067583252390 
-0.00021966156170801290 
0.0062218252411631730 
0.013099487494672763 
0.027633485448000380 
-0.0034354910188946083 
-0.00096099399546875920 
-0.018988075610577960 
0.011294500277471985 
-0.019498535969665510 
0.0086632617962894180 
-0.011657829737761640 
0.028775402655829604 
0.022917267969753637 
-0.00072287402213158830 
0.0053423407720733064 
0.013086714554230007 
-0.0013883868289284364 
-0.0023149612427647193 
-0.0077532424944858630 
-0.0051287608664269040 
-0.00051720796610865470 
-0.017288068158631837 
0.015247687427048840 
0.032131384370706810 
0.030136985922307750 
0.028561977577148272 
-0.0096044620940868050 
-0.0044121473339159780 
0 
-0.011386840266921614 
0.0082091090868657260 
0.024439224832717262 
-0.020837233203666636 
-0.022967783970264284 
0.015899905283903070 
-0.016891951444529300 
0.016479028054777394 
-0.012267450171943793 
-0.037723224762019360 
0.0063289537560741700 
-0.018868172915967138 
0.015274040947401566 
-0.0089906967924676860 
-0.013565874927183766 
-0.024993048390803010 
-0.012731462884586597 
0.014838414474983984 
0.0070282200291223880 
0.023515557861630225 
-0.0028289337963222630 
0.021110309330842028 
0.0099309500070253100 
0.024265969432147105 
-0.021199418271301576 
0.012893960556605306 
-0.023352532363790160 
0.0068860356328881650 
0.011564243249634374 
-0.016902481536357962 
0.024198020498724913 
0.0087050056156272020 
-0.010117841536392743 
-0.019444021588067226 
-0.0010503038082920932 
0.023390671803798852 
0.0088965404092328500 
0.0074674605141596700 
0.0067627985299209380 
0.021262622709806390 
0.0035710333557028647 
0.045740806269818090 
0.0060503371429478990 
0.019269470380042137 
-0.016593744626187106 
-0.020943752315429318 
-0.016246322267447048 
-0.019264631345549156 
-0.0010154985199825770 
0.021642953400717653 
0.033656403964122866 
-0.00029553825798131030 
0.024589109372563700 
-0.054585063141301020 
-0.011391243546139455 
0.025305312963158080 
-0.017156684750467676 
-0.010240112456552288 
0.013220800583983838 
-0.0018568203153262785 
-0.0087370127653398550 
0.013584044324185883 
0.024489897995115785 
0.0095515188857102620 
-0.0093381435665970440 
-0.0022077281169164526 
0.011327017403439442 
0.025844486685152945 
0.0051320924832038255 
0.0013985808117481387 
0.014874557857371396 
-0.010469436842328218 
-0.023965419571558700 
-0.0096401741535456970 
-0.012245677680151834 
-0.013967851228658833 
-0.0068120958526208236 
0.013274490889639449 
0.020480187211789130 
-0.030121046772859310 
0.0031923189292337510 
-0.022451412829409587 
-0.030204388498771363 
-0.0077265387020662700 
0.0061026520382019780 
0.012427979034724701 
-0.012335612774802907 
-0.0075365586615952920 
0.017479645772723124 
0.0057561448836631140 
0.015845306623343252 
-0.017705121838743020 
-0.011146052625435545 
-0.019338583692804036 
0.012076509961432167 
0.016208183098554735 
0.0068236702531720445 
0.025440230808225453 
0.013987449275518513 
0.0067716539367479720 
-0.0060376122026919670 
0.010822802590311771 
0.016823031603071590 
0.011075423011345533 
-0.0098849708394050710 
-0.030830829091955413 
0.0067020956441438820 
-0.0057957090728718280 
0.0037625876231976560 
0.018443923160635117 
0.017337135422194592 
-0.034877895089000430 
-0.0025629706978984963 
0.011806143948710917 
0.0024809334842561337 
-0.012941400751390080 
-0.0054554419578500790 
0.015850508770625390 
-0.0084923836131178420 
-0.021088204372461773 
0.015294515072011280 
0.011974086687062598 
0.0047422870328284920 
-0.020022969603855547 
-0.023500636613454598 
-0.033307752283290824 
0.018351010255331233 
-0.012858659383761600 
-0.012310533554370777 
0.00026655068633058810 
0.025678748885653583 
-0.026593018179612318 
0.020701635135738490 
-0.027520019427556365 
-0.015795059370302775 
-0.030195046282431436 
0.0063346919784761660 
-0.0079717207471584650 
-0.010796356109622339 
0.0016826446954105114 
0.027999905926385342 
-0.016512995324802050 
0.017257088624252240 
0.015415557150156196 
-0.013162569571049400 
-0.0046077858239324280 
-0.016943386690456846 
0.0045859870699886205 
-0.020918168436360140 
-0.054375634861469820 
-0.010557327893864715 
0.019688333321814610 
0.020477441036913810 
-0.042030279297822870 
0.011837453779499680 
0.021339330638663670 
-0.00061916862685133060 
-0.0042968879046381370 
0.025111538559176060 
0.022444474634736512 
-0.0093240826550881950 
-0.030581475379157265 
-0.012122997282351725 
0.011441080386157515 
0.027446254685929036 
0.016842951717386225 
0.0053321369624086260 
0.011858371935453915 
0.0011997590887254290 
0.012420730645426196 
0.013261322166774184 
-0.028130375862090460 
0.011074473239330846 
-0.021658200242526206 
-0.0096742807552885070 
0.014159268478673900 
0.044488297866124380 
0.024746825212431024 
-0.0087321091787633980 
0.018239632985016817 
-0.012960145834566153 
0.012054446280876676 
-0.016603790402821172 
0.0037044502577128794 
-0.027814757547103778 
-0.0065224216714963780 
0.027389472750930340 
-0.021588216747243687 
0.025371643153405284 
-0.0080490972539353030 
0.029910723928387756 
-0.0027827354287010345 
-0.036133862034862980 
0.019336700715453540 
-0.010432781468129931 
0.026209737109979692 
-0.021529306534659908 
-0.010736623931797858 
0.0058978746847750990 
-0.016409385606750100 
-0.00032131121626139780 
-0.015276838719117730 
-0.0036053825884416243 
-0.016026870755528770 
-0.033861004275155725 
0.011061062401706396 
0.0024788667365106807 
-0.030022102669227570 
0.026042360203460513 
0.016109807979378752 
-0.0017447962153049230 
-0.0074104727805501290 
-6.4400229611756960e-05 
-0.010917227068524776 
-0.015439019162440150 
-0.0044596957923811670 
0.0035727658246738650 
-0.017277384117092755 
0.036626655385149550 
0.010676257036850538 
0.011132851091488927 
-0.015933911671764370 
0.017373927923847760 
0.011444177276184488 
-0.014236209682505538 
0.010604063035070867 
-0.0093134504876543570 
-0.0014448317886876577 
0.010121712824983270 
-0.027536198502900600 
-0.030960893395228537 
-0.0081062859677373480 
-0.022783217565933460 
-0.018505248670524818 
-0.013538605316943855 
-0.0044479861737945710 
-0.0082073028956679350 
0.037934926563075590 
0.0031195660668031970 
0.010621978322211907 
-0.027685737673577133 
0.0049338246374244940 
-0.044427825439265795 
0.0063641367339981680 
0.0040012388041607020 
0.020325671066296330 
-0.011464254717278067 
-0.020712312954541484 
0.0024513291583237347 
-0.0030193086632395554 
0.012650110431561862 
0.0050389988236955580 
-0.029489317038114204 
-0.013826118160544684 
0.016370565760206637 
0.0087553011349060070 
-0.0057860006553254900 
0.00072021021007446150 
0.021194382698885978 
-0.0034965991807238420 
0.014526323470704119 
-0.012278595241756968 
0.015554346891783803 
-0.0074700281839922470 
-0.013993985490536785 
-0.022960018510423720 
0.027031441574526070 
-0.016476921769345850 
-0.013886307007707764 
0.0024668038327163573 
0.0091572926827498200 
0.0052710816949858190 
-0.012418773339011840 
0.0069115762476142290 
-0.0033096206492994095 
-0.010982597931764258 
0.0019394476354179552 
0.029707154827988073 
0.020840107862630807 
-0.011155793358060407 
-0.011622392357084748 
-0.0018732244346561446 
-0.0017840905840074378 
-0.0072479492068251600 
-0.029061038008102686 
0.013826456573682859 
0.0055758515700534880 
0.019689576477737880 
0.089044199645508510 
-0.00048220671899630660 
-0.012615348978960144 
0.0045588530270733260 
-0.030478004436684622 
0.021002763337874455 
0.0077995804069851595 
-0.0095191858483843400 
-0.011098629376087885 
0.0034265160667445436 
0.0041316201510436390 
0.00045792312686319600 
0.018965046598564368 
-0.0045546254426019470 
-0.018635334242114766 
-0.0040821984978371890 
0.0025289858943495173 
0.0097471760092591120 
0.013868740797640580 
0.010298461072026126 
-0.0079854809968497780 
0.00080924676282213660 
0.017759369200592543 
-0.021220332388197870 
0.034757149506648730 
0.0086487187118806220 
0.023787302581368328 
0.020102297809429414 
-0.021872502564705694 
-0.0060334126273939720 
0.0097562289108108650 
0.012239318837977855 
0.010385746684497163 
0.024471260468045805 
0.015230937565522398 
-0.018160286840552670 
-0.0048051508763037425 
-0.035513887490230990 
0.013274201592165647 
-0.0055288484056758680 
-0.021649752837426133 
0.0066326544550216270 
0.022159765309114215 
-0.0034591019176558730 
0.026840752072364547 
0.012787247990569198 
-0.014987753034147050 
0.0084704198804937250 
0.018828511755138826 
0.0098760542823701710 
0.016593460080909353 
0.0036246010347847457 
0.020474498054234610 
0.0022449642203290270 
-0.010958748932936054 
-0.017716620732933484 
-0.015763541258832930 
-0.0041018724200298910 
-0.032089105779791204 
0.011808985333641680 
0.0060229745839501160 
0.028630842332229473 
0.0089911348226620580 
0 
-0.0092802098212190090 
0.015530900563646586 
0.012301733273928445 
0.0048746816801289270 
0.018445352276752734 
-0.016201512492927117 
-0.015321007846695517 
0.012918258947556077 
0.00062778234247892860 
0.013871901631197700 
-0.022354094186746150 
-0.016932185706993168 
0.011710538219268166 
0.0035141709674985990 
0.013023554311335953 
-0.0028147055158140536 
-0.012661143636838557 
0.0094741148383271960 
0.014189118371239252 
0.0075297070296331670 
0.010482215191152179 
0.012946980626090876 
-0.050807058257699660 
-0.010121633925940924 
-0.012716192402389274 
-0.015617876757332833 
0.028547635823118766 
-0.014830766496315224 
0.0092056037972343550 
0.012772658971416160 
0.021805872179032870 
0.0033694303465804140 
0.020333210641218718 
0.014818920207591192 
-0.031338663453008710 
0.035406128082020746 
-0.025007703175858872 
-0.018188408718843536 
0.010715770258419919 
-0.0067924165277856600 
0.0032459206061803934 
0.012661846300368948 
-0.0075850256230118750 
-0.012440311410246346 
0.0093378690098155010 
0.016010488032722314 
0.0084796654422072060 
0.0041712691780578540 
-0.0035086609847863846 
-0.022435659822110834 
-0.0088395327462576850 
-0.013339042236201028 
-0.020382650022181740 
-0.025575253202319850 
-0.013895816631466376 
0.00060831430087507870 
-0.020444476984637597 
0.0087737068027495860 
-0.022692592515356240 
4.8328545988618020e-05 
-0.016724937468512054 
0.0010957969723251167 
0.0089341248310937530 
0.0017420889237665478 
-0.018896142135220468 
-0.037117697331068046 
-0.014847853305766602 
0.011979034133335781 
-0.012468919698124442 
0.033674378325746470 
-0.010973257371899485 
0.030400625733958218 
-0.014187060003644570 
0.027019987098452113 
0.018858110907868986 
0.0046124805094865320 
0.013874205951469019 
-0.034983699819900405 
0.015068517895714088 
0.019529840191687240 
-0.039431029809340100 
0.037130635839120980 
-0.023594322191525696 
0.0045175342018103710 
-0.021078962433482870 
0.010776434203366157 
-0.033790034970827010 
-0.015821610368988343 
0.016293997534944170 
0.0080843679246326850 
-0.061417554019113384 
-0.019814517864667796 
-0.028974816885304965 
0.032494737186806476 
-0.0057537654995804040 
0.013994976247852849 
0.0090397024962497740 
-0.018385528041432100 
-0.021309163716265720 
-0.0039354810348780780 
0.011650807418044105 
-0.0031050404462952080 
0.032182299086304020 
0.030864647634613230 
-0.0053113519080998380 
-0.0037977766341566860 
0.0096658056504785180 
0.013380627235472908 
0.022644691303770267 
0.022609226335378946 
0.014096942073144210 
-0.016031988581153580 
-0.012931078242233903 
0.014661603015342717 
-0.0031191695645313950 
0.0096658056504785180 
0.041254536320324685 
0.0080050833901347120 
0.0067584668028994190 
0.051612113669957190 
-0.016966582448259530 
0.013270347678770740 
-0.0076080676997978300 
0.0096263313509568140 
-0.023681540642080723 
-0.069991483988557770 
0.025232814296105570 
-0.0057171279179630620 
-0.018385528041432100 
-0.0060004142171068210 
-0.028184543731539162 
-0.011457039996809880 
-0.0030677077345778080 
0.020962611371680740 
0.0030588045373886623 
-0.0067426358076591690 
-0.0031191695645313950 
0.039396063397729150 
0.031672348557942370 
-0.0078927836414682400 
-0.0060668255389903280 
0.017824617703853695 
-0.0053113519080998380 
0.0090713897913951400 
0.0093711493763155120 
-0.018385528041432100 
-0.035175311709843760 
-0.0081990061126787470 
-0.029857744853972590 
0.015965752581895950 
0.035556636373092140 
-0.016966582448259530 
0.022609226335378946 
0.010254587968705554 
0.031802054516522320 
0.0015266315492199608 
-0.013733181072289767 
0.014096942073144210 
0.013949609686367100 
-0.016814892922561723 
0.022270226100318170 
-0.0053933470688754676 
0.013428852200683003 
0.042094373771887184 
-0.013657458216955392 
-0.0060004142171068210 
-0.011795380747867446 
-0.018629713478811990 
0.0030588045373886623 
-0.011033864953711930 
0.032261214375709106 
-0.0057171279179630620 
0.012475377258997288 
0.030864647634613230 
-0.0053933470688754676 
-0.020153878441223500 
0.020283135470552032 
0.016451635768429444 
0.0030588045373886623 
0.0094441696920644200 
0.0090713897913951400 
0.021630534421701025 
-0.0057636246016455610 
0.013380627235472908 
0.0030588045373886623 
0.018990247827608334 
0.013470032778600760 
0.0080050833901347120 
-0.0078927836414682400 
-0.0082691031830694830 
0.029802953729366928 
0.0096658056504785180 
0.0093711493763155120 
0.017438440152052325 
0.023992175891821780 
-0.013733181072289767 
0.035556636373092140 
0.013428852200683003 
-0.014173722435785269 
0.037467879788806620 
-0.0079512373448746360 
0.018990247827608334 
0.012475377258997288 
0.015296616992360780 
-0.013697803808485115 
0.020484753329889967 
0.050471704801985790 
-0.0032728313970162713 
0.0090890498513902670 
0.021418695803126690 
-0.030580060335727000 
0.023992175891821780 
-0.018438871825000445 
0.026479562214139576 
0.019438015941905088 
-0.0051371352514310710 
-0.011457039996809880 
-0.0067426358076591690 
-0.034482582569242616 
-0.013430119260156163 
0.0096272840999623370 
0.018990247827608334 
-0.028458712571603140 
0.0069556493770456260 
-0.028661927656949720 
0.023781796711217350 
0.020481068417143724 
-0.011033864953711930 
-0.052310444184778880 
0.013470032778600760 
0.0096270657978638900 
0.019429626472930426 
0.0090890498513902670 
-0.013467582172724393 
0.026884237104143612 
-0.0040716492010401985 
0.023726021351468868 
-0.0069256888945131610 
0.017837453187323517 
-0.0064300655611223174 
0.037467879788806620 
-0.0060004142171068210 
-0.0060004142171068210 
0.020408615693452092 
-0.011996267604255120 
0.013276014073952947 
-0.0018156591266428558 
0.013276014073952947 
-0.034531079701414946 
0.010438594104113188 
-0.0089963436515503370 
0.013276014073952947 
0.0025059859451787726 
-0.0076080676997978300 
0.018990247827608334 
-0.020262343287102795 
-0.035226859656594610 
-0.0060004142171068210 
0.018990247827608334 
0.013470032778600760 
-0.032091203857591230 
0.010342181625548527 
-0.0014779999006494316 
0.040005592027670280 
-0.014857801835229036 
-0.0067426358076591690 
-0.0078927836414682400 
-0.0020226606681501167 
0.028967609552024340 
0.012357836311724222 
-0.0081990061126787470 
-0.0085399786893465000 
-0.014621865452904690 
-0.016031988581153580 
-0.0083759868184661940 
0.035556636373092140 
-0.018280170742795250 
-0.021309163716265720 
-0.0077931505919057315 
-0.044537422941421850 
0.013276014073952947 
0.034273794462598790 
0.0085888950345480930 
-0.013072968758335635 
0.0072459755632760120 
0.0090946389374132570 
-0.015528820113823486 
0.013949609686367100 
-0.015710236935362686 
0.038313098227832170 
-0.010661665934659899 
-0.0099242485914813920 
0.020408615693452092 
-0.011125852473017186 
-0.028212997617974547 
0.015965752581895950 
-0.013697803808485115 
0.024506476889222040 
0.016451635768429444 
0.039219020196856440 
0.0090890498513902670 
0.010342181625548527 
-0.015180970334411858 
0.014383366580288350 
-0.0079363655238931540 
-0.033204066062217650 
-0.015710236935362686 
-0.026576260714708252 
0.020481068417143724 
-0.016657368336004480 
0.051612113669957190 
0.011095668163046010 
0.019610335108350606 
-0.023512439987409928 
0.0096658056504785180 
-0.0077148849998049990 
-0.016814892922561723 
0.0023277395408212954 
0.013195062569895742 
-0.053609407516324060 
0.022324790876574924 
-0.013077717613315490 
-0.010646882333967201 
-0.028458712571603140 
0.017824617703853695 
0.019203045948429157 
0.0018947006122943294 
-0.016315176529228680 
-0.0052080290920175490 
0.017824617703853695 
-0.0020226606681501167 
-0.040584728873651380 
0.028036256283550057 
0.026884237104143612 
0.011413304331001906 
0.020484753329889967 
0.019203045948429157 
-0.026916877848495228 
-0.032091203857591230 
0.0093711493763155120 
0.010342181625548527 
0.0030588045373886623 
-0.034061216737613800 
0.030621293966429323 
-0.016965352531795947 
-0.042245245500992580 
-0.043175384810849524 
0.0067584668028994190 
0.013380627235472908 
0.069388493873771520 
-0.022327194402081297 
0.0030588045373886623 
-0.049947233930961110 
-0.015316779287767170 
0.0030588045373886623 
-0.0067426358076591690 
-0.034023881150410700 
-0.0078927836414682400 
0.036508615073225135 
0.013428852200683003 
0.0096658056504785180 
-0.027308991082591120 
-0.044537422941421850 
-0.040584728873651380 
-0.0083759868184661940 
0.013428852200683003 
-0.013967037480121652 
0.024427926225946816 
-0.022393558058459140 
0.023165902583636044 
0.020408615693452092 
-0.012931078242233903 
-0.0089963436515503370 
0.015456276276085066 
0.0079407551385292150 
0.029802953729366928 
-0.012931078242233903 
0.030621293966429323 
0.021449718767647690 
0.0080050833901347120 
-0.035175311709843760 
-0.022212269492675712 
-0.022393558058459140 
0.0085888950345480930 
-0.013870597190698303 
-0.013430119260156163 
0.020283135470552032 
0.020283135470552032 
0.029802953729366928 
-0.015293385022459458 
0.024427926225946816 
0.011095668163046010 
-0.0022717717454734912 
0.015296616992360780 
0.0096263313509568140 
0.0096263313509568140 
0.0068523202987969210 
-0.0063742446156609290 
-0.0089963436515503370 
-0.0085399786893465000 
0.0074319868626907140 
-0.017040860313985988 
-0.0090045217321978210 
0.017587826964385590 
0.019308959108178626 
0.032261214375709106 
0.026826280836145255 
-0.013918945026717693 
-0.011581005530162924 
-0.026230970063584456 
-0.079550606147317600 
0.025234602092825617 
-0.0081990061126787470 
0.0083286523131323990 
0.019173570334065530 
-0.0083759868184661940 
0.022654496164146595 
0.014661603015342717 
-0.046707273352241584 
0.0085362233602626990 
0.0096658056504785180 
-0.0075620229117901346 
0.031414950036231360 
-0.0067426358076591690 
-0.0020226606681501167 
-0.018443790286332064 
0.044413054594598315 
0.0045827796570738960 
0.0096263313509568140 
-0.030323526478700756 
-0.042245245500992580 
-0.0069872675291645760 
-0.013697803808485115 
-0.011457039996809880 
-0.0037977766341566860 
0.010438594104113188 
-0.012455186883787498 
-0.015316779287767170 
-0.021688124990454957 
0.030864647634613230 
-0.019952807379595452 
-0.0083759868184661940 
0.016555892990862980 
-0.027283430500628984 
-0.031722519410138480 
0.013183008227513228 
-0.0020226606681501167 
0.027325214245797000 
0.016555892990862980 
-0.0089963436515503370 
-0.0031191695645313950 
-0.026050236802127990 
-0.014173722435785269 
-0.0067426358076591690 
-0.016022883634684484 
-0.035113141102444394 
-0.035175311709843760 
0.0072459755632760120 
0.046186390508695200 
-0.012981395652485177 
0.014274821054949757 
-0.013697803808485115 
-0.055423725658433550 
0.013949609686367100 
0.0080050833901347120 
0.013994976247852849 
-0.026230970063584456 
0.0085888950345480930 
-0.012931078242233903 
-0.029375495204121010 
-0.0053113519080998380 
0.026884237104143612 
0.0085888950345480930 
0.041147509894345590 
0.0057707566595615790 
-0.0091313410127447530 
-0.10202889161513068 
0.016615639020791250 
-0.0060597809289538700 
-0.0079363655238931540 
0.026884237104143612 
0.027325214245797000 
-0.0078927836414682400 
-0.0093787543548172830 
0.018990247827608334 
-0.015710236935362686 
0.059096735733651110 
-0.036002606457523500 
0.0052051250087526545 
-0.078959113229605670 
-0.0013255480558137373 
-0.023512439987409928 
-0.018422736829892080 
-0.013098859823333718 
0.013270347678770740 
-0.069991483988557770 
0.013431123482362611 
0.012297393118024491 
-0.0079363655238931540 
0.010342181625548527 
-0.046707273352241584 
-0.016814892922561723 
-0.038251891118117280 
0.0057301020242573290 
0.024693508178596446 
0.012951439505227471 
-0.0065693879534047580 
-0.0076080676997978300 
0.0093711493763155120 
-0.033204066062217650 
-0.016814892922561723 
-0.0051371352514310710 
0.030197205968614160 
0.014494499667596512 
-0.0091313410127447530 
-0.027026622066030355 
-0.028661927656949720 
-0.0080440852314377230 
0.020348933120437690 
0.013380627235472908 
0.020894736030703710 
-0.023635883803852750 
0.026349902939743820 
-0.0079363655238931540 
0.0067586692776326270 
-0.0067426358076591690 
0.0096263313509568140 
-0.0077148849998049990 
-0.028458712571603140 
-0.0094321856379418700 
0.013994976247852849 
0.014383366580288350 
0.0094441696920644200 
-0.0089963436515503370 
-0.0057537654995804040 
0.012951439505227471 
0.0096658056504785180 
0.016555892990862980 
0.0094441696920644200 
0.032088620144481380 
0.030197205968614160 
0.026826280836145255 
-0.037024493579896450 
0.041254536320324685 
0.016555892990862980 
-0.0053208283696928320 
0.046590463182144630 
-0.0021662892511830067 
-0.043175384810849524 
0.0067584668028994190 
-0.030580060335727000 
0.010342181625548527 
-0.051860026595835160 
-0.029857744853972590 
0.017824617703853695 
-0.022327194402081297 
-0.027026622066030355 
0.018633401203211030 
0.013276014073952947 
-0.0079363655238931540 
0.026349902939743820 
-0.023512439987409928 
0.0059184697013150820 
0.016435853762302652 
0.011095668163046010 
-0.028147850921173667 
0.012357836311724222 
-0.0083759868184661940 
0.013093572308019103 
-0.0057171279179630620 
0.012376299847906985 
-0.025900945634283648 
0.011779710588104720 
0.0080050833901347120 
0.0096658056504785180 
0.0076612812555276610 
-0.0025826342219217230 
0.0083286523131323990 
-0.0067426358076591690 
0.022609226335378946 
-0.042245245500992580 
-0.0079363655238931540 
0.020283135470552032 
0.022609226335378946 
0.013276014073952947 
-0.012056375671719837 
-0.0057171279179630620 
-0.018152957979881360 
-0.10202889161513068 
0.028308515969960087 
-0.028458712571603140 
-0.015024137282358761 
-0.027026622066030355 
-0.0071546827080496650 
-0.019952807379595452 
0.011325535117312340 
-0.0088548277763397640 
0.0096263313509568140 
-0.0085399786893465000 
0.030621293966429323 
-0.0089963436515503370 
0.022438236743665612 
-0.028184543731539162 
0.041254536320324685 
-0.0077148849998049990 
-0.0077148849998049990 
-0.013697803808485115 
0.031662669293048305 
0.031414950036231360 
0.014274821054949757 
-0.0076080676997978300 
-0.0057171279179630620 
0.050462086318981570 
0.0096658056504785180 
0.013946918476681554 
0.021630534421701025 
0.020484753329889967 
-0.0062518938271065305 
-0.015559345310180765 
0.022993761232499615 
-0.0067426358076591690 
0.026728173703556495 
0.014096942073144210 
0.021630534421701025 
-0.045762362661531940 
0.0069825045774939840 
0.0025059859451787726 
-0.013657458216955392 
-0.0052080290920175490 
-0.011631718349750166 
0.038059429873231444 
0.027325214245797000 
-0.0083759868184661940 
0.014280605097843131 
-0.0083759868184661940 
0.014096942073144210 
-0.019362870618596255 
0.0017279145067362906 
-0.035656062127783210 
0.030621293966429323 
-0.0079363655238931540 
-0.052310444184778880 
0.0046517615081033675 
0.023992175891821780 
0.016655765303533007 
0.016435853762302652 
0.017438440152052325 
0.016435853762302652 
0.0083286523131323990 
-0.022350164149756460 
0.0096658056504785180 
0.042094373771887184 
-0.013430119260156163 
0.018041575763785556 
-0.016966582448259530 
0.022609226335378946 
-0.015316779287767170 
0.051688937737302716 
-0.026230970063584456 
-0.034531079701414946 
-0.014643013973418502 
-0.023472074992616967 
-0.010174912364954644 
-0.0090045217321978210 
0.017175694939719080 
-0.025900945634283648 
-0.013697803808485115 
-0.028661927656949720 
-0.013697803808485115 
-0.0078927836414682400 
-0.012931078242233903 
-0.0057537654995804040 
0.0030588045373886623 
0.025234602092825617 
-0.0057171279179630620 
0.014103145272618018 
0.014383366580288350 
0.0048462763820879900 
-0.027026622066030355 
0.0072459755632760120 
-0.0090045217321978210 
-0.0081990061126787470 
-0.079550606147317600 
-0.0085399786893465000 
0.013276014073952947 
-0.0079363655238931540 
0.016435853762302652 
-0.0053208283696928320 
0.014661603015342717 
-0.035670507712483306 
0.0080050833901347120 
-0.015710236935362686 
0.0096658056504785180 
-0.012483837884231894 
0.0011862714263683100 
-0.019362870618596255 
0.011095668163046010 
0.016451635768429444 
-0.032712533579056645 
0.026884237104143612 
-0.016657368336004480 
0.026728173703556495 
0.020283135470552032 
0.0085888950345480930 
0.014744801652857596 
-0.045762362661531940 
-0.0077521448931223120 
0.046186390508695200 
0.0096658056504785180 
0.013994976247852849 
-0.0089963436515503370 
-0.0078927836414682400 
-0.019362870618596255 
0.010342181625548527 
0.018990247827608334 
0.014274821054949757 
-0.019362870618596255 
0.020962611371680740 
-0.020262343287102795 
-0.0078927836414682400 
0.013949609686367100 
0.0083286523131323990 
-0.0057171279179630620 
0.023992175891821780 
0.011326575929795800 
-0.034061216737613800 
-0.0053113519080998380 
-0.031722519410138480 
-0.0083759868184661940 
0.020962611371680740 
-0.014173722435785269 
-0.021823185237433880 
0.020846655806158527 
0.026728173703556495 
0.046590463182144630 
-0.019362870618596255 
0.0061045310990502130 
-0.034531079701414946 
-0.018042254374731698 
0.015296616992360780 
0.033941076847974380 
0.0084459969733921120 
0.026826280836145255 
-0.027026622066030355 
0.014383366580288350 
-0.015710236935362686 
0.018990247827608334 
0.030197205968614160 
-0.0040532383924585880 
0.034047563308476150 
0.0083719183301813860 
0.034056766050092974 
-0.019362870618596255 
-0.0053113519080998380 
-0.0077931505919057315 
-0.0053933470688754676 
0.050471704801985790 
-0.016657368336004480 
0.030864647634613230 
0.015296616992360780 
0.011323857285940054 
0.014188609741908708 
-0.011457039996809880 
-0.011457039996809880 
-0.011457039996809880 
-0.016657368336004480 
0.0011862714263683100 
0.0095923462250614380 
0.0069139946705158200 
-0.070971076209476290 
0.020283135470552032 
0.022429874704373510 
-0.0067426358076591690 
-0.0020226606681501167 
0.0067584668028994190 
0.023165902583636044 
-0.013658109194042286 
-0.0040653056235308250 
0.030197205968614160 
-0.0021112961672878080 
-0.0077148849998049990 
0.013119816380883519 
-0.0060004142171068210 
-0.0057171279179630620 
0.046186390508695200 
-0.0053933470688754676 
-0.0087009949591845600 
0.022609226335378946 
-0.0078927836414682400 
0.021630534421701025 
-0.0079363655238931540 
0.013949609686367100 
0.030864647634613230 
-0.011457039996809880 
0.0036768271513422227 
0.020348933120437690 
0.014697950505267421 
0.0072459755632760120 
-0.012931078242233903 
0.020283135470552032 
-0.023472074992616967 
0.029802953729366928 
0.016656584053440577 
-0.0087523116706069750 
0.0067584668028994190 
-0.026916877848495228 
0.016638793112701708 
0.010519681612504153 
-0.018385528041432100 
-0.0031273805813690420 
-0.026576260714708252 
0.0083286523131323990 
0.0090890498513902670 
0.014494499667596512 
0.010707898419170785 
0.020962611371680740 
-0.0077148849998049990 
0.041875502302078156 
-0.014601453885231050 
-0.0079512373448746360 
0.026341315919406357 
0.014383366580288350 
-0.014492801406240673 
0.014383366580288350 
-0.0078927836414682400 
0.020757957757752590 
-0.0012140810643401674 
0.019567936137105616 
-0.013697803808485115 
0.0090890498513902670 
-0.0077148849998049990 
-0.023624550395719437 
0.011095668163046010 
0.0080050833901347120 
0.016451635768429444 
0.026687393644666216 
0.0078059292845904290 
-0.016657368336004480 
-0.0089963436515503370 
0.0096263313509568140 
-0.0079512373448746360 
-0.0079363655238931540 
0.0080050833901347120 
0.030864647634613230 
-0.033735417806645490 
0.0085888950345480930 
-0.038787943839400964 
-0.0089963436515503370 
0.014274821054949757 
-0.0051371352514310710 
0.018191416593654697 
-0.021309163716265720 
0.016947123285321445 
0.010342181625548527 
-0.022393558058459140 
-0.10202889161513068 
0.00088995545161020520 
-0.0057281135742070595 
-0.044537422941421850 
-0.010409828588731839 
0.022324790876574924 
-0.0078927836414682400 
0.015296616992360780 
-0.022393558058459140 
0.031414950036231360 
0.0015266315492199608 
-0.038474707614728335 
0.0072459755632760120 
0.0085888950345480930 
-0.0090045217321978210 
-0.0033510518387013404 
0.036089502601528580 
0.020283135470552032 
-0.0079363655238931540 
-0.051860026595835160 
-0.037024493579896450 
-0.0037977766341566860 
-0.023512439987409928 
0.0085888950345480930 
-0.0079363655238931540 
-0.026232323063654587 
-0.079550606147317600 
0.017462258551583890 
-0.0081990061126787470 
-0.0083759868184661940 
-0.0079363655238931540 
-0.0053113519080998380 
0.016451635768429444 
0.026728173703556495 
-0.0079363655238931540 
0.010210897539246302 
0.020283135470552032 
0.013994976247852849 
-0.016814892922561723 
0.0085888950345480930 
0.010342181625548527 
-0.055423725658433550 
-0.032522006183922830 
0.018191416593654697 
-0.0079512373448746360 
0.024427926225946816 
0.0069825045774939840 
-0.011125852473017186 
0.018191416593654697 
0.013380627235472908 
-0.053609407516324060 
-0.0037253426299010232 
-0.015097663216696857 
0.016683026025356130 
-0.042861761667837660 
-0.0054900493358251640 
-0.0079363655238931540 
0.025234602092825617 
0.017824617703853695 
-0.015316779287767170 
0.0081239143721470940 
-0.016031988581153580 
0.021741405736233280 
0.013428852200683003 
0.0090890498513902670 
0.0096658056504785180 
-0.0057636246016455610 
-0.014173722435785269 
-0.10202889161513068 
0.014383366580288350 
-0.013697803808485115 
-0.013657458216955392 
0.0010302467347105618 
0.0076184059245841780 
-0.015559345310180765 
-0.026232323063654587 
-0.0081990061126787470 
0.015587747392622860 
0.020962611371680740 
0.041241088549820460 
-0.0078927836414682400 
0.018095961501239596 
0.026687393644666216 
0.0080050833901347120 
0.014661603015342717 
-0.0053933470688754676 
0.014661603015342717 
-0.015180970334411858 
-0.019362870618596255 
0.015965752581895950 
-0.014765626001177468 
-0.011457039996809880 
-0.044537422941421850 
0.023992175891821780 
-0.0067426358076591690 
0.011095668163046010 
0.0096658056504785180 
-0.015316779287767170 
0.011095668163046010 
-0.0067426358076591690 
-0.026232323063654587 
-0.0075057836612481150 
-0.011033864953711930 
0.0096658056504785180 
0.017802774500496547 
-0.011033864953711930 
0.0067584668028994190 
0.020484753329889967 
-0.011033864953711930 
0.031802054516522320 
-0.034531079701414946 
0.0096658056504785180 
0.035611667970905730 
-0.028866167563004395 
0.016435853762302652 
0.033191904920590584 
0.027325214245797000 
-0.015710236935362686 
0.038059429873231444 
-0.011866158347207340 
0.0015266315492199608 
0.030197205968614160 
6.7400850864786450e-05 
-0.055423725658433550 
0.018660771652743297 
0.0068327975900755390 
0.0085888950345480930 
-0.013098859823333718 
-0.014197343852520770 
0.0072459755632760120 
-0.0065693879534047580 
-0.013657458216955392 
0.046186390508695200 
0.021630534421701025 
0.020348933120437690 
-0.020314468323100040 
0.025234602092825617 
-0.0078927836414682400 
-0.044537422941421850 
-0.011795380747867446 
0.014383366580288350 
0.016555892990862980 
0.0030588045373886623 
-0.021823185237433880 
-0.026230970063584456 
-0.0067426358076591690 
0.044823277762165820 
-0.0057171279179630620 
-0.025843734033368385 
-0.0031191695645313950 
0.030197205968614160 
-0.033204066062217650 
-0.0052080290920175490 
-0.016022883634684484 
0.0080050833901347120 
-0.0090045217321978210 
0.012059698512500557 
0.0030588045373886623 
0.012440413414138225 
-0.023557704752092880 
-0.0020226606681501167 
-0.0051371352514310710 
-0.0070923115475039360 
0.0064226189481065470 
-0.016504274868916306 
0.0093711493763155120 
-0.0090045217321978210 
-0.012438709699166385 
-0.0078927836414682400 
-0.0020226606681501167 
0.0090890498513902670 
0.0090142943252436050 
0.020962611371680740 
-0.011033864953711930 
0.0096263313509568140 
0.020484753329889967 
0.023165902583636044 
0.026728173703556495 
0.035355325100203650 
0.023054942663552274 
0.024427926225946816 
0.020318857213693586 
-0.0053113519080998380 
-0.023472074992616967 
0.0083286523131323990 
0.0083286523131323990 
0.020408615693452092 
-0.034531079701414946 
-0.0091313410127447530 
0.013428852200683003 
0.059096735733651110 
0.016638793112701708 
0.0094441696920644200 
0.0094441696920644200 
-0.0053113519080998380 
-0.0079512373448746360 
-0.0091313410127447530 
0.030864647634613230 
0.012385567770520897 
-0.030580060335727000 
0.011095668163046010 
-0.019362870618596255 
-0.0078927836414682400 
0.0083286523131323990 
0.018677177555037490 
0.0096658056504785180 
0.013470032778600760 
0.0015266315492199608 
-0.055423725658433550 
-0.032712533579056645 
0.014096942073144210 
-0.016657368336004480 
-0.0037977766341566860 
0.012440413414138225 
0.011325535117312340 
0.038967301064177000 
-0.011581005530162924 
0.026884237104143612 
0.0085888950345480930 
-0.028458712571603140 
-0.019362870618596255 
-0.0019370570199834284 
0.018095961501239596 
-0.028661927656949720 
-0.020688486786650473 
-0.0089963436515503370 
0.0085888950345480930 
0.0067584668028994190 
0.027098157231074440 
0.0057946193499641300 
0.059096735733651110 
-0.015793899191829250 
-0.052310444184778880 
0.026623079092693673 
0.0072459755632760120 
0.0072459755632760120 
0.021579948008416408 
0.0096658056504785180 
-0.0065693879534047580 
-0.0094035916520172300 
0.014661603015342717 
-0.0065693879534047580 
0.012440413414138225 
0.012440413414138225 
-0.0078927836414682400 
0.031942076039243820 
-0.026230970063584456 
-0.0037977766341566860 
0.0090890498513902670 
0.046696308019444160 
0.018191416593654697 
0.017438440152052325 
-0.055423725658433550 
-0.045762362661531940 
-0.0076080676997978300 
-0.0053113519080998380 
-0.12219054267182661 
0.014697950505267421 
0.014697950505267421 
0.014697950505267421 
0.022429874704373510 
0.031802054516522320 
-0.0085399786893465000 
-0.022212269492675712 
0.0090713897913951400 
-0.0076080676997978300 
0.011323857285940054 
-0.0057171279179630620 
-0.0052080290920175490 
0.022609226335378946 
0.012357836311724222 
-0.0020226606681501167 
0.012351154691182897 
0.0072459755632760120 
-0.013657458216955392 
0.031942076039243820 
0.0030588045373886623 
0.029802953729366928 
0.026728173703556495 
-0.0052080290920175490 
-0.021823185237433880 
-0.0020226606681501167 
-0.051426464800301730 
-0.0089963436515503370 
-0.011601605129437264 
-0.0052080290920175490 
-0.022071262226063810 
0.041254536320324685 
0.0050454331986464130 
0.035103142088031840 
-0.026230970063584456 
0.0085888950345480930 
-0.0076080676997978300 
0.035355325100203650 
0.014274821054949757 
-0.0076080676997978300 
-0.0076080676997978300 
-0.012931078242233903 
-0.013430119260156163 
0.020481068417143724 
-0.0079363655238931540 
0.014661603015342717 
0.010342181625548527 
0.012357836311724222 
-0.056999757624295240 
0.0096263313509568140 
0.0096263313509568140 
0.012475377258997288 
-0.020262343287102795 
0.053529299699886845 
-0.0031191695645313950 
0.0080050833901347120 
0.0094441696920644200 
-0.019971631173286115 
0.026728173703556495 
0.031802054516522320 
0.020962611371680740 
0.026826280836145255 
0.012440413414138225 
0.020962611371680740 
-0.0078927836414682400 
-0.016814892922561723 
0.0096263313509568140 
-0.011457039996809880 
0.014797354081413994 
-0.0089963436515503370 
0.011744073863106243 
0.018990247827608334 
0.014383366580288350 
-0.030108195542467433 
-0.0031191695645313950 
-0.042245245500992580 
0.012440413414138225 
0.020962611371680740 
-0.0053933470688754676 
-0.017930180920621614 
0.021347729983853248 
0.0096658056504785180 
-0.0077148849998049990 
0.020348933120437690 
-0.053609407516324060 
0.016451635768429444 
-0.019952807379595452 
0.034056766050092974 
0.031414950036231360 
0.013470032778600760 
-0.028898948612842288 
0.041254536320324685 
0.032261214375709106 
0.046590463182144630 
0.010540188669748403 
0.022993761232499615 
0.048858569503272690 
-0.0090642099164942170 
0.034516978326720960 
-0.0086912255011453960 
-0.0078359276004550290 
0.045662877381811120 
0.013556293725771476 
-0.0077148849998049990 
0.0094441696920644200 
-0.015180970334411858 
-0.028184543731539162 
-0.016657368336004480 
0.050462086318981570 
0.046590463182144630 
-0.0020226606681501167 
-0.0076080676997978300 
0.013994976247852849 
0.020962611371680740 
-0.040584728873651380 
0.041147509894345590 
0.012475377258997288 
0.0025059859451787726 
0.013470032778600760 
0.013276014073952947 
-0.0021112961672878080 
0.027325214245797000 
0.0085888950345480930 
0.011325535117312340 
-0.059432949218557380 
-0.0097955435693679820 
-0.014173722435785269 
-0.014617470008916000 
-0.028184543731539162 
0.014697950505267421 
-0.0078927836414682400 
-0.0087523116706069750 
0.027325214245797000 
0.014494499667596512 
0.0094441696920644200 
-0.0051371352514310710 
0.026349902939743820 
0.0048462763820879900 
-0.0031191695645313950 
-0.037024493579896450 
0.026623079092693673 
0.041241088549820460 
0.013678259535458577 
0.0015266315492199608 
0.018990247827608334 
0.020321054972434640 
0.0067584668028994190 
0.015965752581895950 
0.020348933120437690 
0.014697950505267421 
-0.016657368336004480 
0.013994976247852849 
-0.011033864953711930 
0.045796212059387950 
0.0015266315492199608 
-0.016265563525260995 
-0.026232323063654587 
-0.0067426358076591690 
0.020846655806158527 
-0.035175311709843760 
0.036508615073225135 
0.024427926225946816 
0.014661603015342717 
0.010342181625548527 
0.014661603015342717 
-0.029326059618024224 
-0.0051371352514310710 
0.048627800304784606 
0.0080050833901347120 
-0.0065693879534047580 
0.0080050833901347120 
-0.0080440852314377230 
-0.0076080676997978300 
-0.0076080676997978300 
-0.0084968621476272320 
0.0090890498513902670 
-0.0057171279179630620 
0.026884237104143612 
-0.015559345310180765 
0.013470032778600760 
0.020348933120437690 
0.0064075191742538900 
0.0085888950345480930 
0.0080050833901347120 
0.035698396385717820 
-0.0091313410127447530 
-0.035144597341847410 
-0.014643013973418502 
-0.0046684338224859700 
0.013949609686367100 
-0.0065693879534047580 
0.020846655806158527 
0.013380627235472908 
0.014274821054949757 
0.019065666203359090 
-0.0083759868184661940 
-0.034531079701414946 
0.018990247827608334 
0.014383366580288350 
0.013949609686367100 
-0.037024493579896450 
0.0070202157710131975 
-0.014173722435785269 
0.012951439505227471 
-0.0080440852314377230 
0.0067584668028994190 
-0.010920501384865650 
0.0090713897913951400 
-0.0091313410127447530 
-0.0085399786893465000 
0.0080050833901347120 
0.0071993096352073035 
-0.051426464800301730 
0.0083286523131323990 
0.0083286523131323990 
-0.0052080290920175490 
-0.0086972477438337460 
0.038059429873231444 
-0.028184543731539162 
0.041254536320324685 
0.012951439505227471 
-0.016657368336004480 
0.050471704801985790 
-0.012165157358766025 
-0.012931078242233903 
-0.031892080941730020 
-0.028458712571603140 
0.012019475347434071 
-0.0076080676997978300 
-0.010920501384865650 
0.0080050833901347120 
0.020846655806158527 
-0.0053113519080998380 
0.026884237104143612 
-0.029857744853972590 
-0.033204066062217650 
-0.022212269492675712 
0.037467879788806620 
0.013994976247852849 
0.010342181625548527 
-0.043175384810849524 
0.0072459755632760120 
0.0083286523131323990 
-0.0022397722557926853 
-0.034531079701414946 
-0.013430119260156163 
0.018095961501239596 
-0.0085399786893465000 
0.0064226189481065470 
-0.0080440852314377230 
-0.0042643399228717310 
-0.0063064801799657560 
-0.059432949218557380 
0.021916058957197240 
-0.0026837408015152665 
-0.0089697113976479020 
0.014274821054949757 
-0.0080440852314377230 
0.020283135470552032 
0.0096658056504785180 
0.025131771698028210 
0.020408615693452092 
-0.030580060335727000 
-0.028793034032982590 
0.0085888950345480930 
0.010342181625548527 
0.019203045948429157 
0.0096263313509568140 
0.0059705109994349850 
-0.034531079701414946 
-0.033735417806645490 
0.021449718767647690 
0.023749764384544514 
-0.015710236935362686 
-0.032091203857591230 
-0.022393558058459140 
0.0083286523131323990 
0.015965752581895950 
-0.0076080676997978300 
0.0085864481007056660 
0.036508615073225135 
-0.0077148849998049990 
0.042094373771887184 
-0.051434968794986180 
0.035355325100203650 
0.080499443449122850 
0.020484753329889967 
-0.0089963436515503370 
-0.0082691031830694830 
0.031414950036231360 
-0.019952807379595452 
-0.0083759868184661940 
0.029245923230968520 
-0.0054900493358251640 
0.0016083497004193731 
-0.016031988581153580 
-0.034169562964924060 
0.020408615693452092 
-0.0090045217321978210 
0.011325535117312340 
-0.0080440852314377230 
-0.034061216737613800 
0.0085888950345480930 
0.025234602092825617 
0.014661603015342717 
-0.043175384810849524 
-0.0057537654995804040 
-0.011125852473017186 
0.014096942073144210 
0.017824617703853695 
0.0085888950345480930 
-0.011033864953711930 
-0.0083019313736731670 
0.020408615693452092 
-0.029857744853972590 
0.0095923462250614380 
0.035355325100203650 
-0.044537422941421850 
0.027325214245797000 
0.022559356539968830 
0.035556636373092140 
-0.011996267604255120 
0.0096263313509568140 
0.026687393644666216 
-0.0031749167710790446 
-0.0085712948596348510 
0.0080050833901347120 
-0.0060443116414654780 
-0.026046311708888890 
-0.035175311709843760 
-0.015710236935362686 
-0.035113141102444394 
0.0080050833901347120 
0.034056766050092974 
0.016656584053440577 
-0.011581005530162924 
0.0085888950345480930 
0.020283135470552032 
-0.015839608817703860 
-0.011956939185654002 
-0.0070272800056331560 
-0.013576025639612820 
-0.016170202627968453 
-0.044537422941421850 
-0.034531079701414946 
-0.016031988581153580 
-0.011125852473017186 
-0.0065693879534047580 
-0.078959113229605670 
0.0030588045373886623 
-0.0091313410127447530 
0.032182299086304020 
0.013470032778600760 
0.072029004552078830 
-0.0020226606681501167 
-0.0053113519080998380 
-0.0093929441444893300 
-0.0067426358076591690 
-0.0053933470688754676 
0.0030588045373886623 
0.023992175891821780 
-0.013430119260156163 
0.020484753329889967 
0.020408615693452092 
-0.0076080676997978300 
0.018191416593654697 
-0.021309163716265720 
-0.0050411360675838880 
0.046186390508695200 
0.0080050833901347120 
0.035355325100203650 
0.013270347678770740 
-0.0079363655238931540 
0.031672348557942370 
0.014096942073144210 
-0.015710236935362686 
0.019335041727589732 
-0.015316779287767170 
-0.0098975793663570960 
0.013380627235472908 
-0.014173722435785269 
-0.0031191695645313950 
-0.020262343287102795 
0.012357836311724222 
0.011323857285940054 
-0.052310444184778880 
-0.043175384810849524 
0.046590463182144630 
0.023992175891821780 
0.012921057569271577 
-0.011033864953711930 
0.018827128545613685 
0.020962611371680740 
0.020962611371680740 
0.016555892990862980 
0.026623027801322877 
0.036508615073225135 
-0.015710236935362686 
-0.015180970334411858 
0.016861559641316068 
0.012947067117708495 
-0.0089963436515503370 
0.013470032778600760 
-0.037024493579896450 
-0.011996267604255120 
-0.049947233930961110 
-0.011125852473017186 
-0.015316779287767170 
0.033191904920590584 
0.0096658056504785180 
0.011623225379661544 
-0.0013924324101221922 
0.022993761232499615 
0.024427926225946816 
-0.026916877848495228 
0.020283135470552032 
-0.025851760329019702 
0.0069825045774939840 
0.014383366580288350 
0.0015266315492199608 
-0.0062516919766034170 
0.013470032778600760 
0.015296616992360780 
-0.015559345310180765 
-0.043175384810849524 
0.018191416593654697 
0.014383366580288350 
-0.034061216737613800 
0.0097491966616654600 
0.0096658056504785180 
-0.0076080676997978300 
0.020408615693452092 
-0.010803494980900632 
-0.019952807379595452 
-0.011996267604255120 
-0.0053113519080998380 
-0.0060004142171068210 
-0.0032728313970162713 
0.017802774500496547 
0.012475377258997288 
0.045796212059387950 
0.012475377258997288 
0.036508615073225135 
-0.0076080676997978300 
0.018990247827608334 
-0.022212269492675712 
0.048627800304784606 
0.020475770876246220 
0.0096658056504785180 
0.020408615693452092 
0.0096658056504785180 
0.016793677777183700 
-0.019952807379595452 
-0.0052080290920175490 
-0.0079363655238931540 
-0.037613551434906640 
0.017438440152052325 
0.0090713897913951400 
0.0096658056504785180 
-0.028817474138365920 
-0.0053113519080998380 
0.0093711493763155120 
-0.015311965878877712 
0.0068073033099533330 
0.022721250007143774 
-0.045762362661531940 
-0.0079363655238931540 
0.0067584668028994190 
0.0067075231416726600 
0.013093572308019103 
0.0076777696531930865 
-0.0092268121350570620 
0.044823277762165820 
0.017824617703853695 
0.023165902583636044 
-0.034726025922634934 
-0.012931078242233903 
-0.013697803808485115 
0.027098157231074440 
0.014494499667596512 
0.010342181625548527 
-0.0085399786893465000 
0.018990247827608334 
-0.0079363655238931540 
-0.038474707614728335 
0.020348933120437690 
0.014096942073144210 
0.012357836311724222 
-0.013967037480121652 
0.040999258232178176 
0.011325535117312340 
-0.020262343287102795 
-0.0053933470688754676 
-0.0031191695645313950 
-0.035175311709843760 
0.014281850606026795 
-0.016657368336004480 
0.013270347678770740 
0.0078510239153021430 
-0.026576260714708252 
0.017802774500496547 
-0.044537422941421850 
-0.026916877848495228 
-0.015180970334411858 
0.026884237104143612 
-0.0053933470688754676 
-0.012890993046312936 
-0.019952807379595452 
-0.0051371352514310710 
0.024427926225946816 
-0.0057171279179630620 
-0.0095784016472650180 
-0.027026622066030355 
0.0085888950345480930 
0.020484753329889967 
0.010342181625548527 
0.024427926225946816 
-0.0065693879534047580 
0.014494499667596512 
-0.011996267604255120 
-0.0051371352514310710 
-0.019952807379595452 
0.012772430496712960 
0.020283135470552032 
0.037467879788806620 
0.0093711493763155120 
0.0030588045373886623 
-0.042245245500992580 
-0.016657368336004480 
-0.034531079701414946 
0.010342181625548527 
0.035556636373092140 
-0.053609407516324060 
-0.011033864953711930 
0.026884237104143612 
0.017824617703853695 
0.012440413414138225 
0.020348933120437690 
0.0030132623353192430 
0.038059429873231444 
0.013463654505647007 
-0.015292498041587964 
-0.0063319844382739030 
0.0090713897913951400 
0.0096658056504785180 
-0.052310444184778880 
0.014274821054949757 
-0.021309163716265720 
-0.012318646561525306 
-0.0077422421118789570 
0.0085888950345480930 
-0.0079363655238931540 
-0.0060004142171068210 
0.030864647634613230 
0.0085888950345480930 
0.0096658056504785180 
-0.044537422941421850 
0.019203045948429157 
-0.032091203857591230 
-0.028446011714741162 
-0.016657368336004480 
-0.0091313410127447530 
0.0086178117996063620 
0.017824617703853695 
-0.0089963436515503370 
0.019203045948429157 
-0.0060004142171068210 
0.017724854446966642 
0.029261101948227702 
-0.027026622066030355 
0.0096658056504785180 
0.020481068417143724 
-0.0088716922973093080 
0.0080050833901347120 
0.042094373771887184 
-0.021309163716265720 
-0.010646882333967201 
-0.025975495049659052 
-0.0079221728827655000 
-0.013098859823333718 
-0.0067426358076591690 
0.010890003773175092 
0.0090890498513902670 
0.012951439505227471 
-0.019952807379595452 
-0.013657458216955392 
0.0096658056504785180 
0.041254536320324685 
0.0090890498513902670 
-0.0076080676997978300 
0.026623079092693673 
-0.022638100103676790 
0.0083286523131323990 
0.0085864481007056660 
0.021347729983853248 
0.020408615693452092 
-0.0081240599490928420 
0.035355325100203650 
0.023165902583636044 
-0.013967037480121652 
0.0015266315492199608 
0.0096263313509568140 
-0.036002606457523500 
0.0058123742313782430 
-0.033204066062217650 
-0.026576260714708252 
0.018095961501239596 
0.044823277762165820 
0.017824617703853695 
0.014274821054949757 
0.022429874704373510 
0.018990247827608334 
0.027325214245797000 
-0.0090045217321978210 
-0.0077148849998049990 
-0.0090642099164942170 
-0.022393558058459140 
0.026623027801322877 
-0.019548784893352142 
-0.018280170742795250 
-0.031722519410138480 
0.014661603015342717 
-0.0086164542501711920 
-0.013467582172724393 
0.015930815134159050 
-0.0031725763019296686 
-0.0090045217321978210 
-0.0096551816989926200 
-0.0050411360675838880 
-0.015316779287767170 
-0.0089963436515503370 
-0.022393558058459140 
-0.020314468323100040 
0.0083286523131323990 
-0.0067426358076591690 
0.0080050833901347120 
0.026826280836145255 
0.013276014073952947 
0.010438594104113188 
0.0085888950345480930 
-0.0070272800056331560 
-0.0048086576544837485 
-0.0039662811048811740 
0.0048462763820879900 
0.012091277444399183 
-0.026916877848495228 
-0.013657458216955392 
0.020408615693452092 
0.013276014073952947 
-0.0020226606681501167 
-0.035175311709843760 
0.0094734838049188480 
-0.0057312254363634275 
-0.0081990061126787470 
-0.0057636246016455610 
-0.0067426358076591690 
-0.0043303025425482510 
0.045782315960920084 
0.021630534421701025 
0.0073707513894193475 
0.022721250007143774 
0.027325214245797000 
-0.021823185237433880 
-0.033204066062217650 
-0.035264098667171570 
-0.013467582172724393 
-0.044537422941421850 
0.012951439505227471 
0.0083286523131323990 
-0.0037977766341566860 
0.0029534800222358430 
-0.0060004142171068210 
0.020962611371680740 
-0.0062251998193852435 
-0.0083759868184661940 
-0.019362870618596255 
-0.051434968794986180 
0.060478599727707735 
-0.013430119260156163 
-0.0037977766341566860 
0.0015266315492199608 
-0.037024493579896450 
-0.019952807379595452 
0.035614369600558350 
0.021449718767647690 
0.0015266315492199608 
0.0096658056504785180 
-0.019362870618596255 
-0.014173722435785269 
0.080499443449122850 
-0.0079512373448746360 
-0.015310200639603463 
-0.016966582448259530 
-0.0079512373448746360 
-0.015559345310180765 
-0.0093027415083945970 
0.0096658056504785180 
0.023165902583636044 
0.013270347678770740 
-0.034531079701414946 
0.022609226335378946 
-0.016031988581153580 
-0.0060004142171068210 
0.014096942073144210 
0.016931425099831497 
0.011737917345058082 
-0.0053113519080998380 
0.022125976993295462 
0.020481068417143724 
0.013994976247852849 
-0.013276012968220504 
0.016359822365114546 
-0.079550606147317600 
0.0080050833901347120 
-0.016031988581153580 
-0.057781970298042766 
-0.0053933470688754676 
-0.014471627712451460 
-0.011125852473017186 
0.0089116927246200590 
0.017824617703853695 
-0.035011575562187960 
0 
-0.0022397722557926853 
-0.028644292752530814 
-0.00069354674601683940 
0.0072306566217276490 
0.013470032778600760 
-0.010940091219708868 
-0.033204066062217650 
0.012475377258997288 
-0.0079512373448746360 
0.0085888950345480930 
0.010820309675663217 
0.011280542803163502 
0.0093711493763155120 
-0.019362870618596255 
0.017438440152052325 
-0.022212269492675712 
-0.0053113519080998380 
-0.0093298638304239750 
0.020283135470552032 
-0.0056490438382154950 
0.0070523716911350510 
-0.0031191695645313950 
-0.0022397722557926853 
-0.044537422941421850 
-0.019992767345850485 
-0.012455186883787498 
-0.031892080941730020 
-0.016031988581153580 
-0.0051371352514310710 
0.022721250007143774 
0.020348933120437690 
0.026623027801322877 
0.013276014073952947 
-0.0053113519080998380 
0.010438594104113188 
0.044823277762165820 
0.0067075231416726600 
0.028308515969960087 
0.044319435915001780 
-0.013215779296576852 
0.022429874704373510 
-0.015180970334411858 
-0.0062859579853578730 
-0.0060004142171068210 
0.020962611371680740 
0.022429874704373510 
0.021741405736233280 
-0.0060004142171068210 
0.048627800304784606 
0.026884237104143612 
-0.011033864953711930 
-0.0091313410127447530 
-0.033204066062217650 
-0.030580060335727000 
-0.021823185237433880 
-0.0079363655238931540 
0.013276014073952947 
0.021347729983853248 
0.0090713897913951400 
0.0097491966616654600 
0.014274821054949757 
0.011325535117312340 
0.0095049326631774160 
0.0094441696920644200 
-0.0049249289257054300 
-0.0067426358076591690 
0.017824617703853695 
0.035556636373092140 
0.0096263313509568140 
-0.0060004142171068210 
0.023992175891821780 
-0.026232323063654587 
0.018191416593654697 
0.0096263313509568140 
0.0085362233602626990 
0.014494499667596512 
-0.0095510602236770350 
0.030197205968614160 
0.030197205968614160 
-0.0056965273897995860 
-0.079550606147317600 
0.0085888950345480930 
-0.0053113519080998380 
0.012440413414138225 
-0.018280170742795250 
-0.019032511098770022 
0.018990247827608334 
0.0093711493763155120 
-0.0052080290920175490 
0.0085370444627615280 
0.017462258551583890 
0.010213689414607367 
