solver_type L2R_L2LOSS_SVC
nr_class 2
label 1 -1
nr_feature 7999
bias 0.0000000000000000
w
-0.065192219971379830 
-0.067461892087552040 
-0.034951190536238860 
-0.071399421238190670 
-0.050213018089578290 
-0.065006673729017390 
-0.061941760167417426 
-0.042869249011846240 
-0.032431351741393444 
-0.037848626435354110 
0.060917971942985230 
0.059417888428521644 
0.066173930727605120 
-0.055712638289688365 
-0.069557211008334000 
-0.041618321257169220 
0.052745558486628400 
0.076717412263451150 
0.036147754630528245 
-0.034621410711103130 
0.028649771052735598 
0.038369233518565840 
0.063305569536817790 
-0.038828028805114066 
0.082699514101719500 
-0.019374108304691603 
-0.062927087714680400 
0.046643146450526175 
0.061001419588055950 
-0.027881718149532754 
-0.065340286203806370 
-0.019129808436105976 
0.050578541728021516 
0.073328806929891810 
0.027667808996373666 
0.037628543703573860 
0.048515258554930840 
-0.033291010005301550 
0.049771597934440640 
-0.049264703160089220 
0.025447526143803113 
-0.00030444914269314450 
-0.014574869063889224 
0.029346170651026165 
0.058675856025001256 
0.034875172752671300 
0.035199507930986890 
-0.026913799521281916 
-0.072903758214745010 
-0.019225554261322372 
0.024450216388743614 
-0.069062671700098610 
0.031895723555859380 
-0.0076295927184196890 
0.037481947138804380 
0.025884396226201194 
-0.031807727767692626 
-0.046324793531446994 
0.022355844550489600 
-0.045741656674006960 
-0.049823919084125130 
-0.023098784811165350 
-0.024281577861725390 
0.0082376446068590360 
-0.043309904301381257 
-0.018202390002226305 
-0.038861340442513140 
0.058226785982206490 
0.027815537000115537 
0.029733221180693590 
-0.031458586609253610 
-0.014168038337645806 
-0.052483668140155114 
0.050712903899637360 
-0.021144795765700303 
-0.0025564709911594400 
0.038624305582560560 
-0.024179057424791317 
0.023454813437464300 
-0.0011537880423134995 
0.031910397230816230 
0.051401596442602844 
0.032143473849942930 
-0.029260959670789687 
0.038970285517219740 
0.035262559630933846 
0.037066517818694610 
0.033428606943153600 
-0.015436424979293645 
0.063057265642971320 
0.020289598051883607 
-0.028523158557280846 
-0.015523742718635145 
0.032336672525927720 
-0.049641328116529210 
-0.060520247667828625 
-0.027266500597318985 
-0.024383045129096970 
-0.018610928172376910 
0.020434431927145850 
0.017737663597252297 
0.013802368697331542 
-0.015323396431828230 
0.018932862952131180 
0.018037995569452610 
0.021175573704389190 
-0.039594348426278480 
-0.021986548047457873 
-0.018454914965198608 
-0.064672827477806380 
-0.050240370861222820 
0.012981187843864555 
-0.036389346378837960 
0.053896557667911670 
0.027907419754372203 
-0.019100660543889213 
0.017632087399320182 
0.039312209308748370 
0.032586214997163330 
0.019124414384251352 
-0.046009374614140380 
-0.043403669645039470 
0.014986411558390868 
-0.025960805319112976 
-0.017550792109887792 
-0.050008936329156280 
-0.042808422061601430 
-0.031342795284909350 
0.073364828257529380 
-0.013112788096787443 
-0.021349169713945116 
-0.010486967151605185 
-0.0060624350571267450 
0.025144970719027705 
0 
0.036818057312923510 
-0.028728209625015210 
-0.032659784053694900 
0.049715379543004020 
-0.041848442504430160 
0.021220253202982427 
-0.019406978383985602 
-0.030541560100374130 
0.033442238335476424 
-0.011969326947580510 
0.0094338403630556090 
-0.022154923230792270 
-0.017870967583782670 
0.022429281451532200 
0.015900834601106100 
-0.015518451116238187 
0.029097254355997915 
-0.027998928340169052 
-0.025897079247381667 
-0.0097810743733121800 
-0.032802113238563864 
-0.023038346455622947 
-0.0056111863111053960 
-0.030043918309895112 
0.0058183496751568085 
-0.028577803033016883 
-0.017778655029096563 
-0.012560822289908500 
-0.031873045047656055 
0.0010627194106085716 
0.042926330969484650 
-0.014989842304654168 
-0.0011761759042076486 
0.0062483544519604590 
-0.0090121640124126760 
0.015548967957999588 
0.017047449197730320 
0.023531733021554380 
0.023220552541973635 
0.010661145623295289 
0.025519573166971232 
-0.033649351418374315 
-0.026391685705190100 
0.027418453297936452 
0.014386496880172232 
0.020818641643919136 
-0.029859326897149140 
0.011323652516008535 
-0.021458126108298760 
0.016230509100045743 
-0.017058410136603523 
-0.034992003181905910 
0.0046881692179164870 
0.024294186605723436 
0.041311840566779154 
0.021907426280779490 
-0.024346132241674995 
-0.013143272468313039 
-0.022878559998088860 
0.019232323813568760 
0.027545404262766592 
-0.018103435899174427 
0.014646937841821084 
0 
-3.9704313181990510e-05 
0.021888271602523927 
-0.023090610903875736 
-0.015440802781347030 
-0.019531260825349683 
0.077750399941495840 
0.032704185114408944 
-0.025500471174572970 
0.016678342234962880 
-0.018666401310170257 
0.043727320461176360 
0.029939439547788483 
-0.031946104829427176 
-0.020214131883614924 
-0.0089749473297377400 
-0.019458401376605160 
0.024894463493055227 
-0.018837478212691102 
0.022781006140723550 
-0.037512605043368855 
-0.021083764030212674 
0.049480937505216830 
-0.026629038496484570 
-0.024594144322421584 
-0.019458942991209465 
-0.020034772058128276 
0.015055628816897720 
0.023414751097323940 
0.011889278201534665 
-0.022446189654026134 
0.044593997420069170 
-0.017949408097835226 
-0.019320358165201133 
-0.029332401471446896 
0.016923221645676605 
-0.019881011428781860 
-0.011029368034776763 
-0.022653759616098657 
-0.015236349308787525 
-0.018785252242913653 
-0.026557531321208916 
0.012634075271486661 
-0.019554543672375050 
0.018984895832413903 
-0.037832803764278465 
-0.047082354929978290 
-0.016832297448944645 
0.018776344259940004 
-0.047427491344916280 
-0.041611674833011740 
0.047081207508912336 
0.014370667988806521 
-0.023025823446366730 
-0.022466855315567254 
0.016877319221783118 
0.014859928053641835 
0.014188512659488955 
-0.022082580210987707 
0.014763371849068601 
0.023977543114271950 
-0.013250550133648077 
-0.076199794686405990 
-0.023090827519581750 
0.023499811650203362 
-0.025047604565096387 
-0.017298426429580255 
-0.028280891037913690 
-0.030832959836428527 
0.037484339694441300 
0.063233930793626310 
-0.031813979565697655 
-0.010438699319180742 
-0.045187701140486790 
-0.029128527802376570 
-0.025651204729392335 
-0.016359074702144160 
-0.030912010862950550 
-0.022038396208529244 
-0.027246639443716837 
0.019714557290336963 
-0.018053867875589113 
0.022849314585522700 
0.027890641044977828 
0.028456492229135560 
-0.018415529510244097 
0.038845092771376830 
-0.023324498006444077 
-0.023903079345516755 
-0.027735489224872546 
0.027954156845089490 
0.024887978769633192 
-0.025700530529352405 
-0.0089265434713085720 
-0.00047319122784728460 
-0.0029193711372795810 
0.012123055838227377 
-0.013315695375301832 
0.023876670713313880 
0.028323585192908190 
0.027838781983604937 
0.032020650681051160 
0.026644017024183200 
-0.021027685721828494 
0.034389491639223634 
0.017021230090584736 
0.026432608179982740 
0.044022287004613450 
0.023588827705920010 
0.0088504252629466840 
0.037215415061831310 
-0.017957247921407578 
-0.039454726670874420 
0.035301926596155615 
0.022652848386482870 
-0.0098353288052996260 
-0.034098868996417060 
-0.022637510328787226 
-0.045948659971083370 
0.028196439015015513 
-0.033236246143182435 
-0.031632521779198230 
0.021126615630409424 
-0.025241845361597840 
-0.028058919851766660 
0.018933194572130830 
-0.0040291464441756260 
-0.011137505920358939 
0.059818387408730560 
-0.031579491913957410 
0.028344715548263358 
0.026382201032563480 
0.014542571894058902 
0.011803882045278455 
0.043077386230523915 
0.044253917988823480 
-0.016534064340363825 
0.017798984904652093 
-0.036011540992017164 
-0.020223613328692054 
0.021818570824475100 
-0.026709908253167150 
-0.022694441803592237 
0.025960046665155296 
0.017290436449801730 
0.038684756508771950 
0.017864146722990387 
0.013374361922895909 
0.023408899888425656 
-0.037983296723336480 
0.0031794038433493378 
-0.022782561155624142 
0.024122844503943940 
0.017235666549755804 
-0.075597491222383300 
-0.0013695884230145972 
-0.043028773848299440 
0.019788491087626760 
0.013604467521831198 
0.018004418745476328 
0.033737976420928060 
0.011737284944937488 
-0.016834665757142840 
0.029124104535251067 
0.032905001746460200 
0.0099826911898382040 
0.011357206825579953 
0.012884936076294134 
0.037694794928226120 
-0.036289622370028460 
-0.018367297249921363 
-0.018738479655253014 
-0.018501777325053537 
-0.041172684935187984 
0.022955024174447867 
-0.029213302540706216 
-0.036021001893501200 
0.0032337052507206343 
-0.010237877464191605 
-0.012726329099981720 
-0.029479669565320120 
0.018852791145348260 
-0.011598519526677530 
0.023443264169043274 
-0.011564618340126705 
0.010938640883866690 
0.011799005794020483 
-0.050735940668467620 
-0.0047804523005816380 
0.012637112262330486 
-0.051542157268317990 
-0.017017530557336666 
0.053780488097798264 
0.0039605253324259840 
0.012370046400483531 
0.014139889045467646 
-0.0051068712321611560 
0.024042329485148933 
-0.022175486584466053 
-0.0090919987741060230 
0.0075681312857859740 
-0.013963309438303338 
0.0094897806581896260 
0.0090098397811418770 
-0.023950868480722542 
0.0095119326817270900 
-0.024465098554378673 
-0.023787572576386710 
0.020676509947738220 
-0.023809711416663070 
-0.020713416878989695 
0.014877492789867346 
-0.011665374914086157 
-0.015016768253539009 
0.047882590892716360 
0.057738887409058830 
-0.0088713163484082890 
0.017131551635430140 
0.013285437802430923 
-0.031470102183592710 
0.025683034533920270 
0.065805233356315340 
0.038381956132325395 
0.014775161893182292 
-0.012113703488616364 
0.014969756243935274 
0.013913556392949479 
0.0073116607787760500 
-0.017336567768149905 
-0.015381381073765613 
-9.9445027333091800e-05 
-0.026421276320921530 
0.017889047292608873 
0.025244605356179648 
-0.014550134128122698 
0.011137100405373392 
-0.015921534700175790 
-0.017858049649666263 
-0.011878778565989232 
0.016212477081113615 
0.014773098396352467 
-0.022124229207715060 
0.020374619209458746 
0.017702838857876553 
-0.0099703962454692260 
-0.027377576335159814 
0.023374363051449097 
0.011302177675499922 
0.051031140173645270 
-0.012779171530995647 
-0.010045053075342190 
-0.022691251718337566 
-0.028568641484226203 
-0.019430230577411646 
-0.014144474252560504 
0 
0.026189480044718206 
-0.022460019557502490 
0.013921233547660740 
0.017592723921979938 
0.027786181394106160 
0.015713084680001592 
-0.016078381931311492 
0 
-0.048316352687986626 
0.022375711470442233 
0.015432957399580248 
-0.012681710619738202 
-0.020609135325335044 
0.021657683248435432 
-0.011763522574965045 
-0.025309118691103912 
0 
0.014969756243935274 
-0.017892794868112478 
0.019306112433376064 
-0.023096881257214402 
0.016064419107527417 
0.014431506413178950 
0.0026611079685047497 
-0.014238593469028312 
-0.035730156928368170 
-0.031473271216153856 
0.018637843006623977 
-0.013518906564419645 
-0.020230872911108495 
-0.0065636545549774110 
0.0060532220486494755 
0.0091976775943643980 
0.029334070738022328 
-0.015919465323751810 
0.030412004896149080 
0.018116767880313810 
-0.017550638763218957 
-0.022718991113893434 
0.014311415723713512 
-0.0092252275851392430 
0.016929577852518404 
-0.0087279043962588830 
-0.015112320998108235 
-0.021036132537553008 
0.028885340186078256 
0.031043167740015767 
-0.023925730547552480 
-0.012869557203070162 
0.014736360917104589 
-0.017786448765361233 
0.023576966502975500 
0.013856358514334957 
0.014733560316000024 
0.054035854753913030 
0.023944379582662555 
-0.0023782556459421033 
0.010502877129836510 
-0.014939163266506494 
0.022619074199851370 
0.010154972531033507 
0.0071349356176570090 
-0.019754557824961130 
0.010706422302156644 
0.015762913317694128 
-0.016278895539935764 
0.012576678077167771 
-0.033215928281590890 
0.017783809975524974 
-0.0069340695101761060 
-0.0081211120881100050 
0.035245880701208020 
0.015136103106753762 
-0.016518369856808810 
0.021165821632284608 
0.019225530771473345 
0.012056865826973020 
0.020741860450182985 
0.019310677057297988 
-0.0095963587951028580 
-0.013160692998029284 
0.024712095451577258 
0.012382644562399611 
-0.018690109134745135 
-0.013990671354373962 
-0.018755559485742722 
0.013476851700048700 
-0.00042799013376708890 
-0.0097204385485773200 
0.018355646588679870 
-0.0082948926582113290 
-0.016450082512529926 
-0.020319536577452330 
2.2788086083321200e-05 
0.021418989339515780 
0.0053195224241809730 
-0.010329759114862926 
0.0084010344840313880 
-0.018037226805183135 
-0.029605692209486380 
0.021304339488087730 
-0.022231863370032117 
-0.016107476925395412 
0.011957227705498272 
0.025857623699090514 
-0.012564416145420107 
0.013524113728746434 
0.034440091338680215 
-0.015369668590698153 
-0.0060252112176563420 
0.051288829670229370 
0.035848870300226480 
-0.016423391586598845 
-0.049561357577201405 
-0.014550134128122698 
0.017423901413450172 
-0.031423274859930496 
-0.013925255676807241 
-0.021599390801822327 
0.011905877097463450 
-0.0078843062134037880 
0.027365751809984400 
0.015101002179717342 
0.0062286973967162090 
0.027308768414598443 
-0.018784249202000544 
0.0064174075949689135 
-0.014648050028069931 
0.0050274753885560875 
0.013691337086099672 
-0.019314919848247424 
0.037612251556167630 
-0.021697223360320126 
0.018876742012564892 
0.012231061916592373 
0.022940280498816900 
0.025884127688661926 
0.039372985010901085 
0.021721931374474167 
0.021874224634186243 
0.017249924618496067 
0.015121147366947278 
-3.3908401737126226e-05 
0.013598878602643926 
-0.022829805516334630 
-0.015107233110668078 
0.029308357262735042 
-0.024570297192214582 
-0.015352986752496010 
0.027252883637608055 
-0.015884427631250777 
0.026672385797201822 
0.049714941205041670 
-0.00021363436550845720 
-0.018072614499404190 
-0.022485761355331736 
0.015786431930644680 
-0.023837515642993894 
-0.026886215033387208 
-0.011398665087122574 
-0.016552956334142580 
-0.011071530908973328 
0.012326212067589392 
-0.037866096710556840 
0.016520802298015492 
-0.037882429759131910 
-0.013335441163363530 
-0.0066020573948228890 
-0.019859221069691380 
0.0093229172264068270 
-0.010358775135647500 
-0.027135539629025250 
-0.019161901252761113 
-0.025579938083409023 
0.033405763707491420 
-0.0048937407235945830 
0.018205176453992267 
-0.024975293967155306 
0.028095229337816906 
0.015516551004006032 
0.043978587388781610 
-0.0068498886826315825 
-0.032122561157405320 
-0.016630507832264732 
-0.036956796027639650 
-0.020428465135829924 
-0.0032180984460284667 
0.017301178166969123 
-0.012343350229045482 
-0.043122980723379514 
0.031633114559819986 
0.038853299798926360 
0.022653221820319033 
-0.018052907912723345 
0.018599096764299355 
-0.00018733652717889727 
-0.015196784204029442 
0.014304339844565056 
0.023672182966412630 
-0.0033583576071249425 
-0.027412035869147745 
0.042669837731240800 
-0.035974295409134195 
-0.019991234928137530 
-0.026709818218834246 
-0.023117730096450375 
0.029419222316675870 
0.023112883905270570 
0.0071427537221647385 
0.037903080306199294 
0.036195328733728770 
-0.017597303090918420 
0.00063348485394087880 
-0.027530604040878304 
0.015778939368210870 
0.015080167748888470 
-0.0043294160049165880 
0.044658894544534984 
-0.031027251812104350 
-0.030006356741902267 
0.0075944133057025830 
0.018376487838432147 
-0.025854210308787770 
-0.022354171475567010 
-0.027193517700590454 
0.0076136714221052570 
-0.012837611345234230 
-0.030645467588545198 
0.037618310341221026 
0.010032426019216731 
-0.021292326411492393 
0.016388150192993684 
-0.044666195588788586 
-0.013621535860537160 
-0.017513783162151592 
-0.0014800701039795010 
0.031759445585454330 
-0.040201959232503340 
-0.019328912407058930 
-0.024660817627717102 
-0.0051734703438317740 
0.026609173773428575 
-0.026328373442190717 
0.018700771275972200 
-0.035753448657067210 
-0.0080219438742368050 
0.015167435891804403 
-0.019980723609562890 
0 
0.066908714566192050 
-0.0046088349305250280 
-0.022182493970017265 
0.013316545306665858 
0.037957918682700670 
0.030481227356432845 
0.022462217871323550 
0.024233323179989730 
-0.010553108683932017 
-0.024011005857379683 
-0.028328110654434763 
-0.014164911455743494 
-0.020675270301070690 
-0.023917030915105417 
-0.031206047370475786 
0.0080832375443496040 
0.014877405391806257 
0.012579258346364332 
-0.0050592555252758070 
-0.0058071813996716350 
-0.029663696343362776 
0.021169797004474670 
0.0094331766648544660 
0.043113569843331290 
-0.028042043109264100 
0.030479353608168090 
-0.021439464594142265 
-0.059560665616166690 
0.0074128284884479270 
-0.010960488969785631 
0.0072455946961857800 
0.0016047110452156430 
-0.016064016512911495 
0.027196179284951695 
0.032505618028462670 
0.017967235366786023 
-0.031889570138961064 
-0.0079637534095813120 
-0.013415720816295537 
0.035724257917706620 
0.020140513397213220 
-0.010008378863660029 
-0.0090587001345428500 
0.018376960279312390 
-0.0087235994154551290 
-0.010269353343975527 
0.029089688044102873 
-0.0046356555331512300 
0.0078183780069077180 
0.015903931868225360 
-0.073761326432553190 
0.011552048761272040 
0.040346759279981800 
-0.018069776380500474 
0.0095774033763420900 
-0.023707414835718282 
-0.016543716121261934 
0.00015586776118538864 
0.0060831189490407130 
-0.040454503489770886 
0.041963581544242600 
-0.0042894522312637755 
0.042237860245294210 
-0.026450187204861062 
-0.0054784827332737330 
-0.024920155308747333 
-0.0088652577444184150 
-0.013008201157345222 
-0.0074285641119310880 
0.023979557277421785 
-0.015873473555381736 
0.034321449703016690 
-0.022866780299143130 
-0.022716335948591102 
-0.023384066783217985 
0.026482046465693958 
0.061871071015666070 
0.035899722894575250 
0.0090056496128232950 
-0.0071116097381142300 
0.018502616030075417 
0.030496980891315470 
-0.0051095045846194925 
-0.019031993370486080 
0.025361339974170043 
-0.020199604984844110 
-0.0075177081711897560 
0.014492748143955549 
0.0027471794522624065 
-0.00027186657334824710 
-0.021068541391882580 
-0.019750409262364262 
0.0063252848507369215 
0.061804850622975780 
0.0083544929140907820 
0.029214857157935877 
0.016506458203629056 
-0.024072376940017338 
0.0079953965643137420 
-0.0092228129814017740 
-0.017049684383179830 
-0.00064446593059032540 
-0.017755758557080120 
0.019424402041050323 
0.031557636310939230 
-0.055486027972309930 
-0.011719490725326548 
-0.033323272418699280 
-0.0056043466192959610 
-0.033011879530762150 
-0.011384551021316440 
-0.029554794466168510 
0.034147117634858390 
-0.016364920377259190 
0.0078280342776481870 
-0.00018945730052489425 
0.016120552329508625 
0.00027209128334312230 
0.011447311603999763 
-0.018960032077468670 
-0.041108247857706830 
0.023793330848305847 
-0.0025767563192029910 
-0.0024620310847754710 
0.010785701690968265 
0.037706247084478810 
-0.039556180259049240 
0.033014481009389080 
-0.020619897630423080 
0.0097926712870292430 
0.022218198030400240 
0.034842999024722820 
0.032851946171367746 
0.043184339814755370 
0.020356874100472044 
-0.0046986044323133480 
-0.011701610075557974 
0.0078169174935406680 
-0.014960448035887733 
-0.027904433631090048 
0.035617892250158800 
0.016114784144747720 
0.022946495251388484 
-0.0066753943396530395 
-0.039715663216456220 
-0.048062630600105330 
0.0079239200260065350 
-0.042184243132145560 
0.019320675179795004 
0.034114054497345184 
-0.026049872188477670 
-0.038997948779046214 
-0.0039900461701175335 
0.038109077170341800 
0.031253214112753024 
0.0039959615133442145 
0.020764163586902310 
0.0038629917797243830 
0.0055189299146122820 
-0.016584412266476018 
0.0023400201219867054 
-0.030899700691376120 
0.0091293450339697150 
-0.031108078681907220 
-0.019469749776783760 
0.0095170718251889780 
-0.0051017853040671130 
0.018227209572733790 
-0.011304511768970649 
0.014071795574742137 
0.0086063377831502850 
-0.013964907428638137 
0.0093629808523890150 
0.015639390954173108 
-0.010547774415587638 
0.0063231465607455380 
-0.011531973579584652 
0.0058684671923931180 
0.023980975349786972 
-0.014839541473350789 
0.026539188080891545 
-0.046463889189719290 
0.012075225968933276 
0.017161424063481326 
-0.023365690092381750 
0.020470407266314675 
-0.0099457692749041570 
-0.0065786236718031940 
-0.0060568207935528530 
0.016102347421877840 
-0.023361994945530696 
-0.023069755248862678 
-0.0071970456871591900 
-0.027293329396341184 
0.0081408745048492100 
-0.0047300366650582890 
-0.0064136304854542210 
0.027312012900120520 
0.013726470572784229 
-0.015743102548652844 
0.0063749046842801315 
0.024191993536348145 
-0.022076947287234163 
-0.0099710783382357620 
0.021943163024110895 
-0.00092610616407770780 
-0.057724743845219530 
0.054611123743866515 
-0.0060663781467771090 
-0.0067647669092300320 
-0.012417483813384932 
0.023177343137350228 
0.0075709384977442114 
-0.018282226007121570 
-0.018860700634810400 
-0.0098659047648158620 
-0.0030712184965687600 
0.0076209459670436520 
-0.025007581529444190 
-0.021047355721075384 
0.025880030982777667 
-0.0037925639959746306 
-0.016018087070454785 
0.014547849296896061 
-0.010961982671143091 
0.031967104116625200 
0.034732287248212500 
0.015511871047475280 
0.017321363139362930 
-0.016447288803632400 
0.046796401349220970 
0.011478082011793145 
0.019036498673055423 
-0.019885789215907560 
0.012396352906913660 
-0.015260421662717762 
-0.0046192202628270530 
-0.0060663781467771090 
0.0064206487835110360 
-0.011660497577083550 
0.017652088286884283 
-0.018727856906026536 
0.017654767753321542 
0.035123118388309490 
-0.014082563855811206 
-0.010880702637162641 
0.0096316765125047210 
-0.0064875374136229610 
0.011516679332601180 
0.017204055028453007 
-0.012834612569802489 
0.012263557256535242 
0.013043600879711924 
-0.024379488089945014 
-0.025320062537182130 
-0.018837761422288303 
0.012144271909920000 
0.0064683489831257246 
0.010104604979945787 
0.026850406082721885 
-0.0087573509251432280 
0.010000196603135370 
-0.0046209782328483720 
-0.036038118111804025 
0.020914538235762163 
-0.0066745486521311560 
-0.0073880333420222470 
0.036107664832684760 
-0.018175769516054357 
-0.023727084615525754 
0.0098835686105577980 
0.021812004780743025 
0.013213144687905317 
-0.0097483529018541140 
0.0064683489831257246 
-0.022841966473303072 
0.033415407981238814 
0.010887142170724439 
0.012062081704947502 
0.016479188339189373 
-0.0063094555383605250 
-0.010618511746185370 
0.0067403567653849210 
0.011695957389356650 
-0.012421554831212761 
0.021825302380441240 
-0.017334984646948760 
-0.0046608853194088340 
0.0092110741787066530 
-0.020609478705194920 
-0.0079210458979689020 
0.011299445475037372 
-0.0074846063557935960 
0.0040488223005728805 
0.010827158750602866 
-0.0082958248175986330 
0.011544572509716718 
-0.010261639034352357 
-0.0065252940767700920 
-0.011046308987719940 
0.0063696647386115710 
-0.025488684408014033 
0.0047294371062915680 
-0.012363441167833738 
-0.017411239822913427 
0.010978609968479935 
0.022163684556350510 
-0.00013119390074379310 
-0.012752146666232646 
0.0095366245988383730 
0.037139569436514320 
-0.0056649308257942730 
0.061605888316572245 
-0.020401725445598998 
0.0093881912937146280 
0.011455671243420333 
0.028342936865469100 
0.019389529317975576 
-0.027635040000718106 
0.036244717357185960 
0.0063971906993902220 
0.018827656437785200 
0.011733504377468649 
0.0023992076688355755 
-0.017082037496852740 
0.019874415047208254 
-0.013141541881767116 
0.0095908340262497570 
0.0087547178211461250 
-0.012720769885971836 
0.0066391192461353905 
0.0053439314938168860 
-0.0059618693783518910 
0.0049408568071583660 
-0.030350663897656914 
-0.011839172847016882 
0.038450759647469940 
-0.014023814885185247 
-0.014212505611175288 
-0.0078984783585413570 
-0.0039812492347371940 
-0.012931990940652486 
0.0064206487835110360 
0.0094685209570756520 
-0.012720769885971836 
0.0089704423981355820 
0.0030643368901627243 
0.013214633457814779 
0.0082085419782767480 
0.013751538746639641 
-0.019639900435109550 
0.024867001418171067 
0.012179281253549046 
-0.027684964130467740 
0.0081668944545637700 
-0.017800208229618034 
0.0096634814803637020 
0.032498229763168164 
0.0076874792753002215 
0.012403126161106795 
-0.020069078935446263 
-0.032019677647331600 
-0.0054078025511873510 
-0.0074906643806343185 
0.027560357450704436 
0.036489642391538096 
0.010728857389238075 
0.016210272757478186 
-0.015948202939814807 
0.020250877567614973 
0.013413100726650199 
-0.0016275870861332438 
0.0033555476972922180 
0.010118222931237156 
0.0067018083092022910 
-0.013322497772661240 
0.013742397045835176 
-0.013699162183121540 
0.0096383834360512060 
0.013408834370992832 
0.0066267994880541250 
0.0017086573254268102 
-0.0084261143269677460 
0.0055441651867949740 
-0.0040135766410654960 
0.011596474667059762 
0.0090238279479562010 
0.018610682705341053 
0.019740478925347735 
0.014152692780988036 
-0.017802134901644708 
0.021853318913649812 
0.033797401190564076 
0.0042647748594072910 
-0.011108726689296506 
-0.0056353788526338575 
0.0076964946810706815 
0.017787800911618665 
0.019198001970572960 
0.0055706773165809680 
0.0074911040327952560 
-0.011584487107232205 
0.010600262585710276 
0.010010301524427145 
-0.018841609915758638 
-0.010552565283897364 
0.015736424348285570 
-0.0095016658029238340 
-0.0056503922992431080 
0.0057702298308851670 
0.0062243513699587410 
0.013379112965614195 
0.015796914260725818 
-0.0067184628897084360 
0.0089281957538293820 
0.021611443668359678 
-0.012534526213603224 
-0.014399527540652275 
-0.022672923701102035 
-0.0087981760181819430 
0.0087074217211448000 
0.0068490041731226500 
-0.0023498357159966537 
0.013031448747431255 
0.0055029581030573920 
-0.0063056068615911760 
0.010971226108557995 
0.012413354061144601 
0.0093466775032778060 
0.0094606533897020840 
-0.032733049513465010 
-0.0059014722247853530 
-0.025863079473211804 
0.0056935805925247334 
-0.037715459218249515 
0.014801916995810084 
0.0036254603062544667 
0 
0.030408615796218254 
0.0059002166418714580 
-0.031472700602934334 
0.012979844090845905 
0.015947970978225560 
0.027200526874619654 
0.012263557256535242 
-0.0044345792934302220 
0.00016520571418258227 
0.0054904435207502670 
-0.0035238724831445573 
-0.010422361134470510 
0.028929034833238765 
0.013660235216923604 
0.027385752058919414 
-0.010377950219376373 
0.0018698833796664317 
-0.0029686621203530517 
0.010632437035060961 
0.013545460772918214 
0.015563346001145718 
-0.0074731989134723400 
0.0039490603358944100 
0.015269828995824315 
-0.015708027276200666 
-0.0039812492347371940 
-0.0087710801643750960 
-0.011219456864824602 
-0.011306244797844043 
-0.016193455830006195 
-0.0099457570835192520 
-0.014956773314362798 
0.016380712919289700 
0.0072727786141092960 
0.020825291542184005 
-0.016110812030633644 
0.060956955150760155 
0.020683275530692578 
0.030894711046219850 
-0.0099300727330978050 
0.016200282929149816 
0.012526210091519739 
-0.036989703099177734 
0.015855436398852944 
-0.021908685351459803 
0.0069867037621454435 
0.011527536656927614 
0.0089594673642295380 
0.016100288230158997 
0.0098930843239094650 
-0.014076992205209820 
0.011961879822341981 
0.035261709753104020 
-0.027858833285636212 
0.012978327043492215 
-0.0057710933724150530 
-0.0067507584496303690 
0.026814800417345020 
-0.028746887900201263 
-0.037583181260988780 
-0.0079819640937076210 
-0.0076129115196530360 
0.017868594822265875 
0.0069179703295116390 
-0.0089582345837548820 
0.036743430266328830 
0.0098906869834619950 
0.0073382520586289620 
-0.015105592113395872 
-0.012421554831212761 
0.054211703916423375 
-0.014428805978636482 
-0.071864057090380800 
0.012436355392286520 
0.019797059950191938 
-0.0022709295528718725 
0.051627716334652816 
0.016715573412027073 
0.015476005583558172 
0.019671270740367338 
0.0075290924415722290 
-0.0063735491917329590 
0.0073462029905846990 
0.010173095639216166 
-0.0056410772998971240 
-0.038382063104850940 
-0.059951673846039950 
-0.0070749944161806310 
-0.013963231188986881 
0.020990512319040450 
0.021363500029728320 
0.030327405529126820 
0.022742371787961558 
-0.024589871327777860 
-0.0034056387620454345 
0.027108297020071743 
-0.0070252635283423570 
-0.0095465928952858400 
0.018776485278620553 
0.010344293097304480 
-0.0062647160359690516 
0.045582205871916880 
0.036865365085526700 
0.020358733025251635 
0.0095086684139880170 
0.0088804586131701420 
-0.029074775159379063 
0.032242838311284260 
-0.012313937159019859 
0.034928475332232670 
-0.018064169033203417 
0.024997590401967487 
0.013807208145139560 
-0.0073471900024472640 
-0.010668083365940984 
0.019596678621089648 
-0.016062954379404760 
0.011636397206099809 
-0.0079819640937076210 
0.0081686668930542540 
-0.0076602524383754800 
0.010860080608455367 
0.025209291716433190 
0.018273340011754638 
-0.040976043934142270 
-0.0088117994300122710 
0.0062533211070572780 
0.0088804586131701420 
-0.016566397917933746 
-0.011012814284510076 
0.010916412445060805 
0.031621353920963000 
0.020391180684465455 
0.016468696067842736 
0.013081018120360955 
0.013479773495041265 
-0.034285387163029125 
0.0064349533673039350 
0.014717723984129032 
-0.035047224728761200 
0.015579505923348771 
-0.0071290634027594990 
-0.0093575472215828620 
0.0098567122726604970 
-0.017045758975416023 
-0.012470831891078227 
-0.015089094051923110 
0.012144271909920000 
0.0039490603358944100 
-0.018882455894435296 
-0.014174526646595133 
-0.028041409748916415 
0.022151510062176985 
0.0097379480993130580 
-0.020048383420845360 
-0.016604081211576388 
0.011532182559555189 
0.0095822039480218060 
0.017871977326221300 
-0.0030928897448761175 
-0.029648751670108123 
0.012217837764204488 
0.011923017008154771 
-0.0065348197028666860 
-0.0062843258409063110 
0.028151953404968970 
0.013764169080041322 
-0.0096845138252882510 
0.0055882476543073160 
0.0061257984824481860 
0.0091949353947075700 
-0.017554896873315486 
0.014246816201475868 
0.012621976152913293 
0.031548176557332900 
-0.013546785105943690 
0.010360046825162289 
0.015214891231116568 
0.036195097533133574 
0.010760668920176734 
-0.0031200785518561555 
0.0017726968565464816 
-0.015511668424857124 
-0.016643333897499436 
0.0090197297761727620 
-0.062067338684603850 
0.026153927055826313 
-0.012063161566512296 
-0.0049985860409002840 
-0.0057316066229248710 
0.029142557910544008 
0.038541980186968610 
0.014772494684694644 
0.017543207270489580 
0.0072613638327753880 
-0.0066115525581962560 
-0.013658494925078960 
0.010747287110101096 
-0.0038468887057135320 
0.013581039726393037 
0.0082334960069316370 
0.010469095882667935 
0.014772494684694644 
-0.022680380060259492 
0.011340363556727873 
0.0095164962660103540 
0.011780710897990505 
-0.035345589021340676 
-0.0078711594572151900 
-0.019601070245878600 
0.022863217222950180 
0.0063369168662777510 
-0.020179700543985175 
0.016476025867910554 
-0.015306830306382314 
-0.0083068882467369140 
-0.010740241730957632 
0.0070967694315852130 
-0.011652904936757497 
0.0011661351497656844 
-0.017892458716420470 
0.0083056475671987770 
-0.0089878161017744560 
0.011725582519418300 
0.0094266756901067900 
0.012492541230201661 
0.015185988206083658 
0.031672642823437264 
-0.011795203076004639 
-0.0063443608950091880 
0.0058629845702186300 
0.0081302866985428100 
-0.0049241417181269490 
0.0085736480118288570 
0.023662321681449033 
-0.015509128111666118 
0.0083948294635863130 
0.0098540554780461920 
-0.012251506862743528 
0.0074632720481573180 
0.027454275231951132 
-0.0041098182177078610 
-0.025085505757919416 
0.0087952304057423500 
0.029714221471485967 
-0.016830293580923385 
-0.010833909112474484 
0.031779776453482164 
0.0065442104710652605 
-0.018029167624975920 
-0.011056229418435193 
-0.0044384336263988230 
0.0085612487599662800 
-0.010260081220199736 
-0.010930386749387165 
0.010892736520470460 
0.0087115761509317590 
0.055500834497078676 
-0.0052031971792612130 
-0.011791490600885300 
0.010375182653844591 
0.0078637749217858960 
-0.012570376987030582 
0.010144205536455307 
0.010689638873248692 
-0.016815032218149780 
-0.017625779021504640 
0.022290570776463220 
0.010915257751855850 
0.0069539855373479020 
-0.015017353500133921 
0.026514913157981157 
-0.019173789291823320 
0.0050344944554484650 
0.016983768049354150 
-0.0080205307182858890 
0.017914265543867273 
0.0037137369735815660 
-0.014949182818041848 
-0.024851255860704607 
-0.0050400459536274565 
-0.0087468889376635600 
-0.015627694465414260 
-0.017333202206397332 
-0.020231389795635900 
-0.010983769201898840 
-0.0035085932713491744 
-0.011894381214342014 
0.0028452814909331946 
0.015075822142107839 
0.016702424972052585 
-0.010450118949158642 
-0.011830946906795432 
-0.022623959888546843 
0.039704015719409190 
-0.011448600999953004 
-0.012074642772704341 
0.013131831853901469 
-0.0059618693783518910 
0.014831014831765460 
-0.011004358411796355 
-0.032539326214559010 
-0.022161007837598237 
-0.084756846861605900 
-0.0080683876610074600 
-0.028828951257578080 
0.014254418118322620 
-0.012122203564455737 
-0.020869018252678990 
0.019297928081604160 
0.0038991772953788440 
-0.0021969615715119353 
0.0097363009741754850 
-0.0096254546231844070 
0.022658864779441623 
0.012149389241901332 
-0.021092990733420500 
-0.015793674917191546 
0.039190179379553130 
0.011635433451131794 
-0.030538119046426695 
0.0064683489831257246 
-0.011325481333902552 
-0.0096939787264514470 
0.016392068482003242 
0.0094035384613259160 
0.0099334974444422270 
0.017361522702133196 
-0.0098496624106432650 
0.0050526190259027110 
-0.012776927840653577 
0.0034545502585575914 
0.011997061707679828 
-0.010571574122252873 
0.018607349666145103 
-0.012064745786248865 
0.026142517580054748 
-0.0076154508557187190 
0.015267507330011360 
-0.0014332907708955772 
-0.022261443456665708 
-0.0079578476378910960 
0.021202208683620192 
-0.0017851685142340557 
0.016070352250312066 
0.010498838160397926 
0.012660754092996145 
-0.0056027509930475550 
0.012767830010389988 
-0.029931883132699740 
-0.0019123525072745273 
0.026184907110485930 
-0.014380269114368845 
-0.0085448516801062810 
0.0092453880822278250 
-0.011848572154784453 
0.010915257751855850 
0.0043650582657455940 
-0.0074731989134723400 
0.011946106894538700 
0.011870409483264692 
-0.015278780061114567 
0.017661885683027574 
-0.0071470606311687020 
0.022982709822589445 
0.014377008982235564 
-0.0099246663407778750 
0.0089132253476273900 
-0.0074077715387180290 
-0.010919628895476846 
-0.0089878161017744560 
0.010827158750602866 
0.0083865996243009150 
-0.017212258393001170 
-0.012823077604608256 
-0.012051035009680145 
0.012305735356491513 
0.013725731069507661 
0.022714856738850844 
-0.040583140436947204 
-0.011375128120955633 
-0.031573635029691720 
-0.0054617426481595970 
-0.0080060683640246840 
0.012564365157502220 
0.018546918135591124 
0.038576496069407200 
-0.012677685574928318 
0.030534308498737070 
-0.014229475868649366 
0.0037309248306584960 
0.022163684556350510 
-0.010993558686535815 
-0.014170518031137933 
0.012899445458093387 
-0.0096729424375335700 
0.014845111283333021 
-0.012347964545696486 
0.010047164810872254 
0.022122802520314885 
0.0083594342504876820 
0.0090341777897322020 
0.014950175307960462 
0.014235880048562752 
0.0098147939164681670 
-0.010928654076385148 
-0.0090607045352730840 
0.012492541906606858 
0.017805718986813185 
-0.025673700557397143 
0.0089404654004366920 
0.0056133143931808990 
0.031480282603493295 
-0.013484528078458570 
-0.016208368112708087 
0.0067179878683823140 
-0.011020199339995825 
-0.0064017684044299640 
0.016307808860083133 
-0.023894669318145857 
-0.014845694610851428 
-0.0010244585753034783 
0.017119967799254936 
0.033699840324150290 
0.016450616152814894 
-0.011120206275830914 
-0.011847811624072639 
-0.015766217755183595 
-0.0026659874062310717 
0.017528135572724920 
-0.012038824993854268 
0.0021238333945626294 
-0.0046192202628270530 
0.016232115385088973 
0.012239632001500071 
-0.018110618175478838 
-0.022346806328189594 
0.0098153963190191200 
-0.044294783581031290 
-0.0026640353279689614 
0.010812228506007587 
-0.032733049513465010 
0.012151151608271783 
-0.040583140436947204 
-0.0074516939339483580 
-0.031741131603451406 
-0.017215842192787455 
-0.021817246314356040 
-0.0050086981589711630 
0.011423272287103815 
0.0059664760150402200 
-0.020163145214795175 
-0.0085135277495567760 
0.016315913307717356 
-0.018216595929408996 
0.0069010418863192320 
0.015326188675140564 
0.016297345810879587 
0.022449368690651096 
-0.0096795599935900740 
0.0088804586131701420 
0.012594618590256363 
0.010465120657758504 
0.0058047912723379220 
0.021438716868024030 
-0.0080623628619082100 
-0.0056117690643589410 
-0.0063056068615911760 
-0.013027534091333582 
-0.012289934703700035 
-0.0027501734777162610 
0.0089525011330285430 
-0.0042300628241087220 
-0.0010705407275126168 
0.031973064857722630 
-0.011795203076004639 
-0.019318514494195776 
0.011378535191979499 
-0.0070718211018719180 
-0.0046292113058164680 
0.010671904809668118 
0.011899279600362314 
-0.0050400459536274565 
-0.011792392311116458 
0.021536272154371780 
-0.023068120713979557 
0.0093018753232129020 
0.015195207951479862 
0.016716189624437786 
-0.010163134093343613 
-0.0090856838692390700 
0.0092820215415756350 
-0.0086954339386467670 
-0.014099355473464336 
-0.0052031971792612130 
-0.020828177092949590 
0.010966714729177665 
0.0076380515838172970 
-0.013482492933084502 
-0.0057785005627105760 
-0.014338343266869098 
0.015230050321333129 
0.019165803574722726 
-0.012169615858139495 
0.016485455050707122 
0.012443365425348834 
-0.012270820897010102 
-0.011026794389338014 
-0.0079819640937076210 
0.044174793780053650 
0.010542766287320120 
-0.0075304054029396100 
0.0092959121860683410 
-0.011928165203155192 
-0.0094788953368046200 
-0.0076839330774491460 
0.0076341364523447490 
0.018111512157494333 
0.019725210031445950 
-0.012272690377690132 
-0.036976992102667870 
-0.039723024031013540 
-0.0070084025842967930 
0.020511580941394390 
-0.0032827379832054858 
-0.045186964851939050 
0.0042016945897373040 
0.0049623068234933520 
0.0084339778173259280 
-0.021446531858498310 
0.010632437035060961 
0.0074683998135822850 
-0.017521573439477450 
0.0087508270992310120 
-0.0085526595022409650 
-0.016220297701217360 
-0.021535438181316428 
-0.0041399071798508380 
-0.0047541917922516130 
0.0021671258754805130 
-0.0083135180114962070 
-0.0032946367296753660 
-0.013278950430060410 
-0.0076525598804727350 
0.018983609192519478 
0.0099220001420355350 
0.0079441114603306850 
-0.0068579520005789460 
-0.011259179507721604 
-0.014206379645347992 
0.024695846856855070 
-0.0024479435113288392 
-0.017242614625539842 
0.019011540403040286 
-0.0081383526215262090 
-0.0081858880429588870 
0.0088804586131701420 
-0.013551337985836558 
-0.012082127248757438 
-0.067279275111732200 
-0.0031533714358676366 
0.074828611711908400 
-0.013881995563120971 
-0.025141822053588045 
0.0057611357147842670 
0.013281696629692825 
-0.013252499080604286 
0.014643439182655605 
-0.021792486073419017 
-0.0042581591097302310 
-0.086652755052488480 
0.031783484532711140 
0.012099949962839139 
0.010308299550042407 
-0.0068807879055465010 
-0.0062843320629187900 
-0.0037007239452317036 
0.0053144053991088890 
0.0097533493251725810 
0.0099873290377771020 
0.0096170083053591270 
0.011237141675577880 
-0.0061714163155374100 
-0.010304914659634517 
-0.012074642772704341 
0.015179475997618423 
-0.0078755014751234180 
0.0093235012007707090 
0.010176684404804211 
-0.017216971192396513 
0.0096519090049976100 
0.015511050469097077 
-0.013608492263336842 
0.0098583401386452740 
0.012233836955344750 
-0.0053959024299296490 
0.011012768839705875 
-0.010461871442957297 
0.0093750514041676360 
0.011509051088833292 
-0.0014468192824393100 
0.014571731767480323 
-0.013310283852770935 
-0.011848572154784453 
0.060574406594447600 
-0.0081154728896065730 
-0.011197375052313264 
-0.017337642061149440 
0.017945792357767050 
0.0056494237050974830 
-0.014093635334443914 
0.020832255381662600 
0.015414566128030056 
-0.018492264870180086 
0.0074646490465135870 
-0.013555952478403720 
0.0099197189116718950 
0.0011184022913208877 
-0.0071969316079503720 
0.0057389835533333390 
-0.0046192202628270530 
0.016972958797898563 
0.015937687575941240 
-0.035536671969999630 
-0.033436803882582244 
0.017952452377437670 
0.020654538265745054 
-0.018277513424304156 
0.0070682464207338985 
0.015006744959939172 
0.020682606337997372 
-0.015927728621472764 
0.0068378050545820350 
-0.11065926184339082 
0.0035661457289453420 
0.034182292263378954 
0.0077648182905713480 
0.018052438836493680 
0.0085099158591022580 
-0.020919006487914577 
-0.0076037789054344410 
-0.00043864707599226724 
-0.0087177926519239320 
0.011281727506438341 
0.012553409400349550 
0.026019981102929465 
-0.018861542775785900 
-0.0047137428623556230 
-0.020125377238889460 
0.028795623467457697 
0.0047646870752262720 
-0.0074247555245941020 
0.013758082866200779 
-0.0062294885865823895 
-0.012362911589649141 
-0.0066908368900427240 
0.014546454663845168 
0.022441590846771317 
0.0090016938054820260 
-0.024915357791419310 
-0.018158521268805060 
-0.014783707874517150 
0.010647918857893453 
-0.0041189037127540530 
0.014680091948103284 
0.012048613048034427 
0.0057650561619448130 
0.016663091715507426 
-0.015542730379893207 
-0.010624855482981333 
0.023153423300731193 
-0.020694405279417450 
0.012233836955344750 
-0.023476274969936577 
0.010726393012867750 
-0.0046192202628270530 
0.0083825513701101290 
-0.017781967923275770 
0.017083372331972102 
0.0082376772448735890 
0.025137957416856660 
0.0064445451733227470 
0.010360046825162289 
0.0070346992796873560 
0.010847371122340452 
0.019169305448535585 
0.0031005818473988614 
0.011851519080193862 
-0.013756850429127146 
0.012084642275488226 
0.012276763612773394 
-0.0022435417263074790 
0.0099759989149651970 
-0.0087710801643750960 
0 
0.033505183590229824 
-0.015344800129816429 
-0.0087042520289815750 
-0.016593562776074680 
-0.014761377212154814 
-0.0066058918352906330 
-0.015557538651682613 
0.027211985419252144 
-0.0091760256015023890 
0.010041165320616751 
-0.026845975731554346 
0.011847836791742962 
-0.019409929216335962 
-0.0041399071798508380 
0.0079383113649256540 
0.0095366245988383730 
0.012979844090845905 
-0.0095973824257345910 
-0.017420348459993348 
-0.0059862634610527610 
0.036356272619182756 
-0.011886124465810317 
0.020086458483338950 
-0.0064463555126573050 
0.022988296495694647 
-0.019353551653130420 
0.023154305697557870 
-0.016330985516385527 
0.014044154167067450 
0.028270055785384506 
0.038994975984067044 
0.0088130125223353630 
0.048947200233084694 
-0.039219990675076750 
0.0020870627389596914 
-0.0080595524669186120 
0.014157428375784480 
0.022830156503949012 
0.022397229790513890 
-0.019292537761772557 
0.012754510374753960 
0.015703807586244893 
-0.0054664898521016280 
-0.019703075794469366 
0.044893011910634210 
0.014974776039873220 
0.015093590868133437 
-0.021740855643468490 
-0.015123133325688997 
-0.019335539877381555 
0.011802409794159434 
0.0043773810002806370 
0.012195051714728684 
0.017788307799430334 
-0.022759758128970888 
0.017368623652404325 
-0.027718803770577470 
-0.014369978976275570 
-0.045367916654893176 
0.028696635513831822 
0.030634075112097820 
0.020759585062114920 
-0.00096243738623680740 
0.017603852458537145 
0.016963612550980050 
0.0061184679587630020 
0.017780121309469602 
-0.0050228746321956100 
0.012421178774662776 
-0.0016621402622991985 
-0.014124870074944132 
0.021542036396370184 
-0.039303760201355770 
-0.035070985932209650 
0.0043209670473274530 
0.023033448552917175 
-0.011755151211337356 
0.00071014755257713620 
-0.013528087946341520 
0.030310385862422520 
0.0029251541394604615 
0.022743326650511960 
-0.0081702621098169930 
-0.017961458732605483 
-0.018276608712849595 
-0.0060079178561586930 
0.0084172824962785390 
0.012499680916781220 
0.0060087060268047440 
0.021786814555391443 
-0.025126029484815512 
0.024012542618485067 
-0.011607677245291426 
0.013741160348742601 
0 
-0.020617460069486920 
0.023139169839539960 
0.021621226263730288 
0.016289649465261850 
0.012552702766881283 
0.044967458121236140 
0.014594341239004629 
0.017424754197391815 
-0.013600195550712126 
-0.0023162949847101875 
0.045153084390919920 
0.023525295531734124 
0.0092568797260840760 
0.012643498538942020 
-0.020140082756880010 
0.012550365671653600 
0.0096385788077161910 
-0.014665282742015067 
-0.021342789140823437 
-0.020736535446376390 
-0.018294766948669350 
-0.0034745949466069000 
-0.023272012585393867 
0.051159695886142730 
0.019575314198751330 
-0.0093570361631647620 
-0.010301339159695347 
0.010853969864407958 
-0.024373234173486105 
-0.018478651992624840 
-0.012003159520998757 
0.014286119143769415 
0.013889886342102102 
-0.0053660493332027590 
0.013872690992783519 
0.014099730578916178 
0.038546794799176616 
-0.024337587251398050 
-0.0032565591490417440 
-0.020525689736671352 
0.0082902500057700430 
-0.0050174249380587500 
0.014800418885674350 
0.014205188670773833 
-0.019025715723119820 
7.2188231246998650e-05 
0.0077440211606714035 
-0.0082609316290817650 
-0.020349924965601944 
0.012669590957669523 
0.0047596667021215830 
0.017214640328284875 
-0.0045826274542976990 
-0.016311080486299617 
-0.023568338527854792 
0.0011546494248870802 
-0.010533662943403807 
0.013950517179350282 
0.011082568925279210 
-0.028392372402808046 
-0.018385350969436897 
-0.011503234949901341 
-0.029771411154329155 
0.013757147484131243 
0.020650159235321150 
-0.039171113147079634 
-0.025516480770046476 
-0.034982757659293600 
-0.071514814381857080 
-0.023806210699994383 
0.026401807879041140 
-0.0015051219015331580 
0.029427808729040154 
-0.012917306274427935 
0.010458093051372767 
0.025491299411038993 
-0.016420898176180018 
0.019407183461802962 
-0.035649483309299980 
0.023307006163586550 
-0.0041292706314140400 
0.040931595678306810 
-0.0036979053558866650 
0.020311428254510290 
-0.017813102412320963 
0.0014474746454595480 
0.021158896646259700 
-0.021391881654691460 
0.036628381657107820 
0.012770448475622616 
0 
0.016144274070960144 
-0.022146065562896226 
-0.0078884888068145830 
0.012424220104550038 
0.029337505196382632 
0 
-0.039681179476479650 
-0.031632649739349600 
-0.018155630618315443 
-0.036714606326115756 
-0.012226452230344647 
-0.010027187481087921 
-0.014368513973331552 
-0.0022334852363898685 
0.014056440820898810 
0.016062780665059610 
-0.0043855251272276240 
-0.031260762861193150 
0.0095921731149879090 
0.020491828419392816 
-0.0079484814735976320 
-0.045629871090534950 
0.024734508400882510 
0.012491101123864454 
0.014065010312313104 
-0.027707793789797980 
-0.014109693798943624 
-0.011124032175603274 
0.011933664662078161 
0.031169703037781375 
-0.013579404387661585 
0.016082676340858984 
0.011047563136621993 
-0.025704879909272690 
-0.00049833311415455270 
-0.0024916188807794670 
-0.013171933157672250 
-0.050268149478813690 
0.015821374104579115 
-0.060238530867497120 
0.021185749809113660 
0.030802495159556580 
0.042565258372572720 
-0.017834573659726082 
-0.021399542889774272 
0.0098007610805678600 
0.043159746969855035 
0.016867096597890790 
-0.016497527505024017 
-0.013285074353561249 
0.0053298280629793000 
0.0033047182351824900 
-0.0056418201132157710 
-0.0071398694688303520 
-0.0027690186234853465 
-0.055434719183822076 
0.0013717860922867160 
-0.021305424300319693 
-0.0030945510750888124 
0.0065649092054854250 
-0.011870509670955636 
0.023967882033870527 
0.039050255308835000 
0.015316563371229214 
0.0092492918478700700 
0.012167455324844416 
0.016928467188806137 
-0.020554888915489084 
0.0038850341718360635 
-0.029059011596484413 
0.013286515182858484 
0.0070447022836958770 
0.028649588797368803 
0.015223776869156960 
0.012448198976004536 
0.0045389214530730070 
0.016256880508922898 
0.027479530795237316 
0.010997851828506908 
-0.010426773669863155 
-0.022790342583035770 
0.042852425176827406 
-0.019806172926142566 
0.041725219088298175 
-0.010224083316428772 
0.043632494976008250 
0.022358192046726660 
0.0035072615166951840 
0.0071434045570758570 
0.019134490191094332 
-0.0012969666760373048 
0.0054504287246424870 
-0.0034191639669781124 
-0.0061610579902665030 
0.00018167427494469177 
-0.016005743272268735 
0.0072701863867049000 
0.021147206217743693 
0.015366516510309824 
0.030503427138023544 
-0.0041290039675004490 
-0.024795086778025090 
0 
-0.0098605803566465130 
0.030735240669868170 
0.010398601673686652 
-0.011505261182819372 
-0.046830765501155454 
0.016143036276080250 
-0.0093283978616239910 
0.017040405853959980 
-0.0029048299593952645 
-0.012314735592621919 
0.0073638815673029830 
-0.018249745101920994 
0.078401521125082150 
-0.011283246832438140 
-0.011086899403598790 
-0.023919423128325422 
-0.0090772031641023820 
0.030441471138469473 
0.0084088011358860030 
0.014338192693961773 
0.00070093503217722780 
0.0065931154665119730 
-0.0064230542917735915 
0.012455548668588159 
-0.050920369700566154 
0.014601621218364688 
-0.031028001441365746 
0.0058869142683982230 
0.028453700442263412 
-0.022170485914201263 
0.022900633201233898 
-0.00016871376122604546 
-0.0080693899682284090 
-0.0026125633545525783 
0.014227099883356496 
0.013549539621455029 
0.010452682350263368 
0.011013561862095938 
-0.0020261388703513210 
0.015770987243960150 
-0.0079798046619084900 
0.0092833992249974250 
0.011223843523849374 
0.0062889723033694040 
-0.033442442357734390 
-0.010220889073475388 
-0.0074006712821798120 
-0.018863502937466147 
0.0030579482101598023 
0.022624357222319064 
0.034529995083430170 
-0.0079479173476303940 
0.023904543938289655 
-0.024706787047958230 
-0.0080460764486023770 
0.019967927379891007 
-0.0046046409591497040 
-0.0051131016406886100 
-0.00046590776534893870 
0.0079779177656906680 
-0.017270447384656460 
0.028185462887701813 
0.050368811944841230 
0.0016282644239692615 
-0.0036832525330214270 
-0.012288564328356146 
0.021015419563922458 
0.019386604089980320 
0.016727075390624804 
0.0066919941214063595 
0.038625749552572246 
-0.025959967597057335 
-0.015907384797996207 
-0.014698977534072557 
-0.00047003808831162184 
-0.010157568761107790 
-0.010278514928203563 
0.020111000238419965 
0.013811930126402262 
-0.024730991161703967 
0.014520410732197767 
-0.033189495961505500 
-0.028691974297467882 
0.00079903966758771780 
0.0074362938688414810 
0.014065156719045289 
-0.019069920466363726 
-0.0028871062696837735 
0.024913394348297460 
0.0072506483821877200 
0.023981219783079464 
-0.030763490997331888 
-0.013493218121032668 
-0.010412336889970272 
0.016294951300197657 
0.028192219403894412 
0.016603515370907877 
0.041892079499896150 
0.020187662860608260 
0.0023243362283881953 
-0.035057013543189894 
0.018366873285529310 
0.036931391318365196 
0.026958803796766885 
-0.0050039888537748860 
-0.032148077673610340 
0.039708412364351436 
0.0081782337120727530 
0.0074223017873655820 
0.028306938924477200 
0.027520268999362257 
-0.026053662387303910 
-0.0072240762583103630 
0.0031551350763715030 
0.017389722885688394 
-0.015127915602896502 
-0.031719453672324864 
0.028147277125672040 
-0.0085964433744232430 
-0.021234529828770176 
0.030638207044858926 
0.0046339006499998780 
0.0088494511740209700 
-0.014363984058285130 
-0.024601185140413897 
-0.014313465612719940 
0.022750502176847633 
-0.012620885506521027 
7.9088626027939370e-05 
0.00059817090086190240 
0.025373250249253698 
-0.026708900899680265 
0.015468386718883818 
-0.022585570169120807 
-0.015586990849443900 
-0.031217336645760770 
0.0058885007091188330 
0.0037495206431850427 
-0.011012088560916143 
0.0087008515465372780 
0.025709632525736912 
-0.022992398269186292 
0.050931585243672740 
0.022165106086487980 
-0.0070813295881764615 
0.0097246253879706480 
-0.0031217191659507087 
0.0012327324278057269 
-0.014096448206873220 
-0.022763654856313080 
-0.0072224938584301230 
0.019036160836648813 
0.015893790931363307 
-0.021855407565320506 
0.010004432916548286 
0.025821669600958020 
0.0013924852524770568 
-0.0052795614414709930 
0.0097360579884819350 
0.021446846532116735 
-0.0097241156301441400 
-0.010462100408337328 
-0.015203791099132035 
0.010636819217190892 
0.010889141398715536 
0.014688258311232478 
0.0033651235417899350 
0.028371002025096653 
0.0044238627952004670 
0.012338936773713085 
0.019931988377227504 
-0.033002122390853324 
0.0094689100790286490 
-0.016879435544013693 
-0.0036020808979626436 
0.029835838315572093 
0.015836585668659666 
0.024499935362521794 
-0.0051010489277725030 
0.0086447136768111700 
-0.0075482137667868730 
0.0065455898430084435 
-0.013555661327429464 
-0.0016691244071357783 
-0.012212173838231621 
-0.0044471672756860960 
0.022132033664490916 
-0.0070537068687253360 
0.0025217523219305373 
-0.0040157157803266475 
0.014432528982962654 
-0.0073499331097176460 
-0.019972724119835240 
0.011914442757408725 
-0.016012041206925495 
0.023671387773577630 
-0.014635106654926169 
-0.0051695456806983530 
0.0082792428722158650 
-0.0045987941790752170 
-0.0025896339272665574 
0.045428596968002460 
-0.0028492816174375280 
-0.096304685511998470 
-0.033227214505572490 
0.0023870932831684447 
0.011372917288859662 
-0.024628871717528783 
0.017428349890197092 
0.0082376674144852350 
0.0059086995563279410 
0.019146186441728580 
0.0032202840529766710 
-0.0058218628616558710 
-0.0064634802517914320 
-0.0045471633175490450 
0.0033095997613402850 
-0.0091907260662748500 
0.032402077785124765 
0.014805998880937822 
0.0060376836492849180 
-0.012743365996303744 
0.0045598926505905010 
0.0090028471744998340 
-0.0070177017078613430 
0.0095569217180624610 
-0.010185888025586981 
0.0037230036742699330 
0.013014213303780872 
-0.018784137293095950 
-0.0094178132175975850 
-0.011604075583126641 
-0.0092688211915024220 
-0.012762016023310850 
-0.049435773993502116 
0.0010282863563717520 
0.0012309590794057506 
0.019704601312036288 
0.0074767397420350510 
0.0048418945272772080 
-0.015061239158853454 
-0.0085890723044545260 
-0.015477293355827915 
0.0063496998539599560 
0.013488569385760893 
0.023308098749233182 
-0.0075590096902162930 
-0.017940070676188812 
-0.00065604481241831370 
-0.00068282056911036890 
0.0094851576835261430 
0.014209033453389440 
-0.018256857502618382 
-0.0050282957574043440 
0.0036515146313926927 
0.0060383398238705470 
-0.00043505597613583580 
0.0086974506200646010 
0.025355772681794148 
0.0033095026976681474 
0.0052286718347961670 
-0.022668589092836410 
0.0078085407502361090 
0.0053113220238672740 
-0.0088240056220378160 
-0.0048833796552822320 
0.013690693480419657 
-0.0095228526863762700 
-0.013678784236239519 
0.0029791616764524224 
0.015727442058552994 
0.0088293528790707920 
-0.010086088157508173 
0.0032068839770281590 
0.0027137187918010123 
-0.010471931394376787 
0.0011287321442501731 
0.028258086450293030 
0.023243127658694226 
-0.0083225639694519070 
-0.011168179929941720 
-0.0022875090971905050 
0.00073656178662790500 
0.0036317527388972917 
-0.013911626471158560 
0.0040648770581715460 
0.037624323893336545 
0.017128672621967240 
0.031874106408915366 
-0.0086686561135616760 
-0.0062394665312800270 
0.020342026094794123 
-0.018520521596200802 
0.022566856271756370 
0.013448374806903510 
-0.0033270191218812036 
-0.0037428877725478190 
0.0039964799534850480 
-0.0036222875459168513 
-0.010327980601450727 
0.017367974071256977 
-0.011662407417183586 
-0.0073668255214398780 
0.0015149055336272973 
0.0053386030114558980 
0.013602348454311560 
0.027219576988370648 
0.026832408523463920 
-0.010246251629604587 
0.0095242121061363300 
0.0087861452069625700 
-0.019036959120405435 
0.026733557481538515 
0.026770743633880240 
0.051562540832549910 
0.017383607014314528 
-0.015728640330518210 
0.00024211530985934360 
0.0047236393357698700 
0.010842586653911121 
0.010611696607936223 
0.013531820520142224 
0.0040167715602781800 
-0.044304611908519996 
-0.0085923206831252670 
-0.013844006460354006 
0.013193838377094692 
-0.0060823405432965880 
-0.017647264811546730 
0.0031407468441503410 
0.0074316495395797040 
0.0019372935018231795 
0.023486667766057755 
0.042183035558417440 
-0.010977943306484190 
0.013092864941970274 
0.011894787206539621 
0.019625809085279500 
0.0091487408327148420 
0.0035972288052428230 
0.016660498235733602 
0.018186531821483047 
-0.011345236481852546 
-0.019910273389494800 
-0.0086729179407719750 
-0.00050698751208875570 
-0.027183901434233030 
0.011086846900859234 
0.0041088597796027715 
0.0099098286566408280 
0.024808695340939567 
0 
-0.013561214455998010 
0.017153447942869007 
0.0069982203682235280 
0.014640530631599780 
0.010121528209227178 
-0.0023925174893026670 
-0.079075758732339890 
0.0076749362698085830 
0.010635606142354880 
0.022358698947871288 
-0.019769001182810240 
-0.027135560143800273 
0.0024358072878159095 
0.00023537868107390590 
0.013902423219835909 
0.0030250998878562905 
-0.0020077447679533486 
-0.00033984161425492797 
0.0021185743188437900 
0.0027488325492263950 
0.0038830909228395583 
0.010846984615170788 
-0.021990728805818534 
-0.0036363425087971254 
-0.013810982542846805 
-0.0076383906467655475 
0.0094505456377930050 
-0.011102891265419707 
0.0042043797335880120 
0.014369518927258360 
0.011667974407092583 
0.0033938082925226995 
0.0084900739187601780 
0.010191469457980882 
-0.052448890784640720 
0.032338301366105260 
-0.020078291937759524 
-0.013359489259646919 
0.010469512275637688 
-0.011278964637923812 
0.0040135769176988370 
0.020092655526772776 
-0.021666286289329727 
-0.018188203494987204 
0.0092395399654359440 
0.022284860323761556 
0.013912596255460642 
0.014013886186756313 
-0.0018015665884873306 
-0.026532158832877344 
-0.0089797543927674140 
-0.015997388445401477 
-0.019158813481532820 
-0.019387749255934762 
-0.0068377258494104040 
0.0057959616849120555 
-0.014680268482240216 
0.014812808219550116 
-0.013439497738053608 
-0.0012419800628512905 
-0.0035979375279715370 
-0.0085971734235265490 
0.0086744494573852300 
0.0037418004308580528 
-0.00075880573114132900 
-0.037076045907377266 
-0.0066482818302941890 
0.012542562970959372 
-0.0081474561578398220 
0.0054808591987122820 
-0.011043213417631316 
0.059663923594696170 
-0.015706132242894500 
0.019082989723766810 
0.015572244234864998 
0.0045556302646757120 
0.0061654685741854580 
-0.017994069062627977 
0.012491594406392867 
0.017909924120014710 
-0.024364493099790110 
0.018078508181263360 
-0.022777191918713042 
0.027263435448543910 
-0.00095478210838511810 
0.010460893506233455 
-0.012234436812961373 
-0.0092820584307201950 
0.019214153732210140 
0.0069526546470860970 
-0.0095755937503135060 
-0.0037017421274433510 
-0.023107476533095960 
0.023053994298870470 
-0.0013163060439071762 
0.0075796308736174590 
0.016991285067017595 
-0.010960388556787234 
-0.010548136740648051 
-0.050260620707160086 
0.0041928897694950810 
-0.032364717225411746 
0.016745093461770815 
0.017097110964434434 
-0.0025922926488149940 
-0.00027684681258925844 
0.0054805117426727210 
0.0057515350152037080 
0.016490372140848450 
0.0060778784902396300 
0.0093620671324770570 
-0.011059605978472022 
-0.0018640636551913344 
0.0088695937422880470 
-0.00081526823203813810 
0.0054805117426727210 
0.016588348709944330 
0.0055486250297913970 
0.0025349337348864060 
0.017803998025153950 
-0.0055764242492859050 
0.0025347075109774155 
-0.0045990642680231310 
0.0023786785144661520 
-0.0074967620359826400 
-0.041643914376457696 
0.0065506892299591970 
-0.0057346621273560490 
-0.010960388556787234 
-0.0020006146639393020 
-0.011829427450001232 
-0.0053331588277335920 
-0.0084328197377088310 
0.0076847755772121880 
0.00028841419600599390 
-0.0019955734715469750 
-0.00081526823203813810 
0.039343053238270496 
0.0075683625544429880 
-0.0057180240174570890 
-0.0050067323444929000 
0.0038854080095752940 
-0.0025922926488149940 
0.0042494395335032690 
0.0037719325962911193 
-0.010960388556787234 
-0.011504576828997694 
-0.0024986029256160710 
-0.016044756138102755 
0.013755069494819690 
0.0060698932919500525 
-0.0055764242492859050 
0.0060778784902396300 
0.0039086345866278570 
0.023470507623921416 
-0.00010911722279839847 
-0.0048916799778329840 
0.0093620671324770570 
0.0039327949571768385 
-0.0077433193947158314 
0.0049131721764019000 
-0.0028979313699225473 
0.0018620911187625937 
0.015880170980646670 
-0.0083814431911562510 
-0.0020006146639393020 
-0.0059043449947036065 
-0.017304979304785688 
0.00028841419600599390 
-0.0057482296564547900 
0.018407637311245340 
-0.0057346621273560490 
0.0080017422166328130 
0.017097110964434434 
-0.0028979313699225473 
-0.0095962057668235540 
0.0077596620494901940 
0.0064166186221265640 
0.00028841419600599390 
0.0046435786122220520 
0.0042494395335032690 
0.0035686715842567970 
-0.0025322881647035710 
0.0057515350152037080 
0.00028841419600599390 
0.0039577576755377795 
0.0047346532250141560 
0.0055486250297913970 
-0.0057180240174570890 
-0.0043700054087788790 
0.0083835691317573950 
0.0054805117426727210 
0.0037719325962911193 
0.0064601551793469080 
0.0099026457059425420 
-0.0048916799778329840 
0.0060698932919500525 
0.0018620911187625937 
-0.0063644564678700215 
0.021574232379992217 
-0.0026400175476359047 
0.0039577576755377795 
0.0080017422166328130 
0.0066182699489329290 
-0.0056128260625321405 
0.0085712791561906400 
0.016448765994899892 
-0.0055207808766606790 
0.0036380336298318930 
0.0025047280980227940 
-0.0079274822860607390 
0.0099026457059425420 
-0.0032260363702416460 
0.0080339247186111790 
0.0069122867638874090 
-0.0016003106353213678 
-0.0053331588277335920 
-0.0019955734715469750 
-0.0064870972898358930 
-0.0084391901593827960 
0.0024745229936768173 
0.0039577576755377795 
-0.0081495391119463870 
0.00076903487902718020 
-0.011608778520591384 
0.0043288748101616140 
0.017912997345718763 
-0.0057482296564547900 
-0.022650115106018430 
0.0047346532250141560 
0.0092945707429217330 
0.035198146724703940 
0.0036380336298318930 
-0.010918535642248334 
0.012864574482615670 
-0.0045720658656193140 
0.0052340744136554080 
-0.0017404745775455185 
0.022728178732710450 
-0.0014850324717211958 
0.021574232379992217 
-0.0020006146639393020 
-0.0020006146639393020 
0.0079373119984403970 
-0.0065890690738949290 
0.0068419327725094410 
5.2653794337892960e-05 
0.0068419327725094410 
-0.013599517832389080 
0.0072594664396775430 
-0.0027691845454049780 
0.0068419327725094410 
0.00056814031391768330 
-0.0045990642680231310 
0.0039577576755377795 
-0.0074202722203152560 
-0.0073359886502583920 
-0.0020006146639393020 
0.0039577576755377795 
0.0047346532250141560 
-0.015472295169061786 
0.0061167426926464034 
-0.00025257075862132985 
0.010175326419208822 
-0.032962739989999115 
-0.0019955734715469750 
-0.0057180240174570890 
0.00014216840459534936 
0.014745959735140760 
0.0049037781041904540 
-0.0024986029256160710 
-0.0031518288034497220 
-0.0040189163526733860 
-0.011059605978472022 
-0.0056297576565659920 
0.0060698932919500525 
-0.0035647869650091910 
-0.010548136740648051 
-0.0040110438146918745 
-0.032043279643668200 
0.0068419327725094410 
0.0064651400636866144 
0.0048866304315841455 
-0.0014866340714802544 
0.0029727536402888452 
0.0013536151307710750 
-0.0034246468754912410 
0.0039327949571768385 
-0.0073080212732994230 
0.0092846473174310970 
-0.010795940697476970 
-0.0045936588922062650 
0.0079373119984403970 
-0.0069460208968417720 
-0.015340795007537152 
0.013755069494819690 
-0.0056128260625321405 
0.0036629246109318690 
0.0064166186221265640 
0.015108031033485552 
0.0036380336298318930 
0.0061167426926464034 
-0.0097226864659501900 
0.0056650554393767840 
-0.0025395568212451067 
-0.026778492259554854 
-0.0073080212732994230 
-0.0060630855079466875 
0.017912997345718763 
-0.0083043456974166720 
0.017803998025153950 
0.0055047131932404950 
0.0046016777686550380 
-0.0090184058774086960 
0.0054805117426727210 
-0.0050015263628044800 
-0.0077433193947158314 
0.00041340677082624650 
0.0069845105925431170 
-0.012016081526806080 
0.013041449164588097 
-0.0034164932030180140 
-0.028214198195679586 
-0.0081495391119463870 
0.0038854080095752940 
0.0097595868374535430 
0.00083114911928809070 
-0.033400093765041980 
-0.0027478574624431440 
0.0038854080095752940 
0.00014216840459534936 
-0.028510586898994410 
0.011977399477150345 
0.012864574482615670 
0.0012765266463855096 
0.0085712791561906400 
0.0097595868374535430 
-0.0080185773152769100 
-0.015472295169061786 
0.0037719325962911193 
0.0061167426926464034 
0.00028841419600599390 
-0.016192455558993832 
0.0086771850570232370 
-0.0059848675970407230 
-0.017584328647750735 
-0.013554333997186465 
0.0025349337348864060 
0.0057515350152037080 
0.030928318941499233 
-0.0052396275958481210 
0.00028841419600599390 
-0.012472311183911972 
-0.0068405301207446300 
0.00028841419600599390 
-0.0019955734715469750 
-0.013507226031903088 
-0.0057180240174570890 
0.017560667312769680 
0.0018620911187625937 
0.0054805117426727210 
-0.0069897287568712625 
-0.032043279643668200 
-0.028510586898994410 
-0.0056297576565659920 
0.0018620911187625937 
-0.0095845103853820220 
0.0077461698773692200 
-0.010081105791753694 
0.0045014015556135000 
0.0079373119984403970 
-0.0018640636551913344 
-0.0027691845454049780 
0.0075715525733792595 
0.00070612085367657700 
0.0083835691317573950 
-0.0018640636551913344 
0.0086771850570232370 
0.0089295036546038970 
0.0055486250297913970 
-0.011504576828997694 
-0.013055192700618537 
-0.010081105791753694 
0.0048866304315841455 
-0.0031057289122771283 
-0.0084391901593827960 
0.0077596620494901940 
0.0077596620494901940 
0.0083835691317573950 
-0.020062831708181534 
0.0077461698773692200 
0.0055047131932404950 
-0.0076550174460106610 
0.0066182699489329290 
0.0023786785144661520 
0.0023786785144661520 
0.056113862591046570 
-0.0093673513457297240 
-0.0027691845454049780 
-0.0031518288034497220 
0.0025530106456777032 
-0.015323679427431658 
-0.0055145633115314120 
0.0041277972051906430 
0.0060060335060712910 
0.018407637311245340 
0.023646761549454730 
-0.0043926820944481240 
-0.0038844793011879016 
-0.014264295340210840 
-0.0082745270866477330 
0.0065802170533498430 
-0.0024986029256160710 
0.0019202736409328980 
0.0057007198622181450 
-0.0056297576565659920 
0.0061609327430732115 
0.0088695937422880470 
-0.019308292194326934 
0.0016743263261790545 
0.0054805117426727210 
-0.0075646814400105380 
0.016116918496763933 
-0.0019955734715469750 
0.00014216840459534936 
-0.0077576171228480780 
0.032216786931287830 
0.0049542314971308200 
0.0023786785144661520 
-0.0069078397041629440 
-0.017584328647750735 
-0.0058563404181204840 
-0.0056128260625321405 
-0.0053331588277335920 
-0.00027684681258925844 
0.0072594664396775430 
-0.013489989511692604 
-0.0068405301207446300 
-0.018478175894946162 
0.017097110964434434 
-0.014111532786218864 
-0.0056297576565659920 
0.0069367693339679830 
-0.0063858092690941050 
-0.0071878177165683830 
0.0029046077134925728 
0.00014216840459534936 
0.0075239858990468740 
0.0069367693339679830 
-0.0027691845454049780 
-0.00081526823203813810 
-0.0045105384612034600 
-0.0063644564678700215 
-0.0019955734715469750 
-0.0084861232566420150 
-0.0082563114812492020 
-0.011504576828997694 
0.0029727536402888452 
0.033059716998413730 
-0.0028084370683173817 
0.0090050209044040600 
-0.0056128260625321405 
-0.0090418012288996700 
0.0039327949571768385 
0.0055486250297913970 
0.0075796308736174590 
-0.014264295340210840 
0.0048866304315841455 
-0.0018640636551913344 
-0.0094621941968118740 
-0.0025922926488149940 
0.012864574482615670 
0.0048866304315841455 
0.0067597901981647510 
0.015693842319810077 
-0.0057553746044070660 
-0.016388996495419597 
0.042436304754161620 
-0.0043516330142406720 
-0.0025395568212451067 
0.012864574482615670 
0.0075239858990468740 
-0.0057180240174570890 
-0.0032307302746552250 
0.0039577576755377795 
-0.0073080212732994230 
0.015946739572827034 
-0.020986822311679313 
0.010781755295867362 
-0.013975634837052983 
-0.0095475781638078760 
-0.0090184058774086960 
-0.0044482946217784130 
-0.0016264244289232812 
0.0025347075109774155 
-0.041643914376457696 
0.0019319452345931050 
0.0020250240046068343 
-0.0025395568212451067 
0.0061167426926464034 
-0.019308292194326934 
-0.0077433193947158314 
-0.016734251157195384 
0.0018796963961398509 
0.0060722346082440480 
0.0084821143961979430 
-0.0030279665797512160 
-0.0045990642680231310 
0.0037719325962911193 
-0.026778492259554854 
-0.0077433193947158314 
-0.0016003106353213678 
0.010843272684098397 
0.0086684729188449000 
-0.0057553746044070660 
-0.017478616296505560 
-0.011608778520591384 
-0.0055431103260187850 
0.0037724523438372056 
0.0057515350152037080 
0.0096685425440615290 
-0.011401413431983748 
0.0054548979454227460 
-0.0025395568212451067 
0.048405865882351795 
-0.0019955734715469750 
0.0023786785144661520 
-0.0050015263628044800 
-0.0081495391119463870 
-0.0036177993639707486 
0.0075796308736174590 
0.0056650554393767840 
0.0046435786122220520 
-0.0027691845454049780 
-0.0013163060439071762 
0.0084821143961979430 
0.0054805117426727210 
0.0069367693339679830 
0.0046435786122220520 
0.0024788850631648290 
0.010843272684098397 
0.023646761549454730 
-0.0081561826905952460 
0.016588348709944330 
0.0069367693339679830 
-0.0089702619914671460 
0.015938778998271775 
8.7986030349322660e-05 
-0.013554333997186465 
0.0025349337348864060 
-0.0079274822860607390 
0.0061167426926464034 
-0.0078726697552918160 
-0.016044756138102755 
0.0038854080095752940 
-0.0052396275958481210 
-0.017478616296505560 
0.012248073339113005 
0.0068419327725094410 
-0.0025395568212451067 
0.0054548979454227460 
-0.0090184058774086960 
0.015871940485754233 
0.0037464753487290360 
0.0055047131932404950 
-0.016021507157389520 
0.0049037781041904540 
-0.0056297576565659920 
0.0059614660470033530 
-0.0057346621273560490 
0.0051210602246006620 
-0.017537458544518436 
0.0058061213485941830 
0.0055486250297913970 
0.0054805117426727210 
0.0022104564198106280 
-0.0070488460029613870 
0.0019202736409328980 
-0.0019955734715469750 
0.0060778784902396300 
-0.017584328647750735 
-0.0025395568212451067 
0.0077596620494901940 
0.0060778784902396300 
0.0068419327725094410 
-0.016279523115309873 
-0.0057346621273560490 
-0.0067711215596424370 
-0.016388996495419597 
0.022340561327983160 
-0.0081495391119463870 
-0.023257091589078422 
-0.017478616296505560 
-0.024700204717020953 
-0.014111532786218864 
0.0025744920072462910 
-0.011334750946799699 
0.0023786785144661520 
-0.0031518288034497220 
0.0086771850570232370 
-0.0027691845454049780 
0.018529923613588777 
-0.011829427450001232 
0.016588348709944330 
-0.0050015263628044800 
-0.0050015263628044800 
-0.0056128260625321405 
0.014046340502457389 
0.016116918496763933 
0.0090050209044040600 
-0.0045990642680231310 
-0.0057346621273560490 
0.031719718813490304 
0.0054805117426727210 
0.0074525072439458570 
0.0035686715842567970 
0.0085712791561906400 
-0.0045778948146550810 
-0.0089689265360016550 
0.025468357072620854 
-0.0019955734715469750 
0.018273218749458052 
0.0093620671324770570 
0.0035686715842567970 
-0.0078126817676902330 
0.0022104259824476578 
0.00056814031391768330 
-0.0083814431911562510 
-0.0027478574624431440 
-0.0025809820383179147 
0.014535499697870650 
0.0075239858990468740 
-0.0056297576565659920 
0.0073575308595035275 
-0.0056297576565659920 
0.0093620671324770570 
-0.0098469420214524730 
0.029269446804593334 
-0.011525336381931341 
0.0086771850570232370 
-0.0025395568212451067 
-0.022650115106018430 
0.020523426660939034 
0.0099026457059425420 
0.0040590578289029730 
0.0037464753487290360 
0.0064601551793469080 
0.0037464753487290360 
0.0019202736409328980 
-0.026261681764412202 
0.0054805117426727210 
0.015880170980646670 
-0.0084391901593827960 
0.0049487618134635970 
-0.0055764242492859050 
0.0060778784902396300 
-0.0068405301207446300 
0.035379828816738554 
-0.014264295340210840 
-0.013599517832389080 
-0.0053819801930553860 
-0.015175303464172611 
-0.0023392019765364920 
-0.0055145633115314120 
0.012019887455362541 
-0.017537458544518436 
-0.0056128260625321405 
-0.011608778520591384 
-0.0056128260625321405 
-0.0057180240174570890 
-0.0018640636551913344 
-0.0013163060439071762 
0.00028841419600599390 
0.0065802170533498430 
-0.0057346621273560490 
0.0019802495620361890 
0.0056650554393767840 
0.0057960831521994630 
-0.017478616296505560 
0.0029727536402888452 
-0.0055145633115314120 
-0.0024986029256160710 
-0.0082745270866477330 
-0.0031518288034497220 
0.0068419327725094410 
-0.0025395568212451067 
0.0037464753487290360 
-0.0089702619914671460 
0.0088695937422880470 
-0.0071037036946215380 
0.0055486250297913970 
-0.0073080212732994230 
0.0054805117426727210 
-0.012465746359785148 
-0.00021028186902068217 
-0.0098469420214524730 
0.0055047131932404950 
0.0064166186221265640 
-0.019028833147248306 
0.012864574482615670 
-0.0083043456974166720 
0.018273218749458052 
0.0077596620494901940 
0.0048866304315841455 
0.024281551542702990 
-0.0078126817676902330 
-0.00084412754326759780 
0.033059716998413730 
0.0054805117426727210 
0.0075796308736174590 
-0.0027691845454049780 
-0.0057180240174570890 
-0.0098469420214524730 
0.0061167426926464034 
0.0039577576755377795 
0.0090050209044040600 
-0.0098469420214524730 
0.0076847755772121880 
-0.0074202722203152560 
-0.0057180240174570890 
0.0039327949571768385 
0.0019202736409328980 
-0.0057346621273560490 
0.0099026457059425420 
0.019683173403483183 
-0.016192455558993832 
-0.0025922926488149940 
-0.0071878177165683830 
-0.0056297576565659920 
0.0076847755772121880 
-0.0063644564678700215 
-0.012852782116703335 
0.011645876053196658 
0.018273218749458052 
0.015938778998271775 
-0.0098469420214524730 
0.0064015643158185640 
-0.013599517832389080 
-0.0033333586833301223 
0.0066182699489329290 
0.064967519365128360 
0.0036289140932099758 
0.023646761549454730 
-0.017478616296505560 
0.0056650554393767840 
-0.0073080212732994230 
0.0039577576755377795 
0.010843272684098397 
-0.015186824673672834 
0.023908667222839680 
0.0048405928812308860 
0.0084733457511118660 
-0.0098469420214524730 
-0.0025922926488149940 
-0.0040110438146918745 
-0.0028979313699225473 
0.016448765994899892 
-0.0083043456974166720 
0.017097110964434434 
0.0066182699489329290 
0.0077719076495331860 
0.0074322305710326836 
-0.0053331588277335920 
-0.0053331588277335920 
-0.0053331588277335920 
-0.0083043456974166720 
-0.00021028186902068217 
0.011048750546710175 
0.046140626954299710 
-0.0072026420118428880 
0.0077596620494901940 
0.0041585311070004120 
-0.0019955734715469750 
0.00014216840459534936 
0.0025349337348864060 
0.0045014015556135000 
-0.025041109568260264 
-0.0038891152232886027 
0.010843272684098397 
0.00012434376702060327 
-0.0050015263628044800 
0.013102046407992680 
-0.0020006146639393020 
-0.0057346621273560490 
0.033059716998413730 
-0.0028979313699225473 
-0.0036595813932272943 
0.0060778784902396300 
-0.0057180240174570890 
0.0035686715842567970 
-0.0025395568212451067 
0.0039327949571768385 
0.017097110964434434 
-0.0053331588277335920 
0.022919245360778230 
0.0037724523438372056 
0.0060849345326104800 
0.0029727536402888452 
-0.0018640636551913344 
0.0077596620494901940 
-0.015175303464172611 
0.0083835691317573950 
0.015315420965908927 
-0.0054954916342751260 
0.0025349337348864060 
-0.0080185773152769100 
0.0076640370138757910 
0.0039537033747957540 
-0.010960388556787234 
-0.0052269933698809370 
-0.0060630855079466875 
0.0019202736409328980 
0.0036380336298318930 
0.0086684729188449000 
0.037521822869451800 
0.0076847755772121880 
-0.0050015263628044800 
0.0093101529539363210 
-0.053355616248308710 
-0.0026400175476359047 
0.061425478496684310 
0.0056650554393767840 
-0.0054219219045297060 
0.0056650554393767840 
-0.0057180240174570890 
0.010710239439474765 
-0.013039589670328922 
0.0061754053092515130 
-0.0056128260625321405 
0.0036380336298318930 
-0.0050015263628044800 
-0.024912848916006440 
0.0055047131932404950 
0.0055486250297913970 
0.0064166186221265640 
0.0049062827084507140 
0.0047030630945085310 
-0.0083043456974166720 
-0.0027691845454049780 
0.0023786785144661520 
-0.0026400175476359047 
-0.0025395568212451067 
0.0055486250297913970 
0.017097110964434434 
-0.010019157335319466 
0.0048866304315841455 
-0.0044597870324960150 
-0.0027691845454049780 
0.0090050209044040600 
-0.0016003106353213678 
0.010204828601287610 
-0.010548136740648051 
0.011698307917833680 
0.0061167426926464034 
-0.010081105791753694 
-0.016388996495419597 
0.0016096726755902425 
-0.011094230306460869 
-0.032043279643668200 
-0.011043774672416858 
0.013041449164588097 
-0.0057180240174570890 
0.0066182699489329290 
-0.010081105791753694 
0.016116918496763933 
-0.00010911722279839847 
-0.0098901768724161190 
0.0029727536402888452 
0.0048866304315841455 
-0.0055145633115314120 
-0.0055972468745864710 
0.018786325585952092 
0.0077596620494901940 
-0.0025395568212451067 
-0.0078726697552918160 
-0.0081561826905952460 
-0.00027684681258925844 
-0.0090184058774086960 
0.0048866304315841455 
-0.0025395568212451067 
-0.0064079054062244210 
-0.0082745270866477330 
0.0055352930489989200 
-0.0024986029256160710 
-0.0056297576565659920 
-0.0025395568212451067 
-0.0025922926488149940 
0.0064166186221265640 
0.018273218749458052 
-0.0025395568212451067 
0.070893735451849040 
0.0077596620494901940 
0.0075796308736174590 
-0.0077433193947158314 
0.0048866304315841455 
0.0061167426926464034 
-0.0090418012288996700 
-0.0091490776316041250 
0.010204828601287610 
-0.0026400175476359047 
0.0077461698773692200 
0.0022104259824476578 
-0.0069460208968417720 
0.010204828601287610 
0.0057515350152037080 
-0.012016081526806080 
-0.0050712892142823485 
-0.0055396588580161230 
0.0055932838175373430 
-0.0095023976188521980 
-0.0049622909765769455 
-0.0025395568212451067 
0.0065802170533498430 
0.0038854080095752940 
-0.0068405301207446300 
0.034950533321649200 
-0.011059605978472022 
0.0049246316363165850 
0.0018620911187625937 
0.0036380336298318930 
0.0054805117426727210 
-0.0025322881647035710 
-0.0063644564678700215 
-0.016388996495419597 
0.0056650554393767840 
-0.0056128260625321405 
-0.0083814431911562510 
0.0014617682648792015 
0.0019004578460776697 
-0.0089689265360016550 
-0.0064079054062244210 
-0.0024986029256160710 
0.0077468949362913060 
0.0076847755772121880 
0.013678915718839790 
-0.0057180240174570890 
0.0020536336525643890 
0.0049062827084507140 
0.0055486250297913970 
0.0088695937422880470 
-0.0028979313699225473 
0.0088695937422880470 
-0.0097226864659501900 
-0.0098469420214524730 
0.013755069494819690 
-0.0050717099663275690 
-0.0053331588277335920 
-0.032043279643668200 
0.0099026457059425420 
-0.0019955734715469750 
0.0055047131932404950 
0.0054805117426727210 
-0.0068405301207446300 
0.0055047131932404950 
-0.0019955734715469750 
-0.0064079054062244210 
-0.038835019616026444 
-0.0057482296564547900 
0.0054805117426727210 
0.0034462595069399640 
-0.0057482296564547900 
0.0025349337348864060 
0.0085712791561906400 
-0.0057482296564547900 
0.023470507623921416 
-0.013599517832389080 
0.0054805117426727210 
0.0093909931239495210 
-0.0071038297814659870 
0.0037464753487290360 
0.0074110751810011810 
0.0075239858990468740 
-0.0073080212732994230 
0.014535499697870650 
-0.027471034290499206 
-0.00010911722279839847 
0.010843272684098397 
8.5464434513625240e-06 
-0.0090418012288996700 
0.0063119203611546830 
0.0013883219449648077 
0.0048866304315841455 
-0.0016264244289232812 
-0.0073125502781496790 
0.0029727536402888452 
-0.0030279665797512160 
-0.0083814431911562510 
0.033059716998413730 
0.0035686715842567970 
0.0037724523438372056 
-0.0065533357282115580 
0.0065802170533498430 
-0.0057180240174570890 
-0.032043279643668200 
-0.0059043449947036065 
0.0056650554393767840 
0.0069367693339679830 
0.00028841419600599390 
-0.012852782116703335 
-0.014264295340210840 
-0.0019955734715469750 
0.028032194274098695 
-0.0057346621273560490 
-0.0012017787841798475 
-0.00081526823203813810 
0.010843272684098397 
-0.026778492259554854 
-0.0027478574624431440 
-0.0084861232566420150 
0.0055486250297913970 
-0.0055145633115314120 
0.0023227663796874126 
0.00028841419600599390 
0.0028846847455274867 
-0.0080355101771240440 
0.00014216840459534936 
-0.0016003106353213678 
-0.010288753582907945 
0.0090461720007508280 
-0.0096444370501907130 
0.0037719325962911193 
-0.0055145633115314120 
-0.0028888414996442622 
-0.0057180240174570890 
0.00014216840459534936 
0.0036380336298318930 
0.0020299326439178846 
0.0076847755772121880 
-0.0057482296564547900 
0.0023786785144661520 
0.0085712791561906400 
0.0045014015556135000 
0.018273218749458052 
0.013798548731554967 
0.012183713187832740 
0.0077461698773692200 
0.0074688207966362450 
-0.0025922926488149940 
-0.015175303464172611 
0.0019202736409328980 
0.0019202736409328980 
0.0079373119984403970 
-0.013599517832389080 
-0.0057553746044070660 
0.0018620911187625937 
0.015946739572827034 
0.0076640370138757910 
0.0046435786122220520 
0.0046435786122220520 
-0.0025922926488149940 
-0.0026400175476359047 
-0.0057553746044070660 
0.017097110964434434 
0.025842845252779027 
-0.0079274822860607390 
0.0055047131932404950 
-0.0098469420214524730 
-0.0057180240174570890 
0.0019202736409328980 
0.0053805976548546450 
0.0054805117426727210 
0.0047346532250141560 
-0.00010911722279839847 
-0.0090418012288996700 
-0.019028833147248306 
0.0093620671324770570 
-0.0083043456974166720 
-0.00027684681258925844 
0.0028846847455274867 
0.0025744920072462910 
0.012672904608569823 
-0.0038844793011879016 
0.012864574482615670 
0.0048866304315841455 
-0.0081495391119463870 
-0.0098469420214524730 
5.9796231887089450e-05 
0.0020536336525643890 
-0.011608778520591384 
-0.031403320787369376 
-0.0027691845454049780 
0.0048866304315841455 
0.0025349337348864060 
0.013733258599607221 
0.0094721177722638970 
0.015946739572827034 
-0.0027871970583081150 
-0.022650115106018430 
0.012639411284982355 
0.0029727536402888452 
0.0029727536402888452 
0.015634269699615608 
0.0054805117426727210 
-0.0030279665797512160 
-0.0034655389492651008 
0.0088695937422880470 
-0.0030279665797512160 
0.0028846847455274867 
0.0028846847455274867 
-0.0057180240174570890 
0.014990027557789625 
-0.014264295340210840 
-0.00027684681258925844 
0.0036380336298318930 
0.028814995165614775 
0.010204828601287610 
0.0064601551793469080 
-0.0090418012288996700 
-0.0078126817676902330 
-0.0045990642680231310 
-0.0025922926488149940 
-0.016527886579294705 
0.0060849345326104800 
0.0060849345326104800 
0.0060849345326104800 
0.0041585311070004120 
0.023470507623921416 
-0.0031518288034497220 
-0.013055192700618537 
0.0042494395335032690 
-0.0045990642680231310 
0.0077719076495331860 
-0.0057346621273560490 
-0.0027478574624431440 
0.0060778784902396300 
0.0049037781041904540 
0.00014216840459534936 
0.015003144855564227 
0.0029727536402888452 
-0.0083814431911562510 
0.014990027557789625 
0.00028841419600599390 
0.0083835691317573950 
0.018273218749458052 
-0.0027478574624431440 
-0.012852782116703335 
0.00014216840459534936 
-0.010877588196059945 
-0.0027691845454049780 
-0.00085100596113842030 
-0.0027478574624431440 
-0.0092032028581348220 
0.016588348709944330 
0.035809905826694015 
0.013378598607572213 
-0.014264295340210840 
0.0048866304315841455 
-0.0045990642680231310 
0.013798548731554967 
0.0090050209044040600 
-0.0045990642680231310 
-0.0045990642680231310 
-0.0018640636551913344 
-0.0084391901593827960 
0.017912997345718763 
-0.0025395568212451067 
0.0088695937422880470 
0.0061167426926464034 
0.0049037781041904540 
-0.023174587127759920 
0.0023786785144661520 
0.0023786785144661520 
0.0080017422166328130 
-0.0074202722203152560 
0.020009949749041408 
-0.00081526823203813810 
0.0055486250297913970 
0.0046435786122220520 
-0.011913890674070162 
0.018273218749458052 
0.023470507623921416 
0.0076847755772121880 
0.023646761549454730 
0.0028846847455274867 
0.0076847755772121880 
-0.0057180240174570890 
-0.0077433193947158314 
0.0023786785144661520 
-0.0053331588277335920 
0.035890135891294480 
-0.0027691845454049780 
0.018925382223676047 
0.0039577576755377795 
0.0056650554393767840 
-0.0098492998356688560 
-0.00081526823203813810 
-0.017584328647750735 
0.0028846847455274867 
0.0076847755772121880 
-0.0028979313699225473 
-0.0048662240893449860 
0.013936200187154546 
0.0054805117426727210 
-0.0050015263628044800 
0.0037724523438372056 
-0.012016081526806080 
0.0064166186221265640 
-0.014111532786218864 
0.0084733457511118660 
0.016116918496763933 
0.0047346532250141560 
-0.0094234805285814630 
0.016588348709944330 
0.018407637311245340 
0.015938778998271775 
0.0053337771218494210 
0.025468357072620854 
0.015504103942783986 
-0.016272091353537733 
0.013300334960628815 
-0.017261797372799075 
-0.0036654765209034046 
0.012200024773447796 
0.0065611998274463860 
-0.0050015263628044800 
0.0046435786122220520 
-0.0097226864659501900 
-0.011829427450001232 
-0.0083043456974166720 
0.031719718813490304 
0.015938778998271775 
0.00014216840459534936 
-0.0045990642680231310 
0.0075796308736174590 
0.0076847755772121880 
-0.028510586898994410 
0.0067597901981647510 
0.0080017422166328130 
0.00056814031391768330 
0.0047346532250141560 
0.0068419327725094410 
0.00012434376702060327 
0.0075239858990468740 
0.0048866304315841455 
0.0025744920072462910 
-0.014652144592501965 
-0.0035232085263486113 
-0.0063644564678700215 
-0.0055501515336525530 
-0.011829427450001232 
0.0060849345326104800 
-0.0057180240174570890 
-0.0054954916342751260 
0.0075239858990468740 
0.0086684729188449000 
0.0046435786122220520 
-0.0016003106353213678 
0.0054548979454227460 
0.0057960831521994630 
-0.00081526823203813810 
-0.0081561826905952460 
0.012639411284982355 
0.013678915718839790 
0.0035169363733968356 
-0.00010911722279839847 
0.0039577576755377795 
0.0066938362676523080 
0.0025349337348864060 
0.013755069494819690 
0.0037724523438372056 
0.0060849345326104800 
-0.0083043456974166720 
0.0075796308736174590 
-0.0057482296564547900 
0.0067588128043429400 
-0.00010911722279839847 
-0.0078268042347688980 
-0.0064079054062244210 
-0.0019955734715469750 
0.011645876053196658 
-0.011504576828997694 
0.017560667312769680 
0.0077461698773692200 
0.0088695937422880470 
0.0061167426926464034 
0.0088695937422880470 
-0.0058848767278262560 
-0.0016003106353213678 
0.018501177847506062 
0.0055486250297913970 
-0.0030279665797512160 
0.0055486250297913970 
-0.0055431103260187850 
-0.0045990642680231310 
-0.0045990642680231310 
-0.0045605572533542650 
0.0036380336298318930 
-0.0057346621273560490 
0.012864574482615670 
-0.0089689265360016550 
0.0047346532250141560 
0.0037724523438372056 
0.0032931904493991187 
0.0048866304315841455 
0.0055486250297913970 
0.0073927947787143330 
-0.0057553746044070660 
-0.0095913646028185410 
-0.0053819801930553860 
-0.0038909272764697063 
0.0039327949571768385 
-0.0030279665797512160 
0.011645876053196658 
0.0057515350152037080 
0.0090050209044040600 
0.0042724306754363930 
-0.0056297576565659920 
-0.013599517832389080 
0.0039577576755377795 
0.0056650554393767840 
0.0039327949571768385 
-0.0081561826905952460 
0.0019054303432212629 
-0.0063644564678700215 
0.0084821143961979430 
-0.0055431103260187850 
0.0025349337348864060 
-0.0050088187447184850 
0.0042494395335032690 
-0.0057553746044070660 
-0.0031518288034497220 
0.0055486250297913970 
0.029158963082542240 
-0.010877588196059945 
0.0019202736409328980 
0.0019202736409328980 
-0.0027478574624431440 
-0.0048492901608349040 
0.014535499697870650 
-0.011829427450001232 
0.016588348709944330 
0.0084821143961979430 
-0.0083043456974166720 
0.016448765994899892 
-0.0046552727629643480 
-0.0018640636551913344 
-0.012674253012679446 
-0.0081495391119463870 
0.0024352093696579840 
-0.0045990642680231310 
-0.0050088187447184850 
0.0055486250297913970 
0.011645876053196658 
-0.0025922926488149940 
0.012864574482615670 
-0.016044756138102755 
-0.026778492259554854 
-0.013055192700618537 
0.021574232379992217 
0.0075796308736174590 
0.0061167426926464034 
-0.013554333997186465 
0.0029727536402888452 
0.0019202736409328980 
-0.0015628967687839111 
-0.013599517832389080 
-0.0084391901593827960 
0.0020536336525643890 
-0.0031518288034497220 
0.0090461720007508280 
-0.0055431103260187850 
-0.025699765317414580 
-0.0011540704604575459 
-0.014652144592501965 
0.0068711367563673185 
-0.0073325689700368230 
-0.0027501373444821170 
0.0090050209044040600 
-0.0055431103260187850 
0.0077596620494901940 
0.0054805117426727210 
0.0060173517098743800 
0.0079373119984403970 
-0.0079274822860607390 
-0.010313629690366536 
0.0048866304315841455 
0.0061167426926464034 
0.0097595868374535430 
0.0023786785144661520 
0.013780244410169442 
-0.013599517832389080 
-0.010019157335319466 
0.0089295036546038970 
0.0059735525134501245 
-0.0073080212732994230 
-0.015472295169061786 
-0.010081105791753694 
0.0019202736409328980 
0.013755069494819690 
-0.0045990642680231310 
0.0015298720115187279 
0.017560667312769680 
-0.0050015263628044800 
0.015880170980646670 
-0.011012977731970476 
0.013798548731554967 
0.017919201057579550 
0.0085712791561906400 
-0.0027691845454049780 
-0.0043700054087788790 
0.016116918496763933 
-0.014111532786218864 
-0.0056297576565659920 
0.026826227858111440 
-0.0049622909765769455 
0.00034279070000081495 
-0.011059605978472022 
-0.057733857823955154 
0.0079373119984403970 
-0.0055145633115314120 
0.0025744920072462910 
-0.0055431103260187850 
-0.016192455558993832 
0.0048866304315841455 
0.0065802170533498430 
0.0088695937422880470 
-0.013554333997186465 
-0.0013163060439071762 
-0.0069460208968417720 
0.0093620671324770570 
0.0038854080095752940 
0.0048866304315841455 
-0.0057482296564547900 
-0.0023436994522700570 
0.0079373119984403970 
-0.016044756138102755 
0.011048750546710175 
0.013798548731554967 
-0.032043279643668200 
0.0075239858990468740 
0.015364052435203262 
0.0060698932919500525 
-0.0065890690738949290 
0.0023786785144661520 
0.0049062827084507140 
-0.00065122776931103020 
-0.0023072287561951292 
0.0055486250297913970 
-0.010740196054063482 
-0.033842045797770680 
-0.011504576828997694 
-0.0073080212732994230 
-0.0082563114812492020 
0.0055486250297913970 
0.0084733457511118660 
0.015315420965908927 
-0.0038844793011879016 
0.0048866304315841455 
0.0077596620494901940 
-0.0042507051498073020 
-0.0032939268788473052 
-0.013435852090364981 
-0.093475316017684120 
-0.030137765511752830 
-0.032043279643668200 
-0.013599517832389080 
-0.011059605978472022 
-0.0069460208968417720 
-0.0030279665797512160 
-0.013975634837052983 
0.00028841419600599390 
-0.0057553746044070660 
0.016745093461770815 
0.0047346532250141560 
0.057260478433217480 
0.00014216840459534936 
-0.0025922926488149940 
-0.019768494460284280 
-0.0019955734715469750 
-0.0028979313699225473 
0.00028841419600599390 
0.0099026457059425420 
-0.0084391901593827960 
0.0085712791561906400 
0.0079373119984403970 
-0.0045990642680231310 
0.010204828601287610 
-0.010548136740648051 
-0.011085270585202875 
0.033059716998413730 
0.0055486250297913970 
0.013798548731554967 
0.0025347075109774155 
-0.0025395568212451067 
0.0075683625544429880 
0.0093620671324770570 
-0.0073080212732994230 
0.0027994517756003340 
-0.0068405301207446300 
-0.014623630857012293 
0.0057515350152037080 
-0.0063644564678700215 
-0.00081526823203813810 
-0.0074202722203152560 
0.0049037781041904540 
0.0077719076495331860 
-0.022650115106018430 
-0.013554333997186465 
0.015938778998271775 
0.0099026457059425420 
0.0039079757956754285 
-0.0057482296564547900 
0.0089009615825787120 
0.0076847755772121880 
0.0076847755772121880 
0.0069367693339679830 
0.0069100405465089490 
0.017560667312769680 
-0.0073080212732994230 
-0.0097226864659501900 
0.0049414601547699460 
0.0057395028065183006 
-0.0027691845454049780 
0.0047346532250141560 
-0.0081561826905952460 
-0.0065890690738949290 
-0.012472311183911972 
-0.0069460208968417720 
-0.0068405301207446300 
0.0074110751810011810 
0.0054805117426727210 
0.0014053463115949562 
-0.010178977492825059 
0.025468357072620854 
0.0077461698773692200 
-0.0080185773152769100 
0.0077596620494901940 
-0.011815916473784993 
0.0022104259824476578 
0.0056650554393767840 
-0.00010911722279839847 
-0.0014474155710167001 
0.0047346532250141560 
0.0066182699489329290 
-0.0089689265360016550 
-0.013554333997186465 
0.010204828601287610 
0.0056650554393767840 
-0.016192455558993832 
0.0040502433998034940 
0.0054805117426727210 
-0.0045990642680231310 
0.0079373119984403970 
-0.0067384384376269230 
-0.014111532786218864 
-0.0065890690738949290 
-0.0025922926488149940 
-0.0020006146639393020 
-0.0055207808766606790 
0.0034462595069399640 
0.0080017422166328130 
0.0067588128043429400 
0.0080017422166328130 
0.017560667312769680 
-0.0045990642680231310 
0.0039577576755377795 
-0.013055192700618537 
0.018501177847506062 
0.0085233926957848080 
0.0054805117426727210 
0.0079373119984403970 
0.0054805117426727210 
0.019395368979600217 
-0.014111532786218864 
-0.0027478574624431440 
-0.0025395568212451067 
-0.0060356931366259950 
0.0064601551793469080 
0.0042494395335032690 
0.0054805117426727210 
-0.0087905076132206940 
-0.0025922926488149940 
0.0037719325962911193 
-0.051342852579859880 
0.0071386730541883500 
0.0076111031962957980 
-0.0078126817676902330 
-0.0025395568212451067 
0.0025349337348864060 
0.014811452978636654 
0.0059614660470033530 
0.0027847288875221385 
-0.0028785450604039615 
0.028032194274098695 
0.0038854080095752940 
0.0045014015556135000 
-0.044164473864220200 
-0.0018640636551913344 
-0.0056128260625321405 
0.013733258599607221 
0.0086684729188449000 
0.0061167426926464034 
-0.0031518288034497220 
0.0039577576755377795 
-0.0025395568212451067 
-0.0098901768724161190 
0.0037724523438372056 
0.0093620671324770570 
0.0049037781041904540 
-0.0095845103853820220 
0.017923501800199210 
0.0025744920072462910 
-0.0074202722203152560 
-0.0028979313699225473 
-0.00081526823203813810 
-0.011504576828997694 
0.0050224773301756200 
-0.0083043456974166720 
0.0025347075109774155 
0.010816937878557913 
-0.0060630855079466875 
0.0034462595069399640 
-0.032043279643668200 
-0.0080185773152769100 
-0.0097226864659501900 
0.012864574482615670 
-0.0028979313699225473 
-0.0051731464095482270 
-0.014111532786218864 
-0.0016003106353213678 
0.0077461698773692200 
-0.0057346621273560490 
-0.018780696413635188 
-0.017478616296505560 
0.0048866304315841455 
0.0085712791561906400 
0.0061167426926464034 
0.0077461698773692200 
-0.0030279665797512160 
0.0086684729188449000 
-0.0065890690738949290 
-0.0016003106353213678 
-0.014111532786218864 
0.0042765420816492730 
0.0077596620494901940 
0.021574232379992217 
0.0037719325962911193 
0.00028841419600599390 
-0.017584328647750735 
-0.0083043456974166720 
-0.013599517832389080 
0.0061167426926464034 
0.0060698932919500525 
-0.012016081526806080 
-0.0057482296564547900 
0.012864574482615670 
0.0038854080095752940 
0.0028846847455274867 
0.0037724523438372056 
0.00025133631691202460 
0.014535499697870650 
0.0022922730624370510 
-0.0063660964477100210 
-0.0017891967342194156 
0.0042494395335032690 
0.0054805117426727210 
-0.022650115106018430 
0.0090050209044040600 
-0.010548136740648051 
-0.0022249227746511465 
-0.0020574598155430304 
0.0048866304315841455 
-0.0025395568212451067 
-0.0020006146639393020 
0.017097110964434434 
0.0048866304315841455 
0.0054805117426727210 
-0.032043279643668200 
0.0097595868374535430 
-0.015472295169061786 
-0.011382852159603593 
-0.0083043456974166720 
-0.0057553746044070660 
0.0042589759058784110 
0.0038854080095752940 
-0.0027691845454049780 
0.0097595868374535430 
-0.0020006146639393020 
0.0077171761419164465 
0.0062256037152967980 
-0.017478616296505560 
0.0054805117426727210 
0.017912997345718763 
-0.015770632412239215 
0.0055486250297913970 
0.015880170980646670 
-0.010548136740648051 
-0.028214198195679586 
-0.0051012520749663046 
-0.0020536440960188264 
-0.0016264244289232812 
-0.0019955734715469750 
0.0094808008687236290 
0.0036380336298318930 
0.0084821143961979430 
-0.014111532786218864 
-0.0083814431911562510 
0.0054805117426727210 
0.016588348709944330 
0.0036380336298318930 
-0.0045990642680231310 
0.012639411284982355 
-0.014007714050372130 
0.0019202736409328980 
0.0015298720115187279 
0.013936200187154546 
0.0079373119984403970 
-0.0020010875947904530 
0.013798548731554967 
0.0045014015556135000 
-0.0095845103853820220 
-0.00010911722279839847 
0.0023786785144661520 
-0.020986822311679313 
0.0037567849282460894 
-0.026778492259554854 
-0.0060630855079466875 
0.0020536336525643890 
0.028032194274098695 
0.0038854080095752940 
0.0090050209044040600 
0.0041585311070004120 
0.0039577576755377795 
0.0075239858990468740 
-0.0055145633115314120 
-0.0050015263628044800 
-0.016272091353537733 
-0.010081105791753694 
0.0069100405465089490 
-0.0018394954051999374 
-0.0035647869650091910 
-0.0071878177165683830 
0.0088695937422880470 
-0.019219525755198332 
-0.010918535642248334 
0.023372151758881330 
-0.00071207539817445970 
-0.0055145633115314120 
-0.0050242606642022500 
-0.011085270585202875 
-0.0068405301207446300 
-0.0027691845454049780 
-0.010081105791753694 
-0.0065533357282115580 
0.0019202736409328980 
-0.0019955734715469750 
0.0055486250297913970 
0.023646761549454730 
0.0068419327725094410 
0.0072594664396775430 
0.0048866304315841455 
-0.013435852090364981 
-0.0010849001823793527 
-0.00026492624072444920 
0.0057960831521994630 
0.028093404528622330 
-0.0080185773152769100 
-0.0083814431911562510 
0.0079373119984403970 
0.0068419327725094410 
0.00014216840459534936 
-0.011504576828997694 
0.0025768759449119683 
-0.010655329405187102 
-0.0024986029256160710 
-0.0025322881647035710 
-0.0019955734715469750 
-0.0058889763475887830 
0.032615303801115550 
0.0035686715842567970 
0.011955059801871663 
0.0076111031962957980 
0.0075239858990468740 
-0.012852782116703335 
-0.026778492259554854 
-0.014122287948051856 
-0.010918535642248334 
-0.032043279643668200 
0.0084821143961979430 
0.0019202736409328980 
-0.00027684681258925844 
0.00022958649043812554 
-0.0020006146639393020 
0.0076847755772121880 
-0.0011964988421616597 
-0.0056297576565659920 
-0.0098469420214524730 
-0.011012977731970476 
0.039252293884067466 
-0.0084391901593827960 
-0.00027684681258925844 
-0.00010911722279839847 
-0.0081561826905952460 
-0.014111532786218864 
0.062186834527363500 
0.0089295036546038970 
-0.00010911722279839847 
0.0054805117426727210 
-0.0098469420214524730 
-0.0063644564678700215 
0.017919201057579550 
-0.0026400175476359047 
-0.017405442071669087 
-0.0055764242492859050 
-0.0026400175476359047 
-0.0089689265360016550 
-0.0043831059099686620 
0.0054805117426727210 
0.0045014015556135000 
0.0025347075109774155 
-0.013599517832389080 
0.0060778784902396300 
-0.011059605978472022 
-0.0020006146639393020 
0.0093620671324770570 
0.0031467480326197645 
0.0022453061093232980 
-0.0025922926488149940 
0.014292812461781240 
0.017912997345718763 
0.0075796308736174590 
-0.0033874909101187350 
0.0057794115206077760 
-0.0082745270866477330 
0.0055486250297913970 
-0.011059605978472022 
-0.023913576060250675 
-0.0028979313699225473 
-0.0073544224257672380 
-0.0069460208968417720 
0.0049479051159329620 
0.0038854080095752940 
-0.023369342808003908 
0 
-0.0015628967687839111 
-0.0082987906568989940 
-7.5375759944514070e-05 
0.027305646698495690 
0.0047346532250141560 
-0.014774919169089634 
-0.026778492259554854 
0.0080017422166328130 
-0.0026400175476359047 
0.0048866304315841455 
0.013501740635806550 
0.0063458949479052080 
0.0037719325962911193 
-0.0098469420214524730 
0.0064601551793469080 
-0.013055192700618537 
-0.0025922926488149940 
-0.0048100172677594600 
0.0077596620494901940 
-0.0029711567243955773 
0.0010597271199240302 
-0.00081526823203813810 
-0.0015628967687839111 
-0.032043279643668200 
-0.0052532842265334640 
-0.013489989511692604 
-0.012674253012679446 
-0.011059605978472022 
-0.0016003106353213678 
0.0076111031962957980 
0.0037724523438372056 
0.0069100405465089490 
0.0068419327725094410 
-0.0025922926488149940 
0.0072594664396775430 
0.028032194274098695 
0.014811452978636654 
0.022340561327983160 
0.0069184856667702420 
-0.0044758307782335315 
0.0041585311070004120 
-0.0097226864659501900 
-0.0014052807421378508 
-0.0020006146639393020 
0.0076847755772121880 
0.0041585311070004120 
0.0049246316363165850 
