solver_type L2R_L2LOSS_SVC
nr_class 2
label 1 -1
nr_feature 7999
bias 0.0000000000000000
w
0.058167043304686230 
-0.10654341003767813 
-0.069384088373425080 
-0.066824279080023600 
-0.011786436397062764 
-0.071511490252944580 
-0.057149356716343850 
-0.073527959146003850 
0.094214292636583440 
0.093269153185240750 
0.077401208870754900 
0.053782592349559066 
-0.039178972663022275 
0.034241236571047750 
-0.051455881287715390 
0.060606758820720390 
-0.016571681510809110 
-0.059524363339519350 
0.032219930394809373 
-0.021541568689330413 
0.053982164450376700 
0.038594825959606560 
0.053752121037555764 
0.072286805862713200 
0.018023735503943280 
0.047580333004470295 
0.034752455842053234 
-0.044569767981787266 
0.041765450859662140 
-0.056774665322664584 
0.067785666355419720 
-0.025874063238499057 
-0.032848889151662244 
0.064314748955892470 
-0.035311539962143940 
0.028972778990191184 
-0.014863017147334128 
0.020386390576293757 
-0.035584401134409305 
-0.032382823621826840 
-0.059785384688081060 
-0.027564746188461726 
-0.047724990237676054 
-0.015836528089170640 
0.040472716162036834 
0.033026447457657510 
-0.061072275766367140 
0.041006055249183986 
-0.030732769052866375 
-0.024887837275241846 
-0.0075287055435521580 
0.065876942792624240 
-0.035715342817723886 
-0.068178859792389120 
0.036173732016377566 
-0.053281804675973190 
-0.044672031965509510 
-0.033882661945314420 
0.038780947947331626 
-0.031806944983079705 
-0.025783426091733168 
-0.019406667701148256 
-0.025047232583710640 
0.048584181065753540 
-0.048074250572274610 
-0.029553531593410360 
0.018102841942249360 
-0.0028537503284941103 
-0.015336612937884969 
0.028333308687710713 
0.036091221324902560 
-0.020403982284578952 
-0.018534458318260373 
-0.022197895385399274 
0.019104711748207444 
-0.032497798987743690 
-0.032417430980989830 
-0.022900926657353767 
-0.024878570839020973 
0.036035728961168060 
0.070836221301854730 
0.013170588074670374 
-0.027935848375840684 
-0.033785346621916150 
-0.033788594733290246 
-0.017527293848770557 
-0.024046423996955870 
0.048559979639430340 
-0.034693809734020906 
-0.036497273401106910 
-0.034225357808911690 
-0.044052534958551350 
0.028281875627674080 
-0.036782651586017650 
0.039979321588002410 
-0.059945846002928294 
0.053015624576244105 
-0.023943120562432245 
-0.016034770586234900 
-0.032880232987764010 
-0.015495680325880548 
0.031685504099929145 
-0.027628044221523235 
0.021931639487378505 
0.020209993594575740 
-0.018820142451561418 
-0.023952730808620943 
0.034776368806379920 
-0.0083179501076879120 
-0.020060883454084598 
0.084965583991643420 
-0.035599768305128070 
0.023140822091448528 
-0.020539808022418880 
-0.0080854542454106020 
0.014161921742185344 
-0.021431806995352350 
-0.026255339823156486 
-0.014724224326598933 
-0.063657847673187370 
-0.057055582195998863 
-0.029830644919153450 
-0.020182987190364078 
-0.0076210849837377555 
-0.033234091171479935 
0.023872103125415740 
-0.016010094684699270 
0.046923526099231750 
0.072093217651374750 
-0.0094221461886833430 
0.040842123295203670 
0.030140725840419630 
-0.018020979333089063 
-0.055686209890851754 
0.065786196328732590 
0.041775468282001140 
0.052339640852302194 
-0.035375093024862650 
-0.078479919706221880 
0.024769648348080035 
0.10990097156521299 
-0.027197583949431323 
-0.044159758116535164 
0.047861032149180130 
0.017714081023282768 
-0.030061467173255950 
-0.00059998960584524770 
-0.028373927550941983 
-0.051954344116693470 
-0.050518380285510284 
0.067107097856244150 
-0.021072132462653200 
-0.049811274962286700 
-0.042377964830386040 
-0.030303216405687932 
0.033689157662190980 
-0.024030926949043020 
-0.036564639960537380 
0.039755536963816610 
0.060201225438596660 
-0.015956291391915713 
0.058987522584817670 
-0.036124309622549280 
0.016904640808051256 
-0.024602615895789104 
-0.0089193401251405600 
-0.0098671035650080530 
-0.054567993084590524 
0.041099166062615990 
0.026485912046441806 
-0.026599744554256940 
0.031845087252449880 
-0.018937568275854372 
-0.018580774566269175 
-0.035447404804760930 
0.018672718811719060 
-0.012151502795627036 
-0.035447404804760930 
0.027935233711510837 
0.022919471324095090 
0.058287071240908414 
-0.030419293607404946 
-0.014880546303633804 
-0.0057614453354081680 
0.013602758567812056 
0.021095293780791946 
-0.036574209758870525 
-0.037902358542289794 
-0.041187317700769416 
0.0046623924236584240 
-0.036936560504531870 
0.030699143513083935 
0.051739962138900066 
-0.029589684831142958 
-0.045027024562680235 
-0.021917551599505180 
-0.037629279590733020 
-0.018051272215121563 
0.023556751903403190 
-0.022231511456087060 
0.023710174925846247 
-0.015908961244389720 
0.046293503952232515 
0.034226545782466500 
0.030358834975226633 
0.034918328411758646 
-0.042444651043691240 
0.037079920127374420 
-0.017802407670994170 
-0.0012562077316512516 
-0.048152829142253360 
0.028937015256987348 
-0.038079375698984160 
0.050792795220176414 
-0.030229005231501987 
0.052213180202000976 
-0.014604334520570230 
0.0056083907511671730 
-0.011898008647029317 
0.038937803575513026 
-0.024790647616449950 
-0.022325828337496270 
0.031960653180506210 
0.016241965856933896 
0.051401188029366496 
-0.015214346793926170 
-0.023519850020355653 
-0.0093777498857369330 
-0.0074674030921800650 
0.030570589989323530 
-0.012618388695693959 
-0.0047792207816905380 
-0.025415704552227122 
-0.017522136483935760 
-0.010171283419516687 
-0.017246015491664020 
-0.020068946565624038 
-0.010133489816137850 
0.018466294712409535 
-0.024313964919039394 
0.017990493196558783 
0.010304223174104078 
0.042727904348321730 
-0.013127940343597488 
0.021771165434806370 
0.018385428779581874 
0.012922909269518442 
0.040158788107491246 
0.0068851208619344550 
-0.022813015526045810 
-0.025020874107234160 
-0.027746132400989113 
-0.041655196637300225 
0.019845263973688140 
0.047143070344466350 
-0.020837939331261247 
-0.025193701845769228 
0.012600139354615294 
0.026931226939403790 
-0.019414445716358260 
-0.030372213628814730 
-0.026243468169398380 
0.043146138431260720 
-0.022905645778263966 
-0.012524181051618425 
0.030935068790082853 
-0.022738779542818208 
-0.016478628655277020 
0.024158565175061993 
-0.020963580492995790 
0.013402245598480830 
-0.022792157109993626 
0.021358080246858970 
-0.022277268752105048 
0.051733712947240000 
0.034403618227339670 
0.015066872256805601 
-0.021375743688716458 
0.025055838444083538 
-0.024253837838611816 
0.010743973950943963 
0.019834668796572308 
-0.037474180241683655 
0.017321569903406530 
-0.028375065565924826 
-0.037248953380699750 
-0.028788333675068688 
0.035671938251515130 
-0.013833327865438502 
0.030557170202012943 
0.026264205837746777 
0.035260824261712380 
0.045951280503329980 
-0.033702071463011390 
-0.023831639143254493 
0.024114162928839700 
0.020884540200946235 
0.0099236557393492380 
0.022115466783104436 
-0.036891809696280820 
0.040700984607400646 
-0.075044378310463280 
0.026148078547389368 
0.022362555616881063 
0.031958904727931480 
-0.021594751826440280 
-0.021979079396033350 
-0.0083839850585966280 
-0.033798885497062650 
-0.014431407702648875 
0.038136959965000466 
0.011927710925356494 
-0.022572123015238713 
0.042626822434365870 
-0.028808175095336848 
-0.020798372128246620 
0.017867704542462630 
-0.011516129835063872 
-0.043490115946823120 
0.039572901922445220 
0.024958213103204180 
-0.026813827549321993 
-0.033632045534306840 
0.030469541679458680 
-0.010827366858751764 
-0.044899370243752804 
-0.035098879580382030 
-0.022023214390893404 
-0.016149197154403116 
-0.022813015526045810 
-0.044899370243752804 
0.018228116324338964 
-0.023391543494861507 
0.0072178620125187520 
-0.019109726730756702 
-0.017672535137317712 
-0.025399544454918660 
0.024415389514353590 
-0.018424807553959880 
-0.016594997691267342 
-0.025683393040448015 
-0.045901240091011790 
-0.028194810389325880 
-0.033334955057835980 
0.019170200927809227 
-0.016116643844641967 
-0.019643516432601156 
-0.0087398214619332330 
-0.034298842543785776 
-0.010895511319027357 
-0.036827284819723805 
-0.030620796123622774 
0.026850295186169480 
0.030667931298948850 
0.016969343539889714 
-0.012521607607275343 
0.010024826278816292 
0.021845194069205383 
-0.011354654566902387 
-0.031444113304043970 
-0.010529568513657942 
-0.047518386959677560 
0.025449271955103252 
0.021289868841696460 
-0.023146596932048378 
0.010060766848513007 
-0.014608970952161716 
-0.016907597852374760 
0.010697712784973007 
-0.021685135956600158 
-0.024025249894611127 
-0.049718701055695536 
-0.011999209658157211 
-0.022216408366215797 
-0.023980930223059890 
-0.026181883593132296 
-0.026426467020475655 
0.025994133804364654 
0.031293418360672880 
0.026121737901715800 
0.019426525664546543 
0.025422052708667705 
0.013334815911843495 
0.036830088548232200 
-0.0046295694613155550 
0.028416974286982765 
0.063170207327729890 
0.088068748031295300 
-0.026027729455369488 
0.032855999137273390 
-0.035301840543812960 
-0.011580065153207454 
0.023635537361498100 
0.021462506915907106 
-0.029506093055301440 
0.021607195051712160 
0.0027921248212525120 
0.024139854580871593 
0.034587820437275290 
-0.027450766976162465 
0.012777719779271774 
0.016031185857143436 
0.020131844598370210 
-0.016552216905324010 
-0.055426196978416190 
0.027167583483254622 
0.012867603608184819 
-0.029749290436189655 
0.013297938850733885 
0.0093158677305148700 
0.037284854244366575 
-0.0042682658062285530 
-0.010421479843577448 
0.023398024303078610 
-0.055476016952970670 
0.020636377926822387 
-0.021905862028430065 
-0.031284496500339560 
-0.021549002157391470 
-0.017548801554065876 
0.055301357608550480 
-0.038142529489927600 
-0.032425408800125254 
-0.034452057897949100 
-0.019715887892150080 
0.034705255562619254 
0.020065567333019157 
-0.025598397672398010 
0.042597310720131044 
-0.010822057004622890 
-0.018674394374861900 
0.015580016108167399 
-0.027365098568513702 
-0.021644120404803210 
-0.012104239651859583 
-0.010160721416780058 
0.026350620681212092 
-0.033652925065300855 
-0.034309574225963300 
0.026246447640025837 
-0.018771144719494140 
0.035052971040400935 
-0.024405864878115524 
0.015898799975195478 
-0.011769625305821107 
-0.044720213359342335 
0.0049940689371976010 
0.011949797401770181 
-0.038697859919367020 
0.026921459052600766 
-0.0068067509625023510 
-0.035168386965626006 
0.021952939234777355 
-0.018055478595413087 
-0.035973656422786920 
-0.013496541425070929 
-0.051823919107162250 
-0.036498683333817650 
-0.039859796872072980 
0.015584992433069473 
0.0015094609721716119 
-0.052538987080672130 
-0.015805437767387310 
0.037093760493794405 
-0.00025601924349068455 
-0.014767259357186742 
0.020198509469425367 
-0.018311401287296542 
-0.028535474608117426 
0.011019749079112046 
0.039848914220206075 
0.040442044683873780 
-0.0015713352557907457 
-0.025357984242780233 
-0.043045486873796240 
0.033613108536021080 
-0.054269631455709200 
0.025422804757150145 
-0.036248344353882196 
0.031555511267609510 
-0.017948049514618990 
-0.023758685214436990 
-0.018860501406006670 
0.053126321628177250 
-0.014971189854583566 
0.034649950473941120 
-0.014559798718856636 
-0.053558074199911540 
-0.021123590390362382 
-0.041450910618556410 
0.026601776331039242 
-0.071693618304684100 
0.056287392460241330 
-0.064457749539474600 
-0.017673799450807066 
0.035386802971249370 
-0.063708742137657080 
0.067929895238224400 
-0.011400183699440531 
0.035804467944897694 
0.011637534656822570 
-0.00051855613526573120 
0.031789228274638100 
-0.027998073333006575 
-0.0051396420101382610 
-0.036400617259839240 
0.038534457190275750 
0.086218711758609850 
0.017837450073640473 
0.067969635497940400 
0.053469341398122520 
-0.039820986052149500 
-0.034008507242836860 
-0.037676852402734230 
-0.0030283928160824846 
-0.020278611127901407 
0.045349313664455890 
-0.012153099388082435 
-0.044950851665723365 
-0.014896142378846560 
-0.018294009949119360 
0.010757617697621710 
-0.017824701857848960 
-0.017855502601467434 
0.031278189315215390 
-0.027062983687144440 
-0.0050353172584598925 
-0.032008321808252030 
-0.00077261128510131220 
-0.0018274854491348540 
-0.0047608635673587900 
0.0082492609906555200 
0.029904263323910390 
0.017062485205116256 
-0.0038784791830491050 
-0.0066488111719186360 
-0.017357068281982628 
0.020194951661684207 
-0.021351262029806080 
0.0037874251841990055 
-0.012519470001480263 
-0.0068183635905758960 
-0.0047608635673587900 
0.015127088277923776 
-0.0075161677178168370 
-0.013330436660936569 
0.0063913651305438190 
0.0083604478638775130 
0.024195406767796310 
-0.011138592328427016 
0.018492271169795987 
-0.0084121108327567320 
0.0015823163992069135 
0.0030314493087589790 
0.016608121893912820 
-0.0021108889268987886 
-0.015185800604388910 
-0.034412960944512520 
0.015395274632014691 
0.013892513998798357 
0.018846416827577553 
0.025796754262504190 
-0.0025762697594977936 
0.012546676524219699 
0.0081447378884666810 
0.027982313344657310 
0.011634871920962720 
0.015055995519077965 
-0.034813374199764144 
0.016542864290507360 
-0.011768466290083917 
0.0086029392718215010 
-0.0091998344303468800 
0.010965423702266174 
0.0095126418805380790 
0.013046041062890165 
0.018834245882328716 
-0.0097683902043897400 
0.012889677080534045 
0.098874945648272150 
0.023369356161935390 
-0.0080014087629463660 
0.0069253615408009860 
-0.033754982617287320 
-0.033913375125391990 
-0.018779975837945894 
-0.017069136668105770 
-0.027306852082852040 
-0.024936900258947577 
0.039987213651812930 
0.0041078397646679100 
-0.0066358036690104686 
-0.0070431256199445590 
-0.029130495439290156 
-0.010311895094533433 
-0.0097816870698560210 
0.0099759912779668100 
0.047603472861065880 
0.0066613088660922954 
-0.012955669748848727 
0.018093085600726724 
-0.016116185062112890 
-0.023286503784340325 
0.00085422930922292350 
-0.00051733689600160860 
-0.027591495240134274 
0.030928218603503005 
0.025207903653537650 
0.0081280303929879790 
0.051421081978577530 
-0.012369413338089018 
0.0070412080652661290 
-0.0091665136354513390 
-0.024533671901623248 
-0.00015769787476236857 
-0.0032559259646776460 
-0.0024815243555902250 
-0.013762887951330731 
0.020389503113577376 
0.011358397486223148 
-0.017242964561773988 
-0.014904353748981558 
-0.022650019313714707 
-0.015467478676843768 
0.015528936281472405 
-0.0044080610993087640 
-0.0098932985528742850 
0.0018542862219656578 
0.024258350470192270 
-0.0011747470869863696 
-0.019320112433985306 
-0.012862886634732963 
-0.012657113254070690 
-0.010311895094533433 
0.040374278537032360 
-0.042924386635704980 
-0.010708623468135817 
-0.030483663126137973 
-0.0016634020947535450 
0.021447187835754677 
0.012302917687006691 
0.021809264677085590 
0.014799209337528020 
-0.0032685735961165713 
-0.028855739839658327 
-0.0087698107999491130 
-0.0031028798811624210 
-0.019561211730480806 
-0.0079694973151650580 
0.027184906151247460 
0.010217799438175178 
-0.0035647207871918074 
-0.011874387171027519 
0.025381478643907114 
0.022769272390554623 
0.051989645380355680 
0.015288435773699533 
-0.015340769399066891 
0.021391256839881835 
0.0073658439507757675 
-0.0073441253483722600 
0.017526832839843070 
-0.030411501927602023 
-0.045941430933178720 
-0.023265779936924360 
-0.019305013388908488 
0.0037874251841990055 
-0.012870728173398230 
0.041834595802631580 
0.032072748519307470 
-0.043456534247573110 
-0.0086158993362605470 
-0.024100824267397958 
-0.018816435883656270 
-0.0080430740928741190 
0.015953230654373300 
-0.013762887951330731 
0.00012061008988372255 
0.030852011416417000 
0.016792508875163606 
-0.029298810339320552 
0.024436188179181948 
0.011278544816819426 
-0.038676795784898466 
0.0035476476479151450 
-0.012250771121617815 
-0.020600010727648527 
0.013753905640714210 
0.014936201511696048 
0.0081984156893624550 
0.010453784931784707 
-0.013986656883095418 
0.015534562115890783 
-0.0091065428520956840 
0.0049697142600875670 
-0.010252348828324001 
0.021614350021834455 
-0.025617710755459037 
0.038044830270729830 
-0.011724413282457661 
0.016428938381644810 
-0.018908023141404860 
0.038748344983257244 
-0.019130811533224715 
-0.033028688705195180 
0.014459112478086214 
0.0059189227984890760 
0.010183562249984457 
-0.021306626683467780 
-0.014700231872800890 
-0.022077222430360924 
0.012697689986753390 
0.0018989162864412090 
-0.017787258586829367 
-0.017586044315209290 
-0.030365359226740735 
-0.012797699930228596 
0.018757302354634300 
0.010210181941867125 
-0.0066434448718446990 
0.021773933693046307 
-0.012112790642485395 
0.0061124709819802975 
0.033847921439536970 
-0.0068477332357601120 
0.015173220337341987 
0.033808910883666060 
-0.0091665136354513390 
0.0091973686389886030 
-0.017187387367742665 
-0.0065619751711399040 
0.0096058782573750710 
-0.020388142620168193 
0.011929681680202146 
0.0052979819244960850 
-0.0051459901447761320 
-0.022257387677796146 
0.030595636140446258 
0.016588402802090414 
0.025506635865445760 
-0.019601992155614922 
-0.010268891215960385 
-0.013718102364107525 
0.011429756644132951 
0.012326157508739966 
-0.015448912815742165 
-0.018506421064884740 
-0.013523386179566280 
0.0079448724428139000 
0.0070154813606774980 
0.0078555637970124420 
-0.018715635252094030 
0.0070393160621257120 
-0.026749744701524174 
0.0078642408670413330 
0.018748814945063502 
0.034946557232765970 
-0.019584872074877840 
-0.020198354543837040 
0.011076515690065750 
-0.019255700022255300 
0.00027101769929296216 
-0.022256249214537520 
-0.015676257265552197 
0.00012061008988372255 
0.014328406567992448 
-0.020916177695937930 
0.037216146512080160 
0.00059304460419324190 
0.010398414269211620 
0.017374884523449936 
-0.013263685137376325 
0.012698130256279394 
-0.025342989666228933 
-0.043387998701649604 
0.013091808256452753 
0.021725352579644832 
0.033550518216405400 
-0.037536374995566840 
0.0084571215303752490 
0.017845586961012940 
-0.018781047548562130 
0.013785144397386700 
0.035281938784047410 
0.027767632448818820 
0.017206185089088390 
0.0094068975293340580 
-0.00014201972601023057 
0.015065466115498760 
0.011326334701919840 
-0.010175124469019563 
-0.013455310106717204 
-0.0048197245555126650 
-0.041247434334508770 
0.037934095981304566 
-0.037477688362873580 
0.025628699123029450 
0.048023285060868920 
0.0063568364902479670 
0.0030314493087589790 
0.013774026748533114 
0.0024696585838247960 
0.016920070897732026 
-0.019496129758930180 
0.012320793002522859 
0.017056286917586566 
-0.028680185983114517 
-0.045968644472209250 
0.033532909676304620 
-0.037469047832168575 
-0.023440103312724767 
0.017476261668650392 
-0.020388142620168193 
0.0031028011489644325 
-0.020750738374923120 
-0.0029193093147349230 
-0.025645265856462957 
-0.022376925690842430 
0.053265784788389900 
-0.035996553245065030 
-0.010995943994146823 
0.00085422930922292350 
0.016834917705388190 
0.012857069735020432 
-0.0076699450532461836 
0.010519327458049503 
0.024151561559874055 
0.022703510711394065 
-0.012955669748848727 
-0.0088488197173168960 
-0.013801681754103541 
-0.012157503110125024 
0.044690714708838127 
-0.024955584824579580 
-0.029378514433052730 
-0.033368955386930390 
0.049440875489904380 
-0.020296051350829594 
0.017474198213461783 
0.046064788153602360 
-0.013850925131030424 
0.0082054845761517590 
0.010489139894360133 
0.0094011435764566200 
-0.015741174595837740 
-0.0037438057034691924 
0.055863109699654544 
0.017280847193301082 
-0.010700821376006350 
0.0055443454512895150 
-0.012873884017977174 
0.0050553991747532370 
-0.015117698394923080 
-0.015558373845621382 
-0.00074056699925937880 
0.036245657144041350 
-0.010053633833163005 
0.018328058213141660 
-0.0047277259466766860 
0.051678547342642260 
-0.031311452574877010 
0.0064820351960677290 
-0.019308974484237466 
-0.015968249534428675 
0.052994364272721514 
0.011926712419778326 
-0.018853648306603417 
0.015989048378657954 
-0.027265196648066956 
-0.019308974484237466 
0.0076133725325600015 
0.036086846201213660 
-0.014572773697556836 
-0.020381387561180502 
-0.0096251731880714010 
0.018484989281427120 
0.011771269036839456 
-0.020627012969036015 
-0.018430630529845080 
0.0084380735568131030 
0.0094524562270739270 
0.0018542862219656578 
0.0073858703726353280 
0.010519327458049503 
-0.0011837979985067410 
0.010273038895956361 
-0.017531890677387193 
0.021245635650423027 
-0.0024960637139735116 
-0.032450251785488625 
-0.020318485212095085 
-0.014374751849110788 
0.032005047583944984 
0.036347045232915960 
0.028875486044753013 
0.0097864470325126470 
-0.016653493809519703 
-0.014701390017776586 
-0.028097597689899605 
0.018125064237469940 
0.016639954172018245 
-0.0021703198660668350 
0.0093137515865103580 
-0.013762887951330731 
0.0058867797338963600 
0.023363504162225112 
-0.014751779685500926 
0.011499947242358070 
-0.028987098618871988 
-0.011626300810891848 
0.040673513876680695 
-0.021312402449819304 
-0.010579103919653865 
0.00029482552591994905 
-0.031356281715629056 
0.0077922596038827930 
-0.010078395337304362 
0.026399832251243985 
-0.0069779254397419690 
-0.017332054044020787 
-0.0097683902043897400 
0.026429324914182463 
-0.0077666735714532580 
-0.020600010727648527 
0.0071604395063756360 
0.031031186415207503 
0.0013558211523154384 
-0.023960353289566926 
0.0033550216962968950 
0.0030377001013944475 
-0.020667046465479576 
-0.0047622601312376300 
0.010273038895956361 
-0.0083622088062837320 
-0.0061537746761418325 
-0.011112201166375884 
-0.018127442241239113 
0.011311898775636663 
-0.00046717183571465444 
-0.0038784791830491050 
-0.0044528030159921350 
-0.017768147178652043 
-0.029732806441805920 
-0.030338794434511974 
0.019650710435356080 
-0.018985558285048670 
-0.032969495451048686 
0.063212482278917940 
-0.047347466306664690 
0.036385955183810750 
-0.0048802460684418790 
0.010476922167172400 
-0.012639614514020379 
-0.0067752817016423360 
0.0077922596038827930 
0.040696646564502593 
0.0074522028445580275 
-0.012031580302658343 
0.014520672828498797 
-0.0087177635399295730 
0.031863763782842530 
0.022378410080794750 
-0.036254959203724124 
-0.0042893284402492390 
0.011604335232824798 
0.024508909404723530 
0.019326733568878263 
-0.0073895755379393925 
0.018260502267520980 
-0.032437999233557260 
-0.0096013304890782640 
-0.0073895755379393925 
-0.013271897306640064 
-0.00036689727944335930 
-0.00092991265954581060 
0.010677254243622298 
-0.016652794924653852 
-0.0028249872542204764 
0.030785051649544495 
0.030999553579342077 
0.017580069954810398 
-0.025999271224560253 
0.010413372115454747 
0.034729866424220980 
0.011157424330160091 
-0.0018578311630841630 
0.017249833011896233 
-0.028870559425527013 
-0.020401157531299924 
-0.010620348694964633 
-0.031370567594257050 
0.0086455822212047220 
0.0074344515986497290 
-0.010073765960299628 
-0.026280514622198580 
-0.014716575268432076 
-0.0019592466886912286 
-0.0086102003063358890 
0.032417447593631646 
-0.025854160676840397 
0.011064337849874580 
0.0080898717073341650 
-0.016657680319166864 
0.029798305151129544 
0.043115099465050065 
0.018487255480915926 
0.023564024436934842 
-0.0016342257431480897 
-0.010891615891962223 
0.011253004211726550 
0.022473528387460792 
0.0098235112632723240 
-0.017452849282301930 
0.012607063638026755 
-0.014701037069501610 
0.015660050978753476 
0.025979752229028853 
0.0019577947346776750 
-0.016811397742274227 
0.032417447593631646 
0.012720032749600502 
0.0052633992540181720 
-0.015228833407003966 
0.011487903512475582 
0.034518411155157500 
-0.013461900141774405 
-0.017387311601213310 
0.010419487613004727 
0.012310095858462530 
0.012875109220008420 
0.016626615459907830 
0.0023410984917165097 
-0.015117698394923080 
-0.0088488197173168960 
0.010205127667401712 
0.034280745574030440 
0.0033414160518870690 
-0.035987357043994090 
-0.018641902192329998 
-0.022234306894393790 
0.00070393719645425680 
0.012205289482912478 
-0.0074307777283906760 
0.090309262233765160 
-0.011846078000259132 
0.017456272241490337 
-0.0088488197173168960 
-0.037831546629502750 
-0.0070405194225477070 
0.024927051655242550 
-0.011772014215515075 
0.026911615318479357 
-0.019818504493563482 
-0.036555000336395430 
0.0041254149794934985 
0.0057328322205436310 
0.034223355441455370 
-0.012888504237938816 
0.021631156929974023 
0.0071253169245204485 
-0.0061698500498035440 
-0.021331909989687533 
-0.010263115201534216 
0.034477559059417726 
-0.015743993471365993 
0.014965582975525736 
0.034541137385092230 
0.020873487902815166 
0.028493345032445330 
0.018179887527887420 
0.015662195132423500 
0.021571170159699450 
-0.0086102003063358890 
-0.021017708504440926 
-0.019524604395689200 
0.011061081153953467 
0.0066291405883509560 
0.036325397893495220 
0.023085099222881836 
0.023327851844054823 
0.012448752223956780 
0.011473777404365027 
0.031908455486896470 
0.0073858703726353280 
-0.0092116473967029380 
-0.0073895755379393925 
-0.0080702421713986660 
0.015209887919041909 
0.018704086954117228 
6.2271365425769750e-05 
-0.0035730475047549420 
-0.021132817813469398 
-0.015279406639878675 
-0.037341227296986274 
-0.030921390588661977 
0.0044654094293520610 
0.0064820351960677290 
0.011751237142359778 
0.0037874251841990055 
-0.014639682551423990 
0.010521122020456613 
0.011064337849874580 
0.0040193840526560140 
-0.030548264277278546 
-0.014759806344467262 
-0.029298810339320552 
-0.011769002331825618 
0.020330899958112197 
0.038824632797709960 
0.027678019551201537 
-0.014188470345074340 
0.0076133725325600015 
-0.0072887757651730220 
-0.014917438873256690 
-0.017755018328846277 
0.012952251062392630 
-0.023286503784340325 
0.018675993640964360 
0.029968217329377347 
0.0094145794939693420 
0.0074022509196940665 
-0.026280514622198580 
0.0059450709679354250 
0.0078921440385704110 
0.025959936343096488 
-0.015303782142271573 
0.027260299098005456 
0.015705377165979580 
-0.0076766549128357270 
0.032360084360645455 
-0.012685638676354067 
-0.0080014087629463660 
0.022723101947958495 
0.022703510711394065 
-0.014203959406452053 
0.0097092610206712970 
-0.011266934461826987 
0.019113452001292653 
0.010481295772543175 
0.0044440088179267800 
-0.018485858220719575 
0.014688440553249079 
0.015796260894127504 
-0.0086393712867503330 
0.033212272632936550 
-0.019943337847936705 
0.018365366958804332 
0.046394008134656440 
0.038342804701321120 
-0.020206640349334180 
0.033847921439536970 
-0.019439926387523560 
-0.0059857565672723770 
-0.023046312881919377 
-0.012635638866272000 
-0.028328632192473318 
0.012399837114674994 
-0.037057016777781680 
-0.013751236395357504 
0.015940936749423786 
0.029968217329377347 
-0.0095176254078250980 
0.014704453990801093 
-0.012792480041457133 
0.026145414654833308 
-0.0045298219738396590 
0.038885155958240755 
-0.0010627348288184550 
-0.0052927475195055675 
0.014306841150575188 
-0.044492762959937614 
0.020396694505088256 
0.019385743271989463 
0.019169941839839534 
0.013795896698731564 
0.016760449769568322 
0.034118735272056250 
-0.0086262558904498600 
-0.013410089414490237 
0.020554535245857740 
-0.0086931956317479550 
-0.048767363488718080 
-0.054487703611530450 
-0.0089720908704662740 
0.010689482613028335 
-0.00029440812612004926 
-0.016010247218192136 
-0.012794520954380172 
0.0057763300271766250 
0.022306705239628088 
-0.020527293624010665 
-0.015676257265552197 
-0.0047747339272535830 
0.025207903653537650 
0.0092642125188448300 
-0.0082064689735443270 
-0.027964549782103314 
0.013705283417212385 
0.038695969763116190 
-0.026093887620730102 
-0.0096016956960657870 
0.034109080126154720 
-0.0070405194225477070 
-0.0070405194225477070 
0.022409061461437230 
-0.010252348828324001 
0.031296653672128040 
0.063895898674937390 
0.018530234659937736 
0.030172479554083354 
0.017669183322224470 
0.0078148578102788650 
0.0034469849576188928 
-0.019147965380269683 
-0.011349895012519142 
0.012877917001199288 
-0.021291246775322770 
-0.026151713840702250 
0.016821763378592456 
-0.011160917521014127 
-0.010345053270608823 
0.013756477071542920 
0.0067366013678817080 
0.011076515690065750 
0.015000944890946418 
-0.019848990061096576 
-0.016703100716186893 
-0.012184902132100056 
-0.044575393985326180 
-0.0034166301377542476 
0.022261516798053965 
-0.014122452274430190 
0.0057933852147514860 
0.023225423613195784 
-0.011191888433890702 
-0.0090276293435963900 
-0.025806543798052622 
0.0030986983162119920 
0.016530305165380052 
0.0048180246668300870 
-0.013986656883095418 
0.054787980457069130 
-0.031661502187373400 
-0.021223945052191932 
-0.0075161677178168370 
-0.0099356324661064700 
-0.0082595789361485790 
-0.019177183254389555 
-0.0037336310594623186 
-0.0050679255590535925 
0.014939944745875698 
0.0064993210620129570 
-0.0036522562080954160 
0.0080680063118404590 
-0.0060208348666100490 
0.011079902787942703 
0.011751237142359778 
0.0018435153243978450 
-0.0065673818182185170 
-0.012562858989693853 
-0.0068244502278484630 
-0.010081526757224500 
0.018070387720816830 
0.0080147834036956400 
-0.016740729472769215 
-0.0021108889268987886 
0.0039188684367981730 
-0.0052915166220466020 
0.025227368256994454 
0.043115099465050065 
0.016259352096317348 
0.0034754387318964033 
-0.0085507607938340810 
0.010685632656705295 
0.012011278977354697 
0.0074344515986497290 
0.016062262525380944 
-0.0070405194225477070 
0.0021678397216170990 
0.033556663125596680 
0.042349996330626620 
-0.010057035446912164 
0.0019913869714566117 
-0.011254760404300589 
-0.020529602494633353 
-0.027306852082852040 
-0.018810417209954960 
0.020866621295250500 
-0.015507632399787308 
-0.016657680319166864 
-0.0075642930127756535 
0.0029433642656329978 
-0.033063231619589410 
0.0018435153243978450 
0.040289568194958575 
0.011963470569271060 
-0.016362939087448990 
0.010398414269211620 
-0.020242729335792492 
0.020466563897293930 
0.012856933360247545 
0.010950234527462568 
-0.020401157531299924 
-0.0087989146918407300 
-0.023828308431266005 
-0.039820624781097644 
-0.023191257718570010 
-0.0093090715274168090 
-0.016460961107478630 
-0.011998718409689954 
-0.026512964393677630 
0.018341480813162638 
-0.011244083849954867 
0.023564024436934842 
0.013979386994555093 
-0.0059401583135741880 
0.0036687733624146146 
-0.032761321959144090 
-0.011705660812299479 
-0.017696459694234420 
-0.012350645841156601 
-0.014299751266239770 
-0.012989624320157964 
0.010636846085015824 
-0.017868174916360766 
0.015073945988475030 
-0.021484972233471500 
-0.013634537143564584 
0.030734953473896550 
0.0052225536642734260 
0.021369368768938093 
0.0029789440733742220 
0.0099232600416219780 
-0.022703267568129150 
-0.0033814225354140692 
0.021120506680621404 
-0.0036278728791874445 
-0.033706402153782420 
0.011380935121064504 
-0.012342041051487574 
0.0014223841449212775 
-0.020950052258677066 
-0.050378166556040020 
-0.014555195151078967 
0.036110665171454000 
0.0059189227984890760 
-0.041811038237974990 
-0.012752043362096671 
-0.0047747339272535830 
0.013983765913040624 
-0.052184464345447656 
0.021064037717704390 
-0.010656100608806318 
0.021211693239543640 
0.018648914371562374 
-0.019582092176496955 
0.021450178844341222 
-0.0074729197565303026 
0.010705123875467449 
-0.010731799773019877 
-0.017943533221096954 
-0.021429443113267718 
0.016427287983905497 
-0.015645725309629140 
-0.014154166963097554 
-0.026846475097189710 
0.015563548219883430 
-0.010034457537832686 
-0.0067752817016423360 
0.022333291483975354 
-0.015758261400345887 
-0.032865756726573180 
-0.014861808916340091 
-0.043125441945230170 
0.039203957652244300 
0.011141792140009604 
-0.010346361713446448 
-0.0042893284402492390 
-0.014159908184132380 
-0.0021108889268987886 
0.026167228580051202 
-0.0033046545978713347 
-0.025479580643293438 
-0.020381387561180502 
0.0094524562270739270 
-0.013107576790252411 
-0.021537475596830856 
-0.015954590923219596 
-0.0095195710654000870 
-0.0060184011685200340 
-0.011166623274154600 
0.042759220298744070 
0.036655202737171960 
0.024061775610973980 
0.012761902452550275 
0.018648914371562374 
-0.0070405194225477070 
-0.013454938339880665 
-0.023543454239602708 
-0.018691157710738780 
0.0037874251841990055 
0.0037874251841990055 
-0.047718878441487920 
0.036123225910828830 
-0.012866383479934287 
-0.0088488197173168960 
-0.016437375110493847 
0.034432307473594620 
-0.0073895755379393925 
0.027642277416366970 
0.012148162315851125 
0.022279731140244690 
-0.0088488197173168960 
0.028451717290641894 
0.019679416449501174 
-0.0091223314875474430 
-0.042849578523446270 
0.0078642408670413330 
0.014551735511572418 
-0.012534239967524300 
-0.023542350077163033 
-0.0090221810643604130 
-0.017052922660022656 
0.021814552820089945 
-0.024837938646811800 
0.013869915677560586 
0.027964598508800332 
-0.013461900141774405 
-0.011266934461826987 
0.016330752855232344 
0.0031475271417914250 
-0.035026489168278060 
-0.016506645623289330 
0.028182945900059046 
0.0087918080623457500 
0.034432307473594620 
0.024902286475318218 
0.030783118034991920 
0.011470310776648150 
0.011076515690065750 
-0.0020780726287591574 
-0.0044521694544445250 
-0.0092424910010327770 
-0.024321661749614670 
-0.038476789238469070 
0.0096352531780274640 
-0.023265779936924360 
-0.018779975837945894 
-0.012977138681358360 
-0.0060293064827969540 
-0.0027742015287546746 
-0.014733211913150272 
0.0074474029021664020 
0.0081384464562229890 
-0.020627012969036015 
0.0049209507918738560 
-0.012013902235424942 
0.018349099176847922 
0.049440875489904380 
0.012889078426243060 
0.010989370725365192 
-0.025333122020156376 
-0.011288672652152203 
0.0013043062488791789 
0.021096468774412392 
0.039654043897233180 
0.023594656894331642 
-0.0069392212108813035 
-0.012049040055506149 
0.0095657519771920700 
-0.011492700043163316 
0.045057282115363780 
0.012013988889304699 
0.024139706544526154 
-0.010350639235794270 
0.026870020772695544 
-0.051900605846429710 
0.0099759912779668100 
0.013794827373922056 
0.022939601460634010 
0.0070042604237642460 
-0.0099293171075048630 
-0.014572773697556836 
0.0011204396300641490 
-0.0037230396708825530 
-0.0055843696807236340 
0.016715276991072236 
-0.013454938339880665 
-0.022421077480187560 
0.015334319561623136 
-0.0088488197173168960 
0.016091968221567006 
0.027993037728842853 
0.015061859486177522 
-0.012866383479934287 
-0.0021108889268987886 
0.0087918080623457500 
0.033304825423077500 
0.012310095858462530 
0.015782823570304470 
0.016879172089001256 
-0.026644967787052033 
-0.024298319985814432 
-0.0068244502278484630 
-0.011378804605554169 
0.018380921666960377 
-0.0019302084728388294 
0.010973609426989816 
0.0018435153243978450 
0.0048660798474516950 
-0.025006063531204600 
0.032485202977451260 
0.025720861470575073 
0.032239739393614270 
-0.013059705990136911 
0.012564555870838429 
0.014939944745875698 
-0.048942303119309374 
0.017580069954810398 
0.024329010640298493 
-0.023928741789944516 
0.012013988889304699 
0.024076208598454836 
0.012230606811512605 
-0.043023954754147546 
-0.024899297949700680 
0.011995427959784944 
0.042036102110201694 
-0.029012153290605180 
-0.047718878441487920 
0.0060765067717585060 
0.023632529003681298 
-0.019426839430846523 
-0.014210369973517562 
-0.0086142014776293340 
0.017004220044385460 
-0.015718993144914250 
-0.011565143388856227 
-0.011769002331825618 
-0.0063865436281396290 
0.013737733281707309 
0.011253004211726550 
-0.011113307083082499 
0.025765164051451118 
-0.0057975698970779690 
-0.0035669077460438130 
0.014812605064880590 
0.016506621202060225 
0.0013871877522107380 
0.017124163851937185 
-0.0047622601312376300 
-0.0060031825671879830 
-0.033846015671659960 
-0.00026098278572332743 
0.030527737305212736 
-0.0042893284402492390 
-0.022362193128735088 
0.0077562502281952380 
-0.0059857565672723770 
0.018672655229907287 
-0.0086393712867503330 
0.011068901869275512 
0.021528996476588787 
0.0081447378884666810 
0.0035835176126092240 
0.015855789320342616 
-0.0083050426831169610 
-0.036946531650224220 
-0.0070405194225477070 
0.026021550152463494 
0.010538947667892570 
0.024167261794055123 
-0.0076790750307710070 
-0.0045825587839471525 
-0.016327031005715743 
0.018806354425025790 
0.0059467596672081520 
0.040502809982962955 
0.015585501797687897 
0.0088081329202336720 
0.0077922596038827930 
0.017192646289552995 
0.012555312885305463 
0.022979318676933515 
0.0019577947346776750 
0.019304594440196155 
-0.0087532817027091220 
-0.010985340774665476 
0.0030314493087589790 
0.0096954722995687430 
-0.041496809921227666 
0.025159946781550598 
-0.010854574333738742 
-0.025716218388439415 
-0.015507632399787308 
-0.0063494969248921500 
0.014524653678913384 
-0.021716641231608068 
-0.0098023311076891590 
0.014610542975676055 
0.018104231485216456 
-0.025471435123261884 
0.041058410359723790 
-0.023980798840402470 
-0.010649673252706840 
-0.0088488197173168960 
-0.015171904927289840 
-0.0067752817016423360 
-0.015982667186468530 
0.0075769288510262090 
-0.024779115979405480 
-0.0096211874701253330 
0.018648914371562374 
0.010476922167172400 
-0.0011837979985067410 
-0.018867595830616386 
0.050143553236015014 
-0.030375615602451188 
-0.0034091909278204200 
0.030116358626407380 
-0.0052501878616073245 
-0.030462504097852405 
-0.0021580581388608022 
-0.049254454140564740 
0.021229021912106637 
0.013877853474913587 
9.9365909104690110e-05 
0.013904653564475660 
-0.020464781512734134 
-0.014916398192354035 
-0.016735820179909183 
-0.020334126057439070 
-0.014201185821544872 
0.013046041062890165 
0.012130099081910335 
-0.018607138958315450 
0.014994326537655950 
0.036888749777764610 
-0.018516850152478663 
-0.016841272290069195 
-0.0090097301748146360 
-0.010959181247598669 
0.011253004211726550 
-0.028242036609791722 
0.015018924027364718 
-0.015974712947100955 
-0.024097351554236618 
-0.010965317975431406 
0.028664789114620566 
0.022511438664013480 
0.051437556838450964 
-0.010660971104594488 
0.00012061008988372255 
-0.015869306875622990 
-0.033913375125391990 
-0.0088851338440037870 
0.016613470321202640 
0.027108050853587420 
0.028793579457436682 
0.017263269743467667 
-0.011211469519267356 
-0.022076115989020220 
0.023709573655183912 
0.015340764559774532 
0.0078148578102788650 
-0.0097473871244833680 
0.0093137515865103580 
-0.0060208408432907880 
0.013447253908885683 
-0.040252914401961326 
-0.016136388944249912 
0.0023547882918862690 
0.024686129874754346 
0.029130503385799287 
0.030796813884691746 
0.011926712419778326 
0.038430663800555470 
-0.025484284353527946 
0.019036784524823060 
-0.011769002331825618 
0.016551948831358720 
0.016835470204517405 
-0.031370567594257050 
-0.0070405194225477070 
0.0057933852147514860 
-0.0065620206357841560 
0.012877917001199288 
-0.029612477891224398 
-0.020555003159832722 
0.023752095165126960 
0.0075986501993929870 
-0.026093887620730102 
-0.017677344308205900 
0.016426882033198968 
0.018341480813162638 
-0.0021150201293107795 
-0.0066488111719186360 
-0.010517549637641805 
0.0037813054774915693 
0.023980268697152234 
0.016338333723238094 
-0.014217607208107965 
0.013616545102019456 
0.040391181699477640 
-0.0071157906005293500 
0.0066291405883509560 
0.0064161929113456520 
-0.016939282723296395 
-0.011521091414101639 
0.0058577046856907265 
0.0098601906998518410 
0.035544925468973844 
0.0074990967943189250 
0.011867579499028535 
-0.033571242806601650 
0.019527093549325510 
-0.031751963086484106 
-0.023721488362379370 
-0.031257647783822305 
3.5153374055490800e-06 
-0.012101567768904952 
-0.0081303425131738370 
0.0078321374304898080 
0.0095743928850788530 
-0.013174391819782880 
-0.015715328625286098 
0.0083044991713721440 
-0.032252858637072570 
-0.010292616437226388 
-0.0017085233933175346 
0.017783404711047564 
0.021107920139857968 
0.021107920139857968 
-0.032687434239799744 
-0.018781804005672320 
-0.019601992155614922 
-0.0018578311630841630 
-0.020388142620168193 
0.0085478244236923650 
0.026933444539493810 
-0.018352448873433427 
0.045848935844922424 
0.018030789279734914 
0.0079448724428139000 
0.0077922596038827930 
0.040847091447570566 
-0.0064525297185429570 
0.027767632448818820 
0.011439826296308084 
0.017206143293006102 
-0.0077739276286540430 
-0.0076828048074957650 
0.0046377818454910640 
-0.0019786862907586722 
0.025207903653537650 
-0.021239772019871848 
-0.0018274854491348540 
0.032060023938891125 
-0.020678956120291327 
0.015572329882407704 
-0.0044236896250493580 
0.018891093569864882 
0.017082578921237050 
0.028908692992576986 
-0.0093146467996203300 
0.017517171161844500 
3.5153374055490800e-06 
-0.014212135586150540 
-0.0074250017139645130 
-0.0037230396708825530 
-0.050497195757897600 
-0.025089307782865892 
-0.016778465975818377 
0.0073973454567764940 
0.025530191531153334 
-0.0039993358337961580 
-0.0056979815059393430 
-0.010959181247598669 
0.025742810339551087 
-0.022391592460484295 
0.021968886718904138 
-0.011656646521330926 
-0.048942303119309374 
0.013885941149068682 
-0.0048197245555126650 
-0.0064525297185429570 
-0.022294168988122053 
0.015197056367865630 
0.019386248834735127 
0.018778418906011736 
0.010298310449281863 
0.0014207956178806179 
0.019229589800105498 
0.035639029525064310 
0.023566479789449620 
-0.0029582066214639746 
0.0090929421900780420 
0.015000944890946418 
-0.041015163735881500 
0.011048477519938194 
0.0042131675731246826 
0.0073973454567764940 
-0.022720836792708830 
-0.014306938808453653 
-0.025356209969659180 
-0.042000446856035960 
-0.038294169946443020 
-0.0096505118335407980 
-0.014691049735550755 
-0.022642932485214110 
0.019492307315216506 
0.015875289176970397 
-0.017817003429046280 
0.010449703472579670 
0.0018189552160333697 
0.033304825423077500 
-0.036203207083438430 
0.028121618484730562 
0.027481810534313828 
0.015340764559774532 
0.030369788389756864 
-0.019953834111232784 
0.019326733568878263 
0.022885003591786243 
0.028965138877902388 
-0.0061909355408675830 
0.0077774433050344260 
-0.0068175298686497490 
-0.0096013304890782640 
-0.0062883305064355905 
-0.019348501616598877 
0.012263673467351303 
0.021887715383858534 
-0.00036689727944335930 
0.012944191770012660 
-0.022158146592439577 
-0.021209338962414910 
-0.0047747339272535830 
-0.0082064689735443270 
-0.028328632192473318 
0.0062010993172336160 
0.026110611831449623 
0.029243983909565525 
-0.017414782862008274 
-0.014256941116477927 
0.039039434773228980 
-0.0072555585572032420 
-0.031695681803602790 
0.0086455822212047220 
-0.00065833603593737970 
-0.0076766549128357270 
-0.013192302951456018 
0.0095657519771920700 
-0.0017085233933175346 
-0.0049623766890284720 
0.022867849592357900 
-0.011549915805342594 
0.036089314957889740 
-0.028918532749576186 
-0.012085194628070063 
0.0085478244236923650 
0.040283630419390086 
0.0097103237592577520 
-0.011440898482586273 
0.015609430460982655 
0.014162235982836403 
0.010780391428942101 
0.029892256117982276 
-0.0048802460684418790 
0.0078148578102788650 
0.0083738721237746950 
-0.0075161677178168370 
-0.014132933210948672 
-0.0065808526333117230 
0.017432957398981982 
-0.0097071190385568020 
0.097314549706820630 
0.022795732204663497 
0.020542944920931410 
-0.017651486155729517 
-0.016567095078176870 
-0.018739911025037886 
-0.018535664233096768 
-0.014879361214514782 
-0.013473378637917400 
-0.015506772815477037 
-0.017773429592916320 
-0.0077666735714532580 
-0.014408328534685044 
-0.0070405194225477070 
-0.014063427510060667 
-0.013822934080411874 
0.0071948677542514400 
-0.018595164030973447 
0.023869923421874830 
-0.0034752621424449380 
-0.019982319870055772 
0.017443459167836666 
0.043696093328028630 
-0.048942303119309374 
-0.024779115979405480 
-0.0058434189313572890 
0.0013138123317005394 
-0.0081893503101640240 
0.038180286742605180 
-0.015718993144914250 
-0.016928084279403470 
-0.021791121142785745 
0.015609430460982655 
-0.0091741228190257010 
-0.016350823808509305 
-0.029090571669875522 
0.011681937223801736 
0.020707325624235150 
0.024508909404723530 
0.015065466115498760 
0.025946517926568786 
0.018896571635365685 
0.033754180101011104 
-0.0070431256199445590 
-0.0017085233933175346 
-0.012031580302658343 
-0.0056821259355793750 
-0.020989788537464586 
0.018349099176847922 
0.011157424330160091 
-0.00020318614446679480 
-0.014166642763074715 
-0.026489638394635216 
-0.013429618584250944 
0.021617352807395800 
0.0021678397216170990 
0.0081384464562229890 
0.030999553579342077 
-0.020675538824531874 
-0.016816596063779398 
-0.0066106975501786100 
0.010392668158478900 
-0.018753524499834265 
0.013752454607611750 
0.012081695985563298 
-0.0053681585703765890 
-0.016477509772397748 
-0.028508497305086016 
-0.0048122867066086200 
0.016006684337302367 
0.0076763043397026390 
0.0071206206642253610 
-0.017992158573188657 
0.010062832738271646 
-0.0091665136354513390 
-0.0096211874701253330 
-0.014259249366126226 
0.011383188178818680 
-0.00020318614446679480 
0.0094412693757805910 
-0.014761223477106120 
0.015950929100381286 
-0.0044353779402989905 
-0.0087667778308981260 
-0.015936560435354182 
0.011275418146053515 
0.0091021746393342200 
0.016271584316905934 
-0.024774246455839095 
0.029457473603948812 
0.022936930741547530 
-0.026951921591906576 
-0.0042548826381186610 
0.0073807903398967350 
0.019331617848368676 
-0.022101892765581395 
-0.0091065428520956840 
-0.010832609878825760 
0.012582326812640472 
-0.011331242336659114 
0.021036918599131843 
0.055026872384896564 
-0.0048197245555126650 
-0.0023702330080973763 
0.040762758877873160 
0.030631184818013380 
-0.022857199166789230 
-0.018324433295669240 
-0.0091065428520956840 
-0.0067752817016423360 
-0.0072739387944911470 
-0.0035041269682185650 
-0.017649681740357047 
-0.021147570344540026 
0.027767632448818820 
0.016238621622053530 
0.014610542975676055 
-0.015171904927289840 
-0.011028414472985987 
0.0064400384245826860 
-0.058651210710778060 
-0.013986656883095418 
-0.0027285745653332777 
-0.0062699906665651004 
-0.049512566179206050 
0.021108306572539665 
-0.0080568811968071070 
0.019875771542191504 
-0.032008795442059490 
0.0053405380720749450 
-0.018853648306603417 
-0.0013537111622070204 
0.010255860457330297 
0.067231231508385430 
0.031224947557691980 
0.010685632656705295 
-0.0027556486315231305 
0.019284265887802226 
-0.0028881425514059563 
0.019354814992923765 
-0.016956194932628073 
-0.019251528533593720 
0.0074493943277720760 
0.016111270020364360 
-0.0067811060915267720 
0.016968361364464942 
-0.040827009141322010 
0.025145354701149510 
0.015572329882407704 
0.036564946373519570 
-0.014429262687323781 
-0.036318568175863760 
0.020932345885117980 
-0.017925597974748250 
0.022333670020490838 
0.011358397486223148 
0.067793007415063900 
-0.029886411917558156 
-0.012541419980532114 
-0.014571278750040549 
0.016487588320133518 
-0.0098023311076891590 
0.0095778020307709260 
-0.014751779685500926 
0.0077922596038827930 
-0.036801578578818750 
0.011742696824451037 
0.0094546321241790880 
-0.0063070652159997460 
-0.017605110137394080 
-0.018748505027212080 
-0.026803152777542655 
0.017845586961012940 
-0.013757632137362183 
0.0038562843961634300 
0.023992688952579864 
-0.016692337705639656 
0.012599426703776435 
-0.017880732792930370 
-0.015530717850932543 
0.0067312563352283420 
-0.022459509472339180 
-0.017818592192003102 
-0.012250771121617815 
0.012561597995281113 
0.015478319800040117 
-0.0059998441998131810 
-0.013226534981764154 
0.011157157208546958 
0.020072880711388970 
0.0080147834036956400 
-0.00051733689600160860 
0.020654320397555926 
0.0049702736755346380 
0.0076118949310651110 
0.018036371327950784 
-0.0053466257959799190 
-0.013940630280769910 
-0.011647952980560760 
0.024061775610973980 
-0.0098932985528742850 
-0.038417006619978620 
0.011995427959784944 
0.014306804907016163 
0.028075691797146696 
-0.026332525424152715 
-0.020085116601137000 
-0.087100386712306730 
-0.0049414124868984390 
0.013878458973012878 
0.018648914371562374 
-0.013310413858167856 
-0.022839672145962005 
-0.022581117119421255 
-0.025206767437817176 
0.014743294944088346 
0.0078642408670413330 
0.077643605149997590 
-0.026280514622198580 
-0.015062852813529216 
-0.010837918594329955 
-0.015000687622681258 
-0.030927429441838815 
-0.022839672145962005 
-0.036329087578443790 
-0.019789770636164410 
0.032796004974110865 
-0.0089776573164630300 
0.020194951661684207 
-0.0047622601312376300 
-0.015940412137776100 
-0.0066106975501786100 
-0.016381732124844740 
0.010889319198703820 
-0.019394294577618577 
-0.025854160676840397 
-0.0054969348842574610 
-0.020832423975986680 
0.025638186735237850 
-0.010668865514362942 
-0.014067334062555746 
-0.018843423314545082 
0.025207903653537650 
-0.0074002666464747910 
0.014758837929463090 
0.011311898775636663 
0.021202367768262904 
-0.010102120558570360 
0.027608522480703678 
0.023092903065002640 
-0.011274265906851440 
0.061801500427977114 
0.021956031385879500 
-0.0067752817016423360 
-0.0067752817016423360 
-0.037417617738349805 
0.022702092007812515 
-0.0058392895690596676 
0.0084502828784328060 
0.0037874251841990055 
-0.028364934877159670 
0.027440919308317692 
-0.031106262433038132 
0.0048994414294640030 
0.025268620604866877 
0.022946696992312540 
0.0035476476479151450 
0.031278189315215390 
0.012817570333340503 
0.020561572034086248 
-0.022437115923210910 
-0.024430584324127030 
-0.0039044995527935896 
-0.018710352070524640 
0.017044576583529807 
-0.025438586711391358 
0.014772151481234640 
0.036553755213890730 
0.0098422987329889640 
0.0084355701227279500 
-0.0055396143152317496 
-0.027275171511123915 
-0.033913375125391990 
0.040502809982962955 
-0.025757667793051657 
0.034440250116801110 
0.012412980312656610 
-0.011022638458559820 
-0.029900031767677880 
-0.011378804605554169 
-0.019205941657953200 
0.012962548031768224 
0.033945258105151734 
0.0055403782585468735 
-0.031435786203188404 
0.022253032120184920 
-0.0070405194225477070 
-0.0064514909129310650 
0.022415860407290300 
-0.0088488197173168960 
-0.0051858037779535500 
0.011018614611450643 
0.0067727636250024155 
0.012128853498695124 
-0.0047622601312376300 
-0.028123102549639904 
-0.012259405281034112 
-0.0096812531031097980 
-0.0073895755379393925 
0.0071455130146280570 
0.015039604307080897 
-0.012797699930228596 
0.023393955580725580 
3.5153374055490800e-06 
-0.0011837979985067410 
-0.011772014215515075 
0.011796985443613305 
0.0037874251841990055 
-0.013757632137362183 
-0.023434829819935990 
-0.010660971104594488 
0.017041117932683227 
0.00057969908567450890 
-0.0034166301377542476 
0.0085593698949961730 
-0.012897639741945403 
-0.0067752817016423360 
-0.012555342287414286 
-0.023644337524895950 
0.022275026577216746 
-0.0058035448916056890 
-0.014902122718598271 
-0.0043160490565752220 
0.031841012931674066 
-0.019657900398927005 
-0.010286840422800229 
0.017206185089088390 
-0.0058885402299212740 
0.0035835176126092240 
-0.0034760796401494955 
-0.0089720908704662740 
-0.017548380000049525 
0.011603852370045190 
0.0073807903398967350 
-0.013850925131030424 
0.018960644237074030 
-0.036551988892471850 
0.010780391428942101 
-0.016212946559285103 
-0.036587541376925760 
-0.026222940482795342 
-0.0045825587839471525 
0.011507348211807945 
0.011567910705076428 
0.020795046657235073 
-0.010876125795964859 
0.028701895725347603 
0.023908357107328010 
-0.012640518745392510 
-0.037185721727988515 
0.0087526668125159900 
0.015363925417329295 
0.022510426688053170 
0.0077922596038827930 
-0.045613968264819910 
-0.024779115979405480 
-0.014115834028354073 
0.0031528268316864867 
-0.029472846323235610 
-0.013713810931016283 
0.011971800460459411 
0.010965423702266174 
-0.0049458823200893174 
-0.0052927475195055675 
-0.011151857136601752 
0.0052979819244960850 
-0.013751236395357504 
-0.014121721626110986 
0.025257837041886760 
0.032554308634234420 
-0.021579019260257580 
0.013511875581510787 
-0.0053074800181297220 
-0.010175124469019563 
-0.011947303677531240 
0.013908745839388986 
-0.0089439026754987540 
-0.022496317605744852 
-0.027082241193973046 
-0.0027285745653332777 
-0.0028881425514059563 
-0.022612123489643778 
-0.031827278973039580 
0.031442988986176210 
0.0032542049171895620 
0.0089418458962655480 
-0.013564026125158902 
-0.040016222417809140 
-0.00077261128510131220 
-0.0074904241680043586 
-0.0074239054655617520 
-0.013293615607098207 
-0.0092577216748667930 
0.011590928458727985 
0.012734122751133885 
-0.00050498749044933880 
0.014040619509967107 
-0.044029989541269040 
-0.012068909402378078 
-0.024126013630386400 
0.034438528340638874 
-0.0086142014776293340 
0.0082529573805216300 
-0.016052101361276340 
0.010038562482826230 
-0.043506916922578645 
0.011768832380238589 
-0.0091065428520956840 
-0.022823269295670170 
0.0013804409246920076 
0.043263512375756166 
-0.015904244936294307 
-0.043024125362141090 
-0.028147009695895946 
0.0088354536671225450 
-0.024002740259026798 
-0.037721920396850120 
-0.012652698212666142 
0.011464505702652119 
-0.030120470966501847 
0.031228936117851772 
0.022497542246874235 
0.017695806275551333 
-0.0077801610901154210 
-0.011203581226695604 
0.011875428417922248 
0.015525870210378040 
-0.0017593156444447953 
0.031049630597410340 
-0.0014247282973808251 
-0.022960240725101787 
-0.032805777951836350 
0.018822607922840337 
-0.029613016291797016 
-0.0089975218465234100 
-0.023517514574610966 
0.027371852525860450 
0.032616582783683700 
0.045688932304284016 
-0.029091784035601360 
-0.0011186043334744423 
0.026060513037227957 
0.010726409125401109 
0.0093605396564011000 
0.015740736429909120 
0.032568990424064960 
0.017487360252268408 
-0.0082468917993442380 
0.025664718618702766 
0.037088524207250400 
0.032920951175424720 
-0.014359721381541850 
0.013568734895421038 
-0.034494485081297750 
-0.0039702378578094050 
-0.036700848034207220 
0.043730121130002915 
0.0060531489566674115 
-0.015113565244879107 
-0.024542828517268130 
-0.0087209435912478680 
-0.014878498246204899 
-0.0073237798858328930 
-0.045165831082729424 
-0.060621385789378760 
0.028086910715274790 
-0.015314387553889738 
-0.010640640927450975 
0.018110538928626674 
0.044429226940633120 
-0.037131772717307990 
-0.023748155885248336 
-0.011111398445440072 
0.035309145493730670 
0.019128213638331677 
-0.016932891713400833 
0.010352337750228430 
0.058567450027343364 
-0.026908016765163266 
-0.025800967294693024 
-0.032864411862633020 
0.037060894401412230 
-0.0060581815817797660 
-0.0076366594034727310 
0.036314314562736660 
0.060117261386651900 
0.0070563905296447980 
0.016015365189151340 
0.024170133106618380 
-0.017908530869831817 
-0.0066809571939335614 
0.030834405433522780 
0.017895601435153063 
0.017381585233987456 
-0.040007252820297340 
-0.048094091951253234 
0.035824002240674650 
0.032372206782687256 
-0.0073993277124686270 
-0.040118826577317857 
-0.023885323012676436 
0.028638734565922978 
-0.032869389427580074 
-0.031778676402405205 
-0.016730330284258705 
0.0017706334727884267 
0.028993709602165955 
-0.0031230085043847124 
0.0078957430687442740 
0.00070330198108030740 
0.025295856132779317 
0.051756943587614554 
0.0021482708787478435 
0.017962120528719153 
0.023174982887116155 
0.028619784570461160 
0.023988256511191054 
0.010493924845663714 
-0.0039078000920939590 
-0.0046626117691988040 
-0.025567794116431033 
0.025057320506820732 
-0.022531870254610835 
0.055968602191940190 
0.0019619353362488627 
0.019462537351333700 
-0.017577997871166505 
-0.024566723187356970 
0.011741488394274196 
-0.0069460641202092680 
-0.033882293389980270 
0.033384384628312704 
-0.034488827209187200 
0.0024953876130989288 
0.069403266319504570 
-0.055877573651121760 
-0.014305963729603188 
-0.020098201975813603 
0.029692564105707770 
-0.0056014307302982510 
-0.0094144926536620000 
-0.028518767021193020 
-0.025592777111823527 
-0.032239307687884855 
-0.038557046045396520 
-0.010375949153108917 
-0.020123187844501234 
-0.024579827688050587 
-0.026072847855215152 
0.028754206144433088 
-0.025723508577960734 
0.0074410958832962310 
0.014972037781892850 
-0.010012513022691120 
0.012428867753207562 
-0.0022514144748961495 
0.059689652704378725 
0.041184205964089100 
0.029401069998777110 
0.043755553471643750 
0.035198620648878360 
-0.0018537323277445991 
0.0064033915377546460 
0.022216143046996033 
-0.021198724934764088 
0.024437779612891636 
-0.058756724299187185 
0.016037775259283103 
-0.0054684381723949070 
0.0070740646083033500 
-0.028317727195109138 
-0.0021226317523128147 
-0.014618035846694704 
0.0056924884660406370 
-0.021831360857901850 
-0.014913361335718155 
0.022393178868879570 
-0.019886253833369193 
0.016462540273868650 
0.015550385618763306 
-0.015197927409013158 
-0.021120493353115290 
0.012670881209091524 
-0.010027614312907785 
-0.00054024156624620070 
-0.016981125125893610 
0.034232018667963930 
-0.0034609791186282700 
0.026977070219259765 
-0.036840615287105300 
0.0061693298627485160 
0.040703938746076500 
0.00019165779526247060 
0.0025502781874217643 
-0.0095085896041665150 
-0.046818732426162840 
0.020110908124154246 
0.0038969503339766794 
-0.0070657613851917780 
0.0021802064151459450 
0.018848426049214783 
-0.016296712495896720 
0.020622776229893173 
0.013606511965821341 
0.0041527842031858960 
0.041962819388746160 
-0.017179375763678492 
-0.020165861787201720 
-0.026066843601345077 
0.017722138888944347 
-0.022970634863655600 
-0.020338490539455220 
-0.0069751352585339610 
0.057454565905644815 
-0.019478062241433787 
0.010970497256048610 
-0.022887938528102263 
0.013133516221657211 
0.015977453430875907 
0.0088182474310783930 
-0.017999674151631860 
-0.014122331722885087 
-0.035376316245195930 
0.012113276118719565 
-0.013624885327469280 
-0.059876691407345396 
0.023120833209041180 
0.0067620242718699350 
-0.026347708977815270 
-0.038490960869296950 
0.035713740460014020 
-0.019942211965622910 
-0.0010294995927373658 
0.0036712890744976530 
-0.024997995890409150 
-0.0037498864863805030 
0.037624791472801344 
0.012627850727623046 
-0.0071036750716310110 
0.0090959600574448910 
-0.0094741044743349590 
-0.049110725580657390 
0.018200253375959853 
0.016318928780358250 
-0.019005318659353520 
0.026047390778217872 
-0.0037400116473708554 
-0.0063941505119364490 
-0.016630054984125380 
0.015781934295263027 
0.018379271190860053 
0.015450338150695648 
-0.0028509581810760736 
0.026717599377804074 
0.0048399039030712690 
-0.020688118329757053 
-0.012355311817808173 
-0.019102397859514920 
0.0059816428660627930 
0.0061827306843301620 
0.013151600246191148 
-0.024313625098336120 
0.0016512959341801925 
0.010912355156945441 
-0.014902256320136737 
0.019891298194961944 
-0.016490184740409690 
-0.048663785947398780 
0.0068864514453598830 
-0.0091677748538319060 
-0.016465400419421964 
0.0059062671888721850 
-0.012961312870865150 
-0.019664172517234152 
-0.018120767609919854 
-0.00034000251887455915 
0.010545641456725183 
0.0029334610064984104 
-0.017723210719507502 
-0.0048484746248716620 
0.020380072957731360 
0.012305978162485687 
-0.0067201121665605620 
0.0026902439909629430 
0.011040373136168274 
-0.042331783467291266 
-0.014190759698411902 
-0.0023267613936249227 
-0.023837007396440426 
-0.0085934410111093190 
-0.0017923745848418674 
0.013551470065413686 
0.034290056043566004 
-0.027736959231973840 
-0.0076419646827574540 
0.016745928065014440 
0.029729367800448013 
-0.046143170721085920 
-0.0090559730730643550 
0.021888644097974638 
-0.051468452519282440 
0.016863982165136180 
0.0071204991408074610 
0.0042067756887852070 
0.010416967031157551 
-0.033239380402474150 
-0.0081656615196499110 
-0.013867342109418458 
-0.017430248084545280 
0.010628367239052940 
0.020546485167338892 
0.0080263754926868430 
0.029016865157804748 
0.045265856005107010 
0.020994807064811986 
-0.0043886148298470190 
0.012008567975629833 
0.0091399523994995300 
0.028448003057940187 
0.0059207227124420895 
0.012279289400831216 
0.028582538921609880 
0.015605020695850490 
0.010684389576330638 
-0.0030135578172196236 
-0.028924952233737145 
0.045257219011240260 
-0.022988445838235270 
-0.012098565611871408 
0.021168902594018810 
-0.019405014228704703 
-0.058842695918934350 
-0.00068884291335586080 
-0.0061094742782621435 
-0.027382670596968674 
-0.034622050766676500 
0.0022196655148037530 
-0.014604493472262812 
-0.078404164676496480 
-0.016870274724991148 
-0.035646589152130510 
0.0060566678041598180 
0.012067875323540983 
0.020638967195120123 
0.087504169029527260 
-0.0052336409573380660 
0.018696076573874492 
0.027675789812906814 
0.0092335889987820820 
0.010245725481197282 
0.029010034073681260 
-0.036207556096267160 
-0.011459450166243624 
-0.037412662501849660 
0.028484442466499710 
-0.0077734351367703850 
0.012460084271880138 
-0.015318213491879305 
-0.0067991287455881240 
-0.020663030105206943 
-0.0087826773700695330 
0.018690662799356297 
0.034830993985565890 
-0.060543475104259274 
0.018111013859620804 
0.025907824465555950 
0.0073322354008204840 
0.0087390060887212180 
-0.0088400513233766830 
-0.026906256023282206 
-0.034759193771168600 
-0.0046541274945379690 
0.0024912617939139145 
-0.0070178814043716620 
0.014810816609893489 
0.0034791500823760195 
0.0024912617939139145 
0.0051235848474941250 
0.011760764850353204 
0.00049190067354469110 
-0.0090178586623679200 
-0.010429665971054812 
-0.013727115472231816 
0.014482656175992812 
0.014482656175992812 
-0.016251187067007430 
-0.015843392195655150 
-0.014077519624939505 
-0.014077519624939505 
-0.014077519624939505 
-0.014077519624939505 
-0.014077519624939505 
-0.014077519624939505 
-0.014077519624939505 
-0.014077519624939505 
-0.014077519624939505 
0.0058374627780573790 
-0.013625031584610908 
-0.013625031584610908 
-0.013625031584610908 
-0.013625031584610908 
-0.013625031584610908 
-0.013625031584610908 
-0.013625031584610908 
0.0058494897083420875 
0.0041311710406476230 
-0.0087487402957954240 
-0.0090178586623679200 
-0.011341021676891610 
-0.0033215113056914696 
-0.010978236081869912 
0.049486251182888824 
-0.0012711851135769484 
0.0060782035983099260 
0.026760384961871630 
0.013076320666205920 
-0.016417343479288630 
-0.0016004560238093665 
-0.014077519624939505 
0.0041311710406476230 
-0.0021412486324599650 
-0.00037826824763083300 
0.0058494897083420875 
0.011910903980539927 
-0.0010477804145027658 
0.00051873747444998470 
-0.0013326384476943487 
-0.0033215113056914696 
0.011910903980539927 
-0.015843392195655150 
0.0042468898047750970 
-0.0012711851135769484 
0.011910903980539927 
0.0054184866761202300 
-0.0012861429432527210 
0.011910903980539927 
0.011116815631542223 
0.0071141604321656580 
0.0058374627780573790 
0.014482656175992812 
0.0058374627780573790 
-0.0010477804145027658 
0.0020539473942910334 
0.018019939874701445 
0.0086475050119872600 
0.0034791500823760195 
-0.0054042529714161455 
0.0070488518748473030 
-0.026289488454820980 
-0.014008372336570452 
-0.00040388801442219470 
-0.015313488113106860 
0.023138317086194366 
0.010097475938771297 
0.011429913928109797 
0.011429913928109797 
0.0054972756822767675 
0.0042468898047750970 
-0.0079580962658953380 
-0.0069907395983346760 
0.014482656175992812 
-0.00037826824763083300 
-0.0042771665719261140 
0.0054184866761202300 
-0.0042771665719261140 
-0.022230716212060388 
0.0086475050119872600 
0.0082704504575960140 
0.0011032703789384984 
-0.0042771665719261140 
0.023138317086194366 
0.0024442413401194660 
0.0024912617939139145 
0.0058374627780573790 
0.020821032116739625 
0.0043438849639187250 
-0.013635070415261288 
0.0082704504575960140 
0.0024442413401194660 
-0.0012711851135769484 
0.0069949657295554620 
0.0070488518748473030 
0.012967983810023730 
0.0046433486238976450 
0.0070143496375249350 
-0.0039853589679403790 
-0.0041287089561620575 
-0.0067982792303203440 
0.0041311710406476230 
-0.0070178814043716620 
-0.0011080011821607650 
0.0051235848474941250 
0.0051235848474941250 
-0.0010142285263883206 
0.0054972756822767675 
-0.018924496589564205 
0.0051235848474941250 
-0.0072352803577803630 
0.0054972756822767675 
-0.0072352803577803630 
-0.0067204321473806420 
0.0024269115081197953 
0.0079489912055917060 
0.0024269115081197953 
0.011617328676014727 
-0.00040388801442219470 
-0.0098664438362170880 
0.0028831211129360420 
-0.0010477804145027658 
0.0011275802299203420 
-0.0021412486324599650 
0.014482656175992812 
0.0048139778224966160 
-0.0098664438362170880 
-0.0046541274945379690 
-0.0093963813525141940 
-0.0090178586623679200 
-0.0032415397081911550 
0.011703147808127453 
0.014482656175992812 
-0.0071855849263885810 
-0.0016004560238093665 
0.0024442413401194660 
-0.014142056959450155 
-0.0042993105668891570 
0.0054184866761202300 
0.0058494897083420875 
0.0053159262239068140 
-0.014648997386046804 
-0.014881835418200007 
0.0053159262239068140 
-0.0021412486324599650 
0.025857355271201160 
0.028841345334365960 
0.0042468898047750970 
0.018019939874701445 
-0.014008372336570452 
0.013076320666205920 
-0.0067982792303203440 
-0.0056670179136706370 
-0.011121473029875085 
-0.0054042529714161455 
0.0048139778224966160 
-0.0067982792303203440 
0.011429913928109797 
-0.0067982792303203440 
0.0024912617939139145 
0.0070143496375249350 
-0.0093963813525141940 
0.0011032703789384984 
0.0069949657295554620 
-0.010355913548079146 
-0.0042771665719261140 
-0.0085470523718125610 
-0.0048364914113856060 
0.0041311710406476230 
-0.0014878083762044044 
-0.011121473029875085 
-0.00037826824763083300 
-0.0066148959742216890 
-0.013635070415261288 
0.011708711606018850 
0.013625584243519045 
-0.0072352803577803630 
-0.026289488454820980 
-0.013625031584610908 
0.0061545405611655050 
-0.012709485241027432 
-0.010614661238671712 
0.0048139778224966160 
0.0070488518748473030 
0.00051873747444998470 
-0.014077519624939505 
0.027989584699514684 
0.0026362571285533490 
-0.0010142285263883206 
0.032212320302245590 
-0.011341021676891610 
-0.018924496589564205 
0.0060782035983099260 
0.0041311710406476230 
0.0024269115081197953 
0.013076320666205920 
0.0053159262239068140 
0.0053159262239068140 
-0.0098664438362170880 
0.0024269115081197953 
-0.0072690793349000520 
0.013778282742100340 
-0.0078090992740424440 
-0.0032415397081911550 
-0.015788756807158254 
-0.010614661238671712 
-0.00040388801442219470 
-0.016251187067007430 
-0.0038322865524254342 
0.012583471681143868 
0.0088471221539988980 
-0.0014878083762044044 
-0.013625031584610908 
0.032276932819534910 
0.025768237920588280 
0.0034835942021652104 
-0.014142056959450155 
-0.0044800093131624390 
-0.014008372336570452 
0.0043438849639187250 
-0.013625031584610908 
0.0043438849639187250 
0.010744785143711987 
-0.013625031584610908 
-0.015015730639160604 
-0.015015730639160604 
-0.00081854917592986180 
0.0028831211129360420 
-0.013625031584610908 
-0.0041287089561620575 
-0.0030561139928894396 
-0.0030561139928894396 
-0.0030561139928894396 
0.032212320302245590 
-0.0014878083762044044 
0.0041311710406476230 
0.0055132793514752150 
-0.0014878083762044044 
0.0071141604321656580 
-0.0016004560238093665 
0.00051873747444998470 
-0.0010142285263883206 
0.013778282742100340 
0.0090704090269711460 
0.023138317086194366 
0.0058374627780573790 
0.00049190067354469110 
-0.023610464938901708 
-0.016936347433469820 
-0.0032415397081911550 
-0.00037826824763083300 
0.013778282742100340 
0.013778282742100340 
0.011617328676014727 
-0.0077666022737301630 
0.013076320666205920 
-0.0038322865524254342 
-0.0098664438362170880 
0.0048139778224966160 
0.0088471221539988980 
-0.041066541269482594 
0.020821032116739625 
0.0094803194277754410 
0.0090704090269711460 
0.0099348250670369330 
0.029633834940557317 
-0.0012861429432527210 
-0.0036921675996719806 
0.0043438849639187250 
-0.014881835418200007 
-0.013886213938790427 
-0.041066541269482594 
-0.011341021676891610 
-0.012116891441131053 
-0.018642396768709896 
-0.0086305568068796460 
0.0042468898047750970 
0.052238442350431014 
-0.0033215113056914696 
0.0042468898047750970 
0.010744785143711987 
-0.0012711851135769484 
0.013778282742100340 
-0.0067704483274236420 
-0.0088120689468491660 
0.0028831211129360420 
0.029371462355478686 
-0.0067704483274236420 
-0.0072098096970372670 
-0.010429665971054812 
0.0042468898047750970 
0.0011032703789384984 
0.0011275802299203420 
-0.031258692571711380 
0.0024269115081197953 
-0.0011367877761961436 
-0.0071855849263885810 
0.027368034940808094 
0.0058494897083420875 
0.013778282742100340 
-0.0077666022737301630 
-0.0011367877761961436 
-0.0011367877761961436 
0.0020539473942910334 
-0.010429665971054812 
0.0061339774861976165 
0.011760764850353204 
-0.0023430021002426470 
0.0020539473942910334 
-0.0012711851135769484 
-0.026289488454820980 
0.020205552784876964 
-0.010429665971054812 
-0.0090178586623679200 
-0.0011367877761961436 
-0.010429665971054812 
-0.0032402053885419017 
-0.0032415397081911550 
-0.0042993105668891570 
0.0020539473942910334 
-0.0087487402957954240 
-0.015344567695017753 
-0.0042771665719261140 
0.0020539473942910334 
-0.033598423381108370 
-0.0078090992740424440 
0.0020539473942910334 
-0.014077519624939505 
-0.026289488454820980 
-0.015313488113106860 
-0.0032415397081911550 
0.0082704504575960140 
0.011910903980539927 
-0.0072098096970372670 
-0.010614661238671712 
0.0088471221539988980 
-0.031258692571711380 
0.035600136095445996 
0.0048139778224966160 
0.0061339774861976165 
-0.0014878083762044044 
-0.0079922158056239450 
-0.00037826824763083300 
0.0055132793514752150 
-0.0092099693102556630 
-0.0042771665719261140 
0.0055132793514752150 
-0.0039853589679403790 
-0.023059340841799496 
-0.0054042529714161455 
0.0018772833460664706 
0.052238442350431014 
-0.0054042529714161455 
0.012798136828742195 
0.0058494897083420875 
0.011703147808127453 
-0.0079922158056239450 
-0.0069907395983346760 
-0.0033215113056914696 
0.0034791500823760195 
0.020773112450862660 
-0.026289488454820980 
-0.012968063988045541 
-0.0056670179136706370 
-0.0033215113056914696 
0.025768237920588280 
0.0053159262239068140 
0.013076320666205920 
0.0058494897083420875 
-0.0042771665719261140 
0.0018772833460664706 
-0.0067982792303203440 
-0.0067982792303203440 
0.024186128854144267 
0.012798136828742195 
0.012798136828742195 
0.0055132793514752150 
0.024186128854144267 
-0.0078090992740424440 
0.025768237920588280 
0.0060782035983099260 
0.0058374627780573790 
-0.0032402053885419017 
-0.029691430512701650 
0.011264172080113141 
0.0051235848474941250 
-0.015344567695017753 
0.0028831211129360420 
0.0034791500823760195 
0.0055132793514752150 
0.0024912617939139145 
-0.0012711851135769484 
0.012081690658487620 
0.0014162377285401010 
-0.016251187067007430 
0.012967983810023730 
-0.0038322865524254342 
-0.0067982792303203440 
-0.0038322865524254342 
-0.0041287089561620575 
0.0061339774861976165 
0.011617328676014727 
0.0053159262239068140 
-0.0067704483274236420 
-0.014077519624939505 
-0.0014878083762044044 
-0.00040388801442219470 
0.0097701010063458750 
0.0061545405611655050 
-0.0069907395983346760 
-0.0077666022737301630 
-0.0088120689468491660 
0.0035594603046763430 
0.013778282742100340 
-0.0072098096970372670 
0.0054972756822767675 
-0.015313488113106860 
0.0070488518748473030 
-0.010355913548079146 
-0.00040388801442219470 
-0.0011367877761961436 
-0.0098664438362170880 
0.0024269115081197953 
0.024884422762028640 
-0.0016004560238093665 
0.0071849774905806610 
0.0061545405611655050 
0.0074443742490059570 
0.049486251182888824 
0.015894349042704450 
0.0018772833460664706 
0.0051235848474941250 
-0.00037826824763083300 
-0.0032402053885419017 
0.0081628724379450400 
-0.0090178586623679200 
-0.0088120689468491660 
0.0060917035301769140 
0.0060782035983099260 
-0.0038322865524254342 
-0.0042771665719261140 
0.0018772833460664706 
0.0024269115081197953 
0.0055132793514752150 
0.012967983810023730 
0.0034791500823760195 
-0.0056670179136706370 
0.011708711606018850 
-0.010355913548079146 
0.019670564079151992 
-0.0042993105668891570 
-0.0013326384476943487 
0.012967983810023730 
-0.00037826824763083300 
-0.018476066146354404 
0.0035647273257798074 
-0.0038322865524254342 
0.0090704090269711460 
-0.014008372336570452 
0.015894349042704450 
0.0097701010063458750 
-0.0090178586623679200 
-0.0072690793349000520 
-0.0085470523718125610 
-0.0012861429432527210 
0.032212320302245590 
0.0058494897083420875 
0.0058494897083420875 
0.0054972756822767675 
0.0058494897083420875 
0.0069949657295554620 
0.0081628724379450400 
-0.0067204321473806420 
0.0058494897083420875 
0.014821487877885791 
0.014168624196653640 
0.0018772833460664706 
-0.0046541274945379690 
-0.0011367877761961436 
-0.016936347433469820 
0.0051235848474941250 
0.011708711606018850 
0.0058494897083420875 
0.0018772833460664706 
0.0061545405611655050 
-0.0051250850822451270 
0.0088471221539988980 
0.0024442413401194660 
0.0020539473942910334 
0.0055132793514752150 
-0.0046541274945379690 
-0.0095186521358217140 
-0.0012711851135769484 
0.0054972756822767675 
0.0079489912055917060 
-0.0072352803577803630 
-0.015344567695017753 
-0.0042993105668891570 
0.0034835942021652104 
0.023138317086194366 
-0.0090178586623679200 
-0.0087487402957954240 
0.0042468898047750970 
0.011264172080113141 
0.013114353156529408 
-0.012968063988045541 
0.0069949657295554620 
-0.014077519624939505 
0.0043438849639187250 
0.0058374627780573790 
-0.016936347433469820 
0.00049190067354469110 
0.0082704504575960140 
0.0024442413401194660 
0.0060782035983099260 
0.0041311710406476230 
0.0020539473942910334 
-0.0092099693102556630 
0.011910903980539927 
0.0024912617939139145 
0.0051235848474941250 
-0.010614661238671712 
0.012967983810023730 
0.0060782035983099260 
0.032066119353543860 
0.0086475050119872600 
0.032066119353543860 
0.0074443742490059570 
-0.0038322865524254342 
-0.00040388801442219470 
0.0082704504575960140 
-0.0012711851135769484 
-0.0070178814043716620 
-0.0072352803577803630 
-0.021549292166587512 
0.011429913928109797 
0.0024442413401194660 
0.00049190067354469110 
0.019670564079151992 
-0.0023430021002426470 
-0.0086305568068796460 
0.0043438849639187250 
0.0020539473942910334 
0.0057369154593624940 
-0.0087487402957954240 
0.0058494897083420875 
0.024884422762028640 
-0.0086305568068796460 
-0.0041287089561620575 
-0.0048364914113856060 
-0.0030561139928894396 
-0.0038322865524254342 
0.0020539473942910334 
-0.0077666022737301630 
-0.00037826824763083300 
-0.015313488113106860 
0.020821032116739625 
-0.00037826824763083300 
0.018634820613101040 
-0.0032415397081911550 
0.00051873747444998470 
0.0024442413401194660 
-0.0011367877761961436 
-0.0030561139928894396 
-0.016936347433469820 
0.0026362571285533490 
0.0035594603046763430 
0.0058374627780573790 
-0.012709485241027432 
-0.0067204321473806420 
0.020773112450862660 
0.0020539473942910334 
0.0042468898047750970 
-0.015313488113106860 
0.0014162377285401010 
0.035600136095445996 
-0.014142056959450155 
0.012967983810023730 
0.014168624196653640 
-0.00037826824763083300 
0.0026362571285533490 
-0.0014878083762044044 
0.010744785143711987 
0.0088471221539988980 
0.014482656175992812 
-0.0042771665719261140 
-0.010614661238671712 
0.011617328676014727 
-0.00037826824763083300 
0.025857355271201160 
0.024884422762028640 
-0.0044800093131624390 
-0.0044800093131624390 
-0.011121473029875085 
-0.012216146685074432 
-0.0039853589679403790 
0.032212320302245590 
-0.0077666022737301630 
-0.0095186521358217140 
0.0097701010063458750 
0.0069949657295554620 
0.0081628724379450400 
0.0081628724379450400 
-0.0030561139928894396 
-0.027251351247560583 
-0.0071855849263885810 
0.015894349042704450 
-0.015313488113106860 
0.0081628724379450400 
0.0081628724379450400 
0.0081628724379450400 
-0.0067204321473806420 
-0.018288810112989250 
0.014482656175992812 
0.0097701010063458750 
0.0011032703789384984 
-0.015344567695017753 
-0.0090178586623679200 
-0.0079922158056239450 
0.014810816609893489 
0.0041311710406476230 
-0.0056670179136706370 
-0.0088120689468491660 
0.0070488518748473030 
-0.013625031584610908 
-0.014142056959450155 
-0.011341021676891610 
0.0097701010063458750 
-0.0098664438362170880 
0.0074443742490059570 
0.0054972756822767675 
0.011760764850353204 
-0.029691430512701650 
-0.0079580962658953380 
-0.0014878083762044044 
-0.025676190745748048 
-0.0085470523718125610 
-0.0069907395983346760 
0.0051368199944461610 
0.0045461010363583960 
-0.0011367877761961436 
-0.0098664438362170880 
0.011703147808127453 
0.0018772833460664706 
0.0051235848474941250 
0.011910903980539927 
0.020821032116739625 
-0.0090178586623679200 
0.00051873747444998470 
-0.0042771665719261140 
0.0071849774905806610 
-0.013625031584610908 
0.0014162377285401010 
-0.0042771665719261140 
0.014821487877885791 
0.026760384961871630 
0.0082704504575960140 
0.0048139778224966160 
0.0071849774905806610 
-0.0016004560238093665 
-0.0063126991894936770 
-0.0011367877761961436 
0.0024442413401194660 
-0.0072352803577803630 
-0.0042771665719261140 
0.020205552784876964 
-0.014881835418200007 
-0.0072352803577803630 
0.0058374627780573790 
-0.0010142285263883206 
-0.0033215113056914696 
-0.00081854917592986180 
0.011723566612740426 
-0.014077519624939505 
-0.0014878083762044044 
0.0082704504575960140 
0.00051873747444998470 
0.00051873747444998470 
0.0018772833460664706 
0.014168624196653640 
0.0058494897083420875 
0.0041311710406476230 
0.013778282742100340 
-0.021549292166587512 
-0.013625031584610908 
-0.0085470523718125610 
-0.0069907395983346760 
0.0042468898047750970 
-0.0051250850822451270 
0.0043438849639187250 
0.0060782035983099260 
-0.010355913548079146 
0.012967983810023730 
-0.010614661238671712 
-0.010355913548079146 
-0.010614661238671712 
0.018620478396731420 
-0.0013326384476943487 
-0.0088120689468491660 
-0.0088120689468491660 
0.014821487877885791 
0.0024912617939139145 
0.0054184866761202300 
0.0060917035301769140 
-0.0010142285263883206 
-0.0079580962658953380 
-0.018288810112989250 
-0.0038322865524254342 
0.013076320666205920 
0.0070143496375249350 
0.032212320302245590 
-0.0011367877761961436 
-0.013625031584610908 
-0.0098664438362170880 
0.0018772833460664706 
-0.0067704483274236420 
-0.011121473029875085 
0.0043438849639187250 
0.0053159262239068140 
0.013114353156529408 
-0.0078090992740424440 
0.020323275750807095 
0.024057612666281838 
0.0074443742490059570 
0.00051873747444998470 
-0.0032415397081911550 
-0.0077666022737301630 
-0.0010142285263883206 
0.018634820613101040 
-0.0072098096970372670 
-0.016417343479288630 
-0.00081854917592986180 
0.012967983810023730 
-0.043375403670867146 
0.00049190067354469110 
-0.013625031584610908 
0.0099348250670369330 
-0.0070178814043716620 
0.014810816609893489 
0.027989584699514684 
0.011006853624969656 
0.0060782035983099260 
0.0060917035301769140 
-0.0098664438362170880 
0.0060917035301769140 
-0.0041287089561620575 
0.0060917035301769140 
0.0051368199944461610 
0.0086475050119872600 
-0.0013326384476943487 
-0.016251187067007430 
0.011723566612740426 
0.0057589372878906720 
0.027989584699514684 
0.00049190067354469110 
-0.0085470523718125610 
0.0024442413401194660 
0.0024912617939139145 
0.032276932819534910 
0.0045461010363583960 
0.0088471221539988980 
-0.018642396768709896 
0.035600136095445996 
-0.029691430512701650 
0.0048139778224966160 
0.0060917035301769140 
-0.0042771665719261140 
0.0045461010363583960 
0.029633834940557317 
-0.0071855849263885810 
0.0060782035983099260 
0.00049190067354469110 
-0.012709485241027432 
-0.0090178586623679200 
0.0090704090269711460 
-0.0030561139928894396 
0.013076320666205920 
0.0024269115081197953 
0.0042468898047750970 
-0.0095186521358217140 
-0.00081854917592986180 
-0.00081854917592986180 
0.0090704090269711460 
-0.012483377595617809 
-0.00037826824763083300 
-0.012483377595617809 
0.013076320666205920 
-0.0012711851135769484 
-0.0033215113056914696 
0.020205552784876964 
0.0071849774905806610 
-0.0042993105668891570 
0.013076320666205920 
0.0055132793514752150 
0.0057589372878906720 
0.0055132793514752150 
0.0055132793514752150 
-0.0056670179136706370 
0.0024912617939139145 
-0.0098664438362170880 
0.0055132793514752150 
0.010744785143711987 
0.0055132793514752150 
0.0055132793514752150 
0.010744785143711987 
0.0028831211129360420 
-0.0011367877761961436 
-0.0013326384476943487 
0.010097475938771297 
0.00049190067354469110 
-0.0090178586623679200 
0.011703147808127453 
-0.013886213938790427 
0.011760764850353204 
-0.014843653067529234 
0.0097701010063458750 
-0.0030561139928894396 
-0.0088120689468491660 
0.0041311710406476230 
0.0043438849639187250 
0.0046433486238976450 
-0.0077666022737301630 
-0.0095186521358217140 
0.011429913928109797 
-0.012116891441131053 
-0.0036921675996719806 
-0.010355913548079146 
0.0045461010363583960 
-0.0067982792303203440 
-0.0086305568068796460 
0.0094803194277754410 
0.0058494897083420875 
0.0094803194277754410 
0.0086215285815075760 
-0.00037826824763083300 
0.011264172080113141 
0.011116815631542223 
-0.0012861429432527210 
0.018620478396731420 
-0.0012861429432527210 
-0.0067982792303203440 
-0.0011080011821607650 
-0.029602025351637085 
-0.0014878083762044044 
0.0035594603046763430 
0.0024269115081197953 
0.0094803194277754410 
0.0070488518748473030 
0.0079489912055917060 
0.029371462355478686 
0.0097701010063458750 
-0.015843392195655150 
0.0097701010063458750 
-0.0042771665719261140 
0.016464593311687332 
0.0014162377285401010 
0.0026362571285533490 
0.018620478396731420 
0.0058374627780573790 
-0.0077666022737301630 
0.010448564856344310 
0.0070488518748473030 
-0.0077666022737301630 
-0.0067704483274236420 
-0.0067704483274236420 
0.0054972756822767675 
-0.00040388801442219470 
-0.00040388801442219470 
-0.0077666022737301630 
0.0070488518748473030 
-0.00040388801442219470 
-0.0077666022737301630 
-0.00040388801442219470 
0.0024269115081197953 
-0.0033215113056914696 
0.0097701010063458750 
0.016464593311687332 
0.0054184866761202300 
-0.0056670179136706370 
0.0054184866761202300 
0.0011275802299203420 
0.0090704090269711460 
0.011703147808127453 
-0.0070178814043716620 
-0.0011080011821607650 
0.0043438849639187250 
0.020323275750807095 
-0.015015730639160604 
0.0051235848474941250 
0.0088471221539988980 
0.0011032703789384984 
0.0051235848474941250 
-0.015313488113106860 
-0.035904925425773270 
0.0096862783491365870 
-0.015313488113106860 
-0.013886213938790427 
-0.018924496589564205 
-0.0056670179136706370 
0.0041311710406476230 
0.0051368199944461610 
0.014821487877885791 
-0.0033215113056914696 
0.026760384961871630 
0.012081690658487620 
-0.0092099693102556630 
-0.0010142285263883206 
-0.0010142285263883206 
0.012081690658487620 
0.0034791500823760195 
0.0088471221539988980 
0.0079489912055917060 
0.0020539473942910334 
-0.014008372336570452 
0.0026362571285533490 
-0.0038322865524254342 
0.0011032703789384984 
0.011429913928109797 
-0.015812828052112787 
0.011617328676014727 
0.00049190067354469110 
-0.0010142285263883206 
0.0034835942021652104 
-0.0036921675996719806 
0.0060782035983099260 
-0.0010142285263883206 
-0.0070178814043716620 
0.0048139778224966160 
0.0057589372878906720 
0.011500473486728871 
0.014810816609893489 
-0.0079922158056239450 
0.0079489912055917060 
-0.0030561139928894396 
0.00049190067354469110 
0.027989584699514684 
0.0071849774905806610 
0.0061339774861976165 
-0.0042993105668891570 
0.027989584699514684 
0.0058494897083420875 
-0.011121473029875085 
0.00049190067354469110 
0.0061339774861976165 
0.0061545405611655050 
-0.015843392195655150 
-0.033598423381108370 
0.028143511125399010 
-0.0036921675996719806 
-0.024282535883161212 
0.0061339774861976165 
-0.0078090992740424440 
-0.0016004560238093665 
0.0051368199944461610 
0.0069949657295554620 
-0.0016004560238093665 
-0.0016004560238093665 
-0.0013326384476943487 
-0.0013326384476943487 
0.0024442413401194660 
0.0057369154593624940 
0.0061339774861976165 
-0.0011367877761961436 
0.014821487877885791 
0.0014162377285401010 
-0.0048364914113856060 
0.0090704090269711460 
0.0018772833460664706 
-0.0033215113056914696 
0.011264172080113141 
-0.0072098096970372670 
0.0057589372878906720 
-0.0072098096970372670 
-0.0012861429432527210 
0.0090704090269711460 
0.0060917035301769140 
0.0090704090269711460 
-0.0072098096970372670 
-0.012709485241027432 
-0.014925463913133973 
-0.025676190745748048 
-0.014510953101997182 
-0.0039853589679403790 
-0.0056670179136706370 
0.0061545405611655050 
0.0042468898047750970 
-0.011121473029875085 
0.0054184866761202300 
-0.0044800093131624390 
-0.012116891441131053 
0.0048139778224966160 
-0.021549292166587512 
0.00051873747444998470 
0.0024269115081197953 
0.018620478396731420 
-0.0079922158056239450 
0.0057589372878906720 
-0.014008372336570452 
0.023138317086194366 
0.0020539473942910334 
0.0024442413401194660 
-0.0072352803577803630 
0.0034835942021652104 
-0.0010477804145027658 
0.0024442413401194660 
0.011006853624969656 
-0.0012711851135769484 
-0.0041287089561620575 
-0.0032415397081911550 
0.0060782035983099260 
0.012081690658487620 
0.0053159262239068140 
0.0042468898047750970 
0.013114353156529408 
-0.012709485241027432 
0.0054184866761202300 
0.020773112450862660 
-0.014925463913133973 
-0.015313488113106860 
-0.010614661238671712 
-0.0016004560238093665 
0.0058374627780573790 
0.0034791500823760195 
0.0034791500823760195 
-0.010429665971054812 
-0.0012711851135769484 
0.0058374627780573790 
-0.0021412486324599650 
-0.0038322865524254342 
-0.014077519624939505 
0.0070488518748473030 
-0.0042771665719261140 
-0.0067982792303203440 
-0.015344567695017753 
0.025857355271201160 
-0.0077666022737301630 
-0.0012861429432527210 
0.00051873747444998470 
0.0041311710406476230 
0.0011032703789384984 
0.0011032703789384984 
0.0041311710406476230 
0.0055132793514752150 
0.016464593311687332 
-0.0067982792303203440 
0.011006853624969656 
-0.0072690793349000520 
0.020323275750807095 
-0.015313488113106860 
0.0088471221539988980 
-0.0051250850822451270 
0.0088471221539988980 
-0.018288810112989250 
0.0045461010363583960 
-0.0038322865524254342 
-0.0051250850822451270 
-0.011341021676891610 
0.011760764850353204 
0.035600136095445996 
0.0079489912055917060 
-0.0072352803577803630 
-0.0011367877761961436 
-0.0041287089561620575 
0.0046433486238976450 
-0.0041287089561620575 
-0.0056670179136706370 
-0.0088120689468491660 
0.0058494897083420875 
0.023138317086194366 
0.052238442350431014 
0.027989584699514684 
0.0012972542499424678 
-0.018288810112989250 
0.032212320302245590 
-0.025676190745748048 
0.0061545405611655050 
-0.00040388801442219470 
0.052238442350431014 
0.014482656175992812 
-0.00037826824763083300 
-0.022230716212060388 
0.013778282742100340 
0.0028831211129360420 
0.0088471221539988980 
0.0061339774861976165 
0.0046433486238976450 
-0.013625031584610908 
-0.0023430021002426470 
0.012583471681143868 
-0.027251351247560583 
0.0043438849639187250 
0.0043438849639187250 
0.0043438849639187250 
0.012798136828742195 
0.0034791500823760195 
0.0034791500823760195 
0.014482656175992812 
-0.018924496589564205 
-0.018288810112989250 
0.011264172080113141 
-0.012709485241027432 
-0.0030561139928894396 
-0.0067982792303203440 
0.027989584699514684 
-0.014077519624939505 
0.032212320302245590 
0.027989584699514684 
0.027989584699514684 
0.0024442413401194660 
-0.014648997386046804 
0.0024442413401194660 
-0.0012861429432527210 
-0.0042771665719261140 
0.00051873747444998470 
0.0045461010363583960 
0.032276932819534910 
-0.0032415397081911550 
-0.0032415397081911550 
-0.0032415397081911550 
0.0094803194277754410 
-0.0032415397081911550 
0.012081690658487620 
0.012081690658487620 
0.012081690658487620 
0.00051873747444998470 
0.020323275750807095 
-0.024093188037900770 
0.018620478396731420 
-0.0079922158056239450 
-0.0079922158056239450 
-0.0079922158056239450 
-0.0032415397081911550 
-0.0079922158056239450 
-0.0032415397081911550 
-0.0079922158056239450 
-0.0079922158056239450 
-0.0079922158056239450 
-0.0079922158056239450 
-0.015151512867798337 
-0.0079922158056239450 
0.023138317086194366 
0.0082704504575960140 
0.0024442413401194660 
-0.0010477804145027658 
-0.0010477804145027658 
-0.0038322865524254342 
-0.0010477804145027658 
-0.0010477804145027658 
-0.0019819736448033506 
0.0034791500823760195 
-0.0093963813525141940 
-0.0038322865524254342 
-0.0010477804145027658 
-0.0019819736448033506 
-0.0010477804145027658 
-0.010978236081869912 
0.0066085459659881700 
-0.010429665971054812 
0.0024442413401194660 
-0.0069907395983346760 
-0.0010477804145027658 
-0.00081854917592986180 
-0.00081854917592986180 
-0.013727115472231816 
-0.00081854917592986180 
-0.0038322865524254342 
0.0034791500823760195 
-0.0010477804145027658 
-0.010978236081869912 
-0.010429665971054812 
0.0034791500823760195 
-0.013727115472231816 
-0.011341021676891610 
-0.0010477804145027658 
-0.013727115472231816 
-0.0010477804145027658 
-0.0010477804145027658 
0.011760764850353204 
0.0034791500823760195 
-0.013727115472231816 
-0.0010477804145027658 
-0.0039853589679403790 
-0.0010477804145027658 
0.0034791500823760195 
-0.0010477804145027658 
-0.015788756807158254 
-0.014077519624939505 
-0.0098664438362170880 
-0.0038322865524254342 
-0.0038322865524254342 
0.0020539473942910334 
-0.0093963813525141940 
0.0024912617939139145 
-0.0038322865524254342 
-0.0067704483274236420 
0.0058374627780573790 
-0.00040388801442219470 
-0.0092099693102556630 
-0.0077666022737301630 
0.0018772833460664706 
-0.0014878083762044044 
-0.030944907537982250 
0.0024912617939139145 
0.0051368199944461610 
0.023138317086194366 
0.028143511125399010 
0.020773112450862660 
0.0058374627780573790 
-0.014881835418200007 
0.0042468898047750970 
-0.015313488113106860 
-0.018924496589564205 
-0.013625031584610908 
-0.0044800093131624390 
0.0011032703789384984 
-0.014008372336570452 
0.014482656175992812 
-0.013625031584610908 
-0.0032415397081911550 
0.027989584699514684 
-0.0078090992740424440 
0.0076052283653331760 
0.015894349042704450 
0.014821487877885791 
-0.018288810112989250 
-0.0072690793349000520 
0.00051873747444998470 
0.0058374627780573790 
0.00093556249601361060 
-0.0067982792303203440 
0.0041311710406476230 
0.011723566612740426 
-0.0056670179136706370 
-0.030944907537982250 
0.0048139778224966160 
-0.0067982792303203440 
-0.011341021676891610 
-0.010355913548079146 
-0.0033215113056914696 
-0.029691430512701650 
-0.011686007376993277 
-0.0067204321473806420 
0.011760764850353204 
-0.0046541274945379690 
-0.014077519624939505 
-0.014925463913133973 
0.0024442413401194660 
0.0018772833460664706 
0.0094803194277754410 
-0.0078090992740424440 
-0.0067704483274236420 
-0.010355913548079146 
-0.0038322865524254342 
0.0041311710406476230 
0.0043438849639187250 
-0.0098376215724311060 
0.011760764850353204 
0.0058374627780573790 
0.0042468898047750970 
-0.015843392195655150 
0.012967983810023730 
-0.031258692571711380 
-0.031258692571711380 
-0.0090178586623679200 
0.00049190067354469110 
0.00051873747444998470 
-0.0016004560238093665 
0.0053159262239068140 
-0.015313488113106860 
0.0020539473942910334 
0.00049190067354469110 
0.0053159262239068140 
0.0053159262239068140 
-0.015812828052112787 
0.018634820613101040 
0.016464593311687332 
0.0053159262239068140 
0.0034791500823760195 
-0.00081854917592986180 
-0.010978236081869912 
-0.0079580962658953380 
0.0026362571285533490 
-0.014925463913133973 
-0.0077666022737301630 
0.0074443742490059570 
0.00049190067354469110 
-0.0016004560238093665 
-0.0090178586623679200 
0.0053159262239068140 
0.018019939874701445 
-0.0032415397081911550 
0.0057369154593624940 
0.0053159262239068140 
0.0011032703789384984 
0.014482656175992812 
0.0053159262239068140 
-0.0011080011821607650 
-0.014925463913133973 
-0.0032415397081911550 
-0.0033215113056914696 
-0.0090178586623679200 
-0.00040388801442219470 
-0.0032415397081911550 
-0.0088120689468491660 
0.0053159262239068140 
-0.012968063988045541 
-0.0032415397081911550 
-0.0010142285263883206 
-0.012968063988045541 
0.0086475050119872600 
0.0076052283653331760 
0.0061545405611655050 
0.020773112450862660 
0.025857355271201160 
-0.015015730639160604 
0.0042468898047750970 
0.00049190067354469110 
0.0042468898047750970 
0.0053159262239068140 
0.010744785143711987 
-0.0077666022737301630 
-0.0021412486324599650 
-0.0067204321473806420 
-0.0016004560238093665 
0.027989584699514684 
-0.00040388801442219470 
-0.018288810112989250 
-0.0032415397081911550 
-0.0077666022737301630 
0.0088471221539988980 
0.0088471221539988980 
0.0088471221539988980 
0.016720884785443445 
-0.015313488113106860 
0.0088471221539988980 
-0.024282535883161212 
0.0088471221539988980 
0.0088471221539988980 
0.0042468898047750970 
-0.012709485241027432 
-0.00037826824763083300 
0.00051873747444998470 
0.00051873747444998470 
-0.014008372336570452 
0.0088471221539988980 
-0.0030561139928894396 
0.0043438849639187250 
-0.029691430512701650 
-0.0067704483274236420 
-0.0098376215724311060 
-0.0046541274945379690 
-0.0038322865524254342 
-0.033598423381108370 
0.0034835942021652104 
0.00051873747444998470 
0.0046433486238976450 
-0.0079922158056239450 
0.010744785143711987 
0.011264172080113141 
0.0024442413401194660 
-0.033598423381108370 
0.0055132793514752150 
-0.010429665971054812 
0.011708711606018850 
0.0042468898047750970 
0.0042468898047750970 
-0.033598423381108370 
-0.0041287089561620575 
-0.015788756807158254 
-0.0079580962658953380 
-0.0042771665719261140 
0.0060917035301769140 
-0.014925463913133973 
-0.0072352803577803630 
-0.013625031584610908 
-0.0036921675996719806 
0.011760764850353204 
-0.0051250850822451270 
-0.00040388801442219470 
0.013076320666205920 
0.0045461010363583960 
0.011264172080113141 
-0.029691430512701650 
0.0058374627780573790 
0.0042468898047750970 
0.015894349042704450 
0.0076052283653331760 
-0.00040388801442219470 
0.020821032116739625 
-0.015313488113106860 
0.011006853624969656 
-0.015812828052112787 
0.0061339774861976165 
-0.015313488113106860 
0.012583471681143868 
0.0070143496375249350 
-0.0011367877761961436 
-0.0098664438362170880 
-0.0030561139928894396 
0.024186128854144267 
0.011264172080113141 
-0.0092099693102556630 
0.020821032116739625 
0.012081690658487620 
0.032276932819534910 
-0.0079922158056239450 
0.011617328676014727 
0.0041311710406476230 
0.0018772833460664706 
-0.0030561139928894396 
0.0058494897083420875 
-0.013625031584610908 
-0.00040388801442219470 
-0.0033215113056914696 
-0.0054042529714161455 
-0.015015730639160604 
0.0088471221539988980 
-0.0042993105668891570 
0.0058494897083420875 
0.0024442413401194660 
0.0074443742490059570 
-0.0067204321473806420 
-0.010614661238671712 
0.0051235848474941250 
0.00051873747444998470 
-0.014142056959450155 
-0.0011367877761961436 
-0.0011367877761961436 
-0.0046541274945379690 
0.011910903980539927 
0.013778282742100340 
0.0060782035983099260 
-0.00037826824763083300 
0.014821487877885791 
0.020323275750807095 
-0.0016004560238093665 
0.0035594603046763430 
0.012583471681143868 
-0.010614661238671712 
0.0058494897083420875 
0.0034791500823760195 
0.00051873747444998470 
0.0082704504575960140 
0.011264172080113141 
0.011500473486728871 
0.0061339774861976165 
-0.00037826824763083300 
-0.011686007376993277 
-0.0032415397081911550 
0.011500473486728871 
-0.010978236081869912 
0.0057369154593624940 
-0.014142056959450155 
-0.0010477804145027658 
-0.018476066146354404 
0.0018772833460664706 
0.0086475050119872600 
0.020323275750807095 
0.0018772833460664706 
0.0011032703789384984 
-0.0011367877761961436 
0.025768237920588280 
0.0018772833460664706 
-0.012968063988045541 
0.0055132793514752150 
-0.0032415397081911550 
0.00049190067354469110 
-0.026289488454820980 
-0.0010142285263883206 
0.011708711606018850 
0.0055132793514752150 
-0.0095186521358217140 
0.013662942514737136 
-0.0032415397081911550 
0.0074443742490059570 
-0.0098376215724311060 
-0.00037826824763083300 
0.0014162377285401010 
0.0042468898047750970 
0.0043438849639187250 
0.0046433486238976450 
0.011703147808127453 
-0.018288810112989250 
-0.0011080011821607650 
-0.014925463913133973 
-0.0077666022737301630 
0.0043438849639187250 
-0.015313488113106860 
0.0076052283653331760 
0.0011032703789384984 
0.0042468898047750970 
-0.014077519624939505 
-0.0010142285263883206 
0.0079489912055917060 
0.0024442413401194660 
0.0071141604321656580 
0.015894349042704450 
0.0011032703789384984 
0.0086475050119872600 
0.010744785143711987 
-0.014925463913133973 
0.0054184866761202300 
-0.0079922158056239450 
0.0042468898047750970 
-0.0088120689468491660 
0.020323275750807095 
-0.012116891441131053 
0.035600136095445996 
0.00051873747444998470 
0.024057612666281838 
-0.012116891441131053 
0.0034835942021652104 
-0.018924496589564205 
-0.0071855849263885810 
0.0024442413401194660 
0.0060782035983099260 
0.00051873747444998470 
0.011760764850353204 
0.00051873747444998470 
-0.011341021676891610 
0.00051873747444998470 
0.0074443742490059570 
0.0055132793514752150 
-0.018924496589564205 
-0.0032415397081911550 
-0.0095186521358217140 
-0.0011367877761961436 
-0.0010477804145027658 
-0.015015730639160604 
0.0088471221539988980 
-0.0069907395983346760 
0.011500473486728871 
0.0058494897083420875 
-0.0011080011821607650 
0.0074443742490059570 
0.0058494897083420875 
-0.0012861429432527210 
-0.0098376215724311060 
0.0071141604321656580 
0.0086475050119872600 
0.00049190067354469110 
-0.0098664438362170880 
-0.00081854917592986180 
-0.018924496589564205 
-0.0086305568068796460 
0.032066119353543860 
-0.0013326384476943487 
0.010097475938771297 
0.0026362571285533490 
-0.0042771665719261140 
0.023138317086194366 
0.0014162377285401010 
-0.0023430021002426470 
0.011006853624969656 
-0.0048364914113856060 
0.0069949657295554620 
-0.0036921675996719806 
0.0060782035983099260 
0.014810816609893489 
-0.011686007376993277 
-0.0079580962658953380 
-0.0056670179136706370 
-0.0032415397081911550 
0.014810816609893489 
-0.0020939118472325480 
-0.0039853589679403790 
-0.0021412486324599650 
0.0094803194277754410 
0.011703147808127453 
-0.00040388801442219470 
0.0028831211129360420 
0.0076052283653331760 
-0.0095186521358217140 
0.0011032703789384984 
0.0018772833460664706 
-0.0014878083762044044 
-0.0033215113056914696 
-0.0086305568068796460 
0.0014162377285401010 
-0.0078090992740424440 
0.0014162377285401010 
-0.0067204321473806420 
0.0070143496375249350 
-0.0033215113056914696 
-0.0012861429432527210 
0.0069949657295554620 
-0.0010142285263883206 
0.0041311710406476230 
-0.014881835418200007 
0.013662942514737136 
-0.0012861429432527210 
-0.0011080011821607650 
0.049486251182888824 
0.0074443742490059570 
0.0071141604321656580 
0.0020539473942910334 
-0.0014878083762044044 
0.0071141604321656580 
0.0034835942021652104 
-0.014142056959450155 
0.011264172080113141 
0.0034835942021652104 
-0.010978236081869912 
-0.014881835418200007 
-0.0032415397081911550 
0.0014162377285401010 
-0.012709485241027432 
0.019670564079151992 
0.0024442413401194660 
-0.0098376215724311060 
-0.014881835418200007 
0.0070488518748473030 
-0.0085470523718125610 
-0.016417343479288630 
0.0071141604321656580 
0.0070143496375249350 
-0.0011367877761961436 
0.011723566612740426 
-0.014142056959450155 
-0.0010142285263883206 
0.0058494897083420875 
-0.010978236081869912 
0.028143511125399010 
0.0081628724379450400 
0.0048139778224966160 
-0.0086305568068796460 
-0.0086305568068796460 
-0.010978236081869912 
0.0099348250670369330 
0.0076052283653331760 
0.0011032703789384984 
-0.0048364914113856060 
0.0071849774905806610 
0.0074443742490059570 
0.013778282742100340 
0.013114353156529408 
0.0079489912055917060 
-0.0046541274945379690 
-0.0067982792303203440 
0.026760384961871630 
-0.025676190745748048 
-0.010614661238671712 
-0.014843653067529234 
0.0051235848474941250 
-0.0033215113056914696 
-0.030944907537982250 
0.028841345334365960 
0.0054972756822767675 
0.0071141604321656580 
0.0024442413401194660 
-0.0069907395983346760 
0.00049190067354469110 
-0.022230716212060388 
0.0074443742490059570 
0.0061339774861976165 
-0.0013326384476943487 
-0.015015730639160604 
0.0042468898047750970 
0.011429913928109797 
-0.0048364914113856060 
0.028841345334365960 
-0.0032415397081911550 
0.011910903980539927 
0.012967983810023730 
0.0028831211129360420 
0.0057589372878906720 
-0.0090178586623679200 
-0.0072352803577803630 
-0.0079922158056239450 
0.0061545405611655050 
0.025768237920588280 
-0.0072098096970372670 
0.0079489912055917060 
-0.0069907395983346760 
-0.010614661238671712 
0.0097701010063458750 
-0.015313488113106860 
0.010097475938771297 
-0.0088120689468491660 
