solver_type L2R_L2LOSS_SVC
nr_class 2
label 1 -1
nr_feature 7999
bias 0.0000000000000000
w
-0.064117617406212400 
-0.068849115429987770 
-0.036674054253961426 
-0.069700170594366980 
-0.051286603806689420 
-0.065330810970087250 
-0.063647362355789720 
-0.043559926639596735 
-0.033649472560158710 
-0.039885273679902460 
0.061202095908045345 
0.061485922894840040 
0.068680080576455550 
-0.058560721152310990 
-0.068779220297954520 
-0.040943683711335630 
0.054272281745847376 
0.077240694416738280 
0.038620773195163716 
-0.038001971993228220 
0.029263347854160245 
0.039000171286317950 
0.065360028180159010 
-0.039828011444265794 
0.072473347948763560 
-0.020600918575390380 
-0.063356051117491430 
0.048081406716455940 
0.060017598141659750 
-0.029705849858655445 
-0.064371083352698780 
-0.020914703757190095 
0.052720033345618644 
0.076512042851686950 
0.029343940769812210 
0.038873968841667450 
0.047857388741476735 
-0.033474299909618095 
0.050100904363139354 
-0.050816904545577800 
0.026353463181252947 
-0.00033755587286246977 
-0.016360091913557030 
0.031304602988134140 
0.060807315748189754 
0.034624308635622750 
0.036761491790421420 
-0.029056947263445070 
-0.068775830291178560 
-0.021128296467255576 
0.026688165919251373 
-0.060664838721184780 
0.034023655096923566 
-0.0084722207044135960 
0.036919331106836170 
0.028241961157371064 
-0.033977661561333944 
-0.045687237046030730 
0.022160652284348964 
-0.049591380608823676 
-0.051204498767081816 
-0.026138731032669518 
-0.026270218933323278 
0.0089484573730961130 
-0.042501312680495784 
-0.019757108939615946 
-0.038314665349600120 
0.058440688901337905 
0.029760159819325005 
0.032874233417643846 
-0.032466221846659180 
-0.015230797074088405 
-0.053635500677391030 
0.051565958509687496 
-0.021136628827435150 
-0.0034996564062105178 
0.040499700464651180 
-0.024932215022360257 
0.023720664145262044 
-0.0016276430067889078 
0.032134717948590490 
0.053519367468503980 
0.033643381674374090 
-0.028173956746769030 
0.041013039171029860 
0.037395111338200890 
0.036355245435708490 
0.034630634429457770 
-0.015645881784702918 
0.066777046036941100 
0.021862726536568483 
-0.030741966288517605 
-0.015500166565703343 
0.033295987785904110 
-0.048959973753184690 
-0.062101355668220230 
-0.027441724640729567 
-0.025958111967748690 
-0.018521407491259910 
0.022692680768254366 
0.018866732820963183 
0.014646042628029656 
-0.016604233189321580 
0.022122945118720490 
0.020700862472863810 
0.022203920120245890 
-0.042194281870452070 
-0.023328701633722578 
-0.017007026648897573 
-0.062465051050669530 
-0.051887536494850930 
0.015151876282080780 
-0.039283141610445450 
0.055825299191214150 
0.022619378533944090 
-0.018755283390608606 
0.020121917280512828 
0.039022396400378370 
0.033407612287502650 
0.021749384855110007 
-0.046958927572057760 
-0.042385377299682990 
0.015821180836986647 
-0.026442015194948116 
-0.018278473542998847 
-0.051117362487037560 
-0.040919213345036766 
-0.032987995867293770 
0.072220901954596100 
-0.014473481379272030 
-0.021596493239645676 
-0.010742077293662604 
-0.0065084787060065470 
0.025747376102155595 
0 
0.039466928882062000 
-0.032033007394854575 
-0.034845624110797250 
0.051570386152665630 
-0.041481518653892435 
0.022310018475494280 
-0.020959910384628622 
-0.032376049233426570 
0.034660881566845060 
-0.014950169149136642 
0.010308425142940250 
-0.021427231422749965 
-0.017507137208419513 
0.023375922151985460 
0.016228243209329110 
-0.017706846237136890 
0.032109500506643930 
-0.027600770790668190 
-0.026958645131311156 
-0.0090646166145363740 
-0.033106970589449400 
-0.024378758526230720 
-0.0058921920500353180 
-0.029216779404994675 
0.0066688434533324220 
-0.030539367490421060 
-0.018195607795929956 
-0.013580388204401060 
-0.034013789732613720 
0.0014467994128896878 
0.042322008553705534 
-0.013865553825386230 
-0.0012909318006172773 
0.0037123655705237380 
-0.0099723782155161200 
0.016591950728808157 
0.018213372069571136 
0.025180494471810762 
0.023488263729773896 
0.011536491005105435 
0.026099941500514777 
-0.034960108257970200 
-0.027750567652822750 
0.028093800561240414 
0.014901099838013472 
0.024613546962692717 
-0.031528359367513790 
0.012978122957397779 
-0.020832183253356243 
0.017233574825886822 
-0.019289545025010672 
-0.034117663279595320 
0.0050261698720348570 
0.025789481249706214 
0.041100414520220487 
0.022744898326149290 
-0.023976958454960050 
-0.015536227132064822 
-0.027291060318202793 
0.019643885865627517 
0.028180778380431905 
-0.018159879857293310 
0.015903612440608150 
0 
-3.5262691593817600e-05 
0.024330594334267076 
-0.024596638971420285 
-0.015294315249183047 
-0.021017672566230900 
0.072858524463692020 
0.035203452504404310 
-0.029247180250971800 
0.016957148648069274 
-0.020749202866364082 
0.046621674637003400 
0.031269485128058590 
-0.032198516478831400 
-0.021374639177173150 
-0.010098438847965381 
-0.019432607528254518 
0.025300199370641062 
-0.019452167247548956 
0.023916938262659854 
-0.040036194577759490 
-0.022342325626212925 
0.046443932689414960 
-0.027897396401368547 
-0.026178652137692292 
-0.018945701053235953 
-0.021427167375992553 
0.016746319969746314 
0.024398700615196924 
0.011714471222697158 
-0.022905057803929707 
0.046213383794614360 
-0.019651732983123064 
-0.020318342912145660 
-0.024289115196692253 
0.018309567151252107 
-0.023270159672910695 
-0.011442123965035420 
-0.023372573495486833 
-0.016114780050181767 
-0.019384842901685350 
-0.027930262305532410 
0.014194555593685699 
-0.018918669729540778 
0.021043252878348710 
-0.038502634655880726 
-0.050545173107813740 
-0.019960841688282180 
0.018891633427675610 
-0.044596402682359086 
-0.039352541736395770 
0.042136696038321940 
0.016646262990526950 
-0.023222793613786815 
-0.024775419810873996 
0.018758506609306228 
0.016079399159966820 
0.014945000146628447 
-0.021594228506822508 
0.015672131638101598 
0.026605213894893266 
-0.014157867359524639 
-0.075395181681246660 
-0.023413728540290980 
0.025390379830396947 
-0.026323538721105787 
-0.019475104971525003 
-0.028963036027442130 
-0.032532767633719116 
0.035190010213412800 
0.062425357073362820 
-0.033224749320775370 
-0.012159427389133207 
-0.046107343512261960 
-0.029348450404773390 
-0.024152712174000890 
-0.019015698837531730 
-0.032326214052273790 
-0.023399315405150903 
-0.028636570247034022 
0.021284271948132870 
-0.018565475617827544 
0.022945399725180712 
0.027979664384218172 
0.029291085173891063 
-0.021448531688276484 
0.041094194009310540 
-0.024143279880231910 
-0.024584536070191173 
-0.027218773761600774 
0.029997313748831626 
0.026221314166739264 
-0.027207096880269360 
-0.011635868655758616 
-0.0015532818189551046 
-0.0034677213750263576 
0.011535625799119398 
-0.014154085522487770 
0.023644361160669760 
0.027418457247194106 
0.030309404010000974 
0.032332783137553560 
0.029026718590420796 
-0.024216783848779700 
0.036382141763252320 
0.016890389950362517 
0.028123535072210860 
0.043803678030677180 
0.024562068448370854 
0.0097174094108892720 
0.037779771171057054 
-0.020128520682185753 
-0.036352348501046745 
0.037268046036593880 
0.023296485800141962 
-0.011010464723439209 
-0.037827654071656600 
-0.023859911556217730 
-0.044957302450271950 
0.029314589114036360 
-0.036285895321906620 
-0.031204096254200446 
0.022892537624120040 
-0.026680012079393793 
-0.028045368902388512 
0.019697394620955523 
-0.0053189158662501610 
-0.012256779338018194 
0.052529284041997080 
-0.032584369218672290 
0.029384023465466386 
0.027858008030441486 
0.014568900202857988 
0.013361137859033975 
0.043438658322977430 
0.044228830383686360 
-0.017820918687820642 
0.019670729111771194 
-0.035650109331989000 
-0.020976895816398410 
0.022276024662502520 
-0.025786997581957776 
-0.022880193620512117 
0.029937101664560760 
0.017887314734907674 
0.039300744827644264 
0.017512424125513260 
0.011512322926691950 
0.023525617461699896 
-0.039688727073117770 
0.0051648560636773375 
-0.022469302090597824 
0.024697070743618980 
0.017241630801122620 
-0.074784431337150130 
-0.0038901376720367770 
-0.042687222197340360 
0.022075952239721867 
0.015032603557924004 
0.018719108934751975 
0.034328619209403220 
0.013284323453689326 
-0.017467954580795243 
0.031832718963629505 
0.035279323263686250 
0.012178575552254338 
0.011899069867864783 
0.013993772942513659 
0.039156692111208126 
-0.037319796459833640 
-0.019057421840481075 
-0.020702235355805230 
-0.018437356803428900 
-0.042391610204732190 
0.022475649038033770 
-0.026829892375289908 
-0.036715976808322150 
0.0034667924011168750 
-0.011264614526138590 
-0.013988719702678853 
-0.031946571822563710 
0.019912046815275530 
-0.013150889913338872 
0.024112922554262485 
-0.012306701030925852 
0.011508102545974935 
0.011874330564824767 
-0.050642902337759840 
-0.0047394949816394510 
0.012741600578485080 
-0.051970168095431980 
-0.017937826348153580 
0.054519742302072370 
0.0044906800101256010 
0.014639991589181566 
0.014255540562373064 
-0.0063403340291382920 
0.024204465331088520 
-0.023092698384315564 
-0.010703104180703183 
0.0087821399931845410 
-0.014651152276956852 
0.010575686484903060 
0.010711969141776481 
-0.022764022349413420 
0.011035365650233653 
-0.025531678223986363 
-0.023754889959236520 
0.022188040655276495 
-0.024355271068011188 
-0.022068815530719706 
0.018003008459917598 
-0.014305616352602246 
-0.015134346832764184 
0.042856013169424355 
0.060514233837205895 
-0.0089500482575959710 
0.018067026920302418 
0.013400959635667474 
-0.032591333628089570 
0.026154991283450490 
0.068467822281637450 
0.037004288558198116 
0.016027460969106393 
-0.013343076787575900 
0.015873864266832294 
0.013907860866227351 
0.0075387628915499190 
-0.020365449579260033 
-0.020390708827997067 
-0.00010219478102739400 
-0.028209168952639170 
0.020852238233803305 
0.028072283200446635 
-0.014966307053848821 
0.012047916289615988 
-0.018738521580332138 
-0.018490033760951954 
-0.013877535823760088 
0.017700184343299150 
0.015507842297154836 
-0.024737263031266797 
0.021261899288140915 
0.018708625173131670 
-0.011195410083337874 
-0.028574279511918810 
0.026143114427108892 
0.012375317229143100 
0.048302535620343520 
-0.013557232459431138 
-0.011060672262153742 
-0.021915141067584902 
-0.032621509771731980 
-0.021711687532277348 
-0.016357758600166267 
0 
0.026752221796260373 
-0.025608815511817706 
0.014950524363337070 
0.018086975749418530 
0.022489115756503510 
0.016039231980303100 
-0.016776327838550046 
0 
-0.047672252294442430 
0.021236752459849360 
0.019247639158711166 
-0.012038683655996498 
-0.020168411464457584 
0.022462593135357773 
-0.013021955125520868 
-0.025258527233088725 
0 
0.015873864266832294 
-0.020327059458085207 
0.018855823026760210 
-0.024724316095994970 
0.017077646907233554 
0.014604166443804200 
0.0030250844368027270 
-0.015604043193880363 
-0.035962310684019440 
-0.031820496855559946 
0.020539166281922948 
-0.016593945356347402 
-0.022496605009707432 
-0.0063607095418492590 
0.0074327240503932380 
0.0097308408300586910 
0.031219120223253415 
-0.017215503045318180 
0.032144266879682560 
0.021246668363849620 
-0.018578675324800260 
-0.023795751707623762 
0.016288465735509390 
-0.010094756423536288 
0.017721554711518827 
-0.010418745822539526 
-0.015464700953142327 
-0.026272504791838173 
0.028460986890659530 
0.030185335090671180 
-0.025771620765796675 
-0.014784994911232730 
0.015562720693933703 
-0.019743540286322074 
0.024241587598630270 
0.015020977511206367 
0.017124036510290860 
0.052564251904321097 
0.026472278676945335 
-0.0028458251866275925 
0.011238235670742083 
-0.015203308218041948 
0.025425484542192765 
0.010752817149974045 
0.0089244196893512630 
-0.019935479760847710 
0.011279060282522999 
0.018237579815349445 
-0.017617321397978628 
0.013878831871055007 
-0.032200011605384650 
0.018532212261819912 
-0.0082577076069791750 
-0.0085980030145293430 
0.037937742890159530 
0.016112008856320000 
-0.018724890572804210 
0.022727268638344626 
0.021473797861641556 
0.013144486163455552 
0.021716578617345526 
0.019143696282437060 
-0.012134237014843861 
-0.014611011243990736 
0.026179291605315454 
0.013381760703952696 
-0.022081626495366633 
-0.015657507594407438 
-0.016961382159509642 
0.014093154914761352 
-0.00044482473884622007 
-0.010251799842443116 
0.019282325346065745 
-0.0081910088403767230 
-0.017012343290243846 
-0.023309051979534052 
2.5068727272241946e-05 
0.022653746606153838 
0.0054811491941223305 
-0.010938693076702430 
0.0095307350430592340 
-0.020119318929356905 
-0.030625812934491077 
0.023003336997184680 
-0.025629240779005226 
-0.016692898239062340 
0.012579561371204464 
0.027598319246793500 
-0.013440532392227490 
0.015709148736546694 
0.035046410941639380 
-0.015888748684409475 
-0.0076265969016306900 
0.048341096455740320 
0.037919265626203740 
-0.016900671439546107 
-0.050282152019152430 
-0.014966307053848821 
0.018550157273678203 
-0.033136517337073640 
-0.014631866207464775 
-0.021643846168227670 
0.012581630671043360 
-0.010209583379465237 
0.030814292895952836 
0.016065102618141466 
0.0077200112814901730 
0.026814145217861515 
-0.018714204238510862 
0.0070238944956341380 
-0.017690561539905295 
0.0059069585518797930 
0.014099176304768507 
-0.019605034762548306 
0.037841624951098490 
-0.022485938299118190 
0.020929832162053658 
0.012630397777496450 
0.024939290316774110 
0.026099514551334725 
0.040168389943828760 
0.024498378023007847 
0.023236556702276943 
0.017643859116715795 
0.015251924664454000 
-3.5048998902844970e-05 
0.013819968299419167 
-0.023685867010272987 
-0.016204451078107630 
0.030429278540901442 
-0.026774223051433480 
-0.016848836228287253 
0.029830467040206633 
-0.016646528018661882 
0.027509485450966046 
0.050125844307811260 
-0.00021581710427803540 
-0.018275788143746485 
-0.024260068433771300 
0.016521320159159136 
-0.025776562788644673 
-0.029518386724109332 
-0.012014803647239263 
-0.017001212109456664 
-0.013257774605320835 
0.012711758128880143 
-0.036535126411172764 
0.018689844089244897 
-0.029547687311056895 
-0.014259373952517106 
-0.0070906795585887890 
-0.020910399760156614 
0.0094135151934664000 
-0.012166070689607260 
-0.029098245420424350 
-0.020530906684570967 
-0.025588697802900212 
0.034017344789478654 
-0.0056403247432948705 
0.018915616519452522 
-0.021092209258621614 
0.029513329533721750 
0.016851513673566900 
0.043921083469590610 
-0.0093583368363327000 
-0.034040661359592770 
-0.015912475324044682 
-0.041444090014313165 
-0.019928150182641196 
-0.0020059603764108935 
0.017878232151819225 
-0.014591471364890227 
-0.038994490668847780 
0.031711271319481926 
0.038524595938358210 
0.023546866882246090 
-0.019309460974710854 
0.016415692522346880 
-0.00018598203894645570 
-0.017252618545118274 
0.013828466912163134 
0.027183254350961937 
-0.0041101869907651960 
-0.030427975102148695 
0.042876969188094416 
-0.038259473588399120 
-0.021063766965134855 
-0.028177926994534350 
-0.022966321976993057 
0.030967516574444538 
0.023672813878619033 
0.0078537856767340600 
0.037935620703849975 
0.037202020368807180 
-0.018230700620798720 
0.00052065459316138010 
-0.025775745153060275 
0.017204698830290042 
0.015448806541765617 
-0.00095510896188166590 
0.045038620689688530 
-0.031669059295269150 
-0.030324715062533456 
0.0083246635051695780 
0.015290065143853917 
-0.025355216202428550 
-0.024250229399770812 
-0.028013394597551727 
0.0075730999121030665 
-0.012646289175011732 
-0.031517129211007930 
0.038584270081674386 
0.011400545918336167 
-0.021441030009725450 
0.016735777373971458 
-0.041549566893946656 
-0.014834922308620626 
-0.019412038123528380 
-0.0024682093771631660 
0.030660302042375288 
-0.037017169461192040 
-0.021840223597337970 
-0.025399176099036934 
-0.0064689929939880680 
0.028352533678289382 
-0.027122452276747127 
0.020013087560822936 
-0.038030334881694744 
-0.0092561384186835970 
0.017144119717371897 
-0.021310492177205390 
0 
0.064935685469718900 
-0.0044139480647271250 
-0.025110487204562926 
0.015623864617674163 
0.038556690422940080 
0.031193621774633078 
0.024566343631592002 
0.025737713444482810 
-0.010016554939001799 
-0.021090487997169600 
-0.030314958612890820 
-0.013317922536426380 
-0.022988310550096000 
-0.026689005694649635 
-0.031805781271621490 
0.0084779144848253510 
0.015805765770716552 
0.014147163326783460 
-0.0054174498578743420 
-0.0059881381579952140 
-0.027651963635564932 
0.021586437018970554 
0.012525313145977908 
0.043713724543135530 
-0.029931221296506577 
0.029528771687974482 
-0.023750754080533967 
-0.059536254642625276 
0.0078895780781450470 
-0.011715028778623082 
0.0078854198573926300 
0.0014214290088319659 
-0.017657641103601460 
0.027881636534986750 
0.034395736230797950 
0.020176142495977527 
-0.034617391588704050 
-0.0072896848388358870 
-0.014847190341050271 
0.035955270620400104 
0.020463298619604248 
-0.010942972905819701 
-0.0099717533408366590 
0.019722383728896502 
-0.0089982296604461790 
-0.011615675902256883 
0.029923307229209807 
-0.0070420312613967480 
0.0078242909856462760 
0.015103447764530839 
-0.073109215800366300 
0.012005370090195020 
0.038396601357594550 
-0.017059897647628885 
0.0087052751133566610 
-0.024794101944009390 
-0.017811870031043283 
-0.00034003668938508280 
0.0056484664386623350 
-0.037185357021747180 
0.041681198052545590 
-0.0017943318820060500 
0.041016517226147070 
-0.025736903950979852 
-0.0062116459684836180 
-0.026550368821359850 
-0.0093035243953068810 
-0.013203174050619208 
-0.0076160256982432240 
0.024101855925627380 
-0.016288246547729274 
0.030811885983029870 
-0.022972670010415926 
-0.025833767448558455 
-0.022048729193535410 
0.027840366970068142 
0.062617547795856780 
0.036098607749507240 
0.010161479332460765 
-0.0035133951933147686 
0.020141064606849945 
0.030515462349175154 
-0.0043268693440907295 
-0.019754542802379937 
0.027257267712442204 
-0.018893652066265920 
-0.0094248520438092870 
0.015924693794289502 
0.0027996790205732640 
-0.0020647842334231350 
-0.022104148830908544 
-0.019398534476143800 
0.0077740037125222320 
0.060231580406722246 
0.0082400918946630570 
0.029203946635201636 
0.017017277380331652 
-0.024326318272427600 
0.0070420044765899440 
-0.0092500771202372760 
-0.016996435840008428 
-0.0016716383483733471 
-0.018980707237341046 
0.018523564455151825 
0.032654279619238766 
-0.055641940801516264 
-0.013037799751025586 
-0.035149268205407536 
-0.0074431201560210270 
-0.032943020348299020 
-0.011615018331393584 
-0.028845072500727090 
0.035831006432852860 
-0.015676450240912850 
0.0072976606709452620 
-0.00021447462495005807 
0.016279504110066520 
0.00017807600595472760 
0.011520340875897473 
-0.019343973537802450 
-0.042641842673800250 
0.022378953399649020 
-0.0020307084564138840 
-0.0023555377184701590 
0.0064285880365407885 
0.040418814952886066 
-0.042098702164639510 
0.033155206097299080 
-0.019230039813134005 
0.0093450465080192820 
0.023211923615729373 
0.036872151813089830 
0.033348367630861630 
0.044518584179841640 
0.020906102299562968 
-0.0048267649408705630 
-0.012160949693262289 
0.0088153041537956220 
-0.016890431270805950 
-0.028513740181250764 
0.039224741111259315 
0.017916648390985605 
0.021562676265955632 
-0.0062603863614909000 
-0.041324691645898620 
-0.043944565432470760 
0.00038841991263041120 
-0.040451253807876350 
0.019114728742535055 
0.035505505517951690 
-0.026315983128205080 
-0.040485632694447680 
-0.0048895447782244300 
0.037114179415498550 
0.031457497875981594 
0.0043544881844137240 
0.022937479468269593 
0.0038287444891243620 
0.0054935664711291840 
-0.018313052732327120 
0.0025330937534120400 
-0.033362503971769610 
0.010936911881079902 
-0.031019265217813282 
-0.021126608355658160 
0.011327525921437930 
-0.0050657138676542950 
0.019437313784754856 
-0.011609323500153115 
0.014398159152228190 
0.0089440025274395480 
-0.013869439725016680 
0.0091614880785751330 
0.015442022902112780 
-0.011142768759852196 
0.0067896212235053620 
-0.012250475620687241 
0.0058705887333077990 
0.024875946396416333 
-0.016813066929990583 
0.027098642544100270 
-0.047402835592455186 
0.013170476624068204 
0.017369931830715505 
-0.024503200932038664 
0.022968471529098696 
-0.0096298797895096770 
-0.0064909594860024560 
-0.0063188537378207430 
0.016476993231340370 
-0.019998746717020188 
-0.024923117375260838 
-0.0070647553341402950 
-0.026743400310272593 
0.0088631230071927160 
-0.0052356307135444220 
-0.0072958528873469470 
0.028283380730183223 
0.015180222809195332 
-0.017098696251922424 
0.0064077499849671570 
0.024947216275468480 
-0.022238316011761104 
-0.012417876154422854 
0.024023044896387836 
-0.00091396435771720720 
-0.053479092485091105 
0.055852262085570654 
-0.0060925011935868590 
-0.0069600402496507886 
-0.013201657519958105 
0.024554774239999270 
0.0082522716160825050 
-0.019493060328278772 
-0.022001949144443693 
-0.010513079059038696 
-0.0038957867790371838 
0.0091088044132669570 
-0.025911965072354520 
-0.022932023408575048 
0.026449082779938480 
-0.0039083667883363110 
-0.016411947276326447 
0.015270585653434688 
-0.010725299736215924 
0.031921970490929780 
0.036825662883014615 
0.015039946952805264 
0.017320685875613223 
-0.014901090305852707 
0.047666566519594900 
0.011659463563240612 
0.020987593587487940 
-0.020399471634288038 
0.012637724574761020 
-0.017035622346154092 
-0.0069437105585276665 
-0.0060925011935868590 
0.0067118299114005380 
-0.012023976892828211 
0.018261686118464158 
-0.019905084667187385 
0.017500452973493074 
0.035144510336660190 
-0.015142521641234639 
-0.012606618252284311 
0.011437981540298770 
-0.0085202046139049480 
0.013532817085895864 
0.017704635818819420 
-0.013561479265232755 
0.013429189004734112 
0.013617065030511799 
-0.024756517036578052 
-0.026514092262323880 
-0.018540823653468020 
0.012495937519494361 
0.0072635684793959200 
0.010458711281192043 
0.026825584317615320 
-0.010109662696905245 
0.010675221130630968 
-0.0051132619207983065 
-0.035273577144102400 
0.021931445409135438 
-0.0068093344749282420 
-0.0072739867733491270 
0.038828413763024164 
-0.018659226430662968 
-0.024585461176110535 
0.010579870146103334 
0.023661572065950702 
0.015004657168991596 
-0.010603849758492660 
0.0072635684793959200 
-0.024250774384164590 
0.031347076677239640 
0.012222298515199933 
0.012630037678791927 
0.019154085348227025 
-0.0064048128930487610 
-0.012121545330775016 
0.0067065369764805830 
0.011862105902510420 
-0.013863811685560728 
0.023550975630003683 
-0.019094691325391374 
-0.0046954001839539780 
0.0091747947557118060 
-0.022387728734702315 
-0.0086966649314407000 
0.014101499923127620 
-0.0073405714533566520 
0.0043891652208734970 
0.012912870032306088 
-0.0080941455472557150 
0.012151088383197483 
-0.012519046569782928 
-0.0065458178408129340 
-0.011593453839014773 
0.0068134609481581955 
-0.027563656854550752 
0.0043996524220241970 
-0.013973981289718381 
-0.018446712762759273 
0.012052117134053325 
0.023403911673206280 
-0.00013014386315085628 
-0.013995725112131790 
0.0097819573443671300 
0.037442764236238520 
-0.0058578607968780925 
0.063030406638727480 
-0.022700788726988132 
0.010220484258561244 
0.013067634993292315 
0.028498552419506600 
0.020021575472846827 
-0.023645849211960620 
0.037100770281652120 
0.0070352612735086710 
0.018803757976438790 
0.011487582379228832 
0.0029133735199687208 
-0.017808024692168500 
0.020899713654721756 
-0.014169909380200733 
0.0098647271288680550 
0.010139603243509503 
-0.012405666009731260 
0.0072726611399327070 
0.0061165394082620800 
-0.0081114282801086940 
0.0053272338299272650 
-0.029798086647320306 
-0.012597186067936804 
0.039017433537539906 
-0.016893156494778204 
-0.015675619278600367 
-0.0085502484760843630 
-0.0039249450373659706 
-0.014853966428923145 
0.0067118299114005380 
0.012213153376005917 
-0.012405666009731260 
0.0097665967551568940 
0.0034149017001548886 
0.013312568088667643 
0.0087423731714356330 
0.014673519192005690 
-0.018129592160380174 
0.026771084780809190 
0.012855581800757743 
-0.028818544770548840 
0.0095026471121575780 
-0.018236498861995697 
0.010178875884077333 
0.032292588816795774 
0.0098333929253896850 
0.013161825475902516 
-0.020678196327318803 
-0.029488108945456600 
-0.0058080262271174654 
-0.0081285341630866930 
0.029027205089313442 
0.035395130301276015 
0.012587966998297047 
0.016621272091583170 
-0.016578499125261360 
0.021545986456082280 
0.013997603111828797 
-0.0015365112247207418 
0.0047455303214886410 
0.010751846985678574 
0.0082425757527080840 
-0.014979514078802757 
0.015258034500889956 
-0.014541067046868826 
0.010222401705492140 
0.013464520481883756 
0.0067505678432451560 
0.0024088816819051472 
-0.0086113526261547830 
0.0063428278385557340 
-0.0038095134667498563 
0.011854513360896943 
0.0094108137413659270 
0.018859141059369526 
0.020549664135373936 
0.015443070743786355 
-0.019536528167339340 
0.020208637464037290 
0.032600639488515080 
0.0045117704405291210 
-0.012804622971084948 
-0.0058165221253117700 
0.0085584671047389030 
0.019358192082564630 
0.020683183883682460 
0.0063729020936907560 
0.0090834659640874790 
-0.012133947244352220 
0.012617424194728950 
0.011236776336086260 
-0.018754979441495270 
-0.010715871777656486 
0.015559627642385977 
-0.010085240178697134 
-0.0071209221554236470 
0.0063908933834231320 
0.0068034070285813840 
0.013763686227624397 
0.016631674361895980 
-0.0076076667922232660 
0.010676006852220138 
0.021059809916690290 
-0.013223477326847803 
-0.017087777071155472 
-0.021366914129332830 
-0.0097977957836384020 
0.0085845423692718340 
0.0076287633740658375 
-0.0025254696772394375 
0.013393671514471490 
0.0056504295649999350 
-0.0070590041466379540 
0.011906215250462489 
0.012372837732400950 
0.010583481302108127 
0.0097440895840119250 
-0.033931249036205630 
-0.0072768177749099030 
-0.025561267476650478 
0.0059848861559973600 
-0.041105583922439280 
0.016262528550420267 
0.0043413059127436595 
0 
0.030504522665745208 
0.0065044001885175030 
-0.031708268886702290 
0.014867270431982547 
0.016920436433478597 
0.029560622603934644 
0.013429189004734112 
-0.0047047684035798500 
0.00024200954705889803 
0.0057635469155727300 
-0.0033324278710377330 
-0.010955340624619619 
0.030633527124996087 
0.013891785392083888 
0.029457831788040015 
-0.011340967476130764 
0.0026339104718221470 
-0.0029777047793310496 
0.011532583696004281 
0.014958165005895230 
0.015458065294963066 
-0.0071430279786322620 
0.0037351294658391964 
0.015751332244246533 
-0.017733115023567670 
-0.0039249450373659706 
-0.0093003181864692830 
-0.012656774901291771 
-0.011822823159136978 
-0.017483189231073937 
-0.010477345158994410 
-0.017064162776234404 
0.017251749793152040 
0.0083109172331998100 
0.021477107876205184 
-0.019014938317882550 
0.063298230024137330 
0.019767345259411775 
0.032797367665065530 
-0.0098152941702806300 
0.017293767364538280 
0.013222144050273507 
-0.039299033852729260 
0.017812287160612006 
-0.022260575606258060 
0.0076702929286380360 
0.011760017242030109 
0.0095824032750528100 
0.017222615621949988 
0.010700142133502772 
-0.015656836717373373 
0.013430957871994106 
0.037053437660096170 
-0.029206771550998270 
0.013842622980707079 
-0.0064786354509574880 
-0.0068968406248431210 
0.027818344695263100 
-0.029543786544567147 
-0.038896264002806450 
-0.0083020762470146090 
-0.0083943115646824720 
0.017863469009470362 
0.0080320875887483710 
-0.0094982799177637870 
0.037207575201471346 
0.011105325311885931 
0.0094794659080315420 
-0.014793916595173262 
-0.013863811685560728 
0.055680195696175410 
-0.015346131664779241 
-0.061111893060990866 
0.014177266117786214 
0.022563674581728695 
-0.0020304807203948960 
0.047883887694492124 
0.017423167333303208 
0.016784981538461433 
0.021054594082919750 
0.0081726684169768970 
-0.0063255232428824530 
0.0082223676596127910 
0.010439831144249003 
-0.0058318354240273290 
-0.039715689554206750 
-0.056916758093577270 
-0.0072676346144949350 
-0.013597694446506506 
0.021326920642342510 
0.023749746833604130 
0.030068772809577900 
0.022626930699315467 
-0.026833208010517997 
-0.0031003574819718984 
0.027687090115266374 
-0.0079962287306349840 
-0.010238950722290720 
0.018998480835596230 
0.010609649355442662 
-0.0062772718012942070 
0.045913038097833870 
0.038188379939669890 
0.017162298247243310 
0.010206856711165417 
0.0097568031297907280 
-0.030342266881214035 
0.033661044681525976 
-0.013912379805134522 
0.035502090172396610 
-0.020956608790615467 
0.029513345322284612 
0.014433473691543770 
-0.0080750992671250570 
-0.010455296550494913 
0.023443796504771654 
-0.016312962741908200 
0.012309733568325150 
-0.0083020762470146090 
0.0085043962171088280 
-0.0095077717114679050 
0.011836731689933223 
0.024618362080039610 
0.019452179030839338 
-0.040492463873926986 
-0.010296020179799007 
0.0081814246032258300 
0.0097568031297907280 
-0.017281664728466713 
-0.011537096377266770 
0.012350927084549927 
0.027156709024246260 
0.023856786592976728 
0.017687718194749954 
0.013313116992054131 
0.014943876249549936 
-0.035656681442250385 
0.0073629471680563110 
0.017323684384142495 
-0.036401914767425800 
0.016863151637595040 
-0.0073486659098550980 
-0.0096615568699546270 
0.010494533080171623 
-0.018920658573187473 
-0.015507707418658010 
-0.017623513920948124 
0.012495937519494361 
0.0037351294658391964 
-0.018852153372010245 
-0.015665619699924627 
-0.027984228647235133 
0.022839287626470597 
0.010912562872231406 
-0.021063815174735587 
-0.017940009138489997 
0.011598080475482697 
0.0094237719231850850 
0.019842180016977184 
-0.0044242607997531710 
-0.030724205160132686 
0.013552132339601244 
0.011956546436646967 
-0.0079575652424474210 
-0.0064142640016219050 
0.029649198836754143 
0.013373829259006069 
-0.010473404866335733 
0.0080169071859968670 
0.0071996338668369200 
0.010753496041658933 
-0.018888379592302357 
0.014299973438430650 
0.012285297561583202 
0.029152173536387674 
-0.015807430993860252 
0.010674128073958318 
0.015538944606098008 
0.037372348761487580 
0.011537299588274076 
-0.0028579899730235064 
0.0019284048634739615 
-0.016078723118841370 
-0.016379167165612040 
0.0097728907420121500 
-0.064219494763902320 
0.025743513566902270 
-0.016857398477321046 
-0.0047398351337182920 
-0.0075701043601911900 
0.029967780902273294 
0.039572719961428690 
0.015314501473312031 
0.019137765349187676 
0.0077007826268970310 
-0.0066162762952819470 
-0.013991643972343048 
0.010830177470327941 
-0.0036532312183643893 
0.014692361981054215 
0.0082136816382734950 
0.0098101939901358400 
0.015314501473312031 
-0.023501786434740414 
0.010788623909055196 
0.0099829871725067210 
0.012410362255523538 
-0.037547968455529670 
-0.0096459794378743300 
-0.020154558897969840 
0.022642474618696880 
0.0069621001962506600 
-0.020890271009753353 
0.017516858043272770 
-0.016323146857805365 
-0.011824207640134806 
-0.011705870839562796 
0.0078709228238500200 
-0.015180659467563955 
0.0012472435789310544 
-0.018215850044347520 
0.0094699415193917890 
-0.0097826439444340610 
0.012605874611670006 
0.010003109850176760 
0.012731033172385687 
0.015532646103287246 
0.035356111694451490 
-0.012183625644484030 
-0.0072698921953217830 
0.0064056062411647950 
0.0083877074484295130 
-0.0051108795202181440 
0.0092568804691716150 
0.023266858764539985 
-0.016023352750934895 
0.0090621041293064320 
0.010455646264825548 
-0.013494046084566037 
0.0078405995495686500 
0.027080022012093106 
-0.0040552685561549805 
-0.025727880175640004 
0.0093416477608072760 
0.028259283881172513 
-0.018856252361523145 
-0.011325673828745705 
0.029864331013402210 
0.0068419779262604580 
-0.019763515892012994 
-0.012858400284670097 
-0.0045289734750969020 
0.0083085397158825880 
-0.010566041139373778 
-0.012103871714557563 
0.012668529408673166 
0.0091422257037796170 
0.052108405833087235 
-0.0082178635367347720 
-0.012906879076710540 
0.010053579985593185 
0.0085720420734027080 
-0.012420555903617810 
0.011033319507296070 
0.012989139882272353 
-0.021057435287681645 
-0.017630875955460715 
0.022163240831752070 
0.012017964339435200 
0.0070722385922431860 
-0.016121721144414448 
0.028137152984531053 
-0.021921644151817157 
0.0050339752300623140 
0.017644297645042700 
-0.0093000183356889400 
0.018343852200418660 
0.0040890602038366910 
-0.015226645769647034 
-0.025320410974044520 
-0.0055546347049737970 
-0.012759523450355085 
-0.016426593000271400 
-0.018537256301510030 
-0.022407184433754240 
-0.011396638681634978 
-0.0038853916177264127 
-0.013129699553528792 
0.0028700999215246275 
0.017032880915880110 
0.016958572528615410 
-0.010791617010902343 
-0.012732769014919110 
-0.023576036326410010 
0.041280084624695260 
-0.013503213625766388 
-0.013412138973182377 
0.014107408814332251 
-0.0081114282801086940 
0.014827244997840695 
-0.011566338344415629 
-0.032493030761959330 
-0.023595251679667834 
-0.074276538200703640 
-0.0083510883537743410 
-0.031063009864033344 
0.014077184641438598 
-0.012522483077831843 
-0.019669923559880995 
0.021323320072280560 
0.0041293587706789210 
-0.0025302221345244367 
0.010556275863778383 
-0.010030549496490715 
0.023765835129325178 
0.012318846978023313 
-0.019660954111834963 
-0.017914027408026934 
0.039115886242763985 
0.013474006546105515 
-0.029357250322726880 
0.0072635684793959200 
-0.011614075391515695 
-0.010657042219493873 
0.017238207774550596 
0.0092000239431828620 
0.0098599024810266200 
0.019184086867025746 
-0.0097882248997191200 
0.0055001153851022755 
-0.013728504939458623 
0.0050264658040329140 
0.013140680132095779 
-0.010125929998288806 
0.019212698001596880 
-0.013736425416317775 
0.025294484439269820 
-0.0075098498221485050 
0.014865110308227092 
-0.0017654458879273534 
-0.023461197966528808 
-0.0096952335355404460 
0.021186001734732837 
-0.0018776569415448429 
0.018989503532185880 
0.011850744956056170 
0.012572041319986993 
-0.0064552672210403264 
0.012543766322983553 
-0.029144281176114985 
-0.0020267357153476834 
0.026189046555697110 
-0.015107973419017840 
-0.0089322577327304140 
0.0090027244480221900 
-0.012596935590605603 
0.012017964339435200 
0.0046085741765798610 
-0.0071430279786322620 
0.011887481619076080 
0.013272997407912750 
-0.016362731545901583 
0.018654678184658350 
-0.0068214281037135080 
0.023594792432007593 
0.014278931613474220 
-0.010282889502612025 
0.0090831770787853480 
-0.0079209014566218940 
-0.012661023322859618 
-0.0097826439444340610 
0.012912870032306088 
0.0083060417997556210 
-0.018970004594988564 
-0.014382106010154501 
-0.013409082509283706 
0.012971835166436513 
0.013620723669419108 
0.024134058224840042 
-0.041300125101255680 
-0.013018861434547611 
-0.033379323548417966 
-0.0070169917964134950 
-0.0081232197363849960 
0.014644377762880210 
0.018712639997865276 
0.038961909612643930 
-0.013357529205034630 
0.030911138492053337 
-0.014510388668527063 
0.0039562415352434570 
0.023403911673206280 
-0.011850527774390196 
-0.013542719974150023 
0.015314320417463513 
-0.0097809718381424720 
0.016022755574163782 
-0.012639441105599130 
0.010695043307930230 
0.022024898566660952 
0.0090407463707919100 
0.0099574261147981090 
0.015080231169332709 
0.015436269243451430 
0.010616001428499350 
-0.011460896236814814 
-0.0097149741800067280 
0.013585942572835677 
0.019254376785609780 
-0.026515862281164662 
0.0099120053636500130 
0.0063180790889756230 
0.030594873189277610 
-0.013776877290142434 
-0.018114877134899800 
0.0076889310352640510 
-0.011147264110353374 
-0.0073200873491554770 
0.016839416441195460 
-0.026381562337252733 
-0.014535057258972835 
-0.00043540973631817147 
0.020469642652219046 
0.033667615039852130 
0.016621973095309690 
-0.011526944964759839 
-0.012082889750156015 
-0.018245321102457066 
-0.0035294591419259163 
0.017966369058006918 
-0.012341395246107468 
0.0020324833367119438 
-0.0069437105585276665 
0.018020373480304278 
0.013101592877854005 
-0.020893959534647560 
-0.018077972114415700 
0.012322655127476500 
-0.047786967504103920 
-0.0026709194663447587 
0.011895980324925826 
-0.033931249036205630 
0.012425948024823559 
-0.041300125101255680 
-0.0073835209252291670 
-0.032464606984338400 
-0.018410029379718126 
-0.023196147144480116 
-0.0050155284871807185 
0.011504356271755936 
0.0066968047524668090 
-0.021499756885948705 
-0.010623967489469248 
0.016893805695402334 
-0.019750705620157627 
0.0076650703902520900 
0.016289940462569652 
0.017355750103372248 
0.022965733854452390 
-0.0093025814174461080 
0.0097568031297907280 
0.013814909880394810 
0.011711014572551534 
0.0066336442056700700 
0.019805295250072078 
-0.0086487271441993770 
-0.0060271669139701420 
-0.0070590041466379540 
-0.013327900986084835 
-0.013385629891980914 
-0.0032851778592926815 
0.0092492108448033080 
-0.0063700367437660470 
-0.00090350392196599320 
0.033433286780210535 
-0.012183625644484030 
-0.020713743419729000 
0.012600341984313687 
-0.0083393566023416060 
-0.0054398688411669265 
0.011702809489596469 
0.013410887129416765 
-0.0055546347049737970 
-0.012643014817352137 
0.023315943817923224 
-0.023550453582698503 
0.012005600121275930 
0.016025994555123147 
0.016653325455746402 
-0.0098750039502777860 
-0.0096368047743542810 
0.010239830336953440 
-0.010007841678283490 
-0.015813375804909713 
-0.0082178635367347720 
-0.023468678837161910 
0.0078114017447578480 
0.0083948206589872650 
-0.014103693720340215 
-0.0061327727224000290 
-0.016744293371892743 
0.015897718723025783 
0.019593267574810922 
-0.012270929245286373 
0.017733394779471810 
0.013456769046894542 
-0.013540766241390884 
-0.011118596899745687 
-0.0083020762470146090 
0.044008264091088930 
0.010558000858256658 
-0.0078697755202311800 
0.0097701761878446450 
-0.012118629806096985 
-0.0095505083990379580 
-0.0087328704172005830 
0.0085594192567646880 
0.017708359559280930 
0.020459708498531456 
-0.011638377885387562 
-0.036886216038835820 
-0.035434379559537314 
-0.0073151992702629450 
0.019988961662315258 
-0.0033797735370584230 
-0.041545922658130520 
0.0050426950988512710 
0.0054379263027088460 
0.0089856464484247500 
-0.021655995417901176 
0.011532583696004281 
0.0080645722261558730 
-0.018763598167195607 
0.0087013574730134650 
-0.010214488679628450 
-0.017951638687434567 
-0.022454552376515956 
-0.0039803317646752295 
-0.0049890661716802230 
0.0022543198910830115 
-0.0091109066282472200 
-0.0037724407914365246 
-0.013962206726948975 
-0.0079597904188327550 
0.019850584044861800 
0.011073469620166325 
0.0089245896523924500 
-0.0072269793670289870 
-0.012101630702524875 
-0.014528795717406957 
0.027620124476281916 
-0.0030173510301720510 
-0.018421729739287247 
0.019812298385322720 
-0.0081417339946247450 
-0.0086326869731056050 
0.0097568031297907280 
-0.014498513938744371 
-0.013860280104830654 
-0.063414288619596230 
-0.0044964153240113030 
0.070674348086162140 
-0.013877886796713488 
-0.023493354880171534 
0.0061594816146861000 
0.014202638456844994 
-0.013278836863639204 
0.017005020604362396 
-0.018828299072791512 
-0.0037177826760830183 
-0.080111830679873330 
0.034715972011634580 
0.012178279708000722 
0.0099740834342128690 
-0.0072313738691946660 
-0.0096761747726598050 
-0.0045989168069103100 
0.0058093874746683950 
0.010236707188005506 
0.010913146632407570 
0.0095270144753210600 
0.012028607853192349 
-0.0068570130022536730 
-0.010573556042261310 
-0.013412138973182377 
0.016262408098021815 
-0.0082183363611267190 
0.010466583188923089 
0.010927323316100027 
-0.019331425316688950 
0.011749035342193926 
0.016193312297639484 
-0.013508764388244540 
0.0098922304456454010 
0.012901386700838431 
-0.0049979159572881690 
0.011513106824355341 
-0.011648234353542110 
0.0095768864113011280 
0.011745809458408630 
-0.0014568333469590700 
0.015015298739938614 
-0.013174756016641687 
-0.012596935590605603 
0.058178200777902720 
-0.0083195201818448100 
-0.011251233918745765 
-0.018388035216208434 
0.020008468453029206 
0.0061766626478005245 
-0.014359558529502027 
0.021265584428239910 
0.016257159891185560 
-0.017796920926881620 
0.0084108908463041060 
-0.014401746838160857 
0.010957099808871123 
0.0011737517635910973 
-0.0075484409500062270 
0.0064252443392188606 
-0.0069437105585276665 
0.017802502483661928 
0.016542825013271950 
-0.036513418375150396 
-0.034001863496962860 
0.019075377612043132 
0.021332112388587777 
-0.020180825515553780 
0.0085045098222472130 
0.016648676513574310 
0.021027269452845500 
-0.016818867995656142 
0.0075906096633377630 
-0.11189961651471847 
0.0037850635622235116 
0.036032266288467354 
0.0097378770501124010 
0.018475271500522285 
0.0097061962721084490 
-0.022230775371877065 
-0.0077067288597271666 
-0.00043714599462736270 
-0.0098719735854003040 
0.013362086958456542 
0.012949075589448992 
0.027410937329453627 
-0.020845684981698268 
-0.0047294203618439020 
-0.021505696844947610 
0.032447839555112046 
0.0061512790866190510 
-0.0085357134132335640 
0.014540831765729700 
-0.0063636510013436050 
-0.012802289261948928 
-0.0063180235542208270 
0.015169818805786507 
0.023212014727750820 
0.0098386170294088930 
-0.024944276328593938 
-0.018642890228169593 
-0.014997358190779252 
0.011460017475212907 
-0.0042283796976010490 
0.015025589481496945 
0.013033722944963563 
0.0060203410813875190 
0.018381884545271225 
-0.019109335923245603 
-0.010515646116488439 
0.023539661481695673 
-0.021663634134202450 
0.012901386700838431 
-0.024257676925663990 
0.015158494022279270 
-0.0069437105585276665 
0.0085335370612292950 
-0.019558921648114506 
0.019644616252533838 
0.0085114481069437470 
0.026746039685784960 
0.0065321722864661570 
0.010674128073958318 
0.0078338324557691380 
0.011843113980722473 
0.021136596499431310 
0.0046515376602964720 
0.013066892545240539 
-0.013929536235987295 
0.013398606121144756 
0.012775958518113244 
-0.0030221207895785246 
0.010405698255650884 
-0.0093003181864692830 
0 
0.031665957041424940 
-0.016202776336199612 
-0.0093213368080572980 
-0.016972375833117954 
-0.015699251877140448 
-0.0069683297081774825 
-0.016099410350706800 
0.024112940464809820 
-0.010584397823251260 
0.010780992306707330 
-0.025696233220904660 
0.012928466507943692 
-0.021135752704128160 
-0.0039803317646752295 
0.0088440942083163400 
0.0097819573443671300 
0.014867270431982547 
-0.010708992492949047 
-0.017332042771392477 
-0.0070850162728440280 
0.038148095292465530 
-0.012634477197178660 
0.020932970040175622 
-0.0067513811457838860 
0.023845702933402477 
-0.019857111700873613 
0.023461615144830555 
-0.017331706804931554 
0.014600918269668896 
0.027547846770368640 
0.039047641755080784 
0.010152438960117683 
0.049209186843563410 
-0.041385128656838680 
0.0026354067314228640 
-0.0090676677579718970 
0.015322757148325500 
0.022312484174858743 
0.023422828145335552 
-0.019362094676902485 
0.013101175567813768 
0.016747040123470670 
-0.0056276155042541480 
-0.021166014186421233 
0.045804875770637540 
0.014959296606553395 
0.015130077289007048 
-0.025182229512537360 
-0.015518676785489753 
-0.021399114522267270 
0.011234565457524937 
0.0049262580898753910 
0.013065627002597660 
0.019862858835577733 
-0.020932384321700054 
0.017925045996902682 
-0.029331419993030895 
-0.016665105675858993 
-0.047363736640285890 
0.031265544105572950 
0.030664933625464498 
0.023100101250054784 
-0.0012128336013476170 
0.019279028679646107 
0.018349152831271480 
0.0065630016184664046 
0.018240431226209358 
-0.0045470866475648660 
0.011464782591289375 
-0.0020554815297816787 
-0.013022085742399993 
0.022072895558320530 
-0.032832269723052290 
-0.036336237590475814 
0.0048419075832420630 
0.024205790906489030 
-0.011352486759158743 
-9.3332255114630380e-05 
-0.013880805137688922 
0.028972920773845633 
0.0039519532916092930 
0.023982445353265020 
-0.0089950329326287660 
-0.019461213476269487 
-0.019993593438019810 
-0.0082914628420671670 
0.0084137808540811990 
0.013259230345666104 
0.0053495545064018900 
0.020926640337782635 
-0.027015270788794683 
0.023954003046795583 
-0.012546795690315766 
0.012683288745799706 
0 
-0.019789837245702213 
0.024800553274220493 
0.021510539205386377 
0.015153585220863602 
0.013413293195720653 
0.039802620790595580 
0.015752316089708982 
0.017509917172084066 
-0.013579874583594366 
-0.0019422599395555460 
0.046378681557429836 
0.023159735182655256 
0.010681343504246528 
0.013810322988419693 
-0.024015935079047503 
0.013156019725998598 
0.010525736310945406 
-0.015886166040856128 
-0.021770189665056380 
-0.021492555105470462 
-0.020617411945208632 
-0.0025423199475232998 
-0.025880578860088300 
0.049561892764405670 
0.020671307061205520 
-0.0097612753727633060 
-0.010701922656050480 
0.012241188364960002 
-0.024921930159684455 
-0.018491695586051154 
-0.0081709331756125000 
0.015272748015116817 
0.013625478887757881 
-0.0060813835568141060 
0.013692257554651947 
0.015830728021578776 
0.040885327867069055 
-0.024572654365025210 
-0.0041320284789581710 
-0.021709141512267487 
0.0085499317737666190 
-0.0065039761933806880 
0.013505525168249497 
0.014714756744571284 
-0.015393742673437471 
-0.00039238471572905170 
0.0078108412547653865 
-0.0082141120073486870 
-0.022126710622710603 
0.0092760261720520420 
0.0052552974329270000 
0.017609815408788500 
-0.0051468952057617985 
-0.017001846041870470 
-0.023752520858983950 
-0.0011137688952672490 
-0.011422749280701363 
0.014256898979959104 
0.011503290249076710 
-0.028595635489303904 
-0.019025072893903370 
-0.011798813601490920 
-0.030696751573642340 
0.015246143855961774 
0.023105134779013582 
-0.039412484611429544 
-0.025502928250400620 
-0.033507578352709700 
-0.072308243223402670 
-0.024154106449512436 
0.027692824850051180 
6.0080239384563070e-06 
0.028846730580034770 
-0.013842827921518290 
0.0083573154068346480 
0.025575872065880488 
-0.016039059122576322 
0.020792891526933450 
-0.037783528215432900 
0.023399278191705807 
-0.0044818213925799060 
0.040912312020712084 
-0.0039265412170543650 
0.019106026730604637 
-0.018046313225972380 
0.0040090267865450210 
0.021429497351460016 
-0.021737529501593533 
0.036000938024268830 
0.014474597298306437 
0 
0.018229745639899972 
-0.020693713089108680 
-0.010119165968002558 
0.011636966259339425 
0.029295670680019533 
0 
-0.038562172039118160 
-0.031844486495425920 
-0.017923057967809377 
-0.036905868673608316 
-0.013478030131556589 
-0.0098137643136233640 
-0.014869059871220456 
-0.0017309484557901365 
0.015545155389025995 
0.015640215519779375 
-0.0014159013086208682 
-0.033016735833329520 
0.011074495543519212 
0.020563314825938860 
-0.010217362673330111 
-0.042912285638774080 
0.024903600954339440 
0.012841011276835249 
0.014677553557447612 
-0.027433719870266125 
-0.012514035481022142 
-0.010439114035886170 
0.012883601888906020 
0.029869472672064640 
-0.012304108541141116 
0.017932419463234685 
0.010681813034102325 
-0.027252418672939545 
-0.00044984886164339970 
-0.0025162203181948763 
-0.014835790536885030 
-0.049094995131297590 
0.017049318953274467 
-0.058600598858154680 
0.023221778063485320 
0.032308846822112755 
0.041087213033613186 
-0.017329367603970972 
-0.021780907391929165 
0.0091154057827463900 
0.042623160698444380 
0.016247029681846804 
-0.018372523039801608 
-0.013875464124840803 
0.0070152117006638000 
0.0012943829454490920 
-0.0072859091855052890 
-0.0074030924405214060 
-0.0018017813701615626 
-0.054207827534272470 
0.0015688664373715046 
-0.021312650999996005 
-0.0027464169797244958 
0.0069147013082377380 
-0.013632651727575077 
0.024999960442753890 
0.040426752619835526 
0.016620723812608495 
0.0087033214634803340 
0.012203334037938220 
0.018866582504054506 
-0.021227011924244508 
0.0043392267625030345 
-0.025834613746975675 
0.015202645273657900 
0.0081604985619460400 
0.029650948260767824 
0.015130690798392915 
0.010517801908770226 
0.0045378551750520310 
0.016320035909063148 
0.027500604903186402 
0.0090125338842537620 
-0.0068336216710668226 
-0.023942098080226747 
0.043342440723855890 
-0.020133137017729270 
0.037672434746781155 
-0.011721792084372268 
0.041269507466032834 
0.025069528599162900 
0.0024656382693770693 
0.0071567614416536190 
0.019325286573704876 
-0.0018243037334293615 
0.0040788933538211480 
-0.0028908151391102600 
-0.0049288716928745200 
0.00070111050187303380 
-0.015472412574572028 
0.0094009761788528060 
0.021258606319824375 
0.018337030367156854 
0.032022606087455680 
-0.0054915963814246870 
-0.022237354109998900 
0 
-0.012027016594740926 
0.031013787248740685 
0.012217996019369267 
-0.011867754627984150 
-0.046982376814900896 
0.018982735254998863 
-0.011665491079991510 
0.017331397525826162 
-0.0025631735855861423 
-0.013081193885761367 
0.0075009680437664150 
-0.017116050765866110 
0.072698108474855490 
-0.010474741106939313 
-0.011617747076343303 
-0.024136640939921135 
-0.0096281092826802050 
0.029616121535694623 
0.0092775655795210900 
0.015051910912060266 
0.00064447993843996230 
0.0068429909041475900 
-0.0046485032010551795 
0.013819133240773837 
-0.049344595406162760 
0.014163834415866331 
-0.029811458796352427 
0.0054733850110047310 
0.028155920828672385 
-0.023038160485401356 
0.022409339005123916 
0.00069322357917520890 
-0.0070266052777835230 
-0.0029658204056962810 
0.012697392755689879 
0.015770193723354198 
0.010803184245329580 
0.011827692844762885 
-0.0017720535452687280 
0.015843612352214860 
-0.0061935518213729925 
0.0093367326533087580 
0.010675856298679360 
0.0075070541870731070 
-0.034049210483771650 
-0.012087084267286882 
-0.0090238733381844470 
-0.018953785884687796 
0.00078270565372379890 
0.022528361683218340 
0.034986270375842655 
-0.0085351460086561000 
0.027829038126184046 
-0.027431309979786540 
-0.0086036689547048430 
0.023000658823321520 
-0.0049956885312413610 
-0.0071179563265782930 
0.0019244748124679185 
0.0061369224933495330 
-0.016418577073747085 
0.030360027389444745 
0.045717764238310930 
0.0026051863553913463 
-0.0048934939529307020 
-0.011282789495478781 
0.021164870795842290 
0.020924709243590590 
0.016996316897133440 
0.0060918083889435670 
0.038873718354370620 
-0.025935758321788450 
-0.018721599537295650 
-0.014427480775677638 
-0.0022732406560761500 
-0.010774039378629925 
-0.011940444128050481 
0.017750072377606244 
0.016657882447989922 
-0.024629217717109023 
0.014117875226295633 
-0.034957496127001726 
-0.029598441577381167 
-0.00068953409429586250 
0.0078149688876818540 
0.016492210951340040 
-0.018749883082002778 
-0.0028918839778428500 
0.024290833082342630 
0.0078488947890725540 
0.024228452593683183 
-0.032473294463901584 
-0.012176438149583864 
-0.012391281566017074 
0.015634916054904986 
0.030298769182111662 
0.017455712408166613 
0.042773655098182740 
0.021223992069098130 
0.0025213973907216615 
-0.032799780905180440 
0.019004881224067930 
0.037699893457675854 
0.024804185284205665 
-0.0036568988353839252 
-0.033596016008480190 
0.038556954180980620 
0.0055207298418625710 
0.0056830766041078760 
0.028802476922270060 
0.027289062162887456 
-0.026473616747728010 
-0.0078635999208848010 
0.0026072648417094194 
0.016218309760708743 
-0.015017128275490870 
-0.029570659428273840 
0.028630373331223542 
-0.0099427972467744410 
-0.020744190589610963 
0.031446418379665950 
0.0053089680181534090 
0.0082843787386407690 
-0.015539859360825260 
-0.023729866742556976 
-0.015341170736677758 
0.022794568955687322 
-0.012155956333436604 
-0.0011637491565372688 
0.00055010906832782020 
0.026317371182968730 
-0.027886860440549867 
0.016259062356301310 
-0.024056719264826557 
-0.015986844720629690 
-0.032927770558957355 
0.0062109807572758680 
0.0010387279620816632 
-0.010307634051927186 
0.0080822454372760540 
0.026396637631629024 
-0.023116415802923278 
0.047611249343488210 
0.023291381126025218 
-0.0064380074214735780 
0.0086725259569257070 
-0.0031919184545236914 
0.0021330003062150670 
-0.016179007362220086 
-0.024327222367263375 
-0.010528617130257990 
0.020342886389832310 
0.016652907872450145 
-0.024854166623821436 
0.011250997504627389 
0.026699139822292283 
0.0020163013029920690 
-0.0066303796984675985 
0.010983591661366155 
0.023593462908382098 
-0.011414600375151430 
-0.013337678688629041 
-0.015536683775072810 
0.010189905461790017 
0.011104190563902737 
0.014812729053397295 
0.0034457520204813130 
0.027435929097786194 
0.0025075293289209817 
0.012244910112580835 
0.020788855139556132 
-0.033946422477854880 
0.010026534287172756 
-0.019451460650246140 
-0.0035918861961430400 
0.028679192502359770 
0.017374526980294656 
0.023613760441217630 
-0.0053836523084611670 
0.0088248751754620160 
-0.0072114352166741950 
0.0083441758733368290 
-0.015889289752231955 
-0.0018260559124671260 
-0.013153412284176410 
-0.0046172840468153790 
0.024579755865500975 
-0.0082201890337425050 
0.0028311996632074485 
-0.0036198543332660134 
0.015171409452368171 
-0.0089143912778833840 
-0.021701771233192252 
0.012694256068412867 
-0.015766393768824490 
0.024616350246028706 
-0.015180260815413169 
-0.0063346622826549540 
0.0083814016901481610 
-0.0047548035665422195 
-0.0042411623265159180 
0.039972551120622320 
-0.0056458313944244270 
-0.089053460091821830 
-0.034059219447127460 
0.0029625046046660723 
0.010091932599869324 
-0.025083194068404940 
0.017688711093463427 
0.0091503415398818820 
0.0057387396772271630 
0.015215713111438562 
0.0039054745598988890 
-0.0065639160685352120 
-0.0074360878959028490 
-0.0046610387657744405 
0.0045409764779077570 
-0.0099624097070472280 
0.032597558237256050 
0.015367662263988946 
0.0068703360229735060 
-0.013772078450451756 
0.0044005866576439560 
0.0091131419168086300 
-0.0085184992073819460 
0.0092737091993610340 
-0.0099046615359474360 
0.0039962157816020850 
0.013689102095336090 
-0.021555098517349820 
-0.012695772141597470 
-0.010786073313149706 
-0.010133789180736982 
-0.014589984910726455 
-0.038417499969062550 
0.00050609444642045660 
0.00067884526005560160 
0.020792771127212912 
0.0069624995959954800 
0.0049325256470446390 
-0.018336828673180690 
-0.0074338724293114690 
-0.019154090690913140 
0.0061603462779840550 
0.015090643056435737 
0.023701669610281126 
-0.0072357336941039395 
-0.018953950144471165 
-0.00035757742263070810 
-0.0023019101491282540 
0.0080492068008517680 
0.013611712351130630 
-0.019580163453773720 
-0.0052619119106847995 
0.0039496743717936066 
0.0067803784794703090 
-0.00042800819009987870 
0.0091303661552938300 
0.024645119268607574 
0.0035885672550871554 
0.0051499409618955515 
-0.022436974086127527 
0.0085077750902936130 
0.0042718794601422070 
-0.0084748641861282200 
-0.0062774288539363420 
0.014286148537369151 
-0.0098045778778531250 
-0.014814272483895694 
0.0026771630749212803 
0.018247836351357457 
0.0092978643585034950 
-0.010655737732365913 
0.0039216696097845740 
0.00060663630626023510 
-0.0099335809756044830 
0.00091514722317557250 
0.028519182078193355 
0.023583697165740023 
-0.0084080933084956930 
-0.012515131989792204 
-0.0025240867145717880 
0.00092033596869217010 
0.0039014387354746110 
-0.015041493189673611 
0.0040036392523129380 
0.031672410748043530 
0.017402470461659457 
0.033002527521843830 
-0.0075351474491544790 
-0.0068602119024752720 
0.018883854605362280 
-0.019979979815383410 
0.023090778073169185 
0.011734203174434911 
-0.0050224341284739690 
-0.0047746770822654150 
0.0037248432235894770 
-0.0022581602638899460 
-0.0093486017577643300 
0.018388281821998470 
-0.010859790548793500 
-0.0075762822016669430 
-0.00054695747671994490 
0.0054291454805173375 
0.014805952316728220 
0.026592672345904950 
0.031241247377157576 
-0.010752613261763798 
0.0086501570689649300 
0.0090103978110814120 
-0.019759931759715890 
0.026316613217684907 
0.024772887906285170 
0.048240598471006986 
0.017757793305740560 
-0.015561488981442748 
-0.0037483582149053316 
0.0053461956436200820 
0.011635366982784355 
0.011520472911669324 
0.014957370682292227 
0.0052272916506616430 
-0.045756397331728670 
-0.0084432100125119620 
-0.015125728653481910 
0.013403433466272027 
-0.0043668469586895225 
-0.019106061717032614 
0.0042952383761111590 
0.0082297538639132290 
0.0023394266357882176 
0.025819869093223880 
0.040681166353773140 
-0.010399664776968410 
0.012528332662660843 
0.012525526664119654 
0.019249236407217818 
0.011226565145553365 
0.0032427470856361685 
0.016359143277290017 
0.016845551127053440 
-0.011212607882213128 
-0.020905441556774270 
-0.0095642566642027350 
-0.0018200362703554830 
-0.028249732606465310 
0.011751860618952406 
0.0038765047707959540 
0.011900764556225366 
0.024353469754050453 
0 
-0.013748055545853012 
0.017847391952602785 
0.0072212905478395750 
0.013270395505188014 
0.011989447693621362 
-0.0026233681339348355 
-0.072713663385639240 
0.0081087024086386900 
0.0091864076109127720 
0.022116298898075967 
-0.020795155768636078 
-0.028741392225700345 
0.0042891296092398670 
0.0014259542925379263 
0.013990066190283194 
0.0012805273566177796 
-0.0020475496012904446 
-0.00041255906545499520 
0.0022949106485568435 
0.0033286577868568260 
0.0035219017611713734 
0.010853569604094318 
-0.024718707698966894 
-0.0037856827870964490 
-0.014263854990497189 
-0.0078654121299590860 
0.010111470927984346 
-0.011754210352941977 
0.0063924637648033345 
0.014014277788179014 
0.014156848886392170 
0.0033030880616472615 
0.0084517947571352370 
0.010129161929320630 
-0.056892719664964314 
0.032524428558041510 
-0.019785662588858970 
-0.013575660354541403 
0.0092678002536282270 
-0.012394957846285404 
0.0046082434008959550 
0.021264029418223196 
-0.020334757972091812 
-0.018242908168283840 
0.0091953169049097550 
0.021589277700793254 
0.013486284347186218 
0.011513357137132432 
-0.0013349466679437557 
-0.028419366551525403 
-0.010430912517916155 
-0.016189142848761510 
-0.019676293783765030 
-0.019749019354058785 
-0.0080844362186435340 
0.0057556018466084200 
-0.014869425468511721 
0.014338868668174444 
-0.014602264419780622 
-0.0012952923008706118 
-0.0046083561342625950 
-0.0078872950501210100 
0.0084148798177286020 
0.0046829930708074060 
-0.0016490691270239716 
-0.037575056124256170 
-0.0084954083759174700 
0.013218258053258953 
-0.0083255880315879820 
0.0058865949356661890 
-0.013008621834440714 
0.058683161200206820 
-0.014510055774411983 
0.020563055685125713 
0.015720724755539324 
0.0049512182880800905 
0.0064438103143318850 
-0.019322615628223894 
0.012854222126861500 
0.017492206500103257 
-0.026035936850077136 
0.020760151661226550 
-0.021794491731269756 
0.024320027519607275 
-0.0029400054436993952 
0.011391553726015692 
-0.013258468306750792 
-0.010550915067556626 
0.020434589191632370 
0.0066329076888424330 
-0.011391232507461928 
-0.0044278577664416210 
-0.023164841988609610 
0.024026217049187483 
-0.0010171723359430310 
0.0080193371693214370 
0.018258240473308776 
-0.011379182593352938 
-0.012909657386698690 
-0.044619727749637920 
0.0044484730408567725 
-0.031103667171913388 
0.019295107956132353 
0.017578852727716775 
-0.0028491947981651566 
-0.00060973507826077470 
0.0056847454222218620 
0.0060939185347966580 
0.019249772672357238 
0.0067552786599394620 
0.0093905283384314880 
-0.011445493194305480 
-0.0032263210450345467 
0.0099105042680539900 
-0.0017955693064193327 
0.0056847454222218620 
0.017342890187200150 
0.0053058545542134340 
0.0024845541180297260 
0.018046377559245857 
-0.0058897607207137050 
0.0025931369687785580 
-0.0055344646241255600 
0.0027347230937532810 
-0.0077839929068531280 
-0.041509221378142900 
0.0068986664995032390 
-0.0054871956717265260 
-0.011379182593352938 
-0.0016987639521989489 
-0.013164447427958316 
-0.0054761124042549350 
-0.0073040054463900450 
0.0082007796243275900 
0.00018455455964524970 
-0.0019974582975432866 
-0.0017955693064193327 
0.039795408931143104 
0.0086038833902625150 
-0.0056233093234510620 
-0.0048063934328657570 
0.0048272412209712650 
-0.0028491947981651566 
0.0041060538759065705 
0.0036225647649030140 
-0.011379182593352938 
-0.013081007462830002 
-0.0026625361952592594 
-0.016174797898686280 
0.014019029613456985 
0.0072643128158868620 
-0.0058897607207137050 
0.0067552786599394620 
0.0045906011865849850 
0.024765358640656973 
-0.00024032278992241994 
-0.0057863690596003745 
0.0093905283384314880 
0.0042991294452529190 
-0.0084005758344124000 
0.0053770415772255600 
-0.0028283258740185660 
0.0028521697603179344 
0.016579935708701532 
-0.0093686109664986620 
-0.0016987639521989489 
-0.0063699477570184010 
-0.017841280385938440 
0.00018455455964524970 
-0.0065158816019207160 
0.019243523607268238 
-0.0054871956717265260 
0.0080411541891545290 
0.017578852727716775 
-0.0028283258740185660 
-0.010026591671862234 
0.0086568091030465020 
0.0063398223921353460 
0.00018455455964524970 
0.0050885665671150840 
0.0041060538759065705 
0.0052809022099955460 
-0.0024803953452084836 
0.0060939185347966580 
0.00018455455964524970 
0.0045390631093111130 
0.0051276975658174150 
0.0053058545542134340 
-0.0056233093234510620 
-0.0044398683103512035 
0.0099620964707427160 
0.0056847454222218620 
0.0036225647649030140 
0.0065726242840813240 
0.010764110519628478 
-0.0057863690596003745 
0.0072643128158868620 
0.0028521697603179344 
-0.0066491809648035090 
0.021620757317665742 
-0.0026341679605295470 
0.0045390631093111130 
0.0080411541891545290 
0.0071750977697703510 
-0.0066293326100352390 
0.010053064870986811 
0.016720701619460696 
-0.0051738416851679970 
0.0041800766219310505 
0.0037163805121216567 
-0.0091465590696650970 
0.010764110519628478 
-0.0034142434148931532 
0.0086980408076414600 
0.0070297904688245430 
-0.0016149705416968578 
-0.0054761124042549350 
-0.0019974582975432866 
-0.0070432489558099670 
-0.0087073490778979980 
0.0028437295099523410 
0.0045390631093111130 
-0.0093560968533085670 
0.00074222878134057300 
-0.012608888421600097 
0.0047095022215204920 
0.017533570557747968 
-0.0065158816019207160 
-0.024167868238158516 
0.0051276975658174150 
0.0098462854255978640 
0.035042993639938370 
0.0041800766219310505 
-0.010393224312806688 
0.013095917108125738 
-0.0044373565150178690 
0.0060094565171801865 
-0.0017451212503672570 
0.022985905066597777 
-0.0015624940959381493 
0.021620757317665742 
-0.0016987639521989489 
-0.0016987639521989489 
0.0080666749522547660 
-0.0061194629922238790 
0.0072371884390959620 
0.00019810398067700896 
0.0072371884390959620 
-0.014188092744438366 
0.0072450952253704990 
-0.0029079111316383877 
0.0072371884390959620 
0.00036140735257842165 
-0.0055344646241255600 
0.0045390631093111130 
-0.0087209722556273760 
-0.0078555900110199010 
-0.0016987639521989489 
0.0045390631093111130 
0.0051276975658174150 
-0.015792702732702950 
0.0071535915556838690 
-0.00031186563196471710 
0.010688195715381302 
-0.031150660148599880 
-0.0019974582975432866 
-0.0056233093234510620 
0.00053397294403779040 
0.014523846059217835 
0.0053423350097185390 
-0.0026625361952592594 
-0.0032915782462769284 
-0.0042093887410851970 
-0.011445493194305480 
-0.0056662536638664070 
0.0072643128158868620 
-0.0040775935083507210 
-0.012909657386698690 
-0.0048356138917110600 
-0.032471403749119276 
0.0072371884390959620 
0.0082037079352410370 
0.0056806433481448990 
-0.0025761354473791830 
0.0029750390956974320 
0.0013803346420066748 
-0.0037453073581396290 
0.0042991294452529190 
-0.0079877529164825880 
0.0094343584402619240 
-0.010976130038324509 
-0.0045881575678246320 
0.0080666749522547660 
-0.0068458492472235600 
-0.015497837321118906 
0.014019029613456985 
-0.0066293326100352390 
0.0043308570155442800 
0.0063398223921353460 
0.016150881945792436 
0.0041800766219310505 
0.0071535915556838690 
-0.0097738120947026850 
0.0061234723352062350 
-0.0026597176165900530 
-0.026897492362787552 
-0.0079877529164825880 
-0.0075944240327898270 
0.017533570557747968 
-0.0086489559059464550 
0.018046377559245857 
0.0056182865730937375 
0.0048491902078279920 
-0.011148955466155417 
0.0056847454222218620 
-0.0050625130936143020 
-0.0084005758344124000 
0.00045713601087580440 
0.0070412075864364480 
-0.012861378566793390 
0.014771296058285182 
-0.0035390559304720724 
-0.027100368793026310 
-0.0093560968533085670 
0.0048272412209712650 
0.0092582382597882730 
0.00052382962125929610 
-0.032345244319975985 
-0.0027125859117260735 
0.0048272412209712650 
0.00053397294403779040 
-0.028604348308480640 
0.012041508716664484 
0.013095917108125738 
0.0013574119284628936 
0.010053064870986811 
0.0092582382597882730 
-0.0092098585603899650 
-0.015792702732702950 
0.0036225647649030140 
0.0071535915556838690 
0.00018455455964524970 
-0.016364404114817314 
0.0098413906624741240 
-0.0060688157330145380 
-0.018821530691171630 
-0.015208180620828045 
0.0024845541180297260 
0.0060939185347966580 
0.032369052669372470 
-0.0063206801829802330 
0.00018455455964524970 
-0.014866788886964930 
-0.0074590235001646550 
0.00018455455964524970 
-0.0019974582975432866 
-0.013836856722765372 
-0.0056233093234510620 
0.018054507904900367 
0.0028521697603179344 
0.0056847454222218620 
-0.0080429397273654980 
-0.032471403749119276 
-0.028604348308480640 
-0.0056662536638664070 
0.0028521697603179344 
-0.0094823800782172870 
0.0080456272240626550 
-0.010417579070290003 
0.0056421672574412905 
0.0080666749522547660 
-0.0032263210450345467 
-0.0029079111316383877 
0.0073472263109954400 
0.00081385588277110920 
0.0099620964707427160 
-0.0032263210450345467 
0.0098413906624741240 
0.011078448943800568 
0.0053058545542134340 
-0.013081007462830002 
-0.013618088487014174 
-0.010417579070290003 
0.0056806433481448990 
-0.0030093718127102787 
-0.0087073490778979980 
0.0086568091030465020 
0.0086568091030465020 
0.0099620964707427160 
-0.022770964661771025 
0.0080456272240626550 
0.0056182865730937375 
-0.0067942094543511700 
0.0071750977697703510 
0.0027347230937532810 
0.0027347230937532810 
0.048249924758834890 
-0.0095568875162691300 
-0.0029079111316383877 
-0.0032915782462769284 
0.0029813297240055686 
-0.018592373215814504 
-0.0052423788889173950 
0.0042205559532672790 
0.0070633764242541490 
0.019243523607268238 
0.023143508365214850 
-0.0049459276527081010 
-0.0041730997662656150 
-0.015014143499169087 
-0.010262988378156240 
0.0075435586503441190 
-0.0026625361952592594 
0.0018414887054692777 
0.0060943429631340200 
-0.0056662536638664070 
0.0064073660320398485 
0.0099105042680539900 
-0.020239099945452973 
0.0016085751807482225 
0.0056847454222218620 
-0.0078684857355782680 
0.016048777320301334 
-0.0019974582975432866 
0.00053397294403779040 
-0.0084516739503426780 
0.032774268528262960 
0.0047296969958845020 
0.0027347230937532810 
-0.0079801910318133950 
-0.018821530691171630 
-0.0058930593700856964 
-0.0066293326100352390 
-0.0054761124042549350 
-0.00060973507826077470 
0.0072450952253704990 
-0.014513258367703959 
-0.0074590235001646550 
-0.020829077397441918 
0.017578852727716775 
-0.014074086245255732 
-0.0056662536638664070 
0.0095402352492220160 
-0.0073550977553558010 
-0.0086982519814807810 
0.0031610086377534406 
0.00053397294403779040 
0.0079205061025629050 
0.0095402352492220160 
-0.0029079111316383877 
-0.0017955693064193327 
-0.0062393819059177710 
-0.0066491809648035090 
-0.0019974582975432866 
-0.0085591968350845810 
-0.010488299060108437 
-0.013081007462830002 
0.0029750390956974320 
0.033000177971412850 
-0.0026390293929517740 
0.0095880148406443700 
-0.0066293326100352390 
-0.010723812840016483 
0.0042991294452529190 
0.0053058545542134340 
0.0080193371693214370 
-0.015014143499169087 
0.0056806433481448990 
-0.0032263210450345467 
-0.010862732035485080 
-0.0028491947981651566 
0.013095917108125738 
0.0056806433481448990 
0.0076257820313204370 
0.015190131161278908 
-0.0057220602734406115 
-0.017784306267287588 
0.041322339574821905 
-0.0044874132310642936 
-0.0026597176165900530 
0.013095917108125738 
0.0079205061025629050 
-0.0056233093234510620 
-0.0032804140768453137 
0.0045390631093111130 
-0.0079877529164825880 
0.018357660174093876 
-0.022483633299606284 
0.0099950377379422780 
-0.016455260762431992 
-0.0077323965425927270 
-0.011148955466155417 
-0.0047221251069987770 
-0.0028172190126129040 
0.0025931369687785580 
-0.041509221378142900 
0.0027027784379231616 
0.0025208579706670338 
-0.0026597176165900530 
0.0071535915556838690 
-0.020239099945452973 
-0.0084005758344124000 
-0.017033891878665747 
0.0019957675273757370 
0.0067353235179246610 
0.0084619756467157450 
-0.0028040913843768340 
-0.0055344646241255600 
0.0036225647649030140 
-0.026897492362787552 
-0.0084005758344124000 
-0.0016149705416968578 
0.012706810784561630 
0.0083802003612747280 
-0.0057220602734406115 
-0.017739382460722805 
-0.012608888421600097 
-0.0058527334690253190 
0.0043248675845121150 
0.0060939185347966580 
0.010924181145483540 
-0.011936638541204976 
0.0074771599370601440 
-0.0026597176165900530 
0.045914538837072420 
-0.0019974582975432866 
0.0027347230937532810 
-0.0050625130936143020 
-0.0093560968533085670 
-0.0062039461917948440 
0.0080193371693214370 
0.0061234723352062350 
0.0050885665671150840 
-0.0029079111316383877 
-0.0010171723359430310 
0.0084619756467157450 
0.0056847454222218620 
0.0095402352492220160 
0.0050885665671150840 
0.0031095154074666865 
0.012706810784561630 
0.023143508365214850 
-0.0088432335329379220 
0.017342890187200150 
0.0095402352492220160 
-0.010566470377722670 
0.017065156258123843 
0.00033087708070529123 
-0.015208180620828045 
0.0024845541180297260 
-0.0091465590696650970 
0.0071535915556838690 
-0.0093423452411149820 
-0.016174797898686280 
0.0048272412209712650 
-0.0063206801829802330 
-0.017739382460722805 
0.013569984195233990 
0.0072371884390959620 
-0.0026597176165900530 
0.0074771599370601440 
-0.011148955466155417 
0.015872702122215858 
0.0039920319137183210 
0.0056182865730937375 
-0.016520594122373135 
0.0053423350097185390 
-0.0056662536638664070 
0.0063131772817623345 
-0.0054871956717265260 
0.0051612332137558690 
-0.017617412717658690 
0.0058354794332744910 
0.0053058545542134340 
0.0056847454222218620 
0.0022216971497101040 
-0.0064752182788972660 
0.0018414887054692777 
-0.0019974582975432866 
0.0067552786599394620 
-0.018821530691171630 
-0.0026597176165900530 
0.0086568091030465020 
0.0067552786599394620 
0.0072371884390959620 
-0.016603190421931120 
-0.0054871956717265260 
-0.0073790947355327970 
-0.017784306267287588 
0.023217579196351800 
-0.0093560968533085670 
-0.025282095351578656 
-0.017739382460722805 
-0.025925864854309887 
-0.014074086245255732 
0.0029411970164398373 
-0.012662641381239550 
0.0027347230937532810 
-0.0032915782462769284 
0.0098413906624741240 
-0.0029079111316383877 
0.021298892487447230 
-0.013164447427958316 
0.017342890187200150 
-0.0050625130936143020 
-0.0050625130936143020 
-0.0066293326100352390 
0.014009185822761392 
0.016048777320301334 
0.0095880148406443700 
-0.0055344646241255600 
-0.0054871956717265260 
0.033751008356864810 
0.0056847454222218620 
0.0074922366419638510 
0.0052809022099955460 
0.010053064870986811 
-0.0044022888793972510 
-0.010134085599985668 
0.025611320901969460 
-0.0019974582975432866 
0.018523675021682107 
0.0093905283384314880 
0.0052809022099955460 
-0.0083497578235102070 
0.0021713613868144060 
0.00036140735257842165 
-0.0093686109664986620 
-0.0027125859117260735 
-0.0044536476735121825 
0.014692409047570900 
0.0079205061025629050 
-0.0056662536638664070 
0.0073822550496909700 
-0.0056662536638664070 
0.0093905283384314880 
-0.010759760067497468 
0.026311331540861260 
-0.011843849806290422 
0.0098413906624741240 
-0.0026597176165900530 
-0.024167868238158516 
0.019953957317168370 
0.010764110519628478 
0.0040669939783198750 
0.0039920319137183210 
0.0065726242840813240 
0.0039920319137183210 
0.0018414887054692777 
-0.026050622499837670 
0.0056847454222218620 
0.016579935708701532 
-0.0087073490778979980 
0.0055361233659620675 
-0.0058897607207137050 
0.0067552786599394620 
-0.0074590235001646550 
0.035585437625814134 
-0.015014143499169087 
-0.014188092744438366 
-0.0079818789604733950 
-0.015942642344767086 
-0.0024528652687157903 
-0.0052423788889173950 
0.012302902316898970 
-0.017617412717658690 
-0.0066293326100352390 
-0.012608888421600097 
-0.0066293326100352390 
-0.0056233093234510620 
-0.0032263210450345467 
-0.0010171723359430310 
0.00018455455964524970 
0.0075435586503441190 
-0.0054871956717265260 
0.0019082363045711398 
0.0061234723352062350 
0.0056464416256677670 
-0.017739382460722805 
0.0029750390956974320 
-0.0052423788889173950 
-0.0026625361952592594 
-0.010262988378156240 
-0.0032915782462769284 
0.0072371884390959620 
-0.0026597176165900530 
0.0039920319137183210 
-0.010566470377722670 
0.0099105042680539900 
-0.0077090742963344520 
0.0053058545542134340 
-0.0079877529164825880 
0.0056847454222218620 
-0.014485017754012655 
-0.00046313060520720056 
-0.010759760067497468 
0.0056182865730937375 
0.0063398223921353460 
-0.019473131748602630 
0.013095917108125738 
-0.0086489559059464550 
0.018523675021682107 
0.0086568091030465020 
0.0056806433481448990 
0.025748586074090866 
-0.0083497578235102070 
-0.00091795165522553030 
0.033000177971412850 
0.0056847454222218620 
0.0080193371693214370 
-0.0029079111316383877 
-0.0056233093234510620 
-0.010759760067497468 
0.0071535915556838690 
0.0045390631093111130 
0.0095880148406443700 
-0.010759760067497468 
0.0082007796243275900 
-0.0087209722556273760 
-0.0056233093234510620 
0.0042991294452529190 
0.0018414887054692777 
-0.0054871956717265260 
0.010764110519628478 
0.021381094287220136 
-0.016364404114817314 
-0.0028491947981651566 
-0.0086982519814807810 
-0.0056662536638664070 
0.0082007796243275900 
-0.0066491809648035090 
-0.013225119845288055 
0.013107714118934995 
0.018523675021682107 
0.017065156258123843 
-0.010759760067497468 
0.0069609679803533460 
-0.014188092744438366 
-0.0037382024170459893 
0.0071750977697703510 
0.063566614604901320 
0.0042303815209605595 
0.023143508365214850 
-0.017739382460722805 
0.0061234723352062350 
-0.0079877529164825880 
0.0045390631093111130 
0.012706810784561630 
-0.014702377710345176 
0.027992097685870375 
0.0046411932876948850 
0.010246221093253323 
-0.010759760067497468 
-0.0028491947981651566 
-0.0048356138917110600 
-0.0028283258740185660 
0.016720701619460696 
-0.0086489559059464550 
0.017578852727716775 
0.0071750977697703510 
0.0083756612367177580 
0.0074545588570692750 
-0.0054761124042549350 
-0.0054761124042549350 
-0.0054761124042549350 
-0.0086489559059464550 
-0.00046313060520720056 
0.011606330070824277 
0.042717067493086920 
-0.0089349133767354040 
0.0086568091030465020 
0.0050958876094085075 
-0.0019974582975432866 
0.00053397294403779040 
0.0024845541180297260 
0.0056421672574412905 
-0.025057756838554907 
-0.0032348649187118820 
0.012706810784561630 
0.00046724656848473100 
-0.0050625130936143020 
0.013758911786749330 
-0.0016987639521989489 
-0.0054871956717265260 
0.033000177971412850 
-0.0028283258740185660 
-0.0036255131631763320 
0.0067552786599394620 
-0.0056233093234510620 
0.0052809022099955460 
-0.0026597176165900530 
0.0042991294452529190 
0.017578852727716775 
-0.0054761124042549350 
0.020716110254110246 
0.0043248675845121150 
0.0062285113712771765 
0.0029750390956974320 
-0.0032263210450345467 
0.0086568091030465020 
-0.015942642344767086 
0.0099620964707427160 
0.016858148954377136 
-0.0057242160810711100 
0.0024845541180297260 
-0.0092098585603899650 
0.0093638047415029600 
0.0041945232096123580 
-0.011379182593352938 
-0.0049583810501197920 
-0.0075944240327898270 
0.0018414887054692777 
0.0041800766219310505 
0.0083802003612747280 
0.035884978936479930 
0.0082007796243275900 
-0.0050625130936143020 
0.011553261941711065 
-0.051117447638261385 
-0.0026341679605295470 
0.059396205484517184 
0.0061234723352062350 
-0.0059373131069365080 
0.0061234723352062350 
-0.0056233093234510620 
0.014505956405881365 
-0.011585231795208867 
0.0069011035023131610 
-0.0066293326100352390 
0.0041800766219310505 
-0.0050625130936143020 
-0.024439057762527843 
0.0056182865730937375 
0.0053058545542134340 
0.0063398223921353460 
0.0056340427344682270 
0.0053281993554674090 
-0.0086489559059464550 
-0.0029079111316383877 
0.0027347230937532810 
-0.0026341679605295470 
-0.0026597176165900530 
0.0053058545542134340 
0.017578852727716775 
-0.011401370450774563 
0.0056806433481448990 
-0.0057167276927341910 
-0.0029079111316383877 
0.0095880148406443700 
-0.0016149705416968578 
0.010734816110358524 
-0.012909657386698690 
0.013181124821415346 
0.0071535915556838690 
-0.010417579070290003 
-0.017784306267287588 
0.00095991656518825850 
-0.010655110392250094 
-0.032471403749119276 
-0.012809477460996336 
0.014771296058285182 
-0.0056233093234510620 
0.0071750977697703510 
-0.010417579070290003 
0.016048777320301334 
-0.00024032278992241994 
-0.010572134465234887 
0.0029750390956974320 
0.0056806433481448990 
-0.0052423788889173950 
-0.0053278744106519620 
0.019982085843176105 
0.0086568091030465020 
-0.0026597176165900530 
-0.0093423452411149820 
-0.0088432335329379220 
-0.00060973507826077470 
-0.011148955466155417 
0.0056806433481448990 
-0.0026597176165900530 
-0.0072858568200205260 
-0.010262988378156240 
0.0076353971636926730 
-0.0026625361952592594 
-0.0056662536638664070 
-0.0026597176165900530 
-0.0028491947981651566 
0.0063398223921353460 
0.018523675021682107 
-0.0026597176165900530 
0.064461376005997680 
0.0086568091030465020 
0.0080193371693214370 
-0.0084005758344124000 
0.0056806433481448990 
0.0071535915556838690 
-0.010723812840016483 
-0.010415702798821780 
0.010734816110358524 
-0.0026341679605295470 
0.0080456272240626550 
0.0021713613868144060 
-0.0068458492472235600 
0.010734816110358524 
0.0060939185347966580 
-0.012861378566793390 
-0.0054526858965870326 
-0.0055568842138011660 
0.0055363547143400870 
-0.010704200410559127 
-0.0050810578313852420 
-0.0026597176165900530 
0.0075435586503441190 
0.0048272412209712650 
-0.0074590235001646550 
0.035591198907923240 
-0.011445493194305480 
0.0059374660133971460 
0.0028521697603179344 
0.0041800766219310505 
0.0056847454222218620 
-0.0024803953452084836 
-0.0066491809648035090 
-0.017784306267287588 
0.0061234723352062350 
-0.0066293326100352390 
-0.0093686109664986620 
0.00088487164907252680 
0.0019127771774128300 
-0.010134085599985668 
-0.0072858568200205260 
-0.0026625361952592594 
0.0086858863084337080 
0.0082007796243275900 
0.014511511745472673 
-0.0056233093234510620 
0.0024313778482737870 
0.0056340427344682270 
0.0053058545542134340 
0.0099105042680539900 
-0.0028283258740185660 
0.0099105042680539900 
-0.0097738120947026850 
-0.010759760067497468 
0.014019029613456985 
-0.0053174917384711510 
-0.0054761124042549350 
-0.032471403749119276 
0.010764110519628478 
-0.0019974582975432866 
0.0056182865730937375 
0.0056847454222218620 
-0.0074590235001646550 
0.0056182865730937375 
-0.0019974582975432866 
-0.0072858568200205260 
-0.037240146182828650 
-0.0065158816019207160 
0.0056847454222218620 
0.0039546280015252080 
-0.0065158816019207160 
0.0024845541180297260 
0.010053064870986811 
-0.0065158816019207160 
0.024765358640656973 
-0.014188092744438366 
0.0056847454222218620 
0.0097304411676902990 
-0.0081705522958000850 
0.0039920319137183210 
0.0093847287493017100 
0.0079205061025629050 
-0.0079877529164825880 
0.014692409047570900 
-0.030463862656789884 
-0.00024032278992241994 
0.012706810784561630 
9.8756477707215530e-06 
-0.010723812840016483 
0.0064215283201804920 
0.0015340368925748765 
0.0056806433481448990 
-0.0028172190126129040 
-0.0081934447999334700 
0.0029750390956974320 
-0.0028040913843768340 
-0.0093686109664986620 
0.033000177971412850 
0.0052809022099955460 
0.0043248675845121150 
-0.0078703785961652740 
0.0075435586503441190 
-0.0056233093234510620 
-0.032471403749119276 
-0.0063699477570184010 
0.0061234723352062350 
0.0095402352492220160 
0.00018455455964524970 
-0.013225119845288055 
-0.015014143499169087 
-0.0019974582975432866 
0.028815825086657806 
-0.0054871956717265260 
-0.0026468308382195517 
-0.0017955693064193327 
0.012706810784561630 
-0.026897492362787552 
-0.0027125859117260735 
-0.0085591968350845810 
0.0053058545542134340 
-0.0052423788889173950 
0.0025472721332939520 
0.00018455455964524970 
0.0040169391047063110 
-0.0083360578471258290 
0.00053397294403779040 
-0.0016149705416968578 
-0.010145968116917860 
0.0096630490507485300 
-0.010003325799728006 
0.0036225647649030140 
-0.0052423788889173950 
-0.0031196665112207386 
-0.0056233093234510620 
0.00053397294403779040 
0.0041800766219310505 
0.0021052335347788400 
0.0082007796243275900 
-0.0065158816019207160 
0.0027347230937532810 
0.010053064870986811 
0.0056421672574412905 
0.018523675021682107 
0.014424964789823077 
0.013074244555135340 
0.0080456272240626550 
0.0087711993273830520 
-0.0028491947981651566 
-0.015942642344767086 
0.0018414887054692777 
0.0018414887054692777 
0.0080666749522547660 
-0.014188092744438366 
-0.0057220602734406115 
0.0028521697603179344 
0.018357660174093876 
0.0093638047415029600 
0.0050885665671150840 
0.0050885665671150840 
-0.0028491947981651566 
-0.0026341679605295470 
-0.0057220602734406115 
0.017578852727716775 
0.029606968558509120 
-0.0091465590696650970 
0.0056182865730937375 
-0.010759760067497468 
-0.0056233093234510620 
0.0018414887054692777 
0.0057534853567464100 
0.0056847454222218620 
0.0051276975658174150 
-0.00024032278992241994 
-0.010723812840016483 
-0.019473131748602630 
0.0093905283384314880 
-0.0086489559059464550 
-0.00060973507826077470 
0.0040169391047063110 
0.0029411970164398373 
0.012837022414602104 
-0.0041730997662656150 
0.013095917108125738 
0.0056806433481448990 
-0.0093560968533085670 
-0.010759760067497468 
0.00022495903312208010 
0.0024313778482737870 
-0.012608888421600097 
-0.030892921345810273 
-0.0029079111316383877 
0.0056806433481448990 
0.0024845541180297260 
0.013773039253357799 
0.0088659548324766330 
0.018357660174093876 
-0.0030802365136149965 
-0.024167868238158516 
0.012285083380493068 
0.0029750390956974320 
0.0029750390956974320 
0.015352113343290410 
0.0056847454222218620 
-0.0028040913843768340 
-0.0035165424859070300 
0.0099105042680539900 
-0.0028040913843768340 
0.0040169391047063110 
0.0040169391047063110 
-0.0056233093234510620 
0.015703057780105986 
-0.015014143499169087 
-0.00060973507826077470 
0.0041800766219310505 
0.028811501075608520 
0.010734816110358524 
0.0065726242840813240 
-0.010723812840016483 
-0.0083497578235102070 
-0.0055344646241255600 
-0.0028491947981651566 
-0.020460260996257000 
0.0062285113712771765 
0.0062285113712771765 
0.0062285113712771765 
0.0050958876094085075 
0.024765358640656973 
-0.0032915782462769284 
-0.013618088487014174 
0.0041060538759065705 
-0.0055344646241255600 
0.0083756612367177580 
-0.0054871956717265260 
-0.0027125859117260735 
0.0067552786599394620 
0.0053423350097185390 
0.00053397294403779040 
0.015700311534841374 
0.0029750390956974320 
-0.0093686109664986620 
0.015703057780105986 
0.00018455455964524970 
0.0099620964707427160 
0.018523675021682107 
-0.0027125859117260735 
-0.013225119845288055 
0.00053397294403779040 
-0.012993840749479471 
-0.0029079111316383877 
-0.0012715400890915129 
-0.0027125859117260735 
-0.011287502147577285 
0.017342890187200150 
0.033801787988418310 
0.014895338121774487 
-0.015014143499169087 
0.0056806433481448990 
-0.0055344646241255600 
0.014424964789823077 
0.0095880148406443700 
-0.0055344646241255600 
-0.0055344646241255600 
-0.0032263210450345467 
-0.0087073490778979980 
0.017533570557747968 
-0.0026597176165900530 
0.0099105042680539900 
0.0071535915556838690 
0.0053423350097185390 
-0.025338524830772350 
0.0027347230937532810 
0.0027347230937532810 
0.0080411541891545290 
-0.0087209722556273760 
0.020648463274944090 
-0.0017955693064193327 
0.0053058545542134340 
0.0050885665671150840 
-0.014654583688866718 
0.018523675021682107 
0.024765358640656973 
0.0082007796243275900 
0.023143508365214850 
0.0040169391047063110 
0.0082007796243275900 
-0.0056233093234510620 
-0.0084005758344124000 
0.0027347230937532810 
-0.0054761124042549350 
0.035773345121546396 
-0.0029079111316383877 
0.020646216564451350 
0.0045390631093111130 
0.0061234723352062350 
-0.0099828615063212240 
-0.0017955693064193327 
-0.018821530691171630 
0.0040169391047063110 
0.0082007796243275900 
-0.0028283258740185660 
-0.0051567677583606050 
0.014882535004952643 
0.0056847454222218620 
-0.0050625130936143020 
0.0043248675845121150 
-0.012861378566793390 
0.0063398223921353460 
-0.014074086245255732 
0.010246221093253323 
0.016048777320301334 
0.0051276975658174150 
-0.010519044371439143 
0.017342890187200150 
0.019243523607268238 
0.017065156258123843 
0.0062486252808936780 
0.025611320901969460 
0.015725137971421380 
-0.017687739197881323 
0.016054947678331148 
-0.019177566414295882 
-0.0044232080934329620 
0.012421343458243446 
0.0066020358712825600 
-0.0050625130936143020 
0.0050885665671150840 
-0.0097738120947026850 
-0.013164447427958316 
-0.0086489559059464550 
0.033751008356864810 
0.017065156258123843 
0.00053397294403779040 
-0.0055344646241255600 
0.0080193371693214370 
0.0082007796243275900 
-0.028604348308480640 
0.0076257820313204370 
0.0080411541891545290 
0.00036140735257842165 
0.0051276975658174150 
0.0072371884390959620 
0.00046724656848473100 
0.0079205061025629050 
0.0056806433481448990 
0.0029411970164398373 
-0.016119193522150690 
-0.0040063048471491920 
-0.0066491809648035090 
-0.0058120034622186170 
-0.013164447427958316 
0.0062285113712771765 
-0.0056233093234510620 
-0.0057242160810711100 
0.0079205061025629050 
0.0083802003612747280 
0.0050885665671150840 
-0.0016149705416968578 
0.0074771599370601440 
0.0056464416256677670 
-0.0017955693064193327 
-0.0088432335329379220 
0.012285083380493068 
0.014511511745472673 
0.0038221749802145434 
-0.00024032278992241994 
0.0045390631093111130 
0.0071501286227905100 
0.0024845541180297260 
0.014019029613456985 
0.0043248675845121150 
0.0062285113712771765 
-0.0086489559059464550 
0.0080193371693214370 
-0.0065158816019207160 
0.0083171918848692940 
-0.00024032278992241994 
-0.0088667988528529430 
-0.0072858568200205260 
-0.0019974582975432866 
0.013107714118934995 
-0.013081007462830002 
0.018054507904900367 
0.0080456272240626550 
0.0099105042680539900 
0.0071535915556838690 
0.0099105042680539900 
-0.0068058598721325180 
-0.0016149705416968578 
0.019116973978541882 
0.0053058545542134340 
-0.0028040913843768340 
0.0053058545542134340 
-0.0058527334690253190 
-0.0055344646241255600 
-0.0055344646241255600 
-0.0045053711911606980 
0.0041800766219310505 
-0.0054871956717265260 
0.013095917108125738 
-0.010134085599985668 
0.0051276975658174150 
0.0043248675845121150 
0.0031116047978416426 
0.0056806433481448990 
0.0053058545542134340 
0.0089669338407791460 
-0.0057220602734406115 
-0.0097588543915949660 
-0.0079818789604733950 
-0.0038164557847610754 
0.0042991294452529190 
-0.0028040913843768340 
0.013107714118934995 
0.0060939185347966580 
0.0095880148406443700 
0.0052674795238803180 
-0.0056662536638664070 
-0.014188092744438366 
0.0045390631093111130 
0.0061234723352062350 
0.0042991294452529190 
-0.0088432335329379220 
0.0018401487612210062 
-0.0066491809648035090 
0.0084619756467157450 
-0.0058527334690253190 
0.0024845541180297260 
-0.0056846182627538340 
0.0041060538759065705 
-0.0057220602734406115 
-0.0032915782462769284 
0.0053058545542134340 
0.035020424443881974 
-0.012993840749479471 
0.0018414887054692777 
0.0018414887054692777 
-0.0027125859117260735 
-0.0051428529678927020 
0.014692409047570900 
-0.013164447427958316 
0.017342890187200150 
0.0084619756467157450 
-0.0086489559059464550 
0.016720701619460696 
-0.0047970432831160180 
-0.0032263210450345467 
-0.012688887394154140 
-0.0093560968533085670 
0.0026715235771610660 
-0.0055344646241255600 
-0.0056846182627538340 
0.0053058545542134340 
0.013107714118934995 
-0.0028491947981651566 
0.013095917108125738 
-0.016174797898686280 
-0.026897492362787552 
-0.013618088487014174 
0.021620757317665742 
0.0080193371693214370 
0.0071535915556838690 
-0.015208180620828045 
0.0029750390956974320 
0.0018414887054692777 
-0.0034421670768585346 
-0.014188092744438366 
-0.0087073490778979980 
0.0024313778482737870 
-0.0032915782462769284 
0.0096630490507485300 
-0.0058527334690253190 
-0.026418412881498616 
-0.00089564580513860980 
-0.016119193522150690 
0.0065721697451454255 
-0.0076305519803408360 
-0.0028803008460010520 
0.0095880148406443700 
-0.0058527334690253190 
0.0086568091030465020 
0.0056847454222218620 
0.0060848337861695940 
0.0080666749522547660 
-0.0091465590696650970 
-0.011500608331462955 
0.0056806433481448990 
0.0071535915556838690 
0.0092582382597882730 
0.0027347230937532810 
0.014084638777837171 
-0.014188092744438366 
-0.011401370450774563 
0.011078448943800568 
0.0074675257784086400 
-0.0079877529164825880 
-0.015792702732702950 
-0.010417579070290003 
0.0018414887054692777 
0.014019029613456985 
-0.0055344646241255600 
0.0014712036510019979 
0.018054507904900367 
-0.0050625130936143020 
0.016579935708701532 
-0.012678839989288154 
0.014424964789823077 
0.018953322712519760 
0.010053064870986811 
-0.0029079111316383877 
-0.0044398683103512035 
0.016048777320301334 
-0.014074086245255732 
-0.0056662536638664070 
0.027820569963046896 
-0.0050810578313852420 
0.00036725639102613280 
-0.011445493194305480 
-0.058958643720563975 
0.0080666749522547660 
-0.0052423788889173950 
0.0029411970164398373 
-0.0058527334690253190 
-0.016364404114817314 
0.0056806433481448990 
0.0075435586503441190 
0.0099105042680539900 
-0.015208180620828045 
-0.0010171723359430310 
-0.0068458492472235600 
0.0093905283384314880 
0.0048272412209712650 
0.0056806433481448990 
-0.0065158816019207160 
-0.0022447532867632900 
0.0080666749522547660 
-0.016174797898686280 
0.011606330070824277 
0.014424964789823077 
-0.032471403749119276 
0.0079205061025629050 
0.015794671689708082 
0.0072643128158868620 
-0.0061194629922238790 
0.0027347230937532810 
0.0056340427344682270 
-0.0014342820535758528 
-0.0023120011508930710 
0.0053058545542134340 
-0.0099526537666936200 
-0.037500163168599980 
-0.013081007462830002 
-0.0079877529164825880 
-0.010488299060108437 
0.0053058545542134340 
0.010246221093253323 
0.016858148954377136 
-0.0041730997662656150 
0.0056806433481448990 
0.0086568091030465020 
-0.0041131935454522280 
-0.0032795415927262220 
-0.012775898587590057 
-0.085964579012862590 
-0.029245157728427715 
-0.032471403749119276 
-0.014188092744438366 
-0.011445493194305480 
-0.0068458492472235600 
-0.0028040913843768340 
-0.016455260762431992 
0.00018455455964524970 
-0.0057220602734406115 
0.019295107956132353 
0.0051276975658174150 
0.058465558137704446 
0.00053397294403779040 
-0.0028491947981651566 
-0.020827966783062583 
-0.0019974582975432866 
-0.0028283258740185660 
0.00018455455964524970 
0.010764110519628478 
-0.0087073490778979980 
0.010053064870986811 
0.0080666749522547660 
-0.0055344646241255600 
0.010734816110358524 
-0.012909657386698690 
-0.010534526290432795 
0.033000177971412850 
0.0053058545542134340 
0.014424964789823077 
0.0025931369687785580 
-0.0026597176165900530 
0.0086038833902625150 
0.0093905283384314880 
-0.0079877529164825880 
0.0032164502496222543 
-0.0074590235001646550 
-0.015093104371509408 
0.0060939185347966580 
-0.0066491809648035090 
-0.0017955693064193327 
-0.0087209722556273760 
0.0053423350097185390 
0.0083756612367177580 
-0.024167868238158516 
-0.015208180620828045 
0.017065156258123843 
0.010764110519628478 
0.0042718449571209970 
-0.0065158816019207160 
0.0093853936271930550 
0.0082007796243275900 
0.0082007796243275900 
0.0095402352492220160 
0.0069831619359986500 
0.018054507904900367 
-0.0079877529164825880 
-0.0097738120947026850 
0.0055768739980000800 
0.0057793754889292200 
-0.0029079111316383877 
0.0051276975658174150 
-0.0088432335329379220 
-0.0061194629922238790 
-0.014866788886964930 
-0.0068458492472235600 
-0.0074590235001646550 
0.0093847287493017100 
0.0056847454222218620 
0.0014589500206616914 
-0.0080966250495614100 
0.025611320901969460 
0.0080456272240626550 
-0.0092098585603899650 
0.0086568091030465020 
-0.013460438441546319 
0.0021713613868144060 
0.0061234723352062350 
-0.00024032278992241994 
-0.0014444305894977451 
0.0051276975658174150 
0.0071750977697703510 
-0.010134085599985668 
-0.015208180620828045 
0.010734816110358524 
0.0061234723352062350 
-0.016364404114817314 
0.0044480589009461660 
0.0056847454222218620 
-0.0055344646241255600 
0.0080666749522547660 
-0.0073878070883592220 
-0.014074086245255732 
-0.0061194629922238790 
-0.0028491947981651566 
-0.0016987639521989489 
-0.0051738416851679970 
0.0039546280015252080 
0.0080411541891545290 
0.0083171918848692940 
0.0080411541891545290 
0.018054507904900367 
-0.0055344646241255600 
0.0045390631093111130 
-0.013618088487014174 
0.019116973978541882 
0.0081169909924018800 
0.0056847454222218620 
0.0080666749522547660 
0.0056847454222218620 
0.020551533108972170 
-0.014074086245255732 
-0.0027125859117260735 
-0.0026597176165900530 
-0.0063905784710903040 
0.0065726242840813240 
0.0041060538759065705 
0.0056847454222218620 
-0.0098192417887791280 
-0.0028491947981651566 
0.0036225647649030140 
-0.052600004490324810 
0.0080633530878876070 
0.0083999632525144350 
-0.0083497578235102070 
-0.0026597176165900530 
0.0024845541180297260 
0.015178940208224282 
0.0063131772817623345 
0.0028991036292534100 
-0.0029446107637564247 
0.028815825086657806 
0.0048272412209712650 
0.0056421672574412905 
-0.045731034991533824 
-0.0032263210450345467 
-0.0066293326100352390 
0.013773039253357799 
0.0083802003612747280 
0.0071535915556838690 
-0.0032915782462769284 
0.0045390631093111130 
-0.0026597176165900530 
-0.010572134465234887 
0.0043248675845121150 
0.0093905283384314880 
0.0053423350097185390 
-0.0094823800782172870 
0.018676349069889814 
0.0029411970164398373 
-0.0087209722556273760 
-0.0028283258740185660 
-0.0017955693064193327 
-0.013081007462830002 
0.0053414616202251300 
-0.0086489559059464550 
0.0025931369687785580 
0.011060739926813940 
-0.0075944240327898270 
0.0039546280015252080 
-0.032471403749119276 
-0.0092098585603899650 
-0.0097738120947026850 
0.013095917108125738 
-0.0028283258740185660 
-0.0056078163920395260 
-0.014074086245255732 
-0.0016149705416968578 
0.0080456272240626550 
-0.0054871956717265260 
-0.018171943174128070 
-0.017739382460722805 
0.0056806433481448990 
0.010053064870986811 
0.0071535915556838690 
0.0080456272240626550 
-0.0028040913843768340 
0.0083802003612747280 
-0.0061194629922238790 
-0.0016149705416968578 
-0.014074086245255732 
0.0046693153668658910 
0.0086568091030465020 
0.021620757317665742 
0.0036225647649030140 
0.00018455455964524970 
-0.018821530691171630 
-0.0086489559059464550 
-0.014188092744438366 
0.0071535915556838690 
0.0072643128158868620 
-0.012861378566793390 
-0.0065158816019207160 
0.013095917108125738 
0.0048272412209712650 
0.0040169391047063110 
0.0043248675845121150 
0.00016090739159544987 
0.014692409047570900 
0.0028529537707290267 
-0.0069651990505850620 
-0.0017627696860666323 
0.0041060538759065705 
0.0056847454222218620 
-0.024167868238158516 
0.0095880148406443700 
-0.012909657386698690 
-0.0024090091491866636 
-0.0019713438544118234 
0.0056806433481448990 
-0.0026597176165900530 
-0.0016987639521989489 
0.017578852727716775 
0.0056806433481448990 
0.0056847454222218620 
-0.032471403749119276 
0.0092582382597882730 
-0.015792702732702950 
-0.012042425211905440 
-0.0086489559059464550 
-0.0057220602734406115 
0.0049584311989660250 
0.0048272412209712650 
-0.0029079111316383877 
0.0092582382597882730 
-0.0016987639521989489 
0.0095118069294052150 
0.0074184160982157950 
-0.017739382460722805 
0.0056847454222218620 
0.017533570557747968 
-0.014628644267204477 
0.0053058545542134340 
0.016579935708701532 
-0.012909657386698690 
-0.027100368793026310 
-0.0058131094152753850 
-0.0021592024750903750 
-0.0028172190126129040 
-0.0019974582975432866 
0.0095006536618278280 
0.0041800766219310505 
0.0084619756467157450 
-0.014074086245255732 
-0.0093686109664986620 
0.0056847454222218620 
0.017342890187200150 
0.0041800766219310505 
-0.0055344646241255600 
0.012285083380493068 
-0.015843440128570130 
0.0018414887054692777 
0.0014712036510019979 
0.014882535004952643 
0.0080666749522547660 
-0.0020372854205668585 
0.014424964789823077 
0.0056421672574412905 
-0.0094823800782172870 
-0.00024032278992241994 
0.0027347230937532810 
-0.022483633299606284 
0.0035256669922666974 
-0.026897492362787552 
-0.0075944240327898270 
0.0024313778482737870 
0.028815825086657806 
0.0048272412209712650 
0.0095880148406443700 
0.0050958876094085075 
0.0045390631093111130 
0.0079205061025629050 
-0.0052423788889173950 
-0.0050625130936143020 
-0.017687739197881323 
-0.010417579070290003 
0.0069831619359986500 
-0.0022829459588700855 
-0.0040775935083507210 
-0.0086982519814807810 
0.0099105042680539900 
-0.017563242018392940 
-0.010393224312806688 
0.023239900979745775 
-0.0015682945545688486 
-0.0052423788889173950 
-0.0050102863016733650 
-0.010534526290432795 
-0.0074590235001646550 
-0.0029079111316383877 
-0.010417579070290003 
-0.0078703785961652740 
0.0018414887054692777 
-0.0019974582975432866 
0.0053058545542134340 
0.023143508365214850 
0.0072371884390959620 
0.0072450952253704990 
0.0056806433481448990 
-0.012775898587590057 
-0.0010404458058188943 
-0.00039590878295568536 
0.0056464416256677670 
0.028660197891643223 
-0.0092098585603899650 
-0.0093686109664986620 
0.0080666749522547660 
0.0072371884390959620 
0.00053397294403779040 
-0.013081007462830002 
0.0028416757720549205 
-0.010769868023370667 
-0.0026625361952592594 
-0.0024803953452084836 
-0.0019974582975432866 
-0.0053063809965838150 
0.032815125049333350 
0.0052809022099955460 
0.013700668317646426 
0.0083999632525144350 
0.0079205061025629050 
-0.013225119845288055 
-0.026897492362787552 
-0.014307800201909124 
-0.010393224312806688 
-0.032471403749119276 
0.0084619756467157450 
0.0018414887054692777 
-0.00060973507826077470 
0.00014702056683750314 
-0.0016987639521989489 
0.0082007796243275900 
-0.0012041091148634730 
-0.0056662536638664070 
-0.010759760067497468 
-0.012678839989288154 
0.040183937534693740 
-0.0087073490778979980 
-0.00060973507826077470 
-0.00024032278992241994 
-0.0088432335329379220 
-0.014074086245255732 
0.064628806839058560 
0.011078448943800568 
-0.00024032278992241994 
0.0056847454222218620 
-0.010759760067497468 
-0.0066491809648035090 
0.018953322712519760 
-0.0026341679605295470 
-0.020941334960991223 
-0.0058897607207137050 
-0.0026341679605295470 
-0.010134085599985668 
-0.0045836161821122140 
0.0056847454222218620 
0.0056421672574412905 
0.0025931369687785580 
-0.014188092744438366 
0.0067552786599394620 
-0.011445493194305480 
-0.0016987639521989489 
0.0093905283384314880 
0.0036119781553834267 
0.0025709885830679820 
-0.0028491947981651566 
0.014058452365336200 
0.017533570557747968 
0.0080193371693214370 
-0.0035498120020251924 
0.0062909055991149650 
-0.010262988378156240 
0.0053058545542134340 
-0.011445493194305480 
-0.025434396771131700 
-0.0028283258740185660 
-0.0076882082485779590 
-0.0068458492472235600 
0.0049281342750329480 
0.0048272412209712650 
-0.023546712864458558 
0 
-0.0034421670768585346 
-0.0092746343240965700 
-0.00016600965876721418 
0.026215341767568140 
0.0051276975658174150 
-0.015258257750795381 
-0.026897492362787552 
0.0080411541891545290 
-0.0026341679605295470 
0.0056806433481448990 
0.014083850314057650 
0.0063625217000525620 
0.0036225647649030140 
-0.010759760067497468 
0.0065726242840813240 
-0.013618088487014174 
-0.0028491947981651566 
-0.0045826049411772240 
0.0086568091030465020 
-0.0029479793858347930 
0.0013199092393551722 
-0.0017955693064193327 
-0.0034421670768585346 
-0.032471403749119276 
-0.0053146166169213120 
-0.014513258367703959 
-0.012688887394154140 
-0.011445493194305480 
-0.0016149705416968578 
0.0083999632525144350 
0.0043248675845121150 
0.0069831619359986500 
0.0072371884390959620 
-0.0028491947981651566 
0.0072450952253704990 
0.028815825086657806 
0.015178940208224282 
0.023217579196351800 
0.0072136154327734105 
-0.0049048649585026090 
0.0050958876094085075 
-0.0097738120947026850 
-0.0011977123952734030 
-0.0016987639521989489 
0.0082007796243275900 
0.0050958876094085075 
0.0059374660133971460 
-0.0016987639521989489 
0.019116973978541882 
0.013095917108125738 
-0.0065158816019207160 
-0.0057220602734406115 
-0.026897492362787552 
