solver_type L2R_L2LOSS_SVC
nr_class 2
label 1 -1
nr_feature 7999
bias 0.0000000000000000
w
0.12480680894743154 
-0.21373096498559174 
-0.12903964922201690 
-0.13055820886842323 
-0.049324208357828140 
-0.15270879032373000 
-0.11363995929188082 
-0.13525854858007880 
0.18988625510285737 
0.18433765028349908 
0.20144553211065128 
0.13592236438262123 
-0.10493371768381900 
0.091607756698067460 
-0.087285774196280340 
0.13730337887870375 
-0.045783274139628140 
-0.13176632255627832 
0.074121007448193920 
-0.048451170146814740 
0.11890579454037528 
0.078532038360106720 
0.10236749172391586 
0.13819327147133845 
-0.010529097591361457 
0.097429626300749820 
0.060962248196727730 
-0.10783572162918593 
0.091449387808817440 
-0.12279153586515977 
0.13556053364974177 
-0.061722931571459895 
-0.071741846140175150 
0.11791044079054443 
-0.072991070050293080 
0.068465069568011240 
-0.10607633512666376 
0.058349969819266150 
-0.090616111536789180 
-0.069148709947762340 
-0.12888799649098215 
-0.068003262189768200 
-0.096971110485986530 
-0.047897398017099790 
0.10152743214454166 
0.081444049090866360 
-0.12994869733062260 
0.082997594231037420 
-0.070638494728402960 
-0.045615872558154094 
-0.023925711467423956 
0.18799922356981760 
-0.052185410317912184 
-0.11880786913199534 
0.097121788859366910 
-0.11444267653566206 
-0.091431239929126050 
-0.076496648657279410 
0.070439823438444530 
-0.063415724146952290 
-0.070093135395783590 
-0.043491136990558640 
-0.057862126084844830 
0.10689609407672951 
-0.10401935154857864 
-0.068250628610069020 
0.048729052387877990 
-0.013002386915552869 
-0.044354356019729646 
0.060158377133167370 
0.078235987365462740 
-0.068577539078096200 
-0.036951882192561400 
-0.048523107596495606 
0.044973910049820370 
-0.075870378157199270 
-0.078897538268867330 
-0.046003625916671446 
-0.059346635052806976 
0.081379488436105730 
0.13587577479054522 
0.038191642184230380 
-0.11804818550078247 
-0.083935323956056020 
-0.083106279759054800 
-0.041088298037129586 
-0.061356713604205030 
0.11681952082607225 
-0.067036569384805790 
-0.084265481799500830 
-0.17788567629758892 
-0.12260827287228156 
0.073699877216267700 
-0.072102377879062550 
0.079928603428036140 
-0.13325514366711230 
0.10869961724919330 
-0.059448773627722405 
-0.039682036270969800 
-0.076387380414696090 
-0.043727848160133906 
0.067509999958315200 
-0.065672988921317390 
0.058957856585186326 
0.057832177370260220 
-0.044629943157926640 
-0.073379992487849200 
0.085165661782564180 
-0.022974449895779570 
-0.046698422576440454 
0.17589366563002545 
-0.11465837486491276 
0.065356650948783550 
-0.039672037385291790 
-0.026609396973901772 
0.042081021829951320 
-0.049690927818035870 
-0.070139647621361950 
-0.038217031388123430 
-0.13836617980696791 
-0.11917247599043976 
-0.078308071264626720 
-0.066731112039858580 
-0.018565589347897888 
-0.076276271462235880 
0.059117115788408150 
-0.047386346416457004 
0.10740040184140891 
0.15963748496166297 
-0.018289593371121470 
0.086802433928931360 
0.059641620880777060 
-0.039342503707284655 
-0.10495374581579218 
0.14667304854332700 
0.098771188848412810 
0.11044788666737980 
-0.075448455385692710 
-0.13073868908064323 
0.10968040224964201 
0.17281971956852610 
-0.056391097563333210 
-0.081950972600392110 
0.095264700054902370 
0.048679549317875270 
-0.054219646793683636 
-0.020326272636076875 
-0.062856527992403280 
-0.092856244740793560 
-0.10965421933730775 
0.12733817521221700 
-0.046638702169658820 
-0.10138419929345645 
-0.096324321273536890 
-0.056963681614392914 
0.098944631248718900 
-0.039064091280875500 
-0.087759172985856640 
0.11145479612017287 
0.12799322539455707 
-0.040107006238262640 
0.10521433699703930 
-0.075595238236942770 
0.042387615726797080 
-0.061063422124180400 
-0.017155759694077290 
-0.028460662293024717 
-0.12852924817331923 
0.086495121646871950 
0.055739357810311044 
-0.053825693713144905 
0.082347700384101010 
-0.047591953791693745 
-0.042998449510455686 
-0.080186954034307710 
0.045280878101778756 
-0.040030046996250650 
-0.080186954034307710 
0.097684552676840120 
0.066439213222209480 
0.13171345580029717 
-0.072371939557492710 
-0.046299438621092970 
-0.012225611366436190 
0.037069462434861520 
0.064678214084423230 
-0.089920087084336200 
-0.089983423456263520 
-0.091056458071587030 
0.024766673730090106 
-0.083903498088464380 
0.075355783368707690 
0.11995775782751430 
-0.068827911869355020 
-0.10041419501278431 
-0.051031201010750510 
-0.079233119182887680 
-0.036124849267217280 
0.066995241779931980 
-0.055435420769264110 
0.057825420327205220 
-0.048789199237952205 
0.10443246849926160 
0.077550546879922040 
0.074005765410522530 
0.073377572432189860 
-0.088423124957323810 
0.095892214738176290 
-0.047638878798982540 
-0.013430078916193368 
-0.11577667617911856 
0.065469999574398140 
-0.072350862819762880 
0.11740224056174678 
-0.069968050350614110 
0.11530519851907582 
-0.035328619944083116 
0.027705077185391926 
-0.029739255696393047 
0.088930090417779300 
-0.063547664738664800 
-0.050030054729946290 
0.096540714901378400 
0.041413408166752540 
0.13061210984034835 
-0.058772450834775544 
-0.055311736411828640 
-0.026343237223743442 
-0.024751041556036378 
0.069060484301843720 
-0.032270032143978970 
-0.012916720944433000 
-0.067796549795393580 
-0.058189096271980434 
-0.022410479389536293 
-0.046877750544074650 
-0.054378296773677885 
-0.030605815372090480 
0.047986786132583860 
-0.052069262012523390 
0.044478548805419980 
0.028983647534877633 
0.10508706192583461 
-0.042336998731359010 
0.058381629068198480 
0.053363878387614510 
0.032903269957917620 
0.086092379398354890 
0.031051912734746970 
-0.053837018178914516 
-0.077829730926089870 
-0.071019332875290300 
-0.096330718450873990 
0.057216510967020450 
0.10509372424618280 
-0.055643018426474700 
-0.055233040434223720 
0.033994506437126405 
0.064354090924245570 
-0.061894087544017310 
-0.087499645791160540 
-0.037682830449947050 
0.098094214382443560 
-0.049746737256381230 
-0.035091257468749080 
0.084013993431331910 
-0.052473443787435960 
-0.045173470303404566 
0.068884894771051160 
-0.050178193838215160 
0.039244732123578784 
-0.056486820921004610 
0.048071896075678744 
-0.051245710230734360 
0.10577287577587884 
0.083475801048021900 
0.035230954254422776 
-0.056458879584427094 
0.063472525222803860 
-0.047092004678616160 
0.031128733827687886 
0.050889430990394655 
-0.087654118038266880 
0.048747962735331550 
-0.070129899638677020 
-0.088361245878725440 
-0.073109873120204770 
0.085168990125779190 
-0.037376883689511906 
0.087789400266544010 
0.067454268224275170 
0.079819932321426520 
0.10113074291422992 
-0.083109968638485080 
-0.068713272529614600 
0.064135691354780910 
0.058949711065334615 
0.031212293586952580 
0.054896858503838075 
-0.076500352564645190 
0.085449211737855840 
-0.17491489201895700 
0.076721062353225140 
0.053062463284572240 
0.089246331698603300 
-0.053836394423488705 
-0.057351291668640066 
-0.023068606385838860 
-0.076332920831077340 
-0.036524469167386220 
0.11261590660780380 
0.033022514032462710 
-0.067375078429316930 
0.085950743745032170 
-0.071395079561703750 
-0.046767235882149960 
0.059988867300161670 
-0.030797548379307555 
-0.087301598965607130 
0.080147791913824910 
0.055591559036843985 
-0.065586351812620680 
-0.076053012890631850 
0.076228253274326530 
-0.019881220597195777 
-0.10005165508636546 
-0.085912900043977040 
-0.039175068613229190 
-0.037500303623630820 
-0.053837018178914516 
-0.10005165508636546 
0.052177276927190160 
-0.048044698105079074 
0.026822155696461195 
-0.039745916643412870 
-0.050549606775210580 
-0.046404989512149100 
0.064516079080964560 
-0.044709731447908340 
-0.047254309935281200 
-0.062526450078550690 
-0.10628983453054416 
-0.060635336965852646 
-0.077215280059736410 
0.044913339053808565 
-0.034606012499909740 
-0.041366408468998970 
-0.019146576237811845 
-0.088786039398174200 
-0.027088956315204814 
-0.090261099585191920 
-0.078909940334280590 
0.074065659755488230 
0.073170337219691340 
0.050195699092484520 
-0.034506056772702350 
0.035690702227015820 
0.054526335718354540 
-0.020247094055356435 
-0.053945363742904760 
-0.020866235023111820 
-0.11118891800080043 
0.059046198105449005 
0.064832663545426600 
-0.060355049671499320 
0.023010031441552344 
-0.053483764027773300 
-0.046470810183593660 
0.034298789398674770 
-0.055341278497541390 
-0.065057661495833640 
-0.11053925682848226 
-0.031844134655714784 
-0.043337966461953446 
-0.047324574484457550 
-0.057996526256979510 
-0.059670076581222470 
0.055768595607346934 
0.089206533983144990 
0.047677629202866540 
0.046051681399081980 
0.068445056881742310 
0.039649429351389870 
0.078049411655851870 
-0.019449117444864585 
0.082512304615557280 
0.13588333676777076 
0.16914937373352018 
-0.057806390630306514 
0.073815934627593070 
-0.078909131845012730 
-0.026934154241654157 
0.067783202272105140 
0.047216832367183540 
-0.065723540642130250 
0.070700815597125380 
-0.042829328861838740 
0.060800978937996984 
0.071090827251303800 
-0.065124717593553290 
0.038035765184094926 
0.041625271704681650 
0.052055763219753240 
-0.035838445642136080 
-0.11669619157399150 
0.062291959241495390 
0.035341281307331460 
-0.062166501163034880 
0.040644937869708520 
0.034065354481797220 
0.081503886911349580 
-0.026704476627582500 
-0.027584335553459852 
0.055645701001751820 
-0.13074931857247654 
0.045715864729172060 
-0.048645744496724076 
-0.077768566540447980 
-0.051748439246515460 
-0.039769582962780554 
0.12199065972644785 
-0.079590867069562230 
-0.070607203186435070 
-0.088717615027302230 
-0.041951571173272620 
0.061504152753573064 
0.057359133532354750 
-0.068746900193082130 
0.10108258113293295 
-0.030585762501915010 
-0.042304527477912320 
0.048474388514902010 
-0.065127907510140650 
-0.051525404879784760 
-0.031757123370914690 
-0.027134019183464714 
0.068524430134542830 
-0.089432312516246960 
-0.090162820277696360 
0.070518831087760080 
-0.045525187954195696 
0.11329369789925633 
-0.051671771553157950 
0.047090373999186040 
-0.028580220035136914 
-0.10150303548876288 
0.027183665432700274 
0.042341186569520700 
-0.079250738153644390 
0.062662160610707130 
-0.016570913423985410 
-0.065970401291130020 
0.059761033818380530 
-0.041669382040719134 
-0.10497818941605525 
-0.028316902238530048 
-0.10500617076128381 
-0.058557464158758040 
-0.085496897582530780 
0.035307058088268720 
-0.0095628881596662280 
-0.11523967116492978 
-0.032176649609757930 
0.091410700821645530 
-0.0028103676728861056 
-0.028514207059966640 
0.053934004176315110 
-0.036373314734007664 
-0.059072767993239480 
0.034496476588801170 
0.079484819554122720 
0.083802121214399490 
-0.010985615496348912 
-0.051757658793749240 
-0.089382455697450320 
0.072592308945046480 
-0.10067553251309780 
0.053973919829171640 
-0.084030771999730160 
0.079294001139541230 
-0.046879258438474560 
-0.049656597876928360 
-0.047788559930711150 
0.12717944828212852 
-0.024941254713762157 
0.091824550710300740 
-0.040219995765295675 
-0.096527122243711270 
-0.056359508239345525 
-0.076555187703363600 
0.062041456562130560 
-0.11411429429705894 
0.10216570484617549 
-0.12104687581676868 
-0.032284771220147490 
0.075959357883199920 
-0.10493401655259263 
0.11832839885965488 
-0.022929076373257203 
0.068492313811107100 
0.041545752515010075 
-0.0084581419446310420 
0.077063287363174390 
-0.057179153415229285 
-0.019659133767332984 
-0.062287345732291100 
0.098782963338108450 
0.15166684680672435 
0.042043203984712150 
0.13615712001105530 
0.10964443260506075 
-0.074964795322573230 
-0.066177760655540000 
-0.075230409875955970 
-0.0065019038230732734 
-0.035863551655398965 
0.10976316427012545 
-0.028967730747428780 
-0.10441126589076224 
-0.029893536643457260 
-0.053562928779736330 
0.029614498431549300 
-0.046737298855071316 
-0.046086389498168970 
0.080074466163919800 
-0.062215429600934874 
-0.015850652082784770 
-0.082372857407456840 
0.0010490652961923112 
-0.0022184107280770000 
-0.018419235915605413 
0.024092669663276800 
0.063070675855873610 
0.044917604575438210 
-0.014446464337909370 
-0.017879046374665000 
-0.040809346963399810 
0.046150210759524370 
-0.061170971700072116 
0.010748407636081397 
-0.026298637672930333 
-0.018329241342409960 
-0.018419235915605413 
0.040391902562878036 
-0.028944387303383116 
-0.035913124529997510 
0.030339873309085816 
0.022381801690959102 
0.068836349148305800 
-0.029866222581084515 
0.052062391596526564 
-0.033071879444805340 
0.010263178291117182 
0.0057838816437335070 
0.041634613499297236 
0.0098320322922027650 
-0.039292436231055020 
-0.074730996137869380 
0.033651768982977240 
0.042781683739019660 
0.048985807025899380 
0.063477689258997340 
-0.012715076834679224 
0.039380795199330916 
0.028101861905461857 
0.067511590354898180 
0.031150356277121200 
0.049194276534204856 
-0.084297406360224470 
0.038441167791005560 
-0.033475107095259160 
0.023847472751975556 
-0.028845107706335410 
0.038309838156376000 
0.026038390981243280 
0.031583920786257690 
0.059138539847058004 
-0.023816246719745273 
0.034091993386603646 
0.22531437200250850 
0.061695292291575825 
-0.013528320004324374 
0.024840956408920162 
-0.088927927569448940 
-0.070505209651750820 
-0.042645937353364055 
-0.050913597418896910 
-0.060724659907843920 
-0.060980811364008420 
0.088224329626315050 
0.017416016260931633 
-0.024410468174353796 
-0.017140419262146104 
-0.064602828515349670 
-0.024456744508586450 
-0.028770512718943710 
0.029564401254927020 
0.12015737610005774 
0.016713375241694424 
-0.029995636881744853 
0.057307435989733140 
-0.032786446041080980 
-0.059625661579170354 
-0.014113936735043263 
-0.010896769973378184 
-0.063348770544496300 
0.066703774347332240 
0.055877122927224666 
0.020278031749679033 
0.13092126363221596 
-0.024693687493572647 
0.029832310295662100 
-0.023273525727669792 
-0.066126417118097400 
-0.010633740283277168 
-0.011110558177035101 
-0.0077202557766344580 
-0.026418397395569470 
0.045131885709054140 
0.032933631703343000 
-0.042531761931466870 
-0.036087312265256270 
-0.055260586288026530 
-0.058030956383116840 
0.045529001724198560 
-0.016695568825217135 
-0.023260608693332570 
0.015783392462184603 
0.066141401404551580 
-0.0078423798846566880 
-0.060915269880569920 
-0.030745778003830212 
-0.036245504267137275 
-0.024456744508586450 
0.099781576592890530 
-0.10254579377324857 
-0.040700869940819530 
-0.075147455077313030 
-0.0070182386828331780 
0.069233892367508490 
0.042421308264748110 
0.046350858890303750 
0.038227401056030966 
-0.010286051762991317 
-0.069619558368716360 
-0.024771322793936332 
-0.030770769568075243 
-0.051447974292499280 
-0.025743088504698138 
0.070617178150772630 
0.035128209379985300 
-0.013070889060323174 
-0.018701989758014830 
0.057461709496832956 
0.067553983322639930 
0.12498944629947897 
0.044209998776625424 
-0.037485387370505610 
0.047164151829590245 
0.019653507656790750 
-0.020288839698050024 
0.051581832262404910 
-0.058000110174506980 
-0.10487013635788245 
-0.056722246163126890 
-0.049201984903578950 
0.010748407636081397 
-0.028796860528481696 
0.10183944406215292 
0.069827364769462140 
-0.094957806370317920 
-0.027165793811427547 
-0.052764146163804496 
-0.042258690502816054 
-0.018518766254250860 
0.039256828788445530 
-0.026418397395569470 
0.0015416197545128013 
0.060385751800742560 
0.055105581776734320 
-0.082651311476118690 
0.060258321370806625 
0.032958241036143270 
-0.082161072227454560 
0.023945048874139074 
-0.028189517565070520 
-0.041751375251591510 
0.038865826760704280 
0.035608279671400005 
0.024719320208611156 
0.026685240726755596 
-0.034293503675773480 
0.031346888041725730 
-0.024614614534336830 
0.021171767649259873 
-0.045198177420248245 
0.047037413516484060 
-0.061423381517091515 
0.086141953272735410 
-0.035799631923244354 
0.041504949678094040 
-0.041173467683826716 
0.090673436002983120 
-0.047227460738958670 
-0.070488042349851220 
0.035243758051606344 
0.020177261703082743 
0.029140074895884390 
-0.061028058447130176 
-0.043348369139214040 
-0.061265681349813465 
0.030596492577592813 
0.0099843839723209900 
-0.038994906453427416 
-0.044272111013025160 
-0.073311681825277110 
-0.028556849056591165 
0.052892352899773065 
0.025114591137051005 
-0.027794895994928407 
0.064639008535603990 
-0.029412006895352960 
0.023528102391440250 
0.10109950314018630 
-0.019570199905687754 
0.046005126058090616 
0.070911603241434470 
-0.023273525727669792 
0.029482942234976852 
-0.044797949242771380 
-0.018302048411963662 
0.024640164257555240 
-0.0054193816754661970 
0.027686389864015868 
0.021792272244744590 
-0.015135104358390942 
-0.052706732373281814 
0.075451989210864280 
0.033251493152180615 
0.069526504756435880 
-0.043200669623591065 
-0.029533041434234140 
-0.036534734613267720 
0.034073029256188075 
0.045454210378050400 
-0.032578606979714480 
-0.044601602153210960 
-0.046342339883117050 
0.028492555691341560 
0.021050925025440557 
0.026695252270666405 
-0.052745787107034786 
0.025394674272908358 
-0.058860099051220104 
0.025402591661726467 
0.047064305909727910 
0.086111900925554800 
-0.052802977907282810 
-0.050516801707416220 
0.030777920345604130 
-0.040009274747098190 
-0.0090883293984841300 
-0.044191242727127024 
-0.035613421411999520 
0.0014088896276775193 
0.045425876781284950 
-0.050611529610107800 
0.083796264514145070 
-0.0073543695671393010 
0.034144112140629160 
0.033068250794188100 
-0.034618678587288690 
0.041436380869129860 
-0.069240537489593650 
-0.067709398678162880 
0.032934620594328210 
0.049182963223589420 
0.082776535653962040 
-0.081502611223856920 
0.021274628545884473 
0.047697099003133715 
-0.048539903617064160 
0.035913700514833630 
0.085302668340686530 
0.070984528166773880 
0.038552673867624440 
0.022616458927399040 
-0.010274620493056367 
0.039698061032496464 
0.036070170224493500 
-0.026938532734973770 
-0.033309337155105354 
-0.015512765723385518 
-0.093193376087219880 
0.089869417095219840 
-0.099912131589262250 
0.055861936472119456 
0.10075414514120600 
0.025137000257957263 
0.0057838816437335070 
0.042858646392107194 
0.012028705823300605 
0.038947866908546740 
-0.054070904454431740 
0.031906828896082144 
0.043835384685495000 
-0.063827585816133170 
-0.10961900370535814 
0.081542833308682050 
-0.094701050493680440 
-0.065052926096118290 
0.048392512612213830 
-0.043531804167617910 
0.017924083793496588 
-0.052780029057153930 
-0.016240577632401772 
-0.063306696837382060 
-0.055762276995964180 
0.15865764224025883 
-0.14307596298938594 
-0.026583176565888440 
-0.014113936735043263 
0.040040708510560570 
0.037898227161044120 
-0.025298358002749082 
0.034788491313540450 
0.059353503888797370 
0.056547685478987746 
-0.029995636881744853 
-0.014263657194008093 
-0.044283757971888360 
-0.032791084696475944 
0.15331374223816850 
-0.061904022827943064 
-0.072500876137480100 
-0.074292949472700800 
0.11410590146315598 
-0.050958870232185795 
0.054003711847006614 
0.11131104896631266 
-0.034294136240721860 
0.023856769408155010 
0.032356760437990510 
0.026906598191913888 
-0.039031194123377896 
-0.023545914321089014 
0.11807651353040703 
0.037405530647770620 
-0.022502934877440813 
0.023216723978300453 
-0.031189204371243503 
0.022820385978263540 
-0.037233059718207874 
-0.041255868160388370 
-0.0071944480371758750 
0.084819723091930000 
-0.021709916244746864 
0.039798761827302160 
-0.013660360719642736 
0.14648238835404104 
-0.072723477348004160 
0.021432422704883967 
-0.049393763212353524 
-0.041353670631004270 
0.11893355002489907 
0.031055515548660463 
-0.042436786278127275 
0.050282397444778420 
-0.067082546061202220 
-0.049393763212353524 
0.027721910930845615 
0.078736323489333560 
-0.032100592149394390 
-0.044303149773241990 
-0.024181469080684796 
0.041253387854370300 
0.037112147503257120 
-0.051140768934776490 
-0.041675613816615840 
0.024318522424860788 
0.032691863422967750 
0.015783392462184603 
0.026450814480540190 
0.034788491313540450 
-0.0016335752076334716 
0.024086410026676440 
-0.045084897135057290 
0.051416472314619790 
-0.010221486902076499 
-0.071586434502100530 
-0.049963049533591180 
-0.033691634343333464 
0.080652526581861600 
0.081310772549398630 
0.089316091116659570 
0.028542917822266204 
-0.039802512081174490 
-0.037459467678762030 
-0.072001351281037170 
0.051226774214911690 
0.040387426068416690 
-0.015005744320566684 
0.026403670534957794 
-0.026418397395569470 
0.018875966942168440 
0.072114865917204940 
-0.040456466737335856 
0.038615670655135890 
-0.078847217146299200 
-0.044016329258965190 
0.10132905760513272 
-0.059766672844275440 
-0.031630285356720510 
0.0085459756793235430 
-0.075350938106921440 
0.021941406401358710 
-0.030843024185294346 
0.061806755891280420 
-0.012025316122625262 
-0.041458035476883495 
-0.023816246719745273 
0.058555861264387170 
-0.026877410481018528 
-0.054530289228713676 
0.017245329583482846 
0.069656686713381710 
0.017623788756246456 
-0.062591199194246690 
0.020432788478174355 
0.023603432614190010 
-0.043193397898073160 
-0.014453128626746333 
0.024086410026676440 
-0.024273583476379996 
-0.019100344302934380 
-0.030643580427818756 
-0.039514315373814230 
0.030783442776986324 
-0.012009983485879167 
-0.014446464337909370 
-0.017836603390928442 
-0.049772653342217690 
-0.057504384788421510 
-0.071593453096566260 
0.054354867954815930 
-0.048065510946612530 
-0.088079649934559980 
0.13488225568585008 
-0.13671199241500379 
0.085916795965028500 
-0.018887530735669190 
0.041820245711077106 
-0.029826102171952716 
-0.018395775385871640 
0.021941406401358710 
0.090821536240571850 
0.023114064834627433 
-0.028609999868828430 
0.036480675776719520 
-0.024739074778695747 
0.077693501710274490 
0.055669556381856650 
-0.097236701598030450 
-0.0099560282186795850 
0.029445911428343590 
0.091548613788480700 
0.055799997405896314 
-0.019972969025316735 
0.053710619609076960 
-0.075708597594052560 
-0.015079009722259753 
-0.019972969025316735 
-0.033785026756088590 
-0.0078248116014240660 
-0.014485551735905124 
0.033492196956707610 
-0.037814956789379114 
-0.014208021721355794 
0.072664256971320700 
0.079153281339181510 
0.045272840563496840 
-0.057300324133667210 
0.034022534955773766 
0.081291808788042010 
0.027001659954562482 
-0.0063730838868518176 
0.046054270258695530 
-0.070825836169822480 
-0.052144405060353080 
-0.027681476015485860 
-0.067989431570095610 
0.027440343077294344 
0.024687061919838960 
-0.027892129958629615 
-0.065593324119193510 
-0.033987727346616196 
-0.0054714704326213720 
-0.031766804605215130 
0.079056060314419890 
-0.064207883192726480 
0.032398097015944940 
0.026807479816358316 
-0.048568000018519700 
0.071965939162192360 
0.11697891172930473 
0.044603563048063270 
0.057296870953834796 
-0.0040977039256351695 
-0.037954236798800990 
0.024777163447782226 
0.060131942948609030 
0.027674040306330118 
-0.047781588613765960 
0.028223436576418567 
-0.037417296609717590 
0.051280865768871010 
0.066534853463991740 
-0.0016398508164899726 
-0.046487049013984870 
0.079056060314419890 
0.038431573663382410 
0.0021672301220531766 
-0.033355899778368860 
0.034999759259981854 
0.085901525210130990 
-0.031172600747369300 
-0.046572745138092160 
0.027976140773330653 
0.041047673600288624 
0.036100421033787340 
0.046230239088261230 
0.015405294825822974 
-0.037233059718207874 
-0.014263657194008093 
0.036160031040825850 
0.073348052184201970 
0.016587377585216553 
-0.073407070065977990 
-0.041798463236920706 
-0.060757585874991600 
-0.0054808555262697515 
0.035096544012319764 
-0.018048564199222964 
0.16798591454848590 
-0.022627995436689474 
0.045243575264546310 
-0.014263657194008093 
-0.094111793596828770 
-0.015833553578067313 
0.057914484672811840 
-0.030408060536114306 
0.058051013188377250 
-0.057841900322579130 
-0.086420960448209070 
0.016717178340479175 
0.018154284345747280 
0.082197373676812980 
-0.033447656955080030 
0.051491687496682620 
0.020740412884683300 
-0.021778507045244377 
-0.057549736190451076 
-0.025560408638129105 
0.080434986917953130 
-0.036714655211576144 
0.049964559599580106 
0.078168802255461370 
0.057408081669959600 
0.070348570449122960 
0.055184681180696915 
0.047691394764637630 
0.065814704326683450 
-0.029021102485000950 
-0.050957244876829320 
-0.043500818622691485 
0.030914496496429487 
0.021058515492383682 
0.075459810908605720 
0.059193668099027555 
0.060963425542913010 
0.035443433517800360 
0.038119975830841580 
0.076332855961102190 
0.026450814480540190 
-0.027648138051148990 
-0.019972969025316735 
-0.019453615467439806 
0.039587580953839296 
0.057285921773338994 
0.016599064234558370 
-0.0072572116294371030 
-0.054631686005291720 
-0.040250555757363030 
-0.094083795772475900 
-0.065458448081976870 
0.021101853627226480 
0.021432422704883967 
0.037381344145403720 
0.010748407636081397 
-0.039010788195361490 
0.028213227379754630 
0.032398097015944940 
0.024674932720477450 
-0.078674941077698400 
-0.043387836432760210 
-0.082651311476118690 
-0.025496208480799053 
0.046958123651693610 
0.093938342804653210 
0.067751788727499620 
-0.044442068781219980 
0.027721910930845615 
-0.020777892009090410 
-0.037861334798432870 
-0.041239690468753226 
0.035685910723968886 
-0.059625661579170354 
0.052638084780655084 
0.065255138640824900 
0.026530455502582150 
0.033540273297091900 
-0.065593324119193510 
0.019347794716095292 
0.026641564863566662 
0.064573464959003890 
-0.037588494409439480 
0.072862387060738820 
0.043204021680814250 
-0.019942570370220188 
0.095203362848047330 
-0.029088362657756380 
-0.013528320004324374 
0.053884456950321620 
0.056547685478987746 
-0.030149418317755035 
0.030383517461074837 
-0.028681373079954640 
0.052703437725939106 
0.038777972550990360 
0.016664265521979850 
-0.041272429237506780 
0.036520747404074926 
0.043797184242951696 
-0.022277134198629810 
0.075141736154899300 
-0.052781483299654150 
0.041293262043129726 
0.099639901281502960 
0.086778941964864380 
-0.045575314628888210 
0.10109950314018630 
-0.050078589120666610 
-0.019244609775234612 
-0.064896388276912370 
-0.030009002287135215 
-0.072651172776637270 
0.041588971901252770 
-0.087077470637311370 
-0.040290883666322136 
0.043852754729777094 
0.065255138640824900 
-0.041878625843151940 
0.043130268696879280 
-0.043387130068078630 
0.072091607502627430 
-0.014014335142450930 
0.095128951561193330 
-0.0089292872073286140 
-0.016700819012415925 
0.038406956884841130 
-0.11299422422015974 
0.055978076311245490 
0.052068061134063655 
0.048806661186066004 
0.045494354249063720 
0.040243252503124260 
0.080720159445101110 
-0.022686781299659400 
-0.033433437845765740 
0.058468561628966130 
-0.030672453416939416 
-0.11019145015124530 
-0.12888603692669656 
-0.024414700633838327 
0.024351039612947784 
-0.0050882029363734070 
-0.043635453715384180 
-0.034909598366390560 
0.029960641782790336 
0.061439767606748770 
-0.050864225738014760 
-0.035613421411999520 
-0.014177772547377957 
0.055877122927224666 
0.029515879771307840 
-0.023778111070150647 
-0.063676657705732110 
0.040119654955460785 
0.091556082855006810 
-0.070688628953309860 
-0.034899336160670350 
0.076886216926502130 
-0.015833553578067313 
-0.015833553578067313 
0.052039005013751034 
-0.045198177420248245 
0.064841126330901280 
0.16047039291563690 
0.049230233606273730 
0.064831231568602330 
0.052680399267164270 
0.020960770336081375 
0.020021933469421577 
-0.044425380126976250 
-0.025390455275312748 
0.027733366243260622 
-0.045467155150828700 
-0.068968289170586690 
0.030255070610216740 
-0.025170284009152333 
-0.033316645207210960 
0.041770152215864054 
0.028854299825325530 
0.030777920345604130 
0.033599256271809720 
-0.045537914844367824 
-0.042129237772831396 
-0.018426308179471390 
-0.10966441000370371 
-0.016338960148431628 
0.059504517574747480 
-0.037410329300592930 
0.032096373769231670 
0.050649587498549004 
-0.038398361124379714 
-0.019723276423656833 
-0.060188569195573990 
0.017625200840991874 
0.040232633213017566 
0.015451285179390291 
-0.034293503675773480 
0.11720677742633015 
-0.087636640574724330 
-0.049508519267881634 
-0.028944387303383116 
-0.028347819544557614 
-0.025438308092120186 
-0.046752402991405890 
-0.019406466607833730 
-0.020456106805674780 
0.039674815243971780 
0.020919198019397095 
-0.0062391013104567370 
0.024560474205376194 
-0.021359943607827280 
0.033085216945795075 
0.037381344145403720 
-0.0046819867385718625 
-0.015693423790202810 
-0.031542270659851160 
-0.023339714344699326 
-0.024735056094640000 
0.047684836363424520 
0.025946155870897894 
-0.042332341708137570 
0.0083784462187902350 
0.020744570421709657 
-0.020666728932105916 
0.059146185641503370 
0.11697891172930473 
0.042613838973963080 
0.016479766808681420 
-0.023560050654858843 
0.028612686662510510 
0.035593808076051094 
0.024687061919838960 
0.040538566752340195 
-0.015833553578067313 
-0.0029484530337240914 
0.098415940340479060 
0.097394205181883920 
-0.028585808085858155 
0.015288454779315452 
-0.037051091640676380 
-0.056133933323460214 
-0.060724659907843920 
-0.10606540498469597 
0.054419180841408650 
-0.043347257725288885 
-0.048568000018519700 
-0.026282124636776920 
0.019678595980496680 
-0.079169077442619070 
-0.0046819867385718625 
0.092093425681436650 
0.046162870594658230 
-0.037269345349614380 
0.034144112140629160 
-0.053223828410295900 
0.048146610015002160 
0.033645866328004210 
0.033295401536563390 
-0.052144405060353080 
-0.023904456979859710 
-0.053768381706488390 
-0.082750084683419730 
-0.060391544759705276 
-0.023734946879625175 
-0.040214051566601246 
-0.033797758988721005 
-0.056251295212651764 
0.039413168444268460 
-0.049200661180033400 
0.052346268951243904 
0.050702822628582660 
-0.015792756006170194 
0.019669840273909870 
-0.084124323513063660 
-0.027457032543128250 
-0.034924084095448546 
-0.032551469807252625 
-0.042774292170591510 
-0.033741720358003700 
0.026956930866193756 
-0.044935200817327776 
0.039645992908079740 
-0.053954517011164500 
-0.029009912099951330 
0.072517796955674970 
0.019651849755290805 
0.053488804587120520 
0.018979400987425527 
0.023959573369089493 
-0.049662551715995970 
-0.0084506393018641900 
0.055499183071719034 
-0.016896546919553047 
-0.090730949299660290 
0.034934942331061270 
-0.030082991853285000 
0.010370954845851720 
-0.045663246315620670 
-0.12169278512358744 
-0.043569182452049666 
0.074217206941676430 
0.020177261703082743 
-0.10604172972695280 
-0.031723411148723530 
-0.014177772547377957 
0.040300751936582840 
-0.12134102526212814 
0.047406862153134690 
-0.033944451893058475 
0.068936144237321800 
0.041459631712593330 
-0.047037619728932800 
0.054762159550948880 
-0.018539217878688133 
0.035112920041545860 
-0.029026120558970487 
-0.044575413954414560 
-0.044900481345379300 
0.035735902535998725 
-0.037897207106836330 
-0.058345625478499600 
-0.079163147746850000 
0.039186488549125050 
-0.019817730513099915 
-0.018395775385871640 
0.052981619800053024 
-0.047012874933899024 
-0.081930290757948200 
-0.042972661734385034 
-0.088211757004709460 
0.095957152134793610 
0.028301788174088866 
-0.027814689873601948 
-0.011682349708092522 
-0.038508570768251570 
0.0098320322922027650 
0.062406783021079640 
-0.020731856443470628 
-0.053642634486681780 
-0.044303149773241990 
0.032691863422967750 
-0.030251028732408782 
-0.054526660441376200 
-0.043211862771579956 
-0.019405205672117710 
-0.022238348899194026 
-0.031070234500299526 
0.072060524972848500 
0.088865075586231760 
0.065421794998817850 
0.029772288988417760 
0.041459631712593330 
-0.015833553578067313 
-0.039348893878632300 
-0.060041761244942836 
-0.044149330519612694 
0.010748407636081397 
0.010748407636081397 
-0.11531280642738499 
0.083897983004076940 
-0.032707591501366970 
-0.014263657194008093 
-0.030786103513199436 
0.10377549983694027 
-0.019972969025316735 
0.070626897123615570 
0.027149688460459145 
0.064931825624747610 
-0.014263657194008093 
0.067592785196924480 
0.052713096400237280 
-0.027362153835713283 
-0.092215697068676810 
0.025402591661726467 
0.031098498278893560 
-0.035945181339211270 
-0.057343993613504500 
-0.020888778293003810 
-0.038247677040330470 
0.061241254967397920 
-0.054401803506520690 
0.038700701202219495 
0.070718832900700070 
-0.031172600747369300 
-0.028681373079954640 
0.036364105733686106 
0.019022029222376730 
-0.097386351183832930 
-0.043923308177249010 
0.072897364225718820 
0.026645372281577033 
0.10377549983694027 
0.071409096826256010 
0.078981589279786090 
0.032704392459221424 
0.028117518426900207 
-0.013232144028799162 
-0.013077291933104576 
-0.019312879177787297 
-0.054934411540506274 
-0.091854551535477920 
0.036170955876831390 
-0.056722246163126890 
-0.042645937353364055 
-0.035651697197686766 
-0.024399309648227698 
-0.011048705786979484 
-0.042842422479668630 
0.022750396686789070 
0.021693541928749404 
-0.051140768934776490 
0.017223381513971108 
-0.032705403195744840 
0.042776070264679690 
0.087339936792736080 
0.028725952325549156 
0.031544495318523260 
-0.066583397519220000 
-0.036023064625653016 
0.010714522611192148 
0.096096066601922440 
0.092073121667340770 
0.064753877691317420 
-0.017604748264542714 
-0.031606138253806420 
0.028741811334189876 
-0.034650416336849746 
0.10754078596660428 
0.031959506781851034 
0.059958942827202676 
-0.037290073843664830 
0.059403436727640216 
-0.13993739505799999 
0.029564401254927020 
0.037848699070022130 
0.062942903921844190 
0.030895458779177160 
-0.028463592563318863 
-0.032100592149394390 
-0.0031864507831101100 
-0.011434923569739927 
-0.021509150670366906 
0.045516489108559730 
-0.039348893878632300 
-0.054688862789552150 
0.050456490690721010 
-0.014263657194008093 
0.044804026071684794 
0.074144611361572340 
0.047059645567038990 
-0.032707591501366970 
0.0089824187157322480 
0.026645372281577033 
0.078126027282908240 
0.041047673600288624 
0.045453171512851760 
0.048178808300361310 
-0.075330451613336640 
-0.064621909286842250 
-0.023339714344699326 
-0.027146428543810920 
0.041385564779365490 
-0.012230829723766990 
0.021996376018371157 
-0.0046819867385718625 
0.017357167404841680 
-0.053347881176048360 
0.078757901019469580 
0.047430445158412080 
0.069679708874427260 
-0.027886741114952460 
0.038755192556914880 
0.039674815243971780 
-0.12212781746998115 
0.045272840563496840 
0.052395194593729294 
-0.060339547807625085 
0.031959506781851034 
0.061613415121877350 
0.034854724387579555 
-0.098506161471874130 
-0.064318952021431440 
0.033084015900730740 
0.10166606682073245 
-0.078202075651325530 
-0.11531280642738499 
0.024927164270630357 
0.036385299741769815 
-0.057429933978879764 
-0.040370235446838126 
-0.044296136662287110 
0.042424948482147534 
-0.040831853824994950 
-0.030033581421109090 
-0.025496208480799053 
-0.022432276061305656 
0.029324014294950930 
0.029077573019269994 
-0.020222323867855604 
0.060423177872974970 
-0.017144290627182424 
-0.0039815422238983590 
0.038923382944515710 
0.045688549083486005 
0.015339994501956774 
0.041863302248548880 
-0.014453128626746333 
-0.031998076778488226 
-0.073545202735523880 
-0.011336116393929853 
0.072594308527811280 
-0.011682349708092522 
-0.049184932698327286 
0.025573722187294570 
-0.014731598315875151 
0.049622960731075624 
-0.022277134198629810 
0.026698352337955220 
0.060114451095068090 
0.028101861905461857 
0.018229370095185788 
0.040596787484901640 
-0.019032154237568320 
-0.084808163556759060 
-0.014466528850130134 
0.065814959720654960 
0.030099283723136680 
0.059764639789694430 
-0.015790036475464966 
-0.015250744628941928 
-0.047376541826088760 
0.048343482896223150 
0.022537600057502930 
0.092295720956771060 
0.041921759227077485 
0.030881531723096073 
0.021941406401358710 
0.052544768476172660 
0.034885810104356145 
0.075259939744254520 
-0.0016398508164899726 
0.063959690148516980 
-0.011680922464774370 
-0.028423470629002410 
0.0057838816437335070 
0.028803464270388022 
-0.098541008739086150 
0.075392548756930510 
-0.036031307250633940 
-0.063894643255528960 
-0.043347257725288885 
-0.019170553088008104 
0.035376137214798060 
-0.047967281698802360 
-0.025745194786360040 
0.041547436443207000 
0.049919085713393370 
-0.063586309389184660 
0.097634409648900080 
-0.049254312011542590 
-0.027788065800271090 
-0.014263657194008093 
-0.037622880504631050 
-0.018395775385871640 
-0.028102341903379093 
0.029276928959046003 
-0.055551436248442940 
-0.026278286817450213 
0.041459631712593330 
0.041820245711077106 
-0.0016335752076334716 
-0.039856890744618820 
0.11840583759035467 
-0.072572688149130540 
-0.013197013864400305 
0.073763466986047630 
-0.019744758609839890 
-0.076775059423421760 
-0.012768036999855866 
-0.11512310483917744 
0.066835729914815720 
0.036345079929578965 
-0.0024008164080782206 
0.033208594400281230 
-0.057313766952858160 
-0.040197475105604420 
-0.052502674544383184 
-0.044816524013931270 
-0.040974468338771500 
0.034574280682233000 
0.030119880060339586 
-0.056444726538903740 
0.038106459986256176 
0.080015232172400640 
-0.042817117468155100 
-0.041902528392070613 
-0.029561730784955758 
-0.032972977295774320 
0.029077573019269994 
-0.069690688934914660 
0.038958008537301950 
-0.040796970050335946 
-0.054907512672609605 
-0.025443992218231950 
0.073550013722158050 
0.060259604755423725 
0.13004784125982170 
-0.022775080231834895 
0.0015416197545128013 
-0.035299604210288510 
-0.070505209651750820 
-0.018209468212109740 
0.043993075432425640 
0.068914119288939130 
0.065242669024836030 
0.042433051379636336 
-0.025521820233449800 
-0.049185569459596910 
0.062930819000325280 
0.049157687733013336 
0.020960770336081375 
-0.026247045415315005 
0.026403670534957794 
-0.021714111493968662 
0.036510495362351630 
-0.10289714861905852 
-0.040168566608339730 
-0.0020759240710858920 
0.077816808905550620 
0.062980189253743230 
0.084338710587105130 
0.031055515548660463 
0.077782081523594850 
-0.072855072080880820 
0.050782181763009070 
-0.025496208480799053 
0.034208938191194735 
0.040788100059668916 
-0.067989431570095610 
-0.015833553578067313 
0.032096373769231670 
-0.029784366249865173 
0.034485537231511980 
-0.096550388116731760 
-0.047412068168448520 
0.060778490167165110 
0.013976030727038423 
-0.070688628953309860 
-0.048356559992472306 
0.038791948074488310 
0.036009160558844504 
0.013118509293839090 
-0.017879046374665000 
-0.028722648159276547 
0.013051972540806247 
0.064063627659417530 
0.046663688481087220 
-0.030533253027692928 
0.038226519960917874 
0.086472755875931810 
-0.021621473647967328 
0.021058515492383682 
0.020086350139203860 
-0.045722487067888650 
-0.029093432198503355 
0.019761433224269678 
0.028939850683276466 
0.076581783210943720 
0.026696182791407543 
0.038971180762507190 
-0.074032880850173770 
0.045859272608153150 
-0.074704013301800430 
-0.059620690166624260 
-0.072787684011914180 
0.011972064234665946 
-0.029383423530886837 
-0.024660776569744695 
0.027064635298871910 
0.027634900421670030 
-0.030487921968855695 
-0.045797955577084890 
0.021937459848949920 
-0.073024615669284200 
-0.029079382097441063 
-0.0057920556718896040 
0.038549603705204404 
0.053427482744093300 
0.058471480467402500 
-0.067122249383162800 
-0.046104639797557016 
-0.043200669623591065 
-0.0063730838868518176 
-0.019621304191622245 
0.028833746316397830 
0.069913503258465110 
-0.048827167769469440 
0.13500005239640467 
0.057716103498832180 
0.028492555691341560 
0.021941406401358710 
0.087790857808317080 
-0.013899003898035854 
0.070984528166773880 
0.035179500802807046 
0.044185736414220605 
-0.016087993140936105 
-0.018700313743827380 
0.017887939980866567 
-0.0094168521968273180 
0.055877122927224666 
-0.050032274527643930 
-0.0024287793280721660 
0.055363339455767546 
-0.041447355611232290 
0.045185192672605030 
-0.0091239189841782820 
0.054134956689382396 
0.037582181959312590 
0.066326671091730360 
-0.026056227502358174 
0.049761418159499550 
0.011972064234665946 
-0.033076576538948400 
-0.014423762404195158 
-0.011434923569739927 
-0.12925888341792008 
-0.064727846218286550 
-0.038809417462809734 
0.024146807660981300 
0.065851611697071590 
-0.0086502713273142100 
-0.014908911146339231 
-0.032972977295774320 
0.060974922028781150 
-0.054890226528662024 
0.064702222908131030 
-0.027580094285639440 
-0.12212781746998115 
0.026737758232628010 
-0.015512765723385518 
-0.015214097084389470 
-0.061672327563651790 
0.038661680727187940 
0.055332214994417740 
0.051023130081007910 
0.038318019382985735 
0.019778631570779520 
0.055477204419264440 
0.077367206816099130 
0.062444133093997880 
-0.015599375068662491 
0.030535448202571945 
0.033599256271809720 
-0.10308101748282522 
0.031552448912513180 
0.0012429417599089056 
0.024146807660981300 
-0.055682415160853434 
-0.038619986814791896 
-0.059436065148447480 
-0.090783241627092770 
-0.089805338607704320 
-0.026243896334706394 
-0.032509121692262825 
-0.058989178944545880 
0.054944013437709126 
0.048855001601778934 
-0.052743701750689670 
0.030836945677110497 
0.019771874947447360 
0.078126027282908240 
-0.082243367644382560 
0.062165285628775880 
0.070268140303834460 
0.049157687733013336 
0.075328796358383020 
-0.046095815389553804 
0.055799997405896314 
0.055548922385524200 
0.068153238920055150 
-0.022206272591665290 
0.023138358606906672 
-0.019133198392155368 
-0.013776114213961710 
-0.019291106449475960 
-0.061714775271386570 
0.036732376948301140 
0.052727676847078060 
-0.0078248116014240660 
0.038639099843918540 
-0.049089544801094470 
-0.046322491881459635 
-0.014177772547377957 
-0.023778111070150647 
-0.072651172776637270 
0.020344622069403510 
0.064378398828701140 
0.078921747409223530 
-0.037641519940190810 
-0.034382265005701226 
0.087172505658411480 
-0.018041093835786150 
-0.081464372204635440 
0.027440343077294344 
-0.0082694227384023150 
-0.019942570370220188 
-0.034195085416703060 
0.028741811334189876 
-0.0075677723877252970 
-0.012573419527228673 
0.058804484295117020 
-0.028175881834501650 
0.081239018614243170 
-0.074407217236616030 
-0.029845518998718160 
0.028833746316397830 
0.11016289254591256 
0.032691472335393840 
-0.031677341987388766 
0.040706205422403750 
0.038350376034845514 
0.027812825408747934 
0.085189214454380380 
-0.018887530735669190 
0.020960770336081375 
0.024130404469343180 
-0.028944387303383116 
-0.037405306180891550 
-0.016787231336475212 
0.042479666402060120 
-0.044534450587602920 
0.18660920544681200 
0.063997586542447970 
0.049756674434722200 
-0.060853810970406230 
-0.033378410377116495 
-0.066633551012098950 
-0.082371074492542580 
-0.036737007232716320 
-0.032126440395433270 
-0.044607355249965765 
-0.043466209568348920 
-0.026877410481018528 
-0.034148685561265420 
-0.015833553578067313 
-0.038875601534028170 
-0.024936746239538222 
0.023758464170151504 
-0.070506394452427190 
0.061484003588885394 
-0.014580896766559954 
-0.056596546807390166 
0.044485838018337620 
0.099538331083198760 
-0.12212781746998115 
-0.060807004122429180 
-0.017364977222557365 
-0.0069307503909105600 
-0.012573724175208712 
0.097602493067356170 
-0.040831853824994950 
-0.040302962817557640 
-0.049073811105419040 
0.040706205422403750 
-0.029453524033032155 
-0.044396127462993734 
-0.071094931700142860 
0.038447363805294660 
0.060086147600116296 
0.083767137999960930 
0.039698061032496464 
0.064951934430657600 
0.049006530318788634 
0.079131537031214980 
-0.017140419262146104 
-0.0075677723877252970 
-0.028609999868828430 
-0.010963675425490899 
-0.050339047676044704 
0.046824647392906540 
0.027001659954562482 
-0.010155524137735710 
-0.037018227213713804 
-0.071107465838792270 
-0.040469314698120320 
0.064619284626564670 
-0.0029484530337240914 
0.021693541928749404 
0.079153281339181510 
-0.061213611785626364 
-0.043635007600124170 
-0.018935251747727852 
0.027809778653737623 
-0.050334172276024436 
0.035830907473153790 
0.033230407327028240 
-0.017675968901688856 
-0.046877313664656110 
-0.074738483500141330 
-0.014424543684606320 
0.045036879115473390 
0.033207152759715760 
0.019323877459474427 
-0.040543787920926390 
0.035144956815770020 
-0.023273525727669792 
-0.026278286817450213 
-0.038736064074597170 
0.050506559569410140 
-0.010155524137735710 
0.028367356549085742 
-0.031536864049455770 
0.047326621621404180 
-0.016682817456327804 
-0.024615723730162450 
-0.035588874933533080 
0.028303431817415865 
0.034464345960323770 
0.041445001035800110 
-0.063963170873327520 
0.068532805655460510 
0.025200035404523712 
-0.057889420478998750 
-0.017991709022413736 
0.024851660838208053 
0.046535030150611396 
-0.053546910433855620 
-0.024614614534336830 
-0.029744847483618934 
0.032187701987359076 
-0.033669757291972120 
0.053751691565744310 
0.11910586155261198 
-0.011874353338817267 
-0.011592732196641760 
0.092433306925253490 
0.079701955664791380 
-0.059124186869522480 
-0.036553733466788510 
-0.024614614534336830 
-0.018395775385871640 
-0.016840133805698886 
-0.016053479915539078 
-0.050111171603392570 
-0.053061129833564060 
0.070984528166773880 
0.045259691632860330 
0.041547436443207000 
-0.037622880504631050 
-0.028581819928237936 
0.018288690958520884 
-0.15194057228054905 
-0.029225398247479405 
-0.0039822074247417470 
-0.020489296950369940 
-0.14092109861978910 
0.054818564083684260 
-0.025668819139626830 
0.037716144671393660 
-0.078810934385954630 
0.022044943805776023 
-0.052768009402758595 
-0.011841813676589909 
0.033001908856366580 
0.17280720783652104 
0.069896822929802340 
0.028612686662510510 
-0.0096911131493340780 
0.059646032593296795 
-0.014089954122500902 
0.054260899237773400 
-0.033898698643656940 
-0.045038232182692310 
0.020462103134897176 
0.044059825828301780 
-0.022874067164351124 
0.040437874630097514 
-0.088136963429379310 
0.059314617820996715 
0.045185192672605030 
0.081118897743153060 
-0.035481056190545890 
-0.084844887998144530 
0.061922843050596950 
-0.050065763002888580 
0.053199011214776326 
0.032933631703343000 
0.14209318412709500 
-0.064425735506357470 
-0.028929277471105908 
-0.035765156206449550 
0.043264737086724264 
-0.028179104103331524 
0.028302645937049137 
-0.040456466737335856 
0.021941406401358710 
-0.097726840184066230 
0.035163293476141970 
0.027720894230019496 
-0.015287426704403423 
-0.046696892605054900 
-0.047219476073161420 
-0.067861978013241550 
0.047697099003133715 
-0.039428818320594130 
0.015184005132626847 
0.063741162227327940 
-0.039542025670613774 
0.033612159051098080 
-0.043474030992972010 
-0.033523047915896400 
0.025214201069743160 
-0.048817977276693010 
-0.048768203640444250 
-0.028189517565070520 
0.032558674185966370 
0.043779905189828244 
-0.023438092228344917 
-0.032896727576650055 
0.035220571684883350 
0.054514371622099950 
0.025946155870897894 
-0.010896769973378184 
0.053033454871265550 
0.022153120408526100 
0.021218466715753800 
0.048824567345190690 
-0.019087473443633940 
-0.033550610126617450 
-0.027850556968833150 
0.065421794998817850 
-0.023260608693332570 
-0.10048405754110311 
0.033084015900730740 
0.038607333211322470 
0.064517314697155120 
-0.066479098003343120 
-0.053677920430423895 
-0.20449692401634925 
-0.018767955682229293 
0.040947914754301580 
0.041459631712593330 
-0.036987536034400186 
-0.053991010226816835 
-0.067553364754131350 
-0.053547419398301634 
0.033567403436246530 
0.025402591661726467 
0.16419088888712957 
-0.065593324119193510 
-0.043078627197717690 
-0.029890170297952143 
-0.032078654330806270 
-0.083605538851833110 
-0.059034020077844130 
-0.084626022548786910 
-0.041391763696096650 
0.081630175389778220 
-0.019987015048562765 
0.046150210759524370 
-0.014453128626746333 
-0.036100066950504260 
-0.018935251747727852 
-0.034474534020591810 
0.033558146547222110 
-0.044506412060478825 
-0.064207883192726480 
-0.022156065747922490 
-0.058880097311497376 
0.058921072381126970 
-0.027700328871328420 
-0.028301745441695060 
-0.047008345343081760 
0.055877122927224666 
-0.016958657687278528 
0.030517079162098927 
0.030783442776986324 
0.050482354353556140 
-0.030386874211968413 
0.069593097231674230 
0.052329475028307110 
-0.036189889208070230 
0.13505667130908508 
0.063998828648400900 
-0.015673101866196474 
-0.018395775385871640 
-0.081404103633690590 
0.058450426694048670 
-0.025347081404015072 
0.026260912122672623 
0.010748407636081397 
-0.072600079071004400 
0.072063655914784900 
-0.067557416618649150 
0.014897549359233568 
0.076038877964538100 
0.060026359820046844 
0.023945048874139074 
0.080074466163919800 
0.044706442677355690 
0.058813593554030220 
-0.054927264858444756 
-0.064987338311550100 
-0.017639379831500695 
-0.043265073926495710 
0.045912873038458450 
-0.060820924589938090 
0.034184903240789930 
0.083730009559324790 
0.031275344593375096 
0.023058873364001316 
-0.015433079519816316 
-0.066094395379816690 
-0.070505209651750820 
0.092295720956771060 
-0.062323261719229470 
0.080938885132794890 
0.036642892643382850 
-0.024610469751021918 
-0.075983826499509510 
-0.027146428543810920 
-0.053403633102433480 
0.037829395901705885 
0.10505650305925836 
0.023883534829816668 
-0.064625523419981800 
0.052022966975957340 
-0.015833553578067313 
-0.019178138492701670 
0.066203994045208130 
-0.014263657194008093 
-0.020419064334715332 
0.029745562350436346 
0.022089175044329636 
0.030964211080192268 
-0.014453128626746333 
-0.061550802226738270 
-0.034244811632056840 
-0.035734263164068324 
-0.019972969025316735 
0.022698655165638425 
0.039396471092512600 
-0.031258435204457510 
0.060360209624771274 
0.011972064234665946 
-0.0016335752076334716 
-0.030408060536114306 
0.030285405842623354 
0.010748407636081397 
-0.039428818320594130 
-0.052758147461947645 
-0.022775080231834895 
0.044173935585501500 
-0.0077143225044617670 
-0.016338960148431628 
0.024708377168989278 
-0.029741621916258013 
-0.018395775385871640 
-0.036390906040800460 
-0.050102010713523200 
0.048265481204200090 
-0.018449309083474160 
-0.043031526637290250 
-0.017875131700566790 
0.073533168512658810 
-0.051212968883060820 
-0.025108711399278470 
0.038552673867624440 
-0.017248266394986812 
0.019955911727538533 
-0.015171010652386532 
-0.024414700633838327 
-0.049342134498048480 
0.040709291808784150 
0.024851660838208053 
-0.034294136240721860 
0.053199650695901630 
-0.086972295945540120 
0.027812825408747934 
-0.037674462649109520 
-0.081669553751333540 
-0.055285761080141965 
-0.015250744628941928 
0.034091251737836295 
0.038239047749756070 
0.048428907858347560 
-0.030717181961355387 
0.082620461128103280 
0.053800177238956580 
-0.037979561642619480 
-0.095056711823667870 
0.025920858606706832 
0.047727470285764920 
0.052091599256258470 
0.021941406401358710 
-0.095728192089840830 
-0.060807004122429180 
-0.043245435984094130 
0.019261520178324200 
-0.070636279564506190 
-0.035286157853800790 
0.031645466465432000 
0.038309838156376000 
-0.0078853252358938410 
-0.016700819012415925 
-0.020757821380019376 
0.021792272244744590 
-0.040290883666322136 
-0.037692749533861520 
0.071011625319470940 
0.072294622778653960 
-0.050016289222895416 
0.042028996196934860 
-0.015534792599669533 
-0.026938532734973770 
-0.027865252327380824 
0.034701123392939860 
-0.026119273928808896 
-0.048361394922006425 
-0.064998280878226140 
-0.0039822074247417470 
-0.014089954122500902 
-0.051860604423698650 
-0.099016119761505160 
0.072589895225971690 
0.023191556998263440 
0.040845293070821610 
-0.031569997220374686 
-0.11105476937987177 
0.0010490652961923112 
-0.017547919805253342 
-0.018667643532989074 
-0.041083153096173050 
-0.037052884535738750 
0.029823022320526308 
0.046862618808718660 
0.010566936893759643 
0.033057928809545280 
-0.097715658990853270 
-0.032479504687520325 
-0.055260933841681646 
0.079663528391719150 
-0.044296136662287110 
0.027054267921546908 
-0.038755760409586316 
0.030067953492480287 
-0.10300784143057147 
0.036676992482245310 
-0.024614614534336830 
-0.056056074961822216 
-0.0069290321849261780 
0.035669062119566816 
-0.040428598407788940 
-0.086787531751988850 
-0.064945375417641770 
0.015508244785225027 
-0.049768953645268926 
-0.057468636632097565 
-0.017713781568253206 
0.025718446606611604 
-0.068945084630628100 
0.074525908273636550 
0.049693375908195130 
0.036293052330439696 
-0.023858240764077252 
-0.034356499717775730 
0.026777892579952264 
0.034301427004979150 
-0.014435082217319727 
0.065672326152544220 
-0.011587659273291330 
-0.057586029186135400 
-0.056894083660857145 
0.046886214659652876 
-0.079381320719091640 
-0.022665516131956987 
-0.049506775319763050 
0.062720536879703960 
0.084788470154910280 
0.092700081860395970 
-0.054378735596509596 
0.011646787703398586 
0.062279939890577290 
0.044196803132307350 
0.020889145520443100 
0.050786130264472484 
0.070332689820386700 
0.027392332319828430 
-0.016010390359182128 
0.076205560292798670 
0.078920669563841900 
0.081448789604841730 
-0.033769386749848855 
0.014947767888174900 
-0.079263327335928680 
-0.026440165885103980 
-0.078417559684675040 
0.087726303398444570 
0.018463307791067588 
-0.033069074954304890 
-0.058558479211235520 
-0.016199561819408250 
-0.039767008137731576 
-0.022691823671519920 
-0.098589041509333690 
-0.11080228761452085 
0.073712542967706210 
-0.032768399676689146 
-0.025822202623209778 
0.050812994438173880 
0.082504901332786230 
-0.078182349854317960 
-0.050169544160419310 
-0.034634243999474124 
0.073844492940640060 
0.051752109060238250 
-0.051802108828526240 
0.013769414745264932 
0.11500535585258223 
-0.061718501458220436 
-0.048193032728440166 
-0.071761853561692420 
0.080680746847055550 
-0.021729360957407066 
-0.010957583694550875 
0.073871735387975670 
0.13146893371289844 
-0.0018678889364912659 
0.035410482166834734 
0.056837296739343890 
-0.039143071014848160 
-0.023201355306022547 
0.11020761420742746 
0.045123094339712330 
0.046164616017465320 
-0.087348465439081620 
-0.085333315810223530 
0.073649633026308350 
0.034994925306613170 
0.0063167358401760194 
-0.071001858652113960 
-0.059503142487100860 
0.060109447716917540 
-0.060189459500824310 
-0.066216474347896600 
-0.025876671975573827 
-0.0010077545225120762 
0.047034239711714760 
-0.0059848797026112600 
0.011490002606647877 
-0.015421763030295108 
0.070028494031195570 
0.087692178532343070 
0.0071162874335774510 
0.051001329746821420 
0.036986644694101840 
0.063084699863281690 
0.064824899588838900 
0.032622603196494175 
-0.013950551503920557 
-0.017091707878477050 
-0.049906395053930590 
0.058309737775937310 
-0.046260987298098920 
0.11109741585615471 
0.021807235245224172 
0.048087777413655074 
-0.038771967419950830 
-0.059862901224808175 
0.046600214376340564 
-0.017166764666620368 
-0.071090594189572430 
0.054637413151890926 
-0.076502476626627960 
-0.0025506620803009733 
0.13173706545531133 
-0.10032640308579051 
-0.029167104359769155 
-0.046656145076630910 
0.064798631242957320 
-0.0096639301876485600 
-0.010573483963198923 
-0.045618243921313640 
-0.049225146876631800 
-0.065150825601677600 
-0.10015197028404703 
0.0096779141773401920 
-0.040680382014738400 
-0.042160686135668650 
-0.050243456018367550 
0.063628594662484050 
-0.047384896975410770 
0.012895849293637393 
0.025686334416276930 
-0.020695032081451722 
0.016253744176442788 
0.017649894906221540 
0.14944614648561222 
0.077326924943701180 
0.038526912593121690 
0.071426306367760910 
0.021391257186980848 
-0.023511757697933077 
0.0092179583646773300 
0.041989090694288196 
-0.039518932636716210 
0.053161590844329110 
-0.096510652632752260 
0.029587104055561687 
-0.029334363882996500 
0.043889854957977356 
-0.051543281390036735 
-0.014530617611862286 
-0.023907585209199510 
0.010964859434689734 
-0.039364512941713885 
-0.041512052570524880 
0.056912513010055560 
-0.0097106751594937300 
0.038056349395505354 
0.045566965724451264 
-0.027867701232292402 
-0.045774545081969640 
0.025878438648706440 
-0.018981835631199430 
-0.014407897386703620 
-0.035012326406486630 
0.073161605418681120 
-0.0062135312747493175 
0.058680028523329550 
-0.076511426883870330 
0.027794728497659994 
0.093355994090241080 
-0.0011033122582174888 
0.019175635013340340 
-0.019614342479639106 
-0.079265737106348060 
0.042297379392686060 
0.011555009923967532 
-0.0099392494791610730 
0.0082537118990916900 
0.030293534811433577 
-0.028727636169719590 
0.025915728422541483 
0.041620428885537860 
0.0010093488621451148 
0.085230749307881870 
-0.027954816184666840 
-0.052285063727037590 
-0.046714389240731240 
0.031217155651571470 
-0.045926517262625660 
-0.044918028564655050 
-0.017543128058120885 
0.11968962096519106 
-0.046771447012296010 
0.031414100115901900 
-0.065571148355123590 
0.022961605103286067 
0.036926796767025410 
0.024392841957282780 
-0.035059975401410480 
-0.032247876585742165 
-0.075068540254738930 
0.037743439729331410 
-0.034851149996414540 
-0.13323673793930563 
0.054743792945263776 
0.016670313318391593 
-0.061566214035393880 
-0.085337556378914130 
0.082791279259204300 
-0.048989162056079190 
0.0011603708125499672 
0.013404906616659990 
-0.059373083254887660 
-0.0047881124688505960 
0.063824791466150030 
0.039124582244716030 
-0.020359338193448227 
0.012363878345867947 
-0.030684335779048826 
-0.10318673873602621 
0.038583816979508190 
0.041518625267811304 
-0.026659420809996073 
0.062452556115477160 
-0.012938424366584931 
-0.019203316860216802 
-0.037165779042237540 
0.040586047441027194 
0.040732661230517660 
0.046523460884342324 
0.0017973847197498794 
0.063231979471644380 
0.022565211407062150 
-0.044991563277013764 
-0.041435107375551170 
-0.037099205114583750 
0.011551057371858650 
-0.019804325793144804 
0.040445608756822160 
-0.043165259733891650 
0.0020138206303890035 
0.015822321036112745 
-0.023223813873082158 
0.048976802699449845 
-0.037414524693916144 
-0.095038182015114090 
0.026760937287006657 
-0.022387184272911750 
-0.041348395900409800 
0.020910827362145005 
-0.019536188761280552 
-0.045649442009519440 
-0.030990760641233187 
-0.016388591539177252 
0.035825721554259440 
0.017468938217197236 
-0.044966759929679020 
-0.014285844241702367 
0.044956614317087530 
0.034817015772312320 
-0.018852961660993760 
0.0014600441149815722 
0.021383663880389000 
-0.070924576182199050 
-0.037057512630114040 
-0.016922494838104773 
-0.050193546961985226 
-0.019881547764337790 
0.0021861362674321684 
0.029303857099689953 
0.071459040974654150 
-0.065871959675792670 
-0.024811702691504660 
0.035783956565736300 
0.077033408767129320 
-0.082252572487546200 
-0.022098554482671960 
0.047758015885405750 
-0.10777642067540087 
0.047595372270295690 
0.027199587815885006 
-0.0084397976277770640 
0.033704100646446400 
-0.067807681849635500 
-0.024416394063949798 
-0.034789686219156220 
-0.037851073884109050 
0.020422302184461387 
0.042635447518019280 
0.025328319318712640 
0.065191120655695430 
0.10376582364945547 
0.043475541739080180 
-0.0065174884820936080 
0.031431301986733860 
0.028165150733822072 
0.052360497052052190 
0.027652673442358597 
0.025330990869795483 
0.069003151333526970 
0.040595584867610940 
0.025070876311662355 
-0.010052951702801871 
-0.064088031608656950 
0.14616873074293946 
-0.054077105361206630 
-0.022723420887485380 
0.054789371220750020 
-0.035995916893863285 
-0.12071826670482633 
-0.0082241051654460460 
-0.016078407395625030 
-0.057701496033700060 
-0.074180161812687360 
0.021752590979284753 
-0.027550559910578025 
-0.19619338549373180 
-0.025907655413993930 
-0.065009321027083190 
-0.0021028864951784004 
0.037844097605265700 
0.043988906089767000 
0.14244249709795037 
-0.013778635819881306 
0.049985966298030950 
0.061903991973641530 
0.017031646671044398 
0.022127475833824500 
0.066001563456039120 
-0.084165810469311290 
-0.034322368809651956 
-0.10987127442810235 
0.078674783007749870 
-0.019538384310162644 
0.028255180617049232 
-0.045050365735255030 
-0.024871168767009545 
-0.095590583527158420 
-0.015883678084247486 
0.047159256274983860 
0.085084966676001990 
-0.12639866018774770 
0.045167103201012860 
0.061367940470298800 
0.027157369659226684 
0.022164293331609988 
-0.031632282479891060 
-0.064916785168481620 
-0.075660556785564330 
-0.012805549961986665 
0.012532892065491363 
-0.022253765893664318 
0.047611532883802820 
0.0037837578888948223 
0.012532892065491363 
0.018175097196497948 
0.034237434016141335 
0.0065377324068520800 
-0.022665946779190337 
-0.026296139692038380 
-0.042336066810028030 
0.035936075716298164 
0.035936075716298164 
-0.041758642894275450 
-0.043814365338128840 
-0.037576044440064310 
-0.037576044440064310 
-0.037576044440064310 
-0.037576044440064310 
-0.037576044440064310 
-0.037576044440064310 
-0.037576044440064310 
-0.037576044440064310 
-0.037576044440064310 
0.015892062289651857 
-0.033277169685171845 
-0.033277169685171845 
-0.033277169685171845 
-0.033277169685171845 
-0.033277169685171845 
-0.033277169685171845 
-0.033277169685171845 
0.014894869459006256 
0.014764315919004857 
-0.021822803573887856 
-0.022665946779190337 
-0.030768050212268368 
-0.010046263597667065 
-0.026756917137836976 
0.11893669643029140 
-0.0071754069631495560 
0.018117166194764694 
0.072095623459540600 
0.037297952706941190 
-0.047941282301432100 
-0.0091718299833370970 
-0.037576044440064310 
0.014764315919004857 
-0.011758569801903712 
0.0028746049602125630 
0.014894869459006256 
0.032962111440294660 
0.0088921611950118390 
-0.0010998392701466940 
-0.0070416371933966420 
-0.010046263597667065 
0.032962111440294660 
-0.043814365338128840 
0.011680171899868218 
-0.0071754069631495560 
0.032962111440294660 
0.019801031918422703 
-0.0075886745864449040 
0.032962111440294660 
0.029502972387541168 
0.016861381103381493 
0.015892062289651857 
0.035936075716298164 
0.015892062289651857 
0.010209250916718034 
0.011730930269775473 
0.054728561388739494 
0.022882923734851113 
0.0037837578888948223 
-0.015495003365882234 
0.020304407154717076 
-0.066728664798744010 
-0.033953526195040270 
-0.0016604825947429632 
-0.035827650011686520 
0.051727136649358914 
0.041377376212550310 
0.033897413104921430 
0.033897413104921430 
0.015179657520660186 
0.011680171899868218 
-0.020857813473298260 
-0.013412917017582030 
0.035936075716298164 
0.0028746049602125630 
-0.012054810918512805 
0.019801031918422703 
-0.012054810918512805 
-0.069285988062978250 
0.022882923734851113 
0.025025871985442774 
0.0088916380127871300 
-0.012054810918512805 
0.051727136649358914 
0.0074361326314935650 
0.012532892065491363 
0.015892062289651857 
0.057593935674982756 
0.016469033283519695 
-0.041674853853289970 
0.025025871985442774 
0.0074361326314935650 
-0.0071754069631495560 
0.023890541450241925 
0.020304407154717076 
0.036391721704642660 
0.017327338694851040 
0.032043763023757750 
-0.016315065561408767 
-0.013300314600404966 
-0.020090251265311283 
0.016951383800427790 
-0.022253765893664318 
0.0048880782533298050 
0.018175097196497948 
0.018175097196497948 
0.0056202462979805700 
0.015179657520660186 
-0.049011431989104105 
0.018175097196497948 
-0.020679926172096894 
0.015179657520660186 
-0.020679926172096894 
-0.016706839019328776 
0.010071417731699494 
0.025427190978956270 
0.010071417731699494 
0.038401477738993930 
-0.0016604825947429632 
-0.026761780326127728 
0.012534000628947382 
0.010209250916718034 
-0.0046424204945547140 
-0.011758569801903712 
0.035936075716298164 
0.014799500329133940 
-0.026761780326127728 
-0.012805549961986665 
-0.020213066525907812 
-0.022665946779190337 
-0.0074570214183022130 
0.034391648892763990 
0.035936075716298164 
-0.021950382267483918 
-0.0091718299833370970 
0.0074361326314935650 
-0.037314188167756100 
-0.010708165957175626 
0.019801031918422703 
0.014894869459006256 
0.014348568006511624 
-0.042605344877327470 
-0.048664219260000080 
0.014348568006511624 
-0.011758569801903712 
0.066553736607740920 
0.073374913064976150 
0.011680171899868218 
0.054728561388739494 
-0.033953526195040270 
0.037297952706941190 
-0.020090251265311283 
-0.021041535210342010 
-0.037080428817083750 
-0.015495003365882234 
0.014799500329133940 
-0.020090251265311283 
0.033897413104921430 
-0.020090251265311283 
0.012532892065491363 
0.032043763023757750 
-0.020213066525907812 
0.0088916380127871300 
0.023890541450241925 
-0.025808533015067574 
-0.012054810918512805 
-0.033002417816099380 
-0.017397138388406244 
0.016951383800427790 
-0.0056700766941679150 
-0.037080428817083750 
0.0028746049602125630 
-0.039219344882293470 
-0.041674853853289970 
0.028117477771701357 
0.042229594357485920 
-0.020679926172096894 
-0.066728664798744010 
-0.033277169685171845 
0.019100412772317648 
-0.037785565157209114 
-0.025919051081227957 
0.014799500329133940 
0.020304407154717076 
-0.0010998392701466940 
-0.037576044440064310 
0.062503507661681850 
0.013722497890584679 
0.0056202462979805700 
0.081495587435983060 
-0.030768050212268368 
-0.049011431989104105 
0.018117166194764694 
0.016951383800427790 
0.010071417731699494 
0.037297952706941190 
0.014348568006511624 
0.014348568006511624 
-0.026761780326127728 
0.010071417731699494 
-0.030875100735969233 
0.035093019358552795 
-0.027884287838961890 
-0.0074570214183022130 
-0.049736034838876220 
-0.025919051081227957 
-0.0016604825947429632 
-0.041758642894275450 
-0.012789091909322734 
0.027676754293420790 
0.027981993071932467 
-0.0056700766941679150 
-0.033277169685171845 
0.076586584950474500 
0.063946982621224100 
0.012838606407910240 
-0.037314188167756100 
-0.019194951740383152 
-0.033953526195040270 
0.016469033283519695 
-0.033277169685171845 
0.016469033283519695 
0.026928196340249080 
-0.033277169685171845 
-0.036469420847599060 
-0.036469420847599060 
-0.0047521582224989275 
0.012534000628947382 
-0.033277169685171845 
-0.013300314600404966 
-0.013525235920492465 
-0.013525235920492465 
-0.013525235920492465 
0.081495587435983060 
-0.0056700766941679150 
0.016951383800427790 
0.016676748142451674 
-0.0056700766941679150 
0.019353845690871950 
-0.0091718299833370970 
-0.0010998392701466940 
0.0056202462979805700 
0.035093019358552795 
0.026558835187451660 
0.051727136649358914 
0.015892062289651857 
0.0065377324068520800 
-0.074125868640955440 
-0.048873138686860270 
-0.0074570214183022130 
0.0028746049602125630 
0.035093019358552795 
0.035093019358552795 
0.038401477738993930 
-0.018440531153816180 
0.037297952706941190 
-0.012789091909322734 
-0.026761780326127728 
0.014799500329133940 
0.027981993071932467 
-0.11063534409542816 
0.057593935674982756 
0.023092490309895193 
0.026558835187451660 
0.021156778084682700 
0.078214896865886410 
-0.0075886745864449040 
-0.014557153468727388 
0.016469033283519695 
-0.048664219260000080 
-0.042340019738531350 
-0.11063534409542816 
-0.030768050212268368 
-0.030807758275022940 
-0.052671219115908000 
-0.019289236105346110 
0.011680171899868218 
0.11684312045709135 
-0.010046263597667065 
0.011680171899868218 
0.026928196340249080 
-0.0071754069631495560 
0.035093019358552795 
-0.016563240524376790 
-0.025572374028030333 
0.012534000628947382 
0.076811954591628410 
-0.010556772376540926 
-0.018669854527499807 
-0.026296139692038380 
0.011680171899868218 
0.0088916380127871300 
-0.0046424204945547140 
-0.073663158056799530 
0.010071417731699494 
0.0056934568508170440 
-0.021950382267483918 
0.071149719610939790 
0.014894869459006256 
0.035093019358552795 
-0.018440531153816180 
0.0056934568508170440 
0.0056934568508170440 
0.011730930269775473 
-0.022907832630747740 
0.019948278721009228 
0.034237434016141335 
-0.0074518612375724280 
0.011730930269775473 
-0.0071754069631495560 
-0.058123154022928884 
0.052517361020886810 
-0.026296139692038380 
-0.022665946779190337 
0.0056934568508170440 
-0.026296139692038380 
-0.012019486493277788 
-0.0074570214183022130 
-0.010708165957175626 
0.011730930269775473 
-0.019005769758803526 
-0.046139445270687520 
-0.012054810918512805 
0.010217344285714686 
-0.082944352806566330 
-0.027884287838961890 
0.011730930269775473 
-0.037576044440064310 
-0.066728664798744010 
-0.035827650011686520 
-0.0055304906746576220 
0.025025871985442774 
0.032962111440294660 
-0.021430286090949296 
-0.025919051081227957 
0.027981993071932467 
-0.073663158056799530 
0.11066724344734202 
0.014799500329133940 
0.019948278721009228 
-0.0056700766941679150 
-0.024304871777064480 
0.0028746049602125630 
0.016676748142451674 
-0.027371005646831575 
-0.012054810918512805 
0.016676748142451674 
-0.016315065561408767 
-0.061846874477568420 
-0.015495003365882234 
-0.0012869211428035707 
0.11684312045709135 
-0.013494937118612398 
0.038975612109611320 
0.014894869459006256 
0.034391648892763990 
-0.024304871777064480 
-0.013412917017582030 
-0.010046263597667065 
0.0037837578888948223 
0.053446761789214925 
-0.066728664798744010 
-0.032827787488171530 
-0.016740591120519460 
-0.0087513857809648400 
0.063946982621224100 
0.014348568006511624 
0.037297952706941190 
0.014894869459006256 
-0.012054810918512805 
-0.0012869211428035707 
-0.020090251265311283 
-0.020090251265311283 
0.076745989337351270 
0.038975612109611320 
0.038975612109611320 
0.016676748142451674 
0.076745989337351270 
-0.024287561018546018 
0.063946982621224100 
0.018117166194764694 
0.015892062289651857 
-0.012019486493277788 
-0.072343532100930570 
0.034579189342344670 
0.018175097196497948 
-0.046139445270687520 
0.012534000628947382 
0.0037837578888948223 
0.016676748142451674 
0.012532892065491363 
-0.0071754069631495560 
0.032974407712642075 
0.0049394757293073830 
-0.041758642894275450 
0.036391721704642660 
-0.012789091909322734 
-0.020090251265311283 
-0.012789091909322734 
-0.013300314600404966 
0.019948278721009228 
0.038401477738993930 
0.014348568006511624 
-0.016563240524376790 
-0.037576044440064310 
-0.0056700766941679150 
-0.0016604825947429632 
0.029626045342048914 
0.019100412772317648 
-0.013412917017582030 
-0.018440531153816180 
-0.025572374028030333 
0.015738430045595723 
0.035093019358552795 
-0.021430286090949296 
0.015179657520660186 
-0.035827650011686520 
0.020304407154717076 
-0.025808533015067574 
-0.0016604825947429632 
0.0056934568508170440 
-0.026761780326127728 
0.010071417731699494 
0.063225201537946060 
-0.0091718299833370970 
0.027905409657554630 
0.019100412772317648 
0.027524912556961354 
0.11893669643029140 
0.044908771547648450 
-0.0012869211428035707 
0.018175097196497948 
0.0028746049602125630 
-0.012019486493277788 
0.028697906374946620 
-0.022665946779190337 
-0.025572374028030333 
0.017679297588248204 
0.018117166194764694 
-0.012789091909322734 
-0.012054810918512805 
-0.0012869211428035707 
0.010071417731699494 
0.016676748142451674 
0.036391721704642660 
0.0037837578888948223 
-0.021041535210342010 
0.028117477771701357 
-0.025808533015067574 
0.057894336954136885 
-0.010708165957175626 
-0.0070416371933966420 
0.036391721704642660 
0.0028746049602125630 
-0.058503559307057910 
-0.0025606435127249420 
-0.012789091909322734 
0.026558835187451660 
-0.033953526195040270 
0.044908771547648450 
0.029626045342048914 
-0.022665946779190337 
-0.030875100735969233 
-0.033002417816099380 
-0.0066091173629806060 
0.081495587435983060 
0.014894869459006256 
0.014894869459006256 
0.015179657520660186 
0.014894869459006256 
0.023890541450241925 
0.028697906374946620 
-0.016706839019328776 
0.014894869459006256 
0.039129556739834680 
0.045754826980492484 
-0.0012869211428035707 
-0.012805549961986665 
0.0056934568508170440 
-0.048873138686860270 
0.018175097196497948 
0.028117477771701357 
0.014894869459006256 
-0.0011205585688589983 
0.019100412772317648 
-0.015021910163154113 
0.027981993071932467 
0.0074361326314935650 
0.010217344285714686 
0.016676748142451674 
-0.012805549961986665 
-0.024262707146109716 
-0.0071754069631495560 
0.015179657520660186 
0.025427190978956270 
-0.020679926172096894 
-0.046139445270687520 
-0.010708165957175626 
0.012838606407910240 
0.051727136649358914 
-0.022665946779190337 
-0.021822803573887856 
0.011680171899868218 
0.034579189342344670 
0.043701455722441516 
-0.037686317807690446 
0.023890541450241925 
-0.037576044440064310 
0.016469033283519695 
0.015892062289651857 
-0.048873138686860270 
0.0065377324068520800 
0.025025871985442774 
0.0074361326314935650 
0.018117166194764694 
0.016951383800427790 
0.011730930269775473 
-0.027371005646831575 
0.032962111440294660 
0.012532892065491363 
0.018175097196497948 
-0.025919051081227957 
0.036391721704642660 
0.018117166194764694 
0.086245631584399920 
0.022882923734851113 
0.086245631584399920 
0.027524912556961354 
-0.012789091909322734 
-0.0014465670101271263 
0.025025871985442774 
-0.0071754069631495560 
-0.022253765893664318 
-0.020679926172096894 
-0.048584065874386910 
0.033897413104921430 
0.0074361326314935650 
0.0065377324068520800 
0.057894336954136885 
-0.0074518612375724280 
-0.019289236105346110 
0.016469033283519695 
0.011730930269775473 
0.016191367730697120 
-0.021822803573887856 
0.014894869459006256 
0.063225201537946060 
-0.019289236105346110 
-0.013300314600404966 
-0.017397138388406244 
-0.013525235920492465 
-0.012789091909322734 
0.011730930269775473 
-0.018440531153816180 
0.0028746049602125630 
-0.035827650011686520 
0.057593935674982756 
0.0028746049602125630 
0.054727815899938320 
-0.0074570214183022130 
-0.0010998392701466940 
0.0074361326314935650 
0.0056934568508170440 
-0.013525235920492465 
-0.048873138686860270 
0.010915970129973774 
0.013708679048862136 
0.015892062289651857 
-0.037785565157209114 
-0.016706839019328776 
0.053446761789214925 
0.011730930269775473 
0.011680171899868218 
-0.035827650011686520 
0.0049394757293073830 
0.11066724344734202 
-0.037314188167756100 
0.036391721704642660 
0.045754826980492484 
0.0028746049602125630 
0.013722497890584679 
-0.0056700766941679150 
0.026928196340249080 
0.027981993071932467 
0.035936075716298164 
-0.012054810918512805 
-0.025919051081227957 
0.038401477738993930 
0.0028746049602125630 
0.066553736607740920 
0.063225201537946060 
-0.019194951740383152 
-0.019194951740383152 
-0.037080428817083750 
-0.027255953570368440 
-0.016315065561408767 
0.081495587435983060 
-0.018440531153816180 
-0.024262707146109716 
0.029626045342048914 
0.023890541450241925 
0.028697906374946620 
0.028697906374946620 
-0.013525235920492465 
-0.064777396311093600 
-0.021950382267483918 
0.044908771547648450 
-0.035827650011686520 
0.028697906374946620 
0.028697906374946620 
0.028697906374946620 
-0.016706839019328776 
-0.044952704297572950 
0.035936075716298164 
0.029626045342048914 
0.0077452877192377410 
-0.046139445270687520 
-0.022665946779190337 
-0.024304871777064480 
0.047611532883802820 
0.016951383800427790 
-0.021041535210342010 
-0.025572374028030333 
0.020304407154717076 
-0.033277169685171845 
-0.037314188167756100 
-0.030768050212268368 
0.029626045342048914 
-0.026761780326127728 
0.027524912556961354 
0.015179657520660186 
0.034237434016141335 
-0.072343532100930570 
-0.020857813473298260 
-0.0056700766941679150 
-0.074657025200780700 
-0.033002417816099380 
-0.013412917017582030 
0.016103067886150554 
0.017803503368969800 
0.0056934568508170440 
-0.026761780326127728 
0.034391648892763990 
-0.0012869211428035707 
0.018175097196497948 
0.032962111440294660 
0.057593935674982756 
-0.022665946779190337 
-0.0010998392701466940 
-0.012054810918512805 
0.027905409657554630 
-0.033277169685171845 
0.0049394757293073830 
-0.012054810918512805 
0.039129556739834680 
0.072095623459540600 
0.025025871985442774 
0.014799500329133940 
0.027905409657554630 
-0.0091718299833370970 
-0.019883767677142963 
0.0056934568508170440 
0.0074361326314935650 
-0.020679926172096894 
-0.012054810918512805 
0.052517361020886810 
-0.048664219260000080 
-0.020679926172096894 
0.015892062289651857 
0.0056202462979805700 
-0.010046263597667065 
-0.0047521582224989275 
0.038015404154344320 
-0.037576044440064310 
-0.0056700766941679150 
0.025025871985442774 
-0.0010998392701466940 
-0.00095752226702882040 
-0.0012869211428035707 
0.045754826980492484 
0.014894869459006256 
0.016951383800427790 
0.035093019358552795 
-0.048584065874386910 
-0.033277169685171845 
-0.033002417816099380 
-0.013412917017582030 
0.011680171899868218 
-0.015021910163154113 
0.016469033283519695 
0.018117166194764694 
-0.025808533015067574 
0.036391721704642660 
-0.025919051081227957 
-0.025808533015067574 
-0.025919051081227957 
0.057513192152787884 
-0.0070416371933966420 
-0.025572374028030333 
-0.025572374028030333 
0.039129556739834680 
0.012532892065491363 
0.019801031918422703 
0.017679297588248204 
0.0056202462979805700 
-0.020857813473298260 
-0.044952704297572950 
-0.012789091909322734 
0.037297952706941190 
0.032043763023757750 
0.081495587435983060 
0.0056934568508170440 
-0.033277169685171845 
-0.026761780326127728 
-0.0012869211428035707 
-0.016563240524376790 
-0.037080428817083750 
0.016469033283519695 
0.014348568006511624 
0.043701455722441516 
-0.027884287838961890 
0.056615147489217350 
0.062950669400353080 
0.027524912556961354 
-0.0010998392701466940 
-0.0074570214183022130 
-0.018440531153816180 
0.0056202462979805700 
0.054727815899938320 
-0.021430286090949296 
-0.047941282301432100 
-0.0047521582224989275 
0.036391721704642660 
-0.13029174969610438 
0.0065377324068520800 
-0.033277169685171845 
0.021156778084682700 
-0.022253765893664318 
0.047611532883802820 
0.062503507661681850 
0.026975148336007174 
0.018117166194764694 
0.017679297588248204 
-0.026761780326127728 
0.017679297588248204 
-0.013300314600404966 
0.017679297588248204 
0.016103067886150554 
0.022882923734851113 
-0.0070416371933966420 
-0.041758642894275450 
0.038015404154344320 
0.024287531543676600 
0.062503507661681850 
0.0065377324068520800 
-0.033002417816099380 
0.0074361326314935650 
0.012532892065491363 
0.076586584950474500 
0.017803503368969800 
0.027981993071932467 
-0.052671219115908000 
0.11066724344734202 
-0.072343532100930570 
0.014799500329133940 
0.017679297588248204 
-0.012054810918512805 
0.017803503368969800 
0.078214896865886410 
-0.021950382267483918 
0.018117166194764694 
0.0065377324068520800 
-0.037785565157209114 
-0.022665946779190337 
0.026558835187451660 
-0.013525235920492465 
0.037297952706941190 
0.010071417731699494 
0.011680171899868218 
-0.024262707146109716 
-0.0047521582224989275 
-0.0047521582224989275 
0.026558835187451660 
-0.037411952606485300 
0.0028746049602125630 
-0.037411952606485300 
0.037297952706941190 
-0.0071754069631495560 
-0.010046263597667065 
0.052517361020886810 
0.027905409657554630 
-0.010708165957175626 
0.037297952706941190 
0.016676748142451674 
0.024287531543676600 
0.016676748142451674 
0.016676748142451674 
-0.021041535210342010 
0.012532892065491363 
-0.026761780326127728 
0.016676748142451674 
0.026928196340249080 
0.016676748142451674 
0.016676748142451674 
0.026928196340249080 
0.012534000628947382 
0.0056934568508170440 
-0.0070416371933966420 
0.041377376212550310 
0.0065377324068520800 
-0.022665946779190337 
0.034391648892763990 
-0.042340019738531350 
0.034237434016141335 
-0.041656649853169160 
0.029626045342048914 
-0.013525235920492465 
-0.025572374028030333 
0.016951383800427790 
0.016469033283519695 
0.017327338694851040 
-0.018440531153816180 
-0.024262707146109716 
0.033897413104921430 
-0.030807758275022940 
-0.014557153468727388 
-0.025808533015067574 
0.015505130723351338 
-0.020090251265311283 
-0.019289236105346110 
0.023092490309895193 
0.014894869459006256 
0.023092490309895193 
0.035338961356228850 
0.0028746049602125630 
0.034579189342344670 
0.029502972387541168 
-0.0075886745864449040 
0.057513192152787884 
-0.0075886745864449040 
-0.020090251265311283 
0.0048880782533298050 
-0.075933562077628930 
-0.0056700766941679150 
0.015738430045595723 
0.010071417731699494 
0.023092490309895193 
0.020304407154717076 
0.025427190978956270 
0.076811954591628410 
0.029626045342048914 
-0.043814365338128840 
0.029626045342048914 
-0.012054810918512805 
0.039908073293149646 
0.0049394757293073830 
0.013722497890584679 
0.057513192152787884 
0.015892062289651857 
-0.018440531153816180 
0.030078414464041348 
0.020304407154717076 
-0.018440531153816180 
-0.016563240524376790 
-0.016563240524376790 
0.015179657520660186 
-0.0016604825947429632 
-0.0016604825947429632 
-0.018440531153816180 
0.020304407154717076 
-0.0016604825947429632 
-0.018440531153816180 
-0.0016604825947429632 
0.010071417731699494 
-0.010046263597667065 
0.029626045342048914 
0.039908073293149646 
0.019801031918422703 
-0.021041535210342010 
0.019801031918422703 
-0.0046424204945547140 
0.026558835187451660 
0.034391648892763990 
-0.022253765893664318 
0.0048880782533298050 
0.016469033283519695 
0.056615147489217350 
-0.036469420847599060 
0.018175097196497948 
0.027981993071932467 
0.0088916380127871300 
0.018175097196497948 
-0.035827650011686520 
-0.098230080142182820 
0.036059425728664725 
-0.035827650011686520 
-0.042340019738531350 
-0.049011431989104105 
-0.021041535210342010 
0.016951383800427790 
0.016103067886150554 
0.039129556739834680 
-0.010046263597667065 
0.072095623459540600 
0.032974407712642075 
-0.027371005646831575 
0.0056202462979805700 
0.0056202462979805700 
0.032974407712642075 
0.0037837578888948223 
0.027981993071932467 
0.022144581757327926 
0.0093305601424871800 
-0.029572347373307935 
0.0096078620016094430 
-0.012789091909322734 
0.0077452877192377410 
0.033897413104921430 
-0.039987337182206740 
0.038401477738993930 
0.0065377324068520800 
0.0048948752053018475 
0.012838606407910240 
-0.014557153468727388 
0.018117166194764694 
0.0056202462979805700 
-0.017701864867327364 
0.014799500329133940 
0.021155027644031633 
0.035516117942928985 
0.047611532883802820 
-0.024304871777064480 
0.025427190978956270 
-0.013525235920492465 
0.0065377324068520800 
0.062503507661681850 
0.027905409657554630 
0.019948278721009228 
-0.010708165957175626 
0.062503507661681850 
0.014894869459006256 
-0.037080428817083750 
0.0065377324068520800 
0.019948278721009228 
0.019100412772317648 
-0.043814365338128840 
-0.082944352806566330 
0.072928750792865190 
-0.014557153468727388 
-0.070950719725698700 
0.019948278721009228 
-0.027884287838961890 
-0.0091718299833370970 
0.016103067886150554 
0.023890541450241925 
-0.0091718299833370970 
-0.0091718299833370970 
-0.0070416371933966420 
-0.0070416371933966420 
0.0074361326314935650 
0.016191367730697120 
0.019948278721009228 
0.0056934568508170440 
0.039129556739834680 
0.0049394757293073830 
-0.017397138388406244 
0.026558835187451660 
-0.0012869211428035707 
-0.010046263597667065 
0.034579189342344670 
-0.021430286090949296 
0.024287531543676600 
-0.021430286090949296 
-0.0075886745864449040 
0.026558835187451660 
0.017679297588248204 
0.026558835187451660 
-0.021430286090949296 
-0.037785565157209114 
-0.046427301590964300 
-0.074657025200780700 
-0.045257186590889950 
-0.016315065561408767 
-0.021041535210342010 
0.019100412772317648 
0.011680171899868218 
-0.037080428817083750 
0.019801031918422703 
-0.019194951740383152 
-0.030807758275022940 
0.014799500329133940 
-0.048584065874386910 
-0.0010998392701466940 
0.010071417731699494 
0.057513192152787884 
-0.024304871777064480 
0.024287531543676600 
-0.033953526195040270 
0.051727136649358914 
0.011730930269775473 
0.0074361326314935650 
-0.020679926172096894 
0.012838606407910240 
0.010209250916718034 
0.0074361326314935650 
0.026975148336007174 
-0.0071754069631495560 
-0.013300314600404966 
-0.0074570214183022130 
0.018117166194764694 
0.032974407712642075 
0.014348568006511624 
0.011680171899868218 
0.043701455722441516 
-0.037785565157209114 
0.019801031918422703 
0.053446761789214925 
-0.046427301590964300 
-0.035827650011686520 
-0.025919051081227957 
-0.0091718299833370970 
0.015892062289651857 
0.0037837578888948223 
0.0037837578888948223 
-0.026296139692038380 
-0.0071754069631495560 
0.013841888193521409 
-0.011758569801903712 
-0.012789091909322734 
-0.037576044440064310 
0.020304407154717076 
-0.012054810918512805 
-0.015981382869110630 
-0.036700045341255795 
0.066553736607740920 
-0.018440531153816180 
-0.0075886745864449040 
-0.0010998392701466940 
0.016951383800427790 
0.0088916380127871300 
0.0088916380127871300 
0.016951383800427790 
0.016676748142451674 
0.039908073293149646 
-0.020090251265311283 
0.026975148336007174 
-0.030875100735969233 
0.056615147489217350 
-0.035827650011686520 
0.027981993071932467 
-0.015021910163154113 
0.027981993071932467 
-0.044952704297572950 
0.017803503368969800 
-0.012789091909322734 
-0.015021910163154113 
-0.030768050212268368 
0.034237434016141335 
0.11066724344734202 
0.025427190978956270 
-0.020679926172096894 
0.0056934568508170440 
-0.013300314600404966 
0.017327338694851040 
-0.013300314600404966 
-0.021041535210342010 
-0.025572374028030333 
0.014894869459006256 
0.051727136649358914 
0.11684312045709135 
0.062503507661681850 
0.019153489326413402 
-0.044952704297572950 
0.081495587435983060 
-0.074657025200780700 
0.019100412772317648 
-0.0016604825947429632 
0.11684312045709135 
0.035936075716298164 
0.0028746049602125630 
-0.069285988062978250 
0.035093019358552795 
0.012534000628947382 
0.027981993071932467 
0.019948278721009228 
0.017327338694851040 
-0.033277169685171845 
-0.0074518612375724280 
0.027676754293420790 
-0.074365195931893570 
0.016469033283519695 
0.016469033283519695 
0.016469033283519695 
0.038975612109611320 
0.0037837578888948223 
0.0037837578888948223 
0.035936075716298164 
-0.049011431989104105 
-0.044952704297572950 
0.034579189342344670 
-0.037785565157209114 
-0.013525235920492465 
-0.020090251265311283 
0.062503507661681850 
-0.037576044440064310 
0.081495587435983060 
0.062503507661681850 
0.062503507661681850 
0.0074361326314935650 
-0.042605344877327470 
0.0074361326314935650 
-0.0075886745864449040 
-0.012054810918512805 
-0.0010998392701466940 
0.017803503368969800 
0.076586584950474500 
-0.0074570214183022130 
-0.0074570214183022130 
-0.0074570214183022130 
0.023092490309895193 
-0.0074570214183022130 
0.032974407712642075 
0.032974407712642075 
0.032974407712642075 
-0.0010998392701466940 
0.056615147489217350 
-0.074944918000032000 
0.057513192152787884 
-0.024304871777064480 
-0.024304871777064480 
-0.024304871777064480 
-0.0074570214183022130 
-0.024304871777064480 
-0.0074570214183022130 
-0.024304871777064480 
-0.024304871777064480 
-0.024304871777064480 
-0.024304871777064480 
-0.048132243748064144 
-0.024304871777064480 
0.051727136649358914 
0.025025871985442774 
0.0074361326314935650 
0.010209250916718034 
0.010209250916718034 
-0.012789091909322734 
0.010209250916718034 
0.010209250916718034 
0.020239880382600026 
0.0037837578888948223 
-0.020213066525907812 
-0.012789091909322734 
0.010209250916718034 
0.020239880382600026 
0.010209250916718034 
-0.023310604143217454 
0.0074825947692564860 
-0.026296139692038380 
0.0074361326314935650 
-0.013412917017582030 
0.010209250916718034 
-0.0047521582224989275 
-0.0047521582224989275 
-0.042336066810028030 
-0.0047521582224989275 
-0.012789091909322734 
0.0037837578888948223 
0.010209250916718034 
-0.026756917137836976 
-0.026296139692038380 
0.0037837578888948223 
-0.042336066810028030 
-0.030768050212268368 
0.010209250916718034 
-0.042336066810028030 
0.010209250916718034 
0.010209250916718034 
0.034237434016141335 
0.0037837578888948223 
-0.042336066810028030 
0.010209250916718034 
-0.016315065561408767 
0.010209250916718034 
0.0037837578888948223 
0.010209250916718034 
-0.049736034838876220 
-0.037576044440064310 
-0.026761780326127728 
-0.012789091909322734 
-0.012789091909322734 
0.011730930269775473 
-0.020213066525907812 
0.012532892065491363 
-0.012789091909322734 
-0.016563240524376790 
0.015892062289651857 
-0.0016604825947429632 
-0.027371005646831575 
-0.018440531153816180 
-0.0012869211428035707 
-0.0056700766941679150 
-0.092650935092146720 
0.012532892065491363 
0.016103067886150554 
0.051727136649358914 
0.072928750792865190 
0.053446761789214925 
0.015892062289651857 
-0.048664219260000080 
0.011680171899868218 
-0.035827650011686520 
-0.049011431989104105 
-0.033277169685171845 
-0.019194951740383152 
0.0088916380127871300 
-0.033953526195040270 
0.035936075716298164 
-0.033277169685171845 
-0.0074570214183022130 
0.062503507661681850 
-0.027884287838961890 
0.023213972389701933 
0.044908771547648450 
0.039129556739834680 
-0.044952704297572950 
-0.030875100735969233 
-0.0010998392701466940 
0.015892062289651857 
0.012958883450065099 
-0.020090251265311283 
0.016951383800427790 
0.038015404154344320 
-0.021041535210342010 
-0.092650935092146720 
0.014799500329133940 
-0.020090251265311283 
-0.030768050212268368 
-0.025808533015067574 
-0.010046263597667065 
-0.072343532100930570 
-0.028915326388065522 
-0.016706839019328776 
0.034237434016141335 
-0.012805549961986665 
-0.037576044440064310 
-0.046427301590964300 
0.0074361326314935650 
-0.0012869211428035707 
0.023092490309895193 
-0.027884287838961890 
-0.016563240524376790 
-0.025808533015067574 
-0.012789091909322734 
0.016951383800427790 
0.016469033283519695 
-0.025668707657827677 
0.034237434016141335 
0.015892062289651857 
0.011680171899868218 
-0.043814365338128840 
0.036391721704642660 
-0.073663158056799530 
-0.073663158056799530 
-0.022665946779190337 
0.0065377324068520800 
-0.0010998392701466940 
-0.0091718299833370970 
0.014348568006511624 
-0.035827650011686520 
0.011730930269775473 
0.0065377324068520800 
0.014348568006511624 
0.014348568006511624 
-0.045907930065251075 
0.054727815899938320 
0.039908073293149646 
0.014348568006511624 
0.0037837578888948223 
-0.0047521582224989275 
-0.023310604143217454 
-0.020857813473298260 
0.013722497890584679 
-0.046427301590964300 
-0.018440531153816180 
0.027524912556961354 
0.0065377324068520800 
-0.0091718299833370970 
-0.022665946779190337 
0.014348568006511624 
0.054728561388739494 
-0.0074570214183022130 
0.016191367730697120 
0.014348568006511624 
0.0088916380127871300 
0.035936075716298164 
0.014348568006511624 
0.0048880782533298050 
-0.046427301590964300 
-0.0074570214183022130 
-0.0087513857809648400 
-0.022665946779190337 
-0.0014465670101271263 
-0.0074570214183022130 
-0.025572374028030333 
0.014348568006511624 
-0.037686317807690446 
-0.0074570214183022130 
0.0056202462979805700 
-0.037686317807690446 
0.022882923734851113 
0.023213972389701933 
0.019100412772317648 
0.053446761789214925 
0.066553736607740920 
-0.036469420847599060 
0.011680171899868218 
0.0065377324068520800 
0.011680171899868218 
0.014348568006511624 
0.026928196340249080 
-0.018440531153816180 
-0.011758569801903712 
-0.016706839019328776 
-0.0091718299833370970 
0.062503507661681850 
-0.0016604825947429632 
-0.044952704297572950 
-0.0074570214183022130 
-0.018440531153816180 
0.027981993071932467 
0.027981993071932467 
0.027981993071932467 
0.055525681785786500 
-0.035827650011686520 
0.027981993071932467 
-0.070950719725698700 
0.027981993071932467 
0.027981993071932467 
0.011680171899868218 
-0.037785565157209114 
0.0028746049602125630 
-0.0010998392701466940 
-0.0010998392701466940 
-0.033953526195040270 
0.027981993071932467 
-0.013525235920492465 
0.016469033283519695 
-0.072343532100930570 
-0.014427940723458776 
-0.025668707657827677 
-0.012805549961986665 
-0.012789091909322734 
-0.082944352806566330 
0.012838606407910240 
-0.0010998392701466940 
0.017327338694851040 
-0.024304871777064480 
0.026928196340249080 
0.034579189342344670 
0.0074361326314935650 
-0.082944352806566330 
0.016676748142451674 
-0.026296139692038380 
0.028117477771701357 
0.011680171899868218 
0.011680171899868218 
-0.082944352806566330 
-0.013300314600404966 
-0.049736034838876220 
-0.020857813473298260 
-0.012054810918512805 
0.017679297588248204 
-0.046427301590964300 
-0.020679926172096894 
-0.033277169685171845 
-0.014557153468727388 
0.034237434016141335 
-0.015021910163154113 
-0.0016604825947429632 
0.037297952706941190 
0.017803503368969800 
0.034579189342344670 
-0.072343532100930570 
0.015892062289651857 
0.011680171899868218 
0.044908771547648450 
0.023213972389701933 
-0.0016604825947429632 
0.057593935674982756 
-0.035827650011686520 
0.026975148336007174 
-0.045907930065251075 
0.019948278721009228 
-0.035827650011686520 
0.027676754293420790 
0.032043763023757750 
0.0056934568508170440 
-0.026761780326127728 
-0.013525235920492465 
0.076745989337351270 
0.034579189342344670 
-0.027371005646831575 
0.057593935674982756 
0.032974407712642075 
0.076586584950474500 
-0.021171190363104130 
0.038401477738993930 
0.016951383800427790 
-0.0012869211428035707 
-0.013525235920492465 
0.014894869459006256 
-0.033277169685171845 
-0.0016604825947429632 
-0.010046263597667065 
-0.015495003365882234 
-0.036469420847599060 
0.027981993071932467 
-0.010708165957175626 
0.014894869459006256 
0.0074361326314935650 
0.027524912556961354 
-0.016706839019328776 
-0.025919051081227957 
0.018175097196497948 
-0.0010998392701466940 
-0.037314188167756100 
0.0056934568508170440 
0.0056934568508170440 
-0.012805549961986665 
0.032962111440294660 
0.035093019358552795 
0.018117166194764694 
0.0028746049602125630 
0.039129556739834680 
0.056615147489217350 
-0.0091718299833370970 
0.015738430045595723 
0.027676754293420790 
-0.025919051081227957 
0.014894869459006256 
0.0037837578888948223 
-0.0010998392701466940 
0.025025871985442774 
0.034579189342344670 
0.030939946377212327 
0.019948278721009228 
0.0028746049602125630 
-0.028915326388065522 
-0.0074570214183022130 
0.035516117942928985 
-0.026756917137836976 
0.014102398648731385 
-0.037314188167756100 
0.0081204690750107300 
-0.058503559307057910 
-0.0012869211428035707 
0.022882923734851113 
0.056615147489217350 
-0.0012869211428035707 
0.0088916380127871300 
0.0056934568508170440 
0.063946982621224100 
-0.0012869211428035707 
-0.037686317807690446 
0.016676748142451674 
-0.0074570214183022130 
0.0052002431072234310 
-0.066728664798744010 
0.0056202462979805700 
0.028117477771701357 
0.016676748142451674 
-0.024262707146109716 
0.044141428250435810 
-0.0074570214183022130 
0.027524912556961354 
-0.025668707657827677 
0.0028746049602125630 
0.0049394757293073830 
0.011680171899868218 
0.016469033283519695 
0.017327338694851040 
0.034391648892763990 
-0.044952704297572950 
0.0048880782533298050 
-0.046427301590964300 
-0.018440531153816180 
0.016469033283519695 
-0.035827650011686520 
0.023213972389701933 
0.0088916380127871300 
0.011680171899868218 
-0.037576044440064310 
0.0056202462979805700 
0.025427190978956270 
0.0074361326314935650 
0.019353845690871950 
0.039116934665268395 
0.0088916380127871300 
0.022882923734851113 
0.026928196340249080 
-0.032503381383806304 
0.019801031918422703 
-0.024304871777064480 
0.011680171899868218 
-0.025572374028030333 
0.056615147489217350 
-0.030807758275022940 
0.11066724344734202 
-0.0010998392701466940 
0.062950669400353080 
-0.030807758275022940 
0.012838606407910240 
-0.049011431989104105 
-0.021950382267483918 
0.0074361326314935650 
0.018117166194764694 
-0.0010998392701466940 
0.034237434016141335 
-0.0010998392701466940 
-0.030768050212268368 
-0.0010998392701466940 
0.027524912556961354 
0.016676748142451674 
-0.049011431989104105 
-0.0074570214183022130 
-0.024262707146109716 
0.0056934568508170440 
0.010209250916718034 
-0.031767766986357374 
0.027981993071932467 
-0.013412917017582030 
0.035516117942928985 
0.014894869459006256 
0.0048880782533298050 
0.027524912556961354 
0.014894869459006256 
-0.0075886745864449040 
-0.025668707657827677 
0.019353845690871950 
0.022882923734851113 
0.0065377324068520800 
-0.026761780326127728 
-0.0047521582224989275 
-0.049011431989104105 
-0.019289236105346110 
0.086245631584399920 
-0.0070416371933966420 
0.032902277918990240 
0.013722497890584679 
-0.012054810918512805 
0.051727136649358914 
0.0049394757293073830 
-0.0074518612375724280 
0.026975148336007174 
-0.017397138388406244 
0.023890541450241925 
-0.014557153468727388 
0.018117166194764694 
0.047611532883802820 
-0.028915326388065522 
-0.020857813473298260 
-0.021041535210342010 
-0.0074570214183022130 
0.047611532883802820 
0.0096821739804169930 
-0.016315065561408767 
-0.011758569801903712 
0.023092490309895193 
0.034391648892763990 
-0.0016604825947429632 
0.012534000628947382 
0.023213972389701933 
-0.024262707146109716 
0.0088916380127871300 
-0.0012869211428035707 
-0.0056700766941679150 
-0.010046263597667065 
-0.019289236105346110 
0.0049394757293073830 
-0.027884287838961890 
0.0049394757293073830 
-0.010651610457257031 
0.032043763023757750 
-0.010046263597667065 
-0.0075886745864449040 
0.023890541450241925 
0.0056202462979805700 
0.016951383800427790 
-0.048664219260000080 
0.044141428250435810 
-0.0075886745864449040 
0.0048880782533298050 
0.11893669643029140 
0.027524912556961354 
0.019353845690871950 
0.011730930269775473 
-0.0056700766941679150 
0.019353845690871950 
0.012838606407910240 
-0.037314188167756100 
0.034579189342344670 
0.012838606407910240 
-0.026756917137836976 
-0.048664219260000080 
-0.0074570214183022130 
0.0049394757293073830 
-0.037785565157209114 
0.057894336954136885 
0.0074361326314935650 
-0.025668707657827677 
-0.048664219260000080 
0.013522201924494470 
-0.033002417816099380 
-0.047941282301432100 
0.019353845690871950 
0.032043763023757750 
0.0056934568508170440 
0.038015404154344320 
-0.037314188167756100 
0.0056202462979805700 
0.014894869459006256 
-0.018740926240115773 
0.072928750792865190 
0.028697906374946620 
0.014799500329133940 
-0.019289236105346110 
-0.019289236105346110 
-0.026756917137836976 
0.021156778084682700 
0.023213972389701933 
0.0088916380127871300 
-0.017397138388406244 
0.027905409657554630 
0.027524912556961354 
0.035093019358552795 
0.043701455722441516 
0.025427190978956270 
-0.012805549961986665 
-0.020090251265311283 
0.072095623459540600 
-0.074657025200780700 
-0.025919051081227957 
-0.041656649853169160 
0.018175097196497948 
-0.010046263597667065 
-0.092650935092146720 
0.073374913064976150 
0.015179657520660186 
0.019353845690871950 
0.0074361326314935650 
-0.013412917017582030 
0.0065377324068520800 
-0.069285988062978250 
0.027524912556961354 
0.019948278721009228 
-0.0070416371933966420 
-0.036469420847599060 
0.011680171899868218 
0.033897413104921430 
-0.017397138388406244 
0.073374913064976150 
-0.0074570214183022130 
0.032962111440294660 
0.036391721704642660 
0.012534000628947382 
0.024287531543676600 
-0.022665946779190337 
-0.020679926172096894 
-0.024304871777064480 
0.019100412772317648 
0.063946982621224100 
-0.021430286090949296 
0.025427190978956270 
-0.013412917017582030 
-0.025919051081227957 
0.029626045342048914 
-0.035827650011686520 
0.041377376212550310 
-0.025572374028030333 
-0.043814365338128840 
-0.020090251265311283 
-0.082944352806566330 
0.018175097196497948 
-0.012789091909322734 
0.033897413104921430 
0.011680171899868218 
0.034237434016141335 
0.010071417731699494 
0.015892062289651857 
0.034579189342344670 
-0.028915326388065522 
0.17653958800968356 
0.016191367730697120 
0.11066724344734202 
-0.026296139692038380 
0.013722497890584679 
0.0074361326314935650 
-0.022253765893664318 
-0.020857813473298260 
-0.030768050212268368 
0.0074361326314935650 
-0.012054810918512805 
0.063946982621224100 
0.0074361326314935650 
0.016951383800427790 
-0.0046424204945547140 
-0.012019486493277788 
0.11893669643029140 
-0.012019486493277788 
0.035516117942928985 
-0.026761780326127728 
0.024287531543676600 
0.025025871985442774 
0.015892062289651857 
-0.037576044440064310 
0.032103132962797000 
0.025025871985442774 
0.011730930269775473 
0.016191367730697120 
0.015892062289651857 
0.025025871985442774 
-0.013412917017582030 
0.026975148336007174 
0.045754826980492484 
0.045754826980492484 
-0.037080428817083750 
0.018117166194764694 
0.026975148336007174 
0.018117166194764694 
-0.025668707657827677 
0.016951383800427790 
-0.020090251265311283 
0.0074361326314935650 
0.0074361326314935650 
0.018117166194764694 
-0.020090251265311283 
0.018175097196497948 
-0.020213066525907812 
0.026975148336007174 
0.034579189342344670 
0.018117166194764694 
-0.048873138686860270 
0.011730930269775473 
-0.042682307610105260 
-0.0074570214183022130 
0.016951383800427790 
0.018117166194764694 
0.11066724344734202 
0.11893669643029140 
-0.046139445270687520 
-0.041656649853169160 
-0.066728664798744010 
0.025427190978956270 
0.038401477738993930 
-0.041656649853169160 
0.032974407712642075 
