solver_type L2R_L2LOSS_SVC
nr_class 2
label 1 -1
nr_feature 7999
bias 0.0000000000000000
w
-0.042588597911422330 
-0.036601598845631600 
-0.030350332818229760 
-0.035924020479532550 
-0.041805485171107210 
-0.052270713161457670 
-0.049017669294143900 
-0.038522116252542093 
-0.033222886818318254 
-0.038976921474210900 
0.029945757765343056 
0.039127193326707490 
0.058197806959434155 
-0.046860724218690120 
-0.042761490149286070 
-0.016680415327207210 
0.050757365513989315 
0.040822665473342540 
0.025090820757380856 
-0.033181366832216760 
0.027547878183943292 
0.014585763128063563 
0.046024487998816200 
-0.034769636823833280 
0.019888320103266750 
-0.011664896599727715 
-0.060527234537080090 
0.032291127541580080 
0.024867435417515092 
-0.016039664886705140 
-0.061443557320375895 
-0.0037139043064273567 
0.028162737964259650 
0.037108949498902190 
0.019436351182795335 
0.031176264189143068 
0.038842938284742090 
-0.039912937627768330 
0.024648303911651924 
-0.032921206093789020 
0.021254271498383220 
-0.025864855856805435 
-0.0034253886966711393 
0.0062858804392270700 
0.057612359132940126 
0.024787893121082025 
0.019260472696207287 
-0.016533406476343470 
-0.034009611203563920 
-0.0039005216984627560 
0.014378780461014061 
-0.018095699050935130 
0.031153023059438317 
-0.023280695509665330 
0.023292895407712635 
0.014110933587001818 
-0.022117860323364203 
-0.043548056339394260 
0.013541429636769170 
-0.026822550493971677 
-0.032270731023508340 
-0.014473705953102933 
-0.021843081860035352 
0.010883827442999892 
-0.024177779043835345 
-0.018660496015031405 
-0.028233908797907145 
0.043720349090643480 
0.045704573433052065 
0.014511491344993365 
-0.021452500933372642 
-0.019039309748484147 
-0.035975266743508746 
0.038744197905233466 
-0.013688024196307927 
0.0049003857129421020 
0.020227893110454810 
-0.015772008082003840 
0.0025379829360824630 
-0.0069870898606024140 
0.022699138138164170 
0.046126964966146020 
0.017230822577384525 
-0.022230398089963892 
0.025969472797311100 
0.022861151293614133 
0.0051654048296376560 
0.022576424679036740 
-0.014982518729120525 
0.031881874630485404 
0.010732835488386262 
-0.010422902221372100 
-0.0060692674176391050 
0.024676874247108998 
-0.033630804361310310 
-0.049623907391968720 
-0.018894539610265007 
-0.014939351606904735 
-0.010343376475202821 
0.011830328108547774 
0.016124017955650376 
0.010087009146893000 
-0.011133437049853813 
0.0064792948808453050 
0.0086085478177142200 
0.013873207834919878 
-0.021335777777782554 
-0.014871545482458766 
-0.0040594664921684890 
-0.060983226956035200 
-0.025069344293658940 
0.0082939850082818620 
-0.020935764357576887 
0.032266784054864230 
0.0032179603998730958 
-0.016361730861906915 
0.0063351773293629250 
0.025727427550531430 
0.016318898825314920 
0.0069952599128477210 
-0.043555006226307920 
-0.034432364330958720 
0.010959310770546765 
-0.018855091702915477 
-0.010314816312812098 
-0.023761551694448824 
-0.027971573907345690 
-0.025647915437446524 
0.030304713717909400 
-0.015084789772069548 
-0.019955455175617060 
-0.011051256140412148 
-0.0047331783596660000 
0.010496786182131436 
0.035170818425406970 
0.020755454331873497 
-0.017820202366077436 
-0.024170407358796050 
0.029524257329899366 
-0.032844597252574120 
0.010962246443969483 
-0.012122611283347150 
-0.017212641278139124 
0.032881652034180060 
-0.010657583867124587 
0.015988026111572406 
-0.031454682325800810 
-0.027415637589609597 
0.019948699924869515 
0.021753468874047534 
-0.022334776125546484 
0.029774687937763140 
-0.023221144248155520 
-0.027611908526714836 
-0.0056494628520470960 
-0.027225532007654544 
-0.019774892150495350 
-0.015039952524341703 
-0.025992240535433794 
0.0034898055521241913 
-0.028176918217374650 
-0.011093055476655267 
-0.0087455282119546300 
-0.011206971115799567 
0.0035538465394310717 
0.026329282568267130 
-0.010266186043272590 
-0.027354187038092087 
0.0069662050809226360 
-0.010099505270850826 
0.016202311080408274 
0.011589507411901553 
0.015215231513478353 
0.0061026522007866950 
0.0094598735391200500 
0.015524955616494324 
-0.021969749221024750 
-0.013797817172978635 
0.019807270922395575 
0.0053204687405548120 
0.021340700440295600 
-0.030239965939815450 
0.0050799750237981830 
-0.015004587083854170 
0.013347179216562904 
-0.014364529362144870 
-0.023095622873787015 
0.0062115697135942600 
0.011326349257739456 
0.034298541980227130 
0.0022296844088689420 
-0.014825419379932012 
-0.016425886889291210 
-0.018599576911029116 
0.022042450781154823 
0.011264012415930473 
-0.014265106154168677 
0.0076112247265632510 
-0.0093477356994638110 
-0.0022703861195063620 
0.023456454345239856 
-0.015477285435860777 
-0.0098362448114295600 
-0.016330763615548693 
0.051023048980238460 
0.021811122676057438 
-0.018841961437093494 
0.010302853351845017 
-0.013646101028643857 
0.020291825751046040 
0.011523159103519401 
-0.023428818826768840 
-0.018228819680198700 
-0.0090551918581664850 
-0.020145255087952462 
0.012868356973015048 
-0.011825216407068390 
0.013899326181775756 
-0.022791129482002620 
-0.017310961658249295 
0.019897298998753962 
-0.011073989429743693 
-0.020762870629376870 
-0.013002628118459740 
-0.012945978704649943 
0.012447437144103955 
0.012285099332644251 
0.0069428752901083990 
-0.010211482093792374 
0.037506350703680040 
-0.012225857774791234 
-0.015103216214048578 
-0.014216368566752813 
0.022343146767696960 
-0.015382994099058491 
-0.0071139009590743610 
-0.015438295454100423 
-0.012493170646888574 
-0.011353293614633825 
-0.019807945344981570 
0.0049081483277260480 
-0.017968996221002717 
0.015834735638447856 
-0.015775044540984842 
-0.032976412697142535 
-0.011741274904776600 
0.012326671522202546 
-0.030424718897357180 
-0.016248288385017844 
0.015731389035989543 
0.010817652118680330 
-0.0054230205186454840 
-0.019772874698279610 
0.010149443949394304 
0.012194991679506302 
0.011036651471733838 
-0.015112480822019358 
0.0089524288548060230 
0.014737738223372605 
-0.032249424962762180 
-0.038713069552632400 
-0.013815583538429500 
0.014683570819428421 
-0.018947457525594527 
-0.013858927452350990 
-0.024800479390963224 
-0.023519478865600630 
0.018202471390403183 
0.012445071158613477 
-0.014830672871277466 
-0.013072784267608885 
-0.031817998839289530 
-0.034917303730887000 
-0.018683293369352566 
-0.027674782825752118 
-0.032363945123293290 
-0.019902919849867362 
-0.035145467338590884 
0.013579231507967554 
-0.012370788722221197 
0.015038851580550473 
0.0061614692258023240 
0.018227107721680715 
-0.015822678369383787 
0.022376051340044720 
-0.023811409239958760 
-0.015570135687095605 
-0.020759878803262348 
0.0088073172060700190 
0.028896607292844254 
-0.020834594005582362 
-0.014517835147729844 
0.0057440544796180340 
-0.0048622061563248185 
0.0098152289371458040 
-0.014642304613161797 
0.012986284054955630 
0.022473433684545154 
0.014617502435814510 
0.014457594733758771 
0.020717931755156260 
-0.012628717231332635 
0.018531196979930660 
0.0089047117110182870 
0.011014354731099357 
0.025723710259969530 
0.016894149441967956 
0.011079293729412206 
0.024978380476257177 
-0.011547809794520929 
-0.024576543764404563 
0.030998881556595036 
0.023847075254694098 
-0.010461417749432546 
-0.026204417463802688 
-0.038784646063121875 
-0.026205168875235146 
0.015821202092032107 
-0.024331338154007460 
-0.020931259641816290 
0.018295658346127910 
-0.022110826438633623 
-0.0032876356968176406 
0.015632916286322660 
-0.010070167698149020 
-0.0065511712880899990 
-0.0059069383130507080 
-0.031001386738704870 
0.026257823756180968 
0.023325155553021223 
0.0032558960821373850 
5.4621503125374836e-05 
0.031766907392690336 
0.019544422752622670 
-0.013536117988795166 
0.012459970032507229 
-0.032734750963078050 
-0.018180211082428270 
0.016321117398013100 
-0.014488013602387318 
-0.0099027950791749020 
0.016421552148144617 
0.0097772912306371900 
0.025159520121760430 
0.011536638111979079 
0.0015779996381830583 
0.011735132598730907 
-0.037078996370512420 
0.00031847369074530394 
-0.010979689098271753 
0.036884125421963960 
-0.0054397445086161200 
-0.057788687763207884 
0.0028381217632060967 
-0.019626871827322583 
0.011947395491895548 
0.0089411132443637830 
0.0062474188869368800 
0.0052234200564963970 
0.011588687809465582 
-0.0091920774785374730 
0.028119062274172275 
0.016318115043849273 
0.00077596171059894190 
0.0069956929098747400 
0.0080884863003049260 
0.047512840877834280 
-0.022734438352765290 
-0.010553054665097160 
-0.018066668262328382 
-0.011480425931130050 
-0.015947322789366787 
0.017405098101311550 
-0.016936491555102417 
-0.031778737904978750 
0.0068621447202724150 
-0.0052164574601091120 
-0.0088574073601832040 
-0.016857781930110068 
0.014148794591683684 
-0.0098045282719191470 
0.013238021516636146 
-0.0082968722503712430 
0.019519643371239110 
0.0053016229069713700 
-0.028603611892287360 
-0.0092403862604559450 
0.0065223060254784400 
-0.037528689985732800 
-0.0063092953097115630 
0.032582642269498995 
0.015758242075563103 
0.0077900253089957985 
0.0067893725302601170 
-0.00082918357903372430 
0.017585005892938314 
-0.017555815709200570 
-0.0039854519075396430 
0.0087829419365959060 
-0.0070982463529220170 
0.00052796621455029550 
0.0022936561679224336 
-0.015162696756710116 
0.0069345288158379100 
-0.014298810306319201 
-0.017249505741405820 
0.019322872646742754 
-0.018078169978753073 
-0.016048403037238403 
0.0074726193998638620 
-0.0043087055949074490 
-0.011089978226386552 
0.0062741072393509055 
0.031022823576165166 
-0.0030316969878903177 
0.018034622855132017 
0.0090390978849553080 
-0.020988689300951036 
0.013291030782463117 
0.023051385781353562 
0.026993871436186485 
0.012288183467553284 
-0.0061310409942647495 
0.014170715569440601 
0.011433200717432975 
0.0013418239619339644 
-0.010223332880061952 
-0.011953171362699574 
-0.0077615116380254100 
-0.013894992655431529 
0.012001482197137613 
0.015499968238542350 
-0.010327958139495169 
0.0052912038912953170 
-0.0094234987397304580 
-0.017718240602002440 
-0.0093448142614234000 
0.0063440285768841980 
0.013039077390786549 
-0.017802364444639906 
0.012790507568539417 
0.0091667834888052440 
-0.0016204252883854694 
-0.015779120502927135 
0.014391942515189900 
0.0094034108164964930 
0.0078799743882782620 
-0.0088026127191646750 
-0.0030783891720291647 
-0.012672273348131376 
-0.013399759756243766 
-0.0060360903016655700 
-0.0097041394308231140 
-0.039926478660005066 
0.027203895381236805 
-0.012894265394590432 
0.010775874837437352 
0.012222248942785651 
0.028884229679621290 
0.0081175677185569210 
-0.011951888057247893 
-0.0057641927591584150 
-0.040285290070401620 
0.014394872325736574 
0.0028224407252642127 
-0.0073386679146969160 
-0.012914557487575449 
0.0094556319165980520 
-0.0053357224233799300 
-0.019641555417827552 
-0.030183130076210988 
0.014170715569440601 
-0.012295142648730344 
0.0079364187712328040 
-0.010996547941701030 
0.017369135154563176 
0.0059243827116793480 
0.012850208181021299 
-0.014717831903419904 
-0.016107994767271712 
-0.026489014371875080 
0.011156007606039435 
-0.0076611445880035760 
-0.011071687807416422 
-0.0029166242247825104 
0.0024370237899981754 
0.0045538506350991960 
0.017132733947505596 
-0.011294769968973028 
0.012046111059923816 
0.012938755630436657 
-0.0086062522269800460 
-0.012978188056891892 
0.0018009969226351077 
-0.011608268846054890 
0.010738992908445684 
-0.0066618466757053935 
-0.011394700198038201 
-0.018175136157503314 
0.022632696877466527 
0.027024561334480793 
-0.016197789364736932 
-0.0048749529623130120 
0.013116338168178428 
-0.010205675078915807 
0.013103897850824164 
0.0088299923498639680 
0.010160665735120580 
0.048480324708517514 
0.010711030300922785 
-0.0052977810955333820 
0.0056789627796280420 
-0.0045915394292338900 
0.0095949883072535200 
0.0075750518247869620 
0.00086566917627591910 
-0.0077558647686100130 
0.0053248028544430900 
0.0091292970944474130 
-0.0084174515417419610 
0.0072263112661593600 
-0.023067457651031450 
0.0070327064865947030 
-0.0043432425978260960 
-0.0045090152304255275 
0.015380374254269195 
0.012737103375932845 
-0.0069727294774937560 
0.020351988991705720 
0.015380086440997398 
0.0055535999469029810 
0.012574990079861575 
0.013195606012186578 
-0.0035768233222539057 
-0.0074393635984793450 
0.014558265532351438 
0.0047417589143326080 
-0.0093482579697578840 
-0.010293063952974984 
-0.0079754337575661930 
0.0062502154285032160 
-0.0058547128326234340 
-0.0013674734149385337 
0.015946841091629513 
-0.0037279303749559630 
-0.010899474009733415 
-0.016651602768810846 
0.014039473588077847 
0.0050888835538938340 
0.0088546455037753280 
-0.024336268935010466 
0.0043692942707795540 
-0.012666432415720545 
-0.025639667247854072 
0.012698987313386973 
-0.016513624891630503 
-0.0054409076106912030 
0.0074764838242403990 
0.026965656375188093 
-0.010691550525803077 
0.0076939249498806770 
0.024317606029076292 
-0.021039740621508745 
-0.0084932513372463530 
0.030667905742335500 
0.031694629906425326 
-0.0092260536204561120 
-0.024397630418205522 
-0.010327958139495169 
0.015464962178776175 
-0.019439258106507970 
-0.0065462565262158600 
-0.012628986070630776 
0.0049564197574248955 
-0.0042629468740036090 
0.021112793712431657 
0.0063660453927377410 
0.0029441808817877524 
0.0066318537020789515 
-0.0082961363454779800 
0.0057811203970532300 
-0.010301994578102708 
0.0047516175600579780 
0.0071162195099278925 
-0.012081867671611420 
0.022672970823408170 
-0.010626806672833295 
0.018398100483891736 
0.0099614727832568730 
0.017035894271657408 
0.0084269369879274700 
0.026393866005225315 
0.010353132954911881 
0.014180878197753350 
0.0095345933251847570 
0.011516196011424456 
-0.018392952772082066 
0.0074129333906483450 
-0.0077667137400769800 
-0.0085754867489163610 
0.017888432964401600 
-0.020797640087550610 
-0.010276433525954514 
0.013442345718054120 
-0.019606879025370665 
0.018476709042666524 
0.023540162307276140 
-0.0055299192481112100 
-0.011157622981326814 
-0.010619436857638703 
0.0078800651639701820 
-0.015093172122675334 
-0.010473781280655178 
-0.0064528179905882980 
-0.0079247875772831770 
-0.0088644022835070640 
0.0046735784108942960 
-0.023258160785536590 
0.011195272606527777 
-0.013628789225049070 
-0.0089461383889247230 
-0.022039746419509725 
-0.0071505108647867830 
0.0061427854729218200 
-0.0064438603243755710 
-0.024527506418060778 
-0.016533971244992392 
-0.013175258750811839 
0.015726954693054285 
-0.0077020506053474365 
0.0070503816325368800 
-0.011579220857989922 
0.013748496282719576 
0.026760213176427500 
0.027889221531551586 
-0.010182055740724106 
-0.023444883587661197 
-0.019424874312426624 
-0.029443890298368063 
-0.011600985554067744 
-0.0067015312828897160 
0.013293073677897695 
0.00018686289245538053 
-0.013265093611421723 
0.030164063536782730 
0.036827805966081510 
0.017028914466930130 
-0.0099428235152917870 
0.019293794169830604 
-0.012136722561724577 
-0.011051233845726576 
0.013266448081685525 
0.024441085345467083 
-0.0047018284702968630 
-0.019273412160622814 
0.024029602237629913 
-0.027382579305604123 
-0.011865539352528022 
-0.022752229121070694 
-0.024749749324611634 
0.032171442153537330 
0.018248978430158300 
0.024524972766334160 
0.028760919366648784 
0.030406201115286860 
-0.022470718509244186 
0.0088227868607528000 
-0.021763486454002880 
0.018513870844570724 
0.021112554221549385 
-0.0024008633138396110 
0.029803462796494330 
-0.023578604874275065 
-0.016811309982535553 
0.042242912866743700 
0.016449800034422115 
-0.026473402279190350 
-0.021585427784375045 
-0.022588425578535524 
0.0083743586814878280 
-0.0066855213943668410 
-0.013718122617608268 
0.032471102424615410 
0.0025200457818991610 
-0.022502269891450720 
0.00058174820341007610 
-0.021209385938679822 
-0.021441506894380326 
-0.0078605735237433070 
0.0048126553261217250 
0.025850647920272248 
-0.026087590834830760 
-0.019266909403433324 
-0.019362871602266452 
-0.0040793635016927720 
0.011923437600762662 
-0.021476294800170650 
0.017108398807107583 
-0.022055405346237636 
-0.017128587622045960 
0.0098876405109222540 
-0.025852883388366523 
-0.018468914798781936 
0.038704503292918850 
0.0012059244280177893 
-0.013684417162192508 
0.016114995777450830 
0.018855932429106447 
0.016596450584179915 
0.0069550086917933235 
0.028874428806398960 
-0.019679593720503367 
-0.010589908075321456 
-0.017026907950233396 
-0.013232731259660655 
-0.020997091231329490 
-0.014415653341781607 
-0.018074099470818603 
0.010681276992888006 
0.028558928193031217 
0.0082655276157215520 
0.00056501708555968770 
-0.0039289439618092090 
-0.018026898997114620 
0.0098701988018067960 
0.0013102891289812082 
0.031502101243029754 
-0.022375142511814373 
0.034170465447395980 
-0.016435692519529827 
-0.038462129085581710 
0.0072097268371575100 
-0.0086509018254772080 
0.016768880173589490 
-0.0031351634159421573 
-0.015539117924338541 
0.0075150887585276520 
0.019911171084135150 
0.017446645746209213 
-0.0057212116729170760 
-0.0029925558725165174 
-0.016516432358114550 
0.012504101917668655 
0.011641198085039200 
-0.0045705973641630670 
-0.0012858672375005795 
0.0099121776538330410 
-0.0039995757080270745 
-0.0078658717146220840 
0.024805753382613280 
-0.010730321803322259 
0.014308197486141691 
0.00058519305128029680 
-0.049127305181522220 
0.026670254799606870 
0.018578287860284867 
-0.014222165111306079 
0.0029242225396347004 
-0.021634987246823450 
-0.033365181157857984 
0.0055197840338697590 
0.0079046544880397190 
-0.027782783390378810 
0.024763669040387945 
-0.0023491043615635906 
0.038170932319724950 
-0.018401324940964255 
-0.023465400964229947 
-0.023586358841750220 
-0.025990373993788455 
-0.0074352101775235820 
-0.014145944755997461 
-0.0048365988585808120 
-0.010514177108151930 
0.023508719915443830 
-0.013021437693323345 
-0.019275556200230408 
-0.022761444377192703 
0.024537294340953120 
0.020746837659419863 
0.030784333060909278 
0.010260474151959378 
0.0025248351116054983 
0.025583936603792140 
0.018399341155129933 
-0.0094433384153506610 
-0.013058192896004283 
0.028736074255406394 
-0.014958105999455818 
-0.026224763441840460 
0.016469805622550390 
0.0039139902594475990 
-0.0041537186726574280 
-0.012512886890575677 
-0.021865511067801515 
-0.00061564366798854140 
0.036815862002264760 
0.0050325640619508175 
0.022227901601462347 
0.0052815284750155950 
-0.015419243173608661 
-0.0029576346253797478 
-0.0029922339073135470 
-0.0073061673864762980 
0.0069235145802447670 
-0.016808373985413308 
0.029177242955848056 
0.026499971850029640 
-0.033553221085331354 
-0.0067895343307436200 
-0.032779475590754600 
-0.00091837143215302050 
-0.015818315419030670 
-0.0040415129216251820 
-0.020178859553147497 
0.019687875618168460 
-0.016073097663440770 
-0.0018384047044457438 
-0.014242575494967914 
0.010333835561908433 
0.0062261670843423830 
-0.0015085150473987613 
-0.012126272988973988 
-0.040383893726673810 
0.011820334784828752 
0.0040232738928691840 
0.0052868068581559240 
0.0035208184336133663 
0.022569800996750936 
-0.022231177745558860 
0.032407523519837470 
-0.015852817126393330 
0.010121203920988137 
0.011625034606128404 
0.018709839534952238 
0.027848149938489030 
0.028174504286054960 
0.014268572882925339 
-0.0050606748788069355 
-0.0092232700048774180 
0.012901011870293275 
-0.014064695687161770 
-0.013268760313297871 
0.020997056293924808 
0.0067058456248564715 
0.012440476596190632 
-0.0017499129603585630 
-0.022199499404447737 
0.0046802725926404970 
0.024019170387988760 
-0.015896685398245380 
0.0067269409314007570 
0.018021370725005850 
-0.036474400261080410 
-0.040999635624821450 
0.0019254768696050140 
0.0088717281137159260 
0.023763313238610882 
0.012946175429428119 
0.0064413771423232080 
0.0018809177878790898 
0.00023407123082690062 
-0.0061346412410790850 
0.011661148297381702 
-0.017517264256419772 
0.0081801297710583040 
-0.032745633418209394 
-0.010012608687498502 
0.0059724018866215040 
-0.0023149479343075674 
0.0076235492648195570 
-0.0067443751233627150 
0.0070974702993321090 
0.0019833090257167120 
-0.0041683105650319340 
0.0027963250152627985 
0.0069029072206708670 
-0.0025840459595244535 
0.0023272791807504720 
-0.0064135004799536680 
0.00071288090523120540 
0.0099181493153499450 
-0.0085363992280092820 
0.021177950116081617 
-0.023241444631809115 
0.0075043797875318655 
0.014622899892343458 
-0.011637505003151638 
0.011081231489257439 
-0.0072071168079995830 
-0.0047314029859474230 
-0.0017814578014892525 
0.0097558483767327920 
-0.0070790797314289056 
-0.0069097086365700210 
-0.0025812336604007340 
-0.020405921466552086 
0.0058712380062778790 
-0.0021664033152975020 
-0.0059686283600598470 
0.023302195771382848 
0.0032594528116982330 
-0.0085711426729599470 
0.0032641122054175792 
0.0048973573937465980 
-0.010408869509899277 
-0.0097186141858606700 
0.013369536752504088 
-0.0063275914845271760 
-0.018240129055868515 
0.035892117647455875 
-0.0036124506753043890 
-0.0063008127846545840 
-0.0095727838383987060 
0.0081438651890371090 
0.0057171148413792880 
-0.015519163397750474 
-0.0071452471810813970 
-0.0038835477197161950 
-0.0022248969592712194 
0.0032855835088399328 
-0.0097920167264039200 
-0.011104835797095293 
0.021110970355000678 
3.0112229578628805e-05 
-0.010685119518309697 
0.0063451341627237310 
-0.0063246834824852690 
0.0068481664351827470 
0.016774175947232687 
0.0097568440539584320 
0.012891712384451670 
-0.0052817708393523040 
0.024233944967221872 
0.0070275335685888490 
0.0078471695904955440 
-0.016385622300264083 
0.0052901301721732880 
-0.0095842649619287120 
-0.0041876886977612170 
-0.0036124506753043890 
0.0048372924002392140 
-0.010481078832028798 
0.014788613704182947 
-0.011427721184822702 
0.013638337160410307 
0.018798834895518600 
-0.011763825601950604 
-0.0079588786965389500 
0.0039630119211959750 
-0.0043259780542229730 
0.0067214070824823600 
0.0071198437101092830 
-0.0097987082203551380 
0.0032616200935434880 
0.0092870642830993770 
-0.021478710105420280 
-0.021501468674869920 
-0.012880987811439737 
0.0061922152286348646 
0.0054067326590505080 
0.0064274019755526500 
0.011597524755148508 
-0.0046357862766846810 
0.0022289517517585490 
-0.0044225176955373730 
-0.027981724119762450 
0.011679861973002125 
-0.0024605580297730660 
-0.0043169003668229910 
0.017429473763677640 
-0.015602521311349786 
-0.016652221071453668 
0.0031825924852590002 
0.0095819598540666920 
0.0077410474919804870 
-0.0050333617071894360 
0.0054067326590505080 
-0.013375090262874041 
0.0078822088429851240 
0.0088260066913169470 
0.0093966166220356760 
0.0058923420997566630 
-0.014667668465741704 
-0.0039597934789746250 
0.0042885820475376795 
0.0077153646816874870 
-0.0053961869926164140 
0.016445229941964176 
-0.0090022919504343260 
-0.0052533902070591540 
0.0059744830945235310 
-0.0089086379069600160 
-0.0034643910609308650 
0.0067466957245502940 
-0.0052428277744099070 
0.0026441608386255820 
0.0057812793168166435 
-0.0020178324702190198 
0.0059754273484265465 
-0.0039518440418918840 
-0.010882758361828884 
-0.014727222017513766 
0.0047428779355589880 
-0.018290501600700030 
0.0029019144029882550 
-0.0026077211372714354 
-0.0069057239907477450 
0.0063685482413368950 
0.0094815028408601200 
-0.0061555743458886060 
-0.0071704819185051320 
0.0048119259193768180 
0.017426835966359477 
-0.0020436523594627777 
0.036372123739252755 
-0.010730051477673506 
0.0036681075038926605 
0.0073179674709098275 
0.014284906928458565 
0.0060914683009113930 
-0.0038439735802856647 
0.018318127213510813 
0.0051933923462146750 
0.015325213085242987 
0.0097913753400946600 
-0.0011065289200807020 
-0.013530246102101110 
0.0081444392400056140 
-0.0047034634401211850 
0.0040590424932157920 
0.0042761686505540820 
-0.0044678846575495750 
0.0040043065334224520 
0.0015658531236221085 
-0.0020144415445139380 
0.0022381607983216130 
-0.016446208204775846 
-0.0074441966298255550 
0.032184483163261320 
-0.010054836973262642 
-0.0067929871440111430 
-0.011018846120156418 
-0.00056137445951202050 
-0.012554967979515115 
0.0048372924002392140 
0.0064239281487462440 
-0.0044678846575495750 
0.0074673193328516790 
-0.00027881860759392190 
0.0066522141100939060 
0.0059504381908758790 
0.011444124653742700 
-0.027288902838389664 
0.013791063982144547 
0.0031996041636309707 
-0.022006391447254223 
0.0043206563648488195 
-0.0057721846381160350 
0.0079516276237096440 
0.027499884303449880 
0.0065818667560087790 
0.0096580044788136400 
-0.0091995606645524900 
-0.030376369550653128 
-0.012347258561141775 
-0.0028526270411634615 
0.0089943012126393280 
0.012547331174312566 
0.0046461844969657410 
0.0071976353475712770 
-0.010523074354191147 
0.017024040787944814 
0.0070416124831618630 
0.00079605083266458700 
-0.0010702053229781760 
0.0080760907975778240 
0.00080785159780787710 
-0.0055212084317836980 
0.013209272259832670 
-0.0095749688696455200 
0.0083562965445111730 
0.010395873299742219 
0.00023815776800948280 
-0.0036146770919675783 
-0.0021979926945601296 
0.0088796086583719720 
0.00025510263125417200 
0.012625179631519300 
0.0026340096003395580 
0.0046931243343194470 
0.0038478304176088767 
0.0091060649451223210 
-0.0098720096111841440 
0.024236601007383344 
0.0062776086351032390 
0.0010681177658249743 
-0.0081859180819859340 
-0.00024960549632080994 
0.0043783659071735030 
0.011500484477012752 
0.013341236791368106 
0.0024382751229100118 
0.0012524001317030398 
-0.0081686880647233900 
0.0096588350281832410 
0.0065743756060161985 
-0.0099269703571915660 
-0.0083059250529243750 
0.0082340526792259900 
-0.0096418151404859820 
-0.0035227231616009784 
0.0021407363326907047 
0.0043351218770827300 
0.0065131303019230240 
0.011815503040873514 
-0.0029919020018807315 
0.0025765913459814068 
0.011067351785163873 
-0.0072512623990088430 
-0.0087888914277527970 
-0.013995225832605061 
-0.0050397878397282800 
0.0056999058185878380 
-0.00030246078965775585 
0.0010680225287891182 
0.0092478307364546390 
0.0055062903858392810 
-0.0025090829741924807 
0.0058471763994566090 
0.012510259667204846 
0.011188234888637010 
0.0061462767805528100 
-0.016502242903664250 
-0.0041226943618037840 
-0.015810664426856000 
0.0029112029518359433 
-0.016262500332873873 
0.0068334025017921760 
-0.00063459613557110670 
0.0036272840681173093 
0.012316590762360143 
0.0040232500757882630 
-0.015860792058946638 
0.0098567778573969540 
0.0079485815968749600 
0.0075270636208304290 
0.0032616200935434880 
-0.0020350145757439900 
-0.0015416535538858140 
0.0048372924002392140 
-0.0024582436826453384 
-0.0074144105180344910 
0.015306993386685838 
0.0071245493125538660 
0.020847569687974857 
-0.0094374800034992740 
-0.0036146770919675783 
-0.0017549079181457194 
0.0061790460384711900 
0.0048997225539660260 
0.010219736543411480 
-0.0061648432423352710 
0.0011756070351837207 
0.0077474590063777740 
-0.0074840016724488780 
-0.00056137445951202050 
-0.0046584005902461660 
-0.0055037331528793735 
-0.0047078324856825620 
-0.011262321670372919 
-0.0058094701239151200 
-0.011260518972489444 
0.0082607573999015760 
0.0036861516600990305 
0.010683578319304984 
-0.0096031470927647930 
0.019349949418296486 
0.0073843046161783420 
0.026598750681026180 
-0.0055811569844014960 
0.013363950162691783 
0.0043804265536156780 
-0.020942463925442314 
0.012726890151485117 
-0.018111384544416670 
0.0052884470036786615 
0.0058179325644979030 
0.0068040617474660415 
0.012878650438579187 
0.0085558905305026000 
-0.0096736163369973910 
0.0046957788345624140 
0.027152628002654140 
-0.015279431002697914 
0.0090991371598335080 
-0.0025090829741924807 
-0.0043709482916129760 
0.017077746522077470 
-0.015160332636277063 
-0.018410515053466508 
-0.0047353755088009980 
-0.0075816027141341740 
0.010332524208281825 
0.0049500148772008320 
-0.0063877894591136450 
0.013282840482501043 
0.0039538085811227800 
0.0028455868374569547 
-0.0086692090586909420 
-0.0053961869926164140 
0.033577486760685726 
-0.0080372576008071840 
-0.016667318934565217 
0.0054096906611011690 
0.0099647177179495430 
0.00038204114259740940 
0.031654488222631165 
0.010564534820547911 
0.012180387410216549 
0.019437158469801225 
0.0046090241916551410 
-0.0028614220276572716 
0.0011907395234632466 
0.0098252375436885250 
-0.0036370365566218570 
-0.021716508617646842 
-0.045445274667524085 
-0.0068516942744375050 
-0.0054052956254797610 
0.010241951296734454 
0.013690119254567708 
0.011862277135423462 
0.012559151123264198 
-0.019209423017976162 
-0.0042424503078561760 
0.0045909368836140330 
-0.0018087068362028262 
-0.0037637865711114262 
0.0063794303963168470 
0.0048150423745381985 
-0.0019248264725836240 
0.012958413105687300 
0.023954238115441655 
0.010651178780232655 
0.0065744448002355730 
0.0073054974876157590 
-0.014508864004379804 
0.020051971183547092 
-0.0062011829971596550 
0.022444541515290115 
-0.011264824510318213 
0.014123931981589765 
0.0079942734563940300 
-0.0051217360254815850 
-0.010882758361828884 
0.014279455350879043 
-0.019072640397923870 
0.0056527382855620810 
-0.0047353755088009980 
0.0070615465545163635 
-0.0041141890670184590 
0.0059420800073053210 
0.0091364163998915570 
0.015802653699618776 
-0.019335683020820598 
-0.0064505215435580856 
0.0013864582242992015 
0.0073054974876157590 
-0.0053048353083299960 
-0.0058614861349477550 
0.010455157322330723 
0.014082069478870472 
0.011605701522838924 
0.0073966643085177860 
0.0086806160035043360 
0.012411710978696290 
-0.016637985964900660 
0.0027158480219066634 
0.0092039088686352040 
-0.027111383157205803 
0.013008400997226980 
-0.0020677576080063850 
-0.0081091920179303150 
0.0036272840681173093 
-0.0085912945498374770 
-0.0071828167684873780 
-0.0066991058198631650 
0.0061922152286348646 
0.0011756070351837207 
-0.0098354654346064410 
-0.0095860174081555530 
-0.015331980984962720 
0.010939011346477807 
0.0053517514147482540 
-0.0099391129349822370 
-0.0085866640401081640 
0.0080804427299177530 
0.0068943046402479650 
0.013311118889615154 
-0.00097611263637601870 
-0.016227808813119717 
0.0076543537202335040 
0.0048119823379064520 
-0.0034566215562433740 
-0.0058307622439879750 
0.013586375543680280 
0.011598655877716036 
-0.0038708971450889113 
0.0013645036811107327 
0.0023305324577968566 
0.0016798509947250780 
-0.0078351844067326480 
0.012436329610127998 
0.0080266219627989180 
0.013872783809154937 
-0.0064038787025924495 
0.0060670813596751350 
0.0085872013831575480 
0.016325075776921206 
0.010834324184413326 
-0.00041570962621972923 
0.0022381607983216130 
-0.010548305298525844 
-0.010089743465170583 
0.0051667682781123830 
-0.025912056722609888 
0.013472637088358871 
-0.0099707774244421900 
-0.0019253617063342242 
-0.0041995330172853060 
0.022728779009236255 
0.019094813738665720 
0.0070519135172715870 
0.0099775512495970580 
0.0053040021362543840 
-0.0016974275619971902 
-0.0061556935353411740 
0.0074623033041749140 
-0.0028727463017697770 
0.012916977958674969 
0.0061083958585709100 
0.0055664922551889010 
0.0070519135172715870 
-0.017168195004183085 
0.0086157251935225670 
0.0082358309837896360 
0.020836603742241073 
-0.020184219768016026 
-0.0039518440418918840 
-0.0065818275279208365 
0.015155549167289633 
0.0045349727749204570 
-0.015439975298786001 
0.0087809877989735230 
-0.010632393475449404 
-0.0034648010612532715 
-0.0060611593468292860 
0.0064413771423232080 
-0.0094961274773840680 
0.012183644119501593 
-0.0094240405061882370 
0.0030030662680302247 
-0.0058040511842773970 
0.0044906461848876420 
0.0058749208446394110 
0.0071245493125538660 
0.011933075411065546 
0.030135985140712876 
-0.0051425753378510710 
-0.0040702124218425240 
0.016755206367094426 
0.0038394188507553544 
-0.0092866823952771450 
0.0061256452914546230 
0.013767480944328198 
-0.014727222017513766 
0.0034754035468169226 
0.0047392283660395910 
-0.0074301911469046390 
0.0063799024153617900 
0.020969722749880540 
-0.0013756223403269393 
-0.011926895638789186 
0.0020290996196809310 
0.026593842703156810 
-0.0082244821320080240 
-0.0041795619944109295 
0.026162734819028800 
0.0048847854788407440 
-0.0096022770714261300 
-0.0061500758482812970 
-0.0052036680728085850 
0.0018109248346210762 
-0.0049801968167749670 
-0.0021196001035365497 
0.0059812740894096410 
0.0029199143809544486 
0.030189767992989760 
-0.0041322426606293285 
-0.0072799793273643195 
0.0065246172085616040 
0.0033375055593358057 
-0.013121976333220323 
0.0058877842339953820 
0.0072245765038842380 
-0.0096803930159356860 
-0.018825369904148802 
0.011475447910128620 
0.0053005962032329100 
0.0071753182457996410 
-0.0095498712618739700 
0.024653308893913360 
-0.012409936194081008 
0.0012525717504721819 
0.015323374697744960 
-0.0084664459936807190 
0.0070606876622901620 
0.0085262916104407480 
-0.014828085314863790 
-0.0088753574775141350 
-0.0044225176955373730 
-0.0076294050627516010 
-0.013088491964487940 
-0.010673552170105736 
-0.016305149523834710 
-0.0058625802777835900 
-0.0058040511842773970 
-0.0065643594452675240 
0.015318556332623470 
0.011000205004582169 
0.011779865248401074 
-0.010481078832028798 
-0.0065218968666577370 
-0.019446816317990440 
0.0091239080599313080 
-0.0088326381052035870 
-0.0069338764494327150 
0.0051331458204924660 
-0.0020144415445139380 
0.0075159278484935720 
-0.0090890334260911780 
-0.016020271999104110 
-0.020695378024162308 
-0.015849135164373997 
-0.0033971812513151904 
-0.023902474558235310 
0.0049175290650890005 
-0.0077315106235394820 
-0.011365617693712974 
0.012404229503198631 
0.0028652777298611835 
-0.0025773993827562986 
0.0027607463513033273 
-0.0042749273280254630 
0.016535548948827018 
0.0074588213286643350 
-0.013817211296012516 
-0.0099857754421220720 
0.013222131596836030 
0.0057785699034329600 
-0.022338547211587758 
0.0054067326590505080 
-0.0038088853214566740 
-0.0039994209619203840 
0.0054043441219767190 
-0.00076661814131089020 
0.010284070551659684 
0.0099025584502003380 
-0.0053507744709496570 
-0.00011999752711428939 
-0.017092135883404393 
-0.0057726007643818640 
0.0050153914838863730 
-0.0058147540051012060 
0.011916980330397398 
-0.0064951409017555190 
0.017291877976871064 
-0.0089958767427514540 
0.0079362813083040970 
-0.0052624163207468410 
-0.011313250310266193 
-0.0041878807974335350 
0.013831560375836324 
-0.0028621709303065370 
0.019843666513180320 
0.0021013398054429960 
0.019036956891662520 
-0.0023571893742808476 
0.011312538100371633 
-0.020073398033228156 
-0.0047353755088009980 
0.015919960706402426 
-0.0082941978934699570 
-0.00058741298119210990 
0.0073371950726217470 
-0.0061647405864124080 
0.0053005962032329100 
0.0014072437614515685 
-0.0061648432423352710 
0.0057602160671204840 
0.0036247867169519650 
-0.0087956826409801300 
0.012655039546821003 
-0.0042192051476577210 
0.0062504380830590420 
0.0097189855525438520 
-0.0046903184919728630 
0.0027267412018548040 
-0.0036344324917509990 
-0.0066554601923629840 
-0.0058040511842773970 
0.0057812793168166435 
0.0030114286333920150 
-0.012500201253505086 
-0.0028312665625959800 
-0.0073268171086953720 
0.0046226450185963350 
0.0040753645229025404 
0.016633022440242160 
-0.034157640123590335 
-0.0049370350948065700 
-0.019130900003505553 
-0.0014793542474971126 
-0.0036077954487424005 
0.0083882848962182670 
0.019707140757058090 
0.016971313956580997 
-0.0035463018041279320 
0.021704397517357407 
-0.0092866823952771450 
0.0010409719996886818 
0.0094815028408601200 
-0.0059708246115607130 
-0.0064433503480089095 
0.0054516225896685740 
-0.0068807332208907400 
0.010029511410009071 
-0.0065316188562492770 
0.0054933074812993770 
0.010199135361252361 
0.0062016918735930910 
0.0069050395316401450 
0.011583889253594054 
0.0076423827012495026 
0.0013509985982194193 
-0.0055040202561945800 
-0.0033464334206351240 
0.012921575164714138 
0.0067056876118156420 
-0.016114063544597643 
0.0071549619732910480 
0.0016933783247747387 
0.012116837410735559 
-0.012363935964205900 
-0.011004593105011132 
0.0020938834232227424 
-0.0062879050606921000 
-0.0025773993827562986 
0.0098961782026940400 
-0.019253439168467692 
-0.0047213048542765250 
-0.0015705821571930273 
0.0074348098314695610 
0.015191978963283610 
0.021445093813268656 
-0.010007183580178542 
-0.011781668723884928 
-0.011002802791374952 
-0.00096225811436145900 
0.0062800581240899300 
-0.0073603625932445050 
-0.00029898199827856350 
-0.0041876886977612170 
0.010151150672900991 
0.0088498412461107180 
-0.0096763282585143240 
-0.0061564500118125650 
0.0047300139435327475 
-0.028933418518494004 
0.00082171025098703690 
0.0028456280503495320 
-0.016502242903664250 
0.0034461758931883370 
-0.034157640123590335 
-0.0084254705011717270 
-0.018739396875094500 
-0.014617055009507407 
-0.013972089192434540 
-0.0019401713908173710 
0.0040915173311530970 
0.0021648933801584787 
-0.015242272135894700 
-0.0066663429768840670 
0.0077296237450743340 
-0.0088520336617978010 
0.0032447251322196523 
0.0082601497792882550 
0.014143724088298890 
0.017038639760233110 
-0.0058147540051012060 
0.0073054974876157590 
0.012772841606640488 
0.0094582858681338900 
0.0030549626748910042 
0.018397011092617002 
-0.0026161937915451580 
0.00084005984127263490 
-0.0025090829741924807 
-0.0092866823952771450 
-0.0021282890548636780 
-0.0021184790296628273 
0.012625179631519300 
-0.0041876886977612170 
-0.0014458046078944502 
0.020926502597415620 
-0.0051425753378510710 
-0.0090768803863862660 
0.0045414106612347550 
-0.0029946817713024970 
-0.0042713148132655700 
0.0065810038542527940 
0.0087218274243556800 
-0.0044225176955373730 
-0.011078382637941211 
0.015356556986973824 
-0.015546286018182889 
0.0071012027946993080 
0.010237508421202773 
0.013691716050445118 
-0.0054187901603425300 
-0.0079447703572466860 
0.0040195676953543010 
-0.0030030824983667192 
-0.011316048568892657 
-0.0041322426606293285 
-0.017448533622450735 
-0.0027118692989886650 
0.0044820829379816500 
-0.0088016419470205110 
-0.0018489924447022450 
-0.0088517103775845900 
0.010779977739225021 
0.017514532607041680 
-0.0048915435508616920 
0.0037440138492507947 
0.0068591143964639240 
-0.0052881968196750410 
-0.00050432221643621800 
-0.0047353755088009980 
0.012930595282424960 
0.0063524087162383880 
-0.0054786864879322350 
0.0057575722304638620 
-0.0062099016834454220 
-0.018706894055207790 
-0.0018087068362028262 
0.0053184505182067660 
0.010941678047415896 
0.0093417043017360800 
-0.0059637331177412840 
-0.017505533978897123 
-0.015267202400446586 
-0.0046799769622113170 
0.017179176021382615 
-0.00051755016678550140 
-0.026457115472031494 
-0.0011859478792523860 
0.012414822381830294 
0.0065947967036265880 
-0.012910260667976575 
0.0061790460384711900 
0.0020415820467666440 
-0.011177782245142704 
0.0069417374434912870 
-0.0050365346323644885 
-0.0077697362758169460 
-0.0084899067949590020 
-0.00097200631896279390 
-0.0013117251343255525 
0.0071137495511987080 
-0.0064418373839036330 
-0.0012084930275463052 
-0.0069407589878470790 
-0.0046799769622113170 
0.012978492130934032 
0.00046212904583936300 
0.0030381234842179077 
-0.0046040169832402780 
-0.0063367119106431250 
-0.0084103620787225370 
0.0015227316375459982 
-0.00086448933595714730 
-0.0076350736304630845 
0.0086276146919280360 
-0.0015639895910727743 
-0.0014875645329194880 
0.0073054974876157590 
-0.0060504558117166920 
-0.0081497060166317960 
-0.014044641860662491 
-0.0029477769135336537 
0.057444622800299800 
-0.0080974331733791680 
-0.015401545034076635 
0.0025506787317080906 
0.0095127878860784710 
-0.0048915435508616920 
0.0063881154821384930 
-0.0092954662823238160 
-0.0016724848801274294 
-0.051378867156258540 
0.029264054746648574 
0.011411390642287444 
0.0027510629460724377 
-0.020778576883368370 
-0.0050461546276870730 
-0.0083561740538773640 
0.0040367315957424610 
0.0038235847804589666 
0.0022756880211937808 
0.0073240021311471335 
0.0053035749419134740 
-0.0033343448479625152 
-0.0035536008741808844 
-0.0069338764494327150 
0.0078440953818704470 
-0.0050045116979777630 
0.0034389694489326854 
0.0025558685138707240 
-0.010876711038188859 
0.0086894062999956710 
0.011692889889166943 
-0.0044013232653176850 
0.017089400851881570 
0.0066131507059417270 
-0.0025510187274042240 
0.0080977890741664240 
-0.0024837779244197530 
0.0037444118007366224 
0.0049642026611198040 
-0.0023149479343075674 
0.0078389156663605220 
-0.011195910540179800 
-0.0061647405864124080 
0.022174694317289398 
-0.0049924303007241036 
-0.0058273697387785400 
-0.010917037622977344 
0.014292545053131217 
0.0034554283136686913 
-0.0064267633198593875 
0.011989256747983826 
0.0080043670726286220 
-0.0060618843627683560 
0.0030647240256238785 
-0.0067029834681378640 
0.0018495791599198212 
0.012666821401105885 
-0.019465534904431910 
0.0028767037296538777 
-0.0041876886977612170 
0.012387675996483022 
0.0092478261323213300 
-0.019164308199197184 
-0.019484904123091350 
0.0021498783363751166 
0.010940345010813575 
-0.011097365533948982 
0.0019897369675105202 
0.0080787082380410070 
0.0085711040415917760 
-0.010844845576973324 
0.0076474554257703580 
-0.026688402980433377 
0.0028652777298611835 
0.026745790734341822 
0.0034861124552646584 
0.0084907343890848160 
0.0086294842964249200 
-0.016804445633919782 
-0.0028750606488974974 
-0.0059264786448096290 
-0.0060161778949580590 
0.0035627858552755370 
0.0011621469076448722 
0.015403274146614191 
-0.011300762636483757 
-0.0029030987525673216 
-0.0071318378059846750 
0.018080110530361350 
0.00091947002862406510 
-0.0040042694212081230 
0.010645870329828151 
-0.0024605580297730660 
-0.0058698746183154845 
-0.0038371355802511837 
0.010869136117589124 
0.013323000584027246 
0.0052148760201794580 
-0.010568822984550811 
-0.012942556371681966 
-0.0093960425437459060 
0.0061256452914546230 
-0.00038457938515191740 
0.0041141274339785540 
0.0047976550571121780 
0.0034155187234838690 
0.0056424796598268205 
-0.0083561740538773640 
-0.0065292995314041680 
0.022905911060923656 
-0.013669669263744813 
0.0066131507059417270 
-0.014740109907973604 
0.0035289721286813280 
-0.0041876886977612170 
0.0027054306680314405 
-0.013096284281024051 
0.0090019458094404580 
0.0022941781176203336 
0.011661148297381702 
0.0059812660251436490 
0.0060670813596751350 
0.0043783659071735030 
0.0088308611672232860 
0.0041236645203522500 
-0.0062179211023427520 
0.0035385670598099130 
-0.0076174760338147090 
0.0071119017418348210 
0.0043525271319108430 
-0.0024946979059698740 
0.0042366588370926500 
-0.0046584005902461660 
-0.0048910570266714800 
0.022997162298447355 
-0.0078279323558008970 
-0.0091197633912070470 
-0.0051300996236287350 
-0.0073611421695400120 
-0.0063172224577477080 
-0.010082292625768308 
0.0079032744372718300 
-0.0065952358324951290 
0.0034540774365405193 
-0.018326329115319900 
0.0081580796776009150 
-0.013289235370111760 
-0.00097200631896279390 
0.0053466604104475120 
0.0048119259193768180 
0.0098567778573969540 
-0.0040483091725926410 
-0.016406244103977577 
-0.0050709020493676350 
0.018968940814884930 
-0.0099780181539673130 
0.0061069472154085080 
-0.0047353755088009980 
0.014907680716596339 
-0.0058188030539231120 
0.013779458744437647 
-0.018515200787420370 
0.020804120173266390 
0.011024764865032611 
0.035486097964720444 
0.0044592389053607975 
0.017544940953423037 
-0.016562179672232426 
0.0065870994279755325 
-0.0055278371690556710 
0.0029428409745059624 
0.011394223745066488 
0.018078577426485942 
-0.015598985991781602 
0.014818075194584711 
0.018396487447636622 
-0.0037927303721439110 
-0.010276590697278303 
0.030644669285034322 
0.020837732747538765 
0.017053723369822194 
-0.010316989287818159 
-0.0066453204637552890 
-0.010522182001213640 
0.0070703491163739400 
0.0059528636316747196 
0.010611213804380970 
0.010377273856412435 
-0.016486072102373150 
0.015014865533928706 
-0.017694050046836475 
-0.0070792329970280640 
-0.037132366502331640 
0.014881168020970852 
0.0068245707989483650 
0.014553363817261985 
-0.0015011862457310014 
0.0049250694059615185 
0.010726126037805987 
0.0044461917061156915 
0.012612672216606696 
-0.013087034010987843 
0.0071826818234055810 
-0.0022711875655496110 
-0.00024013925541869720 
0.013376873890113513 
-0.0078231892280188740 
-0.022014474514734440 
0.0074712513309659130 
0.010851627419091040 
-0.015918029165703406 
0.0043411080823178170 
-0.013183867922487299 
0.019505476070434603 
0.0027543951406084157 
0.014598361347536570 
-0.0093290851615286060 
-0.013103642028216790 
-0.012240665842325110 
0.0014817895450792802 
0.0056433747416675450 
0.0086800211548836610 
0.0040208066363487480 
0.017091184198417583 
-0.011048053482009493 
0.025170129842774468 
-0.014658616070207027 
0.0053259205103579790 
-0.010597380384603290 
-0.011658331417348185 
0.0098479869437970210 
0.0083717844802048190 
0.0069127921937196320 
0.010969642256633015 
0.027495063405400914 
0.011147360294693362 
0.0094662839659623370 
-0.010363344402218080 
-0.0023429896877016970 
0.040311354643338930 
0.014572423485614956 
0.0026824918320124520 
-0.00016778371291200505 
-0.018679718767200580 
0.026117111156007445 
0.0073262493712891860 
-0.011137266586468787 
-0.011639288686709777 
-0.012535139327605856 
-0.015331805341031455 
-0.0010845003055975867 
-0.011948346122070607 
0.047587687124531930 
0.014254643242726107 
-0.011920422481920216 
-0.0067852053142159430 
0.0082601457040284640 
-0.012496217898634770 
-0.0083808122806509220 
-0.0042368240159617730 
0.012515199011887074 
0.018243878866585170 
-0.0084815541548386650 
0.0038210712898534900 
0.0028137821924581813 
0.034146475833229606 
-0.020539357045011156 
-0.0092279866309797050 
-0.013534681275493710 
0.0081218012861143610 
-0.0051596408904578610 
0.015565184451391698 
0.015667898265090026 
-0.0022665584984103360 
0.012131690567733312 
0.00054092209374829440 
-0.0047135448816219180 
-0.0086918445881585850 
0.00047510790746509860 
0.013944742847946738 
0.016175023485231420 
-0.0028080001398212240 
-0.013038088427297265 
-0.010158987838304450 
-0.00040512622684953550 
-0.011830946560439528 
0.0060281163846129360 
0.0037966518678130060 
-0.012732908591371779 
-0.011781190301289128 
-0.012609467170052083 
-0.028850428896684488 
0.012741074662186432 
0.010296960422433304 
-0.023601126561586534 
-0.010427922308071486 
-0.054220732836439830 
-0.037056757034620864 
-0.019757318038347696 
0.017320783056117114 
-0.0073416933671735590 
0.028544680879048524 
-0.017701630611677960 
0.0085201866955873780 
0.021502059858888947 
-0.00048914783087755020 
0.013118415361068657 
-0.028249126670453966 
0.0083319751564396830 
0.0018375969604989637 
0.0080998544896156870 
-0.0028960329127833740 
0.0061442671704424090 
-0.019050504651692760 
-0.017473170074648124 
0.016097281627115880 
-0.018350205563874317 
0.0097872587018057160 
0.022517211185476580 
-0.0046889928997024050 
0.012236589350055326 
-0.0053085705253251400 
-0.015562745200865022 
0.015229712587967830 
0.029763554971292200 
-0.026525939242683066 
-0.032483476704624420 
-0.031138559537727886 
-0.031899687606022104 
-0.029138392067226590 
-0.0049945581180238370 
-0.0058320049489903700 
-0.0028479899525144880 
-0.0082870898530126510 
0.018153344389451497 
0.012007862492369922 
-0.0022692275569138190 
-0.041231525953507334 
0.0078766083903240290 
0.019237529388155098 
0.0035145633175668460 
-0.026212273797375720 
0.014493633848833906 
0.0089554116070178820 
0.019064506825336405 
-0.028895569748904930 
-0.020314323369900650 
-0.0017887504886810344 
0.0039783545776621360 
0.028950547391095540 
-0.010640834481631296 
0.011077306698430996 
0.016887223308383780 
-0.010091393577826312 
-0.011946515995446166 
-0.010810450686830625 
-0.013196478935656106 
-0.028277511287760612 
0.012787876217626063 
-0.036391508815385755 
0.010733316751145870 
0.025082118507222580 
0.037975896331913560 
-0.014905526664093548 
-0.010524223351518843 
0.0057176628431429895 
0.041293679012553230 
0.010976264550674490 
-0.0073545729705738560 
-0.0048423455892997560 
-0.0012713815241104777 
-0.0039780116019917490 
-0.0021650919739774870 
-0.0060033749821471820 
0.0056849409544268670 
-0.029808133018059874 
0.0016038629568601134 
-0.021934705712896164 
-0.00025422600339011140 
-0.0028755653979245010 
-0.022156768876384913 
0.040201800662015450 
0.024498078138388314 
0.0096101448827019650 
0.019581402780762123 
0.011185664274958049 
0.021751134236043444 
-0.015504956734199923 
-0.0054528176021665650 
-0.025248061858953463 
-0.00078351775695629890 
0.010687188866781239 
0.030698032122846518 
0.015403981222545500 
0.012160703528133993 
0.012738718733098252 
0.016407748011853200 
0.011674136467734486 
0.0019947647071897660 
-0.0074576575447299070 
-0.021968831661753573 
0.017070484723116057 
-0.032946250088720660 
0.021805567852668604 
-0.0055307402226181430 
0.040246562976709030 
0.014672321317407009 
0.0069327943675177170 
0.010183121442434225 
0.011831889669318073 
-0.0052634487305168190 
-0.00068106503703839410 
-0.0013064822161770932 
-0.0060357566600724120 
-0.0022118249582045563 
-0.023358958317564547 
0.0029738290515856237 
0.019437313605879870 
0.015224381516920070 
0.013755740042940487 
0.0056777613358921950 
-0.022098621144325960 
-0.0046316925936053350 
-0.011107993268077338 
0.00044819081648821667 
0.018294867218342830 
-0.0074680538540213230 
-0.032459333761814860 
0.0059748607991748170 
-0.016719084762115070 
0.0067380468513165140 
-0.010383087987399585 
-0.010259110132655503 
0.0041945490302710110 
-0.017031743502298030 
0.046711392065858795 
-0.0098095271656548300 
-0.0053774275177771260 
-0.015834743680366180 
-0.010185743614441625 
0.012652053584831930 
0.010568590348365020 
0.014086685704409240 
-0.0034542108266698373 
0.0079494577652178730 
-0.0093772305792425270 
0.014421956198092055 
-0.027202281641485210 
0.012587794829454790 
-0.029082542065954390 
0.010860078122030282 
0.0050921187416029530 
-0.0059328489994182600 
0.020287038821459737 
0.0012490419760945257 
-0.0079753946914595200 
-0.0045557866534345740 
-0.0047933621728409130 
0.0028325651989659850 
0.0066946050203032480 
0.011245349822871361 
0.010298171030414567 
0.015611175480515240 
-0.0027605502773597316 
0.033650397251505780 
0.0056880544727903740 
0.0052680489385538130 
-0.035487849646124975 
-0.014658146917227730 
-0.0071341712639365290 
-0.010663455867708026 
0.00095745925945174540 
0.0087308800559003200 
0.030281436392685622 
-0.0037707203541007950 
0.023471331808805954 
-0.017312252190006157 
-0.0067516732821643340 
0.021398552257027692 
-0.0068968915520141760 
-0.00094920924192778910 
0.0013630192851902373 
0.0034502196384901367 
-0.0078623869859335680 
0.015708183108084260 
0.047153461115108560 
0.011650213251561802 
-0.0039232849737990980 
-0.015009437573724287 
0.0077684915164499620 
0.025040254180059014 
0.0094834373042279790 
0.0073052336052535880 
0.010577206615137311 
-0.0089750843016931840 
-0.012424198457370798 
-0.010853885109864520 
0.0032803104451615975 
-0.0065344650735289310 
-0.011936373360932557 
0.013362797479246624 
0.0088397742587540870 
-0.018803704715572350 
0.0031873501381601294 
-0.032694458956325535 
-0.025530493870154526 
-0.0047792587162160570 
0.011584759894318790 
0.0093221003534129080 
-0.026171845611198350 
-0.013845534371483883 
0.013994954241005780 
-0.00043636516180000840 
0.026399341004254156 
-0.027395282995523206 
-0.018330651896017923 
-0.020471050773605030 
0.016394459234092433 
0.023270749469545608 
0.0035175575013798813 
0.039054614031302050 
0.010329289587827015 
0.0019093697267447344 
-0.016971472517782558 
0.0044174570721493590 
0.014861674470401499 
0.022308636698761460 
-0.021374148155733500 
-0.040004641742386805 
0.019237852502748565 
0.016628235641350110 
0.016187741548383417 
0.018734807182184763 
0.022380728637553297 
-0.046497112223371356 
-0.00043721067669845360 
0.013733675121514223 
0.011049579387540451 
-0.012350951160551259 
-0.011427099463493906 
0.024006737111933900 
-0.0059496548938830330 
-0.014571516944105441 
0.014619570452743128 
0.0012632385861604352 
0.013505176757086212 
-0.011438287729791378 
-0.019180945381161680 
-0.034954450485481470 
0.011600683106032895 
-0.0066070392116387790 
-0.0018495020126960049 
0.00023640099630143583 
0.018837870950618053 
-0.024052261315179263 
0.0059191450161289910 
-0.017519187221757507 
-0.010762126174758671 
-0.029661907934275693 
0.0094491551202429200 
0.014617691498426203 
-0.0048191003873095670 
0.0010380021610931528 
0.024897564062514690 
-0.020961246227098340 
0.042497551256344114 
0.018177466579718166 
-0.0056646251642768410 
0.010304859073128007 
-0.019471875348482794 
0.00023045204315814800 
-0.012594327905503026 
-0.036644944759652714 
-0.0091086241033239670 
0.024467085915729330 
0.014053009086911199 
-0.017028500933825640 
0.0078134765119621670 
0.0070006782730576770 
0.0066708534797300330 
-0.0011214493394970833 
0.012669034553009407 
0.0064684265636170150 
-0.0047431139630646490 
-0.014111458374916815 
-0.00071291079786388200 
0.0062106315135519220 
0.040343442980440590 
0.020422952100717340 
-0.0021940549183221336 
0.023761035580361703 
0.012816965029480817 
0.0033569175952576037 
0.016514179832629195 
-0.027084582779159420 
0.0040678978992711500 
-0.014179727374434233 
0.0025158366251968474 
0.023314754739412673 
0.042639721848370324 
-0.0038490723885826585 
-0.0044361193509070430 
0.0032411978761871670 
-0.0057319124879541870 
0.0066075946647400200 
-0.0037532656469616930 
0.00019742838638982220 
-0.0086907053025324830 
-0.0058535349281834970 
0.011484537866420376 
-0.0032033896697215300 
0.021238123397350758 
-0.0031155309888754710 
0.0099875123443560600 
0.0011359172528540994 
-0.019934416535717793 
0.012394509155161045 
-0.0099936418276111720 
0.016548850244264930 
-0.014064672413859627 
-0.0028774590778559285 
0.0013866647094735866 
-0.0010819469671446307 
-0.00049410613959455880 
0.047117674564210780 
-0.0012768520155136290 
-0.025287367379375817 
-0.024354072740983043 
0.0020415548449392060 
0.012940037820723964 
-0.012365569569032970 
0.013205503456485990 
0.0085608195325729010 
0.0072493990547202400 
-0.0031693966956885607 
0.00056497930577783750 
-0.0049955344404105095 
-0.0029860753557753514 
-0.0016069750508241063 
0.0019154406567336681 
-0.0053451198691802650 
0.031522723407472066 
0.0063553227346287095 
0.0049090281767067240 
-0.0019520195481406554 
0.0049619175473635130 
0.0048305983196665300 
-0.0063727908066931640 
0.0075119902082594620 
-0.0080264850572958640 
8.6152065039672690e-05 
0.0092985964246504790 
-0.0086064396157158170 
-0.0092891871802775520 
-0.0040982004248152280 
-0.0088240034537955480 
-0.012652036354075963 
-0.021595742665790396 
-0.0031706478150842076 
0.0010110536913639090 
0.018196756160412450 
0.0034839673600924235 
-0.00051089968519231620 
-0.010797998385274591 
0.0063412167297626210 
-0.013860994608500706 
0.0026488263918289265 
0.0069391818757427650 
0.0051377142973952470 
-0.0062704171418003695 
-0.015040351454924973 
-0.0021575940430947093 
0.00079229190885611310 
-0.00059381517508433560 
0.0084873783751204350 
-0.0094842076390059550 
-0.0038043390739287550 
0.0057215084352288870 
0.0044873604309232410 
-0.0020740878712771004 
0.0037588495257784210 
0.0084281179482226970 
0.0039112223718336940 
0.0024712133099451750 
-0.011877729669691880 
0.0076242725192466930 
3.7860089500038690e-05 
-0.0074619575053375780 
-0.010906545878746020 
0.0067339130079807260 
-0.0049499990104258120 
-0.0063839156017279994 
0.0036278879279915970 
0.0034572109952210070 
0.0073468050462945340 
-0.0037807731716962250 
0.0010846294046916356 
-0.00041350777141592286 
-0.0093294969210084460 
-0.0048234414891147000 
0.026396775819669798 
0.027855431408532460 
-0.0049335013592474560 
-0.0083526966286945020 
-0.0073014478406810000 
0.0067624744977140975 
-0.0076555584383324080 
-0.010116015487460116 
0.0057770657989388710 
0.011929326528904828 
0.012722339136334096 
0.026708061991995520 
0.0014900516963259071 
-0.0047725929358158360 
0.0085075599507261850 
-0.021168615918079430 
0.010191457716221005 
0.011470666549574437 
-0.0055875853259670860 
-0.0015745084404546060 
-0.0013236315015312606 
0.00052843879643822040 
0.0024601571149673053 
0.0099110934782346630 
-0.0072654535865340365 
-0.0056806928406161600 
-0.0034028513194353325 
-0.0042517980311949850 
0.00025693983520066235 
0.0092464532235222790 
0.017128956572707493 
-0.0059394727857787370 
0.011014626951124380 
-0.0012398923355558472 
-0.014469410051642923 
0.010584303368957810 
0.0079896910045996090 
0.028247180265403685 
0.0083042299775325460 
-0.016592003437615690 
0.0058704487540229790 
0.0026289248563891100 
0.0026195158782697696 
0.0030341755244993325 
0.011009684998264290 
0.00061934581723560550 
-0.024794083251014870 
-0.0036438991172509805 
-0.011240828752035522 
0.015127220475711134 
-0.014974794833063045 
-0.013938706994922735 
0.0036168267863656650 
0.0082048874068438080 
-0.00072074652790138580 
0.011066355499915826 
0.020636676819724416 
-0.011681178795127357 
0.0063662415701371730 
0.014153883123333185 
0.013685899735283537 
0.0055489063027574430 
0.0010523774569108227 
0.011867748232047377 
0.0057247882963322700 
-0.013046864924097520 
-0.017904486661616658 
0.0017333707549847968 
-0.00097608552609360960 
-0.011760205920583302 
0.00097867447233970570 
0.0042823442439600680 
0.0083397755027654240 
0.012700397480963060 
0.011058432556524975 
-0.017495475994483367 
0.0061711302456181815 
0.0082462058343034280 
0.010507082764664675 
0.0081690647616159230 
-0.0068521644835245260 
-0.045379323992151400 
0.0093405169293409050 
0.0030890808992038740 
0.017872913284656428 
-0.018375772806923570 
-0.011143520704549855 
-0.0048266531242808370 
-0.00088608598777555400 
0.0067457284763668380 
0.0030591064952610420 
-0.0039223530493410500 
0.0025104824078265590 
0.011935772092865789 
0.0039343873915786585 
0.0048629368079753840 
0.0039106611078583750 
-0.013629487780550108 
-0.0039149490915304595 
-0.0064197812131267170 
-0.0041104294173812480 
0.0027250946574767690 
-0.0084455864644559060 
0.011211260342758225 
0.0049632930300149590 
0.0046702612017327635 
0.0072152227541663910 
0.014161429379181396 
0.0056138456808219520 
-0.031655647839601170 
0.012906406086894596 
-0.010985071902603666 
-0.010545985356579152 
0.010314814742299208 
-0.0053288056270133855 
0.0090543902514887520 
0.014546817870750527 
-0.024291035504021712 
-0.013409424145733860 
0.011329886240062578 
0.013900516011943480 
0.0052488563285488230 
0.0071254643637841210 
0.0014841624560024980 
-0.016905645190715964 
-0.0054741601987108885 
-0.0078523901143950460 
-0.012172829873111397 
-0.012526269758488582 
-0.0089077104177301170 
0.0030945199849209090 
-0.010959221594707469 
0.0040765768638563946 
-0.0091425491459990620 
0.0069113911933147450 
-0.0048122274094589560 
-0.0032322720145414614 
0.0046004050122921370 
0.0014683937955453923 
-0.0012542450778570565 
-0.019212331957729915 
-0.00081312106636333760 
0.013257271916367600 
-0.0082359844094559830 
0.013303976448920668 
-0.011971075040568865 
0.042823744405404000 
-0.00053872301194236100 
0.0093829935404600230 
0.012868943826272957 
0.00089060410393925460 
0.0021156779068262554 
-0.018623571807752717 
0.0042616728566701240 
0.014347419815499342 
-0.018997502980871574 
0.016881812048008410 
-0.024943517220439776 
0.026547935109424890 
-0.0040729752051554880 
0.0094232803201653660 
-0.00062186464689152580 
-0.010285554890835933 
0.0092200960607796900 
0.00068249572733908140 
-0.0094157576405644200 
-0.0043938103011626740 
-0.015703249305367855 
0.010455072797768583 
-0.0022479719257335960 
0.0014606923476749507 
0.014823113234092104 
-0.010026883415851002 
-0.0073633669576364845 
-0.0097658549431338050 
0.0029933916447266056 
-0.0098384635884460040 
0.0082711784655372590 
0.0063548958401113990 
0.00015658874055178150 
0.00039362862084008245 
0.0024761042846360760 
0.0046149838421322430 
0.0075770776741294230 
0.0010304694206441061 
0.0042091180842078300 
-0.0043986314945157390 
-0.0015303406483820376 
0.0078021563436563460 
-0.00014694392705076124 
0.0024761042846360760 
0.0063110618051841880 
0.0045822746530237820 
0.00090042522868027270 
0.00086153462719785490 
-0.0027883313902872797 
0.0010402941402609341 
-0.0023694216017739220 
0.00018052653301192160 
-0.0057940962041046790 
-0.016473851210898467 
-3.5801603994864860e-05 
-0.0041430102119453190 
-0.010026883415851002 
-0.00072570187435781830 
-0.0070392310850438210 
-0.0031945997658664270 
-0.00012728211761336064 
0.0025633989467737240 
-0.0011516399271846477 
0.00053542347468349850 
-0.00014694392705076124 
0.016433719042665310 
0.0074403377656252654 
-0.0031807724026706750 
-0.0041430102119453190 
0.00050357581381290920 
0.00015658874055178150 
0.0023454937111046367 
0.0035620009089870580 
-0.010026883415851002 
-0.0038393628404461335 
-0.0032147575974459050 
-0.0069117041230537880 
0.0095102442680958630 
0.0022239282810300027 
-0.0027883313902872797 
0.0010304694206441061 
0.0036315508893906955 
0.0092369258399836730 
-0.0016314841488354094 
-0.0028562010047487690 
0.0042091180842078300 
0.00080423192169589700 
-0.0059611163971378300 
0.0065139729552795140 
-0.0021213493691716810 
-0.0025325314872187057 
0.0043363868395551140 
-0.0038193131441723043 
-0.00072570187435781830 
-0.0052066561375209320 
-0.013465879248641259 
-0.0011516399271846477 
-0.0027212673881530400 
0.014171111771437435 
-0.0041430102119453190 
0.0053656124521303440 
0.0063548958401113990 
-0.0021213493691716810 
-0.010026883415851002 
0.0026625328475284930 
0.0020436811841531760 
-0.0011516399271846477 
0.0020885042750237390 
0.0023454937111046367 
6.2055597366455210e-05 
-0.0021213493691716810 
0.0046149838421322430 
-0.0011516399271846477 
0.00072638799144800490 
0.0025815951876381900 
0.0045822746530237820 
-0.0031807724026706750 
-0.0041981202742595100 
0.0040104769839902430 
0.0024761042846360760 
0.0035620009089870580 
0.0018739436691976902 
0.0065139729552795140 
-0.0028562010047487690 
0.0022239282810300027 
-0.0025325314872187057 
-0.0015443693532189912 
0.0075862795466012550 
-0.0020771594814841600 
0.00072638799144800490 
0.0053656124521303440 
0.0064104124682055840 
-0.0028562010047487690 
0.0053700427227232480 
0.0043286514559489310 
-0.0040279704507910680 
0.0013470013785277042 
6.2055597366455210e-05 
-0.0034465478074836246 
0.0065139729552795140 
-0.0043528101244814290 
0.010969036988081597 
0.0022200351710179754 
0.00030284100653842120 
-0.0031945997658664270 
0.00053542347468349850 
-0.0033610645703221650 
-0.0050767691244116880 
0.00034249500685261960 
0.00072638799144800490 
-0.0039006378806680413 
0.00087293772352305380 
-0.0052500268616953940 
0.010969036988081597 
0.0097667168511119600 
-0.0027212673881530400 
-0.014418466909793497 
0.0025815951876381900 
0.0048777667925224880 
0.026947394015868100 
0.0013470013785277042 
-0.0061773234672399405 
0.0053171650629597516 
0.0014125072986181807 
0.0033546807678760000 
0.00053542347468349850 
0.0048882214250004880 
-0.00025818905989052880 
0.0075862795466012550 
-0.00072570187435781830 
-0.00072570187435781830 
0.0022200351710179754 
-0.0036778865466024790 
0.0029933916447266056 
0.00065376673865638330 
0.0029933916447266056 
-0.0057981488608912320 
0.0056756001695796110 
-0.00025818905989052880 
0.0029933916447266056 
-0.0021779205333186114 
-0.0023694216017739220 
0.00072638799144800490 
-0.0032073303790510154 
-0.0028873560674331574 
-0.00072570187435781830 
0.00072638799144800490 
0.0025815951876381900 
-0.010362860049798120 
0.0036315508893906955 
-0.0073633669576364845 
0.0063110618051841880 
-0.027628326804279256 
0.00053542347468349850 
-0.0031807724026706750 
0.00065376673865638330 
0.012600483219715602 
0.0037212809901771800 
-0.0032147575974459050 
-0.00068064579905988990 
-0.0040814664073141490 
-0.0043986314945157390 
-0.0022503300633783320 
0.0022239282810300027 
-0.0023902530254738670 
-0.0073633669576364845 
-0.0023694216017739220 
-0.013926705270870853 
0.0029933916447266056 
0.0043027936520354410 
0.0028343381817178500 
-0.0015303406483820376 
0.0013307004835908140 
0.012219569423509782 
-0.0052066561375209320 
0.00080423192169589700 
-0.0027285895370301036 
0.0064198684671142160 
-0.0052769622204115645 
-0.0032048248162095360 
0.0022200351710179754 
-0.0032405014498544365 
-0.014501393559141013 
0.0095102442680958630 
-0.0028562010047487690 
0.0065718201766779140 
0.0020436811841531760 
0.0092369258399836730 
0.0013470013785277042 
0.0036315508893906955 
-0.0073622562537523210 
0.0051925393150993270 
-0.00082965489012858150 
-0.013281039665920029 
-0.0027285895370301036 
-0.0019016062853622082 
0.0097667168511119600 
-0.0040814664073141490 
0.00086153462719785490 
0.0024219120728301170 
-3.5801603994864860e-05 
-0.0044336990085635936 
0.0024761042846360760 
-0.0041981202742595100 
-0.0059611163971378300 
0.0020885042750237390 
0.0053656124521303440 
-0.0056887978145938220 
0.0063733744136926900 
-0.0031945997658664270 
-0.015090738886956674 
-0.0039006378806680413 
0.00050357581381290920 
0.0041795245514752850 
-0.0029951744163760063 
-0.020445921038134366 
-0.0019230266700750146 
0.00050357581381290920 
0.00065376673865638330 
-0.012979649979766604 
0.0022912850523822690 
0.0053171650629597516 
0.026247201030888005 
0.0053700427227232480 
0.0041795245514752850 
-0.0040382173664219390 
-0.010362860049798120 
0.0035620009089870580 
0.0036315508893906955 
-0.0011516399271846477 
-0.0073431526712604030 
0.0074403377656252654 
-0.0073622562537523210 
-0.011519788910405716 
-0.0081297442440121970 
0.00090042522868027270 
0.0046149838421322430 
0.015588871502001639 
-0.0045966384482814095 
-0.0011516399271846477 
-0.0065217764234281370 
0.00055360953625755490 
-0.0011516399271846477 
0.00053542347468349850 
-0.010362860049798120 
-0.0031807724026706750 
0.010291028765095120 
-0.0025325314872187057 
0.0024761042846360760 
-0.0040382173664219390 
-0.013926705270870853 
-0.012979649979766604 
-0.0022503300633783320 
-0.0025325314872187057 
-0.0091117581577625890 
0.0018775414691000534 
-0.0057940962041046790 
0.00067576452854555590 
0.0022200351710179754 
-0.0015303406483820376 
-0.00025818905989052880 
0.0061497520798960755 
0.0020417833852396155 
0.0040104769839902430 
-0.0015303406483820376 
0.0074403377656252654 
0.0012845999862824045 
0.0045822746530237820 
-0.0038393628404461335 
-0.0043528101244814290 
-0.0057940962041046790 
0.0028343381817178500 
-0.0061773234672399405 
-0.0050767691244116880 
0.0026625328475284930 
0.0026625328475284930 
0.0040104769839902430 
-0.010357072751187654 
0.0018775414691000534 
0.0024219120728301170 
-0.0055716387041603380 
0.0064104124682055840 
0.00018052653301192160 
0.00018052653301192160 
0.0066967847556955500 
-0.00079920480660967950 
-0.00025818905989052880 
-0.00068064579905988990 
0.0028343381817178500 
-0.0083765301361183700 
-0.0023529461675789827 
0.0018739436691976902 
0.0053700427227232480 
0.014171111771437435 
0.019100684345181500 
-0.0038193131441723043 
-0.0016218425324781023 
-0.0088777864155286570 
-0.0054214981085393100 
0.0033546807678760000 
-0.0032147575974459050 
0.00087293772352305380 
0.0025633989467737240 
-0.0022503300633783320 
0.0018775414691000534 
0.0078021563436563460 
-0.0058665671015262670 
0.00087293772352305380 
0.0024761042846360760 
-0.0030815241436852440 
0.0061513950360428280 
0.00053542347468349850 
0.00065376673865638330 
-0.0060568260592263880 
0.020612663322730318 
0.0017019436604971704 
0.00018052653301192160 
-0.0034465478074836246 
-0.011519788910405716 
-0.0079314850611053900 
-0.0028562010047487690 
-0.0031945997658664270 
0.00039362862084008245 
0.0056756001695796110 
0.0010456001666135722 
0.00055360953625755490 
-0.0089429412482715430 
0.0063548958401113990 
-0.0047622723122406120 
-0.0022503300633783320 
0.0058230196204913260 
-0.0040382173664219390 
-0.0039917401429905770 
0.0025815951876381900 
0.00065376673865638330 
-3.5801603994864860e-05 
0.0058230196204913260 
-0.00025818905989052880 
-0.00014694392705076124 
-0.0041093046633966270 
-0.0015443693532189912 
0.00053542347468349850 
-0.0073622562537523210 
-0.0051362126257229876 
-0.0038393628404461335 
0.0013307004835908140 
0.011188653712838320 
-0.0036778865466024790 
0.0045879364608190250 
-0.0028562010047487690 
-0.0024906333136491617 
0.00080423192169589700 
0.0045822746530237820 
0.0014606923476749507 
-0.0088777864155286570 
0.0028343381817178500 
-0.0015303406483820376 
-0.0073544669015632440 
0.00015658874055178150 
0.0053171650629597516 
0.0028343381817178500 
0.0038145220696139560 
0.0063468457233613670 
-0.0032048248162095360 
-0.0063483173366929290 
0.016486661150093986 
-0.0015806146641295282 
-0.00082965489012858150 
0.0053171650629597516 
-3.5801603994864860e-05 
-0.0031807724026706750 
-0.0022503300633783320 
0.00072638799144800490 
-0.0027285895370301036 
0.0043278915991807560 
-0.016312356555899042 
0.0087002264948892150 
-0.0069581345703586950 
-0.0065516084323574000 
-0.0044336990085635936 
-0.0027883313902872797 
-0.0015303406483820376 
0.0010402941402609341 
-0.016473851210898467 
0.0013300411223387705 
0.00050357581381290920 
-0.00082965489012858150 
0.0036315508893906955 
-0.0058665671015262670 
-0.0059611163971378300 
-0.013926705270870853 
0.0014606923476749507 
0.0052568698856529780 
0.0091100858072860470 
-4.5266733263242360e-05 
-0.0023694216017739220 
0.0035620009089870580 
-0.013281039665920029 
-0.0059611163971378300 
0.00030284100653842120 
0.0065718201766779140 
0.0061497520798960755 
-0.0032048248162095360 
-0.010729625018001265 
-0.0052500268616953940 
-0.0048774912070229560 
0.0014057132731836997 
0.0046149838421322430 
0.0057883719402342270 
-0.0043528101244814290 
0.0036574687698657030 
-0.00082965489012858150 
0.014385950181749638 
0.00053542347468349850 
0.00018052653301192160 
-0.0041981202742595100 
-0.0039006378806680413 
-0.0029108302072326665 
0.0014606923476749507 
0.0051925393150993270 
0.0020885042750237390 
-0.00025818905989052880 
-0.0022479719257335960 
0.0091100858072860470 
0.0024761042846360760 
0.0058230196204913260 
0.0020885042750237390 
0.011453768518374428 
0.0065718201766779140 
0.019100684345181500 
-0.0033610645703221650 
0.0063110618051841880 
0.0058230196204913260 
-0.0044771789875866180 
0.0070664006219035890 
0.00065376673865638330 
-0.0081297442440121970 
0.00090042522868027270 
-0.0034465478074836246 
0.0036315508893906955 
-0.0024906333136491617 
-0.0069117041230537880 
0.00050357581381290920 
-0.0045966384482814095 
-0.010729625018001265 
0.0050306687268019720 
0.0029933916447266056 
-0.00082965489012858150 
0.0036574687698657030 
-0.0044336990085635936 
0.0064258112545208340 
0.0039230919608807470 
0.0024219120728301170 
-0.0091634681502698250 
0.0037212809901771800 
-0.0022503300633783320 
0.0029933916447266056 
-0.0041430102119453190 
0.0056756001695796110 
-0.014501393559141013 
0.0056756001695796110 
0.0045822746530237820 
0.0024761042846360760 
0.0013307004835908140 
0.0017031523201305950 
0.00087293772352305380 
0.00053542347468349850 
0.0010304694206441061 
-0.011519788910405716 
-0.00082965489012858150 
0.0026625328475284930 
0.0010304694206441061 
0.0029933916447266056 
-0.0077532326961688620 
-0.0041430102119453190 
-0.0059611163971378300 
-0.0063483173366929290 
-9.1637763015700610e-05 
-0.0039006378806680413 
-0.010120918773260030 
-0.010729625018001265 
-0.012496554277836130 
-0.0047622723122406120 
0.0020417833852396155 
-0.0051416960880911250 
0.00018052653301192160 
-0.00068064579905988990 
0.0074403377656252654 
-0.00025818905989052880 
0.012530708157673208 
-0.0070392310850438210 
0.0063110618051841880 
-0.0041981202742595100 
-0.0041981202742595100 
-0.0028562010047487690 
0.0061513950360428280 
0.0061513950360428280 
0.0045879364608190250 
-0.0023694216017739220 
-0.0041430102119453190 
0.013440291639442750 
0.0024761042846360760 
0.0042091180842078300 
6.2055597366455210e-05 
0.0053700427227232480 
-0.0041430102119453190 
-0.0047972455313611500 
0.010045440892462155 
0.00053542347468349850 
0.015852283762243062 
0.0042091180842078300 
6.2055597366455210e-05 
-0.0020530870049413370 
0.00090042522868027270 
-0.0021779205333186114 
-0.0038193131441723043 
-0.0019230266700750146 
-0.0029108302072326665 
0.0064198684671142160 
-3.5801603994864860e-05 
-0.0022503300633783320 
0.017362835394018863 
-0.0022503300633783320 
0.0042091180842078300 
-0.0057658081992891510 
0.010280092137773934 
-0.010362860049798120 
0.0074403377656252654 
-0.00082965489012858150 
-0.014418466909793497 
0.0076628584095691140 
0.0065139729552795140 
0.0061513950360428280 
0.0039230919608807470 
0.0018739436691976902 
0.0039230919608807470 
0.00087293772352305380 
-0.019748564287723987 
0.0024761042846360760 
0.0043363868395551140 
-0.0050767691244116880 
0.0026625328475284930 
-0.0027883313902872797 
0.0010304694206441061 
0.00055360953625755490 
0.0016285056617806060 
-0.0088777864155286570 
-0.0057981488608912320 
-0.0036565061824435620 
-0.012975299609864308 
-0.0040814664073141490 
-0.0023529461675789827 
0.0095102442680958630 
-0.014501393559141013 
-0.0028562010047487690 
-0.0052500268616953940 
-0.0028562010047487690 
-0.0031807724026706750 
-0.0015303406483820376 
-0.0022479719257335960 
-0.0011516399271846477 
0.0033546807678760000 
-0.0041430102119453190 
0.0041795245514752850 
0.0051925393150993270 
0.0025148674607359270 
-0.010729625018001265 
0.0013307004835908140 
-0.0023529461675789827 
-0.0032147575974459050 
-0.0054214981085393100 
-0.00068064579905988990 
0.0029933916447266056 
-0.00082965489012858150 
0.0039230919608807470 
-0.0044771789875866180 
0.0078021563436563460 
-0.0033610645703221650 
0.0045822746530237820 
-0.0027285895370301036 
0.0024761042846360760 
-0.0086843333558949410 
-0.0030848746888106580 
-0.0057658081992891510 
0.0024219120728301170 
0.0020436811841531760 
-0.0098925248238815010 
0.0053171650629597516 
-0.0040814664073141490 
0.015852283762243062 
0.0026625328475284930 
0.0028343381817178500 
0.019639359192825362 
-0.0020530870049413370 
-0.021955606458760376 
0.011188653712838320 
0.0024761042846360760 
0.0014606923476749507 
-0.00025818905989052880 
-0.0031807724026706750 
-0.0057658081992891510 
0.0036315508893906955 
0.00072638799144800490 
0.0045879364608190250 
-0.0057658081992891510 
0.0025633989467737240 
-0.0032073303790510154 
-0.0031807724026706750 
0.00080423192169589700 
0.00087293772352305380 
-0.0041430102119453190 
0.0065139729552795140 
0.0025924087559272644 
-0.0073431526712604030 
0.00015658874055178150 
-0.0039917401429905770 
-0.0022503300633783320 
0.0025633989467737240 
-0.0015443693532189912 
-0.0067646379950758590 
0.0087101003716470990 
0.015852283762243062 
0.0070664006219035890 
-0.0057658081992891510 
0.0052994566160995750 
-0.0057981488608912320 
-0.0070392310850438210 
0.0064104124682055840 
0.021242702750059750 
0.0028343381817178500 
0.019100684345181500 
-0.010729625018001265 
0.0051925393150993270 
-0.0027285895370301036 
0.00072638799144800490 
0.0065718201766779140 
-0.00092107895313504340 
0.0068832463773142880 
0.0045822746530237820 
0.0069847787761803280 
-0.0057658081992891510 
0.00015658874055178150 
-0.0023694216017739220 
-0.0021213493691716810 
0.0043286514559489310 
-0.0040814664073141490 
0.0063548958401113990 
0.0064104124682055840 
0.0015317809288310062 
0.0091100858072860470 
-0.0031945997658664270 
-0.0031945997658664270 
-0.0031945997658664270 
-0.0040814664073141490 
-0.0030848746888106580 
0.0098385340591261240 
0.0092684718423599270 
-0.0054214981085393100 
0.0026625328475284930 
0.0020740796179049914 
0.00053542347468349850 
0.00065376673865638330 
0.00090042522868027270 
0.00067576452854555590 
-0.0082237279924595660 
-0.0013755617212275265 
0.0065718201766779140 
0.00065376673865638330 
-0.0041981202742595100 
0.0027818100927390114 
-0.00072570187435781830 
-0.0041430102119453190 
0.011188653712838320 
-0.0021213493691716810 
-0.0031807724026706750 
0.0010304694206441061 
-0.0031807724026706750 
6.2055597366455210e-05 
-0.00082965489012858150 
0.00080423192169589700 
0.0063548958401113990 
-0.0031945997658664270 
0.0092052830215274320 
0.0014057132731836997 
0.0053538720855939190 
0.0013307004835908140 
-0.0015303406483820376 
0.0026625328475284930 
-0.012975299609864308 
0.0040104769839902430 
0.0050306687268019720 
-0.00048786441042958920 
0.00090042522868027270 
-0.0040382173664219390 
0.0064080866711515710 
0.0014606923476749507 
-0.010026883415851002 
-0.0036336678329733398 
-0.0019016062853622082 
0.00087293772352305380 
0.0013470013785277042 
0.0061497520798960755 
0.0077848385011127390 
0.0025633989467737240 
-0.0041981202742595100 
0.011453768518374428 
-0.010295362779208039 
-0.0020771594814841600 
0.039196133774323260 
0.0051925393150993270 
-0.0027285895370301036 
0.0051925393150993270 
-0.0031807724026706750 
0.0069101848813250060 
0.00060867227285527840 
0.0026625328475284930 
-0.0028562010047487690 
0.0013470013785277042 
-0.0041981202742595100 
-0.0072330773984316740 
0.0024219120728301170 
0.0045822746530237820 
0.0020436811841531760 
0.0030597224171077440 
0.00034249500685261960 
-0.0040814664073141490 
-0.00025818905989052880 
0.00018052653301192160 
-0.0020771594814841600 
-0.00082965489012858150 
0.0045822746530237820 
0.0063548958401113990 
-0.0038393628404461335 
0.0028343381817178500 
-0.0051362126257229876 
-0.00025818905989052880 
0.0045879364608190250 
0.00030284100653842120 
0.0056393515921495600 
-0.0073633669576364845 
0.0018855814517742990 
0.0036315508893906955 
-0.0057940962041046790 
-0.0063483173366929290 
-0.0041963231030113360 
-0.0060551048669602460 
-0.013926705270870853 
-0.0054255818293891600 
0.0063733744136926900 
-0.0031807724026706750 
0.0064104124682055840 
-0.0057940962041046790 
0.0061513950360428280 
-0.0016314841488354094 
-0.0028873560674331574 
0.0013307004835908140 
0.0028343381817178500 
-0.0023529461675789827 
0.0014125072986181807 
0.0092369258399836730 
0.0026625328475284930 
-0.00082965489012858150 
-0.0024906333136491617 
-0.0033610645703221650 
0.00039362862084008245 
-0.0044336990085635936 
0.0028343381817178500 
-0.00082965489012858150 
-0.0015867726465346650 
-0.0054214981085393100 
0.0058230196204913260 
-0.0032147575974459050 
-0.0022503300633783320 
-0.00082965489012858150 
0.00015658874055178150 
0.0020436811841531760 
0.015852283762243062 
-0.00082965489012858150 
-0.00010917306363061095 
0.0026625328475284930 
0.0014606923476749507 
-0.0059611163971378300 
0.0028343381817178500 
0.0036315508893906955 
-0.0024906333136491617 
-0.0038393628404461335 
0.0056393515921495600 
-0.0020771594814841600 
0.0018775414691000534 
0.00090042522868027270 
-0.0032405014498544365 
0.0056393515921495600 
0.0046149838421322430 
-0.0056887978145938220 
0.00029837232680971913 
-0.0047622723122406120 
0.0020436811841531760 
-0.0081297442440121970 
-0.0015806146641295282 
-0.00082965489012858150 
0.0033546807678760000 
0.00050357581381290920 
0.00055360953625755490 
0.0090675459840919220 
-0.0043986314945157390 
0.0045936549572016730 
-0.0025325314872187057 
0.0013470013785277042 
0.0024761042846360760 
-0.0021213493691716810 
-0.0015443693532189912 
-0.0063483173366929290 
0.0051925393150993270 
-0.0028562010047487690 
-0.0038193131441723043 
-0.0041336573928338270 
0.0013307004835908140 
-0.0047972455313611500 
-0.0015867726465346650 
-0.0032147575974459050 
0.0078021563436563460 
0.0025633989467737240 
0.0079198634923354530 
-0.0031807724026706750 
0.0013254645694897164 
0.0030597224171077440 
0.0045822746530237820 
0.0078021563436563460 
-0.0021213493691716810 
0.0078021563436563460 
-0.0073622562537523210 
-0.0057658081992891510 
0.0095102442680958630 
-0.0015443693532189912 
-0.0031945997658664270 
-0.013926705270870853 
0.0065139729552795140 
0.00053542347468349850 
0.0024219120728301170 
0.0024761042846360760 
0.00055360953625755490 
0.0024219120728301170 
0.00053542347468349850 
-0.0015867726465346650 
-0.014392708669099846 
-0.0027212673881530400 
0.0024761042846360760 
0.00072638799144800490 
-0.0027212673881530400 
0.00090042522868027270 
0.0053700427227232480 
-0.0027212673881530400 
0.0092369258399836730 
-0.0057981488608912320 
0.0024761042846360760 
0.0041376163329571000 
-0.0039006378806680413 
0.0039230919608807470 
0.0043027936520354410 
-3.5801603994864860e-05 
-0.0027285895370301036 
0.0064198684671142160 
-0.015970304529114746 
-0.0016314841488354094 
0.0065718201766779140 
0.00034249500685261960 
-0.0024906333136491617 
0.0022200351710179754 
0.0020885042750237390 
0.0028343381817178500 
-0.0015303406483820376 
-0.0038193131441723043 
0.0013307004835908140 
-4.5266733263242360e-05 
-0.0038193131441723043 
0.011188653712838320 
6.2055597366455210e-05 
0.0014057132731836997 
-0.0045966384482814095 
0.0033546807678760000 
-0.0031807724026706750 
-0.013926705270870853 
-0.0052066561375209320 
0.0051925393150993270 
0.0058230196204913260 
-0.0011516399271846477 
-0.0067646379950758590 
-0.0088777864155286570 
0.00053542347468349850 
0.020476842152039500 
-0.0041430102119453190 
-0.0019694044446494210 
-0.00014694392705076124 
0.0065718201766779140 
-0.013281039665920029 
-0.0019230266700750146 
-0.0073622562537523210 
0.0045822746530237820 
-0.0023529461675789827 
0.00080423192169589700 
-0.0011516399271846477 
0.0013300411223387705 
-0.0057940962041046790 
0.00065376673865638330 
0.00030284100653842120 
-0.0060357925758699730 
0.0039463692944477530 
-0.0043986314945157390 
0.0035620009089870580 
-0.0023529461675789827 
-0.0016218425324781023 
-0.0031807724026706750 
0.00065376673865638330 
0.0013470013785277042 
0.0041376163329571000 
0.0025633989467737240 
-0.0027212673881530400 
0.00018052653301192160 
0.0053700427227232480 
0.00067576452854555590 
0.015852283762243062 
0.011124235400044046 
0.010969036988081597 
0.0018775414691000534 
0.0053700427227232480 
0.00015658874055178150 
-0.012975299609864308 
0.00087293772352305380 
0.00087293772352305380 
0.0022200351710179754 
-0.0057981488608912320 
-0.0032048248162095360 
-0.0025325314872187057 
0.0043278915991807560 
0.0064080866711515710 
0.0020885042750237390 
0.0020885042750237390 
0.00015658874055178150 
-0.0020771594814841600 
-0.0032048248162095360 
0.0063548958401113990 
0.013311127841962188 
-0.0034465478074836246 
0.0024219120728301170 
-0.0057658081992891510 
-0.0031807724026706750 
0.00087293772352305380 
0.0025633989467737240 
0.0024761042846360760 
0.0025815951876381900 
-0.0016314841488354094 
-0.0024906333136491617 
-0.0098925248238815010 
0.0042091180842078300 
-0.0040814664073141490 
0.00039362862084008245 
0.0013300411223387705 
0.0020417833852396155 
0.0064198684671142160 
-0.0016218425324781023 
0.0053171650629597516 
0.0028343381817178500 
-0.0039006378806680413 
-0.0057658081992891510 
0.00065376673865638330 
0.0013254645694897164 
-0.0052500268616953940 
-0.013143567314886632 
-0.00025818905989052880 
0.0028343381817178500 
0.00090042522868027270 
0.0022912850523822690 
0.0087002264948892150 
0.0043278915991807560 
-0.0057658081992891510 
-0.014418466909793497 
0.0058965430069224450 
0.0013307004835908140 
0.0013307004835908140 
0.0097667168511119600 
0.0024761042846360760 
-4.5266733263242360e-05 
-0.0022503300633783320 
0.0078021563436563460 
-4.5266733263242360e-05 
0.0013300411223387705 
0.0013300411223387705 
-0.0031807724026706750 
-6.7268566044476840e-05 
-0.0088777864155286570 
0.00039362862084008245 
0.0013470013785277042 
0.011188653712838320 
0.0056393515921495600 
0.0018739436691976902 
-0.0024906333136491617 
-0.0020530870049413370 
-0.0023694216017739220 
0.00015658874055178150 
-0.010242579150071698 
0.0053538720855939190 
0.0053538720855939190 
0.0053538720855939190 
0.0020740796179049914 
0.0092369258399836730 
-0.00068064579905988990 
-0.0043528101244814290 
0.0023454937111046367 
-0.0023694216017739220 
0.0015317809288310062 
-0.0041430102119453190 
-0.0019230266700750146 
0.0010304694206441061 
0.0037212809901771800 
0.00065376673865638330 
0.0027818100927390114 
0.0013307004835908140 
-0.0038193131441723043 
-6.7268566044476840e-05 
-0.0011516399271846477 
0.0040104769839902430 
0.015852283762243062 
-0.0019230266700750146 
-0.0067646379950758590 
0.00065376673865638330 
-0.0065217764234281370 
-0.00025818905989052880 
-0.0036565061824435620 
-0.0019230266700750146 
-0.0073633669576364845 
0.0063110618051841880 
0.016454124854575293 
0.0072363872828678340 
-0.0088777864155286570 
0.0028343381817178500 
-0.0023694216017739220 
0.011124235400044046 
0.0045879364608190250 
-0.0023694216017739220 
-0.0023694216017739220 
-0.0015303406483820376 
-0.0050767691244116880 
0.0097667168511119600 
-0.00082965489012858150 
0.0078021563436563460 
0.0036315508893906955 
0.0037212809901771800 
-0.014162852145160248 
0.00018052653301192160 
0.00018052653301192160 
0.0053656124521303440 
-0.0032073303790510154 
0.0086220813001008870 
-0.00014694392705076124 
0.0045822746530237820 
0.0020885042750237390 
-0.0035929631884436992 
0.015852283762243062 
0.0092369258399836730 
0.0025633989467737240 
0.019100684345181500 
0.0013300411223387705 
0.0025633989467737240 
-0.0031807724026706750 
-0.0059611163971378300 
0.00018052653301192160 
-0.0031945997658664270 
0.014007031435138305 
-0.00025818905989052880 
0.0024755925957643330 
0.00072638799144800490 
0.0051925393150993270 
-0.0069117041230537880 
-0.00014694392705076124 
-0.011519788910405716 
0.0013300411223387705 
0.0025633989467737240 
-0.0021213493691716810 
-0.0027883313902872797 
0.010969036988081597 
0.0024761042846360760 
-0.0041981202742595100 
0.0014057132731836997 
-0.0056887978145938220 
0.0020436811841531760 
-0.0047622723122406120 
0.0069847787761803280 
0.0061513950360428280 
0.0025815951876381900 
-0.0070392310850438210 
0.0063110618051841880 
0.014171111771437435 
0.0070664006219035890 
0.0036315508893906955 
0.010045440892462155 
0.00086153462719785490 
-0.0072159329298088000 
0.0066601250717418130 
-0.011926108218371957 
-0.0023694216017739220 
0.0043286514559489310 
0.0042091180842078300 
-0.0041981202742595100 
0.0020885042750237390 
-0.0073622562537523210 
-0.0070392310850438210 
-0.0040814664073141490 
0.013440291639442750 
0.0070664006219035890 
0.00065376673865638330 
-0.0023694216017739220 
0.0014606923476749507 
0.0025633989467737240 
-0.012979649979766604 
0.0038145220696139560 
0.0053656124521303440 
-0.0021779205333186114 
0.0025815951876381900 
0.0029933916447266056 
0.00065376673865638330 
-3.5801603994864860e-05 
0.0028343381817178500 
0.0020417833852396155 
-0.0074472948207580810 
-0.0027212673881530400 
-0.0015443693532189912 
-0.0015443693532189912 
-0.0070392310850438210 
0.0053538720855939190 
-0.0031807724026706750 
-0.00048786441042958920 
-3.5801603994864860e-05 
0.0061497520798960755 
0.0020885042750237390 
0.00030284100653842120 
0.0036574687698657030 
0.0025148674607359270 
-0.00014694392705076124 
-0.0033610645703221650 
0.0058965430069224450 
0.0079198634923354530 
0.0025815951876381900 
-0.0016314841488354094 
0.00072638799144800490 
0.0025633989467737240 
0.00090042522868027270 
0.0095102442680958630 
0.0014057132731836997 
0.0053538720855939190 
-0.0040814664073141490 
0.0014606923476749507 
-0.0027212673881530400 
0.0035250478391520350 
-0.0016314841488354094 
-0.0047972455313611500 
-0.0015867726465346650 
0.00053542347468349850 
0.0087101003716470990 
-0.0038393628404461335 
0.010291028765095120 
0.0018775414691000534 
0.0078021563436563460 
0.0036315508893906955 
0.0078021563436563460 
-0.0034465478074836246 
0.00030284100653842120 
0.0041376163329571000 
0.0045822746530237820 
-4.5266733263242360e-05 
0.0045822746530237820 
-0.0048774912070229560 
-0.0023694216017739220 
-0.0023694216017739220 
-0.0031807724026706750 
0.0013470013785277042 
-0.0041430102119453190 
0.0053171650629597516 
-0.0047972455313611500 
0.0025815951876381900 
0.0014057132731836997 
0.0016590034690081040 
0.0028343381817178500 
0.0045822746530237820 
0.0069847787761803280 
-0.0032048248162095360 
-0.0073431526712604030 
-0.0036565061824435620 
0.0010185045270765243 
0.00080423192169589700 
-4.5266733263242360e-05 
0.0087101003716470990 
0.0046149838421322430 
0.0045879364608190250 
0.0064080866711515710 
-0.0022503300633783320 
-0.0057981488608912320 
0.00072638799144800490 
0.0051925393150993270 
0.00080423192169589700 
-0.0033610645703221650 
0.0045822746530237820 
-0.0015443693532189912 
0.0091100858072860470 
-0.0048774912070229560 
0.00090042522868027270 
-0.0027212673881530400 
0.0023454937111046367 
-0.0032048248162095360 
-0.00068064579905988990 
0.0045822746530237820 
0.013216269101825235 
-0.0065217764234281370 
0.00087293772352305380 
0.00087293772352305380 
-0.0019230266700750146 
-0.0048774912070229560 
0.0064198684671142160 
-0.0070392310850438210 
0.0063110618051841880 
0.0091100858072860470 
-0.0040814664073141490 
0.0043286514559489310 
-0.0031945997658664270 
-0.0015303406483820376 
-0.0038173571115133046 
-0.0039006378806680413 
0.0037212809901771800 
-0.0023694216017739220 
-0.0027212673881530400 
0.0045822746530237820 
0.0087101003716470990 
0.00015658874055178150 
0.0053171650629597516 
-0.0069117041230537880 
-0.013281039665920029 
-0.0043528101244814290 
0.0075862795466012550 
0.0014606923476749507 
0.0036315508893906955 
-0.0081297442440121970 
0.0013307004835908140 
0.00087293772352305380 
-0.00027850965969844206 
-0.0057981488608912320 
-0.0050767691244116880 
0.0013254645694897164 
-0.00068064579905988990 
0.0039463692944477530 
-0.0048774912070229560 
-0.0092681178268188970 
-0.0022479719257335960 
-0.0074472948207580810 
0.0041795245514752850 
0.00041478916380010070 
-0.00068064579905988990 
0.0045879364608190250 
-0.0048774912070229560 
0.0026625328475284930 
0.0024761042846360760 
0.0012124506631985162 
0.0022200351710179754 
-0.0034465478074836246 
-0.0070392310850438210 
0.0028343381817178500 
0.0036315508893906955 
0.0041795245514752850 
0.00018052653301192160 
0.0097757013882177130 
-0.0057981488608912320 
-0.0038393628404461335 
0.0012845999862824045 
0.0012845999862824045 
-0.0027285895370301036 
-0.010362860049798120 
-0.0057940962041046790 
0.00087293772352305380 
0.0095102442680958630 
-0.0023694216017739220 
0.00087293772352305380 
0.010291028765095120 
-0.0041981202742595100 
0.0043363868395551140 
-0.0038730340143627560 
0.011124235400044046 
0.0081769896721830170 
0.0053700427227232480 
-0.00025818905989052880 
-0.0041981202742595100 
0.0061513950360428280 
-0.0047622723122406120 
-0.0022503300633783320 
0.015063129650702367 
-0.0015806146641295282 
0.0066524239169633460 
-0.0043986314945157390 
-0.019923669103685263 
0.0022200351710179754 
-0.0023529461675789827 
0.0020417833852396155 
-0.0048774912070229560 
-0.0073431526712604030 
0.0028343381817178500 
0.0033546807678760000 
0.0078021563436563460 
-0.0081297442440121970 
-0.0022479719257335960 
-0.0032405014498544365 
0.0042091180842078300 
0.00050357581381290920 
0.0028343381817178500 
-0.0027212673881530400 
-0.0023529461675789827 
0.0022200351710179754 
-0.0069117041230537880 
0.0098385340591261240 
0.011124235400044046 
-0.013926705270870853 
-3.5801603994864860e-05 
0.0035522355855581370 
0.0022239282810300027 
-0.0036778865466024790 
0.00018052653301192160 
0.0030597224171077440 
-0.00014694392705076124 
-0.0020771594814841600 
0.0045822746530237820 
-0.0044782670305476030 
-0.0099620403031336160 
-0.0038393628404461335 
-0.0027285895370301036 
-0.0051362126257229876 
0.0045822746530237820 
0.0069847787761803280 
0.0050306687268019720 
-0.0016218425324781023 
0.0028343381817178500 
0.0026625328475284930 
-0.0061773234672399405 
-0.0032405014498544365 
-0.0061569272863867920 
-0.0072616494778987510 
-0.017428251353140230 
-0.013926705270870853 
-0.0057981488608912320 
-0.0043986314945157390 
-0.0032405014498544365 
-4.5266733263242360e-05 
-0.0069581345703586950 
-0.0011516399271846477 
-0.0032048248162095360 
0.0082711784655372590 
0.0025815951876381900 
0.025998637618327800 
0.00065376673865638330 
0.00015658874055178150 
0.0014352688707571011 
0.00053542347468349850 
-0.0021213493691716810 
-0.0011516399271846477 
0.0065139729552795140 
-0.0050767691244116880 
0.0053700427227232480 
0.0022200351710179754 
-0.0023694216017739220 
0.0056393515921495600 
-0.0073633669576364845 
-0.0060328492796652260 
0.011188653712838320 
0.0045822746530237820 
0.011124235400044046 
0.0010402941402609341 
-0.00082965489012858150 
0.0074403377656252654 
0.0042091180842078300 
-0.0027285895370301036 
0.0014057132731836997 
0.00055360953625755490 
-0.011316242540494908 
0.0046149838421322430 
-0.0015443693532189912 
-0.00014694392705076124 
-0.0032073303790510154 
0.0037212809901771800 
0.0015317809288310062 
-0.014418466909793497 
-0.0081297442440121970 
0.0070664006219035890 
0.0065139729552795140 
0.0037212809901771800 
-0.0027212673881530400 
0.0056393515921495600 
0.0025633989467737240 
0.0025633989467737240 
0.0058230196204913260 
0.0012124506631985162 
0.010291028765095120 
-0.0027285895370301036 
-0.0073622562537523210 
0.0078021563436563460 
0.0042091180842078300 
-0.00025818905989052880 
0.0025815951876381900 
-0.0033610645703221650 
-0.0036778865466024790 
-0.0065217764234281370 
-0.0032405014498544365 
0.00055360953625755490 
0.0043027936520354410 
0.0024761042846360760 
0.0053538720855939190 
-0.0074323665668358530 
0.010045440892462155 
0.0018775414691000534 
-0.0040382173664219390 
0.0026625328475284930 
-0.0073544669015632440 
0.00090042522868027270 
0.0051925393150993270 
-0.0016314841488354094 
-0.0019230266700750146 
0.0025815951876381900 
0.0064104124682055840 
-0.0047972455313611500 
-0.0081297442440121970 
0.0056393515921495600 
0.0051925393150993270 
-0.0073431526712604030 
0.0020885042750237390 
0.0024761042846360760 
-0.0023694216017739220 
0.0022200351710179754 
-0.0045163493487015440 
-0.0047622723122406120 
-0.0036778865466024790 
0.00015658874055178150 
-0.00072570187435781830 
-0.0040279704507910680 
0.00072638799144800490 
0.0053656124521303440 
0.0035250478391520350 
0.0053656124521303440 
0.010291028765095120 
-0.0023694216017739220 
0.00072638799144800490 
-0.0043528101244814290 
0.0041376163329571000 
0.0041795245514752850 
0.0024761042846360760 
0.0022200351710179754 
0.0024761042846360760 
0.012367516929996712 
-0.0047622723122406120 
-0.0019230266700750146 
-0.00082965489012858150 
-0.0058665671015262670 
0.0018739436691976902 
0.0023454937111046367 
0.0024761042846360760 
-0.0070392310850438210 
0.00015658874055178150 
0.0035620009089870580 
-0.022195227899153645 
0.0025626863645150863 
0.0052568698856529780 
-0.0020530870049413370 
-0.00082965489012858150 
0.00090042522868027270 
0.0025716539753214596 
0.0029933916447266056 
0.0024761042846360760 
-0.0041981202742595100 
0.020476842152039500 
0.00050357581381290920 
0.00067576452854555590 
-0.027479519480612160 
-0.0015303406483820376 
-0.0028562010047487690 
0.0022912850523822690 
0.0061497520798960755 
0.0036315508893906955 
-0.00068064579905988990 
0.00072638799144800490 
-0.00082965489012858150 
-0.0028873560674331574 
0.0014057132731836997 
0.0042091180842078300 
0.0037212809901771800 
-0.0091117581577625890 
0.011251089387913563 
0.0020417833852396155 
-0.0032073303790510154 
-0.0021213493691716810 
-0.00014694392705076124 
-0.0038393628404461335 
0.0046149838421322430 
-0.0040814664073141490 
0.0010402941402609341 
0.0046784965493256170 
-0.0019016062853622082 
0.00072638799144800490 
-0.013926705270870853 
-0.0040382173664219390 
-0.0073622562537523210 
0.0053171650629597516 
-0.0021213493691716810 
-0.0052066561375209320 
-0.0047622723122406120 
0.00030284100653842120 
0.0018775414691000534 
-0.0041430102119453190 
-0.014016270323636080 
-0.010729625018001265 
0.0028343381817178500 
0.0053700427227232480 
0.0036315508893906955 
0.0018775414691000534 
-4.5266733263242360e-05 
0.0061497520798960755 
-0.0036778865466024790 
0.00030284100653842120 
-0.0047622723122406120 
0.0037212809901771800 
0.0026625328475284930 
0.0075862795466012550 
0.0035620009089870580 
-0.0011516399271846477 
-0.011519788910405716 
-0.0040814664073141490 
-0.0057981488608912320 
0.0036315508893906955 
0.0022239282810300027 
-0.0056887978145938220 
-0.0027212673881530400 
0.0053171650629597516 
0.00050357581381290920 
0.0013300411223387705 
0.0014057132731836997 
-0.0011516399271846477 
0.0064198684671142160 
0.00050357581381290920 
-0.0027285895370301036 
-0.0021213493691716810 
0.0023454937111046367 
0.0024761042846360760 
-0.014418466909793497 
0.0045879364608190250 
-0.0073633669576364845 
-0.0016218425324781023 
-0.0023529461675789827 
0.0028343381817178500 
-0.00082965489012858150 
-0.00072570187435781830 
0.0063548958401113990 
0.0028343381817178500 
0.0024761042846360760 
-0.013926705270870853 
0.0041795245514752850 
-0.010362860049798120 
-0.0088777864155286570 
-0.0040814664073141490 
-0.0032048248162095360 
0.0028343381817178500 
0.00050357581381290920 
-0.00025818905989052880 
0.0041795245514752850 
-0.00072570187435781830 
0.00095860462593743650 
0.0040104769839902430 
-0.010729625018001265 
0.0024761042846360760 
0.0097667168511119600 
-0.0074234387774956756 
0.0045822746530237820 
0.0043363868395551140 
-0.0073633669576364845 
-0.015090738886956674 
-0.0015867726465346650 
-0.00025818905989052880 
-0.0015303406483820376 
0.00053542347468349850 
0.010177478553120069 
0.0013470013785277042 
0.0091100858072860470 
-0.0047622723122406120 
-0.0038193131441723043 
0.0024761042846360760 
0.0063110618051841880 
0.0013470013785277042 
-0.0023694216017739220 
0.0058965430069224450 
-0.0073695741110259790 
0.00087293772352305380 
0.00087293772352305380 
0.010969036988081597 
0.0022200351710179754 
-0.0022503300633783320 
0.011124235400044046 
0.00067576452854555590 
-0.0091117581577625890 
-0.0016314841488354094 
0.00018052653301192160 
-0.016312356555899042 
0.0016590034690081040 
-0.013281039665920029 
-0.0019016062853622082 
0.0013254645694897164 
0.020476842152039500 
0.00050357581381290920 
0.0045879364608190250 
0.0020740796179049914 
0.00072638799144800490 
-3.5801603994864860e-05 
-0.0023529461675789827 
-0.0041981202742595100 
-0.0072159329298088000 
-0.0057940962041046790 
0.0012124506631985162 
-0.0054214981085393100 
-0.0023902530254738670 
-0.0039917401429905770 
0.0078021563436563460 
-0.016332515891851213 
-0.0061773234672399405 
0.0058329700207667580 
-0.00014694392705076124 
-0.0023529461675789827 
-0.0032048248162095360 
-0.0060328492796652260 
0.00055360953625755490 
-0.00025818905989052880 
-0.0057940962041046790 
-0.0045966384482814095 
0.00087293772352305380 
0.00053542347468349850 
0.0045822746530237820 
0.019100684345181500 
0.0029933916447266056 
0.0056756001695796110 
0.0028343381817178500 
-0.0061569272863867920 
-0.0023529461675789827 
-0.0036565061824435620 
0.0025148674607359270 
0.017105102339523105 
-0.0040382173664219390 
-0.0038193131441723043 
0.0022200351710179754 
0.0029933916447266056 
0.00065376673865638330 
-0.0038393628404461335 
0.0020885042750237390 
-0.00079920480660967950 
-0.0032147575974459050 
-0.0021213493691716810 
0.00053542347468349850 
-8.8428360907050100e-05 
0.0082110516262805120 
6.2055597366455210e-05 
0.0068699958340411510 
0.0052568698856529780 
-3.5801603994864860e-05 
-0.0067646379950758590 
-0.013281039665920029 
-0.0073431526712604030 
-0.0061773234672399405 
-0.013926705270870853 
0.0091100858072860470 
0.00087293772352305380 
0.00039362862084008245 
-0.0011516399271846477 
-0.00072570187435781830 
0.0025633989467737240 
-0.0032048248162095360 
-0.0022503300633783320 
-0.0057658081992891510 
-0.0038730340143627560 
0.024902521747062190 
-0.0050767691244116880 
0.00039362862084008245 
-0.0016314841488354094 
-0.0033610645703221650 
-0.0047622723122406120 
0.022467615037908090 
0.0012845999862824045 
-0.0016314841488354094 
0.0024761042846360760 
-0.0057658081992891510 
-0.0015443693532189912 
0.0081769896721830170 
-0.0020771594814841600 
-0.0083765301361183700 
-0.0027883313902872797 
-0.0020771594814841600 
-0.0047972455313611500 
-0.00048786441042958920 
0.0024761042846360760 
0.00067576452854555590 
0.0010402941402609341 
-0.0057981488608912320 
0.0010304694206441061 
-0.0043986314945157390 
-0.00072570187435781830 
0.0042091180842078300 
0.00072638799144800490 
0.0020417833852396155 
0.00015658874055178150 
0.0097667168511119600 
0.0097667168511119600 
0.0014606923476749507 
-0.0040814664073141490 
0.0064104124682055840 
