solver_type L2R_L2LOSS_SVC
nr_class 2
label 1 -1
nr_feature 7999
bias 0.0000000000000000
w
-0.060573204756741994 
-0.045403053962797590 
-0.063018905483063300 
-0.020438091512740952 
-0.038929659341632200 
-0.060216577696369025 
-0.073036743704272540 
-0.028413417882438254 
-0.036106628741266340 
-0.042728711908805290 
0.046488382494783290 
0.054114826430823944 
0.069074688533564240 
-0.069346745866117390 
-0.062065920798639956 
-0.043391476434360110 
0.071228524053052760 
0.052796998010516950 
0.042617046212858264 
-0.048259170250860864 
0.041702448968435190 
0.028080249650599052 
0.069545680372625070 
-0.078671846492226180 
0.061064182391022126 
-0.019523967908473700 
-0.097399030859128560 
0.046683010299881650 
0.044353455080558865 
-0.026058689110347520 
-0.070194332813855680 
-0.015398916530553357 
0.068924197430470500 
0.039284997802244150 
0.029232061642446500 
0.046159665288679320 
0.037174485996147665 
-0.044746861639661300 
0.028347561202689490 
-0.038276213145433810 
0.042320076021703850 
-0.031486858726307555 
-0.019670520751646273 
-0.011065824947455765 
0.085056403547353970 
0.039097177394889770 
0.035876655306333690 
-0.035104437742343085 
-0.059144718826874390 
5.3738200313035615e-05 
0.024420426081846858 
-0.024859483070911473 
0.039267892321941125 
-0.022179193516593587 
0.030005374033508413 
0.020800528313275356 
-0.032524469942503870 
-0.042040946349521664 
0.010376209703763860 
-0.035616939818225814 
-0.046581604804804465 
-0.023212680264086410 
-0.036086264630185425 
0.013322920422513157 
-0.023685961025090270 
-0.027828248560787610 
-0.044798878216055510 
0.069704498727355430 
0.054493421940739140 
0.032331514785130470 
-0.033939598781852050 
-0.024551700418365418 
-0.054226678527341110 
0.057774575174103380 
-0.032766511027603070 
-0.0018325979229371575 
0.035996361814754234 
-0.021939481297433835 
-0.0041147549057818750 
-0.0093885899131279350 
0.027729904791463866 
0.062942467375308000 
0.031453377555157680 
-0.021658272072464230 
0.042151604718454840 
0.040526459781817430 
0.018763005826241734 
0.034059825779248000 
-0.030878337730629955 
0.043144055882539290 
0.019843405232811920 
-0.033201418112095336 
-0.016949042650537170 
0.029400187905761325 
-0.034254407028035200 
-0.057967431829620360 
-0.017786681673313615 
-0.025069932539280877 
-0.0093864281121431100 
0.019675525764683210 
0.023766701298243858 
0.015992567336783475 
-0.013084308210596382 
0.017523127265652652 
0.016271298622132030 
0.019522151444628350 
-0.036045915777447514 
-0.026111440369866010 
-0.020225572165824456 
-0.049410311186218310 
-0.026363665690498604 
0.015154964154759799 
-0.025967646461463188 
0.040465190159846470 
0.022879278210761658 
-0.015972835138178803 
0.010961104146846664 
0.029750474751601550 
0.031567037285278590 
0.010502467101786832 
-0.044792875817337120 
-0.030116674690369330 
0.019475605954234206 
-0.032885236138704600 
-0.011309939974697182 
-0.028850985260792206 
-0.024963093500332392 
-0.032296257923842090 
0.016941135069934582 
-0.038230198918358740 
-0.012697736606340744 
-0.0047293161608000240 
-0.023619079379934360 
0.014636004336324240 
0.048534318049352765 
0.029743622352609855 
-0.014777662662969449 
-0.031526884222398320 
0.039294475500036760 
-0.030237955599008290 
0.010159505360894083 
-0.029651212125122256 
-0.027787086277567805 
0.044903573870237100 
-0.020396057220840010 
0.019948740973482250 
-0.033362802659899420 
-0.029118060948610112 
0.027011402840852544 
0.020591592537997090 
-0.038432592363166620 
0.045064055066680530 
-0.033303990942929550 
-0.039742227365655470 
-0.0019234136673713167 
-0.018679731196191450 
-0.040544828480496620 
-0.022848000500188474 
-0.022414061223425732 
0.021777493682527686 
-0.044923984791992700 
-0.011146650192786768 
-0.020228883552703200 
-0.018352114577996546 
0.013812150252735396 
0.043339880513340830 
-0.021215486093845520 
-0.029819916278197500 
-0.020496963344601788 
-0.010422137356276848 
0.024221904719486174 
0.015448991095712851 
0.014110345630254446 
0.0060024047662158030 
0.010500442683181179 
0.023510922209318060 
-0.035922333572819830 
-0.020844048247831520 
0.022480566244003544 
0.0070184640959411360 
0.038859013773698070 
-0.037213466658438730 
0.0073335188327069960 
-0.017846921754098050 
0.030311682837927168 
-0.027273172518526016 
-0.022293617755015736 
0.014113962957136537 
0.014474418206213544 
0.031605901707767635 
0.0034491679562411327 
-0.023797680687595640 
-0.022846111284384407 
-0.020061725736742846 
0.029117913625524013 
0.013661820451357443 
-0.016984665437704450 
0.0091115623572665380 
-0.013938416035839037 
-0.0016157657899185632 
0.029888950522038316 
-0.019231769753557573 
-0.0089978594805229930 
-0.032261036043215490 
0.041491167567033145 
0.039766346768800990 
-0.041625664255518180 
0.014981847443179977 
-0.022323131179099627 
0.030175995572601706 
0.014416130420360990 
-0.035298058096147040 
-0.019576498608335255 
-0.011611624884961180 
-0.015096761545728334 
0.023299008984220264 
-0.019529921081450760 
0.018024386462239087 
-0.024672320242911450 
-0.028386527327703330 
0.017220657946875415 
-0.0082742808894456080 
-0.037008801024495420 
-0.018588129054756278 
-0.024116023201397305 
0.023149315763599625 
0.015442242178710631 
0.012470823687561968 
-0.0097926965528303510 
0.056688432536722770 
-0.017385961357782110 
-0.019887111811641910 
-0.0089978594805229930 
0.029215941211927946 
-0.019961699753516055 
-0.012345648012422550 
-0.010339305105535017 
-0.013611979004328926 
-0.017820356928383973 
-0.024779742358018840 
0.015855024143700585 
-0.018582348358855710 
0.018609463297734650 
-0.018371276194553760 
-0.041941273560347284 
-0.023754898764334480 
0.021071822717197736 
-0.019772121938380623 
-0.026488604495379073 
0.010904128678628106 
0.015937394734111713 
-0.0089575028065614040 
-0.028317639610577826 
0.016375054222319340 
0.024862770916434324 
0.022601509146854576 
-0.017795301664800000 
0.015187556280853304 
0.025493917910182677 
-0.041963182055699495 
-0.030689421006061790 
-0.020790862019820187 
0.032107097726126730 
-0.024426368780806607 
-0.022804036543726865 
-0.028509576380216464 
-0.035358575323485480 
0.024542881405642293 
0.0039840542614368670 
-0.0076689849419126730 
-0.037534525465246750 
-0.039712106520714000 
-0.052515907687550180 
-0.014036580454383540 
-0.045585075948880950 
-0.041157051830820565 
-0.041388671298841290 
-0.042187175066492380 
0.021663211942811466 
-0.018784852374575858 
0.021642931870916517 
0.013349723881585390 
0.019732729975029330 
-0.027513179255930500 
0.039406807776009876 
-0.030470881181454840 
-0.022798673965696577 
-0.0063439131736234220 
0.019946786725994500 
0.038405442245557890 
-0.031385287315155996 
-0.039454792286978470 
-0.012072627400726569 
-0.010766044403699604 
0.017246551497192090 
-0.027088018718721858 
0.023551262882483354 
0.023462160378738290 
0.018394135252972280 
0.024354580153988507 
0.032165478168177546 
-0.023576576367538692 
0.028377836862518090 
0.0099371146248422110 
0.021815513207994047 
0.030504253843559273 
0.025246135615715388 
0.0087874018553059550 
0.021565911706434918 
-0.016538899077206210 
-0.022008058976940578 
0.054592757085505116 
0.032475712591882595 
-0.014225323052108550 
-0.039590934300522530 
-0.055590084121031905 
-0.020523776023807987 
0.033245711305789400 
-0.042689443615218630 
-0.038424207152182026 
0.030675354097043650 
-0.040775610439912160 
-0.0086431617607965540 
0.045139403214278280 
-0.022671859084477615 
-0.010685816415228297 
-0.035419435692968265 
-0.043060530831278365 
0.029560640574078600 
0.037815551433428640 
0.0045979821529309970 
0.019918106115042710 
0.037387622227692960 
0.061839376029740450 
-0.010302021831218840 
0.028243214139854210 
-0.026402952500977808 
-0.027599054919973172 
0.036557390815112130 
-0.032868736901486530 
-0.015733160109669720 
0.030658313502545560 
0.011971287506016242 
0.025725346920057240 
0.025272976012887974 
-0.0023481687763943850 
0.017297156591918210 
-0.046331532821617260 
0.0078736188899124070 
0.0088692743213189920 
0.035668892067634725 
-0.0037701895296285504 
-0.064533100266597700 
-0.020042026037115527 
-0.027295894995836522 
0.020615214754569750 
0.013887417354994530 
0.0084460884364224100 
0.0038460109815499140 
0.017764049186801828 
-0.013880749195863702 
0.026867884563436084 
0.014158751554007393 
0.0036579305154855616 
0.010374678550606380 
0.012621571338950211 
0.057421494189099960 
-0.041423204621875180 
-0.016095525221241247 
-0.024513636474470142 
-0.0019632450051372302 
-0.011755204145662030 
0.025063604549898946 
-0.018319368616683330 
-0.044724498635859300 
0.0082118950494756760 
-0.0032361232989684460 
-0.014776634393928904 
-0.013169341827657135 
0.015974209704928800 
-0.012633603142188364 
0.012316543492171705 
-0.0096732366803897270 
0.029046231955268610 
0.0094063169010794780 
-0.034067540328874970 
-0.0096939666929583630 
0.0061728743574727310 
-0.051271718090649290 
-0.014226271534380858 
0.063411166140472300 
0.025993111141416640 
0.016181788346168086 
0.0087076557244404870 
-0.0033489245982588683 
0.025966509901632025 
-0.021956789491851330 
-0.0080340082046035170 
0.014671308056179415 
-0.0089187998315202620 
0.0035445511767468170 
0.0034818484832165393 
-0.018518838515642937 
0.012865187890057863 
-0.020883707612064883 
-0.016810564035175900 
0.023130848972268064 
-0.021638375184253718 
-0.025882552590705692 
0.011894295431809743 
-0.0064397484179337825 
-0.0089811082398567100 
0.0088578676086321380 
0.022457405973509294 
-0.0052922039413703290 
0.021169102344958685 
0.016693419471978630 
-0.032624148021725970 
0.021498469210644540 
0.024286375912683594 
0.017772427375306876 
0.017657115802175175 
-0.012898790329763836 
0.024522948687164512 
0.013128155355886953 
0.010298883789535699 
-0.0097416057459274450 
-0.013639764384368026 
-0.0069786425232178730 
-0.022250803172333160 
0.015465379928052154 
0.017170454524884072 
-0.011992253377470702 
0.0060638022672794450 
-0.015469229755882140 
-0.028853020844908858 
-0.018366346116835887 
0.0054306884149348670 
0.020308089998816990 
-0.023980839291689120 
0.018632667091156307 
0.013325096552668678 
-0.0059565576092912860 
-0.028312280042917866 
0.013445153070062160 
0.018756388656224216 
0.013283033989353958 
-0.0096216178186177840 
-0.0057727290997823450 
-0.011123027609839650 
-0.022058853112581666 
-0.011473053058153925 
-0.012910553883461405 
-0.037724619683546300 
0.029215084714398830 
-0.023973854877886457 
0.017772427375306876 
0.020126463840394935 
0.041632256466707075 
0.010123026689909878 
-0.017411661665129814 
-0.017616401003920910 
-0.051788977689214330 
0.016949582485932542 
0.0070341211184786790 
-0.0097526506824736430 
-0.015837876019091413 
0.013069801656086578 
-0.0075537196359886260 
-0.017166073449672723 
-0.028930955885332420 
0.024522948687164512 
-0.018846102559784500 
0.0071119062554871800 
-0.016747699597444363 
0.021836215502211820 
0.0088052259231637150 
0.018302479114153565 
-0.020261418258167446 
-0.013753322494122155 
-0.024393101633292405 
0.020940857410792366 
-0.010653341757606906 
-0.016963687777553672 
-0.0015539760135734363 
0.0014210528893331164 
0.0068402523920103660 
0.018184056037219558 
-0.012531823703821166 
0.017491869101326135 
0.022268287064449922 
-0.014125690491587703 
-0.011924004525774790 
0.0050883441707130770 
-0.016147683617685570 
0.015751256121710418 
-0.0089558127996261570 
-0.018296174141210694 
-0.023301852264763005 
0.018188837171419493 
0.019634428435460500 
-0.032413238218270620 
-0.011473053058153925 
0.021362257560200198 
-0.020970869941477444 
0.014325193444253490 
0.015649320333038116 
0.013128413706617787 
0.031918899091826256 
0.017634589665317342 
-0.010647121893383784 
0.0052723694335726410 
-0.0095031666495616240 
0.020486673527760686 
0.013620699621002080 
0.0033088485660666238 
-0.0080298683816156240 
0.0091174106883453160 
0.012610588675055214 
-0.013714808902578365 
0.010479936610377473 
-0.020444158172214722 
0.012632212061520121 
-0.0080105297178632260 
-0.0043992956166924440 
0.022821574576066997 
0.015231129263523107 
-0.012462850698293306 
0.025881543624023375 
0.023165275932845100 
0.0035648099520356160 
0.018544168127660715 
0.013239525914083530 
-0.0071528318748180150 
-0.012611329557960767 
0.019963535942485136 
0.0037668206367571927 
-0.020479342986048880 
-0.022988714396255960 
-0.0091098637906127760 
0.010246730288283894 
-0.0097128386793129250 
0.00060531873904422200 
0.019556413193951700 
-0.0062957479763651400 
-0.016743421104811966 
-0.012321433931351402 
0.019442902749514710 
0.0095227490608979830 
0.0078838339905726320 
-0.041423204621875180 
0.0054096929437137900 
-0.020603869457682174 
-0.032185267972946510 
0.023962279024215632 
-0.030544831936631270 
-0.0063812075326399830 
0.010828141245890400 
0.037667828374381070 
-0.024088163684606900 
0.0068858239679608770 
0.035833110812414760 
-0.019945510115624400 
-0.016253679729013273 
0.030278798847880414 
0.037667828374381070 
-0.011602598760142043 
-0.034730494267830440 
-0.011992253377470702 
0.019113543148709528 
-0.032326098172602930 
-0.011709716538709685 
-0.015055051970972420 
0.010989343720471823 
-0.0087072685899227920 
0.029107366145920827 
0.010892153496864140 
0.0099145265736152600 
0.020207299608184185 
-0.013780717350561305 
0.0094592344287001420 
-0.015730612380010396 
0.0076189395313998440 
0.013654740685750105 
-0.017009348549947914 
0.028387120717919455 
-0.010320114668282575 
0.019639545608607156 
0.016532388410983312 
0.035640023117218485 
0.010536908744457845 
0.038139654526937905 
0.021991494928631850 
0.024285347429221110 
0.019129957261924600 
0.014829927395847944 
-0.020174152210360317 
0.010041230617902163 
-0.014226271534380858 
-0.016307473718362088 
0.025741102671610346 
-0.017374587003740000 
-0.014763562472536634 
0.018328058015136157 
-0.031439445296815940 
0.025157643691648312 
0.028969337444960577 
-0.0020074449937681560 
-0.010534633748511418 
-0.014111050700731220 
0.0080051660606253150 
-0.018659161011466790 
-0.015787515534802340 
-0.0076282297086161870 
-0.012837822282114742 
-0.016802737193429566 
0.0055275480554753840 
-0.012294412382905138 
0.018996472900386915 
-0.0087180297414399170 
-0.015877547006798026 
-0.038247029509225060 
-0.0096998211152354890 
0.010624574568602260 
-0.0093497034777457920 
-0.041447505043485350 
-0.025920629113326640 
-0.011441549317317744 
0.023962279024215632 
-0.0098343295516333670 
0.010055592680753570 
-0.0023030933063967127 
0.020558564753296985 
0.042240069971274570 
0.032116932394216910 
-0.020007939706497693 
-0.032930583147406170 
-0.033242980307082400 
-0.027685711613486694 
-0.0079008922950233540 
0.0090572371634247940 
0.025178646131828627 
-0.0053725366324673210 
-0.014338903797777010 
0.045483299232806300 
0.044016852666531346 
0.022967205126021076 
-0.017735187001922220 
0.021419361422225603 
-0.016666415558398373 
-0.015227752821861530 
0.022280387813754910 
0.037175649775023150 
-0.012855927187872701 
-0.045401713053863334 
0.028081142304154535 
-0.041144611233692870 
-0.0093732240200298960 
-0.037903714139833860 
-0.028684007670578180 
0.040803990195299280 
0.017796934048068064 
0.033876447629230644 
0.043685619263013940 
0.041882236065888780 
-0.030141429264217947 
0.00079027275759655610 
-0.028149164083211990 
0.029598141048481876 
0.036132932233092954 
-0.035666990178441244 
0.037438986983267614 
-0.015846236009587584 
-0.029886322930087774 
0.035937254394489960 
0.023500907035614194 
-0.030302716142578010 
-0.029330250266948778 
-0.027636461734614990 
0.013515039715061074 
-0.022298377801461062 
-0.026212658249331305 
0.030567801588971003 
0.010389046946084751 
-0.039786901593670210 
0.0096341962520604410 
-0.033255233733536260 
-0.042731701100411200 
-0.011596817882235778 
0.011862964278295196 
0.030684731632077168 
-0.015202160752760095 
-0.034850218654771836 
-0.020406348626676000 
-0.0078467552852280430 
0.014929499147419440 
-0.024994642202227540 
0.020620722040995590 
-0.029651266692975310 
-0.027856711056258700 
0.012355598043472861 
-0.032497500140966490 
-0.027304260732905664 
0.038547646153415740 
-0.0011082254452254722 
-0.015147410565614819 
0.030893892096049196 
0.033932582966851920 
0.018394071167154004 
0.012925859153434020 
0.051979521638955660 
-0.027176419412840602 
-0.013483335873125394 
-0.037304087452755160 
-0.015969807192471715 
-0.029687570851044696 
-0.021433110864008023 
-0.012118268066122099 
0.021686853125912172 
0.045519395831000446 
0.016688531354817362 
-0.0044328051395808820 
-0.0031695328762148664 
-0.016022453538689320 
0.013094970845444281 
0.0092387950357529360 
0.042095947967543950 
-0.043019633124329960 
0.035156249669080080 
-0.032929628722902790 
-0.035414111204830956 
0.0082394024892933040 
-0.014558062248867527 
0.029222224794248953 
-0.012377211171624948 
-0.023542778405689302 
0.0094726779061878610 
0.039495301275102920 
0.026490156477257220 
-0.022223336933914106 
0.0044942719028457800 
-0.022136914557166820 
0.018339001186701932 
0.0092175088413287780 
-0.0066535305942563750 
-0.0024256496147941676 
0.022127572254934930 
-0.012113044272126390 
-0.017479088390122775 
0.034400629657983524 
-0.017591354327346195 
-0.0088173562099463470 
0.025770632194917050 
-0.027052378859133590 
0.034111412677843976 
-0.0015105763142067188 
-0.022086075648700570 
-0.00017545122637879240 
-0.039320602813807830 
-0.058056908226018280 
-0.019530909388291870 
-0.0023338933417998866 
-0.050621011055324780 
0.039944949377722810 
0.0021843448817180490 
0.045553853534991990 
-0.027303822227855290 
-0.0098235385166208700 
-0.046840017443779280 
-0.032306154042204630 
-0.024738363164277112 
-0.020010696289958507 
-0.0027799581430841480 
-0.010762701349308670 
0.037942116069405840 
-0.018203766614822182 
-0.037116402129700270 
-0.012566103227374755 
0.041017657707252510 
0.043655030487917135 
0.044311643448931360 
0.017820202039401850 
-0.016675071066308625 
0.028743661477196760 
0.019516442087794756 
-0.0062026897805342430 
-0.019012593120030380 
0.041768408325211100 
-0.015192319975761915 
-0.034095155509345096 
0.037458877175095320 
0.019496542765453706 
-0.013647507978578330 
-0.033032271384404480 
-0.017831336511926090 
-0.0030012382563887304 
0.061777506983282604 
-0.0079167250460570760 
0.027201976080891848 
0.020310689781342510 
-0.023230380230769853 
-0.024484028708055090 
-0.013174178099494501 
-0.017199562951312832 
0.0081981477945394580 
-0.018159419937065320 
0.043389278241873460 
0.043660370956701010 
-0.029605263376840128 
-0.0033408562682891363 
-0.049042854578203274 
-0.0021709302865296850 
-0.012959099671974544 
-0.036314106583719950 
-0.033010813313477200 
0.041388063623226190 
-0.018746398068640403 
-0.0080060017251184760 
-0.022126693296450093 
0.017289369741608930 
-0.022332533286684220 
0.0042922091889383680 
-0.010800844340027028 
-0.040020291021335500 
0.0024312237907638870 
0.0025831353383847960 
0.0087919887877343120 
-0.022194508022027460 
0.036261968443824600 
-0.025542363543205180 
0.048623904303294650 
-0.018236869648640016 
0.026029917288645160 
0.011283040095218778 
0.017104673850059687 
0.033281298354529476 
0.031219041735893670 
0.025591663929729380 
-0.0030787033557245520 
-0.014988455378141670 
0.019968284966761770 
-0.017042430266840495 
-0.020339602440561390 
0.042882212826393800 
0.014192542690104178 
0.037758145704466230 
-0.0074244420480775320 
-0.041116050883323290 
0.066295827324135550 
0.018951416168694740 
-0.029712279588451417 
0.012330399514886826 
0.031835004937461540 
-0.046151870840043685 
-0.052509503581216760 
0.012383636960960905 
0.023054167197319713 
0.041012279740973990 
0.014881093867192302 
0.010620208145116678 
0.0032803251893889680 
-0.0017643115991702455 
-0.013319294633791450 
0.021757182306291204 
-0.022114651000461838 
0.017867664254021393 
-0.036253976831569000 
-0.014202794195078400 
0.012823751000330210 
-0.0035553680519712144 
0.014800023104231003 
-0.0065606803457090920 
0.010050616729873991 
0.0072009959741130836 
-0.0046706989030817240 
0.0074448421132297885 
0.0062853239406377060 
-0.0041248570554813260 
0.0035846292059303693 
-0.011939379645322388 
7.2375516172436364e-06 
0.012348997767023440 
-0.016735414458861304 
0.028184634589823013 
-0.030797138677398982 
0.014717567499929916 
0.015868958413572755 
-0.018027332667416174 
0.018201742198812872 
-0.0065306906730279360 
-0.0018439156302609136 
-0.0088224761514997400 
0.014939972302807062 
-0.0088224761514997400 
-0.010843862359403822 
5.1202430479168970e-05 
-0.012792656843560233 
0.0090048775886157930 
-0.0028407094227908570 
-0.0089360325792190220 
0.015889054525447820 
0.0067575760540930380 
-0.017584240527008275 
0.0047447970772552220 
0.0077516840682652355 
-0.014793100193427814 
-0.011716051306764015 
0.020830441109921837 
-0.0071114421945625470 
-0.014850217555505137 
0.028122767109631394 
-0.0071381588988276620 
-0.010678323238278540 
-0.013431891797087668 
0.014205456465570523 
0.0065658282762744305 
-0.027445305701428273 
-0.0085704921616091990 
-0.0044150653880118130 
-0.0055094421383774200 
0.0036781267470949540 
-0.013908216963872748 
-0.015263761226557550 
0.022252530342532420 
0.00034875347332654336 
-0.013795585268099635 
0.0056164574753613680 
-0.011693474643012505 
0.015118602557267128 
0.015950944305545980 
0.010891169607462958 
0.010891169607462958 
-0.010980615300772150 
0.024926266980733210 
0.0066274332186174550 
0.018794270533317620 
-0.022746827204111284 
0.0035706498254056810 
-0.015913036907252990 
-0.0085500791152202100 
-0.0071381588988276620 
0.0087467725541197100 
-0.014302773046983360 
0.017895739568249157 
-0.013890832804047250 
0.022266244218899940 
0.014894207136616246 
-0.024044952850674380 
-0.0092540810857717130 
0.011929266307190439 
-0.0079823090838836380 
0.0092120906252335050 
0.0071203861414947480 
-0.012381307499721462 
0.0074643443667793650 
0.0088737621971390220 
-0.034225220879375590 
-0.025345868057551495 
-0.019297597552497804 
0.0059322436378021080 
0.010891169607462958 
0.0087276153677405020 
0.015625698693054340 
0.00070613195269568860 
0.0025168366544593510 
-0.0044571742961885870 
-0.026551995956587940 
0.024791243874787164 
0.00036404713462470680 
-0.00018967576338644540 
0.021757182306291204 
-0.020689936217145436 
-0.018027332667416174 
0.0033253556427572620 
0.018328394200595163 
0.010045712914724883 
-0.0051711347626405895 
0.010891169607462958 
-0.011377910900144436 
0.010117631693667610 
0.014047935541474200 
0.013381107009487631 
0.0068919281758854830 
-0.016776815236798616 
-0.010548611491552338 
0.0080276002642545650 
0.0093355789928274680 
-0.0088224761514997400 
0.022206295688758104 
-0.016259444974209300 
-0.0085250455998248880 
0.0078923140369593300 
-0.019670800137240346 
-0.0071583417575264300 
0.010819473684966777 
-0.0076468447057709190 
0.0029860422308888453 
0.0052062111964679710 
-0.0060757235378031856 
0.0076246549963803600 
-0.0069457044301331070 
-0.010634351514390300 
-0.018593274247896710 
0.0031853989421726170 
-0.025416368611123827 
0.0012540078563727075 
-0.0083667838920508400 
-0.016408892306226427 
0.010088097695174094 
0.018816691906568532 
-0.0094977695541433560 
-0.016409291114467530 
0.0060719737950611650 
0.013461999685541185 
-0.0036696289412946593 
0.061246641855124740 
-0.019878673415766190 
0.0084098539126720960 
0.0076270653423442440 
0.018875117887144440 
0.0075914975590162595 
-0.0053846882779852750 
0.024366021147772948 
0.0088059319100839870 
0.012014856706987590 
0.010193967283523066 
-0.0030623435551203467 
-0.017461736641349007 
0.020042032165877736 
-0.010123117556157659 
0.0027663460337293906 
0.0087855595850692080 
-0.0079514199616744980 
0.0055173043204834625 
0.0038774751547838740 
-0.0053846882779852750 
0.0038738439055382060 
-0.021514832087605407 
-0.0082153517390936800 
0.025739727078136110 
-0.011729287605236107 
-0.013420974013628925 
-0.017899994641866937 
0.0014043035488877254 
-0.021278948718070610 
0.0087467725541197100 
0.010099246344663781 
-0.0079514199616744980 
0.0096868636474674360 
0.00018606903573212914 
0.0044219202989638460 
0.0061457589719997260 
0.024271176782027210 
-0.017426180237562507 
0.013912117489814234 
0.0057765196109586720 
-0.017347510646376123 
0.0084071315203228660 
-0.012424867436627563 
0.0086747358601445090 
0.024471127421812816 
0.0079332053302757740 
0.010923971880292848 
-0.0072633165153310390 
-0.014576933451640075 
-0.0044571742961885870 
-0.0038282645764661640 
0.014606922113058649 
0.0090193040088909100 
0.0074194991949454480 
0.0072686678085545490 
-0.015243767269356338 
0.027392072528570822 
0.011900675809837953 
0.0033758262244504060 
0.00077143685631070540 
0.0099603689400814510 
0.0057307732730313620 
-0.016716011321676452 
0.020050164048671913 
-0.010957361934102607 
0.0082222478453136820 
0.010953446975239235 
-0.0017264308707884506 
-0.0032248728206352136 
-0.0043695247809711960 
0.0081122242891541950 
-0.0017283423594422267 
0.014513511605186456 
0.0019495523965410240 
0.0049936448441525640 
0.0086471401969904910 
0.013521349081137496 
-0.014669348290972837 
0.0091462441702905560 
0.0066015186587263790 
0.0018582222243666686 
-0.014094204517732245 
0.00034875347332654336 
0.0072582656670374510 
0.017359518538064868 
0.016015091619477083 
0.0056361777106578020 
0.0064683955544016765 
-0.0099826119487811800 
0.016920538347946493 
0.0062014520723195330 
-0.014559548486825860 
-0.0079965175397927240 
0.010590706753564648 
-0.020827969715140420 
-0.010136449292997418 
0.0065767879254539590 
0.0051133264338257930 
0.0058557110993507660 
0.013108367051252501 
-0.00094029503867412970 
0.0044085281197356300 
0.017640020858261900 
-0.0096170072692578130 
-0.015263408762152873 
-0.016212317122762720 
-0.0083085433426224350 
0.0096284587883444120 
3.3131810717808820e-06 
-0.00040037975134198910 
0.012821235171239375 
0.013151029948726780 
-0.0088224761514997400 
0.0075259815642351605 
0.014055341308568803 
0.015783650994379155 
0.011145201263184624 
-0.017994141445719116 
-0.0082172751988548960 
-0.019712918260897430 
0.0021412547148942844 
-0.012221297097123959 
0.011651993389295304 
-0.0012889688894268687 
0.0039385801522148280 
0.013591264152516496 
0.012766882608361774 
-0.012386698406253881 
0.012144182291881796 
0.018308614871958027 
0.0087888594505987640 
0.0074643443667793650 
-0.0049271248263312830 
-0.0010001122944767588 
0.0087467725541197100 
0.0032867495778724936 
-0.012611155369388673 
0.020148793929715424 
0.0072135285563619100 
0.028307076525831743 
-0.010583497867881162 
-0.0032248728206352136 
-0.0027668521358983605 
0.011863587526217918 
0.0035046292956185747 
0.0068331109200067960 
-0.0053220004714790320 
0.0011227783674633849 
0.013880473664158180 
-0.015472471831994865 
0.0014043035488877254 
-0.0030294255544952260 
-0.0080892826250066950 
-0.0089445398647861990 
-0.017049722119672928 
-0.010017313998387381 
-0.014899625361503816 
0.014468600224363803 
0.0028180409286250830 
0.015935685232839183 
-0.0095642973695762980 
0.014378093366351534 
0.0038071811357544510 
0.035461037235011574 
-0.00084927970285792960 
0.016883697605755320 
0.0071560924847846610 
-0.022416464952315050 
0.025889020748270854 
-0.024044952850674380 
0.0090035820422773410 
0.0049503169346255640 
0.014428076922945947 
0.013385204857149710 
0.010465552793510701 
-0.018346756788290598 
0.0061557532199370690 
0.040490437549006005 
-0.019310663525030930 
0.0057600404036027494 
-0.0088224761514997400 
-0.0035739362949734847 
0.022222052795323854 
-0.017608891826744046 
-0.020059901272692988 
-0.0077459722017399880 
-0.0099368175933706340 
0.018304614789930826 
0.0098471267068917530 
-0.0033035980739966517 
0.012818939631754053 
0.0080451259618617760 
0.0057334193561110790 
-0.011391361000068963 
-0.0088224761514997400 
0.047442967201208900 
-0.020230202700091755 
-0.019383978018564223 
0.016216027255232720 
0.014515680132997269 
0.0027012492700262637 
0.021197387302498870 
0.015974927984754285 
0.013839893276935659 
0.017625350318354303 
0.0093544456676529360 
-0.0059562870776797610 
0.0035377976993895104 
0.012862081573689654 
-0.0035873643574066316 
-0.025517252936216990 
-0.030040007878161825 
-0.0092479734764752200 
-0.0042093926493919910 
0.0098866322438994020 
0.019470397275546107 
0.0086835962135429780 
0.011767848926788081 
-0.035408972795174735 
0.00017435117837653640 
0.0035846292059303693 
-0.0020541617528284446 
-0.0052516631932897160 
0.010683321678702958 
0.0047602316751281860 
-0.0030707427608441707 
0.012522496528855304 
0.047615419732714790 
0.010891169607462958 
0.0091280888804476740 
0.0081122242891541950 
-0.018514320471804160 
0.035133727313661130 
-0.016761953592463665 
0.030403536031432530 
-0.013314108815281590 
0.015528316737959305 
0.011150231395146135 
-0.0093833614481112200 
-0.010634351514390300 
0.019312149301708433 
-0.010950674661725227 
0.0061538368177724120 
-0.0077459722017399880 
0.013890341036053707 
-0.0083141036881815550 
0.010138419491580019 
0.010558542114215296 
0.027120002951302380 
-0.024771964233156165 
-0.0063604385742846740 
0.0040703592768085170 
0.0081122242891541950 
-0.010483201826938985 
-0.013117534150246957 
0.013238095363163220 
0.0081122242891541950 
0.021628969856486435 
0.011766052600287067 
0.010532476668747246 
0.013612167773704335 
-0.023354160387329510 
0.0061679674590997830 
0.010738602061867622 
-0.023568777811965960 
0.019470602777310123 
0.0010444560612360941 
-0.0044571742961885870 
0.0039385801522148280 
-0.011317417781570771 
-0.016488735862649578 
-0.0068276958654172620 
0.0059322436378021080 
0.0011227783674633849 
-0.0086436931355544940 
-0.014668913999499364 
-0.020259633229954570 
0.013972972261363563 
0.010090163621043648 
-0.014837710632082080 
-0.012752881882424386 
0.010649473179800667 
0.0068938994152493395 
0.011964978644246540 
-0.0012343502283646108 
-0.028336745626108054 
0.0090482810973333100 
0.010185827009814049 
-0.0092572249719800760 
-0.0088845695278655530 
0.023878128552414356 
0.012769279959756210 
-0.0086485258475214550 
0.0010361040438946231 
0.0024785589746456670 
0.0068691224130408870 
-0.017585800308435748 
0.010104575213288332 
0.0073739197286413800 
0.0053039071528006770 
-0.011107056673795697 
0.0077662752883373140 
0.012037438803388518 
0.014171630950886444 
0.022142907869125400 
-0.0027348428582143070 
0.0038738439055382060 
-0.019383978018564223 
-0.015819685975421067 
0.0075201966479602890 
-0.028992260219681938 
0.020299867773921274 
-0.0085500791152202100 
0.0011053219161231730 
-0.0090692373464142780 
0.029511273448994717 
0.020954747168552158 
0.0087467725541197100 
0.014953392504411352 
0.011615444377847697 
-0.0031901792209675980 
-0.0066817198735439860 
0.0095846632676843330 
0.0016512866862206630 
0.021469413963705170 
0.0065562549424598010 
0.0055759542360211255 
0.0087467725541197100 
-0.024703500491282913 
0.011388456627770827 
0.017640020858261900 
0.032407506905511176 
-0.029506253994956166 
-0.0069457044301331070 
-0.011937357023545394 
0.018843351212882190 
0.012310323942377587 
-0.017307680246682830 
0.014882794389636245 
-0.018363759816308344 
-0.0085500791152202100 
-0.0090721552518027980 
0.010620208145116678 
-0.013823487557726992 
0.012652282197601065 
-0.012229622835987913 
0.0046336217950717394 
-0.0058518248583017490 
0.014205456465570523 
0.0087467725541197100 
0.0072135285563619100 
0.011930709067810054 
0.018231413269540853 
-0.0065010616383119250 
-0.0039440105439651230 
0.027933514547492890 
0.0074478902574741810 
-0.011956151934205914 
0.012250299324192403 
0.013805779603885458 
-0.018593274247896710 
0.0057498303302849710 
0.0044219202989638460 
-0.012631807620469455 
0.0070959530879346440 
0.021674768558788920 
-0.00034487624887597005 
-0.0074558928003737954 
0.0010440478777324702 
0.033744880926101180 
-0.012365666040445580 
-0.0021151534825627526 
0.021608671237363087 
0.0096816732741207350 
-0.018650063286810030 
-0.0096476544211588750 
-0.0065290528201326200 
0.0034834673757176303 
-0.0093506005317042260 
-0.0044696598529233060 
0.0083199329900042470 
0.0061636865195681180 
0.019810583009539940 
-0.0085500791152202100 
-0.012179279688803222 
0.0046598726199629330 
0.0029654622017756250 
-0.017426180237562507 
0.0084315157276995070 
0.020118429297827537 
-0.0074537029940364780 
-0.024799394112191580 
0.010391976994286742 
0.0072631333747171485 
0.011282070541742052 
-0.013833337784657156 
0.026717722632797022 
-0.014451558319034014 
0.0025531010114384850 
0.017889039564910940 
-0.0085986192228494820 
0.0092935604738834750 
0.0092822214547743640 
-0.020846697133680665 
-0.0077513292895955290 
-0.0044571742961885870 
-0.0085500791152202100 
-0.018100447128291584 
-0.0043285469897673030 
-0.028046631451488480 
-0.0061898027895940140 
-0.0058518248583017490 
-0.012443967586092838 
0.0091780149824348500 
0.017590150912686500 
0.014295485484768163 
-0.014302773046983360 
-0.010411363349975503 
-0.032053487640029396 
0.0087888594505987640 
-0.010458475873682316 
-0.010957361934102607 
0.0066859644545991370 
-0.0053846882779852750 
0.010359876563458967 
-0.016036658525395892 
-0.016174479166215738 
-0.034692450097445000 
-0.010957361934102607 
-0.0056450603614894130 
-0.034411523652523340 
0.0052792153492261930 
-0.0099692880532154390 
-0.0096242176551575380 
0.019184841683396375 
0.0073486771307480930 
0.00070613195269568860 
0.0038413085737692490 
-0.0049141708827595690 
0.020477321301955894 
0.0073591801403067030 
-0.011389699886049381 
-0.025630265145023454 
0.012903362256686871 
0.012154549667184742 
-0.013431891797087668 
0.010891169607462958 
-0.0063541110197326530 
-0.0036938067617233853 
0.011109460434484039 
0.0034838530322944690 
0.010141485046142111 
0.024561606031282110 
-0.0059680724568645720 
0.0025483336092516810 
-0.033049152597051726 
-0.0032248728206352136 
0.0065069867344292770 
-0.0065946391778312410 
0.014029019288136279 
-0.014161178535853683 
0.0081122242891541950 
-0.011693474643012505 
0.0082455659683763160 
-0.0077636362642890870 
-0.020439491685307017 
-0.0088024692500217470 
0.017542265290247425 
-0.0068349272136233730 
0.032644274152951040 
0.0048992912258121945 
0.016772923973483700 
-0.0015966659226155568 
0.013648498633396462 
-0.017970405263831460 
-0.0077459722017399880 
0.021158252793132385 
-0.013103136041543466 
0.0044878998804285940 
0.0092250852833132630 
-0.010302583943375384 
0.0072631333747171485 
0.0046376043178081710 
-0.0053220004714790320 
0.0036044047240372016 
0.0044256792471299670 
-0.013598409131600790 
0.019379622306133625 
-0.00052966916782925490 
0.011061361384298885 
0.0080873508908022000 
-0.0065520299944600420 
0.0022386398607217810 
-0.0032396562094769590 
-0.012093423470289844 
-0.0058518248583017490 
0.0052062111964679710 
0.0034834673757176303 
-0.015943615064626826 
-0.0048638689637741730 
-0.0068495839094330460 
0.0063745313486786150 
0.0068661414949914310 
0.022977462774275342 
-0.037323201342598936 
-0.0098240576161557120 
-0.031558432511445660 
-0.0017517303454027770 
-0.0037395748061098330 
0.0063508711912818180 
0.023079175881926190 
0.014953392504411352 
-0.0072129000528825500 
0.028153445062682705 
-0.011956151934205914 
0.00067367150710129260 
0.018816691906568532 
-0.0042593636010949090 
-0.0033749721399208840 
0.0031324025017106082 
-0.0046393979699073690 
0.018037956873195638 
-0.0062363302401459110 
0.011222498431900322 
0.010108381346714006 
0.010068915066705528 
0.012603249878371033 
0.016047190051835542 
0.0081299670648216640 
0.0027160163855207433 
-0.0086788182097507980 
-0.0041973773103865740 
0.014674579159025770 
0.012933761776275927 
-0.024947252480124680 
0.014454106930356366 
0.0058396262076739170 
0.0086835962135429780 
-0.019956699156278422 
-0.021453742755307193 
0.0060357019003433560 
-0.0095229715996670070 
0.00070613195269568860 
0.013756050941481444 
-0.035084557035335120 
-0.0032235770370365353 
0.0021821140528393264 
0.014462213752463673 
0.012494877492963153 
0.022031814832936845 
-0.011105001938031881 
-0.011558533803177734 
-0.018065346945559950 
-0.0018595162636303119 
0.014100896839873426 
-0.0092362073528520320 
-0.0020671026792687883 
-0.0085500791152202100 
0.013224152523731414 
0.012802762472114678 
-0.014817128587515441 
-0.0088224761514997400 
0.0096568201515566750 
-0.029860944473197550 
-0.0031754642254874300 
0.0062053823810405280 
-0.017994141445719116 
0.0022103309283753020 
-0.037323201342598936 
-0.013093875436968761 
-0.025691375261653400 
-0.021141151959406763 
-0.027007645159915425 
0.0017263960015409120 
0.0078982192719683870 
0.0076111753584613890 
-0.028073677307830590 
-0.014702840153834221 
0.011542654417173774 
-0.019931727191011186 
0.0077917280642454790 
0.012559075581832389 
0.017704459884710786 
0.026054858404277653 
-0.0065946391778312410 
0.0081122242891541950 
0.017625350318354303 
0.010891169607462958 
0.0062659511782179810 
0.0081122242891541950 
-0.0040598427394779430 
-0.00028146103082616095 
-0.0088224761514997400 
-0.011956151934205914 
-0.0032102592912577332 
-0.0034251994693447880 
0.014513511605186456 
-0.0085500791152202100 
-0.0024299302257210100 
0.031496138833514740 
-0.0065010616383119250 
-0.016504552046388198 
0.0084098539126720960 
-0.0025383845547322535 
-0.0055334251036139530 
0.012174275168244680 
0.013817074775970153 
-0.0044571742961885870 
-0.016144378931309298 
0.017271504311456052 
-0.022923858854959556 
0.011133710977018157 
0.0091280888804476740 
0.0084608952849942300 
-0.0037395748061098330 
-0.0055334251036139530 
0.0038701407556711520 
-0.0070243538263278590 
-0.010179178640736761 
-0.0085500791152202100 
-0.036465893337714834 
0.00040482237516183130 
0.0049863785386424830 
-0.011201813772482062 
-0.00047302139493806664 
-0.023387611588624097 
0.014631294324875005 
0.023658341437083688 
-0.0037395748061098330 
0.0080732080943958060 
0.0085135747734454230 
-0.0038180503673545846 
0.00024894234325866985 
-0.0077459722017399880 
0.016211302643628002 
0.0043787472320524110 
-0.0077714629750604710 
0.0092529963919828380 
-0.0033818204552218648 
-0.026188910628999203 
-0.0020541617528284446 
0.0096026869629631510 
0.010052663582418330 
0.014229269631714775 
-0.0046255253728040310 
-0.019432410515619204 
-0.0042242649343975230 
-0.0058278381285600860 
0.016673926578555643 
-0.0033224227551594830 
-0.010980615300772150 
-0.0021735815384986193 
0.024926266980733210 
0.0074115786867941635 
-0.015126031602452615 
0.011863587526217918 
0.0061636865195681180 
-0.012614829126508496 
0.0065462553056888830 
-0.012728244403900725 
-0.010915814150653897 
-0.013103281436341714 
0.00072513858027587910 
-0.0039032149297008783 
0.0096379311171499830 
-0.0066809692893906410 
0.0012014932783445435 
-0.012993240172583014 
-0.0058278381285600860 
0.014152157881999836 
-0.0014632547199055984 
0.0068756415908136200 
-0.0093706682083944380 
-0.0066458144940157130 
-0.010693689508234114 
0.016399880969169313 
-0.0012343502283646108 
-0.015795712255445567 
0.018498714562148084 
-0.00072125327437893880 
4.6201402708152750e-05 
0.0081122242891541950 
-0.0079012225237125400 
-0.016324334874899815 
-0.013240018147642618 
-0.0085340653237018000 
0.035057096529829720 
-0.014670031245194516 
-0.015819685975421067 
0.0031722565022564380 
0.0096222293390072840 
-0.0037395748061098330 
0.0042501081254331440 
-0.0077459722017399880 
-0.0010436019767065550 
-0.025975511845107133 
0.026717722632797022 
0.012600842559541931 
0.00029193068577795280 
-0.014066280270950136 
-0.013657319447688724 
-0.024673667932255335 
0.0065165091145850250 
0.0053550503453218930 
0.0021322961097941275 
0.0086327749176769440 
0.0061698514447836760 
-0.0074511155363561750 
-0.0063412205538119740 
-0.010957361934102607 
0.013077285579790297 
-0.0075802644343772010 
0.0052946929283285980 
0.0032039378770401757 
-0.018449601419439497 
0.018260594937292210 
0.018350920123716220 
-0.0045517801825659026 
0.021137674728393650 
0.0087467725541197100 
-0.0066012217577030260 
0.010683321678702958 
-0.0030520784808108600 
0.0030416977067284210 
0.0068886842895541790 
-0.0035553680519712144 
0.011072138381134085 
-0.016727154252123750 
-0.010302583943375384 
0.018861852657559500 
-0.0091689565841707800 
-0.0027824269897583450 
-0.018211754855330355 
0.020965868877664343 
0.0081829411666142750 
-0.0067215621593557010 
0.014082750507038280 
0.012860201771768750 
-0.0098022989334661840 
0.0047139911014503800 
-0.011269720100142594 
0.0095734931318109920 
0.016368328398126797 
-0.030651135214701690 
-6.8103145031774640e-05 
-0.0085500791152202100 
0.017407249598051476 
0.011395532887983518 
-0.019707912664558604 
-0.022166379878432976 
-0.0015913981946959253 
0.010209750295297727 
-0.024653701599403884 
0.0062795138180476250 
0.0073237658468728030 
0.0089209517091917090 
-0.017019028175211587 
0.013913142573618151 
-0.025501370760516118 
0.0073486771307480930 
0.038665526102512700 
0.0027880158001759260 
0.015347389624435190 
0.021300355726922713 
-0.025538435479287108 
-0.0012833089988264338 
-0.0064279749140443190 
-0.011601007221521490 
0.0087742498825792500 
0.0051061436555650110 
0.030260181676722080 
-0.022976659817608750 
-0.0050125411413609895 
-0.0058831353249951030 
0.019276812103548095 
0.0017775454477222262 
-0.013461476160226735 
0.015886708281345130 
0.00036404713462470680 
-0.011860888612300563 
-0.0054712865590629890 
0.0072925629890416950 
0.024140947291297700 
0.0071383540257496640 
-0.017078056311212085 
-0.017071485936568247 
-0.010168881383567172 
0.012250299324192403 
-0.0012685790499549967 
0.0032926690816397940 
0.0078060079550927855 
0.0068284121653214940 
0.015524025949679130 
-0.024673667932255335 
-0.0033095065907230246 
0.027323807279415210 
-0.014442853417013686 
0.0087467725541197100 
-0.020851669534990470 
0.011038242690732924 
-0.0085500791152202100 
0.0010540891434563941 
-0.019054537518580376 
0.010700764885770648 
0.0015852396095401946 
0.021757182306291204 
0.0048309709738646655 
0.0077662752883373140 
0.0072582656670374510 
0.012261516207511590 
0.0099443569620403650 
-0.0049975287991614950 
0.0054584383867469420 
-0.012085715852196794 
0.0065421238807998670 
0.0036435413363423604 
-0.0024295145485532880 
0.0043627035290840740 
-0.0030294255544952260 
-0.0038977593354653896 
0.021461650475330860 
-0.0099368175933706340 
-0.0088082369620259130 
-0.0083077994859062710 
-0.011233280733191056 
-0.0085523403450137870 
-0.017412319033320866 
0.0013387620843214418 
-0.0092790821546399320 
0.0060657803159366990 
-0.017970405263831460 
0.0069734981178849090 
-0.027439599547534510 
0.00072513858027587910 
0.0078474232238622700 
0.0060719737950611650 
0.012144182291881796 
-0.0058550435995270840 
-0.014576933451640075 
-0.013007956071911932 
0.024926266980733210 
-0.015251332944414785 
0.010302545819930167 
-0.0077459722017399880 
0.015492912050708114 
-0.0093082516236024270 
0.030305198888181818 
-0.030773993956625105 
-0.0042590114114798050 
0.024371876984475900 
0.072118280196431740 
0.0044012913704791200 
0.028656420650371817 
-0.018192261334516390 
0.0095094933754276850 
-0.0070388499297225740 
0.0062080332472203300 
0.010932987636185717 
0.021998087149964670 
-0.018286522399148682 
0.012061107483481246 
0.030603574063227240 
0.00039103995170325714 
-0.016688936906361165 
0.053354835462759220 
0.020150473914828493 
0.019421613693250416 
-0.010706743935067134 
-0.010024537970447526 
-0.020840654258135510 
0.010979937826667013 
0.012367069767307951 
0.014787778669458008 
0.013972721504573677 
-0.014360992118497723 
0.018714241138085768 
-0.020812053450264316 
-0.016366388131187080 
-0.048181446980709176 
0.026441475252806890 
0.0095765866390874650 
0.019244105461400367 
0.0011870653358685356 
0.014530069404336562 
0.022012061235970052 
0.0067631450231342030 
0.022449689341613170 
-0.019299763228023292 
0.0079404929558383000 
-0.0040383503300424480 
-0.012793262631068678 
0.020699824612120670 
0.0035275660792785657 
-0.034054908335047030 
0.019730945362096310 
0.014426364948345195 
-0.021674597550584290 
-0.0031954690951450683 
-0.020905221673037877 
0.022574933789596790 
0.010110576530742713 
0.016131471836289105 
-0.015700628141012272 
-0.020215423977055537 
-0.026536321231089212 
0.0015661105038609260 
0.0071097986506343980 
0.013196927376884621 
0.0084075699761118320 
0.018886523727414430 
-0.019243380550491036 
0.019804000922007470 
-0.022377124723128992 
0.0079948853403883050 
-0.017468448618339294 
-0.022180284556189804 
0.0074874415689586940 
0.0081732358688514810 
0.017323284790908697 
0.0092513454058566760 
0.023164885286786950 
0.019359608028753403 
0.012243501565172787 
-0.014055385130227725 
0.0051670004991917920 
0.050062215265350150 
0.018987870532868960 
0.0047966240642925980 
0.0026034500055669670 
-0.022983819013908760 
0.038719377277078780 
0.017219091915088100 
-0.021500801268624976 
-0.016464702200499906 
-0.022966514123147996 
-0.022067883421419597 
0.0015963466230343470 
-0.0054038781174334560 
0.029135497747208743 
0.015932188994683173 
-0.0041463898930241590 
-0.0085574696299166360 
0.020618674113638782 
-0.015727898522337310 
-0.017494945574429654 
0.014854678388542923 
0.017147008071129857 
0.025162234920461938 
-0.0054286325727106320 
0.014197063124343925 
0.0099787252438699400 
0.042456146898110920 
-0.0068244268265405300 
-0.019576858734507580 
-0.014280064945195268 
0.014934677852576001 
-0.014291336581736702 
0.00079106737279080340 
0.013035748388843122 
-0.0052091820793256150 
0.0056539074249687465 
0.00080857257765800010 
-0.00051227982257713220 
-0.017219429626741060 
-0.0084540005057008400 
0.016893069698790010 
0.020042032446113510 
-0.0072388759904300430 
-0.020448737369737630 
-0.0086748165337302620 
0.0085944910301093080 
-0.023242162291644110 
0.0044652884312053010 
-0.00084286590505473580 
-0.021306988401254840 
-0.020645277264910960 
-0.019849897836575790 
-0.036647639304491080 
0.020210403145494726 
0.017008712528453606 
-0.030883444009246990 
-0.0088164112219729170 
-0.037873899947292760 
-0.028174835283413300 
-0.020329041852402557 
0.0050070901705735410 
0.0075503071026944790 
0.032331726869768436 
-0.022715137541215326 
0.0069121160704162970 
0.031507213212733850 
0.014084438095902138 
0.018519699205133930 
-0.030298826513753974 
0.023065894983572813 
0.012798655810376630 
0.015946594631765117 
-0.0043260434819296870 
0.0089740801507355410 
-0.024473005264151013 
-0.023085274661891263 
0.040919632535299770 
-0.038894251049383585 
0.017515833108315400 
0.051831060080261480 
0.0078209425202322730 
0.030537140058610805 
-0.015818033150917350 
-0.035557590409248860 
-0.0048095613149161266 
0.034132292103507066 
-0.026452130144215270 
-0.034424060932367245 
-0.035120140008707490 
-0.00065035797652188990 
-0.024768222339599376 
-0.0073991280087702190 
-0.023767744168213360 
-0.0061783046290026930 
-0.016526536187585802 
0.039008954259035560 
0.015087896855509793 
0.015083341898808975 
-0.046576334471014270 
0.0096268131173018220 
0.017106502527801017 
-0.013178942529698841 
-0.0065016444587210000 
0.0028191747212418590 
0.019902053157312805 
0.019918011649771434 
-0.021940782749137976 
-0.039747566052449010 
0.0058517314825292640 
0.010851290114310942 
0.037330280081908224 
-0.020990900222539250 
0.023406745319773253 
0.020751057854557893 
-0.012479760166608442 
-0.019851247095424848 
-0.016108571923679305 
-0.026842173688636960 
-0.019545066720984090 
0.020249329423725076 
-0.059185080247060505 
0.0031965124080383747 
0.052682386595240000 
0.059267484670249615 
-0.020325055034749800 
-0.018187811015657418 
-0.0034656548650351820 
0.049638946191874040 
0.021237818075816150 
-0.012093992454997704 
0.0036584890557696784 
0.00029571661942062730 
-0.027049499999200453 
-0.0042622137711064685 
-0.0014974875079165585 
0.021379136805589043 
-0.054666866303430170 
0.026555065241645723 
-0.030083155582851222 
-0.025549138333150630 
0.012627957547783267 
-0.028987800935274165 
0.041645550638268865 
0.040063743154723386 
0.018257506754133804 
0.041553878182439790 
0.025717504105960246 
0.037942578516970506 
-0.019163015935118648 
-0.012274624703161142 
-0.016284029683275480 
0.0041858705874211420 
0.017264429411184792 
0.019904861437641080 
0.019575096430025685 
-0.010106464439712120 
0.0096952882413049100 
0.011226575151936223 
0.017966841878426475 
0.0013188811976008870 
-0.017275961115013786 
-0.028083363306748287 
0.051946898795309934 
-0.054720106699806770 
0.017332191246095335 
-0.0083174981329060760 
0.026399210662385250 
0.021824300465272787 
0.0034339499791930370 
0.011598883171780877 
0.021936226981884174 
-0.0069413633326082840 
-0.0051859520601925080 
-0.00079658320670822900 
-0.0089611465500318360 
-0.0022528532250777150 
-0.033830520662710740 
0.0063757634735986440 
0.026335509909640484 
0.028537174013450215 
0.028019579578128683 
0.0058193729339426870 
-0.010780720140036035 
0.012215708159782608 
-0.012113529754572704 
-0.0085293359489136580 
0.028490584606196390 
-0.012616693595908982 
-0.042781570569993390 
0.020517908547971416 
-0.031622396340643620 
0.0048677209964318370 
-0.014213701954618949 
-0.012697684996101799 
-0.0067321761920004480 
-0.010374992460926572 
0.050168889080324250 
-0.0078797820015519910 
-0.0074845555796881090 
-0.016390406219935063 
-0.013914666810118702 
0.010149740407561504 
0.024852383088837138 
0.021175606702792320 
-0.0089046854941716100 
0.011544606282867718 
-0.0034120401725605430 
0.028092422284108715 
0.0076116791738226210 
0.0079865134912543850 
-0.030222158949890093 
0.013576729103161093 
-0.00084637449666066400 
-0.0029132151888626207 
0.037795859393586956 
0.0033049310243996525 
0.0066319676406206875 
-0.013319715445982865 
-0.0086346361734997420 
0.013956418784157406 
0.011268003933910023 
0.019733515322388000 
0.017736587921139114 
0.024242200207331793 
-0.011510778651050308 
0.027469105244558530 
0.016197929176317970 
0.014903777914721111 
-0.040072753274211150 
-0.029013410173714760 
-0.020941956576317925 
-0.024158499754549062 
0.0016132810937867703 
0.0069834642933717770 
0.045554741020375320 
0.0031489519444297120 
0.031046235157164953 
-0.037467455647587100 
-0.0099891407808237010 
0.033430292261260236 
-0.0097672332631696580 
-0.0049621683579346640 
0.0035897645029004666 
0.0082599166850430460 
-0.035072395935853250 
0.018788160756022278 
0.043845390583870075 
0.013689215638817554 
-0.0068120054388012650 
-8.3440425928928900e-05 
0.023915109090571950 
0.051135379519464080 
-0.0027244952672172550 
0.020979859731852006 
0.022388286615094954 
-0.0083884135279573050 
-0.040979414821440255 
-0.011858822803950767 
-0.015065257107999023 
-0.012301331752543766 
-0.014620404031784964 
0.0051999826029228690 
0.015553875664587742 
-0.034424579228121310 
0.022365018100788663 
-0.028906820828686588 
-0.036541210644630660 
-0.012502166268720845 
0.013008009868069608 
0.013823605851451460 
-0.029863946716767670 
-0.011100102284807425 
0.022884879834570965 
0.0022381997842170340 
0.034782024254355070 
-0.022925251841322270 
0.0097367102045171300 
-0.018000928698014300 
0.014366722220589214 
0.0072994024607679920 
-0.013089866751495840 
0.072059564585998280 
0.017013180479687882 
0.028901475459474267 
-0.012227032118889765 
-0.00032743542753690960 
0.018761577713897474 
0.034588079276105490 
-0.020005674595377464 
-0.047371306632646960 
0.025910835143023140 
0.0068319409106298270 
0.030451905365909464 
0.024617090174205197 
0.037879838702551380 
-0.062044818469985410 
0.014883727651074000 
0.019000635605316460 
0.032504245918428590 
-0.010189416959556410 
-0.029143585737701705 
0.028341921779778940 
-0.014887956395111082 
-0.043354597266922694 
0.019843828293706206 
0.0042659418955736435 
0.038673880417174710 
-0.023318341528458842 
-0.017454683576186406 
-0.053450781037733965 
0.017921686931677760 
-0.0092345510565431040 
-0.010149838523652751 
-0.0098144471362857050 
0.027516837328247480 
-0.022147477342735470 
0.019019064331819030 
-0.034284054904733260 
-0.014893670390609444 
-0.012403976265374796 
0.021474694282884950 
-0.026759921642987830 
-0.022579157585843390 
-0.010706945861324542 
0.040846762119576940 
-0.013302286643700879 
0.037442582631353520 
0.024167598140646323 
-0.0038571537044586940 
0.013802510064326558 
-0.018280816102289023 
-0.0018925384362940573 
-0.027474967968962610 
-0.051967785520865590 
-0.017688500329703538 
0.031513504004736424 
0.022339303959950287 
-0.011373694961396535 
0.012193108445400011 
0.0078359439829605430 
0.014053596536902890 
-0.0038433980367844484 
0.020101109519489832 
0.0072171475031744060 
-0.013485956958341426 
-0.015242384417071434 
0.0072253878592415960 
0.0037855526774574760 
0.025359236413137327 
0.023684018401628287 
0.011303930796537635 
0.014576220321329015 
0.016961747110352348 
0.00051387671996857320 
0.025758024982576483 
-0.038292782116582230 
0.012250448530307982 
-0.022487765636954720 
-0.013126854265818232 
0.019982883074281223 
0.050847274956998860 
-0.011152582312546335 
-0.0053163993585355960 
0.0025707156329172320 
-0.0019409611855232220 
0.012938889684564896 
-0.0099928951466235780 
0.0061969788428040360 
-0.018469826496789760 
-0.0082642869445885960 
0.018348263414797790 
-0.0048025001815892450 
0.032162590464674990 
-0.0058051040064849460 
0.024996783108114790 
0.0069298115279599350 
-0.032081989854783010 
0.016703504904757072 
-0.011221270583038042 
0.022296055081405374 
-0.020164776191517467 
-0.0082488300733626900 
0.0063555045877741140 
0.0016255248269702158 
0.0012412619737273973 
0.017648965094983357 
0.0044026851602228670 
-0.017233823666009288 
-0.025981106239252760 
-0.0014567129905320557 
0.019095194583076548 
-0.014816110324359400 
0.020843989193469425 
0.012734067253216708 
0.0016941856083079270 
-0.012206756491736460 
0.0026685955755359450 
-0.0084617882175352930 
-0.0048698485062273296 
-0.00040651130843553310 
-0.0057390954230385540 
-0.010529297906727766 
0.044231154915713800 
0.018025989767088173 
0.0088165871393663540 
-0.0050058680630219660 
0.012737643616294755 
0.0071849719140647260 
-0.011876653861102893 
0.0068061613100873060 
-0.0033168973897635350 
0.0049338862013233330 
0.014498115876040774 
-0.0079044656086214630 
-0.016452251442401145 
-0.0045238956590192410 
-0.019319596608032008 
-0.016711108037551062 
-0.025213926679976153 
-0.0066238572496054250 
-0.0092175876103165900 
0.019099139801817218 
0.0030922939653070395 
0.0029304375665445990 
-0.016262110833588650 
0.010142519740162772 
-0.020831354909990070 
0.0045859214388050210 
0.012919297723412762 
-0.0048041559638763060 
-0.010621941839668452 
-0.014919854918387264 
0.0015005412422834325 
-0.00046098949129063020 
0.0076512131191326620 
0.013690152337783682 
-0.013438855579940252 
-0.0062257592695562640 
0.0072901615072461520 
0.011855384777352660 
-0.0073931523995032930 
0.0043745581183580190 
0.0035695028567215925 
0.0017583828636629926 
0.0018316189435281700 
-0.010220481949212745 
0.016933172936958063 
-0.0061720973834586915 
-0.0050878523831529516 
-0.023128190882531777 
0.010057907107354571 
-0.0074293115983740140 
-0.0088764645193219020 
-0.0021138586798662630 
0.0065943975882200490 
0.0029766305504572730 
-0.0066080888873556440 
-0.0016769167898723360 
0.0011711189243142337 
-0.0090193114111200670 
-0.0062046271092795514 
0.036043342795341900 
0.025733257377933083 
-0.0047707681363762460 
-0.011001783748173006 
-0.0033971801429112927 
0.00037879531299230045 
-0.0068684100289952380 
-0.017262457768231803 
0.0083584321084518210 
0.0041891685657441530 
0.011811523904711971 
0.034577260374726110 
0.0051263757217096990 
-0.0012611441724184540 
0.00022785741544904405 
-0.034337831405931780 
0.019931031832405615 
0.0057818553659731320 
-0.014044530458087059 
-0.0041488241587912640 
0.0027695805885933690 
0.0082089897639877060 
0.010218209418229022 
0.023006022497884325 
-0.0031312197042952378 
-0.011727893900291794 
-0.023992465306352198 
0.010093381062063244 
-0.0018848825816719598 
0.0088804405007025570 
0.012760801830733835 
-0.0030579716100369030 
0.0043244232296574850 
-0.0028143058573346870 
-0.022085738407492700 
0.014687484030995950 
0.0079259800806607120 
0.012906239954477308 
0.015201014090209130 
-0.014417744403136984 
0.0036247915683671568 
0.00062706639721116960 
0.0092625583103882160 
0.0023796863499530630 
0.013697873213347030 
0.0061741578255696970 
-0.020456510646475900 
-0.0055318988917468230 
-0.016788012176697113 
0.014156625194043985 
-0.016248198082903738 
-0.028372519357673508 
0.0082471177604891600 
0.0089655084802233500 
-0.0014191199063079475 
0.017461049691619518 
0.0092695733704675040 
-0.012431047120310837 
0.0073511847813804215 
0.014930438959312424 
0.012288099463953496 
0.0078677016263473590 
0.00037774485800071580 
0.013268425657416996 
-0.0011626021850610626 
-0.013710959064927428 
-0.019118053389859554 
-0.0033083789993821040 
0.0021704880910358515 
-0.015270858545948231 
0.0020229386280569634 
0.0093378380901887130 
0.016051205292764890 
0.010004111163545909 
0.016185331926650150 
-0.0050783244871163130 
0.0019934259178711637 
0.013864473176408036 
0.0053204944422424970 
0.0075320343300478890 
-0.012563022032346677 
-0.025152405376939864 
0.010258414495982374 
0.0073511847813804215 
0.020405019210728896 
-0.030221705236723868 
-0.0086929977779651810 
-0.0034310391019162660 
-0.00089890091163680580 
0.017635046892117270 
0.0062634993607758430 
-0.0047942432963446500 
0.0069022238522841920 
0.013131093516089373 
0.0070709692995217660 
0.0050120186166219990 
0.0065455078058730114 
-0.030418152077751528 
-0.0028036546767242457 
-0.0085659738680428680 
-0.0034898573643053150 
0.0072470757610795490 
-0.015215229754432404 
0.016670609905470080 
0.018403331213953380 
0.0079900267415148380 
0.0077370456706352220 
0.013757690776959944 
0.0037206327108324504 
-0.027575298455589740 
0.013921059529545842 
-0.016070022498059746 
-0.012789732639412589 
0.017735610856761088 
-0.011697291674922616 
0.016336237644945076 
0.017332181927259212 
-0.032176857140428276 
-0.023859678278862692 
0.012148409841134985 
0.013923955622815846 
0.0029193780247003666 
0.0042838142030002800 
0.0056368951949685720 
-0.020927234855820077 
0.0015730746492193175 
-0.011334842206941625 
-0.021197920952109223 
-0.018595978651218800 
-0.017152258498953980 
0.00016600955446340980 
-0.019145845864657913 
0.0029030463004074375 
-0.010557227522252199 
0.023190023843681630 
-0.012626878926095127 
-0.0013595712954676755 
0.0077467031071330570 
0.011944261646949587 
0.0024852234136704010 
-0.023526241689600360 
-0.0059219791816633800 
0.014475837937777682 
-0.013202299324487340 
0.020188530485643966 
-0.021159948048002784 
0.036039459012930110 
-0.00031883672939493500 
0.017682812855492060 
0.019839558779736095 
0.00025135515591095410 
-0.00045026521875355990 
-0.026405385212927894 
0.017481672563113303 
0.015399418416532110 
-0.027637837215511666 
0.030941742210129748 
-0.017870166223847305 
0.014461219891041543 
-0.0095873697183047770 
0.015909346164213762 
-0.0041309575111922830 
-0.013130216726494273 
0.00079150623751120600 
0.0099060108350861500 
-0.019562344822412390 
-0.013684260625166050 
-0.014332575886654047 
0.018403331213953380 
0.0014117206048972783 
0.0012569976638338765 
0.0091195368589055430 
-0.013097021992536088 
-0.0082334370870492360 
-0.0045389253606592050 
0.0060297292696703310 
-0.0058317909941621420 
0.012501702410334865 
0.010828291313262434 
0.0026374025810917442 
0.0036469462939139850 
0.0029008362525693970 
0.0064960494083693920 
0.0050148562861194530 
0.0032656599160524810 
0.0042067823023107500 
-0.0047844941374766260 
-0.0044158641290852250 
0.0091195368589055430 
-5.7682406368442270e-05 
0.0029008362525693970 
0.013810233202345968 
0.0037320029699894684 
0.0015490526486498180 
-0.0012019773480469592 
-0.0040756144671164050 
0.0030004190426544260 
-0.0012213191832228147 
0.00033523737303825263 
-0.0079786106891896430 
-0.020878405005871122 
-0.00085356727011796350 
-0.0021416566480674470 
-0.013097021992536088 
-0.0012004301360369447 
-0.010390659548692801 
-0.0054705015574465930 
-0.00020320501341517628 
0.0030174072527047813 
-0.00068285564088559630 
-0.0016773124777093490 
-5.7682406368442270e-05 
0.011324823286369749 
0.016298750706278207 
-0.0043538740550458910 
-0.0021416566480674470 
-0.00063788382377481980 
0.0026374025810917442 
0.0018263624505095730 
0.0062552926256545150 
-0.013097021992536088 
-0.0057559421028301670 
-0.0054046345356611285 
-0.010480957661936612 
0.011271147475240259 
0.0032513190697505260 
-0.0040756144671164050 
0.0032656599160524810 
0.0064123368304957980 
0.019305602373202415 
-0.0024888840575567680 
-0.0036977638451639850 
0.0042067823023107500 
0.0013062706216932965 
-0.0090711301608040530 
0.012064123077849483 
-0.0032777221224961216 
-0.0025994548878432817 
0.0070635603373807995 
-0.0057051687187967870 
-0.0012004301360369447 
-0.0078567419839218210 
-0.0081467476730872990 
-0.00068285564088559630 
-0.0058317909941621420 
0.017839669546080305 
-0.0021416566480674470 
0.0066158453250238060 
0.010828291313262434 
-0.0032777221224961216 
-0.013097021992536088 
0.0055182323833414280 
0.00097934389354018340 
-0.00068285564088559630 
0.0018339531840824497 
0.0018263624505095730 
0.0014683737259384244 
-0.0032777221224961216 
0.0064960494083693920 
-0.00068285564088559630 
0.0025354565010454375 
0.0053987772031996860 
0.0037320029699894684 
-0.0043538740550458910 
-0.0055830057498347015 
0.0050148562861194530 
0.0029008362525693970 
0.0062552926256545150 
0.00068903912398684510 
0.012064123077849483 
-0.0036977638451639850 
0.0032513190697505260 
-0.0025994548878432817 
-0.00052972273279076140 
0.011683454029440840 
-0.0012325442409266867 
0.0025354565010454375 
0.0066158453250238060 
0.011515552736749129 
-0.0036977638451639850 
0.0059319614891615935 
0.0093726682039999830 
-0.0032777221224961216 
0.0026560663636138830 
0.0014683737259384244 
-0.0062333983355076380 
0.012064123077849483 
-0.0081467476730872990 
0.011803647035657736 
0.0026061140945795986 
-0.0015565635629714997 
-0.0054705015574465930 
-0.0016773124777093490 
-0.0072731113348075230 
-0.0060540913857982034 
0.00033523737303825263 
0.0025354565010454375 
-0.0086045779643286750 
0.00034271412878944110 
-0.0064989953314478800 
0.011803647035657736 
0.0098532886949891700 
-0.0058317909941621420 
-0.028246870953554416 
0.0053987772031996860 
0.0053987772031996860 
0.017839669546080305 
0.0026560663636138830 
-0.0091814561771932600 
0.0087342603704427550 
-0.0016773124777093490 
0.0084417441279489480 
-0.0016773124777093490 
0.00072713689339920510 
0.0019400492624899810 
0.011683454029440840 
-0.0012004301360369447 
-0.0012004301360369447 
0.0026061140945795986 
-0.0051495714133532626 
0.0060297292696703310 
0.00080430206379355690 
0.0060297292696703310 
-0.010493319190831284 
0.0040056299845612600 
0.0019400492624899810 
0.0060297292696703310 
-0.00068285564088559630 
-0.0012213191832228147 
0.0025354565010454375 
-0.0097916575108373230 
-0.0052637217387873040 
-0.0012004301360369447 
0.0025354565010454375 
0.0053987772031996860 
-0.016476365319028567 
0.0064123368304957980 
-0.0082334370870492360 
0.013810233202345968 
-0.013580982570552045 
-0.0016773124777093490 
-0.0043538740550458910 
0.00080430206379355690 
0.016610321498399232 
0.0048506898545832980 
-0.0054046345356611285 
0.00026519533624131807 
-0.0069369071761013000 
-0.0047844941374766260 
-0.0015704137473119102 
0.0032513190697505260 
-0.0024184082528562590 
-0.0082334370870492360 
-0.0012213191832228147 
-0.014589697773168271 
0.0060297292696703310 
0.010472651343728835 
0.0043758149014355010 
-0.0044158641290852250 
0.00038084490959087110 
0.015215440612506839 
-0.0078567419839218210 
0.0013062706216932965 
-0.0045389253606592050 
0.015215440612506839 
-0.0040756144671164050 
-0.0045094935449457130 
0.0026061140945795986 
-0.0075325889034483180 
-0.013580982570552045 
0.011271147475240259 
-0.0036977638451639850 
0.011024127707139616 
0.00097934389354018340 
0.019305602373202415 
0.0026560663636138830 
0.0064123368304957980 
-0.012460501191684008 
0.0088287602094586670 
-0.0018268969291306144 
-0.019072903912875007 
-0.0045389253606592050 
-0.0054315560694563870 
0.0098532886949891700 
-0.0069369071761013000 
-0.0012019773480469592 
0.0032887260105418574 
-0.00085356727011796350 
-0.0031820307912975064 
0.0029008362525693970 
-0.0055830057498347015 
-0.0090711301608040530 
0.0018339531840824497 
0.0066158453250238060 
-0.010325330506026197 
0.0084417441279489480 
-0.0054705015574465930 
-0.0079786106891896430 
-0.0086045779643286750 
-0.00063788382377481980 
0.0078323599667110850 
-0.00068285564088559630 
-0.014945493927522160 
0.0013279230038334450 
-0.00063788382377481980 
0.00080430206379355690 
-0.016713541053597295 
0.0060399343310262015 
0.0087342603704427550 
0.017909338514572843 
0.0059319614891615935 
0.0078323599667110850 
-0.0084179977068248400 
-0.016476365319028567 
0.0062552926256545150 
0.0064123368304957980 
-0.00068285564088559630 
-0.011394222926518028 
0.016298750706278207 
-0.012460501191684008 
-0.015485621228534436 
-0.016126252282808253 
0.0015490526486498180 
0.0064960494083693920 
0.017909338514572843 
-0.012023228325539485 
-0.00068285564088559630 
-0.015468571395077900 
0.0012708352124249044 
-0.00068285564088559630 
-0.0016773124777093490 
-0.016476365319028567 
-0.0043538740550458910 
0.013653400992776019 
-0.0025994548878432817 
0.0029008362525693970 
-0.0084179977068248400 
-0.014589697773168271 
-0.016713541053597295 
-0.0015704137473119102 
-0.0025994548878432817 
-0.012161521104012613 
0.00072713689339920510 
-0.0079786106891896430 
0.0037193084748233940 
0.0026061140945795986 
-0.0044158641290852250 
0.0019400492624899810 
0.0090115999448348630 
0.0071435349456851050 
0.0050148562861194530 
-0.0044158641290852250 
0.016298750706278207 
0.0037193084748233940 
0.0037320029699894684 
-0.0057559421028301670 
-0.0081467476730872990 
-0.0079786106891896430 
0.0043758149014355010 
-0.0091814561771932600 
-0.0060540913857982034 
0.0055182323833414280 
0.0055182323833414280 
0.0050148562861194530 
-0.0085197325742252530 
0.00072713689339920510 
0.0032887260105418574 
-0.0032777221224961216 
0.011515552736749129 
0.00033523737303825263 
0.00033523737303825263 
0.00072713689339920510 
0.0019400492624899810 
0.0019400492624899810 
0.00026519533624131807 
0.0043758149014355010 
-0.0031820307912975064 
-0.0018631937802770918 
0.00068903912398684510 
0.0059319614891615935 
0.017839669546080305 
0.019422387302784817 
-0.0057051687187967870 
-0.0024183002193712165 
-0.0095981498684228270 
-0.011378056730518001 
0.0084417441279489480 
-0.0054046345356611285 
0.00034271412878944110 
0.0030174072527047813 
-0.0015704137473119102 
0.00072713689339920510 
0.0091195368589055430 
-0.0092765127105741050 
0.00034271412878944110 
0.0029008362525693970 
-0.0024183002193712165 
0.0060641938618718270 
-0.0016773124777093490 
0.00080430206379355690 
-0.0085969364342692430 
0.028290919883161313 
0.0015490526486498180 
0.00033523737303825263 
-0.0062333983355076380 
-0.015485621228534436 
-0.0055830057498347015 
-0.0036977638451639850 
-0.0054705015574465930 
0.0036469462939139850 
0.0040056299845612600 
0.0012708352124249044 
0.0012708352124249044 
-0.0062333983355076380 
0.010828291313262434 
-0.0030788668187357445 
-0.0015704137473119102 
0.0077440758045828790 
-0.0084179977068248400 
-0.0085197325742252530 
0.0053987772031996860 
0.00080430206379355690 
-0.00085356727011796350 
0.0077440758045828790 
0.0019400492624899810 
-5.7682406368442270e-05 
-0.0086385619500049160 
-0.00052972273279076140 
-0.0016773124777093490 
-0.012460501191684008 
-0.0098459282811061370 
-0.0057559421028301670 
0.00038084490959087110 
0.0085187453932505430 
-0.0051495714133532626 
0.0049891873515744920 
-0.0036977638451639850 
-0.0029046080365126800 
0.0013062706216932965 
0.0037320029699894684 
0.0012569976638338765 
-0.0095981498684228270 
0.0043758149014355010 
-0.0044158641290852250 
-0.012200614486589347 
0.0026374025810917442 
0.0087342603704427550 
0.0043758149014355010 
0.0091932427974042790 
0.0032887260105418574 
-0.0045094935449457130 
-0.015495210992233124 
0.010828291313262434 
-0.0018268969291306144 
-0.0018268969291306144 
0.0087342603704427550 
-0.00085356727011796350 
-0.0043538740550458910 
-0.0015704137473119102 
0.0025354565010454375 
-0.0045389253606592050 
0.0082202328775570870 
-0.026277097954093467 
0.0037320029699894684 
-0.020635659003650136 
0.0013279230038334450 
-0.0031820307912975064 
-0.0040756144671164050 
-0.0044158641290852250 
0.0030004190426544260 
-0.020878405005871122 
-0.00041347411374838337 
-0.00063788382377481980 
-0.0018268969291306144 
0.0064123368304957980 
-0.0092765127105741050 
-0.0090711301608040530 
-0.014589697773168271 
0.0012569976638338765 
0.0076488420745558080 
0.0099448918984610480 
-0.00020320501341517628 
-0.0012213191832228147 
0.0062552926256545150 
-0.019072903912875007 
-0.0090711301608040530 
-0.0015565635629714997 
0.011024127707139616 
0.0090115999448348630 
-0.0045094935449457130 
-0.014945493927522160 
-0.0064989953314478800 
-0.0081797538953509100 
0.0036055397136855907 
0.0064960494083693920 
0.010014448081622974 
-0.0081467476730872990 
0.0097802102186677260 
-0.0018268969291306144 
0.0050148562861194530 
-0.0016773124777093490 
0.00033523737303825263 
-0.0055830057498347015 
-0.0086045779643286750 
-0.0044158641290852250 
0.0012569976638338765 
0.0088287602094586670 
0.0018339531840824497 
0.0019400492624899810 
0.0014117206048972783 
0.0099448918984610480 
0.0029008362525693970 
0.0077440758045828790 
0.0018339531840824497 
0.019206340294825184 
0.011024127707139616 
0.019422387302784817 
-0.0072731113348075230 
0.013810233202345968 
0.0077440758045828790 
-0.0012213191832228147 
0.014351640186284393 
0.00080430206379355690 
-0.016126252282808253 
0.0015490526486498180 
-0.0062333983355076380 
0.0064123368304957980 
-0.0029046080365126800 
-0.010480957661936612 
-0.00063788382377481980 
-0.012023228325539485 
-0.014945493927522160 
0.0055182323833414280 
0.0060297292696703310 
-0.0018268969291306144 
0.0097802102186677260 
-0.0031820307912975064 
0.0029008362525693970 
0.0062933596742357090 
0.0032887260105418574 
-0.010747824947449970 
0.0048506898545832980 
-0.0015704137473119102 
0.0060297292696703310 
-0.0021416566480674470 
0.0040056299845612600 
-0.013580982570552045 
0.0040056299845612600 
0.0037320029699894684 
0.0029008362525693970 
0.00038084490959087110 
-0.0016773124777093490 
0.00034271412878944110 
-0.0016773124777093490 
0.0032656599160524810 
-0.015485621228534436 
-0.0018268969291306144 
0.0055182323833414280 
0.0032656599160524810 
0.0060297292696703310 
-0.0069369071761013000 
-0.0021416566480674470 
-0.0090711301608040530 
-0.015495210992233124 
-0.00085356727011796350 
-0.0086045779643286750 
-0.0086045779643286750 
-0.014945493927522160 
-0.0084413844767533270 
-0.0030788668187357445 
0.0071435349456851050 
-0.0058317909941621420 
0.00033523737303825263 
0.00026519533624131807 
0.016298750706278207 
0.0019400492624899810 
0.011024127707139616 
-0.010390659548692801 
0.013810233202345968 
-0.0055830057498347015 
-0.0055830057498347015 
-0.0036977638451639850 
0.0060641938618718270 
0.0060641938618718270 
0.0049891873515744920 
-0.0012213191832228147 
-0.0021416566480674470 
0.014351640186284393 
0.0029008362525693970 
0.0042067823023107500 
0.0014683737259384244 
0.0059319614891615935 
-0.0021416566480674470 
-0.0084413844767533270 
0.0087342603704427550 
-0.0016773124777093490 
0.025291422054326470 
0.0042067823023107500 
0.0014683737259384244 
-0.0057607899347686430 
0.0015490526486498180 
-0.00068285564088559630 
-0.0057051687187967870 
0.0013279230038334450 
-0.0044158641290852250 
0.015215440612506839 
-0.00085356727011796350 
-0.0015704137473119102 
0.0099448918984610480 
-0.0015704137473119102 
0.0042067823023107500 
-0.0070388442111299970 
0.0043758149014355010 
-0.016476365319028567 
0.016298750706278207 
-0.0018268969291306144 
-0.028246870953554416 
0.0029008362525693970 
0.012064123077849483 
0.0060641938618718270 
0.0062933596742357090 
0.00068903912398684510 
0.0062933596742357090 
0.00034271412878944110 
-0.016476365319028567 
0.0029008362525693970 
0.0070635603373807995 
-0.0060540913857982034 
0.0055182323833414280 
-0.0040756144671164050 
0.0032656599160524810 
0.0012708352124249044 
-0.0012019773480469592 
-0.0095981498684228270 
-0.010493319190831284 
-0.0095069295258002580 
-0.020267764434947266 
-0.0069369071761013000 
-0.0018631937802770918 
0.011271147475240259 
-0.013580982570552045 
-0.0036977638451639850 
-0.0064989953314478800 
-0.0036977638451639850 
-0.0043538740550458910 
-0.0044158641290852250 
0.0014117206048972783 
-0.00068285564088559630 
0.0084417441279489480 
-0.0021416566480674470 
0.0078323599667110850 
0.0088287602094586670 
0.00038084490959087110 
-0.014945493927522160 
0.00038084490959087110 
-0.0018631937802770918 
-0.0054046345356611285 
-0.011378056730518001 
0.00026519533624131807 
0.0060297292696703310 
-0.0018268969291306144 
0.0062933596742357090 
-0.0012213191832228147 
0.0091195368589055430 
-0.0072731113348075230 
0.0037320029699894684 
-0.0045389253606592050 
0.0029008362525693970 
-0.012023228325539485 
-0.0024888840575567680 
-0.0070388442111299970 
0.0032887260105418574 
0.00097934389354018340 
-0.010898838989572909 
0.0087342603704427550 
-0.0069369071761013000 
0.025291422054326470 
0.0055182323833414280 
0.0043758149014355010 
0.016298750706278207 
-0.0057607899347686430 
-0.015485621228534436 
0.0085187453932505430 
0.0029008362525693970 
0.0012569976638338765 
0.0019400492624899810 
-0.0043538740550458910 
-0.0070388442111299970 
0.0064123368304957980 
0.0025354565010454375 
0.0049891873515744920 
-0.0070388442111299970 
0.0030174072527047813 
-0.0097916575108373230 
-0.0043538740550458910 
0.0013062706216932965 
0.00034271412878944110 
-0.0021416566480674470 
0.012064123077849483 
0.0025354565010454375 
-0.011394222926518028 
0.0026374025810917442 
-0.0085197325742252530 
-0.0015704137473119102 
0.0030174072527047813 
-0.00052972273279076140 
-0.0081570894686968360 
0.014042048130540774 
0.025291422054326470 
0.014351640186284393 
-0.0070388442111299970 
0.0071435349456851050 
-0.010493319190831284 
-0.010390659548692801 
0.011515552736749129 
0.0085187453932505430 
0.0043758149014355010 
0.019422387302784817 
-0.014945493927522160 
0.0088287602094586670 
-0.0045389253606592050 
0.0025354565010454375 
0.011024127707139616 
0.0019400492624899810 
0.0032513190697505260 
0.0037320029699894684 
0.012865921102528197 
-0.0070388442111299970 
0.0026374025810917442 
-0.0012213191832228147 
-0.0032777221224961216 
0.0093726682039999830 
-0.0069369071761013000 
0.010828291313262434 
0.011515552736749129 
0.0013062706216932965 
0.0099448918984610480 
-0.0054705015574465930 
-0.0054705015574465930 
-0.0054705015574465930 
-0.0069369071761013000 
-0.0024888840575567680 
0.0088287602094586670 
0.0030174072527047813 
-0.011378056730518001 
0.0055182323833414280 
0.0033702279154454906 
-0.0016773124777093490 
0.00080430206379355690 
0.0015490526486498180 
0.0037193084748233940 
-0.0081467476730872990 
-0.0012004301360369447 
0.011024127707139616 
0.00080430206379355690 
-0.0055830057498347015 
0.0012569976638338765 
-0.0012004301360369447 
-0.0021416566480674470 
0.0085187453932505430 
-0.0032777221224961216 
-0.0043538740550458910 
0.0032656599160524810 
-0.0043538740550458910 
0.0014683737259384244 
-0.0018268969291306144 
0.0013062706216932965 
0.010828291313262434 
-0.0054705015574465930 
0.0053987772031996860 
0.0036055397136855907 
0.0048913579162085030 
0.00038084490959087110 
-0.0044158641290852250 
0.0055182323833414280 
-0.020267764434947266 
0.0050148562861194530 
0.0055182323833414280 
0.0019400492624899810 
0.0015490526486498180 
-0.0084179977068248400 
0.0089628271356273320 
0.0012569976638338765 
-0.013097021992536088 
0.0013279230038334450 
-0.0054315560694563870 
0.00034271412878944110 
0.0026560663636138830 
0.0090115999448348630 
0.0026061140945795986 
0.0030174072527047813 
-0.0055830057498347015 
0.019206340294825184 
-0.0052637217387873040 
-0.0012325442409266867 
0.028290919883161313 
0.0088287602094586670 
-0.0045389253606592050 
0.0088287602094586670 
-0.0043538740550458910 
0.0097802102186677260 
0.0026374025810917442 
0.0055182323833414280 
-0.0036977638451639850 
0.0026560663636138830 
-0.0055830057498347015 
-0.0069054883926767390 
0.0032887260105418574 
0.0037320029699894684 
0.00097934389354018340 
0.010014448081622974 
0.00033523737303825263 
-0.0069369071761013000 
0.0019400492624899810 
0.00033523737303825263 
-0.0012325442409266867 
-0.0018268969291306144 
0.0037320029699894684 
0.010828291313262434 
-0.0057559421028301670 
0.0043758149014355010 
-0.0098459282811061370 
0.0019400492624899810 
0.0049891873515744920 
-0.0015565635629714997 
0.0073477901207871870 
-0.0082334370870492360 
0.0025354565010454375 
0.0064123368304957980 
-0.0079786106891896430 
-0.015495210992233124 
-0.00068285564088559630 
-0.0045094935449457130 
-0.014589697773168271 
-0.0036977638451639850 
0.0084417441279489480 
-0.0043538740550458910 
0.011515552736749129 
-0.0079786106891896430 
0.0060641938618718270 
-0.0024888840575567680 
-0.0052637217387873040 
0.00038084490959087110 
0.0043758149014355010 
-0.0018631937802770918 
-0.0016773124777093490 
0.019305602373202415 
0.0055182323833414280 
-0.0018268969291306144 
-0.0029046080365126800 
-0.0072731113348075230 
0.0036469462939139850 
-0.0031820307912975064 
0.0043758149014355010 
-0.0018268969291306144 
-0.0037812420237488677 
-0.011378056730518001 
0.0077440758045828790 
-0.0054046345356611285 
-0.0015704137473119102 
-0.0018268969291306144 
0.0026374025810917442 
0.00097934389354018340 
0.025291422054326470 
-0.0018268969291306144 
-0.00085356727011796350 
0.0055182323833414280 
0.0012569976638338765 
-0.0090711301608040530 
0.0043758149014355010 
0.0064123368304957980 
-0.0029046080365126800 
-0.0057559421028301670 
0.0073477901207871870 
-0.0012325442409266867 
0.00072713689339920510 
0.0015490526486498180 
-0.0075325889034483180 
0.0073477901207871870 
0.0064960494083693920 
-0.010325330506026197 
0.0026374025810917442 
-0.0030788668187357445 
0.00097934389354018340 
-0.016126252282808253 
-0.0018268969291306144 
-0.0018268969291306144 
0.0084417441279489480 
-0.00063788382377481980 
0.0012708352124249044 
0.0055182323833414280 
-0.0047844941374766260 
0.0095469575693366700 
-0.0025994548878432817 
0.0026560663636138830 
0.0029008362525693970 
-0.0032777221224961216 
-0.00052972273279076140 
-0.015495210992233124 
0.0088287602094586670 
-0.0036977638451639850 
-0.0057051687187967870 
-0.00068285564088559630 
0.00038084490959087110 
-0.0084413844767533270 
-0.0037812420237488677 
-0.0054046345356611285 
0.0091195368589055430 
0.0030174072527047813 
0.019793775222523943 
-0.0043538740550458910 
0.0053410008813699580 
0.010014448081622974 
0.0037320029699894684 
0.0091195368589055430 
-0.0032777221224961216 
0.0091195368589055430 
-0.012460501191684008 
-0.0070388442111299970 
0.011271147475240259 
-0.00052972273279076140 
-0.0054705015574465930 
-0.014589697773168271 
0.012064123077849483 
-0.0016773124777093490 
0.0032887260105418574 
0.0029008362525693970 
0.0012708352124249044 
0.0032887260105418574 
-0.0016773124777093490 
-0.0037812420237488677 
-0.0084179977068248400 
-0.0058317909941621420 
0.0029008362525693970 
0.0025354565010454375 
-0.0058317909941621420 
0.0015490526486498180 
0.0059319614891615935 
-0.0058317909941621420 
0.019305602373202415 
-0.010493319190831284 
0.0029008362525693970 
0.0086610426197211050 
-0.0086045779643286750 
0.0062933596742357090 
0.010472651343728835 
-0.00085356727011796350 
-0.0045389253606592050 
0.015215440612506839 
-0.0098459282811061370 
-0.0024888840575567680 
0.011024127707139616 
0.00033523737303825263 
-0.0029046080365126800 
0.0026061140945795986 
0.0018339531840824497 
0.0043758149014355010 
-0.0044158641290852250 
-0.0057051687187967870 
0.00038084490959087110 
-0.00020320501341517628 
-0.0057051687187967870 
0.0085187453932505430 
0.0014683737259384244 
0.0036055397136855907 
-0.012023228325539485 
0.0084417441279489480 
-0.0043538740550458910 
-0.014589697773168271 
-0.0078567419839218210 
0.0088287602094586670 
0.0077440758045828790 
-0.00068285564088559630 
-0.0081570894686968360 
-0.0095981498684228270 
-0.0016773124777093490 
0.027049436923382230 
-0.0021416566480674470 
-0.0088980777728000210 
-5.7682406368442270e-05 
0.011024127707139616 
-0.019072903912875007 
0.0013279230038334450 
-0.012460501191684008 
0.0037320029699894684 
-0.0018631937802770918 
0.0013062706216932965 
-0.00068285564088559630 
-0.00041347411374838337 
-0.0079786106891896430 
0.00080430206379355690 
-0.0015565635629714997 
-0.0054705015574465930 
0.0018339531840824497 
-0.0047844941374766260 
0.0062552926256545150 
-0.0018631937802770918 
-0.0024183002193712165 
-0.0043538740550458910 
0.00080430206379355690 
0.0026560663636138830 
0.0086610426197211050 
0.0030174072527047813 
-0.0058317909941621420 
0.00033523737303825263 
0.0059319614891615935 
0.0037193084748233940 
0.025291422054326470 
0.016451126205088700 
0.011803647035657736 
0.00072713689339920510 
0.0059319614891615935 
0.0026374025810917442 
-0.020267764434947266 
0.00034271412878944110 
0.00034271412878944110 
0.0026061140945795986 
-0.010493319190831284 
-0.0045094935449457130 
-0.0025994548878432817 
0.0082202328775570870 
0.0089628271356273320 
0.0018339531840824497 
0.0018339531840824497 
0.0026374025810917442 
-0.0012325442409266867 
-0.0045094935449457130 
0.010828291313262434 
0.010472651343728835 
-0.0062333983355076380 
0.0032887260105418574 
-0.0070388442111299970 
-0.0043538740550458910 
0.00034271412878944110 
0.0030174072527047813 
0.0029008362525693970 
0.0053987772031996860 
-0.0024888840575567680 
-0.0029046080365126800 
-0.010898838989572909 
0.0042067823023107500 
-0.0069369071761013000 
0.0036469462939139850 
-0.00041347411374838337 
0.0071435349456851050 
0.015215440612506839 
-0.0024183002193712165 
0.0087342603704427550 
0.0043758149014355010 
-0.0086045779643286750 
-0.0070388442111299970 
0.00080430206379355690 
0.0053410008813699580 
-0.0064989953314478800 
-0.010480957661936612 
0.0019400492624899810 
0.0043758149014355010 
0.0015490526486498180 
0.0060399343310262015 
0.0037320029699894684 
0.0082202328775570870 
-0.0070388442111299970 
-0.028246870953554416 
0.0078955520373825620 
0.00038084490959087110 
0.00038084490959087110 
0.0098532886949891700 
0.0029008362525693970 
-0.00020320501341517628 
-0.0015704137473119102 
0.0091195368589055430 
-0.00020320501341517628 
-0.00041347411374838337 
-0.00041347411374838337 
-0.0043538740550458910 
-0.00085356727011796350 
-0.0095981498684228270 
0.0036469462939139850 
0.0026560663636138830 
0.0085187453932505430 
0.0073477901207871870 
0.00068903912398684510 
-0.0029046080365126800 
-0.0057607899347686430 
-0.0012213191832228147 
0.0026374025810917442 
-0.011378056730518001 
0.0048913579162085030 
0.0048913579162085030 
0.0048913579162085030 
0.0033702279154454906 
0.019305602373202415 
0.00026519533624131807 
-0.0081467476730872990 
0.0018263624505095730 
-0.0012213191832228147 
0.0013062706216932965 
-0.0021416566480674470 
0.0013279230038334450 
0.0032656599160524810 
0.0048506898545832980 
0.00080430206379355690 
0.0012569976638338765 
0.00038084490959087110 
-0.0057051687187967870 
-0.00085356727011796350 
-0.00068285564088559630 
0.0050148562861194530 
0.025291422054326470 
0.0013279230038334450 
-0.0081570894686968360 
0.00080430206379355690 
-0.015468571395077900 
0.0019400492624899810 
-0.0095069295258002580 
0.0013279230038334450 
-0.0082334370870492360 
0.013810233202345968 
0.0049891873515744920 
0.0091932427974042790 
-0.0095981498684228270 
0.0043758149014355010 
-0.0012213191832228147 
0.016451126205088700 
0.0049891873515744920 
-0.0012213191832228147 
-0.0012213191832228147 
-0.0044158641290852250 
-0.0060540913857982034 
0.0098532886949891700 
-0.0018268969291306144 
0.0091195368589055430 
0.0064123368304957980 
0.0048506898545832980 
-0.019351472067017934 
0.00033523737303825263 
0.00033523737303825263 
0.0066158453250238060 
-0.0097916575108373230 
0.011324823286369749 
-5.7682406368442270e-05 
0.0037320029699894684 
0.0018339531840824497 
-0.0054315560694563870 
0.025291422054326470 
0.019305602373202415 
0.0030174072527047813 
0.019422387302784817 
-0.00041347411374838337 
0.0030174072527047813 
-0.0043538740550458910 
-0.0090711301608040530 
0.00033523737303825263 
-0.0054705015574465930 
0.0091932427974042790 
0.0019400492624899810 
0.0025354565010454375 
0.0025354565010454375 
0.0088287602094586670 
-0.010480957661936612 
-5.7682406368442270e-05 
-0.015485621228534436 
-0.00041347411374838337 
0.0030174072527047813 
-0.0032777221224961216 
-0.0040756144671164050 
0.011803647035657736 
0.0029008362525693970 
-0.0055830057498347015 
0.0036055397136855907 
-0.010325330506026197 
0.00097934389354018340 
-0.0030788668187357445 
0.012865921102528197 
0.0060641938618718270 
0.0053987772031996860 
-0.010390659548692801 
0.013810233202345968 
0.017839669546080305 
0.014351640186284393 
0.0064123368304957980 
0.0087342603704427550 
-0.0012019773480469592 
-0.0057051687187967870 
0.0095484182198446020 
-0.012023228325539485 
-0.0012213191832228147 
0.0093726682039999830 
0.0042067823023107500 
-0.0055830057498347015 
0.0018339531840824497 
-0.012460501191684008 
-0.010390659548692801 
-0.0069369071761013000 
0.014351640186284393 
0.014351640186284393 
0.00080430206379355690 
-0.0012213191832228147 
0.0012569976638338765 
0.0030174072527047813 
-0.016713541053597295 
0.0091932427974042790 
0.0066158453250238060 
-0.00068285564088559630 
0.0053987772031996860 
0.0060297292696703310 
0.00080430206379355690 
-0.00085356727011796350 
0.0043758149014355010 
0.0071435349456851050 
-0.019351472067017934 
-0.0058317909941621420 
-0.00052972273279076140 
-0.00052972273279076140 
-0.010390659548692801 
0.0048913579162085030 
-0.0043538740550458910 
0.0019400492624899810 
-0.00085356727011796350 
0.0090115999448348630 
0.0018339531840824497 
-0.0015565635629714997 
0.0097802102186677260 
0.00038084490959087110 
-5.7682406368442270e-05 
-0.0072731113348075230 
0.0078955520373825620 
0.019793775222523943 
0.0053987772031996860 
-0.0024888840575567680 
0.0025354565010454375 
0.0030174072527047813 
0.0015490526486498180 
0.011271147475240259 
0.0036055397136855907 
0.0048913579162085030 
-0.0069369071761013000 
0.0012569976638338765 
-0.0058317909941621420 
0.0095484182198446020 
-0.0024888840575567680 
-0.0084413844767533270 
-0.0037812420237488677 
-0.0016773124777093490 
0.014042048130540774 
-0.0057559421028301670 
0.013653400992776019 
0.00072713689339920510 
0.0091195368589055430 
0.0064123368304957980 
0.0091195368589055430 
-0.0062333983355076380 
-0.0015565635629714997 
0.0086610426197211050 
0.0037320029699894684 
-0.00020320501341517628 
0.0037320029699894684 
-0.0081797538953509100 
-0.0012213191832228147 
-0.0012213191832228147 
-0.0043538740550458910 
0.0026560663636138830 
-0.0021416566480674470 
0.0087342603704427550 
-0.0084413844767533270 
0.0053987772031996860 
0.0036055397136855907 
0.00034271412878944110 
0.0043758149014355010 
0.0037320029699894684 
0.012865921102528197 
-0.0045094935449457130 
-0.011394222926518028 
-0.0095069295258002580 
-0.0016773124777093490 
0.0013062706216932965 
-0.00020320501341517628 
0.014042048130540774 
0.0064960494083693920 
0.0049891873515744920 
0.0089628271356273320 
-0.0015704137473119102 
-0.010493319190831284 
0.0025354565010454375 
0.0088287602094586670 
0.0013062706216932965 
-0.0072731113348075230 
0.0037320029699894684 
-0.00052972273279076140 
0.0099448918984610480 
-0.0081797538953509100 
0.0015490526486498180 
-0.0058317909941621420 
0.0018263624505095730 
-0.0045094935449457130 
0.00026519533624131807 
0.0037320029699894684 
0.0097802102186677260 
-0.015468571395077900 
0.00034271412878944110 
0.00034271412878944110 
0.0013279230038334450 
-0.0081797538953509100 
0.015215440612506839 
-0.010390659548692801 
0.013810233202345968 
0.0099448918984610480 
-0.0069369071761013000 
0.0093726682039999830 
-0.0054705015574465930 
-0.0044158641290852250 
-0.0069054883926767390 
-0.0086045779643286750 
0.0048506898545832980 
-0.0012213191832228147 
-0.0058317909941621420 
0.0037320029699894684 
0.014042048130540774 
0.0026374025810917442 
0.0087342603704427550 
-0.010480957661936612 
-0.019072903912875007 
-0.0081467476730872990 
0.011683454029440840 
0.0012569976638338765 
0.0064123368304957980 
-0.016126252282808253 
0.00038084490959087110 
0.00034271412878944110 
-5.7682406368442270e-05 
-0.010493319190831284 
-0.0060540913857982034 
0.0053410008813699580 
0.00026519533624131807 
0.0018339531840824497 
-0.0081797538953509100 
-0.0058317909941621420 
0.0014117206048972783 
-0.019351472067017934 
0.0078323599667110850 
0.0026374025810917442 
0.00026519533624131807 
0.0049891873515744920 
-0.0081797538953509100 
0.0055182323833414280 
0.0029008362525693970 
0.0060399343310262015 
0.0026061140945795986 
-0.0062333983355076380 
-0.010390659548692801 
0.0043758149014355010 
0.0064123368304957980 
0.0078323599667110850 
0.00033523737303825263 
0.0048506898545832980 
-0.010493319190831284 
-0.0057559421028301670 
0.0037193084748233940 
0.0037193084748233940 
-0.0045389253606592050 
-0.016476365319028567 
-0.0079786106891896430 
0.00034271412878944110 
0.011271147475240259 
-0.0012213191832228147 
0.00034271412878944110 
0.013653400992776019 
-0.0055830057498347015 
0.0070635603373807995 
-0.0070229171051449674 
0.016451126205088700 
0.017909338514572843 
0.0059319614891615935 
0.0019400492624899810 
-0.0055830057498347015 
0.0060641938618718270 
-0.0030788668187357445 
-0.0015704137473119102 
0.019793775222523943 
-0.0018268969291306144 
0.0030174072527047813 
-0.0047844941374766260 
-0.010325330506026197 
0.0026061140945795986 
-0.0018631937802770918 
0.0071435349456851050 
-0.0081797538953509100 
-0.011394222926518028 
0.0043758149014355010 
0.0084417441279489480 
0.0091195368589055430 
-0.016126252282808253 
0.0014117206048972783 
-0.0075325889034483180 
0.0042067823023107500 
-0.00063788382377481980 
0.0043758149014355010 
-0.0058317909941621420 
-0.0018631937802770918 
0.0026061140945795986 
-0.010480957661936612 
0.0088287602094586670 
0.016451126205088700 
-0.014589697773168271 
-0.00085356727011796350 
0.00072713689339920510 
0.0032513190697505260 
-0.0051495714133532626 
0.00033523737303825263 
0.010014448081622974 
-5.7682406368442270e-05 
-0.0012325442409266867 
0.0037320029699894684 
-0.0018631937802770918 
-0.0057559421028301670 
-0.0057559421028301670 
-0.0045389253606592050 
-0.0098459282811061370 
0.0037320029699894684 
0.012865921102528197 
0.0055182323833414280 
-0.0024183002193712165 
0.0043758149014355010 
0.0055182323833414280 
-0.0091814561771932600 
-0.0075325889034483180 
-0.0075325889034483180 
-0.0029046080365126800 
-0.010747824947449970 
-0.014589697773168271 
-0.010493319190831284 
-0.0047844941374766260 
-0.0075325889034483180 
-0.00020320501341517628 
-0.020635659003650136 
-0.00068285564088559630 
-0.0045094935449457130 
0.012501702410334865 
0.0053987772031996860 
0.050554922174016706 
0.00080430206379355690 
0.0026374025810917442 
0.0012708352124249044 
-0.0016773124777093490 
-0.0032777221224961216 
-0.00068285564088559630 
0.012064123077849483 
-0.0060540913857982034 
0.0059319614891615935 
0.0026061140945795986 
-0.0012213191832228147 
0.0073477901207871870 
-0.0082334370870492360 
-0.0043538740550458910 
0.0085187453932505430 
0.0037320029699894684 
0.016451126205088700 
0.0030004190426544260 
-0.0018268969291306144 
0.016298750706278207 
0.0042067823023107500 
-0.0045389253606592050 
0.0036055397136855907 
0.0012708352124249044 
-0.0090711301608040530 
0.0064960494083693920 
-0.00052972273279076140 
-5.7682406368442270e-05 
-0.0097916575108373230 
0.0048506898545832980 
0.0013062706216932965 
-0.028246870953554416 
-0.016126252282808253 
0.014351640186284393 
0.012064123077849483 
0.0048506898545832980 
-0.0058317909941621420 
0.0073477901207871870 
0.0030174072527047813 
0.0030174072527047813 
0.0077440758045828790 
0.0060399343310262015 
0.013653400992776019 
-0.0045389253606592050 
-0.012460501191684008 
0.0091195368589055430 
0.0042067823023107500 
0.0019400492624899810 
0.0053987772031996860 
-0.0072731113348075230 
-0.0051495714133532626 
-0.015468571395077900 
-0.0075325889034483180 
0.0012708352124249044 
0.010472651343728835 
0.0029008362525693970 
0.0048913579162085030 
-0.0032777221224961216 
0.0087342603704427550 
0.00072713689339920510 
-0.0084179977068248400 
0.0055182323833414280 
-0.012200614486589347 
0.0015490526486498180 
0.0088287602094586670 
-0.0024888840575567680 
0.0013279230038334450 
0.0053987772031996860 
0.011515552736749129 
-0.0084413844767533270 
-0.016126252282808253 
0.0073477901207871870 
0.0088287602094586670 
-0.011394222926518028 
0.0018339531840824497 
0.0029008362525693970 
-0.0012213191832228147 
0.0026061140945795986 
-0.0024184082528562590 
-0.0030788668187357445 
-0.0051495714133532626 
0.0026374025810917442 
-0.0012004301360369447 
-0.0032777221224961216 
0.0025354565010454375 
0.0066158453250238060 
0.0095484182198446020 
0.0066158453250238060 
0.013653400992776019 
-0.0012213191832228147 
0.0025354565010454375 
-0.0081467476730872990 
0.0086610426197211050 
0.0078323599667110850 
0.0029008362525693970 
0.0026061140945795986 
0.0029008362525693970 
0.012064123077849483 
-0.0030788668187357445 
0.0013279230038334450 
-0.0018268969291306144 
-0.0092765127105741050 
0.00068903912398684510 
0.0018263624505095730 
0.0029008362525693970 
-0.010390659548692801 
0.0026374025810917442 
0.0062552926256545150 
-0.015468571395077900 
0.0026560663636138830 
0.0076488420745558080 
-0.0057607899347686430 
-0.0018268969291306144 
0.0015490526486498180 
0.0013062706216932965 
0.0060297292696703310 
0.0029008362525693970 
-0.0055830057498347015 
0.027049436923382230 
-0.00063788382377481980 
0.0037193084748233940 
-0.028246870953554416 
-0.0044158641290852250 
-0.0036977638451639850 
0.0060399343310262015 
0.0090115999448348630 
0.0064123368304957980 
0.00026519533624131807 
0.0025354565010454375 
-0.0018268969291306144 
-0.0052637217387873040 
0.0036055397136855907 
0.0042067823023107500 
0.0048506898545832980 
-0.012161521104012613 
0.0070635603373807995 
0.0071435349456851050 
-0.0097916575108373230 
-0.0032777221224961216 
-5.7682406368442270e-05 
-0.0057559421028301670 
0.0064960494083693920 
-0.0069369071761013000 
0.0030004190426544260 
0.0029008362525693970 
-0.0054315560694563870 
0.0025354565010454375 
-0.014589697773168271 
-0.0084179977068248400 
-0.012460501191684008 
0.0087342603704427550 
-0.0032777221224961216 
-0.0078567419839218210 
-0.0030788668187357445 
-0.0015565635629714997 
0.00072713689339920510 
-0.0021416566480674470 
-0.012460501191684008 
-0.014945493927522160 
0.0043758149014355010 
0.0059319614891615935 
0.0064123368304957980 
0.00072713689339920510 
-0.00020320501341517628 
0.0090115999448348630 
-0.0051495714133532626 
-0.0015565635629714997 
-0.0030788668187357445 
0.0048506898545832980 
0.0055182323833414280 
0.011683454029440840 
0.0062552926256545150 
-0.00068285564088559630 
-0.015485621228534436 
-0.0069369071761013000 
-0.010493319190831284 
0.0064123368304957980 
0.0032513190697505260 
-0.010325330506026197 
-0.0058317909941621420 
0.0087342603704427550 
-0.00063788382377481980 
-0.00041347411374838337 
0.0036055397136855907 
-0.00068285564088559630 
0.015215440612506839 
-0.00063788382377481980 
-0.0045389253606592050 
-0.0032777221224961216 
0.0018263624505095730 
0.0029008362525693970 
-0.028246870953554416 
0.0049891873515744920 
-0.0082334370870492360 
-0.0024183002193712165 
-0.0018631937802770918 
0.0043758149014355010 
-0.0018268969291306144 
-0.0012004301360369447 
0.010828291313262434 
0.0043758149014355010 
0.0029008362525693970 
-0.014589697773168271 
0.0078323599667110850 
-0.016476365319028567 
-0.0095981498684228270 
-0.0069369071761013000 
-0.0045094935449457130 
0.0043758149014355010 
-0.00063788382377481980 
0.0019400492624899810 
0.0078323599667110850 
-0.0012004301360369447 
-0.00063788382377481980 
0.0050148562861194530 
-0.014945493927522160 
0.0029008362525693970 
0.0098532886949891700 
-0.0075694533336084170 
0.0037320029699894684 
0.0070635603373807995 
-0.0082334370870492360 
-0.0079786106891896430 
-0.0037812420237488677 
0.0019400492624899810 
-0.0044158641290852250 
-0.0016773124777093490 
0.0048913579162085030 
0.0026560663636138830 
0.0099448918984610480 
-0.0030788668187357445 
-0.0057051687187967870 
0.0029008362525693970 
0.013810233202345968 
0.0026560663636138830 
-0.0012213191832228147 
0.0078955520373825620 
-0.0086045779643286750 
0.00034271412878944110 
0.00034271412878944110 
0.011803647035657736 
0.0026061140945795986 
-0.0015704137473119102 
0.016451126205088700 
0.0037193084748233940 
-0.012161521104012613 
-0.0024888840575567680 
0.00033523737303825263 
-0.026277097954093467 
0.00034271412878944110 
-0.019072903912875007 
-0.0054315560694563870 
0.0053410008813699580 
0.027049436923382230 
-0.00063788382377481980 
0.0049891873515744920 
0.0033702279154454906 
0.0025354565010454375 
-0.00085356727011796350 
-0.0018631937802770918 
-0.0055830057498347015 
-0.0057051687187967870 
-0.0079786106891896430 
0.0060399343310262015 
-0.011378056730518001 
-0.0024184082528562590 
-0.0085197325742252530 
0.0091195368589055430 
-0.0091814561771932600 
-0.0091814561771932600 
0.0026061140945795986 
-5.7682406368442270e-05 
-0.0018631937802770918 
-0.0045094935449457130 
-0.0043538740550458910 
0.0012708352124249044 
0.0019400492624899810 
-0.0079786106891896430 
-0.012023228325539485 
0.00034271412878944110 
-0.0016773124777093490 
0.0037320029699894684 
0.019422387302784817 
0.0060297292696703310 
0.0040056299845612600 
0.0043758149014355010 
-0.0075325889034483180 
-0.0018631937802770918 
-0.0095069295258002580 
0.00038084490959087110 
0.012064123077849483 
-0.0084179977068248400 
-0.0057051687187967870 
0.0026061140945795986 
0.0060297292696703310 
0.00080430206379355690 
-0.0057559421028301670 
0.0018339531840824497 
0.0019400492624899810 
-0.0054046345356611285 
-0.0032777221224961216 
-0.0016773124777093490 
-0.00020320501341517628 
0.0093726682039999830 
0.0014683737259384244 
0.0064123368304957980 
0.0076488420745558080 
-0.00085356727011796350 
-0.0081570894686968360 
-0.019072903912875007 
-0.011394222926518028 
-0.0091814561771932600 
-0.014589697773168271 
0.0099448918984610480 
0.00034271412878944110 
0.0036469462939139850 
-0.00068285564088559630 
-0.0012004301360369447 
0.0030174072527047813 
-0.0045094935449457130 
-0.0015704137473119102 
-0.0070388442111299970 
-0.0070229171051449674 
0.029021204339403760 
-0.0060540913857982034 
0.0036469462939139850 
-0.0024888840575567680 
-0.0072731113348075230 
-0.0030788668187357445 
0.014351640186284393 
0.0037193084748233940 
-0.0024888840575567680 
0.0029008362525693970 
-0.0070388442111299970 
-0.00052972273279076140 
0.017909338514572843 
-0.0012325442409266867 
-0.0031820307912975064 
-0.0040756144671164050 
-0.0012325442409266867 
-0.0084413844767533270 
0.0019400492624899810 
0.0029008362525693970 
0.0037193084748233940 
0.0030004190426544260 
-0.010493319190831284 
0.0032656599160524810 
-0.0047844941374766260 
-0.0012004301360369447 
0.0042067823023107500 
0.0025354565010454375 
0.0071435349456851050 
0.0026374025810917442 
0.0098532886949891700 
0.0098532886949891700 
0.0012569976638338765 
-0.0069369071761013000 
0.011515552736749129 
-0.011378056730518001 
0.0037320029699894684 
-0.0047844941374766260 
-0.010325330506026197 
-0.0032777221224961216 
-0.0040756144671164050 
-0.0075325889034483180 
0.0030004190426544260 
-0.00063788382377481980 
-0.019072903912875007 
-0.0082334370870492360 
-5.7682406368442270e-05 
-0.010390659548692801 
-5.7682406368442270e-05 
0.010014448081622974 
0.0053987772031996860 
-0.0085969364342692430 
-0.019072903912875007 
0.0066158453250238060 
-0.0012325442409266867 
0.0043758149014355010 
0.0060297292696703310 
0.0040056299845612600 
0.0062552926256545150 
-0.0070388442111299970 
0.00068903912398684510 
-0.0081467476730872990 
0.0026374025810917442 
